3410 10
daiin -0.00017236 1.0781 -0.79135 -0.24117 -1.9656 -0.52054 0.0065517 1.9183 -0.53346 1.7486 
ol -0.90291 -3.0151 -6.7685 0.01185 3.4346 -5.1938 2.6434 -5.2748 1.6219 3.1811 
chedy 0.21479 -3.6515 1.9299 2.8009 1.5823 -0.10431 0.68695 -7.0241 2.3766 -2.0457 
shedy 0.83346 -2.0696 1.0139 2.9698 3.2647 -2.0744 1.7131 -6.6423 5.2773 0.63255 
aiin 0.39896 -1.6915 -0.32612 -1.1523 0.99938 2.1806 -0.98049 0.43396 -2.8055 -3.0335 
chol -0.41679 2.2654 -4.2477 -2.6549 -3.9707 -1.3585 -1.1926 4.3958 -2.2839 4.7831 
chey -0.33088 -3.1682 -0.36334 -1.2073 0.73073 -1.5636 -0.5577 -2.8333 -1.8192 2.3557 
or -0.74582 -2.5144 -4.952 -2.0172 1.1467 1.5007 1.3699 0.056407 -0.67566 -5.7683 
ar -1.1652 -3.7961 1.2053 -1.0382 6.2218 2.6326 -0.42281 0.97132 -1.4956 -11.4 
qokeedy 0.95235 -3.513 1.9208 3.9766 0.5375 -0.046195 0.71475 -8.1572 0.49442 0.71488 
qokaiin 0.54138 -3.2298 0.56208 1.2826 0.78582 -3.288 0.26817 -2.0786 0.098318 -1.6779 
dar -2.6256 2.9773 -2.3278 0.33271 1.0606 -0.29709 0.17524 1.3488 3.3658 -1.2252 
qokeey 0.75228 -3.082 1.0923 2.3549 0.7008 -0.039815 -0.40307 -5.7549 -3.2406 2.4489 
qokedy 0.33943 -1.5663 1.7355 4.4853 0.51749 -1.0509 0.027557 -8.1179 4.5538 0.38103 
shey 1.1916 -2.0167 -0.69642 0.078118 3.296 -2.5223 2.1318 -1.8989 -0.2184 3.5236 
dy -3.0878 5.4237 -1.308 0.76405 -1.1076 -2.3711 0.38933 0.96099 8.0417 4.2643 
dal -2.1677 3.4283 -1.7161 3.3858 2.4323 -1.6997 1.3643 1.1516 0.5645 0.51271 
s -1.3023 4.2914 -8.4841 -8.4112 -0.39514 1.7787 -5.936 8.3764 -6.7456 6.0195 
al -2.7683 -5.6121 1.54 -2.4955 6.7291 3.8659 -2.7066 -1.9802 -7.7815 -6.385 
okaiin 0.47245 -1.8226 -1.0708 0.062515 1.614 -2.0513 -0.81166 0.31149 -1.2011 -2.6831 
chor 1.1009 1.7341 -4.8806 -4.4164 -5.9589 -2.3992 -0.21526 7.2664 -2.0872 5.4368 
qokal -0.70628 -1.4311 -1.6785 2.7857 2.5461 -4.2706 0.77765 -3.7769 2.1714 -0.38556 
shol 0.62035 2.4308 -0.5464 -0.050273 -1.5237 -3.7627 0.81938 4.3453 1.6208 3.832 
y -3.5622 1.8863 -5.9319 -3.7942 3.8312 -2.903 -5.7818 0.14481 4.4581 -2.1115 
</s> -0.29864 -1.293 -5.6257 -1.9218 0.17146 -1.3467 -1.7056 4.2327 -3.5187 -9.9414 
cheey 1.1759 -2.9909 -0.55142 -0.32285 -0.77735 0.41601 -0.2155 -2.2853 -3.5808 1.1618 
okeey -0.92528 -1.7785 -1.5365 1.7525 2.7826 2.0579 -0.0022964 -3.2341 -6.1049 -0.075642 
qol -1.1146 -7.2588 -8.2179 3.3873 4.1613 -9.1491 6.2758 -12.728 3.1767 5.0517 
otaiin -0.12207 -2.1273 2.0921 -0.7481 0.3554 -0.5649 -0.7711 1.031 -0.51478 -3.0302 
cheol 0.79604 -1.3973 -1.3836 1.0115 -0.55204 -0.30717 0.40413 -1.1983 -4.547 2.352 
otedy -0.28064 0.99245 3.4612 4.3697 1.6008 3.8263 0.86232 -5.1828 4.3618 -1.9078 
qokar 0.89977 -2.1105 -0.19119 1.5207 1.5622 -2.7973 0.7452 -2.3951 3.9172 -3.3839 
chy 0.09794 2.1638 -2.897 -5.1716 -5.9269 -3.2118 -3.8581 3.9624 3.7721 5.5041 
qoky 2.1425 -1.428 -2.1066 1.0733 0.18755 -4.2711 0.68444 -3.2631 3.6132 2.4194 
okal -1.6831 0.22616 -2.512 0.051764 3.7257 0.20401 -2.2111 -0.11752 0.10558 -5.0309 
sheey 1.6991 -2.012 -0.04702 0.52082 0.65574 -0.8662 0.82997 -0.72246 -3.7037 2.3534 
chdy 0.38145 0.80037 0.29626 2.0094 1.345 0.0079602 -1.0639 -2.4094 6.3866 -4.3101 
chckhy -0.90141 -1.842 -1.4487 -0.66653 0.7216 -2.4671 -1.4277 -2.1784 1.8121 -1.3078 
otar -1.3766 0.021033 -0.030063 1.4042 3.1547 0.62343 -0.12874 -0.22427 2.2049 -6.2226 
saiin -0.22729 -1.8739 -0.27601 -0.36976 0.64134 0.50042 -1.4764 -2.0311 -1.8527 -0.6943 
otal 0.25483 -0.5941 1.3859 1.0147 4.8746 -1.2198 -2.3938 0.29905 0.54165 -4.6969 
qokain -0.74161 -3.2998 -0.25898 1.6977 3.3346 -5.0606 0.46718 -5.4158 2.9163 0.56529 
oteey -0.55337 -1.4344 0.84478 -0.022738 3.1418 4.3155 1.0503 -1.9605 -3.7334 -0.065423 
okar -0.36012 0.1593 -2.1283 -0.33168 1.9849 0.88885 -2.7771 -0.073359 2.7502 -7.2069 
okedy -1.8201 0.8509 0.49257 3.6994 3.0296 2.4683 -1.985 -7.5454 3.3488 -0.99971 
sho -0.76705 3.4358 1.299 -2.1995 -10.013 -1.6192 -1.2803 8.0591 -2.9029 8.1177 
dain -0.52648 1.9468 -2.0447 -1.4279 -0.86245 -2.2353 -1.7755 1.3586 1.2183 3.9135 
qokai!n 1.1001 -5.6354 -1.0474 1.1361 2.932 -5.4481 0.68343 -5.9591 1.1401 0.033027 
oty -2.1387 4.0304 -0.13421 -0.59816 2.9623 -2.4796 -0.59928 4.2009 5.0712 0.2059 
r -0.93987 -2.7989 -4.2655 -7.0977 0.1883 -2.2949 -7.0555 -2.8056 -4.8828 9.3011 
lchedy 1.0713 -6.1923 3.4737 2.3248 1.7818 -2.2189 0.91249 -8.3535 0.69956 0.9731 
okeedy -1.1951 -2.3976 1.6183 2.071 3.0556 2.4623 -1.161 -6.6114 -0.2562 -1.9907 
dol -2.9946 6.3415 -4.7707 4.5235 -5.1415 -1.6056 -0.23181 -1.0875 0.81326 7.1008 
qokey -1.1802 -0.80139 -2.4658 2.8702 4.0007 -0.5833 0.98635 -4.9617 -2.0075 1.9253 
cthy 0.68975 2.8677 -4.5346 -3.9026 -5.6905 -4.87 -1.4192 8.1355 0.38523 5.0989 
sheol -0.019256 -0.62866 -2.6953 2.9105 -0.37715 -1.716 3.9539 -1.2357 -2.6319 2.6931 
qotedy 0.035105 0.386 3.283 5.7589 -0.1462 1.3668 2.9807 -7.0471 5.2327 1.955 
o -2.818 0.3287 -0.018957 -9.8242 4.5231 6.8973 -5.9026 2.7797 -3.7764 2.9126 
dair -0.22363 1.9503 2.2864 -0.012669 -0.13175 3.2353 0.18395 3.2389 -0.17419 -1.4911 
qokol 0.96737 1.9736 -3.9415 2.7312 -1.8743 -1.6022 1.5389 -0.27631 1.7518 0.7214 
l -1.9769 -9.2302 4.1208 -3.6631 3.7584 -2.265 -3.3717 -7.9541 -6.8557 5.5206 
shor 2.8081 1.8849 -0.14466 -1.4693 -2.1039 -3.1649 2.9943 8.4357 0.47219 3.4402 
shy 2.0843 1.9793 -1.9834 -2.8229 -2.8002 -5.4331 1.8686 4.5086 5.9415 6.9534 
oteedy -0.30762 -2.5903 2.5012 2.3781 1.4216 3.0284 1.5062 -4.8523 -0.36143 -2.1899 
oky -2.6155 3.2856 -3.3847 -0.43347 2.5595 -1.5898 -0.00083058 4.3383 1.59 -1.9116 
cheor 0.77453 -0.56903 -3.3283 -1.8852 -1.6623 1.9564 1.0746 1.9721 -5.2501 2.3269 
dam -0.69726 6.4238 -1.1532 3.1705 -1.1422 1.9129 -1.8496 3.4452 1.6425 -1.3676 
chody -0.26302 4.0083 0.038688 0.5973 -3.2481 1.8354 -2.6049 4.0941 -0.6871 -0.46537 
qotaiin 2.6337 -2.7471 3.2302 1.295 -2.5277 -0.96664 -0.13902 -1.528 0.85356 -1.1036 
qoty 1.122 -0.66781 2.6101 2.175 -4.4977 -5.3298 1.3536 -0.9187 4.2771 3.9226 
sheedy 2.6748 -3.4703 1.8641 4.3249 0.87935 -0.86123 2.1845 -6.0276 1.6703 -1.3695 
am 0.6366 -2.8113 4.4124 -3.3946 5.9739 5.7141 -0.81291 1.9898 -0.38444 -7.6108 
kaiin 2.9508 -2.3805 -0.35503 -0.63572 0.64265 -3.0121 -1.3772 0.87583 0.39041 -2.4303 
cheody 2.1134 1.1675 1.9513 2.7709 -2.1825 3.6392 -0.45576 2.0313 -4.9596 -0.9871 
otol -1.3742 4.5576 -0.7252 0.71439 -0.0020922 0.58956 -1.0076 3.5589 1.5568 0.27814 
chcthy -1.6214 -1.2911 -0.12859 -0.22216 0.2569 -3.1536 -0.095374 -2.0594 2.8273 0.95996 
qoteedy 2.2304 -3.6699 2.4491 3.7261 -1.6857 1.182 2.4942 -7.7189 2.0035 0.78528 
char -0.25736 -3.3553 -1.8522 -3.7182 0.86413 -2.0946 -0.57813 2.2827 -2.8849 -1.316 
sar -2.887 -3.8491 -1.6248 -2.3563 2.5807 3.4499 2.6973 -0.77969 -3.7653 -3.8485 
qokchy -0.26529 1.3065 -0.80651 0.22368 -4.6878 -3.8301 0.67553 3.0389 3.348 0.96912 
okol -3.623 3.8547 -6.0359 1.0217 1.7824 -0.28662 2.3375 4.3989 -3.9484 0.8748 
cheo 1.5725 -2.7612 2.3914 -1.9391 -3.0907 3.2566 -1.191 0.26006 -5.4708 1.4712 
air -2.4595 0.71059 3.1798 0.60847 3.7786 6.0677 0.31168 3.8655 -2.7398 -8.6137 
dor -2.5958 3.2341 -6.5687 -2.5509 -7.9308 -0.51795 2.2239 3.9682 1.5766 4.7396 
okain -1.4568 -1.8579 -0.18061 0.47084 4.8131 -4.1056 -2.1876 -1.7572 0.025541 -1.5912 
raiin 2.8354 -6.0776 2.2974 -1.3573 0.076634 0.97825 2.5853 -2.1374 -3.3969 0.39202 
qotchy -2.19 1.8409 2.246 -1.6547 -6.4612 -4.5362 0.28935 5.0637 4.3581 4.2517 
cho -1.9489 2.6832 -0.84514 -3.8674 -8.5039 1.0476 -6.9729 3.4196 -5.8223 7.9608 
qotal -1.3651 -0.8821 2.3983 5.2193 0.23322 -3.9474 -0.45654 -3.7913 1.4979 -1.2652 
sol -2.2935 -1.9086 -2.3787 2.9324 -1.3504 -3.2138 2.0294 -5.3809 0.085031 2.642 
cheky -3.0818 0.010429 -2.8521 -0.74886 0.38785 2.1289 -1.4281 -2.6809 0.38728 -1.805 
okey -4.3535 3.6516 -1.8268 0.63205 8.2477 3.7046 -4.9201 -2.718 -5.0777 3.3152 
qotar 2.0533 -1.1098 3.9857 2.7513 0.67717 -0.33989 0.6119 -1.141 3.7537 -3.9248 
keedy 2.0568 -2.2149 0.99376 0.9836 2.7274 2.4795 -0.12868 -6.7365 3.4384 -0.45918 
cheedy 0.29101 -4.5525 2.3735 2.8794 -1.2022 1.4736 -0.35602 -8.4224 -0.93673 -0.44345 
cthol -1.0281 3.1366 -4.592 -2.2476 -6.6403 -7.2244 -1.3056 8.2261 -2.6081 7.8741 
okeol -2.2391 1.8456 -4.1386 0.50419 1.1635 2.7727 -1.9004 2.1645 -8.9488 0.39355 
shckhy -0.99112 -0.75697 -1.397 0.45816 5.0106 -2.1855 0.35243 -3.6014 2.1891 1.879 
dai!n 0.74389 -2.6102 -2.3194 -0.30499 2.2868 -0.87898 0.42868 -3.0219 -0.54205 0.041617 
odaiin -0.8318 0.57439 -0.44565 -2.1512 -1.6529 2.6714 -0.78367 4.3045 -1.6911 -3.3776 
kar 4.7337 -0.94393 -2.3803 -2.1454 5.7967 -1.2991 -4.679 3.406 4.5754 -11.043 
oly -5.281 2.9566 -1.2933 2.9114 4.7366 -4.3087 0.094769 -4.0961 5.464 4.0359 
qokchdy 1.7089 -1.4554 1.0986 -0.2273 0.12799 0.83309 0.2688 -2.7491 7.9828 -4.3807 
otey -1.8989 1.0944 2.6608 1.5423 6.194 1.884 1.2449 -1.5378 0.25585 1.4428 
okai!n 0.71138 -6.5344 0.31183 0.67938 4.1871 -4.2209 -1.1324 -5.0467 -2.348 -2.2766 
ain -1.5534 -3.3725 -1.6677 -5.0831 7.6943 1.0188 -0.58768 -2.4041 0.60989 -0.47728 
ykeey -0.853 -0.0081975 -2.193 1.0871 -0.32444 1.229 -0.063666 -0.42917 -5.2196 1.1754 
checkhy -3.1403 -2.9433 -0.050525 1.271 2.3403 -1.5561 1.0604 -5.8117 -1.9832 3.4211 
shody 2.5274 4.1766 0.66159 4.0286 -3.9291 0.060322 0.57036 6.14 -1.327 -1.3606 
chear 1.038 -1.9484 -1.8718 -0.8783 4.5558 -1.1463 -1.9649 1.0061 -6.7137 0.22469 
sal -0.50794 1.4377 -5.0178 2.9009 3.141 0.27228 5.5132 -1.4849 -1.4312 3.6193 
lkaiin 2.3121 -7.1714 4.3634 -2.2176 2.9079 -1.967 -1.3597 -1.2835 -3.3978 -2.0764 
cthey 0.41555 0.89734 -3.4819 -2.6282 -3.9117 1.2751 -3.4343 1.9727 -4.4754 3.1007 
keey 0.36965 -1.1564 0.61786 1.2298 -0.89576 1.5255 -2.7855 -1.5472 -8.177 3.2318 
olaiin -0.25302 -2.1279 -1.9891 -0.72805 3.9124 2.9488 0.46774 -0.86489 -1.9519 -5.319 
opchedy 1.5138 -1.8109 6.003 0.95151 1.9204 0.14505 2.7246 -0.6297 5.839 -2.4788 
sheor 1.9315 -1.2826 -2.652 0.43944 -1.5113 -1.5106 0.19089 0.31749 -4.5135 2.2722 
kedy -2.1354 -1.5522 3.3934 2.9109 1.6575 -1.5829 -1.2907 -7.6223 5.5226 0.2556 
qokeol -0.6373 0.78155 -2.8049 2.8111 -0.49683 1.0419 -0.45142 -1.3057 -8.1313 4.1528 
tedy -1.2972 1.9395 0.88631 6.4569 4.6348 0.39818 -0.92595 -9.4309 8.8842 -1.7795 
d -12.143 3.5163 -6.0306 -12.662 -2.7161 -2.3675 -8.5624 -0.044559 3.3323 14.973 
tol 0.65277 4.5135 -1.6256 3.7672 -7.1248 -3.2538 3.1485 3.5314 3.8302 3.6648 
sor -0.096855 -0.3525 -4.0201 -2.8503 0.3451 -0.80396 -0.52392 0.82372 2.9587 -1.7637 
cthor -0.26503 2.7237 -5.4536 -4.8909 -4.1516 -7.7652 -1.6766 9.4766 0.62283 5.9921 
otchy -2.1261 2.6299 0.41117 -3.4747 -3.1845 -1.5092 -0.4019 4.867 5.8341 1.5987 
chal -3.1917 -3.2714 0.046843 0.071069 2.046 -5.6646 -3.4455 -0.94586 -3.2568 -1.8089 
qotol 1.6956 2.2252 -1.0695 4.9821 -9.6718 -2.2659 4.9185 0.99615 4.1126 2.3757 
shdy 1.5556 3.4134 2.8584 3.6121 2.8111 -0.00069011 -0.74338 -2.2935 6.478 1.6101 
taiin 3.6435 -2.7671 -1.7552 0.0082834 -2.5801 -2.7062 -2.2089 -0.18976 -0.44598 -2.9089 
chaiin 0.52504 -1.8399 0.020952 -4.1886 -5.1761 -5.5774 -4.4064 5.2755 -2.2843 2.0919 
sheody 3.0399 1.6663 2.8698 2.3798 -3.7931 3.3751 1.1055 3.177 -1.6039 -0.70423 
otam -1.8519 0.62987 0.70941 2.4632 -3.1575 3.0587 -0.071665 -1.9977 0.3507 -2.6557 
sheo 0.74336 -1.9591 1.6625 -0.65909 -1.0246 1.6604 0.34859 3.0576 -7.285 0.13727 
ykaiin 1.2257 0.059207 -1.4663 -0.428 -1.1684 -0.91363 -1.3692 2.0043 3.334 -5.3904 
tar 0.23093 -2.9128 1.3896 -0.45814 4.4927 -5.8131 -0.81042 3.2313 1.2052 -6.0055 
lchey -1.3808 -6.2559 0.96981 -1.6889 1.7244 -2.3753 2.2925 -6.8738 -0.15275 5.0468 
ody 0.43755 5.4694 1.4398 1.2996 -1.4759 4.4124 -1.9376 5.328 3.2909 -5.3273 
otai!n -1.4085 -6.3815 1.0688 -2.0934 5.0043 -4.3877 -2.2558 -3.8053 -0.83002 -2.0814 
olkeedy 1.0542 -2.4093 1.2513 5.2282 0.79188 0.33588 -0.44784 -6.197 0.55884 -4.5608 
ytaiin 2.0686 0.64739 3.1102 0.71727 -0.79995 -0.70801 -1.6586 4.9326 1.5517 -5.4072 
chodaiin -0.24936 1.803 1.2229 0.47165 -3.812 -0.33697 -0.02595 3.7105 -0.82282 1.3223 
qoteey 1.4261 -1.8191 4.4573 0.46668 -3.3236 0.99198 0.25027 -3.5421 0.30822 5.491 
lol 4.3271 -8.1385 -1.0714 -0.37504 -0.064272 -8.1242 1.8894 -9.0333 6.9754 3.355 
oteol -4.5387 2.1002 -2.5571 0.28826 3.2221 3.6491 4.1393 1.2072 -2.3458 0.65162 
olchedy -3.4653 -3.7264 -1.3654 4.9758 1.1224 -3.3838 0.74266 -7.2828 -0.57769 -3.2974 
olkeey 3.4698 -5.0371 -1.0679 -0.98873 4.4712 -1.2595 -0.58537 -6.0146 -0.53103 2.0326 
qodaiin 3.9949 -0.16322 0.41233 0.79381 -6.5487 1.2614 -1.1804 1.8687 -0.1222 -2.1584 
lshedy 0.16393 -2.9708 -3.448 3.0975 0.24257 -0.94845 5.976 -8.2274 3.4957 3.0378 
dshedy 0.48222 -0.17722 0.4841 4.1832 0.94794 1.1198 2.6188 -8.6707 8.066 1.4036 
lor 1.31 -10.634 -2.6636 0.13302 -1.8081 -2.7184 -0.082611 -10.698 -4.817 -0.29488 
choty -1.6758 3.0795 2.3121 1.8375 -5.3286 -4.0946 -1.7922 4.9897 -0.19656 2.5446 
choky -0.42799 7.2158 -0.032967 1.7808 -0.056383 0.6535 -2.0497 5.5907 -0.6826 4.2835 
olkaiin -0.010782 -5.3404 -0.27406 -0.81688 2.0892 -4.1576 1.3382 0.45008 1.6806 -7.4715 
ckhy -0.54284 3.0134 -3.9178 -1.2821 -4.6191 -0.54105 0.94538 6.1086 -3.1651 3.9004 
sheky 3.2703 1.9712 -2.1092 0.057511 3.7539 -1.1085 -4.1675 -1.5336 2.6375 1.9844 
lkeey 3.5069 -9.8623 5.071 -0.52358 3.2974 1.2855 -1.69 -8.6885 -7.4385 2.2248 
sheckhy 3.4023 -4.012 -0.87879 2.7221 2.957 -5.5052 -0.85224 -6.5797 -0.21204 3.5559 
otor 0.89966 4.2173 -0.23028 0.94719 -1.4527 -0.81783 0.14973 6.2508 3.013 -1.8879 
lkeedy 1.0527 -5.6765 5.62 3.1422 2.9375 0.40133 -5.0832 -9.2749 -3.9577 -0.62611 
kol 0.15812 4.8639 -2.957 -1.046 -1.3555 -0.8079 3.3352 6.0072 -0.87553 9.0496 
otain -1.3458 -4.1816 0.61807 -2.0677 4.8611 -3.3277 -3.2208 -2.2786 0.22155 -3.0633 
ches -0.52375 -3.3047 2.4463 -2.7281 5.8406 0.79959 1.8688 0.11846 -2.6048 1.444 
qokchedy 0.71551 -2.985 3.6196 4.9386 -3.635 -2.1039 2.0949 -2.7227 -0.1929 -2.2048 
qo 4.5475 -0.54779 -1.7855 1.6912 -1.4038 -5.1315 -3.8712 -6.2787 -0.38656 11.375 
chos 0.54005 1.2928 -2.34 -0.19229 -7.7404 4.8575 2.3807 6.7954 -7.8484 -0.58763 
chedaiin -0.028047 -3.139 4.3503 2.4464 0.10775 2.5382 -0.61671 -2.6819 -2.2488 -5.1162 
oraiin 1.2452 -3.0874 0.17513 0.51936 -1.0519 0.76169 1.6421 -0.077851 -2.3258 -3.4423 
shar 2.3642 -3.9626 1.5972 -3.1512 5.6965 -6.8069 2.1223 6.8286 0.42758 -2.9667 
okeody 1.6465 5.8444 -0.2506 2.7833 3.5045 8.4516 -3.3336 3.5112 -6.0845 -2.2106 
qokor 0.30295 0.75362 -2.1118 -0.2407 -6.3325 0.60801 0.28646 0.84474 0.38569 1.3226 
oteody -4.4153 4.3528 1.9453 2.3529 0.11592 8.9895 -1.5657 1.0894 -3.4953 -3.7075 
chees 2.9337 -1.0571 -0.33684 -0.85695 -1.7558 1.4609 -0.26471 0.68988 -0.46823 -0.99365 
otchey -0.44251 -1.4335 3.3011 -2.2307 -3.2545 0.43942 2.2094 1.8886 1.6366 1.6557 
chckhey -1.3979 -3.1551 -0.45624 -2.2221 1.4175 0.94051 -1.6825 -3.8528 -1.7417 0.89042 
tchedy 3.3033 -3.3765 7.3012 3.6417 -1.8204 -0.45753 0.96085 -3.8019 2.8364 -0.95679 
cheal 0.74709 -3.3682 -0.19404 1.9252 2.7505 -5.3535 -2.1764 -1.348 -5.937 0.87435 
checthy -2.5949 -2.5229 -0.92471 1.2364 -0.27546 -2.3621 -3.1647 -7.0878 -0.27399 2.0162 
kchy -6.1584 5.3746 1.7601 -2.7166 -6.3837 -5.2004 3.0845 7.9215 6.7623 9.7232 
aiiin 1.5319 -2.4894 -0.52552 1.0327 1.5179 0.28864 -0.40257 0.67037 -2.9549 -5.9493 
okor -1.5244 4.877 -8.4849 -1.2492 -0.66881 6.457 2.5964 3.0488 -1.7311 0.49974 
shcthy 2.6683 -0.0080275 0.76573 3.8125 0.40566 -7.3082 2.0966 -1.5591 5.564 3.8937 
okchey -3.2351 -0.75287 -1.5509 -0.56031 0.14383 -2.3323 -1.6523 0.42569 -2.7902 -0.080329 
qokeody 2.4423 2.3565 -1.2546 2.3085 -3.1797 8.038 0.16608 -0.62482 -5.4844 1.8366 
okchy -2.2972 4.2086 -3.0881 -0.12874 -1.3858 -0.58806 1.7157 3.9272 4.5086 -0.15654 
ykar -0.96198 0.54512 -5.253 -3.7582 -1.9032 0.57417 -4.9299 2.5423 6.7058 -10.869 
ai!n 4.1731 -6.5416 -2.3535 -1.5404 5.6133 -0.84666 -0.8812 -4.9878 -3.1947 -1.3517 
olor -5.6054 -4.1167 -3.9319 -1.2245 -1.0337 -7.8432 -0.50523 -3.2509 4.6906 -3.5209 
olkedy 0.9002 0.66061 -1.168 8.5801 6.7713 -4.5458 1.3547 -7.0033 5.0269 -1.6949 
pchedy 4.6525 -2.9117 5.5398 4.6657 3.9594 -1.9857 3.9323 -2.8638 6.2975 -3.8031 
ckhey 0.91842 2.6888 -7.7104 -1.7374 -1.4256 3.2471 -2.326 4.0121 -9.8658 3.8774 
qopchedy 4.2452 -1.0024 6.6544 4.7363 1.431 3.1748 3.3181 -1.8716 2.7821 -2.7701 
kal 4.2266 1.0612 -4.0606 -0.26179 5.1014 2.5602 1.5726 0.32632 5.4965 -5.0435 
cheos -0.80619 -0.21343 1.5365 0.49976 -0.90436 5.1989 -2.1683 1.3867 -8.0389 -1.8542 
otchedy 1.1332 -3.6787 6.7924 0.50791 -3.3098 2.4594 -1.1395 -3.7152 4.1737 -4.234 
lkar -0.89924 -8.4011 6.6985 -4.2338 5.7149 -2.0886 -3.4554 -4.3573 -0.57336 -1.7788 
chedar -3.4069 -5.064 5.9282 3.4589 0.7134 1.9674 1.5274 -6.0448 -3.2032 -2.836 
sai!n 0.75286 -5.0985 1.9485 1.7149 7.9245 -0.96566 -1.4634 -6.3405 -2.172 -2.2145 
dchy -5.5624 7.4208 -1.5278 -1.6021 -3.9763 -3.3069 0.98904 9.2125 2.397 7.6133 
daly -5.8968 2.9801 0.15474 3.5295 4.6471 2.1149 5.0588 0.31169 -0.12628 -0.29803 
dchedy -1.1212 -1.0557 2.6596 2.101 3.0938 1.0411 1.5764 -6.1622 7.1199 -1.2983 
otchol 1.3604 4.3428 -0.40119 -3.5631 -5.4289 0.41569 2.1099 10.28 0.7923 5.3518 
opchey 1.0238 -0.4429 5.2674 0.59707 1.7646 0.6743 4.9957 1.7302 4.0533 0.53991 
qokchey 0.84504 -5.861 2.0475 -2.6654 -4.3911 -1.385 1.8252 -1.5539 0.056955 0.81165 
otchdy -1.5924 3.1253 3.5129 3.4346 2.3336 3.156 3.356 0.98171 4.6768 -3.0876 
okam -3.6274 1.3036 -2.9172 -4.0144 3.5569 3.3382 -4.9112 -0.8808 2.4597 -3.5171 
yteedy -1.9947 0.9089 5.3101 3.9734 -1.4256 1.5678 -1.6349 -3.3929 2.9318 -1.9066 
oiin 0.7284 0.49947 -3.9275 -1.4765 5.3467 0.21168 1.8294 1.7166 -2.3486 2.1249 
qotai!n 4.4519 -5.6611 3.6582 0.5561 1.0206 -3.3391 -2.9548 -7.0971 2.8317 1.2424 
olchey -5.0484 -2.0941 -3.3364 -0.17439 2.2016 -1.7 -1.4163 -7.9256 0.35486 3.62 
tchy 2.2147 4.2052 3.7831 -2.0469 0.55826 -4.5793 1.8597 9.0217 3.2843 9.5799 
lkedy 0.67732 -3.0595 6.2137 6.4986 4.8417 3.1988 0.54172 -10.567 0.4061 -0.22006 
oldy -3.3845 6.2259 -5.4188 6.1303 7.0147 -2.7462 4.9885 -0.85917 4.5546 2.6525 
qokeeey 2.6834 -6.1963 0.81556 0.40869 -2.4924 2.0651 -1.5241 -4.7959 -6.6262 -1.2625 
ykeedy 2.3784 -0.67314 0.42883 4.0856 4.8555 0.40315 -2.5575 -7.0313 3.0824 -2.1184 
aly -8.612 0.28117 3.2099 -3.091 10.834 7.0757 2.379 -0.49945 -0.95759 -1.3777 
dchor 3.4002 5.7501 -3.7392 -4.184 -7.4887 -1.6342 -1.5363 9.7909 2.7477 6.7507 
she 1.6391 -0.20399 -4.8597 -6.786 2.7187 0.74983 -2.3053 3.0288 1.0723 0.75966 
qotor 0.60257 -2.3784 3.2087 -2.1784 -6.9306 -5.8042 4.09 7.5231 3.9472 -0.86692 
os -5.5508 3.3007 -3.88 -4.0761 -2.0019 3.5453 -6.3055 11.287 -11.639 -5.4658 
kor 1.2606 7.2725 -8.6715 -2.864 0.79454 1.6167 -4.1319 6.136 0.47474 2.0804 
yteey -0.12498 2.2643 0.61755 1.4702 -0.87945 5.1965 -2.9917 -0.34466 -1.542 -2.6979 
qokam 0.58136 -5.0848 -1.468 -0.52229 -2.6142 -4.3494 5.108 -3.3269 4.9474 0.12994 
yty -6.4979 3.8092 -0.8654 -6.224 -3.6494 -2.8324 -0.89273 5.0057 11.777 1.598 
tor -0.3005 2.3866 -9.1995 -2.4527 -1.9211 -5.1866 0.63351 5.4715 6.3086 -3.4422 
sy -1.2261 -0.7006 -3.3441 -3.5845 -0.24282 -7.8986 -4.6109 -0.16512 -2.1906 10.037 
okeeey 0.43083 -4.0251 0.38886 -0.80323 1.494 3.8511 0.2271 -0.049874 -9.1452 -1.8714 
olky 3.4853 -0.40668 -6.7943 2.308 3.1803 -6.4458 -1.1154 -1.7873 9.7863 -8.3994 
chedal -2.1179 -6.068 6.1065 0.60461 -2.6084 5.071 -0.91889 -4.8392 -2.1478 -7.155 
tal -4.1206 1.8538 1.6438 6.1333 1.4194 -8.151 -0.70499 0.53385 2.8727 -2.3199 
chl 0.225 -7.2891 -1.5185 -1.7726 1.0546 -7.2185 -1.9438 -2.7403 -4.2804 0.32578 
aiir -2.1404 1.0581 3.4207 -2.4815 1.972 6.9768 -0.18597 3.4484 0.18484 -5.0288 
sair 4.993 -1.4525 2.4452 0.52479 4.562 3.8005 0.52935 0.29149 -1.2321 -2.9976 
okchedy 2.9912 -0.91043 -0.37637 3.1175 -1.3433 1.6937 -2.8582 -2.5329 0.328 -6.3775 
ytar -1.2114 -0.87946 3.77 1.1145 -1.6123 -0.85042 2.8612 7.4921 2.3766 -11.094 
ytedy -3.0564 9.2684 1.3089 4.0698 3.349 1.879 -3.3403 -0.99978 10.869 0.68854 
daiir -4.6012 3.5244 2.8273 -2.9219 -4.0294 6.1122 -1.647 2.6732 0.60193 2.2498 
oaiin -3.6964 -1.2769 -2.9084 -1.5084 -6.0511 1.7859 -1.0866 1.75 -7.0606 -0.7832 
shear 1.6957 -3.621 1.1549 -4.2438 7.4908 -1.4855 0.24579 -0.45143 0.85611 1.9585 
tchey 2.1026 0.057985 5.5956 -1.0157 -3.471 -3.2434 -3.2957 1.1581 2.1869 6.1918 
chety -2.9405 2.3761 5.1274 0.6968 0.98636 1.8001 1.4248 0.84247 0.73912 4.932 
qotain 2.3959 -4.098 2.8683 1.713 0.71893 -2.3635 -0.96038 -5.6987 0.97625 1.1503 
qor 6.6959 -7.2942 -11.195 -12.698 5.2212 -0.13142 -1.721 -2.7614 4.0173 1.0405 
dary 2.1767 2.5972 -5.4546 -0.22059 -1.4933 -2.7425 -0.16027 1.8629 5.1713 0.016355 
otair -3.4047 -1.4812 1.9705 0.37063 1.7134 1.7026 -2.0003 3.0103 -2.5721 -10.481 
qotey -1.0852 -0.96732 4.6721 4.9156 -2.3091 -2.9412 -2.432 -5.751 1.6817 1.6787 
qoaiin 0.77908 1.6451 -3.4149 4.6144 -6.0457 0.85979 -0.60237 -0.46108 -4.594 -0.22382 
olshedy -1.4203 1.1093 -3.3459 6.1234 6.3759 -2.0704 4.8259 -6.3641 2.7616 3.0211 
ldy 0.1513 -0.77685 4.855 6.5219 4.0647 -1.8549 0.15485 -5.306 -1.6472 2.5103 
kchor -4.0831 5.376 -8.0321 -4.4037 -8.6665 -5.1759 -4.6375 4.5688 -0.19924 11.915 
chkaiin 4.2794 -0.49469 0.30884 -0.27951 -2.2528 -1.5439 -3.7653 2.4993 -0.12559 -2.4873 
kchol 0.59967 3.4192 0.16399 -2.5371 -6.1412 -6.1064 -0.014895 6.3108 2.8592 11.381 
cheeky -1.7394 -0.30187 -2.7039 0.68476 2.4647 -2.3093 0.60788 -2.9763 1.6201 1.7077 
ky 3.6697 5.1274 -4.0114 4.2863 -4.5332 -10.522 -2.8857 2.1152 6.2851 5.8358 
shaiin 3.808 -0.73584 1.2595 -0.29598 -0.25679 -7.1263 -0.27097 6.1571 -1.3025 2.6978 
shodaiin 1.9496 2.2326 3.732 1.8822 -6.1257 -0.86246 -2.6299 3.3301 0.82445 0.86578 
odar -6.705 -0.128 3.7672 -1.701 2.944 2.6575 0.84227 4.6001 0.36063 -7.9557 
kchey -1.9181 -4.4208 1.4996 -6.1724 -5.7141 -3.2795 -2.9145 0.9586 0.94179 1.667 
shecthy -1.087 -0.59283 2.3843 6.3116 0.010378 -7.6396 -4.816 -3.802 1.4987 -2.0607 
ykchy -4.4561 6.208 -3.0558 -1.3902 -1.677 -3.9422 0.61334 6.4451 7.3128 2.2494 
tchor -4.4855 1.4595 0.40568 -3.566 -5.2748 -4.4695 1.1578 6.66 -0.11029 6.6569 
okair -1.0751 -0.45442 -0.48894 2.4449 0.18248 0.95457 -2.452 1.0016 0.08912 -11.001 
kchdy 2.0947 1.9809 -1.3698 -3.4182 2.588 2.6739 -1.9296 -1.8341 10.467 -0.26202 
keol 3.2256 0.13123 -5.4693 0.65859 -2.7757 -0.089224 3.7559 1.3946 -4.999 5.5031 
ary -4.1719 -1.5296 -5.0743 -3.8757 2.3697 3.326 -2.7081 -2.7835 -1.3351 -3.139 
keody 0.57719 5.4654 -2.3756 3.301 -0.66483 5.139 -0.52865 1.8411 0.075168 -2.5656 
sain -0.87743 -1.1126 0.28657 1.4925 5.7218 -2.4538 -0.86523 -2.4548 -0.77862 -0.084114 
ycheey -1.1422 -1.8409 1.7187 -1.2414 2.7387 0.47507 -2.8122 0.80914 -5.6941 -0.38358 
qokeor -2.4954 1.6964 -2.0841 3.7013 -1.6275 0.44258 1.261 -1.8582 -5.6971 5.3631 
okchdy -1.3251 3.3906 0.20711 1.2649 1.4578 2.3107 0.086136 0.091863 7.9518 -4.6902 
rar 2.6296 -10.088 0.43616 -4.0385 7.317 4.2512 11.329 -3.2307 -3.3061 0.22136 
qotchdy 3.2071 0.3335 5.9161 2.8025 -2.266 0.61729 0.79951 0.21578 5.434 -2.1134 
ckhol -2.6119 5.922 -9.036 1.7244 -7.5268 -0.74171 1.0815 2.8799 -3.4838 7.7231 
ched -6.7702 -3.5142 8.5469 4.7738 2.596 0.30727 -0.18386 -6.3077 -0.59037 -3.8719 
chdar -2.5943 -0.69371 1.2178 0.54581 1.2001 4.1227 -1.1546 -3.7446 4.9483 -7.3869 
shed -1.5566 -4.3124 2.0727 -1.4883 3.0516 2.5365 3.4331 -8.2791 4.9608 2.5724 
s!aiin 0.75552 -0.44636 -4.7807 -1.566 2.2375 -0.66651 -1.7759 -2.2238 1.3743 0.32729 
cham -1.6572 -2.93 -4.1638 -7.4153 -4.3996 -1.9433 -4.2586 0.61526 1.971 -0.042068 
rol -2.542 -5.0024 7.7622 -2.222 0.09979 -10.494 -1.8517 -3.6524 13.204 1.0774 
olol -11.772 2.4489 -9.7978 2.9557 0.80551 -4.5119 7.8528 -4.1108 4.0265 4.2026 
ty -4.0381 3.1456 -5.7916 -7.3504 -13.214 -13.049 -2.5142 6.1124 23.03 0.40914 
qokeeo 1.8557 -3.5979 2.3427 3.6079 -0.30353 4.1853 -0.40678 -3.4397 -9.3654 -1.4508 
qotchedy 5.1646 -3.6964 8.0937 4.1479 -5.5928 1.7477 1.354 -3.6227 0.91246 -0.27608 
qoeedy 10.149 -4.3192 0.87738 1.7608 1.006 3.2791 -3.3779 -8.5247 4.1583 -3.0707 
kai!n 3.1894 -8.7147 -2.5006 -0.14142 5.1843 -6.5812 -1.7976 -7.3371 -3.4456 0.43008 
kchedy 3.2901 -3.2251 1.3067 5.8453 -6.426 -1.6157 4.0468 -3.1228 2.0685 -3.8484 
ykedy -1.0081 6.1115 -1.6555 5.6315 -2.9378 4.7089 -5.7145 -6.8325 7.7418 -2.4671 
dchol -4.6551 4.9123 0.74215 -0.47364 -6.3896 -0.58193 1.5633 4.2276 3.9112 5.5293 
teey -0.6592 -6.3082 1.9039 -4.123 0.72281 5.2058 -5.122 -6.5813 -7.513 1.4227 
okeor -3.0107 4.4658 -4.9598 1.0389 2.4958 0.48263 -4.8434 4.7072 -9.477 0.53574 
chocthy 2.3673 0.58237 2.134 -2.5219 -5.4814 -3.2736 -6.0273 6.16 0.26996 -0.50437 
qotchey 8.0514 -1.6757 3.7602 -0.93296 -7.8221 -0.007326 -2.1977 1.2071 1.2277 3.6723 
chky 1.9111 1.1583 -4.3036 -6.7317 -0.19795 -6.2248 -9.0743 1.5887 10.22 0.54322 
oteos -6.6435 3.9221 0.55988 -3.8561 4.6762 9.1296 -4.2438 4.67 -6.2504 -2.5618 
qockhey 2.3816 -0.63768 -5.3427 5.3945 -4.8341 -0.42532 0.14684 -1.8632 -8.7903 1.103 
okaly -4.1395 5.7669 -0.97673 4.844 11.157 1.7991 -5.7928 1.2238 -2.622 -6.5118 
okchor -2.5418 2.7221 -4.6766 -2.7086 -6.024 -3.4747 2.7076 5.5368 2.5857 5.1305 
qody -3.4811 -0.26136 9.325 3.4847 -2.238 -3.3825 4.2858 5.0521 1.8661 -1.9524 
ory 4.4337 -0.21828 -12.403 0.66691 3.7258 -3.174 -3.3752 1.4272 -1.6883 -8.7136 
qockhy 0.51663 3.8398 -8.1837 3.3741 -3.9843 0.97702 1.2761 3.5807 -4.5143 -1.4256 
olkar 4.0157 -2.3952 0.63756 6.7362 7.3304 -7.0871 3.7004 1.1968 1.8114 -7.8514 
chockhy 3.2672 4.0227 -0.28627 1.108 -2.9179 5.6554 -4.5662 3.3142 -4.9576 -0.1558 
dl -0.44974 -8.4068 3.6404 -7.9251 0.81375 3.4192 1.6642 -2.0351 -0.25673 -0.96447 
cthar 6.575 1.7515 -1.5265 -6.6852 4.6984 0.12941 -2.3047 4.3656 1.1394 9.9295 
chdal -0.74687 -3.1978 -1.9491 2.9613 -0.52915 1.7448 3.8775 -1.3716 1.6861 -11.453 
ydaiin -4.7916 4.9231 -6.6354 2.5927 -6.0315 1.8977 -1.0986 1.282 -1.684 -1.308 
dchey -4.1267 1.4534 -0.5385 -3.349 -5.6498 2.1983 -3.7842 -4.016 3.2014 7.0832 
sheal -3.7129 -2.3132 2.6723 2.701 7.7425 -0.68076 5.7901 0.24732 -3.7279 -1.4634 
om -4.8152 -0.37748 -1.3534 -4.3636 2.1933 2.5656 -0.57621 4.9574 -4.982 -2.8394 
lky -10.649 -10.896 15.59 2.8418 2.5257 -4.4665 -7.0849 -11.218 -2.8721 -5.3176 
ral 5.7333 -18.612 -0.69479 -7.9163 -4.9936 -5.6447 4.6321 -7.0579 -2.7041 1.0656 
opchdy 2.6769 -1.3318 11.682 2.1412 3.9397 -0.044384 0.1248 0.6475 4.4398 -1.3672 
otaly -10.729 1.8176 -1.6716 -2.0462 10.237 0.50491 -1.8667 2.6101 -1.6534 -5.2382 
ols 6.5297 0.42773 -10.973 -0.3135 7.6242 4.8485 3.2176 1.0433 -0.41663 -6.9274 
ychor -2.0914 0.87892 -7.7453 -2.1402 -1.765 -6.3494 5.0309 10.609 -4.5533 1.5271 
daldy -2.6673 4.5998 -3.924 4.3085 3.3656 -2.2529 -1.2415 -0.044917 0.084389 0.0039724 
olkai!n 0.015051 -10.228 -3.9271 -2.244 4.5317 -10.783 3.7841 -3.9505 2.1955 -2.4298 
daiiin 5.2784 -0.65609 -2.8335 -4.7837 -1.2804 2.7584 0.44225 3.0803 0.74005 1.4186 
kain 3.3122 -4.1067 -1.4851 -0.73485 3.7067 -6.6857 -3.8288 -2.8606 1.3409 -0.91306 
qopchdy 7.8548 -2.5554 10.731 5.5785 2.9055 0.67978 3.7217 0.32763 4.6577 -4.8417 
sh -7.8556 2.1539 -5.1898 -10.233 -3.0521 5.8479 1.7369 5.5961 -1.2113 6.1519 
shal 2.2256 -3.7134 4.3672 0.61194 10.944 -9.5005 -2.3681 2.3604 -4.089 1.8358 
otchor -2.8744 3.2666 -1.9424 -5.2849 -4.9243 -2.3056 -1.2561 5.5011 1.6905 8.7511 
lshey 5.334 -5.0701 -0.61309 4.3834 6.4297 -2.9076 2.3976 -9.9081 -2.7671 7.5666 
cthody -2.4191 5.347 -5.1155 -3.4695 -6.8686 3.5871 -3.3382 9.6005 -5.4345 0.38869 
chokchy -6.7692 4.2988 -1.7785 -1.4129 -7.7959 -2.6243 -3.2647 4.8616 -3.7842 7.6529 
teol 1.5864 5.8058 -6.7712 8.7906 0.10775 -2.9136 0.39622 -0.94073 -4.0874 4.4032 
qokair 0.030786 0.96017 0.91094 5.7196 3.8061 -1.7738 -1.6873 1.2813 -0.68564 -8.6584 
? -15.382 7.2297 -8.7 -10.716 1.7331 12.941 -5.5333 -2.1544 -0.67545 8.9462 
chdaiin 1.8947 -3.1952 1.9264 1.9398 -4.1242 6.0732 7.1667 -1.9546 3.8804 -6.4831 
key -4.6644 5.5078 -3.769 -1.5598 -2.009 3.1253 -15.044 -3.5233 -0.59344 0.44698 
okeeo 1.098 -4.2186 1.0461 -1.1026 2.1535 4.5923 -0.65124 -0.66305 -10.205 -0.88391 
qokeed 4.3066 -0.66096 2.715 10.282 3.4718 1.6237 1.121 -8.466 -1.5575 -0.40432 
chokaiin 0.7878 -1.5499 1.6312 1.2796 -2.0721 -3.2077 -4.8409 1.1152 -5.9918 0.041541 
orol -5.7135 1.9256 -13.366 -1.3043 2.4959 -2.4256 -2.9573 -4.2359 3.8655 -2.4056 
ctho -2.569 3.4687 -7.7155 -7.717 -14.284 -1.168 -4.6947 6.0985 -0.45433 9.1902 
tchol -2.5038 3.7111 -1.1455 -1.4516 -9.4532 -7.2131 -1.6046 7.8765 2.0587 6.0977 
qokchol -0.27964 8.0254 -5.3898 4.9928 -4.039 -5.4805 1.5906 9.0411 -1.1663 3.7961 
teedy 0.16619 -1.6502 -1.0263 5.0533 -4.7166 5.8097 0.11524 -10.894 2.2338 -2.2366 
chain 2.9248 -3.6934 -0.20205 -7.0252 -0.93999 -5.6559 -4.4547 6.4588 0.51053 -1.8446 
yky -5.1097 11.405 -9.9934 -4.6735 8.2331 -3.0045 -3.6446 14.067 12.02 -8.8698 
chs -4.0807 -1.7828 -3.9874 0.21983 -8.3058 -1.5366 4.7695 2.7924 -5.0439 0.37215 
ytal -6.518 5.1111 -0.69939 8.016 1.6392 -7.4988 6.5622 9.7466 4.9901 -10.486 
okody -1.5316 4.5507 -1.4238 -3.1752 1.2392 12.393 -3.8437 3.6657 -2.2758 -5.337 
chom -2.0589 5.0226 -3.9091 -2.842 -7.4312 1.3526 9.1502 14.778 -6.1666 8.4469 
opchy 6.0135 5.6791 1.0128 1.3021 4.3601 0.43559 0.91781 3.3639 6.1866 4.9304 
cheeo -4.863 -7.3273 6.1272 -1.1769 -4.2928 3.9539 -4.9447 -6.2296 -6.4797 -4.2438 
ychey -1.2334 2.5225 1.2101 4.1487 -6.2591 0.63389 -1.5655 -0.69542 -3.5656 3.9539 
tchdy -2.2169 -2.1704 0.3698 -0.51403 -4.4323 -0.9165 3.5643 -3.0759 7.2844 -0.52834 
cphol 10.786 5.2547 -3.03 1.6606 -2.2681 -2.2726 -0.97858 5.0014 1.7155 8.2613 
ror 7.2956 -7.4002 0.70157 1.2903 -0.95406 -5.2616 0.57483 -5.1571 3.5047 -2.4282 
otody -4.1473 3.5983 3.1266 -2.7025 1.796 9.0112 -0.97009 3.6495 3.9239 -6.3476 
ykeody -2.2502 7.8323 -0.85198 1.183 -2.1049 8.2126 -0.17287 5.7635 -2.3041 0.35863 
odal -3.534 3.716 2.623 3.0407 -0.043569 -0.93901 1.1152 6.4155 1.1508 -4.8739 
soiin 1.8729 -0.92967 4.0796 -1.8197 1.6414 -0.89586 -0.2021 -0.078432 -1.6465 8.7822 
sheeky 4.1503 -1.0107 -3.7526 4.9115 12.186 -1.7477 -2.6275 -8.7839 1.8112 -1.3653 
qoeey 7.1637 0.21242 -4.3244 5.6669 -3.295 0.53221 0.77437 1.5691 -5.7247 -3.362 
kair 5.5825 -3.8741 3.1492 -2.0622 8.9735 0.045267 0.993 4.5315 2.7482 -9.9362 
ytchy -1.0295 8.0999 1.9761 0.21642 -2.6832 -2.9591 -3.7187 5.8824 5.287 7.8879 
choly -0.19469 2.5159 -6.6574 -1.7644 0.7408 -2.2817 -4.7495 6.3178 -5.7109 -1.3665 
lo 10.466 -11.348 12.748 6.9035 -8.8455 -3.2957 -4.0972 -20.147 5.1478 7.7501 
shedaiin 0.17488 -0.82422 7.6214 2.4197 0.99967 5.5687 0.36886 -2.1312 0.35265 -2.6708 
pol 3.1233 -7.2109 8.1835 6.6298 5.4133 -6.9322 8.6954 0.92048 -2.8613 -3.5602 
okeeol -4.3971 0.3576 -2.5064 -0.74628 3.5747 6.2809 -0.46544 -0.99013 -10.96 3.4266 
ctheey -0.34468 0.76956 -3.2232 -4.7197 -5.2345 4.5234 -3.9458 1.5651 -7.6002 7.0179 
qokeeody 4.0703 -0.78169 -0.1446 0.98056 -1.166 7.8002 -3.9343 -0.12549 -8.1456 -4.0673 
cphy 4.037 3.6534 2.6852 -6.8994 -4.6074 3.3851 -0.82888 8.9483 5.641 4.4994 
chckhdy -5.081 -1.4821 0.85598 1.705 -5.6879 1.3099 -0.24214 -5.265 7.0849 -6.3131 
lkchedy 2.905 -8.7307 7.4192 4.8122 -6.3079 -1.2157 1.7815 -4.0875 -2.8114 -6.8943 
lkai!n 3.986 -14.569 2.3298 -8.1112 6.6167 -3.8687 -2.1784 -6.6868 -5.2935 2.6662 
oar -9.0538 -0.71834 -3.3627 -3.2289 3.8079 10.571 -3.0915 3.3328 -6.241 -17.108 
cheeor -2.0118 -4.7677 -0.4816 -1.8325 -5.3508 2.4844 3.0405 1.744 -7.4965 -2.0181 
qotchol -4.0613 3.8947 -1.5021 -4.2308 -7.7992 -2.4073 0.59309 9.4349 -0.92166 7.2361 
ytor -3.7368 3.1071 -1.9995 -0.032645 -9.7132 -3.1381 5.0354 10.426 5.5865 -5.2216 
lchdy 4.5876 -1.5063 1.8328 6.178 6.2819 -0.10704 4.9911 -6.1353 -1.9966 6.5462 
chkeey -0.59657 -5.5364 -5.0651 -8.1319 -3.7074 -1.5288 -5.6127 -1.5392 -2.8585 1.3098 
okeo -7.5363 6.5709 -4.4867 1.7278 6.1051 6.514 -8.3299 4.3595 -13.336 -4.017 
r!aiin 0.80564 -3.7384 0.39678 -2.7844 -0.36814 1.1888 3.3556 -1.7553 -1.4199 4.5648 
choiin 2.3421 5.1426 -2.8445 -4.6154 -7.3655 1.3464 -0.68492 3.9844 4.2433 11.882 
shky -0.79309 4.5691 7.0715 6.5242 5.006 -1.8392 0.39809 2.806 4.4416 -2.6792 
olkain -3.375 -7.4662 -3.6311 -2.4013 3.1245 -7.7958 4.4047 -5.2899 6.3294 -1.9663 
sheos 5.6817 1.5979 6.2172 0.9441 -3.5563 4.2147 -7.9179 3.2505 -3.8655 -1.6106 
qotam 1.3887 -2.3256 5.8415 2.3231 -2.6559 2.4016 0.53295 0.31467 -3.3007 -2.3487 
ry 12.438 2.5396 -1.9918 -1.9788 3.1956 14.409 13.233 -1.8406 4.7494 13.997 
ockhy 0.54572 4.2338 -1.0794 8.0616 0.41821 -3.9083 -6.4104 5.9767 -9.7416 -5.3117 
aral -2.9446 -3.5565 5.0232 -2.7676 2.5181 3.7338 1.5692 5.0698 -3.6269 -8.3416 
okeeody 0.22298 -0.74085 -1.4066 -0.50348 -0.96615 8.7624 0.59365 1.3648 -7.1153 -4.856 
yteody -1.1131 6.0114 7.8149 -0.60045 1.0247 13.456 2.1672 5.4065 0.74272 0.3924 
oteo -7.5034 5.0132 3.4246 -1.3727 6.4563 13.4 -5.1774 2.7559 -7.4297 -4.4324 
dan -4.0724 6.3397 5.0428 -9.9273 1.1263 -0.30124 -3.4047 13.269 0.77684 13.231 
olkal -1.8752 -2.2053 -4.1307 4.4697 3.9713 -6.4713 -3.5633 -5.2169 2.4437 -7.5617 
olkey 1.5446 0.45767 -1.5357 -5.7069 6.1404 0.69907 -4.4353 -1.1525 5.4616 2.1057 
ot 0.78069 7.218 3.8202 6.9303 -0.59945 8.0763 -5.3436 -5.5342 2.3207 1.3207 
qotchor -1.9747 3.7751 -4.1556 -6.7483 -11.584 -2.504 -1.41 9.676 3.5435 5.51 
shckhey 1.5871 -1.6541 -0.5865 -0.98865 9.1361 -1.5467 -0.59406 1.2313 -5.2473 1.9019 
laiin 3.1705 -5.0871 -4.3538 0.68472 3.7518 2.1312 1.9346 -2.558 -2.9663 -8.1777 
ytol -2.1341 3.6932 -5.0896 -2.8159 -6.1958 2.4236 7.4352 5.3679 5.4626 3.1611 
qokaly -2.1884 5.1189 -5.9313 6.4487 6.9192 -0.34526 -2.2417 -4.9047 1.2429 -0.85126 
aldy -3.3958 1.7319 -4.6198 -7.5116 8.4784 10.224 -4.5626 -1.389 -2.7358 0.72384 
oteor -2.9196 2.8347 -6.901 2.0344 5.1292 6.2039 0.44987 -1.1242 -6.0101 -2.7145 
chkal -2.2807 -1.9395 1.5656 -5.4008 0.22053 0.90776 -10.294 -2.8365 -0.21389 -0.20329 
shes -2.873 -1.1553 7.8783 -5.9007 6.0978 5.8551 -0.4745 -1.7382 -0.83677 9.5423 
ram 18.04 -4.9902 4.5352 6.446 -2.0353 4.1654 2.644 -7.1718 0.28996 2.7483 
dcheey 3.5115 -0.46514 6.2937 -1.9457 -7.1627 4.7406 -6.8169 -1.5608 -2.3276 5.6455 
opaiin -1.4154 1.9615 6.3552 0.4232 3.4805 9.095 1.6432 2.5891 -1.1568 -3.3172 
olar -4.3138 -5.2254 1.3923 5.1438 -0.71754 -6.6788 3.3412 0.81984 -3.8177 -8.6649 
qopchy 5.8506 0.65639 7.9593 1.7849 -1.9582 0.42027 5.9849 5.2407 5.0082 2.2252 
lkain 1.967 -7.5236 1.5401 -4.4437 5.1868 -2.3733 -4.5005 -6.4467 -1.6049 2.3605 
okchol -4.3085 8.1051 -2.9791 0.29792 -1.7374 0.78008 2.8208 11.282 -1.5717 2.2397 
m -18.541 4.5665 -17.196 -5.2514 -11.828 0.40544 -17.067 -8.6041 9.9353 -9.9746 
do 4.534 12.577 4.4066 5.7481 -8.4233 -4.1121 -5.2528 8.7604 3.909 12.474 
keeol -0.070634 -3.267 -1.9273 -0.41686 -2.4311 3.1909 2.2552 -1.44 -9.2533 3.6498 
pchor 1.805 -4.4491 4.0697 -5.8604 -0.812 -3.8416 8.9793 8.202 7.2842 -0.28651 
otedar -2.2072 2.7155 4.8404 2.4178 4.5715 9.4506 -0.52965 -1.5841 0.29756 -4.3644 
ly 0.80225 -0.028263 -30.777 6.4147 -2.2756 -24.099 1.8595 -15.913 19.924 6.3567 
ycheo 1.9892 -1.0836 1.6001 3.1106 1.0603 2.0589 -4.9741 0.60644 -9.0481 -4.4533 
cthedy -5.1097 -0.98309 5.5012 4.6386 2.9469 2.8691 -2.4125 -7.7914 -3.416 1.3471 
doiin -0.39114 5.8899 -4.2611 0.90449 0.16752 2.6348 4.7109 3.6152 -1.6896 8.8075 
sheeol 0.80242 -4.9788 -2.4367 0.44783 -1.7668 -0.17236 6.8585 -2.9979 -6.1083 5.9328 
lcheey -2.1808 -8.8692 5.4102 0.98534 -4.0828 -5.7485 0.09312 -5.6765 -3.7464 1.6273 
ykeol -3.1717 2.8632 -8.827 3.0965 -4.8073 -1.0833 -4.0706 0.99905 -6.5339 -2.5874 
shedal 5.1108 -2.04 5.6781 5.8406 9.155 0.10361 2.5777 -5.0497 3.0867 -1.3325 
okees -4.0371 2.1858 1.3106 -2.0972 6.1252 7.5234 -2.7331 -0.4428 1.2074 -4.6247 
chodar 4.1444 0.7218 -0.027348 2.9866 -1.9405 -1.7733 5.1373 7.1626 -3.3676 -0.5682 
chckhedy -0.15705 -1.0664 -2.6088 3.6465 1.4473 -0.33467 -4.8396 -9.5181 2.2002 -1.5475 
qokshedy 5.0624 -4.2826 -1.9897 0.71649 -2.0921 -5.5809 1.363 -5.518 6.484 2.0968 
olshey -4.4768 -2.3501 0.34771 4.6734 5.0977 -8.1698 3.6923 -5.4363 2.5161 3.1894 
ykal -0.95613 3.3867 -7.9296 1.638 4.0744 -0.82677 -1.122 3.1124 4.6178 -10.869 
okeal 2.2523 -2.3596 5.7162 -1.0616 11.275 4.1395 -3.6149 -0.91462 -6.7782 0.50302 
qokechy 3.118 0.255 8.9485 4.0963 -0.23173 1.6008 -4.6234 -2.0227 -4.345 4.2973 
rchedy -1.3442 -7.2148 11.076 4.6906 -4.5558 -7.3069 -0.94765 -7.6851 1.8627 2.7625 
cheeody 1.7181 -2.1868 3.3213 -1.6475 -1.3726 5.7441 -5.1445 -0.88942 -6.3976 -1.0083 
dshor -0.1181 3.9563 -7.3131 2.3656 -2.9362 -3.7996 2.9722 1.6494 4.5948 2.0568 
ytey -0.93215 9.2811 0.89022 4.5879 -0.42746 -1.2171 -5.4361 2.5563 7.2196 0.40942 
oteeody -0.40382 6.4394 3.0752 3.4536 7.1956 4.6585 -2.4266 0.7534 1.1746 0.83231 
ycheol 1.2279 -3.5615 5.5442 4.3116 -2.0085 -7.354 -3.8289 -2.0772 -4.7599 2.9505 
ykeeody 0.026768 6.9809 -2.6696 0.60706 -0.33948 9.9611 -3.4672 -1.1383 -1.1889 3.8269 
shee 4.1859 -1.1958 3.5656 -5.9057 5.3337 8.9975 -1.2871 1.2812 -1.0691 0.59962 
chan 5.406 -4.416 2.0196 -10.158 -1.0441 -11.891 -9.3129 7.5842 -3.2262 11.679 
pchdy 8.1542 1.0154 7.548 1.9985 3.7241 -0.86526 2.0592 1.6545 9.4944 1.1812 
ytam -1.5509 2.766 -6.1521 5.1934 -7.9789 -5.0419 -2.2402 5.3469 6.7649 -16.264 
cthaiin 5.0816 2.3078 -3.3891 -6.9443 -0.38295 -0.83455 -4.866 12.188 -6.104 3.9036 
choy -2.7867 5.0624 -11.428 -7.5182 -5.2671 6.0133 1.3751 3.599 -0.74567 9.4193 
daim -9.0589 4.0989 8.5633 4.5071 -3.9558 0.96107 0.13912 8.7106 -7.2341 -1.6844 
chotar -6.1027 -0.56962 2.8424 3.2785 2.035 -0.26848 2.1669 6.178 -9.6918 -5.6005 
oteeo 1.6343 -2.9811 7.3313 -3.2118 1.8452 4.7317 -2.3206 4.2463 -4.7614 -4.13 
tair 0.66167 -4.2435 11.161 -3.843 3.8075 5.2997 -9.194 2.8826 -0.3105 -13.074 
shocthy 7.6585 3.8052 0.84853 -0.60611 -3.6774 2.2407 -2.8634 8.0881 -1.5745 1.3465 
tey 5.7762 4.1463 4.0261 4.129 0.87458 6.4833 -7.132 -1.6852 -5.4437 3.7374 
chkar 5.2741 -1.7452 -4.972 -2.823 -0.0042448 -4.8107 4.3221 3.6053 3.0052 2.8762 
qoteol -0.85802 -1.9376 3.2875 -0.98353 0.87286 4.6772 9.6046 0.088768 -2.4237 7.7739 
checkhey -2.6301 -5.2222 -3.0237 -0.82372 4.9112 0.21987 -1.8449 -5.2886 -9.8972 1.6502 
qodar 5.7629 4.6709 0.38162 4.2039 0.30497 0.44098 -0.22193 3.2181 -0.68788 3.2104 
yshey 0.98786 -3.0444 1.8131 4.6949 0.059149 -0.29345 2.7224 0.23043 -4.7046 -5.7454 
ykol -2.4502 9.6702 -5.5941 7.5353 -1.6666 -4.3085 4.6714 6.8697 3.654 1.2222 
ychol -2.6136 0.59467 -9.3429 1.5658 -5.2354 -7.169 -1.5723 6.9734 -8.8485 -2.4426 
opar -7.0053 3.2549 4.5475 -3.61 10.741 5.1492 -8.8589 1.8736 8.6282 -13.25 
chotchy -1.7009 3.275 2.672 -1.0397 -9.5245 -4.8147 -3.2832 4.6783 1.7684 8.5955 
dshey 0.9956 4.111 -1.2981 6.0347 0.93306 -4.8295 -8.6168 -6.7379 1.1074 6.8348 
chory 2.1354 3.9064 -4.1645 -0.82445 -3.8425 -7.4848 -1.7934 8.8395 -4.4416 9.4557 
ypchedy 0.91492 1.8325 3.5157 -0.92835 0.23471 6.6268 0.63814 2.8795 9.4584 -10.195 
qok -6.2397 -3.4277 -4.8197 5.3555 -8.1031 -6.542 3.5528 -8.7381 -1.294 4.8987 
fchedy 2.3352 -8.1496 2.1675 -3.0391 0.75081 0.41765 5.1835 -2.1228 6.8984 -8.5222 
qokeeol 3.3186 -0.31661 -3.323 3.0633 -0.15234 7.9747 -1.4865 -5.2705 -9.0308 1.749 
oral -1.4921 -2.2703 0.53606 -2.6012 3.4956 1.8905 1.9915 2.4163 -1.9564 -3.4807 
okary -0.35619 -0.037232 -1.9938 -8.1663 3.6313 3.47 0.8611 7.1607 9.162 -9.8554 
chcphy -0.013199 -3.0398 5.3431 -7.759 -0.026179 1.3831 -0.7151 6.6448 3.3761 -3.8054 
shety 9.9057 -1.6047 5.4291 1.7909 7.2788 -3.1952 -0.9363 1.3492 1.0642 2.1804 
sam 4.9682 -0.78505 1.343 -2.8318 1.3262 8.0681 4.0364 1.3548 -5.9601 6.8714 
cheodaiin -0.16422 -1.1609 3.9492 -2.2372 -1.6422 4.1525 -1.5742 2.0494 -5.4786 1.6219 
shek 4.7184 -2.5786 -4.5576 -5.2673 19.592 -2.0855 5.0678 0.66731 9.6258 -2.4714 
chty 0.022981 -2.8999 2.7515 -4.0083 -6.2695 -2.2264 3.2008 1.8649 7.1021 1.305 
qot 4.8458 2.5655 -0.94593 2.2364 -18.251 -10.435 -11.289 -0.98276 7.5425 6.0596 
g -26.362 10.058 -16.456 -9.8964 -23.87 -1.919 -10.334 6.3404 8.95 -1.2882 
ytchedy 0.45269 1.7625 3.1341 6.6313 -3.9302 2.4676 2.559 -1.3708 3.5379 -4.8004 
pcheol -0.10059 -0.76635 2.436 3.958 -1.8568 -2.8289 5.4009 -1.2335 -3.7547 9.3874 
ls -9.5761 0.015148 5.2748 -2.5809 2.6769 4.6945 -3.0343 -12.372 8.6791 6.7746 
chdam -3.3516 -1.0181 -1.7824 7.5306 5.9716 0.29872 3.1703 -5.4234 4.6855 -12.474 
otoldy -6.7935 7.1297 -5.0782 3.3959 -2.246 -0.41399 8.6641 7.4061 6.1291 -2.6851 
okeeor -0.36852 -0.94539 -5.6469 -0.47163 3.1947 4.6119 0.93141 0.30138 -11.32 1.2618 
arody 7.5483 -7.7849 9.6834 -3.7365 0.73664 7.0435 5.999 3.0948 2.2247 -7.6674 
shod 4.9168 0.3611 6.9505 -1.5791 -6.5611 3.9625 -2.8889 7.3685 0.99592 -5.5207 
kam -3.997 8.787 -8.382 2.5306 -1.5935 2.8231 -3.6012 -0.96522 5.9023 -1.2178 
arol -2.8982 -5.8655 -5.9501 -0.39963 12.722 2.902 11.562 -6.309 1.4632 -3.7274 
ytchor -1.0119 3.1682 -10.188 -4.9027 -8.4062 -4.663 3.8493 5.8202 7.6036 5.7024 
qoar 13.641 -2.5325 -3.0747 6.5593 -0.46605 -2.3881 8.2174 7.0524 -5.583 -4.9197 
sheod -3.4561 5.0296 -2.5739 5.2013 -1.1539 0.48933 -4.1793 -1.3572 -4.6172 2.0608 
opal 2.4186 -5.4408 0.36809 -1.6582 2.9467 2.3192 2.5326 3.9513 -3.9516 -10.414 
otshedy -2.0363 -4.2818 3.8501 -0.64181 7.5522 0.37594 -1.7696 -4.3204 5.0513 -8.4638 
qokl -1.3402 -11.585 2.8273 -4.9478 7.9577 -12.253 5.8494 -4.9194 3.1801 8.245 
qotody -5.3108 0.37108 7.5118 2.5287 -10.675 1.0536 -2.1797 0.051067 0.14576 -0.36612 
chekaiin -3.3025 -1.1682 -3.3086 -5.1922 4.0147 0.57646 -7.4643 -1.4396 -0.80741 -2.5934 
ytchey 2.7987 2.3814 3.8645 -1.1005 -4.7864 1.4475 -4.4744 5.0605 2.0775 -1.6541 
oram -8.7124 -4.5297 -0.30619 -0.024357 -1.6124 1.6262 0.76026 0.54377 -7.5254 -8.8664 
ckheey -3.2359 -0.8184 0.15021 -0.18934 -5.7396 2.4628 -6.5287 1.8406 -14.287 1.9868 
lr -13.599 -12.508 5.5056 -9.792 13.009 5.1184 10.008 -9.5558 0.49852 2.3212 
ckhor -0.063805 1.1522 3.7094 -2.2438 -7.0346 -1.7984 2.121 13.686 -6.8969 2.7506 
cheockhy 3.9169 2.6246 -6.1799 1.1989 1.664 2.6934 -6.4018 0.072259 -8.2865 1.4827 
chokeey -7.0994 0.55298 -5.7465 2.7802 -2.7045 -0.51005 1.513 -3.1297 -7.5106 4.637 
chotaiin 6.1182 0.55554 1.2901 -3.8599 -1.6659 3.3689 0.37207 8.1649 -0.23593 -1.2591 
qokchor 0.11732 8.9309 -3.5489 2.9112 -8.184 -3.5373 2.5723 5.4062 4.6153 12.587 
octhy 6.2459 4.9903 1.0683 2.9409 -0.75902 4.5837 -1.814 1.2599 3.9358 -0.57665 
shees 5.8586 -0.24804 1.0466 0.67766 1.9698 -2.2575 1.4568 5.0507 0.15695 -1.3756 
qotcho -1.9437 -1.3376 2.8321 -0.010369 -14.031 -8.4874 -2.2695 4.8782 -3.0428 6.3124 
chekal 3.8512 -1.1625 -3.9894 -0.087216 0.042671 2.8614 0.09828 -2.0833 2.9399 -5.1585 
qokcho -3.5481 3.2288 1.5779 0.42733 -10.67 -1.4765 -2.8358 3.5555 -5.0841 9.4392 
aii!n 0.5444 -2.1301 0.86451 2.0666 0.27851 0.12058 -0.60106 0.89805 -2.8976 -6.6709 
dsho -10.267 9.5204 7.3986 -0.60611 -10.39 -2.6428 -7.343 10.07 0.095927 9.4304 
oiiin 4.933 0.16985 -5.218 -0.10693 0.51897 -1.0286 -5.4912 -1.0233 -4.2394 2.1994 
pchedar 2.052 -3.6695 8.8933 -1.5845 4.7946 4.4621 5.9697 0.53892 4.981 -2.6166 
okshy -2.4628 2.5938 -9.7916 -1.9467 -6.059 -3.7234 3.7303 4.9825 7.8577 -3.5936 
or!aiin 2.9736 -3.2081 -1.1934 -0.27529 -0.25624 0.64244 1.229 1.2051 -1.4127 -5.5774 
k -13.637 -3.5508 5.1769 -20.945 15.905 -2.9631 -12.924 3.552 -1.4717 13.859 
qokody -2.5745 4.0903 -1.6026 7.6583 -5.3385 -0.74603 -3.4901 -4.3127 0.12654 0.19043 
sheaiin -2.8838 0.37245 3.8203 -4.2883 1.6354 -4.8113 -4.7587 6.753 -2.0173 3.1138 
qoteody 1.2461 0.074115 4.4519 1.6627 -6.9352 8.6448 -0.17236 -0.33356 -1.9508 -3.1611 
ychedy -2.3506 -1.6932 6.6867 9.8999 -3.1113 0.32439 0.4844 -7.1115 0.37708 -5.2123 
dshy -5.2712 6.39 3.4287 -8.8813 -0.88554 -0.38864 0.83167 9.0021 11.853 10.195 
qopchey 5.2185 -1.6985 8.0523 -0.61449 2.7446 2.6125 4.3182 0.50664 2.8259 4.9682 
qokedar -0.020177 -0.079107 1.3847 5.7406 -2.342 6.2156 4.2862 -9.9256 7.9448 -1.5606 
oees 5.622 0.94875 -9.0325 -5.8921 -9.1623 9.7624 -5.038 6.0719 0.84474 -12.547 
chr -1.5785 -12.994 2.8899 -6.6064 -9.7241 3.2043 10.739 -5.3934 -9.4127 12.901 
qokshy -3.0166 1.1082 1.4977 7.573 -6.8875 -5.376 5.9996 0.79739 2.7495 -0.26383 
teody 4.1034 1.9863 7.4488 0.4812 3.315 4.1273 -6.1146 3.1885 -5.5817 2.3032 
cheeol -7.4373 -3.4278 0.34414 0.6745 -5.7368 1.1878 -5.6217 -4.2562 -8.2543 -2.3773 
shos 6.5943 2.8989 0.83184 -8.2555 3.3407 5.9105 -8.264 13.58 -2.3103 -6.2036 
okshey 1.4051 -0.71587 2.6576 -1.3428 7.1203 1.9307 7.7462 0.74118 4.9613 3.0345 
okcho -2.7596 -0.017369 2.1117 -3.352 -7.5288 1.5209 -6.8831 4.5902 -4.8221 -1.8256 
qolchey -1.2594 -4.1881 -2.9926 2.6518 2.9233 -5.3434 6.2381 -11.742 10.077 5.3693 
olkeeey -0.0072499 -4.6147 4.5501 2.6454 4.6396 -4.2158 -4.8785 -3.1138 -4.9062 -2.5083 
chotal -2.9827 7.0406 2.8168 8.236 3.9835 2.7239 -1.1273 4.6293 -3.5022 -5.3706 
s!ol -4.4757 -0.37701 -10.459 0.39967 4.2478 0.79195 11.641 -4.1452 -1.7758 9.1758 
chotey -1.9871 4.6079 4.6893 -0.9488 -2.8702 7.4134 -4.5992 5.6489 -6.8021 2.6277 
qokaldy 3.2346 5.1088 -6.7853 3.0218 6.293 -0.65817 -3.6063 0.035148 7.631 -7.0704 
qoor 7.5413 0.22861 -15.741 -9.7725 4.8907 10.222 4.6591 6.6381 -8.1769 3.621 
sheety 5.4793 -2.1935 -6.6275 4.2668 -0.2403 -3.1889 -3.3747 -12.014 6.7439 0.44252 
keeo 3.0178 -1.1056 -0.80056 -0.65301 -1.7318 3.2072 -7.5894 2.1693 -9.8474 -3.7374 
okear 2.5459 3.5521 -0.63911 -1.453 12.442 7.3645 -0.99283 4.2732 -6.3005 1.0306 
keeey 1.1879 -7.7755 2.6605 -5.6165 -4.8441 1.8586 -8.6563 -5.1148 -9.7582 4.552 
chekar 3.2593 1.5418 -4.7134 4.4941 5.7344 3.288 5.5655 0.034573 3.2992 -7.4547 
orar -7.8324 -7.2289 2.9973 -5.8548 4.4509 6.4012 6.9712 2.797 -3.3021 -9.8526 
qofchedy 11.309 -0.33014 -0.40629 2.4723 2.4185 3.8508 1.799 -3.1272 3.4651 1.3045 
ycheor 3.5665 -3.41 -7.0519 -5.1025 -4.3975 1.1282 2.8842 4.9879 -5.2236 -0.43089 
ykeeol -5.2755 4.4769 -3.1911 7.3503 -0.5639 0.85869 -2.4819 -0.20313 -6.8173 -3.0917 
okeeedy 1.0385 -8.5186 -1.073 -2.3485 -2.577 5.0815 -1.409 -7.3497 -2.093 -7.4923 
keeody 4.6508 2.8575 -0.81289 0.22838 -3.0856 11.706 -3.6826 -1.1804 -5.1192 1.0334 
olchdy -6.2806 0.79784 -2.4044 3.5587 2.8153 1.0836 5.6778 -4.4314 6.588 -4.4964 
otees -3.2946 5.5071 1.1901 0.86631 2.572 8.7003 -0.46976 0.82955 1.6711 -1.9299 
cthom 4.4582 -0.047337 -8.7167 -4.9702 -11.222 -3.0638 0.44361 5.7478 -4.7038 10.522 
shdar -0.73124 -0.15664 11.266 1.7781 3.2029 -0.89804 3.2857 4.8615 8.8027 -7.1242 
rain 1.4918 -7.0111 4.0096 -3.6017 3.3799 -0.33661 0.9143 -2.2797 -3.2553 1.7106 
otoly -11.63 8.0696 -5.5655 4.0031 0.32659 2.3467 -1.6763 3.644 1.2825 -8.6011 
tody 3.357 8.2396 4.6945 6.351 -1.5325 0.27594 -4.393 5.2007 5.0395 -2.2473 
odain -0.87627 -1.4885 -0.83109 -4.7555 -3.3017 8.6045 4.4288 -0.37246 1.7407 0.016985 
ytchdy 0.54234 3.954 0.58637 2.5968 -4.9522 1.1552 0.13593 1.4111 10.887 -5.8359 
shokchy 3.2326 5.5964 3.7868 0.49096 4.4411 -0.056371 3.5137 11.027 0.37568 4.2293 
eees -3.9274 -5.9264 -6.033 -7.6833 -4.5893 2.9983 -6.0358 -3.4304 -4.3536 -3.9771 
olcheey 0.80487 -4.1142 -0.55785 1.6036 -4.8391 -2.407 -7.5891 -3.9458 -4.724 -4.4918 
aram 3.4275 4.6252 -4.2608 -2.2004 10.146 2.6355 -4.6275 4.9327 5.6834 -8.5717 
ksho 4.305 -1.9646 -7.8689 -12.217 -7.9029 -1.8466 0.19883 5.5881 -2.0944 15.881 
okedal -3.4695 3.3192 -2.0925 8.4955 5.9102 9.5528 1.5856 -6.9752 -1.0926 -7.6551 
todaiin -0.23173 4.819 -2.3316 -0.88111 -2.2006 -2.2413 -7.7664 3.194 4.666 -1.7636 
qokan -2.0058 -5.6875 -3.7028 -3.7267 6.3681 -10.244 -10.073 -5.9681 5.8138 -4.9593 
choldy -3.4614 5.762 0.87286 2.9534 -2.4351 0.44593 1.4887 6.9013 -2.5668 1.7134 
ykchdy -1.3702 4.2745 -0.18107 5.7839 1.4484 -5.7466 4.9522 4.1258 7.8365 -2.9605 
lkchey 4.9865 -8.3827 10.433 0.030281 -3.0668 -1.9776 0.45084 -1.0331 -3.6221 0.73188 
cphey 0.44293 5.4989 -0.81841 -4.1593 0.77473 5.6619 -0.13478 1.7511 8.168 4.5822 
olkam -2.0023 -1.7114 4.2065 11.396 -0.6601 -8.7878 3.9635 -0.046042 -3.2155 -4.0572 
ctheol -4.4269 -0.70592 -13.448 -3.0632 -6.3254 -2.3936 0.16095 3.1365 -15.108 8.8242 
oteeol 0.44323 -3.5615 8.1607 -3.2074 -0.16157 6.2369 3.2576 4.6723 -9.4034 3.911 
tshedy -0.90748 -8.056 1.0481 -3.1778 -3.2068 0.45257 2.1524 -7.8402 11.992 -8.1307 
dchdy 1.2286 5.8689 -7.0556 3.7377 3.8362 1.3684 5.4631 -4.1843 14.183 0.82952 
qokeeor 3.2668 -1.463 -0.30648 8.0323 -2.9501 0.12683 4.0065 1.2182 -13.005 1.0477 
alam 5.8969 -3.5528 -2.0995 -2.4906 11.804 4.6415 -1.6869 0.44105 -11.037 -0.076243 
opy 0.062528 5.351 11.577 3.2377 4.2034 -0.46235 13.837 18.724 10.867 -8.9166 
oteeos -4.1738 1.3161 5.7018 -4.0355 8.8941 7.5372 -2.2725 6.9707 -8.6444 -1.1106 
qoked -4.857 -0.5387 0.76309 5.2487 7.4574 7.7611 -2.6867 -15.97 3.7756 -1.932 
cheoky 5.8497 1.7798 0.44086 7.0853 -0.77374 -4.2358 2.2934 2.1528 -2.8743 3.1613 
tchody 0.93026 2.3161 4.2681 2.3473 -6.6853 -2.1261 4.5273 9.8974 1.4842 -1.8691 
cheom -5.7167 -3.9277 -3.2106 -3.6042 1.2381 1.9212 0.16346 3.9624 -13.46 -1.8829 
alol -1.9997 -3.5405 -5.1613 -9.7998 6.0106 2.6908 -7.1893 -0.45217 3.4393 -8.5521 
chcthey -1.6796 -2.6444 4.4692 1.3264 -6.0753 1.6582 -4.4749 -8.29 -1.6696 5.5805 
shcthey 4.5798 -0.90682 1.0099 1.3823 -7.8678 -3.275 -6.7303 -2.0755 2.9033 -0.16226 
lcheedy 2.4261 -11.706 0.9925 3.7542 -0.4429 2.5577 5.2225 -11.189 -7.3111 -3.2097 
ykor 5.5684 6.5332 -3.8632 -4.9702 -7.1459 2.1109 -10.443 9.9916 5.5305 -5.0258 
oto -10.459 9.1686 -4.2746 2.9331 6.9166 7.3662 4.616 8.9236 -2.5984 -8.2452 
sheeo -0.35107 -5.2576 2.9521 -0.17287 -6.2577 1.6435 -1.7186 -2.0135 -5.6188 -2.672 
qolchedy 0.39125 -9.1176 -0.14356 3.8212 4.4493 -7.6902 5.5736 -11.91 3.5305 2.3935 
cthal 8.2337 -2.0235 -8.1314 -9.6619 5.362 -9.0254 -1.6009 6.7881 3.9539 7.2075 
odor 3.5858 8.8639 -6.3563 2.0578 -3.3621 7.2003 -3.2124 7.2155 2.2112 -7.7188 
cheeey 4.9152 -3.0679 2.1554 -0.60754 -1.0265 -2.2023 -2.9898 0.97805 -5.1311 2.5126 
paiin 2.3911 -0.5436 6.5417 9.2774 1.6514 -8.4781 0.89974 6.2729 -4.5375 -5.7401 
schedy 0.52709 -7.5036 -1.045 4.5643 -1.3206 -3.4397 9.3438 -8.5995 7.5278 -4.717 
okaldy -2.5897 10.924 -6.6248 4.6192 5.2057 4.4255 -2.4433 4.1965 5.5397 -7.6703 
okeos -8.0345 6.4168 -8.4332 -4.577 5.6722 14.409 -0.22256 3.1583 -4.4108 -3.3617 
dsheey 3.2338 -2.6884 2.5263 1.7217 1.3732 -1.6782 0.26602 -6.2243 -3.5844 11.78 
okedar -7.4712 -1.0301 -3.8665 -1.5835 6.2 11.012 0.52604 -11.749 5.8814 -4.736 
araiin 4.0832 -3.9442 5.6581 0.59877 6.1887 2.4525 -2.1975 -2.531 1.0143 -6.3251 
ochedy -4.1565 -0.43493 4.8871 1.3378 -1.9546 7.3917 -4.3019 -5.7888 3.8476 -7.3679 
kshy -4.4109 1.676 -0.68859 -6.8788 -4.5994 -8.878 -4.608 7.2763 8.812 2.2934 
alor -3.7941 -1.1819 3.461 1.0792 -4.3235 -0.56725 -9.3905 2.1982 -2.6289 -11.938 
chokal -1.9652 8.1126 -2.3515 4.3715 1.0961 3.7759 -2.0253 0.9624 -1.165 3.1258 
olcheol 2.8484 -2.5393 -7.8644 0.83836 0.20994 -0.5308 0.80508 -0.47709 -6.9225 -1.6266 
chotol -11.016 9.051 3.971 -2.2323 -5.1418 5.9065 -1.1079 10.117 -0.92218 3.6818 
tai!n 7.6245 -11.347 -1.9615 -0.21566 -0.63395 -10.446 -5.7898 -6.8067 -2.6251 -2.2057 
lchy 0.26625 -2.1588 -0.89752 9.3718 3.467 -16.775 3.846 -4.7299 0.98269 8.6508 
lkl 16.142 -24.101 6.9282 -7.4388 0.88279 -7.7672 2.931 -3.719 2.3546 -10.878 
tshey 5.6688 1.3694 -3.8674 3.325 7.4574 -5.5824 0.15943 0.75913 -0.072271 2.5168 
oeedy -0.025496 -3.5366 4.168 -0.86726 3.5553 1.6593 2.763 -0.30553 5.4877 -7.952 
chod -4.2471 5.199 -6.3226 -0.10406 -11.382 5.5021 1.234 6.8422 -2.3322 -3.4699 
olchy -6.5617 1.4011 -3.2813 4.9183 3.1421 -11.283 0.30359 -0.95471 4.2258 -0.84179 
otcho -0.67598 4.6794 -3.4842 -0.42526 -9.4131 -6.5682 -4.9195 10.477 -1.1925 0.82083 
lsheey 0.67379 -7.9396 -0.2158 1.9411 7.4333 -4.5053 3.6363 -10.635 -4.732 9.0069 
chedain -0.43252 -3.9451 7.706 -0.55628 1.8505 5.2799 -5.3632 -5.3218 -0.74459 -4.4034 
dsheol 4.1567 2.2063 -3.5635 4.5446 -1.5655 -3.1115 -3.4228 -4.0805 -0.54535 5.8513 
pchey 4.2303 -1.3444 6.811 0.66732 3.4341 -4.0543 1.0287 1.8199 3.3627 2.5144 
p!!!ol 2.5511 -7.3169 0.10475 4.5678 4.7674 -10.74 3.9562 -3.185 0.60451 -2.9783 
tcho -10.287 4.5574 4.7424 2.6793 -7.6075 -6.3986 -0.16367 4.8528 -2.5058 10.335 
chkey -3.4254 2.7335 -2.6466 -4.1646 2.4706 5.0475 -5.5942 3.3191 -7.1622 1.5626 
t -4.9995 1.292 -5.3645 -17.828 -1.5112 -8.9601 -10.4 -2.2685 14.804 24.006 
qocthy 2.6134 3.2455 -5.2085 4.3028 -10.964 -7.0339 -2.1926 6.5106 -0.44536 -1.8045 
s!ar -2.9127 2.0762 -9.9208 -4.1923 1.2729 5.6719 1.3929 -4.8292 7.4642 0.38788 
rai!n 3.7641 -7.5261 4.3396 -0.57201 8.717 4.1915 2.4893 -6.7899 -4.1512 0.67594 
sheeor -3.9429 -0.61375 0.44845 -0.5534 5.6491 -0.33272 2.7262 4.2092 -11.751 5.8803 
x -33.731 2.274 13.771 -27.322 19.107 7.2977 -9.9812 5.272 7.6062 18.413 
chdor 2.587 -4.6771 0.54338 6.4811 -16.62 -2.5996 1.3024 -5.2501 3.3893 -5.8236 
shoky -0.30087 4.0917 2.7239 2.4096 6.2933 -8.7329 -7.0699 7.2555 -2.655 1.556 
kshey -1.3652 -4.9277 2.7893 -1.9836 -11.318 -2.8217 4.0511 -6.6487 7.2662 9.5897 
ro 13.562 -11.204 18.22 9.1144 -5.7353 -15.174 -2.2028 4.2145 -9.3458 -0.15016 
aim -4.853 0.42325 3.159 -0.35893 5.1698 -0.0064678 -7.0679 4.9879 -3.432 -10.47 
olsheey 2.8479 0.48117 -4.2231 1.0739 9.8736 -6.4987 -3.0403 -1.7021 -4.5445 9.3695 
sholdy -7.0617 2.1719 3.9445 9.5132 -3.548 -12.313 5.4929 1.6799 -0.072302 7.2448 
dcheol -1.4166 -2.2951 -4.3211 6.6459 -9.951 -4.7216 -2.8159 -8.5211 -2.9395 2.0135 
shckhedy 0.52531 1.0478 -6.4396 5.5631 2.5711 -5.0759 -6.4104 -9.9983 4.7449 0.44786 
ycheeo -0.96526 -6.0153 5.1943 0.8148 -3.9911 -4.2014 -2.3442 -0.67404 -4.8182 -2.115 
otary -3.9997 2.2173 -5.2555 -6.0243 3.7674 1.3573 -4.0033 -1.1402 12.079 -4.7655 
oldaiin -4.1413 1.6122 -3.5913 -1.9721 -4.8383 4.4283 7.2843 4.1221 -1.0303 2.2585 
chcthedy -1.5502 0.10301 6.8601 2.2005 2.9168 7.0251 -3.1239 -6.7653 4.8047 -3.5768 
deey -2.2938 0.96245 -5.0148 5.4996 -17.525 -6.7907 -9.947 -4.9277 -3.1776 3.1126 
keeor -0.6145 -3.2971 4.6705 -2.1103 0.84246 -1.2255 -4.6752 1.4852 -12.802 7.7061 
qokeo 5.7182 -0.44542 -4.7989 6.536 -2.9094 3.4221 5.9885 -3.1668 -9.9026 6.9581 
otshey 8.4816 -1.7521 2.5273 0.92931 9.7197 -4.6424 5.3184 2.8719 10.342 -3.5251 
ycheedy 3.1787 -4.0008 0.62991 7.5058 -6.6959 2.8413 2.3629 -8.1361 -2.7852 -2.7271 
lkey 7.0538 -2.1199 -0.68266 -4.8762 10.839 5.1352 -4.4561 -5.8272 7.1559 -1.586 
oteeey -3.5129 -5.271 -0.64988 -1.7096 0.011829 2.0633 -1.1627 -2.2251 -5.3895 -5.9794 
choteey -0.33196 4.5573 2.1824 -0.28111 1.1619 8.6406 0.17197 2.1052 -6.2608 7.6698 
otaldy -4.7666 -0.77907 -4.72 -4.3321 4.5358 2.3323 6.5619 2.2348 4.3826 -4.0289 
cphedy 4.451 0.81178 2.2944 4.6989 4.4538 5.6639 9.5359 -0.13447 5.1631 -3.6802 
qodal -0.21867 4.9918 3.166 10.558 -6.5006 1.3177 2.8091 7.7243 -3.586 -8.8106 
dom -11.742 8.4512 2.3718 1.4788 -10.062 -5.6963 10.094 17.33 2.3241 6.1329 
ykey 8.9793 10.811 -4.3896 5.0792 7.8489 1.6486 -10.653 6.7891 -1.6495 -2.4304 
lcheol 4.4082 -0.34117 -5.5597 5.4631 2.0696 -1.5651 -0.53393 -6.3947 -2.06 1.97 
lsheedy 5.9091 -12.143 9.0044 0.7653 1.083 -0.25074 3.2563 -12.123 4.0668 1.05 
oko -0.52944 14.513 -2.6959 5.5795 1.9592 13.922 -0.4221 7.4824 -2.5606 -1.4983 
ydy -2.8204 -1.7389 -8.1011 6.0335 -20.461 7.4924 12.415 -7.4923 -3.6684 5.513 
sheoky 0.67385 -1.8241 3.2915 5.9117 0.093699 -6.0286 6.3948 -1.114 -2.8633 7.4848 
qockhol 2.8406 2.1076 -0.77399 5.533 -8.2326 -0.80348 -2.1718 2.1279 -8.3424 3.4012 
eeedy -0.58364 -4.8891 -4.7405 -3.7004 3.9536 11.989 2.6557 -11.043 -1.394 0.36206 
ochey -4.2773 0.8555 2.5617 -0.58789 -1.3 4.9432 -8.2084 -6.0426 -2.6554 2.5964 
qokear -1.7279 -2.1467 -2.063 14.698 1.0881 -0.86468 -2.7932 -13.707 -10.495 -1.4916 
orain -2.907 -1.3431 -0.44286 -3.5804 2.638 1.6257 -0.36178 -2.8352 0.6062 3.0864 
kcheol 1.9808 -2.1077 5.2177 -4.4351 -5.1654 3.5431 -2.0539 0.38036 -9.8033 15.799 
cheodal -5.8919 1.3867 3.2909 6.398 -6.3767 -0.57595 -3.8828 3.1299 -10.273 -3.8644 
loly -7.5965 -2.0599 6.8661 7.4655 2.7364 3.748 12.712 -12.656 4.6039 8.8762 
okcheey 5.0797 -3.3042 -2.9639 2.1905 -4.3604 4.7892 0.54986 -1.7823 -7.3152 -3.4401 
chokar -0.13654 -3.9994 -2.8259 -0.24242 -2.4798 1.3286 0.58966 2.6153 -7.9895 -6.7711 
olain 0.85003 0.35225 -3.239 1.8403 3.6652 -4.4786 -7.2122 -5.3679 2.7501 -0.48282 
oteed -1.9284 -4.3675 -0.21672 -5.8613 0.28403 4.0265 -6.2545 -5.8317 -1.0244 -0.49999 
schey -5.9606 -6.758 -4.8256 -9.2187 -10.681 -5.3748 -0.8405 -5.3975 1.8339 11.541 
qoly 6.657 -7.3844 -2.9626 -4.2962 18.033 -13.532 6.6937 -10.051 8.6546 22.497 
l!chedy -3.1783 -5.0096 1.15 7.4258 2.3092 1.5143 2.4715 -13.408 -1.5604 -1.2361 
daram 2.6234 2.4816 -0.55282 -3.1923 1.3734 5.5837 -4.2786 1.1772 6.388 -5.1996 
dalor 2.1588 -0.020859 -1.4648 3.7561 7.1895 -2.7842 10.403 8.4443 -1.6482 -5.1758 
tshol 5.8841 8.2648 -1.3455 -5.2099 1.0384 1.4156 -1.4398 14.017 12.167 -2.9954 
shory 4.8982 10.318 -8.6981 7.5106 -5.029 -4.3094 2.8962 6.0195 1.7608 8.08 
arar 0.78815 4.3302 4.0717 1.5923 13.145 10.664 2.9791 6.6359 0.097739 -9.939 
chekey -6.0254 -0.77127 -3.0751 -3.3659 3.0825 7.4572 -2.4485 -4.6566 -3.3681 -0.83993 
chtal 9.5428 -0.16061 -1.0585 4.0268 6.2897 -6.0538 -12.546 -3.5057 -3.0706 1.0875 
ety -1.0378 -7.7865 0.59344 -6.6596 -10.763 -2.7571 9.9524 5.0612 2.6399 0.54673 
oldar -2.5592 1.114 -7.5647 -6.424 -2.4803 7.1045 0.58638 0.026848 9.8605 -6.9101 
ockhey 0.50282 1.4391 -3.905 4.2524 0.15835 6.7783 2.6376 2.2774 -9.493 -4.6833 
por 6.7492 -6.1665 -0.71133 -0.51103 6.052 8.0918 7.6192 -2.0246 -13.332 5.0586 
qoeeey -0.45977 -2.649 4.3326 4.1336 -6.0138 -1.6486 -2.8084 -1.8875 -4.8943 -1.2907 
chodal 0.52001 8.5945 3.7208 5.4855 -1.7715 4.5102 -5.0818 4.7015 -1.4872 -0.31996 
ysheey 3.2598 -1.6751 -1.5791 5.2833 -4.0496 -2.3903 -1.9691 -1.7831 -4.163 -3.0917 
lkeeey 5.0302 -11.366 2.8847 -3.642 4.3969 -1.5088 -7.7785 -5.5093 -14.382 2.6355 
okchd -9.6489 1.6938 5.5082 -0.24792 -6.2357 -2.6123 -8.8361 -0.62414 5.5615 -4.0293 
sham 14.814 -2.1068 0.074362 -1.3771 5.9725 -2.911 1.6285 1.9642 2.2181 6.6171 
oeees 2.7987 3.1784 -2.2598 -5.9781 3.1094 3.3078 -5.0975 8.0289 0.7739 -3.231 
yteeody -0.34518 5.3495 9.2973 1.1083 -4.0096 9.4218 -5.759 2.3599 2.6417 -2.3498 
qokees 0.63291 -2.0543 3.9675 -4.3029 3.5174 7.3863 -7.0476 -5.2008 -0.10803 -0.047554 
cthdy -2.3192 1.3775 4.8134 0.40262 2.2618 -2.392 -9.0083 -5.3189 7.0072 1.3314 
f -25.727 -3.1032 -8.032 -33.865 11.794 3.6534 0.89051 11.352 8.767 10.064 
sary 9.3638 5.7767 -10.38 -3.3345 2.8148 7.8451 -2.9338 5.0258 -3.4462 2.3944 
keo -1.8045 5.9262 -6.7717 1.6858 -0.58026 12.876 -8.0894 -0.94718 -15.628 1.729 
yshedy 4.9589 1.9237 -2.5044 9.763 0.49567 1.037 6.993 -9.1108 8.4258 2.489 
ytody -4.7412 13.606 -1.2514 3.4463 -2.7619 0.86866 -13.057 6.4748 5.9605 -4.4376 
otear 1.9021 1.492 -2.3241 8.5131 13.347 7.6925 -4.7369 -5.0581 -8.6572 -10.275 
polaiin 7.4151 -3.8683 3.2501 0.022462 1.9832 0.27037 -0.60732 -0.14193 1.9588 -4.7875 
dalol -10.658 3.8054 -1.6892 5.8137 6.0193 -0.57594 5.03 -0.78325 -1.1568 -0.45144 
shoiin 9.7758 -1.0076 -1.6501 -2.7301 -12.997 -7.9359 -0.29463 7.4185 6.2865 4.2459 
qoy -1.8549 10.564 2.2135 4.2993 14.07 1.8158 6.7367 15.812 -3.0147 -0.50885 
orai!n 3.0295 -8.8651 -1.2593 -2.0841 1.5367 1.1389 2.9835 -2.7347 -5.0203 -4.8801 
tam -9.5582 3.6236 -10.724 6.3318 -13.902 0.67244 10.575 -4.6121 18.519 -10.425 
lchal -1.6861 -7.7328 5.88 -7.0124 7.2583 -1.9906 -11.54 -2.2328 -8.7525 0.88221 
cphor 4.9749 -4.0538 1.5696 -11.652 1.179 -2.8153 6.6633 6.9824 3.5046 14.373 
qokeod 6.1737 0.37879 -2.6801 2.4522 -3.1471 9.5381 -0.19557 -3.7235 -9.8215 6.1049 
shedar 4.7047 -0.64027 -4.0843 4.7653 3.2955 3.7479 7.3975 -1.2856 3.8411 -8.7023 
okoiin 8.8263 1.6871 -6.6793 0.50318 -3.5781 -2.9237 1.704 9.4364 -6.7649 3.2939 
lar 4.293 -10.107 -0.92866 2.1923 2.0244 -13.851 10.418 -0.028888 -1.7154 2.7486 
chepy 6.923 0.45592 0.035358 5.6676 9.9362 -0.99569 2.0113 2.7308 -1.0185 -6.5488 
shockhy 1.3894 4.7803 -7.0305 5.5896 -3.3367 -2.1684 0.06572 5.1042 -6.0237 -0.50814 
ykain -6.0776 -4.0267 -3.2896 -2.7836 -1.1433 -5.9426 -1.789 -0.624 6.6228 -9.3688 
ykeeo -1.4444 6.5351 0.021271 1.0483 6.6743 5.0533 -4.4337 3.4645 0.78569 -3.9202 
pchol 5.8115 -0.55807 1.4626 -4.1149 -1.5025 5.9722 6.6494 5.1996 1.389 2.688 
okoldy -0.91862 8.2246 -6.3558 9.5932 2.2525 0.96125 7.1535 2.8646 3.0001 -3.082 
doiir -1.4988 7.8254 -5.1194 1.2661 -7.0793 9.6804 4.2131 1.1611 1.9803 5.4231 
olal -0.95731 -6.0078 3.5432 4.3358 10.947 -6.2732 7.8729 0.7615 -9.0875 2.0557 
tcheey -5.1452 0.22656 7.5626 0.54565 -4.2239 -1.6988 2.4259 -0.072335 -0.4845 10.79 
kcho -7.6794 2.7984 1.8567 -2.5561 -12.1 -2.1314 3.9299 6.3954 -0.73159 11.031 
qolkeey -2.1258 -3.6938 -7.6567 -2.4068 -0.76445 -2.2101 2.3747 -7.0601 6.23 0.44913 
ofchedy 9.5724 3.5555 -2.4321 4.6058 1.8783 -0.27144 0.39657 -3.2996 10.427 1.2199 
chetar 2.9503 -4.2328 9.2393 -4.7758 10.366 0.51099 -3.4279 5.5057 0.53432 -6.8003 
lteedy 4.5334 -8.1224 1.9477 4.4909 -3.1207 -2.7618 4.1369 -7.437 -3.6066 1.6191 
ykchey 1.263 2.6076 -8.3836 5.701 -1.8673 -7.3447 1.9001 4.5738 -1.8375 -3.0318 
okaiir -4.1065 -0.37945 -2.5655 -3.6521 -3.165 -0.17986 -3.414 4.0842 2.7567 -9.1098 
qotaly -5.1844 -0.46455 4.7412 1.2583 2.3507 -3.3252 -7.2167 -0.92279 5.4626 -9.1571 
ykair -2.97 5.6865 0.34401 2.6376 6.0559 0.77392 -4.5283 7.9867 1.9774 -12.77 
cphaiin 6.3186 -5.2105 2.8842 -4.2195 -5.6578 -5.4512 5.2995 9.5322 -1.2406 2.0763 
ofar 7.314 2.303 0.72826 -3.091 11.14 2.4832 -0.70288 7.1781 4.731 -5.135 
chdain -2.7957 -1.0578 6.4178 0.20587 -1.641 -1.498 7.2312 -0.79762 9.1027 3.7643 
da 7.6679 15.075 -27.332 1.8431 -1.8409 4.7346 2.4006 -6.7973 5.2062 25.328 
qokoiin 5.8394 -1.8385 -1.0209 0.26118 -6.3881 -6.0568 -3.5072 -2.9294 -1.0173 10.958 
okchody -2.5982 5.7761 -6.1332 -1.5699 -5.0636 3.3214 -0.90762 11.851 -3.5414 -6.4554 
qod 3.0891 -9.6379 8.0266 -3.2847 -13.303 -13.247 2.422 4.533 7.6314 -1.8514 
ochor -8.7226 0.73891 4.8813 -6.1449 -7.2895 -0.93435 -2.5819 5.4727 4.7447 0.64353 
od 10.665 5.6636 -14.71 6.5113 6.0837 -13.921 3.0357 9.3303 -9.9793 12.593 
tcheol -3.2562 -3.2501 2.48 0.78665 -0.023638 -2.508 3.765 -3.2525 -4.7203 9.2054 
qoko 1.4195 2.5903 0.18506 3.5668 -4.6101 -0.93193 -10.014 -2.0046 -2.1182 -0.56614 
olkeol 4.0092 1.6741 -7.8294 7.237 5.4281 -3.9273 -0.070193 0.42143 -4.6013 -4.2799 
qokeedar -4.4533 -4.4844 7.747 -1.9352 11.352 7.7557 -3.0408 -10.44 -2.0155 2.8318 
opcheol 2.6355 3.9201 3.5747 5.8828 3.7383 1.7087 2.8021 4.2113 -1.9569 -0.78221 
ckheol -4.7786 7.6736 -10.053 7.1499 0.097673 -1.0269 2.8828 4.8231 -12.475 6.9421 
ykaly -3.1674 5.5574 -8.4908 -0.61256 9.3535 2.5873 -2.5214 5.644 2.7713 -11.508 
tcheo -7.4044 -1.2643 3.2614 -1.7447 -5.7253 -2.4651 -8.0929 -6.6149 0.4839 6.45 
shain 5.9615 -0.2828 -5.6817 -1.3572 -2.2847 -10.787 -3.3076 6.2809 0.86039 1.4502 
chcthdy -6.1689 -0.96385 5.512 7.1223 0.29284 0.7692 4.7768 -6.09 5.1833 -4.6298 
lched -2.924 -9.95 1.1782 2.436 2.8852 0.93447 3.9114 -15.336 -3.8903 3.7482 
sos -10.642 16.198 1.8364 -11.488 0.26833 -1.9001 -16.053 11.643 10.1 17.424 
oteal 1.9993 1.971 3.9216 9.3673 14.578 9.2207 0.57288 -4.5048 -8.1171 -4.1797 
oshey 0.10222 2.883 -5.0116 2.0595 7.9124 5.5408 -3.2346 -6.9365 -2.6718 3.5866 
oldam -3.802 -1.6635 -10.675 -6.1041 -7.1386 2.7441 8.2586 1.7549 6.1304 -2.3858 
chkedy -4.3334 -7.0251 3.858 -5.1482 -5.7942 -3.6191 -6.6774 -9.6525 10.976 -0.97989 
chedai!n 1.1288 -5.4898 10.015 5.226 0.57163 3.8765 -5.6814 -9.3905 -4.1956 -3.7584 
pcheody 5.1885 2.2597 3.8737 4.9232 -4.3484 6.1516 5.5115 3.4557 3.4259 -5.3585 
shekey -0.42006 6.0782 6.4135 -0.17751 6.6438 11.153 -3.3087 -2.7271 5.6354 2.8383 
qokeechy 7.8965 -5.1849 -1.5296 -1.3297 -3.0873 -1.1169 -0.96959 -2.8321 -2.4492 3.1371 
odai!n 0.49768 -2.9099 -4.2363 -1.1457 -2.3464 5.0459 5.6636 -1.0722 -0.39015 -3.8468 
ykcho -8.3009 4.6828 3.122 -1.8549 -12.711 -1.6071 -8.5853 0.91473 0.72802 9.8145 
okan -4.6684 -0.33958 -9.385 -2.8592 9.9896 -7.8634 -9.6228 3.2559 -4.0724 -8.0362 
chd -9.6116 7.0135 11.191 6.5044 -4.6475 -5.2281 -6.2361 -2.3295 14.856 0.49231 
okechy -0.43165 1.1412 4.5532 -2.2806 3.5856 7.8111 -8.8173 -3.4278 -2.5108 1.2566 
tsho -2.3137 -1.8078 2.9478 -9.6009 -11.467 0.46423 1.5633 9.9164 7.9077 -3.0448 
ockhedy -3.3186 -2.6367 4.7228 3.8505 -2.3447 0.85913 -4.3812 -4.5426 -1.3201 -6.8543 
ykchol -5.085 6.4767 -5.4203 -1.8137 -2.3248 -3.9587 -1.7495 13.179 0.69325 -4.431 
qopchol -0.10804 -2.0673 3.5775 -1.5178 -8.1507 4.6013 7.7333 1.6742 5.3027 -0.84414 
otchar -5.0678 -0.41564 -9.0292 -7.6311 2.7395 -3.8864 1.004 2.739 5.5462 -0.46743 
qopol -4.9653 3.6201 3.2212 -2.3975 -13.193 10.336 -1.7353 -0.46873 6.5828 -0.63808 
s!al -6.1668 2.4283 -17.756 -1.7379 3.4932 -3.6347 -1.286 -3.6633 -0.43316 2.8215 
qokshey 2.2504 -0.52665 -0.70021 4.4696 -4.3386 0.15675 5.1608 -3.546 4.5803 -0.21057 
keor -3.3757 6.1337 -2.4878 -0.056445 -5.4821 -1.113 -3.2959 7.8999 -7.5418 7.3382 
chok -2.7714 7.6889 -2.5181 -3.4399 -10.102 -1.9931 -11.193 2.2303 -2.9515 18.449 
kshedy 11.57 -0.1572 2.3998 2.8802 4.196 -6.4985 -4.8207 -2.9596 12.592 -1.0076 
okos -2.763 8.1461 -13.861 -1.6001 3.4264 12.445 2.4763 5.2234 -1.1756 -6.9141 
shd 2.9793 5.5201 -0.19021 -1.354 -2.015 1.8175 -0.26443 4.0956 15.418 -5.2086 
oteodar -10.458 3.1814 4.2263 -3.638 5.0283 10.646 -1.0143 0.70886 -2.083 0.055079 
chary 5.4107 -4.2846 1.4192 -6.7124 0.08965 1.9317 6.6432 3.0598 1.9283 6.0202 
shoty -8.1062 5.6493 -3.9681 1.4048 -5.5711 -4.6984 6.1056 10.066 6.1847 -3.5826 
dalam -0.0022252 4.3131 -8.7958 4.1008 13.168 -3.9335 -2.2511 2.3349 -3.0348 -3.74 
cphar -1.7761 -5.0859 4.5227 -12.405 10.41 -4.6426 2.2028 7.174 5.6879 3.6623 
qokeeedy 5.2707 -7.4985 1.9135 0.23228 -3.2203 2.0029 1.5221 -6.6997 -1.7905 0.2634 
ykeeey -0.52601 2.506 -1.9741 2.725 2.9438 2.2395 -5.4006 -6.4322 -3.6217 6.476 
cheeos 6.0939 -6.2091 6.3115 0.77913 -0.37765 7.4915 -3.0728 0.5153 -11.667 -7.0549 
shkaiin 5.1901 2.0179 4.2968 1.5264 4.9489 -6.7798 -5.1501 3.4117 3.628 2.3436 
ycho -0.47628 0.025824 -2.3867 -7.2058 -13.1 -4.1772 -14.594 4.0295 -3.1672 4.2396 
chokey -4.3017 7.2995 -6.1492 1.7875 4.117 6.5156 0.042254 1.5872 -8.324 6.6316 
dcheo -3.0188 -0.2451 2.388 3.6615 -2.3721 0.64295 -1.8208 0.10867 -7.9573 -0.65532 
chetey -6.2914 4.4165 1.5548 2.0716 6.3357 3.8785 -1.4337 -3.4305 3.2498 0.64802 
chtol 1.7972 2.9637 0.37514 4.1033 -6.6902 -8.6891 -6.6771 -2.1402 12.653 -1.0769 
dchaiin 4.38 6.9515 -0.57166 1.3903 -5.8397 -2.7628 -7.3927 3.8008 -0.94054 11.401 
kody 1.4994 -1.6234 5.2002 -1.8107 -1.4776 7.3862 10.154 6.3011 3.8285 -5.8178 
osaiin 0.3937 -4.0438 3.7028 -2.0909 -0.64634 7.7455 2.2319 0.23607 -3.4743 -5.2806 
okeoly -3.2842 9.094 -11.437 0.66452 7.0222 4.6306 2.5818 6.4497 -1.1354 -0.60345 
cfhy 1.4708 4.632 -4.8788 -5.1431 -3.8213 -5.5619 -4.7896 11.098 10.097 -5.1577 
pchodaiin 2.6234 5.0732 -0.30325 1.7673 -6.8988 5.6057 1.8235 3.4997 0.91806 2.9985 
ofchdy -6.1121 6.2744 8.766 11.165 -4.6486 -0.41024 -3.1985 -3.0197 9.6247 -6.3228 
chekeey -4.1005 -0.25705 -1.7694 -3.1805 -0.55613 6.7628 -5.7945 -3.4726 -6.9121 2.2947 
lal 6.7405 -11.537 -12.392 -10.795 6.8148 1.5316 -6.5188 -10.286 -7.4279 2.7807 
rchey -0.41297 -9.8375 -1.5622 0.41363 -6.8028 -10.457 -7.0372 -9.4661 -1.2092 -0.57255 
shok 6.0669 2.5953 -9.0949 -3.4164 -0.37809 3.6112 -9.8963 -1.3488 -0.0058947 -0.42725 
qopy 8.8642 6.3297 6.0076 -6.0958 4.8963 6.6211 3.9162 7.6249 12.89 9.9613 
aror -5.1587 -3.8764 3.1407 -1.3046 0.76061 5.1979 9.0754 -4.7442 1.5391 3.22 
sodar 6.4252 7.8391 -4.1973 3.4661 6.8107 1.91 -1.4017 10.607 -2.124 -4.5547 
cfhol 6.0794 11.277 1.1244 3.9945 -4.4164 0.021097 -4.5873 13.96 4.1332 -2.4606 
qoteeody 5.1605 2.9368 7.8544 3.2994 -0.47346 4.592 -2.7707 3.4741 -3.9948 2.0862 
ctheody 0.52542 3.3037 -4.9886 2.4783 -12.981 4.0906 -4.2462 0.40659 -10.669 7.0633 
ar!aiin 1.7613 -4.6893 -0.23251 -5.9049 3.9757 5.4113 -4.6801 -2.0901 -1.129 -5.4572 
cheam 5.4789 -4.1155 0.96743 -1.0869 3.4461 3.5139 5.1318 -1.7956 -4.9229 5.871 
oro -4.5186 -9.9252 -3.8091 -10.167 -5.3453 5.2849 4.316 -4.0637 -0.52733 -1.8938 
qockhedy 4.1233 -2.7312 -1.9514 2.9417 -4.9565 -4.5937 -1.6144 -3.6895 0.96104 -0.21106 
qochey -6.7862 -0.32854 1.4867 1.8496 -10.943 1.5465 -3.7823 -7.8865 1.8132 2.7799 
chkai!n 9.2608 -7.8551 -0.81854 0.77161 -1.3483 -8.6847 -6.2205 -3.7207 0.89874 -4.4143 
shekeey 5.1931 2.0027 -1.0996 1.5866 4.2555 1.719 -9.7627 -5.4307 -4.5356 6.6432 
ykchedy 4.631 -1.2935 3.8209 4.0137 4.3387 2.2468 4.5602 0.88478 2.3915 -6.804 
ch -15.301 1.5072 -3.5219 -0.96721 2.14 -8.482 -14.204 -10.404 -5.6912 12.993 
ykees -6.2902 -0.25038 4.6641 -7.6045 -0.54052 7.4468 -3.3389 -1.0582 2.0726 2.7021 
chckhal 4.5712 -2.6823 -4.254 0.39988 7.4315 -0.74263 -9.3295 -7.2308 -4.2588 -0.48694 
sheed 4.6862 -10.029 7.9841 0.1763 1.2614 1.7744 -2.0545 -12.231 -0.52158 2.2913 
ypchdy 1.0076 5.7188 9.1326 2.6727 -3.9768 9.6709 7.0751 0.99944 15.87 -0.68916 
polchedy 4.1145 -5.8761 5.0032 -0.083955 3.4609 0.20717 -0.67657 -7.5102 4.8869 -0.83823 
lpchedy 2.6392 -3.9856 9.6176 6.8469 -3.0037 -1.9972 9.6773 0.80305 0.89472 -0.62439 
ykeor 5.245 -0.2378 -13.895 -7.8356 -0.084369 4.507 -0.51639 8.8565 -12.665 2.0289 
oy -3.4654 -8.6728 -4.3553 -19.618 -10.841 24.824 -2.7592 -2.8362 -4.9482 -5.0879 
choaiin 3.2839 3.6507 5.9127 3.3654 -6.4132 4.3289 -4.7101 4.1782 -2.5499 -1.6836 
chedol 6.4689 -4.3757 1.5038 4.6656 -3.1701 3.6641 -0.79572 -11.697 6.1632 -3.8451 
opchol -1.99 1.2645 2.4072 -4.442 -4.0129 4.2976 -0.71785 1.4329 2.767 3.723 
okeeos 4.7965 1.8326 -3.5229 0.90034 4.3871 13.491 1.3713 5.2309 -11.34 -6.6272 
qotair 1.336 -1.8967 4.2965 3.5479 -4.9648 -0.1842 -3.3628 -0.97371 -1.4516 -5.1997 
oksho -7.5484 9.507 -8.2125 1.9645 -9.9504 -3.1966 -9.2535 5.4352 -2.8413 2.5699 
opor 6.0785 3.327 1.7532 4.5334 3.4545 4.9404 3.0213 5.0422 2.5623 -8.6088 
cheekey -5.8213 -6.6188 -0.25763 -2.2511 0.95714 -0.52644 -0.77675 -1.9764 -4.2159 -7.245 
soraiin 1.018 -6.0335 0.39778 -4.4445 -1.7503 4.3298 4.3998 -0.56369 -2.4361 -1.0728 
dody -2.2929 6.2039 2.742 3.4742 -8.7954 10.252 1.701 1.4842 4.8233 -3.6787 
keeedy 4.7547 -10.025 0.56222 -2.9679 6.107 1.8301 1.5281 -6.2016 -6.4782 0.50765 
ltedy 10.871 -0.30855 4.6283 11.154 8.3785 3.2428 -0.38686 -7.9177 1.06 -3.5999 
otcham 2.3032 2.2381 -6.3288 0.037958 0.42161 -7.3964 0.14814 8.1653 0.48251 -1.6562 
olkair 2.2974 -2.9192 2.3366 -2.7537 11.384 -4.2458 -3.7728 -2.5345 12.157 -6.7701 
ytain -3.1338 1.5419 3.3519 -0.87922 0.80228 -2.0489 -8.3707 0.075549 6.9698 -6.3713 
olai!n 0.85452 -7.5288 -4.7575 1.528 6.5133 -4.9183 -4.3184 -8.232 -1.3599 -8.1691 
odair -6.6999 -0.17659 4.4059 -3.158 -1.6664 6.4341 2.0962 4.5835 1.2857 -7.343 
ail 10.079 -16.082 -0.65575 -11.511 -4.0497 -2.3215 1.6434 3.3758 -5.6932 -4.2797 
ytai!n -1.7387 -1.2804 1.889 3.6083 -1.2851 -0.77957 -8.2323 -5.4427 3.5155 -9.5288 
qotshy -3.4692 -4.0763 0.084386 -5.54 -10.188 -11.908 5.5652 5.0649 11.588 3.2972 
qokod 3.7772 4.4673 -0.49424 3.8862 -9.8894 2.0104 -2.5218 7.7911 -0.33783 -7.2049 
lkal 8.266 -4.1902 8.5892 9.3918 13.92 -5.6819 -12.283 -3.7542 -0.51036 -16.128 
tshdy 11.261 6.3999 1.2757 9.692 5.0669 -4.8196 -2.1425 0.5214 10.416 -1.6173 
rary 10.669 -3.9115 -2.5155 -0.30963 6.239 0.0087499 4.4777 9.1384 -9.6093 -4.8481 
ksheody 0.33977 1.4215 -1.877 0.92053 -5.5444 3.4086 6.3658 5.2997 -1.7096 -0.74914 
otchody -3.7752 6.9916 -1.968 -1.4913 -3.6761 3.1552 1.3195 4.7018 4.7281 4.0413 
cheokeey 6.361 1.1227 -1.5004 0.89376 3.0542 5.6851 -1.2753 -0.90939 -3.3937 1.599 
p!!!chedy 2.6919 -1.994 4.5335 8.6253 4.4964 -7.4911 3.9291 -7.9671 7.1824 4.3298 
alom -7.763 -9.5412 0.9456 -2.1043 5.4352 -10.926 -3.8492 3.3223 -6.5163 -12.969 
yk 4.6021 3.365 -13.751 -6.3022 4.5826 17.055 1.1676 6.2432 1.4158 -16.491 
koldy 5.0415 8.1323 -2.6888 6.7146 -7.4989 1.7115 -1.0236 -1.5088 5.681 6.0277 
shekchy -3.6228 4.106 -1.512 0.60112 1.6014 5.6579 3.9504 -0.029207 4.2418 -0.24264 
alaiin -6.7171 0.79543 -1.4326 2.4529 5.7676 1.2991 -0.2091 3.916 -6.7746 -9.0464 
as -9.5241 -3.754 -2.1072 0.17811 -8.0304 -7.7109 -4.5315 -8.8425 -0.81223 4.908 
chokor -1.2194 -2.2482 -13.283 -5.373 -13.171 -0.64095 1.0078 -1.3432 -3.6494 7.656 
cheoar 4.887 -4.1151 -0.3843 0.13003 -7.565 1.4649 4.1133 5.7315 -1.8843 -8.8339 
lkam 2.7544 -9.9802 6.4227 -2.6844 -6.2604 10.236 4.7271 -8.5916 -1.0751 -1.1304 
okalal -10.32 7.1958 -2.0752 6.9007 9.9404 -4.7985 -5.4913 -0.41066 2.9935 -5.3789 
a -5.0069 2.0803 -9.3878 -8.6714 10.31 13.822 -3.7182 5.0976 -7.7124 -11.014 
alkaiin 6.191 -4.92 2.3675 -5.658 -1.3249 4.3916 -3.7824 -1.5931 4.3729 -4.9087 
opcheey -0.59611 4.9829 0.83085 1.738 -4.3474 7.7776 -2.0884 -4.6547 5.0911 3.7591 
oteodaiin -2.4151 4.4836 3.1456 2.5392 0.9403 5.9804 -7.6699 0.31744 -4.2154 -2.5618 
schol -10.132 14.575 -6.9099 -0.29871 0.57477 -2.7762 -4.7371 8.7021 1.8078 11.157 
kshdy 7.7375 3.1662 11.136 8.895 9.625 -7.0876 -0.099489 1.8972 11.731 -1.8773 
dals -3.8855 8.9029 -3.4028 6.9999 -3.1067 4.6256 -2.3228 4.4552 -4.655 -3.7563 
qopaiin 3.8389 1.6927 10.082 5.2519 -4.1981 5.0234 2.6521 3.7087 1.3314 -3.2753 
p -30.563 -17.118 9.1764 -38.839 -18.871 5.858 2.1706 0.79014 22.982 4.4345 
ytaly 1.4596 4.8676 -2.8285 -0.2787 5.2562 -6.9356 -9.852 12.756 2.1364 -13.154 
lchor 5.1471 -9.4546 -0.7523 -4.6526 -4.5606 -7.3627 -1.2538 -1.4545 -5.1182 6.0669 
eedy -7.4906 1.3885 1.4127 -0.76165 3.0066 0.14783 -5.0907 -8.839 6.16 5.7809 
odam 2.5701 8.565 0.43336 0.27682 3.9027 8.0036 -3.1044 6.0488 1.6159 -1.2727 
daiidy -1.1639 2.2534 5.0268 0.52914 -3.506 2.6325 1.1847 2.7324 -0.40474 3.6806 
ldar 7.7341 2.1347 -2.9401 0.89453 9.9443 -7.1076 -4.1036 4.7424 6.2896 -5.1184 
chkchy -10.601 -0.49768 -0.33139 -1.9858 -3.9159 -13.272 2.8834 6.172 5.9034 2.3593 
opchor -0.7918 0.92566 6.3491 -1.2028 -8.844 3.2991 10.507 5.6641 7.9559 3.9784 
chopchy -2.7742 1.4232 5.223 -4.9492 1.5861 3.2142 -2.8696 7.1184 -6.6696 5.1414 
alchey -4.2662 5.0629 2.5685 4.0941 2.5785 -2.0015 -4.2825 -0.024704 1.0213 1.5525 
par -2.954 -6.9862 14.999 2.1447 3.7648 -1.1474 5.3382 1.271 7.715 -13.486 
oror -3.6562 -6.5384 -12.198 -2.7619 2.7533 2.2832 1.0636 -7.6304 0.4761 -10.714 
sheckhedy 6.1613 -5.4078 -2.6865 7.4888 4.7242 -5.0861 -1.2193 -10.926 -2.1922 0.22814 
lam -3.131 -0.31171 -1.1693 3.4491 2.7488 -0.57665 -6.1922 -10.116 10.081 -7.8422 
olkeeody 0.91337 0.059797 3.1116 -0.51138 -2.4323 5.6265 -2.9849 -0.62175 -2.0731 -0.86325 
chockhey -0.66163 5.6845 -0.090793 5.4209 0.50664 5.4101 -5.0321 0.63802 -9.224 1.7451 
chokai!n -0.18477 -5.9172 -1.1994 0.6636 1.4108 -5.8989 -4.8013 -1.2987 -7.8428 -3.5205 
okeod -0.728 6.4759 -2.0901 0.50888 3.6755 11.022 -1.8182 2.6794 -6.2627 1.2573 
koiin -5.4916 9.1184 -3.8936 0.70449 -0.49662 1.326 5.374 10.327 1.1935 3.386 
chedam -3.2515 -9.4296 17.351 3.4523 -2.7951 -4.7644 -6.1341 -8.1739 -0.6236 -1.7088 
shty -8.1949 -13.054 11.849 -9.0082 -6.0085 -4.6464 12.447 9.2274 7.7859 -10.083 
teeol 5.141 -0.69354 4.5367 6.3828 1.6687 -1.5792 0.94673 -0.58587 -6.1266 3.7631 
psheody 8.1433 4.6608 4.9661 5.2237 -7.6834 2.7991 -4.33 5.1025 3.5359 -5.4157 
pchdar -3.4551 -1.2203 10.869 -0.48093 4.7792 6.314 -1.249 -0.6736 4.6784 -7.441 
shoaiin -4.8395 0.4856 6.3405 -2.3993 3.4097 -3.2383 -6.5191 5.9872 -2.7496 -1.3352 
ykam -2.3683 -0.89724 -8.8035 -6.3528 -1.3287 3.02 -1.9343 3.0575 7.7371 -14.222 
ytchol -5.2363 4.9869 -8.501 0.71803 -16.386 -2.2512 2.8314 4.1171 5.8324 1.7389 
qoteor -1.7581 -1.3077 1.234 6.2065 -7.3269 -0.59399 -4.5426 -6.0021 -7.827 2.4906 
chep 4.7725 -0.73688 0.3277 1.52 12.46 -4.7744 6.2898 -1.7795 0.64642 11.659 
yteol -0.27728 4.966 -3.0994 8.4065 -6.8561 -1.2541 -1.5015 -0.67492 -3.7668 2.2469 
qolky 8.2194 -11.347 -14.051 8.2891 3.2959 -10.38 8.646 -10.282 -6.2933 -2.6485 
qopshedy 1.294 -1.218 0.55428 5.1493 -4.1952 -4.5621 7.5543 -2.0006 11.014 -2.863 
yaiin 0.5139 -5.9611 -8.0352 -1.1591 -1.4405 -2.9302 -4.9161 -0.85596 -11.013 -5.3564 
qokchd 0.73722 1.5439 3.3749 6.7385 -5.2522 -1.5142 2.0496 1.3786 1.5876 -3.0059 
dalal -2.6662 5.1934 -1.0849 -1.8123 10.183 -0.34752 -8.506 3.3556 3.2516 -4.4314 
okchar 4.5497 4.5889 -6.404 -0.41898 -0.83831 0.20341 0.76742 4.1497 3.4997 2.0074 
qoteeol -1.0749 -0.23539 9.3707 1.4401 -5.2304 1.3635 2.1167 -2.3866 0.18555 11.266 
alody -5.7956 -0.016941 6.7452 -4.7781 0.87203 6.6379 -5.2423 1.7415 0.76271 -4.8868 
ckhedy 0.034581 -5.86 -2.0168 -1.6548 -3.0974 3.8636 -2.2788 -12.633 2.8859 0.82568 
cheoty 1.2645 1.722 1.0267 3.4448 4.1216 2.6574 4.218 2.3502 -3.8526 0.72137 
kary 16.755 -1.3344 -1.6067 -4.2632 6.4049 10.882 3.6649 2.8223 6.0758 -5.4605 
otedal -3.4804 -2.0645 2.8734 -1.1487 3.3164 11.431 5.6807 -4.4013 4.4364 -6.4892 
an -10.582 -13.844 4.5605 -11.587 -1.5676 -2.6956 9.6141 4.1598 -11.424 5.2221 
okeom 1.0158 0.5866 -6.6485 -7.9791 0.069128 11.79 -4.0666 7.7212 -12.853 -2.5716 
olfchedy 2.526 -0.035342 0.35527 -1.8801 5.1947 2.8098 2.2982 -4.0467 13.005 -1.2153 
qolkeedy 0.17482 -4.8533 -6.0037 6.5606 -3.0876 -4.7422 1.0507 -12.692 4.1844 -2.5258 
pchody 3.2336 1.6467 5.5394 -3.3941 1.9652 2.4369 1.5023 4.9944 6.8083 0.98335 
yteeey 5.1286 0.36342 -0.092802 4.9517 1.5451 5.4085 -2.5727 1.4039 -4.2037 -10.957 
ykchor -6.4281 4.3241 0.50901 -7.8273 -9.9364 -2.1252 4.9462 19.495 1.212 2.7618 
ochol -17.59 4.1907 0.6949 -1.2975 -4.4901 1.2142 -2.9538 -0.062923 -2.1426 4.553 
e -15.422 11.438 -8.5475 -2.2961 0.17954 -4.0689 -8.9946 9.8678 -6.8344 7.3265 
ctheor -8.2889 1.4367 -10.963 -8.209 -0.7921 5.2134 3.1513 8.5952 -15.502 8.1591 
doly -5.3372 4.7783 -6.1539 2.776 6.8546 0.60324 11.423 1.4977 1.6227 6.3835 
yto -7.6111 15.619 -3.4525 -7.2368 -3.9179 10.297 -10.477 14.971 5.1069 -2.5829 
tchar -12.55 -14.904 -6.631 -5.2784 -2.4125 -7.3279 10.826 -1.1991 -7.1683 -5.6635 
chek -2.1722 -1.9023 0.81469 -7.7367 13.486 2.3613 -5.1174 3.6913 1.9655 -8.169 
tcheody 2.4307 -0.40211 3.6925 5.0393 -3.5195 -1.6166 4.1691 2.696 -5.176 3.159 
solkeedy -6.2199 -7.7682 5.5791 4.7092 -1.7141 -2.2952 1.557 -12.906 1.7161 -0.48083 
r!ol 1.1937 -8.8201 -9.672 -3.6801 0.43135 -16.369 -4.3045 -10.573 12.078 0.94922 
pcheor 6.2559 -3.0921 3.7426 4.666 4.8697 2.1239 10.32 4.5761 -6.5214 -1.5585 
daii!n 3.9811 -0.27482 -4.0635 -3.5181 -0.59284 5.0402 0.47802 -0.7616 2.9933 -0.11266 
chotam -4.1348 2.0853 -0.33746 4.5059 -0.029036 7.3659 0.64498 2.8523 -8.9713 -7.8734 
chokeody -0.23722 6.9338 3.9606 4.9407 -2.8512 3.5958 -2.8477 4.524 -4.7818 3.719 
qop -2.3511 -2.0364 12.547 6.4894 9.3329 0.081207 1.9646 2.8592 -4.5503 -8.23 
so -0.28873 -6.4995 -8.8303 -16.369 2.5278 5.9137 -1.6452 1.1585 -9.7022 7.9418 
o!aiin -2.8278 -5.4683 1.1348 -5.8158 -3.1512 -0.77164 -2.0708 0.1923 -6.4995 3.9663 
qodain 6.8888 -4.888 3.0732 -3.6226 -4.267 3.1041 -0.72458 -1.7973 1.599 0.41776 
rcheey -6.5559 -4.2672 3.5491 -0.73021 -1.8682 5.1652 5.085 -3.2167 -3.1955 -0.28823 
ysheedy -4.4009 -2.3301 8.7409 5.8618 -3.1472 5.4491 3.2305 -2.0889 1.4882 -10.698 
olr 0.30438 -14.193 -10.022 -14.365 2.4732 -1.1181 -0.83993 -8.5742 5.894 -4.8399 
oeey -0.77617 -1.1375 -2.8352 -3.1932 -3.813 11.425 -2.8083 0.38065 -5.1671 -8.6602 
otedaiin 1.1413 1.4082 3.7281 -0.89745 4.8124 10.079 -1.6749 -2.6883 3.7199 -3.5689 
rair 4.2576 -11.255 12.042 -8.5929 6.0118 10.341 -1.5343 -7.4657 -7.5742 7.9116 
ckhody 2.6606 5.2557 -6.5623 1.0727 -8.3806 1.6462 2.6813 9.9874 -1.8487 -1.6101 
ochy -5.0294 14.316 -1.4887 -0.34014 0.32004 0.73549 -5.4676 14.216 -4.0133 9.3791 
sheeey 0.69479 -2.5589 4.9269 2.9893 2.4194 2.0394 6.5801 0.86434 -6.0008 2.1036 
okechedy 3.3818 -2.3906 1.987 4.8245 12.414 4.9141 -7.5831 -8.575 -4.0728 -7.7807 
chcphey 7.7492 -5.1722 4.3368 -2.8563 1.8622 -0.036249 5.9416 0.79591 4.943 1.7279 
dcho -7.3396 8.2017 -3.8792 3.098 -8.2743 -0.062419 -1.0204 3.2788 -3.2158 7.9401 
sheckhey -1.0096 -5.1248 -6.5171 3.1642 9.869 -5.1518 -2.1201 -8.1166 -7.6148 0.45275 
qoal -2.0551 1.3967 -4.371 14.537 3.0074 -5.3641 4.848 -0.37112 -7.3495 -7.9419 
qoedy 0.23412 -1.6739 5.0247 7.523 8.8663 3.7783 13.38 0.17885 -3.4025 -1.857 
chetchy -1.4792 -2.2126 2.8094 -9.4513 -1.6367 4.8112 3.3775 5.4722 -3.5733 8.9474 
far -1.6647 -8.4338 -12.241 -13.973 14.514 -3.2525 -0.77285 5.1735 -6.1359 -5.5899 
kechy -4.7936 0.42096 8.7354 0.42145 -2.0548 3.6634 1.4455 0.11131 -1.8132 5.0742 
alar -4.0472 8.2371 -0.093286 5.2943 10.988 3.9753 -9.3194 7.8798 -5.6221 -14.255 
oltedy 2.211 -2.6581 4.3178 7.2497 0.1992 -5.5439 9.6211 -0.82735 6.1768 -2.3945 
cheedar 1.7158 -2.9316 10.002 4.8856 -2.4334 3.124 -9.7459 -6.61 0.51606 -8.3996 
qokeos 0.032728 7.2529 -8.6981 4.926 -4.4626 10.227 5.2325 3.3721 -5.3467 -1.1575 
cholody -5.6344 -2.6126 -4.8025 -5.1734 -3.7704 -0.51891 -4.2135 3.6253 -10.181 -0.25374 
chekeedy -0.26563 -3.0622 -9.491 -0.41569 -1.7622 6.6609 -0.87621 -11.264 4.7179 -5.9441 
cheod 7.136 -1.1797 5.4369 -0.92235 -2.8984 5.3044 -6.1651 2.1733 -7.0374 0.62512 
ees -14.631 7.6051 7.8323 -1.6976 -2.4748 9.8562 -0.05435 7.2516 -11.484 11.333 
rshedy -1.2667 0.3367 -3.8827 6.874 1.3455 -5.2494 3.9374 -12.892 6.2334 11.758 
okaiiin 6.3016 -2.9039 -2.5349 -0.21417 -0.081331 -3.7737 -1.0279 4.6254 -2.8621 -5.1342 
chkain 4.2891 -2.9516 1.4973 -2.2752 -1.3532 -5.5549 -7.7816 -0.95469 3.5089 -1.2219 
otarar -7.6612 -0.5406 0.55573 1.0279 -6.2248 1.9571 -1.5301 -3.1806 4.9478 -7.8626 
qokechedy 3.0434 -5.1079 3.1996 6.5852 9.4557 1.7951 -1.0328 -11.953 0.26534 -4.4068 
olpchedy -9.9258 -6.0663 4.2997 -2.5229 -5.7852 -0.80157 2.4978 -3.1279 8.2729 -8.5426 
otshy -3.431 2.3611 -12.714 -9.8322 -6.2405 -5.8248 0.12355 4.2062 11.575 5.7979 
ok -12.879 13.395 -9.8548 2.3473 7.5875 -3.8462 4.1392 7.5546 3.7465 5.757 
chokchol -9.3618 0.74144 -2.7291 -3.5432 -5.1772 -6.4214 -4.2432 4.9035 -9.5069 9.9893 
qokdy -1.3747 7.1484 7.6546 5.5686 3.5408 3.9911 -6.8802 -9.3973 7.8166 10.392 
oain 0.19588 -1.474 -0.76779 -3.8647 0.55952 0.155 -4.1985 1.67 -5.8702 2.7948 
v -11.359 7.9908 13.206 -37.478 28.282 26.93 -26.745 -4.569 21.934 23.938 
ykeeor -4.4734 4.4049 1.9455 6.545 0.21692 3.9924 -3.0767 5.8226 -16.074 -1.0872 
ksheo -5.2598 -5.564 6.9731 -10.411 -4.6149 -2.9686 -4.3796 5.6805 -4.2213 5.9671 
lkol -9.9513 -0.42027 -7.395 8.7847 5.3837 -4.4659 10.831 1.4092 -5.3283 -8.424 
ofaiin -2.2086 3.4028 -2.4747 -0.9871 2.0163 7.9688 8.593 6.8135 2.9165 -5.9518 
los 1.6604 -9.1952 -5.147 -3.053 -12.509 2.5906 13.858 0.6665 3.5068 -7.384 
saiir -7.7031 0.67465 1.8226 0.42548 -0.17562 5.5422 0.30565 -2.7939 -0.0086231 -2.4802 
dshol 2.6162 2.788 2.165 -3.3943 6.5191 -2.1724 4.4096 4.1606 6.1658 11.292 
olkchy -1.0351 2.217 -2.6395 5.2229 -3.8999 -4.9289 -7.2776 -2.6524 4.0972 -5.8769 
orair 1.3457 -7.4308 3.0825 -4.3411 1.2682 3.2618 8.357 0.24017 -2.2521 0.66065 
pchedaiin -4.8169 -4.5274 8.2644 -0.76452 2.9972 7.7323 8.644 -3.4707 7.8638 -6.5303 
qoteo 6.206 1.6148 2.7289 6.6386 -4.4267 1.2413 -4.7241 -2.2112 -5.3618 2.8429 
okedaiin 9.2053 -3.9099 2.91 1.8209 3.0116 8.92 2.6497 -2.2336 -1.9816 -5.9581 
otaram -0.2382 -3.5099 -7.7405 -1.0848 -4.5041 -3.5 -4.1747 -1.9165 1.5982 -8.5986 
sarol 9.7395 -1.1941 -10.723 2.9027 6.2799 5.9321 11.723 -2.0832 2.8108 -3.2328 
chot -6.0949 0.29343 7.0957 -4.4557 -19.683 -2.9855 -6.8268 5.2755 -6.5555 14.667 
olkeeo 0.90938 -4.7957 -1.7017 2.4007 4.868 -4.3088 -2.5794 -0.30665 -7.0847 -7.1068 
ol!aiin 9.9558 0.95318 -5.2182 2.6829 2.3503 2.6361 -1.1416 -0.80443 1.5952 -4.1116 
lkeol 0.28975 -1.7127 9.7144 6.7655 5.8689 -1.9396 0.37485 -2.1035 -3.934 0.8346 
alkam -0.49243 -6.1525 1.7298 -4.7958 0.34921 1.0437 -1.6898 2.9946 4.0802 -15.072 
soiiin 5.9303 1.4167 -0.15232 3.8166 -3.1237 -3.8918 -2.2172 -0.28828 -2.7644 7.7407 
ychy 1.6375 5.7651 -4.35 -9.7457 -0.96368 -4.2813 7.6375 13.858 17.687 7.0105 
cheety -6.9104 -6.7002 0.38244 0.099758 -10.672 -2.6572 -2.9292 -13.131 10.133 -3.3398 
dsheedy -0.32944 0.63912 -1.7156 6.5662 3.424 1.7212 1.35 -5.5288 -3.3164 -0.044426 
teeody 7.261 1.2757 3.123 -0.45174 0.62785 9.9663 -7.1328 -3.5056 -0.77464 0.10049 
toy 2.5712 18.57 4.0119 13.767 -4.7722 -6.1886 0.86493 13.705 1.3191 14.755 
okoy -0.47104 18.006 -14.402 0.26323 0.080434 5.9525 -7.7081 8.8715 2.6697 4.4604 
cthain 8.6751 -3.5846 4.9069 -4.8303 -7.318 -1.1212 0.15891 9.4451 -4.7104 4.5214 
lchol -7.1025 1.7819 -2.3933 3.8892 -5.1864 -10.262 -10.354 -1.3777 -5.1616 3.0652 
sshey 5.0391 -0.35777 0.35354 -0.069248 0.71143 0.59032 3.572 -4.6041 0.37914 14.447 
chekai!n 1.1026 -5.7094 -6.1214 -5.1921 6.7882 -0.37568 -8.725 -9.3026 -0.50655 -0.70609 
dairal 5.1285 -2.1662 6.0458 -2.4049 4.9737 -1.8736 -7.2571 1.812 -0.61054 -0.88486 
kcheody -2.2508 0.19918 4.6879 4.2226 -4.2757 -1.2273 3.7689 1.2934 -2.5436 2.822 
otechdy 7.53 0.20263 -1.5803 9.8689 -4.6251 7.2087 3.8256 -3.2997 1.0526 -11.321 
chyty -7.3298 10.64 2.6788 0.41064 -8.6701 -4.0124 1.1006 6.9463 14.979 8.8815 
chekedy -0.75936 2.9119 1.7941 -1.3276 -2.8409 7.0651 -4.1849 -7.7788 10.6 3.1613 
alal -10.61 2.8049 -4.1468 6.4354 7.7414 -2.7584 -5.3444 4.0758 -12.802 -10.168 
teeedy 0.57745 -5.8385 -1.3841 6.8205 -3.1141 8.1846 -2.6309 -12.383 -9.5186 -6.4437 
otalor -0.77326 -6.9083 1.5471 -7.5965 5.1468 -2.3609 2.1085 1.1296 3.9015 -2.4984 
chaly -0.74536 8.8304 -13.233 8.3794 7.4667 -6.1557 -5.3648 -0.45641 4.8975 -6.4669 
cheoly -2.9854 -1.7642 1.5822 0.44586 4.7287 -2.2521 4.2304 0.93115 -5.2913 5.145 
chealy 1.1605 -8.7513 -6.6701 7.4971 7.4759 -6.9203 7.9406 -6.5986 -9.0207 -2.6269 
qopar 1.9901 0.75017 13.218 2.7093 1.0348 -0.25482 3.8954 2.0986 14.418 -3.8102 
orchey -4.4967 -6.3742 -8.2107 -0.17083 -1.0096 -6.8814 -0.088939 -0.54026 -3.3028 -10.506 
daiim 2.2119 2.2536 5.2235 -2.2257 -6.5631 8.2093 -2.4317 17.073 -6.8327 -13.049 
shan 3.742 -5.8242 -6.0812 -13.324 -3.8788 -16.25 5.6199 18.838 1.0986 6.799 
chocthey 2.2529 2.7311 4.2527 -1.833 -9.2588 8.0765 -6.1013 3.6951 -5.2694 3.289 
lkchdy 0.71034 -9.5903 11.287 -3.2987 3.9871 5.6046 5.7762 0.4655 -1.3117 -7.5868 
chtaiin 0.51502 2.3593 -0.088935 2.863 8.5406 0.58897 0.36117 0.43423 -4.1295 3.0996 
ysho 6.6258 7.8721 -14.456 0.93186 -8.9814 0.26402 -6.0497 6.8496 -1.907 0.034695 
cheaiin -4.2903 -5.1566 0.24177 -6.3852 -4.2476 -3.0484 2.8806 2.0302 -3.2285 6.5642 
sheodaiin -2.0183 1.9471 2.8609 0.36291 -5.3162 4.2018 -1.2705 2.06 -3.9679 2.3338 
odaiiin 3.7266 1.1306 -5.0666 -2.6682 0.78307 2.3398 -3.4183 3.8322 0.49977 -5.7933 
lkeeody 2.3921 -0.84181 8.266 7.4793 2.1083 1.2893 -5.245 -4.3783 -7.1682 0.77008 
otes -4.9234 2.0407 -1.3703 1.3737 9.748 9.3141 -3.338 -5.9621 0.93148 -8.0403 
ypar -2.1633 3.0784 14.174 -1.3657 3.7981 13.574 8.1083 9.9334 5.6891 -7.427 
qoair 1.153 -1.3594 -2.0554 -1.8409 -2.8586 -2.4054 -6.3782 2.8938 -5.076 -2.3221 
alkar 0.29776 -12.022 8.1941 -1.4907 4.4925 -9.1441 5.6495 3.3616 1.4931 -10.068 
sshedy -0.36513 -1.152 -3.0987 6.3119 3.441 8.2381 10.327 -12.719 1.0461 5.7421 
okeear 1.8552 4.7735 -3.7333 3.4171 6.5866 9.2861 1.1263 1.3553 -0.63647 -7.3036 
dcheor 2.2262 -0.92095 -6.2838 -1.4635 -3.3713 4.6926 5.6999 6.2048 -9.3202 -0.59087 
dalo 1.4023 11.907 -14.332 15.711 3.0937 -11.141 6.5624 5.8748 1.2305 2.136 
shdal 7.7096 -1.5889 -7.8348 7.4101 6.3096 4.4326 9.8909 -4.6585 -3.0723 -2.4021 
qoto -0.27466 7.5138 -0.030971 -0.123 -9.5906 4.2592 7.2136 5.9489 10.173 6.6797 
deedy 4.428 0.017003 0.29561 4.4448 2.9295 0.86735 -1.3932 -7.5079 5.2673 -0.10976 
olkchedy 0.70723 -1.037 -0.83077 8.215 1.8814 3.6899 2.7093 -5.7153 0.54374 -9.7006 
kcheey 0.35905 -11.035 3.5942 -6.9101 -5.1959 -5.3298 -2.2405 -2.2661 -9.2165 9.6734 
ckheody 4.0162 6.3234 -9.3907 3.8202 -11.339 5.3034 2.0186 7.2963 -4.5642 -2.2897 
sheoy 9.2365 3.0923 -4.937 7.5732 1.5874 1.9298 2.1256 3.2087 -11.743 4.2641 
shekal -0.82646 -0.16267 1.4303 3.8036 13.392 2.5647 -0.3865 -2.9829 0.36682 -7.2498 
lkshedy -6.9983 -7.3374 4.9886 4.5095 -1.9838 -6.5549 8.6927 -0.22232 -1.3645 -5.466 
pchedal 0.88212 -5.9559 8.9034 -3.1233 2.2147 7.186 3.2717 -3.0454 1.8867 -2.3145 
kchody -1.0033 6.8791 -0.95293 4.5217 -7.7238 5.3909 2.6325 6.2419 -1.6246 -1.3081 
chckhhy -7.1058 -0.1551 1.4473 -2.0514 1.9038 -0.9065 -2.7947 0.17591 -1.0642 -0.41966 
shdaiin 1.6638 0.15148 6.3234 0.2388 -4.5703 -0.1541 3.0653 4.7314 8.2181 -4.19 
oai!n -0.33522 -6.0677 -3.0892 -6.9668 0.64126 1.0695 0.16969 1.3932 -4.8974 -1.5489 
cheedaiin 1.1694 -6.0836 8.9039 1.9606 0.39734 3.297 -2.9952 -4.169 -5.2206 -4.2764 
olshdy 3.714 0.63149 -1.1651 0.65986 10.197 -7.2882 0.27543 -1.9703 11.905 0.8717 
octhey 4.1265 2.6505 -6.1341 5.0038 4.4527 -0.26265 0.85808 4.7891 -5.9627 -5.0446 
ctholy 5.4855 4.7269 -7.7913 -6.1741 1.3947 -5.4695 -8.4513 12.49 1.3934 -1.3968 
chodchy -12.704 9.4086 5.1623 -2.1343 -0.5055 3.0258 -4.9021 13.943 -4.9603 1.0859 
??? -4.6806 -1.2787 -12.084 -12.225 11.042 10.26 -7.6239 -2.8092 -4.0525 -5.1662 
shchy 2.2905 5.3666 -0.29511 0.6932 10.808 -3.099 -9.2165 1.1184 -2.8911 7.1549 
ckhal -2.3789 0.61462 -10.012 -7.8594 4.5206 2.0568 -7.5277 0.59663 -5.4398 2.2727 
sholy -6.6104 8.1523 -5.796 1.4788 9.1252 -12.41 -4.5637 10.172 -1.4327 4.3132 
otchal 1.0742 3.3868 -6.1228 -8.1039 -6.0723 5.9162 -4.5694 0.24009 1.7157 10.406 
chokol -5.2939 7.5289 -0.88479 5.6502 -1.9916 6.1948 3.264 1.7085 -8.6088 9.134 
shedain 1.4317 -2.0569 2.8327 1.4724 2.7473 2.2459 -4.6804 -4.209 0.46355 -5.6247 
opchedaiin 0.9112 -5.1408 7.4281 -0.60602 -1.0838 5.0558 -0.76534 -0.72976 0.93907 -9.8292 
ydar -2.2561 0.80685 -8.4265 -9.7636 -1.8356 7.2587 1.8955 4.4666 -0.2286 1.2068 
ypchy 0.55885 2.6046 1.1178 -15.354 4.4813 5.729 5.7492 16.612 12.242 -0.83863 
ypchey 2.5886 -3.1024 11.223 -0.95023 -2.0623 -0.82454 -0.46659 6.0243 -0.096312 -2.7368 
qocthey 7.631 0.079754 0.49859 2.3798 -4.4952 3.1532 -0.24374 -0.35394 -2.1315 2.0555 
lshed 7.5391 -2.3508 -5.5424 6.1998 -1.4498 -0.59155 12.992 -7.0955 7.1001 4.8887 
ckhdy -11.549 4.4355 5.3233 7.5192 1.5852 -1.3958 -11.26 -5.4563 2.8392 -7.5145 
qool -7.5709 2.3964 -9.2599 4.4823 -4.3582 4.7915 3.5957 -6.6476 -1.8042 0.099185 
ckhaiin -2.9867 -2.139 -3.3708 -3.5658 -2.2437 -8.5237 6.3951 14.906 -10.575 4.1492 
n -19.715 -11.451 13.544 -48.957 -14.386 -18.792 -60.523 10.286 17.759 0.071319 
cheeteey -0.30901 -2.2274 5.2945 -1.0114 -5.3218 8.7168 0.66596 -6.5322 2.2025 2.5599 
soy 4.6991 -7.0208 -19.566 -8.8482 6.473 -11.686 4.1996 7.6669 -0.013462 -5.6173 
dydy 5.0404 -0.79281 -6.493 -7.0044 -4.9163 6.7904 2.7467 -2.3599 7.0767 4.7871 
chokain -1.8119 0.56394 -0.28348 -0.12329 3.7169 -6.1564 -5.7936 3.4004 -3.6922 -0.29202 
chckh!y -3.0077 -4.2403 -1.2663 -6.7917 4.2915 1.299 -8.0321 -6.971 0.68966 1.2955 
cheocthy 1.114 -3.9356 5.6885 1.3323 -6.9211 -0.52361 6.0374 4.5858 -4.898 0.85199 
lom -4.3636 -14.635 -12.739 2.5115 7.8012 -23.281 -13.747 -23.545 -8.4157 10.16 
tshor 11.706 4.0927 -3.4685 5.5606 -9.3222 -3.2535 7.0562 7.644 5.069 2.3675 
chetedy -2.8202 8.9316 2.3192 10.699 2.4938 -0.41462 1.3751 -4.306 7.7467 5.6643 
cholky -0.49529 -1.0912 -4.0101 0.93944 1.1551 0.11743 -1.4251 -0.66826 1.4334 -8.9593 
pchdair 4.9719 -2.8385 18.784 -0.031078 5.3957 -0.78719 -0.81135 2.0608 4.0109 4.8062 
olam -11.157 -4.078 1.8534 4.3993 9.3995 -1.4611 4.0127 -3.2742 -7.011 -5.5356 
fchdy 10.302 -3.1878 9.8587 0.16111 2.759 -2.6029 0.3532 6.8524 9.3844 -9.9907 
opol -4.0312 -2.1712 3.8223 -4.415 -8.2074 10.936 0.86331 4.6824 -0.9879 -10.644 
ykeeedy 4.3881 -4.5749 -0.78944 -3.873 -4.0146 3.7953 2.2176 -3.1468 6.2248 -2.5411 
chokeol -1.3286 -0.78083 -1.8542 0.054366 -10.525 5.4007 6.7382 0.11549 -3.9143 5.1974 
oin 5.9624 -8.8456 3.5236 -4.657 5.2677 -6.6525 -1.5415 2.0657 -6.1248 2.0236 
loty -16.948 -2.6082 10.105 2.8098 -2.9389 6.6078 -1.9508 -17.317 -2.4561 12.166 
pchy -3.1824 -2.619 6.5586 -12.207 -1.9839 0.38203 -3.2503 0.89018 6.8143 10.338 
chtchy -6.4256 2.9144 0.64621 -7.0575 -3.721 1.0332 -5.8253 2.497 7.3951 1.5785 
ldaiin 3.2249 -1.685 2.8784 4.4469 0.75666 1.741 5.2745 1.2486 -6.0994 0.2508 
chai!n 14.682 -8.0267 -9.657 -1.3748 4.4931 -9.9 -2.935 0.41146 -1.5054 -4.549 
qoted -5.1913 3.5428 11.74 11.991 -6.8373 -2.4524 -5.4887 -7.9018 3.3001 4.0166 
da!r 1.2153 7.2144 0.19323 2.8623 13.035 10.069 5.0791 3.3097 -0.14449 0.11142 
opair 7.0141 -1.9962 8.0076 -0.73441 3.821 13.469 6.3959 3.8905 3.6341 -10.664 
lchar 4.5225 -5.7818 -8.4583 -7.4671 0.53702 -5.9478 -12.04 -7.7471 9.8066 -4.0382 
qotees 5.8931 1.1488 3.3854 1.804 -2.1836 6.7728 -3.9079 -6.3247 0.77871 5.8893 
daral -10.457 7.6804 3.3323 -3.1241 7.7567 8.9411 -2.4074 3.4644 5.4706 -2.08 
tain 5.8678 -4.0431 -5.5218 0.81234 0.59654 -9.9672 -3.4654 -1.9184 0.58975 -0.51499 
shedai!n 3.7827 -6.0764 9.5293 3.7196 -0.58116 5.5898 -3.8332 -8.0881 -2.492 -5.0129 
shepchy 1.0586 0.37802 2.4485 1.272 2.6442 -6.8306 6.8732 -0.62403 8.857 10.347 
chotor 9.4729 4.0919 -4.1161 -3.9518 -7.1682 8.3073 2.6599 8.0243 -3.7128 8.9253 
roiin -0.71918 -0.58063 -2.128 -0.26785 -1.7104 2.6241 -4.6582 -8.1393 6.687 -2.2919 
otcheey 1.0606 -0.20498 2.8235 -1.5451 -1.3212 6.6855 4.1572 -0.20707 2.7812 0.94295 
chochy -2.1524 0.28818 7.5347 -8.0719 -5.4828 -3.4147 -4.3053 8.1274 0.027821 10.698 
oteodal -12.458 3.3544 5.042 -1.811 0.15505 16.204 0.60786 1.2384 -6.9947 -2.2264 
chepchy -1.8119 1.715 8.5329 -1.5469 2.5572 3.3515 -3.2481 1.9443 -1.5411 4.5205 
shl -20.106 -14.904 9.3379 -6.7542 -8.8942 -9.8509 3.0383 -12.797 7.2628 6.6387 
tshy 11.742 0.090115 -0.58056 -1.1864 -6.6845 -11.467 6.7332 10.449 11.414 5.9745 
qeey 4.1538 -12.149 -5.6321 -5.3353 -12.114 7.0172 -8.8569 -23.587 -2.7061 10.786 
qotched 8.2654 -7.3165 2.4314 4.8035 -12.898 1.1194 5.0812 -2.035 -4.2462 -3.1032 
shom 6.7728 5.1708 0.54192 3.0931 -2.6624 3.5575 8.9158 8.297 -7.2906 14.222 
chetaiin 2.6322 0.98638 0.077406 1.8305 2.7579 -6.6703 -4.8889 -0.0002173 -0.20047 4.1191 
chyky -5.6495 4.0467 -0.19872 -0.9509 -1.599 -4.7727 8.1983 8.438 1.6045 10.131 
chodaly -4.7833 7.365 -5.2908 -0.37053 -4.0659 6.2426 1.7339 4.6597 -3.8018 6.2553 
sheet 10.263 -0.69277 -1.3234 0.63138 10.021 5.3844 0.23978 -6.3658 -0.49641 6.7491 
chotchey 4.051 -4.0202 3.8745 -1.7015 -9.6103 -5.1503 5.9196 4.7752 -4.0016 12.803 
otshdy 4.1736 5.1795 -1.8768 4.6091 13.519 -1.1681 -2.3116 -1.8064 7.5176 -1.643 
qoteed -1.4156 -1.0674 3.598 3.0776 -1.5594 5.8442 -6.7098 -9.967 4.092 -5.3197 
qokeal 2.1218 -2.1431 3.7021 10.383 3.6759 -3.7641 -3.344 -3.9195 -11.709 -0.42708 
lkeody -1.4213 -5.8759 4.3581 0.24343 -1.1095 3.9826 -1.5165 -2.3312 -7.5479 -5.3589 
ocheey -0.47215 -2.7246 -3.6495 -3.2632 13.014 1.0142 0.60886 -2.7412 -4.3445 3.8832 
kedar -2.7777 0.63562 10.257 3.4051 14.511 0.041924 -0.5103 -2.6285 6.6681 -2.9358 
qoiiin 2.4996 -5.1446 2.8884 2.5822 -0.81015 -3.7526 5.3883 0.81816 -1.9501 -1.9674 
shtchy 7.7203 -2.4656 4.1411 -5.5509 -5.9079 -2.5639 7.6246 11.169 6.6884 2.55 
eey 1.3497 4.5125 -5.5264 -2.8694 -1.7813 8.4556 -6.0256 -3.2487 -3.7187 8.105 
lcheckhy -2.2433 -7.4784 -5.5078 -3.4145 4.3644 1.5069 5.0842 -12.135 0.62138 7.2118 
podaiin -4.0074 -0.10067 5.3815 -0.66128 -4.9229 6.0379 11.384 6.0619 3.5537 -1.9815 
cholaiin -0.97522 3.9472 -10.028 -0.59133 5.1261 1.5713 -1.4324 4.3654 -6.0063 -1.2793 
cher 4.7504 -4.3213 6.8348 -7.2516 6.6674 3.2457 0.8206 2.8885 -2.2178 5.7183 
raraiin 2.0764 -8.4511 1.2335 1.3948 -0.41498 2.0629 1.4281 -5.351 -5.1102 -6.5227 
qoeol 2.5527 1.4128 -4.8255 4.1583 -3.8547 8.4885 11.293 3.1599 -8.3456 2.1779 
tos -7.5049 5.2583 -22.412 -0.036981 -3.7266 10.428 -12.768 -4.7311 -18.293 -2.5805 
ydain 2.3357 4.9976 -7.4656 -4.7125 -0.27122 -0.19496 -1.6427 4.503 10.429 -0.38928 
otechy 13.613 0.87962 -1.9664 -1.9024 3.9111 0.13577 -7.8685 1.8437 0.71504 1.5048 
kaldy 2.8922 11.023 -17.787 5.0153 4.6413 5.5135 -2.1827 -5.0388 4.85 3.0094 
qokedaiin 8.2397 -6.0889 1.7224 2.1361 0.71804 2.3157 4.2332 -4.4068 -0.75128 -1.6491 
lodaiin -6.6663 1.1289 -1.4077 4.3549 2.1789 0.25798 2.2435 -1.4718 0.65374 -5.7403 
chcphedy -5.1072 -2.4306 3.8947 -6.3224 8.251 1.4438 2.926 -1.6394 9.9122 0.055633 
s!or -5.1321 -0.1189 -10.741 -3.3117 -1.3555 0.56933 0.83187 -5.2506 3.135 2.4862 
pshol -0.01962 4.0551 1.3221 -0.32808 2.4939 -7.6414 -6.9681 9.7308 -6.7246 5.77 
olkol -13.149 3.4346 -6.0743 5.1542 2.7495 -9.8766 -2.9849 -6.5005 7.5808 0.16052 
cheoldy -6.3418 3.3457 3.4018 4.6019 -0.93808 -0.34164 4.8337 8.3555 -6.6802 -0.75804 
checthey 0.6815 -5.6056 4.4327 -1.3762 -5.1033 3.4305 2.9319 -5.5038 -1.6445 5.4443 
qoiin -10.235 -4.6444 -12.584 10.26 -14.922 -4.4334 5.2917 -11.227 -6.2763 -2.9971 
qokchod 1.4999 2.9578 -8.3397 -5.8164 -7.7711 -0.69832 -5.6364 6.206 -2.0856 3.8979 
yfchey 3.3592 12.28 9.3184 8.8662 3.5828 4.8098 0.85898 -0.023637 11.703 9.2492 
lkair 12.566 -4.5827 4.5561 -2.4495 6.9585 7.0023 -7.5848 -2.6755 -8.4451 1.9964 
pchdaiin 1.8602 -5.729 7.8646 -4.741 -1.3354 7.9338 4.3211 -2.7221 5.1479 -0.89247 
dyky 9.1362 14.312 -8.1175 2.4508 0.17663 1.3398 -11.753 -0.31883 13.719 6.4192 
qopcheey 5.6242 -0.97935 9.5132 2.9208 1.9885 5.5742 1.8326 0.77055 -0.31633 -1.3135 
sheeody -4.174 -3.0458 4.308 -4.466 -0.016451 9.2445 5.0171 2.7436 -9.6717 3.7812 
shai!n 12.38 -8.2599 -6.06 -5.2648 6.2974 -10.295 -1.4932 -0.99624 5.2789 0.44503 
shosaiin -0.54969 -0.08912 8.1716 -2.1627 -4.7284 -0.51918 -3.8098 4.7422 -1.7822 3.5323 
chokam 1.2744 11.467 2.178 16.155 -2.5951 -0.45902 -0.63586 7.1297 -8.6775 1.7487 
ytair -6.26 5.5002 12.353 4.1349 2.9191 -1.9895 -3.0353 7.6549 5.4577 -5.6398 
dcheedy 0.22753 -4.3888 3.4953 5.0257 -9.8952 -2.3732 -4.5679 -13.266 -0.105 7.4517 
opary 2.0349 1.5088 4.7014 -0.39824 9.336 9.121 -7.2622 -1.3399 7.2068 -13.575 
okoly -2.3056 10.325 -10.487 6.8441 8.7935 6.2664 6.5612 6.7824 -7.7099 0.16507 
otaiir -6.877 -0.97195 6.6722 -9.5956 5.1823 4.0348 -1.7009 9.5661 0.97835 -5.2297 
chodain 3.5612 3.3888 1.1616 -0.80254 1.4555 -0.49927 -2.5635 5.621 -1.1647 3.7685 
kechdy 0.72745 -1.1187 -1.6228 -0.325 -0.69075 6.0275 -6.1359 -7.2101 -0.76874 -1.8208 
chtedy -15.876 -0.11339 3.1788 1.9492 5.0231 -3.1727 3.1673 -4.2257 3.9045 0.52083 
choteol 4.511 6.914 6.1245 5.8872 -8.3494 -1.2058 -3.1136 7.8294 -1.9643 5.8139 
okeshy 2.9811 6.4868 -3.5806 10.45 4.0661 -2.6286 -5.0078 -5.8975 1.6074 2.821 
rsheedy 6.2094 -8.2168 0.17794 3.2451 -5.7704 2.4454 10.292 -13.773 3.8697 9.7448 
lcho -2.5065 -8.7616 4.4467 2.9693 -11.116 -3.9033 -1.5382 -6.4956 -8.4982 1.6768 
ofchy -3.6636 6.8811 -2.8391 5.2629 -3.9845 -1.0326 0.82032 2.945 5.8214 -3.4632 
alshey -2.5868 6.6972 0.37351 8.7816 2.97 3.5142 -1.5874 -3.5358 -3.718 3.3231 
olo -22.276 -2.169 -21.52 1.0404 -3.5947 -13.134 6.127 -5.6048 -9.042 7.4807 
shokal 6.2041 5.0408 -1.2806 4.6606 3.85 -0.84257 -6.8702 -0.14046 1.2737 -0.45434 
dchar -12.961 4.361 -2.1709 -9.8014 -4.7083 -2.8741 -10.691 10.306 -0.036875 0.040163 
ytodaiin -2.9967 2.5137 -3.6124 -3.1681 -6.8732 3.6822 -3.7405 4.5951 4.4802 -8.5335 
cheodar -5.8291 3.0176 2.5018 3.8981 -2.073 2.513 -4.04 0.67851 -3.3013 -3.9653 
lshy 1.3305 -0.52977 6.1815 4.2001 -8.1765 -19.287 -0.70573 -0.14564 11.013 12.551 
oteod 0.86946 6.375 -8.4557 -4.977 -1.4001 13.482 -4.4156 4.7635 0.18135 -6.0051 
otodaiin -7.3438 1.6488 7.3925 2.5547 -3.4278 7.0472 3.0993 2.0489 -2.6237 -2.3635 
kodaiin 0.54839 4.9377 -7.2144 -3.4457 0.42731 1.0479 3.6983 5.4677 -0.89454 10.33 
sheodal -7.9794 5.9457 1.7348 6.2079 2.9519 -3.5433 -0.41935 3.3324 -3.2951 2.095 
osal -8.1331 -4.8377 1.1031 -1.6649 7.6783 4.4027 5.0431 -0.19553 -9.1809 -3.2517 
qopor 11.683 2.9362 8.6123 5.3601 -1.7987 3.6034 4.8332 0.96174 2.1883 11.056 
fcheey 3.0293 -2.0584 10.39 -3.6901 6.6581 6.8108 -9.0448 0.85859 0.81431 -7.3872 
qotchd 0.15388 1.3433 8.4053 7.8811 -13.006 -1.1653 4.3075 -0.25656 2.8517 4.0625 
dory -3.8972 0.80848 -16.368 -2.3682 -11.455 -12.29 -6.1245 14.002 -8.0409 -8.3698 
okeodar -5.9484 5.6238 -2.5214 0.7165 3.7928 8.9664 -3.9444 3.4549 -6.2788 -5.5706 
lkeeedy 4.875 -8.4022 5.1471 -0.52665 5.8356 4.0066 -1.8986 -8.2385 -6.2915 0.98136 
sheek 3.3541 3.7905 -1.5553 5.7799 18.788 -1.189 7.4874 0.63101 4.2438 1.0882 
tedaiin 1.3938 0.085246 9.1522 4.4414 -4.2097 0.26837 -3.6305 0.63539 3.5779 -6.2334 
teor -9.4001 -0.57703 7.0462 2.5753 0.3874 -6.6857 6.4553 3.8085 -6.747 11.292 
lcheam 4.8269 -9.1112 -7.6703 3.5063 -3.4222 7.0475 -0.21564 -13.769 -8.1602 -5.4216 
ar!al -2.5629 -5.8112 4.4804 -1.2743 1.0441 -3.8608 3.7483 3.2558 -2.4114 -3.3617 
otodar -2.4811 4.5245 6.947 -0.34534 3.2265 8.3603 -0.99376 5.5904 2.5658 -5.8977 
ko 7.3797 14.557 6.8192 2.5238 3.0564 11.575 12.898 17.269 9.369 5.4926 
choror 4.1613 2.6415 -0.60144 -2.4603 -1.4301 -4.5543 2.4527 10.328 -5.2419 12.688 
shecphy -4.2636 -0.055792 10.212 5.2801 1.2985 -0.70637 6.0353 -3.5035 6.4545 3.774 
r!chey 4.2655 -3.7159 -1.1016 -0.22509 -3.378 -3.7253 -8.9518 -9.2911 1.0452 5.4111 
okechdy 3.4139 -3.9455 6.2913 2.3536 9.721 2.9925 -2.3587 -4.8764 -6.4551 0.32731 
shockhey -0.48732 6.185 -7.3138 5.5578 3.5961 2.904 0.69117 3.135 -10.884 3.6485 
fol 2.7475 3.6617 -1.3599 -9.9218 8.0381 9.2759 17.315 13.012 3.8223 11.996 
dshdy -0.8227 0.7505 -8.3266 -1.7066 9.8685 -3.7935 -1.0339 -1.7211 5.5106 -2.3437 
lody -22.826 -3.4705 -3.6744 -1.8468 -9.6138 -3.7937 -0.41047 -9.0019 9.1058 -5.5493 
pchar -8.4809 -7.9381 4.6394 -6.7725 -6.1188 -12.07 -4.1106 4.134 -3.7345 3.0595 
