997 10
daiin 0.48412 0.46568 -0.41663 0.12289 0.21573 0.27853 -0.069776 0.22294 0.0814 -0.10387 
</s> 0.30698 0.5101 -0.11601 0.023614 -0.086328 0.12389 0.13715 0.26612 0.15472 -0.26045 
ol -0.053976 0.69767 -0.02886 0.10695 0.20042 -0.04253 0.37624 0.15172 0.47576 -0.3913 
chedy -0.39299 0.83372 0.14142 0.37871 -0.13723 -0.033731 0.51784 0.55046 0.7068 -0.45159 
aiin 0.24202 0.48971 0.18599 0.12759 -0.30847 -0.37218 0.067868 0.27896 0.11346 -0.31676 
shedy -0.57721 1.0022 0.030188 0.40583 0.074826 0.039863 0.6116 0.43815 0.70324 -0.50951 
ar 0.094098 0.6097 0.19079 0.09509 -0.36635 -0.44621 0.18532 0.23551 -0.064765 -0.40589 
chol 0.723 0.34355 -0.54531 0.0081808 0.32206 0.22796 -0.1126 0.24381 0.056503 -0.078366 
or 0.19607 0.59821 -0.0061674 0.10372 -0.20839 -0.055162 0.097768 -0.013097 0.29596 -0.44425 
chey 0.021046 0.63623 -0.080622 -0.0019469 0.40551 -0.011224 0.29373 0.51173 0.3239 -0.15161 
s 0.5979 0.38671 -0.19742 0.39468 0.11747 -0.060205 -0.15579 0.18153 -0.073299 0.038169 
dar 0.10868 0.48754 -0.44898 0.28187 -0.068367 0.058996 0.057212 0.22188 0.14914 -0.33572 
y 0.056144 0.82389 0.0066022 0.26784 0.086482 0.16372 0.07103 0.16671 -0.38011 -0.18786 
qokeey -0.20823 0.74408 0.19969 0.21806 0.42892 -0.22041 0.24914 0.64155 0.93534 -0.17175 
qokeedy -0.45076 0.99055 0.39621 0.57975 0.21948 0.1249 0.3127 0.71921 1.0578 -0.29672 
qokain -0.39286 1.0388 0.21033 -0.10643 0.2913 0.2892 0.94817 0.60512 0.64006 -0.57917 
shey -0.042339 0.72806 -0.026295 -0.087636 0.49642 -0.032937 0.43467 0.34698 0.52047 -0.25962 
dy 0.29804 0.55437 -0.53651 0.30508 0.18674 0.28502 0.12922 0.079268 -0.17688 -0.2424 
qokedy -0.60845 0.99299 -0.022692 0.84379 -0.028817 0.2303 0.61455 0.46234 0.87779 -0.48641 
qokaiin -0.12405 0.67612 0.035367 -0.055148 -0.07706 -0.039783 0.63263 0.56373 0.49284 -0.39729 
al 0.14039 0.55931 0.31167 0.014733 -0.2876 -0.61146 0.096572 0.44135 0.15898 -0.2643 
dal -0.052563 0.54576 -0.40887 0.39337 0.12947 -0.10999 0.32889 0.34141 -0.019847 -0.20867 
okaiin 0.21963 0.64253 0.02212 -0.24936 -0.19919 -0.15744 0.44984 0.23594 0.17445 -0.27187 
dain 0.13873 0.62864 -0.26845 0.07647 0.27169 0.3022 0.22871 0.40852 -0.064764 -0.19392 
chor 1.1 0.31847 -0.64932 -0.21345 0.40139 0.3858 -0.18189 0.15447 -0.030692 -0.11158 
qokal -0.45458 0.79104 -0.23165 0.21842 0.15907 -0.15243 0.76817 0.42435 0.51337 -0.50353 
o 0.23757 0.90599 0.26781 0.33961 0.11193 0.043866 -0.12175 0.31106 -0.48574 0.18249 
l -0.04664 0.87415 0.42708 0.32112 0.17817 -0.064639 0.16038 0.82587 0.0092452 0.27009 
shol 0.58022 0.48766 -0.54616 -0.085089 0.23217 0.29659 0.18501 0.19029 0.050027 -0.024169 
cheey 0.063922 0.58519 -0.02121 -0.11043 0.14477 -0.17345 0.14147 0.618 0.55318 -0.12511 
okeey 0.029904 0.57941 0.25428 0.29917 0.36457 -0.75669 -0.071574 0.3274 0.6262 -0.12634 
r 0.072914 0.9318 0.1245 0.38651 0.33741 0.020253 0.032025 0.45273 -0.2058 0.37607 
cheol 0.24668 0.36496 -0.13634 0.10201 0.39484 -0.23427 -0.0031647 0.49936 0.71427 -0.14993 
otedy -0.45385 0.94561 0.23206 0.70715 -0.34221 -0.048988 -0.035495 0.15926 0.66552 -0.65781 
chy 0.66461 0.46193 -0.34912 0.086751 0.46401 0.30556 0.0065177 0.30713 -0.45412 -0.11869 
qokar -0.25988 0.67802 -0.1338 0.084696 -0.278 0.00015004 0.64055 0.42619 0.24661 -0.67783 
okal -0.052933 0.59775 -0.13603 0.35078 -0.29428 -0.36634 0.39196 0.11327 -0.066216 -0.43415 
otaiin 0.34568 0.56038 0.12275 -0.19303 -0.57891 -0.12053 -0.074028 0.38799 0.062268 -0.32333 
otar -0.088847 0.69034 0.10944 0.15763 -0.59065 -0.28557 0.095561 0.15196 0.13779 -0.65349 
sheey 0.19245 0.5115 -0.025477 -0.14025 0.28203 -0.18062 -0.040007 0.52069 0.5706 -0.15141 
chdy -0.12944 0.56215 -0.23078 0.39727 -0.38532 0.12525 0.2921 0.26652 0.14988 -0.74111 
qoky -0.082179 0.68755 -0.30095 0.34883 0.14718 0.3668 0.69132 0.34328 0.4336 -0.26315 
oteey -0.24581 0.69036 0.25854 0.21416 0.17574 -0.60818 -0.3379 0.55036 0.2178 -0.43761 
okar -0.0073664 0.64867 0.077482 0.43849 -0.47864 0.0013733 0.33262 0.033757 0.067857 -0.63542 
qol -0.50816 1.1463 0.051781 0.17826 0.47819 0.16514 0.89588 0.48454 0.85615 -0.29864 
okain -0.0954 0.74171 0.28655 -0.14577 0.23192 -0.071841 0.57458 0.32487 0.43624 -0.62847 
chckhy -0.15418 0.68968 -0.060162 0.15673 0.03387 0.15916 0.58847 0.34567 0.217 -0.56538 
otal -0.032684 0.55059 0.015811 0.10662 -0.30307 -0.25661 0.46189 0.28276 0.089046 -0.59238 
saiin 0.033677 0.64843 0.2603 0.21238 0.18104 -0.10454 0.13563 0.33042 0.32699 -0.27983 
sho 1.0037 0.3829 -0.57847 -0.079466 0.2789 0.39927 -0.508 0.50514 -0.07695 0.15643 
okedy -0.4669 0.72719 0.039128 0.94999 -0.039892 -0.037468 0.22186 0.18978 0.65977 -0.79733 
oty 0.31517 0.49125 -0.097012 0.15599 0.057665 0.19702 -0.0036576 -0.045392 -0.014746 -0.63823 
okeedy -0.22257 0.62635 0.49591 0.59164 0.0048804 -0.19963 0.14153 0.3897 0.67195 -0.72863 
lchedy -0.37619 0.92281 0.24871 0.23643 0.14717 -0.013554 0.47606 0.83706 1.0433 -0.20086 
ain -0.24506 0.84124 0.35504 -0.1797 0.17223 -0.35003 0.44509 0.48506 0.088758 -0.53046 
dair 0.42747 0.3345 -0.23729 0.27985 -0.29864 -0.20075 -0.20218 0.34435 -0.067668 -0.15745 
qokey -0.28467 0.77556 -0.047279 0.32564 0.79237 -0.18267 0.53774 0.16665 0.82233 -0.44297 
dol 0.36382 0.47588 -0.55009 0.60303 0.34685 0.45308 0.063315 0.26294 0.53773 0.079179 
sheol 0.16014 0.39879 -0.52588 0.042132 0.37848 -0.3081 0.16047 0.20886 0.95682 -0.24448 
oky 0.45409 0.29323 -0.40485 0.1034 -0.084322 0.082938 0.16702 0.011424 0.036731 -0.59947 
oteedy -0.321 0.88592 0.44265 0.30122 -0.24912 -0.46522 -0.20212 0.31449 0.76777 -0.51853 
cthy 1.1586 0.51182 -0.67898 -0.04652 0.32929 0.67972 0.072798 -0.13615 -0.31723 -0.1541 
shy 0.48048 0.75561 -0.69481 -0.082328 0.20998 0.46462 0.12182 0.12659 -0.3063 0.033787 
qokol 0.061776 0.4298 -0.88714 0.12583 0.21276 0.022329 0.10458 0.12163 0.50514 -0.46771 
otain -0.042944 0.86319 0.56588 -0.35239 -0.047561 -0.15043 0.57759 0.41807 0.31603 -0.55477 
shor 0.852 0.52252 -0.67191 -0.28673 -0.05349 0.52088 -0.072793 -0.05438 0.14481 -0.17533 
cheor 0.386 0.38188 -0.35973 0.020617 0.49289 -0.35004 -0.15606 0.32036 0.3482 -0.053791 
chody 0.62429 0.32596 -0.33061 0.2494 -0.10556 0.074388 -0.35476 0.26241 0.11755 -0.11272 
cheody 0.60747 0.049939 -0.24135 0.30599 -0.36364 -0.65584 -0.11791 0.38648 0.6608 -0.16088 
qotedy -0.50911 0.84369 0.1027 0.696 -0.040608 0.15599 0.44134 0.59872 0.91141 -0.5651 
dam 0.34674 0.33169 -0.64386 0.60795 -0.22364 0.036054 0.037021 0.021244 -0.016319 -0.35388 
qoty -0.04745 0.7553 -0.49607 0.034923 0.14176 0.61065 0.042477 0.54822 0.16925 -0.27398 
am 0.19236 0.54116 0.29228 0.07369 -0.26864 -0.42386 -0.068643 0.15349 -0.034288 -0.58142 
char 0.51759 0.54886 0.13361 -0.28637 0.073907 -0.013635 0.36297 0.35157 -0.2833 -0.16992 
air 0.014677 0.65978 -0.10254 0.27812 -0.69732 -0.57525 -0.27847 0.21683 -0.057896 -0.30023 
sar 0.12095 0.72494 0.20571 0.15583 -0.21306 -0.34387 0.07393 -0.10209 0.35478 -0.32383 
sheedy -0.42746 0.91384 0.068208 0.31168 -0.21686 0.0049944 0.38738 0.6812 0.70348 -0.27326 
otol 0.40663 0.66888 -0.33511 -0.086812 -0.087354 -0.079479 -0.35154 -0.19549 0.10025 -0.21238 
chcthy 0.11774 0.61605 -0.15876 0.033395 0.036112 0.38946 0.56177 0.25077 0.2811 -0.46688 
kaiin 0.59247 0.31995 0.0047628 -0.17943 -0.45304 0.1773 0.57208 0.63844 0.020096 -0.25434 
qotaiin 0.14122 0.53494 -0.069724 -0.15173 -0.47352 0.30179 0.035385 0.80366 0.44389 -0.37554 
cho 1.0034 0.24975 -0.297 0.1125 0.2142 0.18633 -0.094741 0.6904 -0.17391 0.31744 
okol 0.50777 0.41554 -0.68826 0.020788 0.50577 -0.35401 -0.091734 -0.31802 0.35027 -0.31385 
qoteedy -0.5398 1.09 0.25692 0.5538 -0.16305 0.09384 0.39723 0.69291 1.0403 -0.2369 
cheo 0.56303 0.13735 -0.043665 0.33823 -0.042709 -0.36053 -0.26695 0.82401 0.39583 0.089329 
d 0.47268 0.96473 0.1694 0.58089 0.42702 0.45643 -0.20711 0.32682 -0.89545 0.18554 
qokchy 0.4449 0.66783 -0.94488 0.057856 -0.12688 0.8941 -0.19337 0.26388 0.019342 -0.22847 
sol 0.025719 0.71035 -0.23565 0.3316 0.26045 0.18328 0.42202 0.24594 0.65936 -0.028318 
odaiin 0.77985 0.26429 0.04575 0.13895 -0.65751 -0.11638 -0.044065 0.035323 0.10344 -0.38464 
cheky 0.039626 0.25004 -0.1596 0.59977 0.076412 -0.17739 0.22575 0.41302 0.1063 -0.63521 
okeol 0.47911 0.28045 -0.28205 0.14161 0.74709 -0.82783 -0.48807 -0.009551 0.75366 -0.33764 
qotar -0.31155 0.77532 -0.047827 0.18716 -0.77081 -0.00044708 0.43083 0.53318 0.31644 -0.61935 
dor 0.81442 0.34724 -0.44965 0.19134 0.39607 0.61494 -0.11098 -0.043607 0.39522 -0.29175 
sain -0.317 0.8132 0.14884 0.15101 0.089458 -0.12329 0.46002 0.43776 0.50066 -0.47259 
okey -0.17826 0.56728 -0.064565 0.64931 0.68654 -0.80409 0.10529 0.27153 0.23025 -0.19838 
raiin 0.014764 0.8122 0.20738 -0.34846 0.046858 0.0069051 0.26561 0.83702 0.61325 -0.015895 
keedy -0.36776 0.52366 0.27042 0.65813 0.18607 -0.14415 0.68716 0.74002 0.6581 -0.76353 
qotchy 0.78953 0.75159 -0.82532 -0.027119 -0.10531 1.1614 -0.22017 0.29194 -0.019025 0.0056806 
oly -0.2599 0.83178 -0.09737 0.32494 0.35871 0.075905 0.59196 0.17661 0.31008 -0.39498 
qotal -0.2835 0.71517 -0.24114 0.067373 -0.057141 0.10581 0.39106 0.5583 0.6059 -0.48227 
qotain -0.45096 0.95205 0.26845 -0.16781 -0.039799 -0.16393 0.5188 0.81923 0.79353 -0.47927 
shckhy -0.24535 0.95791 0.14273 -0.18688 0.48226 0.098543 0.50182 0.067829 0.49356 -0.70849 
otey -0.38655 1.0315 0.17426 0.33684 0.082008 -0.56008 0.031016 0.11838 0.014108 -0.17252 
cheedy -0.3376 0.83276 0.17059 0.22017 -0.043029 -0.32313 0.12628 0.7611 1.0253 -0.15048 
kar 0.25987 0.55465 0.24634 -0.10659 -0.55077 0.012129 0.53068 0.053629 -0.051977 -0.92293 
ykeey 0.33088 0.27802 0.2315 0.42933 0.29357 -0.24962 -0.21749 0.35362 0.17674 -0.47746 
cthol 1.2462 0.49032 -0.8595 -0.098334 0.48296 0.8281 -0.066165 0.047869 0.19526 0.10088 
keey 0.45869 0.57516 0.095311 0.19186 0.35645 -0.33466 -0.12293 0.55837 0.34261 0.46912 
qo -0.00057992 0.75213 -0.44638 -0.14859 0.41768 0.28981 -0.1049 0.72028 0.31143 0.022553 
olaiin 0.075496 0.38572 0.14652 0.35607 -0.093033 -0.49868 -0.15014 0.18903 0.63147 -0.60756 
shody 0.59086 0.27803 -0.56357 -0.13029 -0.33657 0.091093 -0.37265 0.49279 -0.011973 -0.30605 
sor 0.11569 0.53117 -0.2904 0.073486 0.19528 -0.015502 0.014272 0.15961 0.20156 -0.43281 
chear 0.67264 0.3442 0.26479 -0.18974 0.40835 -0.15918 0.51744 0.33796 0.10868 -0.16837 
cthey 0.88411 0.22982 -0.10221 0.4168 0.41209 0.004425 -0.23018 0.36611 0.10152 0.15962 
qokchdy -0.31747 0.70907 -0.25543 0.36534 -0.67026 0.34649 0.31817 0.21806 0.3448 -1.1076 
qokeol 0.58144 0.058848 -0.55588 0.19247 0.84181 -0.72481 -0.058972 0.29531 1.0625 -0.14132 
sal -0.15036 0.75631 -0.22024 0.35013 0.36711 -0.29868 0.11502 0.095894 0.11762 -0.18814 
opchedy -0.20495 0.57875 -0.091715 -0.13408 -0.53282 -0.01145 0.13438 0.60634 0.68071 -0.88832 
otam 0.16423 0.56197 -0.23894 0.39023 -0.5884 -0.19837 0.012297 0.00023382 0.49087 -0.28272 
lchey -0.33841 0.99435 -0.031635 -0.27131 0.19628 0.080418 0.25723 0.64776 1.0304 -0.31116 
chal 0.23248 0.64607 0.097358 -0.51097 0.1618 -0.39434 0.62644 0.065482 0.38803 -0.44168 
sheody 0.40737 0.23378 -0.56881 0.15537 -0.32051 -0.46729 -0.59677 0.16317 0.52041 -0.46329 
sheor 0.59049 0.40264 -0.12069 -0.23253 0.31319 0.11617 0.18326 -0.066483 0.91256 -0.40471 
chaiin 1.2227 0.4774 -0.14301 -0.35358 0.36387 0.65543 0.25415 0.28358 -0.57098 -0.1466 
checkhy -0.23043 0.82939 0.3052 0.367 0.26645 -0.172 0.54323 0.41042 1.0089 -0.24704 
lkaiin 0.15984 0.67555 0.38849 -0.79128 -0.31395 -0.51124 0.62712 0.98168 0.47111 -0.22175 
sheo 0.73068 0.34698 0.029487 -0.20069 0.09129 -0.66911 -0.36377 0.10066 0.35529 -0.097591 
kedy -0.35019 0.86654 0.27637 0.56039 0.054622 0.30557 0.48902 0.29953 0.54084 -0.74285 
ody 0.05018 0.63723 -0.14077 0.51639 -0.31061 0.061953 -0.20996 0.034859 -0.34923 -0.65414 
aiiin 0.26299 0.49042 0.2927 -0.090432 -0.49292 -0.38034 0.33558 0.41698 0.11293 -0.41831 
chodaiin 0.79138 0.27162 -0.63067 -0.10466 -0.048268 0.21183 -0.30381 0.45 -0.046975 -0.095482 
ykaiin 0.30246 0.39321 -0.089006 0.059581 -0.58252 0.34701 0.40204 0.15095 -0.2648 -1.1417 
shdy -0.15288 0.70287 -0.41204 0.88138 -0.64696 0.28983 0.38655 0.35385 0.014919 -0.22296 
cthor 1.2867 0.79566 -0.62191 -0.60305 0.7112 0.85077 0.18225 -0.46239 -0.071005 -0.25205 
olkeedy -0.11651 0.59708 0.078632 0.27407 -0.31501 0.079446 0.59855 0.2524 0.84107 -0.79596 
tol 0.25724 0.50893 -0.70294 0.27464 -0.044955 0.16385 -0.15209 -0.21435 0.64366 -0.41962 
taiin 0.50434 0.25544 -0.12967 -0.10837 -0.323 0.098885 0.14749 0.77197 -0.16894 -0.30596 
qoteey -0.075443 0.79853 0.12938 -0.099625 0.2278 0.34477 -0.36209 1.2161 0.17374 -0.075329 
qodaiin 0.68758 0.40516 -0.16404 -0.020068 -0.6423 0.15753 -0.053057 0.18184 0.40687 -0.16034 
otchy 0.50594 0.58904 -0.67209 0.022794 -0.035374 0.86999 -0.47692 0.1036 -0.34992 -0.73258 
kain -0.27347 0.82272 0.35504 -0.14901 0.23242 -0.14013 0.48287 0.63204 0.40854 -0.57507 
qotol 0.23339 0.49321 -1.1376 0.16808 0.063609 0.73923 -0.098621 0.57719 0.46023 -0.1938 
ches -0.12676 0.87225 -0.019725 -0.53834 0.016597 -0.53606 -0.16744 0.41429 0.046787 -0.3453 
tar -0.054877 1.0581 0.0069253 -0.31598 -0.3414 0.11138 0.36828 0.027063 -0.13818 -0.39242 
oteody 0.1233 0.57133 -0.005461 0.53587 -0.29677 -1.2406 -0.85045 0.075204 0.24659 -0.32728 
tedy -0.46209 1.0297 0.27551 0.87789 -0.085398 0.08888 0.6984 -0.1515 0.72263 -0.7886 
qokchedy -0.10991 0.56508 -0.62414 -0.18382 -0.58304 0.037217 0.3182 0.92683 0.88762 -0.31125 
lshedy -0.59736 1.0554 -0.083319 0.32496 0.56672 -0.010488 0.64725 0.29499 0.87158 -0.50173 
choky 0.49457 0.57416 -0.81714 0.20318 0.12835 0.017807 -0.4825 -0.15778 -0.15912 -0.15293 
chedaiin -0.22774 0.83631 0.36142 0.51529 -0.5091 -0.2302 -0.36546 0.61159 0.23074 -0.20776 
choty 0.58533 0.55881 -0.64473 0.27353 0.023581 0.53802 -0.45093 0.44056 -0.076068 0.1234 
lkeey 0.050321 0.77684 0.85685 -0.27367 0.26102 -0.429 0.30503 1.2246 0.92481 -0.082645 
olchedy -0.49562 1.4221 0.30302 0.71918 -0.3556 0.049951 0.88141 -0.044683 0.82897 -0.094886 
ytaiin 0.75801 0.70614 0.051781 -0.50702 -0.91341 0.5066 0.07568 -0.11549 0.055034 -0.59508 
otor 0.24096 0.69984 -0.53601 0.24527 -0.61525 0.042456 -0.10814 -0.0085352 0.085681 -0.064121 
chees 0.043309 0.39135 -0.35879 0.55732 0.1128 -0.30249 0.12803 0.3356 -0.017153 -0.24991 
olkeey -0.44539 1.1518 0.010313 -0.24968 0.15348 -0.060358 0.83758 0.35722 0.76587 -0.3519 
lor 0.18439 0.50844 0.28862 0.030045 0.28264 0.083222 0.64828 0.55737 0.72146 -0.35466 
lol -0.32094 1.0135 0.056615 0.24609 0.11806 -0.010663 0.938 0.099505 0.97601 -0.35439 
chos 0.68563 0.066486 -0.51669 0.45726 0.087741 -0.4116 -0.43884 0.12427 0.42277 -0.24943 
kol 0.89796 0.47009 -0.37741 0.30658 0.29182 0.508 -0.11446 0.15897 0.1746 0.23526 
sy 0.38455 0.56072 -0.57035 -0.045765 0.39783 0.14188 0.2328 0.38027 -0.072519 0.085127 
cheos 0.59038 0.24267 0.096738 0.32348 -0.18581 -0.54115 -0.1383 0.28506 0.57841 -0.041804 
ykar 0.13826 0.62672 -0.17914 0.039121 -0.55877 -0.063379 0.25931 -0.021135 -0.37383 -0.78209 
lkeedy 0.034642 0.75163 0.93298 0.23184 0.091521 -0.44643 0.27881 1.0464 0.98503 0.016781 
oteol 0.35683 0.5413 0.21559 0.4434 0.21203 -0.41718 -0.35643 -0.17363 0.39886 -0.28602 
okeody 0.26811 0.36392 -0.26752 0.51751 -0.19534 -1.2584 -0.23334 0.042549 0.39734 -0.10427 
ckhy 0.98627 0.41907 -0.66633 0.40348 -0.092765 0.18885 0.029569 -0.17122 -0.1294 0.15113 
okor 0.33887 0.46233 -0.53872 0.5648 0.39763 -0.39471 -0.31158 -0.4569 0.44599 -0.34376 
kchy 0.91821 0.79098 -1.103 0.09473 0.0079119 1.0508 -0.14455 0.10516 -0.32753 0.06967 
oraiin 0.19327 0.48759 -0.06828 -0.028686 -0.42276 -0.26728 -0.17571 0.20724 0.39949 -0.49721 
pchedy -0.53214 0.78479 0.079555 0.036512 -0.08612 0.17572 0.25786 0.95076 0.5667 -0.88692 
oiin 0.30705 0.55843 -0.35846 0.034137 -0.08352 -0.26862 0.54596 -0.37876 0.24617 -0.42062 
otchedy -0.18281 0.88969 0.3322 0.1851 -0.86017 0.30004 -0.4924 0.74771 0.58863 -0.64881 
chedar 0.032646 0.79212 0.54426 0.15631 -0.59946 -0.32793 -0.02861 0.84802 0.92899 0.056258 
sheky -0.33436 0.61061 -0.10917 0.45345 0.55617 -0.14572 0.84631 0.56159 -0.33292 -0.59412 
dshedy -0.71958 1.1716 -0.027305 0.99945 -0.18432 0.56492 0.30131 0.59833 0.49465 -0.44382 
lkain -0.0017863 0.73001 0.47855 -0.64552 0.25404 -0.23547 0.94592 1.1196 0.62302 -0.35671 
otchdy -0.1192 0.85491 -0.25193 0.45556 -0.71206 0.026647 -0.56279 0.071157 0.62969 -0.38597 
tchedy -0.29584 0.5266 -0.16403 -0.018914 -0.24546 -0.06093 0.15171 1.2312 0.46013 -0.48461 
qokeody 0.35526 -0.031357 -0.50431 0.84763 0.40939 -0.67177 -0.69283 0.36804 1.3168 -0.50971 
shar 0.055991 0.86126 -0.23939 -0.81628 0.22013 -0.35384 0.54895 -0.042812 -0.15464 -0.65425 
okam -0.082628 0.42529 -0.10796 0.47537 -0.268 -0.39003 0.081489 0.33361 0.061253 -0.63799 
olkain -0.076014 0.83539 0.25475 -0.17382 0.50461 0.55825 1.5366 -0.037249 0.80685 -1.4847 
sheckhy -0.60946 1.1437 0.13085 -0.22106 0.64652 0.028999 1.1599 0.61552 0.45218 -0.70066 
otchey 0.58037 0.72142 0.22151 0.28023 -0.30072 0.42059 -0.19966 0.13264 0.42309 0.17733 
daly -0.042747 0.51259 -0.32369 0.1993 0.16236 -0.51354 0.18105 -0.38591 0.36938 -0.96053 
shcthy -0.44626 0.83371 -0.89534 -0.10062 0.40259 0.37541 0.46034 0.54168 0.80646 -0.50974 
okchey 0.65785 0.40624 -0.033508 0.50509 0.16456 0.18492 0.26931 0.3144 0.41857 0.30541 
os 0.64585 0.63223 -0.098532 -0.22696 -0.10674 -0.11721 -0.72667 -0.49536 0.078824 -0.70736 
qokor 0.54056 0.46731 -0.64364 -0.26769 -0.26331 -0.09114 0.21801 -0.046896 0.64359 -0.10905 
okchy -0.062396 0.75809 -0.93411 0.30416 0.13915 0.032424 -0.31703 -0.12674 -0.1336 -0.41445 
lkar -0.055944 0.77405 0.19554 -0.53854 -0.49769 0.17573 0.11951 0.87178 0.73961 -0.62073 
qopchedy -0.46435 0.66316 -0.1963 0.11726 -0.95564 -0.30553 0.047623 1.06 0.93683 -0.69594 
olkaiin -0.00035825 0.57639 0.33527 -0.02555 -0.63709 0.00063556 0.23757 0.41323 -0.034977 -1.0528 
olor -0.13452 0.86917 0.14632 0.18531 0.26685 0.27266 0.41122 -0.0034086 -0.0020429 -0.70076 
ykeedy -0.22208 0.94099 0.19188 0.85105 -0.60952 0.085937 0.89678 0.031264 0.59095 -0.33781 
yteey 0.31399 0.71306 0.52936 0.1843 -0.40981 -0.19405 -0.47356 0.042976 0.069773 -0.46469 
opchey -0.23416 0.63419 -0.7335 -0.02271 -0.32969 -0.23239 -0.0052065 0.29767 0.45685 -0.48087 
chckhey -0.26546 0.69307 0.04591 0.30132 0.32206 0.20515 -0.25574 0.73388 0.74045 -0.49478 
checthy -0.29871 0.84479 0.21795 0.51038 0.62774 0.22959 0.43526 0.57122 0.9964 -0.33951 
cheal 0.12351 0.90265 0.3517 -0.49638 0.57256 -0.4631 0.26351 0.42182 0.19967 0.025945 
ky 0.41965 0.49898 -0.54181 0.48439 0.39304 0.52108 0.22114 0.57676 -0.11387 0.18082 
oldy -0.36593 0.85741 -0.31042 0.41411 0.58982 0.10998 0.16964 -0.16781 0.58521 -0.77768 
chl 0.48438 0.53661 0.206 -0.29099 0.12307 0.38822 0.72113 0.73281 0.35569 -0.038007 
otchol 0.90894 0.50335 -1.4936 -0.5448 0.40977 0.74008 -0.64082 0.23022 -0.014602 -0.5469 
yteedy -0.46827 0.54252 -0.25662 0.53068 -0.025427 -0.27771 -0.47712 0.66463 0.33955 -0.81219 
dchedy -0.67242 0.78209 -0.26616 0.58699 -0.15965 -0.12231 0.32819 0.42203 0.6282 -0.83988 
sair -0.093891 0.42154 0.079122 0.53688 0.077687 -0.46286 0.2254 0.47036 -0.15902 -0.55884 
dchy 0.69166 0.63622 -1.1759 0.36522 0.39718 0.53696 -0.64998 0.42584 -0.81328 -0.080671 
tchy 0.60598 1.0416 -0.7511 -0.5594 0.33243 0.70481 -0.083696 0.17415 -0.68911 -0.00084218 
qokeeey 0.47629 0.52582 0.91205 0.12437 -0.006608 -0.12822 -0.17389 0.62083 1.1541 -0.24031 
qokchey 0.32814 0.61966 0.19627 -0.80661 0.20544 0.2425 -0.10172 0.56701 0.63556 -0.63687 
ckhey 1.192 0.24115 -0.0015188 0.47662 0.89195 -0.12875 -0.011112 -0.367 0.58021 -0.029558 
aiir 0.025191 0.52154 -0.3706 0.27168 -0.80828 -0.71335 -0.43167 0.3219 -0.071658 -0.47284 
kal -0.15456 0.55333 -0.064259 0.19231 -0.079603 -0.25167 0.36572 0.1896 0.27039 -0.75462 
daiir 0.04704 0.97886 -0.5735 0.52185 -0.28815 -0.45235 -0.80143 -0.11649 -0.084494 0.21143 
dchor 0.88581 0.93249 -1.0006 -0.32486 0.10373 0.51241 -0.14326 0.10281 -0.43048 0.42487 
kor 0.45566 0.35987 -0.53617 0.11967 0.37874 0.043216 0.088219 0.07366 -0.40483 -0.4865 
lkedy -0.45619 0.9628 0.44819 0.32024 -0.22795 -0.64547 0.033442 0.49097 1.2546 -0.39944 
she 0.76571 0.050074 -0.3196 -0.23544 0.14758 0.14233 0.10873 0.3884 -0.1716 -0.72734 
olkedy -1.0664 1.3622 -0.3434 0.60578 -0.039136 0.049264 0.57021 0.32984 0.43785 -0.65705 
chedal 0.14165 0.58106 0.52498 0.55341 -0.79087 -0.16879 -0.31209 0.44908 0.77105 -0.43914 
qotor 0.949 0.64154 -0.8209 -0.86997 -0.47504 1.0566 -0.26592 0.47865 0.16021 -0.35567 
okeeey 0.60643 0.1844 0.10558 -0.26438 0.23649 -0.82341 0.047836 0.46324 0.83339 -0.19072 
oaiin 0.70406 0.20802 -0.35455 0.73853 0.048255 -0.040363 -0.047727 0.61869 -0.01034 0.36089 
aly -0.053083 0.64523 0.013936 0.12078 -0.098083 -0.8295 0.31721 0.024268 0.15334 -0.41324 
otair 0.3308 0.41168 -0.13208 0.038493 -0.98336 -0.7819 0.11891 0.2257 0.37766 -0.33213 
qokam 0.013589 0.86994 -0.18816 -0.063112 -0.038634 0.47709 0.3721 0.049519 0.88204 -0.42153 
okchdy -0.50231 1.0858 -0.51559 0.71633 -0.63991 0.15792 -0.090313 -0.16951 0.30552 -0.60068 
cheeky 0.24199 0.45209 0.064707 0.32731 0.040671 -0.092639 0.89982 0.13648 0.70899 -0.32068 
olchey -0.33008 0.82441 0.058965 0.44029 0.68477 -0.0404 0.59445 0.20952 0.93476 -0.48965 
dchol 0.37295 0.71151 -1.2496 -0.10758 -0.040406 0.43592 -0.58169 0.45009 -0.41827 -0.1124 
ldy -0.412 0.82629 -0.34689 -0.079442 0.31449 0.040676 0.15252 0.68268 0.71678 -0.36802 
ary -0.1156 0.88677 -0.21432 0.56982 -0.28979 -0.53156 0.21815 -0.29161 -0.012721 -0.17826 
oteos 0.50654 0.71086 0.10143 0.02114 0.059244 -1.1549 -0.65144 0.031947 -0.47281 -0.074154 
shear 0.19081 0.90144 0.32673 -0.40167 0.46233 0.30492 0.15059 0.15363 0.53484 -0.40413 
kchol 0.9831 0.37802 -0.94054 -0.21151 0.63101 0.71215 -0.20385 0.27364 -0.087535 -0.31 
ytar 0.66699 0.2764 -0.14596 -0.58878 -0.91945 -0.27444 0.50027 -0.079321 0.13645 -1.0824 
tal -0.1661 0.59261 -0.48456 0.1009 -0.15657 -0.040212 0.86221 0.25485 -0.16881 -0.73279 
qotchedy -0.31842 0.43277 -0.58902 0.18382 -0.68335 -0.15168 -0.034309 1.2286 1.2938 -0.56807 
ytedy -0.086707 0.87174 -0.2947 1.8598 -0.46496 0.19755 0.56601 -0.59826 0.53346 -0.46327 
okchedy 0.34549 0.61422 1.0397 0.51663 -0.5576 0.24129 0.48043 0.12677 0.46949 -0.87183 
chockhy 0.99291 -0.037653 -0.32913 0.079479 -0.13236 -0.62478 -0.17312 0.14571 0.31831 -0.19993 
otaly -0.33093 0.81592 -0.12035 0.29634 -0.1845 -1.3224 0.47551 -0.2983 -0.31232 -0.83526 
chdar -0.37547 1.0718 0.21327 0.49651 -0.9549 -0.2413 0.025729 0.077086 0.12306 -0.58581 
dary -0.032617 0.66022 -0.39871 0.33249 0.067031 0.09438 0.37992 0.065191 -0.25225 -0.4429 
otody -0.031197 1.1019 0.47265 1.1139 -1.0074 0.15175 -0.49997 -0.329 -0.39739 -0.92187 
qotchdy -0.017423 0.50349 -0.38939 0.14773 -1.1717 0.12201 0.14049 0.62986 0.14303 -0.75935 
olky -0.34177 1.0719 0.30219 -0.09435 0.098527 0.45174 0.74677 0.12265 -0.020768 -1.0704 
qotey -0.13584 0.60189 0.02317 0.4829 -0.2183 -0.38591 0.6453 0.50827 0.78456 -0.12221 
yty 0.6304 0.71285 -0.30118 -0.15148 -0.20121 0.12857 -0.1433 -0.22699 -0.56325 -0.31571 
okaly -0.324 0.34596 -0.16769 0.87872 -0.22671 -1.0478 0.45858 0.17479 0.12962 -0.96707 
shodaiin 0.77821 0.43 -0.73387 -0.17466 -0.46587 0.34845 -0.3262 0.52488 0.2326 0.15749 
ykchy 0.49042 0.97989 -1.4526 0.15067 0.001949 0.49554 0.028889 -0.2955 -0.26964 0.16752 
kchedy 0.57221 -0.081246 -0.056078 0.44193 -0.82967 0.51147 0.52587 0.90103 1.1214 -0.89623 
qoaiin 0.54289 0.42773 -0.22032 0.17167 -0.34924 -0.13983 0.00034292 0.12382 0.43551 0.010129 
tchor 0.74344 1.1143 -0.34831 -0.61313 0.51956 0.48352 -0.31475 0.57683 -0.37138 0.67812 
kchey 0.59956 0.12137 -0.46977 0.57443 0.34943 0.27283 -0.057543 0.58344 -0.21704 -0.22546 
chety 0.17523 0.39002 -0.32383 0.086124 0.010357 -0.13404 -0.17788 0.50581 0.064191 -0.30913 
ols 0.15594 0.68612 0.002311 0.75698 -0.25614 -0.028076 0.13057 -0.2988 0.20925 -0.32324 
tor 0.42603 0.49899 -0.34581 0.41024 0.30203 0.42598 -0.052794 -0.5011 0.07511 -0.89532 
odar 0.66805 0.84348 0.64441 0.066835 -1.0699 0.089333 -0.35889 -0.061719 0.53172 -0.19375 
qor 0.273 0.63067 0.2881 -0.12435 0.10637 0.39103 0.88391 0.32457 0.040367 -0.56494 
rain -0.33249 0.9042 0.2206 -0.66219 -0.108 -0.38901 0.24203 0.73261 0.54254 -0.67218 
olshedy -0.33912 0.97093 0.24078 0.40087 0.69637 0.59916 0.59762 0.022013 1.1403 -1.1105 
sh 0.42689 0.64382 -0.4159 0.23901 0.077091 -0.39551 -0.46636 0.70795 -0.63207 0.4612 
tchey 0.47294 0.75075 -0.15818 -0.53406 -0.0014446 0.31986 -0.48821 0.13949 0.02427 -0.3404 
om 0.66433 0.15687 -0.14725 -0.10486 -0.49034 -0.20244 0.10693 0.31917 0.57703 -0.38241 
qokeor 0.18479 0.18674 -0.43332 0.18754 0.99969 -0.34961 0.05736 0.95003 0.81716 -0.10008 
ycheey 0.75588 0.053776 0.36523 0.31019 -0.32868 -0.14196 0.5524 0.5073 0.37043 -0.32184 
qokair -0.059352 0.17414 -0.20197 0.42478 -0.15667 -0.63277 0.72788 0.19823 -0.040409 -1.192 
daldy -0.17434 0.34377 -0.37726 0.64489 0.33511 -0.037067 0.44157 0.68181 -0.70469 -0.82461 
teey 0.087447 0.67949 0.34278 -0.31976 0.3553 -0.25258 -0.79445 0.77708 0.4559 -0.39406 
daiiin 0.38778 0.44564 -0.23245 0.1109 0.051392 0.35479 -0.49063 0.53417 0.026409 -0.29925 
ckhol 1.1427 0.18112 -1.1504 0.37902 0.6072 -0.047624 -0.022359 -0.12235 0.67466 0.24833 
keody 0.29897 -0.0074259 -0.22885 0.27411 0.26476 -0.53038 -0.44285 0.42193 0.11983 -1.0221 
okair 0.18758 0.89878 0.32867 -0.34649 -0.86308 -0.28163 0.35593 -0.27337 0.12131 -0.79088 
keol 0.5709 0.5147 -0.12512 0.29049 0.83388 0.16394 0.2441 0.19677 0.060983 0.11044 
okeor 0.666 0.26439 -0.61363 0.26494 0.35392 -1.0909 -0.065129 -0.26448 0.34229 -0.059509 
qokeeo 0.81106 0.037575 0.37687 0.13301 -0.44303 -1.0371 0.54464 0.73663 1.5972 0.019542 
dl -0.17491 0.96647 -0.18416 -0.22086 -0.33007 0.18247 -0.26355 0.81113 -0.095798 -0.076703 
ykedy -0.24952 0.77333 0.22313 1.4124 -0.36484 0.55455 0.4402 0.080633 0.002297 -0.93504 
olkar -0.26027 0.90981 -0.19978 -0.5881 -0.51848 -0.39566 0.63565 -0.07342 0.78801 -0.99515 
shecthy -0.47484 0.54218 -0.27761 0.22018 0.35877 -0.39406 0.74785 0.90227 0.94946 -0.5719 
okeeo 0.39312 0.3555 0.5941 0.004184 0.29795 -1.1366 0.18887 0.80436 0.68289 0.036657 
kchdy 0.22848 0.35378 -0.54647 0.8641 -0.4416 0.60285 0.98038 -0.2833 0.35539 -1.1688 
lo -0.11168 0.68402 0.42143 0.3527 -0.14812 0.30904 0.64396 1.1242 0.3517 -0.26552 
cheeo 0.41009 0.72517 0.9946 0.26959 -0.71798 0.289 -0.46227 1.1431 0.89453 -0.076176 
kchor 1.3639 0.35771 -0.56583 0.21463 0.92689 1.055 0.15408 0.35927 0.33276 0.20081 
ctho 1.5409 0.53179 -0.73874 0.41735 0.34333 1.0808 -0.42542 -0.12355 -0.15545 0.0076249 
shaiin 0.97884 0.85582 -0.59009 -0.63591 0.0035151 0.4161 0.77891 0.005151 0.089982 0.49676 
okeo 0.54624 0.40895 -0.082157 0.62178 -0.19494 -1.2323 -0.28716 -0.31334 -0.058466 -0.2545 
opchdy -0.49589 1.5226 -0.10184 -0.5972 -1.2846 0.098088 -0.2737 0.90004 -0.016931 -0.2943 
lky -0.041791 0.62422 1.1207 0.3454 -0.14901 -0.034071 0.80654 1.3846 0.50519 -0.52917 
chocthy 1.0652 0.61176 -0.2105 -0.4119 -0.28303 0.99637 -0.28741 0.61905 -0.48655 -0.20039 
qoeedy -0.24491 0.28184 0.47824 0.98698 -0.25474 0.10615 0.95919 1.3235 0.44978 -0.99758 
pol 0.11077 1.0004 0.58629 -0.3017 -0.043215 0.25463 0.5162 0.18534 0.55212 -0.4056 
soiin 0.60027 0.28259 0.21266 -0.37046 0.62019 0.55095 0.026903 0.39632 0.79796 -0.89007 
chain 1.3953 0.12977 0.20212 -0.28664 -0.42609 0.58822 0.9567 0.6649 -0.37512 -0.23301 
chdal -0.007857 0.44386 -0.40338 0.20982 -0.92843 -0.092598 0.22526 0.24692 0.089056 -1.0171 
sheal -0.45903 1.2644 0.40127 -0.21938 0.78007 -0.5287 -0.17283 0.27395 0.15747 -0.31188 
ched -0.27661 0.38489 0.35462 0.62617 -0.30324 -0.19722 0.38725 1.6073 0.074013 -0.50245 
chedain -0.34067 0.69285 0.56541 0.69378 -0.44453 -0.4818 -0.31265 1.2036 0.49104 -0.2784 
okees 0.16339 1.0791 0.68242 0.92657 -1.1573 -0.58902 0.15554 -0.22703 0.071676 0.014525 
ty 0.52991 0.73132 -0.53047 0.10368 0.052624 1.1488 0.5239 0.33888 -0.58007 -0.36853 
odal 0.66552 0.57545 -0.10455 0.57387 -0.47414 0.00040401 0.16384 -0.68213 0.13767 -0.30721 
rol 0.054436 0.49999 -0.18317 0.15658 -0.30809 1.0774 0.7862 0.97456 0.73027 -0.84503 
aral 0.65093 0.53505 -0.0066532 -0.37882 -1.0975 -0.47096 -0.44917 0.4734 0.16322 -0.061463 
shed -0.48694 0.98081 0.38618 0.27646 -0.0046772 -0.044829 0.27886 0.15742 0.49977 -0.93301 
dan 0.93034 0.72442 -0.21046 -0.35196 0.51657 0.60026 -0.37692 0.4588 -0.99538 -0.26086 
qody 0.70944 0.47625 -0.0042003 -0.51282 -0.073573 0.44983 -0.51213 -0.2217 1.2234 -1.017 
qokeed -0.49967 0.8533 0.43068 0.74464 0.11633 0.035326 0.38937 0.53507 1.0684 -0.72932 
tchol 1.252 0.50736 -0.34536 0.27785 0.36159 0.56742 -0.71853 -0.0041267 -0.40218 -0.014149 
chkaiin 0.67361 0.27611 -0.28467 -0.088747 -0.043865 0.12385 0.37264 0.15209 0.25161 -0.31402 
lchdy -0.62918 1.4333 -0.071611 0.43587 0.15534 -0.57407 0.51821 0.25988 0.74197 0.44539 
chky 0.50468 0.46851 0.048839 0.27656 -0.068499 0.6654 0.5807 0.28818 -0.76708 -0.77959 
qotchey 0.43121 0.48849 -0.28428 0.18257 -0.35264 0.80674 -0.47509 1.2203 -0.14758 -0.068308 
ytal 0.34873 0.31972 -0.89752 -0.13586 -0.66182 0.044192 0.5952 -0.030568 -0.54276 -1.1891 
okody 0.16693 0.70169 0.20492 0.61855 -0.18325 -0.54356 -1.0277 -0.46596 -0.43793 -1.3238 
olol -0.0025874 1.1167 -0.48136 0.24433 0.48085 -0.0131 0.68943 -0.7367 0.5852 -0.077611 
chs 1.0404 0.22468 0.13983 0.24147 -0.4352 -0.20204 0.23596 0.54762 0.25009 0.47138 
ydaiin 0.73023 0.035453 -1.2302 0.4455 -0.02267 -0.29656 0.25042 0.39622 -0.0026767 0.094176 
okeeody 0.61904 0.17331 0.38725 0.18146 0.0078891 -0.56655 -1.0332 0.55907 0.32544 -0.65422 
qockhy 0.4243 0.019756 -1.1615 0.96966 -0.17682 -0.62796 0.13507 0.043321 0.18281 -0.30086 
okchor 0.55758 0.62081 -0.91909 0.043966 0.0098716 0.52055 -0.13533 -0.032752 -0.38334 -0.33531 
qockhey 0.64694 0.27416 -0.35142 0.24976 0.17123 -0.32224 -0.041036 0.29751 1.6298 0.1893 
chdaiin -0.15995 0.75985 -0.30059 0.32926 -1.2752 0.37906 -0.12833 0.43389 0.82476 -0.88367 
chokchy 1.5838 0.88276 -0.11844 0.28257 0.59856 0.72589 -0.20394 0.23796 -0.16474 1.0215 
otchor 0.98801 0.51876 -1.0548 -0.45187 0.69356 0.59997 -0.59519 0.44894 0.20657 -0.0016008 
odain 0.10292 0.59103 -0.21439 0.28382 -0.014167 -0.014391 -0.6434 0.13528 0.5998 -0.37238 
rar 0.067903 0.80513 0.32551 -0.039245 0.16131 -0.73772 1.2569 0.17464 0.52872 0.013952 
choly 1.0578 0.31371 0.14592 0.20797 0.49749 -0.47681 0.066215 -0.3786 -0.17028 -0.21204 
qokaly -0.44384 0.38866 -0.92436 0.20221 0.21323 -0.82152 1.0283 0.23585 1.0113 -0.97367 
dchey 0.18678 0.74548 -1.3164 0.58951 0.57199 0.32826 0.2262 0.23785 0.43403 0.47277 
cham 0.10721 0.54868 -0.5381 -0.2518 0.3811 0.3194 0.37037 0.43233 -0.72042 -0.83883 
ral -0.26202 1.1772 0.50892 -0.53201 0.20055 0.40024 0.13581 0.69558 0.15255 -0.61697 
lshey -0.63334 1.587 0.37282 0.22125 0.96213 -0.47845 1.0439 0.44007 0.88521 0.30114 
yky 0.75924 1.1375 0.06415 -0.074606 -0.082778 0.60498 0.74938 -0.81033 -0.75447 -0.39195 
do 0.46324 0.40372 -1.4189 0.38481 -0.11607 0.45814 -0.93562 1.2946 -0.26563 0.12927 
opaiin 0.25018 1.1267 0.42023 0.53506 -1.0641 -0.66614 -1.0903 0.24931 0.37761 0.35301 
qokeeody 0.47668 -0.38474 -0.19003 0.63219 -0.094429 -1.0356 0.30276 1.1874 0.42481 -0.46512 
olar 0.072271 0.91699 -0.1831 0.40371 -1.0627 -0.58545 0.27339 0.069031 -0.05167 0.18911 
cthody 1.4569 0.11462 -0.74687 0.57364 -0.08253 -0.011659 -0.88724 0.01337 0.0082879 0.06816 
ror -0.28627 1.3072 0.020715 -0.75227 0.10616 -0.42049 0.29001 0.25058 0.70328 -0.037597 
ytchy 0.62873 0.83958 -0.63386 -0.034098 0.37728 0.82649 -0.27648 0.64869 -0.87006 0.025209 
cheeor 0.68217 0.22013 0.31672 0.16549 0.10466 -0.35386 -0.67955 0.23291 0.62227 -0.5014 
chokaiin 0.72419 0.60952 -0.16384 0.046606 -0.37386 -0.13759 0.30351 0.98063 -0.24802 0.89053 
teol 0.85929 0.14533 0.083853 0.4928 0.043928 0.10529 1.0507 -0.16206 1.1034 -0.32711 
ory 0.13759 0.19534 0.32831 0.11208 0.55538 0.092839 0.069479 0.39621 0.24482 -1.4454 
k 0.36967 1.3036 0.4448 0.34106 0.32726 0.42932 0.148 1.28 -1.3265 0.44789 
key -0.27644 0.58727 -0.3316 0.22847 0.69042 -0.07809 -0.44477 0.63757 -0.32744 -0.77569 
ykeody 0.046443 0.46687 -0.71313 0.9936 0.29991 -0.94252 -0.73602 0.037853 -0.27073 -0.32944 
oteo 0.072526 0.37927 0.38635 1.0771 -0.52013 -1.3723 -0.42895 0.85612 -0.59866 -0.44012 
shal 0.095713 1.4327 1.0038 -0.30683 -0.21417 -0.047877 0.23256 -0.11054 0.18619 -0.10032 
ychey 0.38469 0.81875 -0.49207 0.078491 0.022088 0.032662 -0.2632 -0.25768 0.36354 0.10042 
qopchdy -0.45713 0.67945 -0.31275 0.64725 -0.81554 -0.27619 0.90183 0.96166 0.52269 -0.19467 
orain -0.35819 0.83808 0.11455 -0.27111 0.49624 -0.19682 0.0085897 0.35472 0.51637 -0.89479 
ychor 1.4151 0.14068 -0.72027 0.13668 0.19641 0.011602 0.1945 -0.5773 0.36855 -0.20046 
teedy -0.091292 0.50513 0.08092 1.1897 -0.32126 0.28824 -0.10446 0.60354 1.1332 -0.44572 
ot 0.091351 0.70544 0.36283 0.50778 -0.65812 -0.13817 -0.33063 0.53559 0.35338 -0.091219 
oteeos 0.36528 0.8105 0.34411 -0.42636 -0.087598 -1.8851 -0.61068 0.15848 -0.19096 -0.34566 
cthar 0.4925 0.86293 -0.43422 -0.76827 1.0132 0.57886 0.5917 0.5942 -0.52469 -0.15629 
qoeey 0.47519 0.55917 0.10203 0.021431 -0.052416 -0.57902 -0.46246 -0.063972 0.48061 -0.18607 
okeeol 0.3483 0.079424 -0.28386 0.58003 0.33811 -1.0215 -0.84015 0.19689 1.08 -0.60425 
ykeol 0.53781 -0.080411 -0.80394 0.12953 0.092462 -0.74075 0.74052 -0.15676 0.40845 -0.87947 
qokchol 1.3655 0.8313 -1.5656 0.11642 0.004607 0.292 0.59427 -0.83955 0.30145 0.49708 
lkchedy 0.077508 0.31826 -0.27794 -0.41957 -0.82692 0.057606 -0.0042917 1.5981 0.98082 -0.66486 
ctheey 1.307 -0.099944 -0.26779 -0.040504 0.40788 -0.66327 -0.32503 0.43592 0.59224 0.12288 
sheeky -0.7137 1.0928 0.68568 0.56639 0.74858 0.058905 0.75446 0.44125 0.55003 -1.1241 
ykol 0.35049 0.50389 -1.5854 0.64505 0.13329 0.35443 -0.044692 0.20575 -0.06665 -0.003015 
okchol 0.65985 0.31653 -1.0462 0.65989 0.67599 -0.13039 -1.0769 -0.19639 -0.14264 -0.63556 
oiiin 0.65417 0.24676 0.28807 0.58847 -0.17942 -0.17824 0.53869 0.28986 0.81451 0.040972 
opchy 0.24996 1.1969 -0.32825 -0.088731 -0.46858 0.31306 0.62678 -0.034033 -0.13452 0.40806 
shes -0.38312 1.712 0.1756 0.031132 0.7094 -0.80198 -0.5623 0.1147 -0.33693 0.39477 
tey 0.55989 0.31432 0.40926 0.048213 -0.3137 -0.4297 -0.28967 0.61386 -0.091213 -0.26987 
t 0.25853 1.6208 0.10595 0.95432 1.9323 0.94031 -0.089017 0.99829 -1.4042 0.12156 
shedaiin -0.52968 1.1829 -0.0029009 0.68759 -0.937 0.1121 -0.96446 0.85871 0.031152 -0.33013 
ytor 0.88887 0.75462 -1.4294 -0.5505 -0.76654 0.21891 -0.42727 -0.22974 -0.29208 -0.20181 
laiin -0.27371 0.57224 0.18373 0.18331 -0.42287 -0.29569 -0.084807 0.43956 0.54695 -1.0231 
qok 0.10748 0.66291 0.057691 0.79796 0.82018 0.22766 0.55938 -0.16165 0.49662 -0.36495 
yteody 0.66488 0.73995 -0.61494 -0.084023 -1.0683 -1.1947 -0.63771 -0.37345 0.48694 0.091151 
dshor 0.8193 0.67288 -0.84206 0.18867 -0.23995 0.89061 0.53886 -0.42791 0.028845 -0.31627 
tchdy 0.051036 1.1328 -0.50483 0.27456 -0.94681 0.44042 0.42299 -0.14142 0.63963 0.038326 
aldy 0.54621 0.45587 0.1613 0.58673 0.50865 -0.66405 0.69717 -0.11595 -0.38902 -0.031938 
qopchy 0.33809 0.55387 -1.1081 -0.080962 -0.5684 0.82787 0.17311 0.59614 -0.08313 -0.33887 
ytey 0.37878 0.54086 -0.73705 0.48551 -0.54308 -0.24268 0.34267 -0.28107 -0.27801 -0.13874 
chokeey 0.54102 0.37819 -0.39926 0.86318 0.72718 0.082089 -0.081077 0.37792 0.40564 0.35357 
olkey -0.20755 0.695 -0.45021 -0.6142 0.45069 0.16807 -0.34742 -0.056578 0.71755 -1.6911 
qokechy 0.77551 0.16656 0.79103 0.27185 0.33656 0.41025 -0.63272 1.0505 0.88821 -0.37153 
choiin 1.2688 0.45659 -0.5691 -0.050083 0.50204 1.0868 0.054574 0.50775 -0.097468 0.11546 
shee 0.39631 -0.22216 0.14679 0.21217 0.033869 -0.74173 0.09208 0.51071 0.44788 -1.31 
cphol 0.87831 -0.021327 -1.0483 -0.29213 0.34769 -0.18968 0.43327 0.06999 0.38414 -0.49962 
lcheey -0.19725 0.78064 0.025967 -0.80539 -0.093692 0.034416 0.20416 1.1384 0.83506 -0.61147 
keeol 0.71657 0.067185 0.083773 0.2697 0.35657 -0.29967 0.27233 -0.0258 1.1318 -0.48366 
qotchol 1.1627 0.70118 -1.3689 -0.47196 0.060983 0.58602 -0.097413 -0.13124 -0.28208 -0.018974 
cthedy -0.71228 1.1475 0.01576 1.4409 0.088515 -0.56147 -0.070278 0.99602 0.74733 0.53496 
ytain 0.63607 0.26765 0.48157 0.46711 -0.68133 0.74409 0.44183 0.51593 0.15007 -0.84875 
qot 1.2257 -0.13807 -0.97177 -0.11062 0.21886 1.002 0.88692 1.0647 -0.084061 -0.42838 
shky -0.018818 0.93461 -0.15796 0.40705 0.067289 -0.11682 0.93015 -0.62508 0.40517 -0.36442 
oteeody -0.55676 0.80897 -0.10279 1.3404 -0.047603 -0.81628 0.099922 0.81052 -0.35731 0.05106 
chotchy 1.5469 0.8882 -1.0616 0.41286 -0.15899 1.5065 -0.40587 0.94136 0.18458 1.1254 
otedar 0.18021 1.0203 1.5577 0.85146 -0.48252 -0.73621 -0.083743 0.22826 0.38118 -0.20002 
olshey -0.21412 1.8931 0.67557 -0.52778 0.16564 0.92591 0.46888 -0.26025 1.1424 -0.55978 
chkeey 0.93583 0.016866 -0.15731 0.27411 0.17594 0.42067 0.47437 0.62628 0.57847 -0.057205 
oar 0.85012 0.30158 0.86986 0.24883 -0.29232 -0.85345 -0.20717 -0.53393 -0.056331 -1.2702 
cheeody 1.0115 0.076746 -0.099007 -0.023522 -0.82247 -0.70644 0.33653 1.4751 0.27825 0.70349 
chodar 0.2985 0.18324 -1.2375 0.081539 -0.60804 -0.14708 -0.49886 1.0096 0.050578 -0.2042 
chom 1.2387 0.70018 -1.0555 -0.70243 0.536 0.1022 -0.59358 0.026835 0.023574 0.33082 
ls -0.3668 1.0037 -0.43979 0.19424 0.074205 0.10482 0.22294 0.38725 0.21017 -0.031228 
sheeol -0.10727 0.61313 0.052829 0.09997 0.91111 0.021856 -0.67693 0.62552 1.1498 -0.66671 
ytol 1.1861 0.15865 -1.1058 -0.32132 0.034706 0.43193 0.045203 -0.064932 0.32889 -0.40706 
cthaiin 2.1918 0.3042 0.13368 -0.65579 0.56222 0.49803 0.96636 -0.0036104 -0.86621 -0.2948 
ram -0.27824 0.83111 -0.92319 -0.32316 0.021654 -0.12254 0.10056 0.39308 0.93875 -0.22005 
qodar 0.062602 0.26257 -0.69339 0.58576 0.42327 0.087319 -0.68502 0.19228 0.39899 -0.87371 
dcheey 0.38345 0.55456 -0.28105 0.3745 0.055112 -0.052596 -0.042768 0.94529 0.19039 0.65709 
m 0.1025 0.90513 0.40768 1.4019 0.18498 0.35343 0.29365 0.52826 -0.96473 -0.095956 
chckhdy -0.2415 0.73496 -0.24941 0.6722 -0.70879 0.88904 0.053866 0.4762 0.79168 -1.0054 
ykeeody -0.19745 0.47678 -1.0303 1.6169 0.2333 -1.1063 -0.34856 -0.12293 0.75262 -0.084701 
qotam 0.31249 0.14686 0.40179 0.41019 -0.43866 -0.027614 -0.7574 1.3787 0.098877 -0.66665 
okeal -0.03898 0.245 0.23152 0.67209 0.067174 -1.1756 0.91877 0.55593 0.25986 -0.41952 
oteor 0.12879 0.3632 0.21304 0.20754 0.15169 -0.6095 0.41447 0.25925 -0.22473 -0.73097 
yshey -0.081795 0.6581 -0.049396 0.059062 -0.29532 -0.46862 0.90447 0.79296 0.26101 0.038541 
tair -0.38349 0.90443 0.33167 -0.017751 -0.77689 -0.81648 -0.074616 0.45584 0.21547 -0.66983 
chty 0.42957 0.58086 -0.42696 -0.091227 0.22917 0.79856 -0.34158 0.55269 0.22091 -0.27178 
olkal 0.035725 0.62852 0.23501 0.32202 -0.26102 -0.5335 1.1532 -0.030438 0.78649 -0.46722 
cheodaiin 0.94804 0.2947 -0.6287 0.40538 -0.44455 -0.33712 -0.34668 0.24652 0.60187 0.54013 
okeeor 0.5065 0.16993 -0.070521 0.020232 1.24 -0.74106 -0.29016 1.1055 0.50756 0.076915 
oral 0.83674 0.70935 0.80614 0.20091 -0.30669 -0.12278 0.07818 -0.60904 0.87447 -0.32288 
sheos 0.70971 0.044413 -0.12454 0.19276 -0.75595 0.0056477 -0.62221 0.89415 0.36731 -0.4021 
shedain 0.47751 0.35397 1.1574 0.65508 -0.63383 0.24105 0.54361 1.0575 0.43989 -0.52014 
ypchedy 0.22702 0.40052 -0.0060372 1.887 -0.8464 0.22744 -0.037728 -0.44564 0.89739 -1.0711 
daim 0.68419 0.48988 -0.24441 0.24633 -0.43953 -0.24831 -1.1121 0.059534 0.832 -0.097708 
orol -0.21437 0.27005 -0.4548 -0.17802 0.54544 -0.21504 0.59814 0.30417 0.042005 -1.5843 
shdar -0.37042 0.70138 -1.0277 -0.4956 -0.87662 -0.32929 -0.45738 0.0024374 0.28428 -1.7208 
chkain 0.4171 1.0698 0.49027 -0.31277 -0.7943 0.28773 1.2591 0.607 0.041024 0.27103 
shocthy 1.07 0.58003 -0.42885 -0.47461 -0.63656 -0.13406 -0.01564 0.22376 -0.46995 0.31386 
cphy 0.94128 0.82773 -0.3837 0.48862 0.054925 0.69367 0.25057 -0.38561 -0.61826 0.078673 
opar -0.18583 1.5978 0.56571 0.41967 -0.51012 -0.30816 -0.43369 -1.2108 0.41254 -0.91913 
chkal 0.68249 0.48866 0.99726 -0.25135 -0.34936 -0.27185 0.68928 0.71039 -0.052441 -0.2566 
g 0.62213 0.87869 -0.69822 1.2299 -0.41031 0.54911 -0.318 -0.33789 -0.4792 0.20476 
ykain 0.11136 1.0187 0.5557 0.33999 -0.25231 0.65405 0.59888 -0.57484 0.17071 -1.2356 
otees 0.24061 0.87758 0.56375 1.3154 -0.51583 -0.6114 -0.70752 -0.25731 0.19527 -0.12421 
shedal -0.87485 0.91141 -0.40971 0.92554 -0.10343 -0.52956 1.1817 0.99139 0.92593 -0.19663 
keeody 0.80585 -0.39173 -0.082587 0.63642 -0.25269 -0.30993 -0.16675 0.98901 0.56797 -0.50775 
oees 1.3337 -0.026825 0.20755 0.61943 -1.0282 -0.05473 0.19625 -0.1734 -0.10817 -0.62714 
pchor 0.61255 1.1441 0.34842 -0.68542 -0.64272 1.432 -0.41726 0.89537 -0.26314 -0.31549 
ytam 0.50103 0.11965 -0.54521 0.78081 -1.3004 0.30253 0.89428 0.058428 0.069545 -1.1719 
qotchor 1.4137 0.87619 -1.1562 -0.042994 0.79367 1.1241 0.065464 -0.46156 -0.5627 -0.21245 
chekal -0.52728 0.31873 -0.33074 0.50545 -0.19398 -0.63762 0.075593 0.89209 -0.20019 -1.1127 
chan 1.5881 0.7548 0.82927 -1.2804 1.2719 1.0116 0.28305 0.65607 -0.42749 -0.42579 
ockhy 0.63344 0.89251 -0.27037 0.50425 -0.61066 -0.59627 0.16926 -0.45349 0.03109 0.58412 
arody 0.55512 0.49899 0.44847 -0.75586 -0.85464 -0.039669 -0.4479 0.62694 0.5121 -0.85807 
a -0.33582 1.3283 0.3266 0.81433 0.0088159 -0.40976 -0.34601 0.39903 -0.76547 0.10129 
sam 0.42426 0.97181 0.028709 -0.65428 -0.12343 -0.51478 -0.15449 0.14116 0.31467 0.3069 
olain -0.38715 0.69505 -0.075983 -0.20726 -0.0071075 -0.08829 1.0995 1.0507 0.78772 -0.64192 
aram -0.5371 0.97394 -0.46516 0.7192 -0.24389 -0.43794 -0.19042 -0.18021 -0.41769 -0.74054 
ly -0.37428 0.66359 -0.45254 0.22831 1.116 0.58398 0.9878 0.60828 0.43024 -0.95498 
kair 0.52304 0.43359 0.43272 -0.38934 -0.70786 -0.0061153 1.3712 0.26212 -0.14293 -1.0329 
okary 0.3592 1.0594 0.63647 -0.51984 -0.35997 -0.26649 -0.35078 -0.66384 -0.22586 -1.1933 
qoteol 0.27426 0.53756 -0.10167 -0.70198 0.3456 -0.525 -0.79467 -0.1292 1.2335 -1.1842 
doiin 1.1045 0.12962 -0.97047 -0.37144 0.96847 0.35135 -0.087152 0.15326 0.10931 -0.56883 
ykal -0.10506 0.63933 -0.63699 -0.17517 -0.54746 -0.67981 0.94808 -0.20929 -0.24331 -0.94019 
chokain 0.82495 0.56303 0.74098 -0.1296 -0.19915 0.31388 0.16579 0.21763 0.011448 -0.29522 
qoteody 0.17243 0.12782 -0.11409 0.25671 -0.49207 -0.14244 -0.87015 1.1707 0.86261 -0.77849 
checkhey 0.30697 0.84286 0.7391 0.87872 0.82481 -0.0065867 -0.028281 0.066645 1.4304 0.13737 
chory 1.6966 0.58676 -0.8353 -1.0176 0.76854 0.64105 0.69817 0.17994 0.023759 0.22644 
pchedar -0.50187 1.1477 0.17885 0.40976 -0.6718 0.055245 -0.1929 0.17051 0.57247 -0.63397 
alam 0.23709 0.39918 0.25902 0.31821 0.77291 -1.2847 1.7151 0.82188 -0.20743 0.043056 
olkam 0.29666 0.71935 -0.14754 -0.52348 -1.0946 -0.03549 0.70403 0.52083 0.77586 -0.18448 
qolchey -0.89571 1.2792 0.36502 0.21311 0.72949 0.54926 0.89349 0.82625 0.68814 -1.2613 
chotar 0.77155 0.10584 -0.076139 -0.71275 -0.42874 -0.94903 0.021973 0.03195 0.25359 -0.96978 
chkar -0.54882 1.5052 -0.54939 -0.17037 0.018402 0.50835 -0.042657 0.24536 -0.49959 -0.25853 
ytchey 0.8608 0.82286 -0.034777 -0.72512 -0.7272 -0.036255 -0.4054 0.19549 -0.36076 0.0095135 
shckhey -0.024433 0.81838 0.70746 -0.62792 0.5859 -0.117 0.31479 0.90567 0.26322 -0.55539 
qokshedy -0.37627 0.90513 -0.29727 0.10356 0.30643 0.79294 1.1192 1.0768 0.71219 -0.41591 
tain -0.40899 1.4032 -0.17649 -1.1835 0.49297 -0.1235 0.78502 0.65848 -0.2169 -0.34858 
olkeeey 0.081262 0.48362 0.68325 -0.23695 0.45213 -0.24957 0.25965 0.84127 0.43023 -0.72144 
ycheo 0.61229 0.53575 0.3179 0.38469 -0.81711 -0.54423 -0.010246 0.54769 0.60338 0.45068 
teody 0.14312 0.4206 -0.1274 -0.25361 0.71755 -1.079 -0.74066 0.64226 0.49302 -0.44371 
ycheol 0.64558 -0.16556 -0.22835 0.17029 0.42023 -0.070088 0.72744 1.2369 0.78251 -0.12814 
chckhedy -0.30557 0.72036 0.87794 1.1528 1.0671 -0.11603 0.51586 0.25599 1.0416 -0.99984 
dshey 0.013188 0.5208 -0.34438 0.71408 0.87418 0.64565 -0.71266 0.59782 0.83646 -0.47938 
oain 0.58526 0.99156 0.39356 -0.70564 0.34856 -0.092869 -0.29481 -0.06679 0.69725 0.034443 
okshy 0.43838 0.80896 -0.43637 0.71876 -0.25964 1.4933 0.00042419 -0.23091 -0.55655 -1.1251 
qolchedy -0.84075 1.4125 0.0017655 0.13086 1.0475 0.15394 1.5385 1.1355 0.81275 -0.25245 
otoldy 0.91679 0.55306 -0.60748 0.015969 -0.34645 0.55096 -0.33176 -0.94271 1.0014 -0.83981 
pcheol 0.69234 0.46252 -0.51311 -0.13409 0.39453 0.21145 1.1523 0.34461 1.8901 0.27301 
olcheey 0.5914 1.0512 0.41047 -0.38505 -0.25413 0.11143 0.32046 -0.033652 1.2655 0.30493 
shek -0.46948 0.9735 0.46834 -0.61148 0.38927 0.49324 0.14562 0.7865 -0.39781 -1.7625 
oram 0.36044 0.33685 -0.0098072 -0.25703 -0.28859 -0.5576 -0.88465 0.36185 0.72174 -0.77167 
ychedy -0.48643 1.083 -0.24744 0.01125 -0.93182 0.3303 0.024253 0.59413 0.96856 -0.65434 
okeos 0.26426 0.55601 0.64468 1.1057 0.16181 -1.1324 -0.53293 -0.2853 0.033762 -0.70191 
shod 0.35634 0.5511 -0.48722 -0.66474 -0.84601 -0.18425 -0.61973 0.81879 0.16036 -0.29486 
choldy 0.68027 0.85303 -1.0572 -0.0030678 0.38071 -0.088038 -0.4277 -0.63184 0.29003 0.21939 
sheod 0.87075 -0.13815 0.008846 0.88781 -0.254 0.43359 -0.13908 0.61664 1.2512 -0.42966 
ytchor 0.9795 0.70263 -0.89855 0.22251 0.58959 1.2393 0.23982 -0.59946 0.0081442 -0.6258 
ctheol 1.1336 0.27969 -0.68782 -0.040361 1.7653 -0.003035 -0.78215 0.029969 1.5305 -0.29299 
sary 0.90608 0.88487 -0.56137 0.55373 0.043691 -0.43722 0.69432 -0.85502 -0.20679 0.54276 
x 0.82592 2.7185 2.1012 1.9147 2.0564 -0.22794 0.51673 0.88603 -1.8899 0.6622 
shos 0.90387 -0.1656 -0.16975 -0.46071 -0.31477 -0.20488 -0.13995 0.7035 -0.68777 -1.2332 
rchedy -0.37749 1.3832 0.4292 0.66122 0.48902 0.38983 0.092259 1.4104 1.0193 0.68012 
chekaiin 0.66947 0.5403 0.92637 0.78346 0.11156 -0.087079 -0.023339 -0.66087 -0.12708 -1.1301 
pchdy -0.023075 0.64082 -0.64203 -0.46672 -0.62366 0.034215 1.3105 0.55862 0.29389 -0.56404 
qokaldy -0.20915 0.11637 -0.73892 0.92098 -0.34802 -0.80483 1.5479 0.67649 -0.067773 -0.78942 
arol -0.19713 1.1993 0.41124 -0.47448 -0.091245 -0.59191 0.27158 -0.15393 0.41718 -0.48523 
f 0.99871 1.7379 0.74501 1.3968 0.72693 -0.30245 0.62588 0.77586 -1.7206 1.1439 
ckheey 0.96046 -0.17667 -0.30433 0.25858 0.67085 -0.9204 0.083712 0.85942 0.21872 0.19736 
oteeo -0.041625 0.92314 -0.14112 -0.77442 -0.56138 -0.79822 -0.87639 0.56423 0.21279 -0.41149 
sheeo -0.23392 0.7112 -0.060815 0.62726 -0.18025 -0.88242 -0.74415 1.3152 0.37748 0.36324 
ychol 1.6221 0.047034 -0.70801 0.042486 0.14384 -0.15345 0.97842 -0.33112 0.67079 0.21252 
olchdy -0.43338 0.74593 -0.44846 0.10327 -0.6938 -0.055695 1.0798 -0.26226 0.6772 -1.6763 
olchy -0.2858 0.94135 -0.92915 0.8623 0.048435 0.11295 1.0872 0.19859 0.71755 0.34019 
lr -0.18681 1.2801 0.98435 0.13976 0.3061 0.24183 0.045994 0.59707 0.61603 -0.12331 
ykeeol -0.050246 0.10513 -0.89286 0.11809 0.66055 -1.1822 -0.10382 0.95165 0.32175 -0.37697 
qokcho 1.3563 0.61399 -0.45727 0.73566 0.3515 1.1038 -0.64102 -0.13702 1.5462 0.41233 
qoor 1.0878 -0.11673 -0.51006 -0.26422 0.69137 -0.41686 -0.69727 -0.55478 1.038 -1.6831 
as -0.42187 1.1117 -0.58762 -0.18854 0.020278 -0.050482 -0.066908 0.71096 0.93395 0.17356 
okaldy -0.17471 0.069301 -0.77783 1.2009 -0.65645 -0.74804 -0.16233 0.50328 -0.26953 -1.1503 
qodain 0.83147 0.4373 0.58696 0.37645 -0.90193 1.0587 -0.10963 1.1578 1.188 -0.25399 
otshedy -0.096015 0.94634 1.2779 0.29858 -0.32401 -0.84803 0.73584 0.0047947 0.02478 -0.91264 
araiin -0.40055 0.54305 0.60995 0.59899 -0.52061 -0.2451 0.14604 1.1843 0.04653 -0.92782 
qotody 0.77839 0.039177 -0.5352 0.038985 -0.9807 0.0067492 -0.35225 0.58504 1.0925 -0.36406 
chekar -0.398 0.91379 0.31963 0.17624 -0.6106 -0.30633 -0.074729 -0.137 0.25688 -1.3701 
keeey 0.55138 1.1084 0.99888 -0.56173 0.59841 0.066981 -0.80889 1.097 1.0059 0.39624 
tody 0.166 0.11086 -0.88497 0.15813 -0.24301 0.067424 -0.63882 0.91038 -0.15187 -0.83771 
tshedy 0.17027 0.97548 0.78012 0.22244 -0.28211 1.6012 0.41326 0.50137 1.0585 -1.1691 
qokeo 0.56669 0.74297 -0.34015 0.10377 -0.12096 -0.84004 0.19231 -0.40569 1.8156 0.39394 
ytchedy -0.39115 0.41613 -0.78086 0.37997 -0.66773 0.33154 -0.018001 1.3358 0.18908 -0.87627 
okedal -0.031095 1.582 1.5126 1.0089 -0.36477 -0.63618 -0.049845 -0.9277 0.52243 -0.58618 
ochedy -0.20706 1.2654 0.85222 0.67079 -0.91273 0.29881 -0.69282 0.17079 -0.032673 -0.81626 
chdam 0.30707 0.35945 0.18555 0.41787 -0.69833 0.11094 0.52712 -0.25186 1.5264 -1.4 
keeo 1.0656 0.3439 -0.054266 0.68819 -0.43475 -0.60764 0.34355 0.88839 0.28624 1.2004 
chcphy 0.71345 0.76149 0.13616 -1.2887 -0.32278 0.40847 -0.55317 0.64361 -0.16692 -0.62662 
oldaiin 1.0442 -0.28232 -0.83412 0.32179 0.095332 0.35273 -0.35714 -0.2683 1.4561 -1.4969 
qopchey -0.33032 0.87549 -0.34331 -0.077731 -0.1485 -0.27664 0.00034896 1.085 0.42152 0.30447 
cheockhy 1.1028 -0.30822 -0.048723 0.24233 0.30013 -0.59898 0.51605 0.29996 1.0065 -0.33766 
cphey 1.1862 0.19408 0.14649 1.3245 -0.20266 0.51297 0.22695 -0.54825 -0.014353 -0.45023 
chotaiin 0.59064 0.98534 -0.50132 -0.37338 -0.26669 0.45471 -1.2334 -0.098262 -0.084135 -0.31682 
opal 0.3906 0.83278 0.76626 0.53624 -0.49551 -1.1593 0.67629 -0.95823 0.23194 -0.75372 
oto 0.36668 0.55765 -0.03582 0.31346 -0.56733 -1.2112 -0.11955 -0.28409 -0.70783 -0.73752 
ry 0.67048 -0.048225 0.21488 -0.0037217 0.12559 0.87107 0.91883 1.5339 0.24089 -0.76645 
octhy 0.98025 -0.43222 -0.22049 0.2528 -1.0386 -0.13926 0.64503 0.95965 0.31983 -0.77486 
dals 0.597 0.09057 -0.20065 0.74029 -0.36098 -0.14897 -0.81568 0.53069 -0.69134 -0.82978 
oteeey 0.58732 0.14432 1.8039 1.0128 0.10973 -0.30379 -0.13078 1.3752 -0.14813 -0.80513 
oteeol 0.51642 0.6598 0.41544 -0.54632 0.0041327 -0.95917 -1.5387 0.93766 0.20127 -0.32986 
cheom 1.0824 0.32021 0.22082 -0.57501 0.047346 -0.53659 -0.5602 -0.11855 1.2989 -0.47932 
chod 0.87331 0.13119 -1.1196 -0.35053 -0.64515 -0.41701 -0.5479 0.28759 -0.066605 -0.39644 
qokchor 0.95281 0.56993 -2.2997 0.10897 0.41471 0.7636 0.65758 -0.20249 0.20159 -0.13556 
ytody 0.56034 0.21637 -0.69646 0.33393 -0.24295 0.17056 -0.69675 -0.032019 -0.30765 -1.0974 
kam 0.39995 0.43062 -0.39044 0.81527 -0.63487 0.036679 0.71394 0.13773 0.22949 0.05259 
dsheol 0.14238 0.15861 -0.78463 0.90131 0.39012 -0.11103 1.1285 0.12839 1.0694 -0.41832 
tchody 1.1428 0.24371 -0.56567 0.12296 -0.39842 1.1131 -0.36159 0.45111 -0.11321 -0.51212 
ckhor 2.0478 0.15153 -0.38521 -1.1583 -0.052683 -0.10314 -0.10769 0.3217 0.030418 0.0723 
fchedy 0.76863 0.73139 0.64727 0.31376 -1.1329 0.44704 1.127 -0.080804 1.139 -0.20891 
choy 1.0801 -0.10931 -0.69855 0.36334 1.234 0.40029 -0.83751 0.49902 0.32649 -0.6901 
ch -0.23184 1.2825 0.42971 0.40046 0.75366 -0.20451 0.17132 0.11758 -0.60763 -0.053043 
dchdy -0.27879 1.0603 -0.43634 1.2538 -0.16961 0.40806 0.4512 -0.5729 1.4332 -0.49233 
daram -0.13132 1.4743 0.23672 0.22882 -0.25011 -0.1999 -0.71111 -0.1188 -0.11605 0.18338 
ykchdy -0.03337 0.6643 -1.3239 0.4678 -0.49664 -0.067827 -0.41704 -0.26933 0.41821 -0.4965 
keo 0.5487 0.15211 -0.0053057 1.157 0.12021 -1.3519 -0.176 0.5075 0.48256 0.35817 
shety -0.18039 1.3926 0.018507 -0.88155 0.24654 -0.2975 0.61478 -0.35934 0.0088158 -0.54771 
todaiin 0.42642 0.36602 -0.40669 1.0951 -0.41449 0.60525 -0.70058 0.30683 -0.41159 -0.66439 
lchy -0.87762 1.0139 -0.49108 0.38518 0.80003 0.19452 1.2825 0.62831 0.28004 -0.92483 
chdor 0.33115 0.89024 -0.81914 0.22902 -1.3772 0.37352 0.67381 0.26358 1.5133 0.24728 
shees 0.59379 0.98491 -0.70865 -0.4674 0.1003 -0.56191 0.39188 -0.24393 -0.23093 0.58471 
odor 0.96816 -0.65742 -1.0412 0.75038 -0.42776 -0.023569 0.22172 0.39346 0.34158 -1.2282 
chdain -0.063518 1.6753 0.073781 -0.61172 -0.77892 0.72183 -0.12425 0.024334 0.64667 -0.087 
qokeeol 0.45477 -0.10956 0.39128 1.1161 0.72371 -1.2278 0.54304 0.57221 0.6854 -0.34733 
okear 0.11191 0.95369 0.0052587 0.27204 -0.27383 -0.91006 0.71798 0.2288 -0.4728 0.51872 
shain 0.42665 0.69834 -0.76853 -1.1751 0.63265 0.056764 1.0441 0.36939 0.018658 -0.28102 
shd -0.23721 1.0932 -0.20565 0.20634 -0.45912 0.44403 0.82176 0.12341 -1.1103 -0.83898 
lar -0.29276 0.91738 -0.037749 -0.91599 0.61828 -0.36927 0.60324 1.4995 0.3011 -0.13763 
cheeey 0.82931 0.56553 0.33803 -0.45289 -0.53169 -0.10134 -0.49651 1.0662 0.63503 0.44222 
cheoky 0.037588 0.94886 -1.1181 -0.69562 0.69361 -0.12073 -0.86297 -0.50152 1.289 -0.90794 
qokl -0.71293 1.1178 -0.5054 -0.94837 0.68 -0.18936 1.2924 1.0323 0.56076 -0.79013 
qoar -0.15339 0.41397 -0.51766 -0.18003 0.5779 -0.88173 0.7941 0.44153 0.29766 -0.55394 
lcheedy -0.45258 0.43284 -0.15383 0.26715 -0.40895 -1.0257 0.31088 1.6108 1.2966 -0.34351 
yk 1.4031 0.075491 1 -0.23941 0.17756 0.67475 -0.27796 -0.26103 0.22881 -1.7947 
ockhey 0.43983 0.14377 -0.74348 0.34127 -0.4954 -1.2428 0.042985 0.46832 1.0746 0.191 
qotcho 1.1197 0.98274 -0.80231 -0.88314 -0.10613 0.64747 -0.21191 1.4804 -0.39859 1.1089 
eees 0.75456 0.95709 1.443 -0.49638 0.3593 -0.019655 -0.038545 0.30837 0.18354 -0.1727 
alor 0.254 0.20442 -0.41951 0.207 -0.45964 -0.097331 0.29897 0.057902 0.13917 -1.0119 
okshey 0.49276 0.47165 -0.34441 -1.211 0.048962 -0.67162 0.989 0.32433 0.98294 -0.38374 
arar -0.37655 1.3251 0.12521 0.20548 -1.2373 -1.0072 -0.10704 -0.61232 -0.29852 -1.1101 
chckhhy 0.55962 0.27839 0.48023 0.066658 -0.19651 0.16157 0.12292 0.70464 -0.1413 -0.50449 
cheeol 0.67392 0.19925 0.41665 1.2764 0.24202 -0.044116 0.36326 -0.23111 1.6643 -0.39264 
qofchedy -0.27214 -0.07174 -0.54877 0.72323 0.33096 0.088912 1.006 1.1468 0.88444 -1.3777 
tshey -0.19806 0.55772 -0.29354 0.1324 0.40492 -0.13282 -0.042335 1.4761 -0.2547 -0.00837 
chotol 0.67709 0.7109 -0.66378 0.10761 -0.029116 -0.16111 -1.4204 0.74928 -0.95751 0.099754 
shedar -0.37677 0.52255 -0.97672 0.21082 -0.46537 0.070886 -0.14601 0.015487 1.7665 -1.6382 
ycheeo -0.17534 0.89202 -0.35544 -0.8788 0.59519 -0.50518 -0.7679 0.95288 0.11432 -0.30771 
otaldy 0.34527 0.40963 -0.34522 -0.21931 -0.446 -0.80033 0.25034 -0.33486 0.10326 -0.84936 
lkchey 0.70536 0.64203 0.28538 -0.74744 -0.71163 0.264 0.45643 1.5236 0.75292 0.38165 
qod 0.79951 0.74092 -0.5608 -0.036073 -1.4432 0.86211 0.73231 0.61512 -0.11172 0.21006 
dsho 1.5062 0.76267 -0.56309 0.76174 -0.44083 0.80079 -0.65638 0.25816 -0.45488 0.78088 
lcheol 0.31744 1.1336 1.4096 0.48221 0.25763 0.06557 0.80289 -0.27622 1.3664 -0.39087 
orar 0.56939 0.23192 -1.237 -0.90649 -0.65718 -1.2903 0.64951 -0.061323 0.76696 -0.6549 
opy 0.058051 1.9005 -0.8879 -0.32439 -1.0371 0.25961 0.42553 -1.03 -0.0011888 0.14057 
okchody 1.5131 0.42919 -0.32762 0.50114 -0.044797 -0.57382 -0.37418 -1.223 -0.31791 -0.46995 
tcho 1.235 0.5577 -0.35485 0.23805 0.13206 0.91804 -0.82373 0.84577 -0.056009 0.41792 
ykey 0.62573 0.053925 -0.21704 0.94501 0.76952 -0.94204 0.99821 -0.14317 -0.53522 -0.63467 
oeees 1.4298 0.22044 -0.047691 0.45209 -0.79201 -0.11025 0.91663 0.32065 -0.86933 0.25477 
choteey 0.14101 1.0195 0.24217 0.29038 0.10157 -1.2503 -0.46232 0.45 -0.20627 0.57799 
ksho 2.0049 -0.038315 -0.36391 -0.12563 0.98508 1.5934 -0.29981 1.1266 0.25683 -0.39309 
chotal -0.036018 0.38043 -0.39197 0.10345 -1.3184 -1.0406 0.15477 0.88205 -0.78742 -0.94173 
qolkeedy -0.11265 1.3144 0.17342 -0.11381 0.15326 1.0187 1.4552 0.50705 1.4027 -0.35267 
oror -0.30078 1.0071 0.16227 0.59513 -0.19175 -0.49504 0.70142 -0.79764 1.0168 -0.95887 
shoky 0.52427 0.55664 -0.24996 0.50827 0.13574 -0.090397 0.22175 -0.4268 -0.16767 -0.20541 
ytchdy 0.96026 -0.30237 -0.49182 0.89777 -0.69891 1.2572 0.2786 0.52204 0.29607 -1.6057 
eeedy -0.60813 0.87603 1.0041 1.2114 0.37085 -0.78798 -0.57995 0.47492 0.64877 -1.0726 
ysheey -0.13311 0.51276 -0.23065 -0.45219 0.60669 0.11018 -0.6626 1.2972 0.15825 -0.79353 
yteeody -0.12414 1.0066 0.11654 0.42733 -0.96727 -0.36176 -0.98241 0.51824 -0.013639 -0.21754 
shokchy 0.4953 0.93372 -0.67647 -0.69961 -0.86744 -0.1297 -1.1244 0.53338 -0.37701 -0.012431 
choaiin 0.50369 0.35481 0.059324 0.54939 -0.65243 0.55884 -1.3358 0.74574 0.15966 -0.75453 
chodain 0.61356 0.72565 0.32427 0.11395 -0.68123 0.63144 -0.28116 1.0352 -0.43436 0.16384 
qocthy 0.45806 -0.022592 -1.1174 0.4868 0.019686 0.033315 -0.23104 0.37926 -0.31366 -0.90933 
chepy -0.79294 0.37619 -1.2428 -0.12357 -0.060216 -1.0692 0.25105 1.1203 0.5374 -1.0727 
qokody 0.87524 -0.42301 -0.26545 0.33136 0.44889 -0.53816 0.79579 0.15144 1.0965 -0.9226 
oeedy -0.22712 0.86477 -0.0044678 -0.47931 -1.2141 -1.047 0.0371 0.12915 0.37369 -1.1397 
qokshey 0.53458 0.22522 0.1761 0.33457 -0.86919 0.4728 0.72617 0.2845 0.91932 -0.90172 
qokees 0.35984 0.17904 0.97439 1.202 0.071931 0.37772 0.42604 0.52319 0.26554 -1.1722 
soraiin 0.68042 0.090143 0.37017 -0.13577 -0.08342 0.29091 -0.74924 1.007 0.61511 -0.81124 
qokan -0.49969 1.3251 0.81496 -0.52749 0.8119 0.69804 0.5296 0.43825 -0.18172 -1.7453 
otshey -0.30383 1.6364 -0.48893 -0.95028 -0.70881 -0.15728 0.84456 -0.81608 0.56343 -0.87888 
sheety -0.96779 1.437 0.48061 1.4771 0.69615 0.083014 0.24938 0.016322 1.159 -0.87629 
okoldy -0.15435 1.1907 -1.2378 0.5439 0.26842 -0.098262 0.065667 -0.93818 1.0611 -0.08924 
qokeeor 1.2159 0.60922 -0.10373 -0.69929 -0.23738 -0.65061 -0.13686 0.036029 1.6414 0.59843 
aim 0.47651 0.32094 -0.424 -0.66968 -0.71522 -0.65703 -0.92901 0.321 0.58367 -1.0177 
chekain -0.16858 0.52768 0.33476 -0.24113 0.66291 0.40822 0.27514 0.94455 -0.08278 -1.3166 
okcho 1.0468 -0.22821 0.0064392 0.66498 -0.48266 0.70768 -0.12998 1.5881 -0.30845 -0.36405 
sheaiin 1.3065 0.7012 0.21991 -1.0349 1.0584 1.1076 -0.56233 0.5231 -0.35622 -0.70395 
qokshy -0.22271 1.4474 -1.1832 0.032992 -0.42239 0.21528 0.14746 -0.58855 1.055 0.11938 
ro 0.98028 0.53061 0.039112 -1.0764 -0.69045 0.16854 0.37569 0.90334 1.1877 0.16625 
rchey -0.70747 1.3107 -0.39452 -0.24899 0.69384 0.3053 0.76461 0.92101 0.38082 -0.20869 
dshy 1.2555 0.5415 -0.76711 0.90967 -0.092559 1.4915 0.069851 0.1909 -1.0763 -0.4443 
qoy 0.0036191 0.86644 -0.54995 0.41319 1.0184 0.68005 -0.47581 -0.47467 0.14348 -1.0916 
alaiin 0.94145 0.3244 0.26162 0.44685 -0.18916 -1.0202 0.59612 -0.67511 -0.35199 -0.5018 
da 0.4387 1.3033 -0.21898 0.61325 0.60346 0.35827 0.025799 -0.80961 0.24735 0.48673 
chkey 1.1003 0.52854 0.49304 1.3984 0.4229 -0.34331 -0.086949 -0.83018 0.72929 0.20365 
polaiin 0.32913 0.42277 0.25481 -0.17375 -0.86569 0.27335 0.3947 0.58094 0.6352 -0.87622 
cheodain 0.6724 -0.012522 0.28884 -0.85392 0.35711 -0.7419 0.84415 0.85963 1.0111 -0.83308 
qokedar -0.78889 0.66087 -0.20554 1.1541 -0.38727 0.30651 0.97917 1.1733 0.649 -1.0452 
chotey 0.4617 0.7268 -0.46965 0.21567 0.20301 -0.69591 -1.582 0.44231 -0.22738 0.1035 
kcho 1.9488 0.76758 -0.070121 0.089003 -0.19906 0.61433 -0.97829 -0.03286 0.62409 0.88598 
od 0.93325 0.37262 -0.99018 -0.80502 0.41662 -0.45827 0.82218 0.81425 -0.10741 0.51068 
pchey -0.2979 0.80537 -0.41208 0.091124 0.22469 0.85567 0.90768 1.1634 0.24083 -0.38814 
oin 0.86206 0.95453 0.9388 -1.1584 -0.0017395 -0.16578 0.14461 0.14074 0.99181 -0.10653 
qockhol 1.034 -0.24839 -1.03 0.22996 0.65449 -0.37286 0.70661 0.28757 1.1574 -0.14516 
por 0.3923 0.22156 0.30238 0.1782 0.98511 -0.58107 0.17454 -0.3197 0.92436 -1.1506 
ochey -0.14368 0.85299 0.86346 0.25755 1.1754 -0.40016 -0.94589 0.69638 0.042631 -0.73224 
alol 0.33139 0.47326 0.09035 -0.023718 -0.82912 -0.04541 0.29662 -0.37488 0.54044 -1.3534 
ykair 0.27673 0.57746 0.1846 0.29098 -0.54195 0.14557 -0.96196 -0.11409 -0.74666 -1.8521 
cphedy 0.13015 0.066279 -0.50685 -0.10716 -0.10509 0.026909 0.61383 1.3876 0.66614 -0.50957 
cthal 0.81019 1.303 -0.047849 -0.14549 -0.072583 0.8681 1.1786 -0.20011 -0.38593 0.46833 
oteodaiin 0.5458 0.5098 0.12019 1.3145 -0.59643 -0.92036 -0.66586 0.32302 0.46671 0.50622 
ycheor 1.2421 0.025475 -0.76383 -0.45958 1.2027 -0.077639 -0.076392 -0.47776 -0.11758 -1.3344 
ykchedy -0.76118 1.1797 -0.63671 -0.53651 -0.59688 -0.37511 0.36558 0.37699 -0.098982 -0.87827 
oteed 0.094113 0.90103 0.52458 -0.28206 -0.22562 -0.34605 0.23757 0.71171 0.28203 0.065481 
dsheey 0.22264 0.81776 0.16142 0.40438 0.61541 0.38235 0.58875 0.84288 0.58436 0.55228 
chr 0.78827 1.272 0.11722 -0.56338 0.7007 0.0050214 -0.11748 0.26135 0.65789 1.1359 
okeeedy 0.39607 0.34562 1.7667 0.87439 -0.34405 -0.13183 -0.338 0.90063 0.57848 -1.1156 
e 1.0001 0.57323 -0.43906 0.40197 0.89208 -0.19112 0.48919 0.30684 -0.44171 0.81791 
koldy 0.93731 0.056848 0.19427 1.5097 0.97466 1.1972 0.71256 0.32321 0.49256 -0.56747 
dcheol 0.28996 0.28281 -0.46235 0.64812 0.16293 0.11156 1.0404 1.4255 1.4593 0.50904 
okoiin 1.4486 0.88472 -0.41375 -0.54546 0.58302 -0.12465 0.43962 -0.85907 0.55752 0.49267 
p 0.82862 1.9786 1.5908 1.4252 0.70245 1.8927 -1.1707 0.9168 -0.56124 0.40914 
chokal 0.11198 0.87678 -0.77053 0.33313 -0.55494 -0.83524 0.18806 -0.11936 -0.2179 0.31241 
alal 0.069301 0.35939 -0.060182 0.084203 -0.22939 -1.5097 0.81389 0.60635 -0.42201 -0.41173 
cheodal 1.0979 0.24676 -0.47516 0.21903 -1.0617 -0.6398 0.067167 0.20415 1.0344 0.55443 
chokey 0.79415 0.23696 -1.0698 0.53361 -0.028625 -1.026 0.5761 0.11749 0.49471 0.64899 
olcheol 1.4168 -0.63298 0.065481 0.29556 0.37336 0.063258 0.40882 0.35372 1.1987 -1.1026 
kody 0.38668 0.078393 -0.19095 -0.14841 -0.47714 0.082239 -0.83572 0.54406 0.5548 -1.4741 
oteodar 0.12916 0.98173 0.011595 0.064159 -0.18838 -1.6619 -0.99549 -0.24389 0.45873 -0.17276 
sholdy 0.18051 0.4487 -1.2397 0.29343 0.71274 0.2707 0.99126 0.68123 1.3239 0.2101 
polchedy -0.97541 0.86199 -1.0603 0.42506 0.25126 -0.086711 0.44374 0.38116 1.5415 -1.1466 
schedy -0.62772 1.1916 -0.29416 0.4618 0.064902 0.80214 1.6128 1.3125 0.22592 -0.17039 
chcthey -0.24264 0.82032 -0.4851 1.0947 0.64965 0.45107 0.33743 1.6464 0.30849 0.68805 
sshey -0.22962 0.99816 -0.85483 0.18684 0.71273 0.032237 1.3492 1.1232 0.36562 0.73534 
okedar -0.54577 1.5547 0.695 0.38918 -0.12195 0.35767 -0.46283 -0.79824 1.1236 -1.8324 
chekey -0.181 0.10319 0.027092 1.5414 0.25276 -0.76307 0.302 0.83981 -0.029765 -0.61932 
lkeeey 0.81243 0.89171 1.4879 -0.96552 0.64668 -0.43977 0.62611 1.3101 0.88256 0.23549 
otoly -0.40333 0.85975 -0.54419 1.7179 0.39802 0.38326 -0.65311 -0.26526 -0.27398 -1.0304 
oldar 0.14232 0.14561 -0.75837 0.6973 -0.49887 -0.1186 0.76032 0.1003 -0.27476 -1.0276 
ockhedy 0.2805 1.0856 1.1169 0.55069 -1.6511 -0.27456 0.22381 0.7579 0.017964 0.095034 
chcthdy -0.71146 1.2481 -0.75128 0.51126 -0.99445 0.40182 0.44559 0.063565 0.62721 -0.78704 
chcthedy -1.1119 1.2637 0.15975 0.53694 0.24635 -0.49779 -0.78431 0.32376 0.43643 -1.3072 
chetey -0.82379 1.4834 -0.15412 1.1467 -0.93984 -1.176 0.18911 -0.24986 0.0132 -0.11584 
cheam 0.050139 1.7124 -0.14993 -0.63038 0.3786 -0.5399 0.85222 0.19072 0.37462 1.1366 
keor 1.0187 0.30092 -0.77274 -0.010765 0.62024 -0.50416 -0.35444 0.054372 -0.66814 -0.1599 
dalam -0.1726 1.0278 -0.60409 0.076429 -0.29588 -0.7731 1.6939 -0.65781 -0.25008 -0.73743 
olkeol 0.29929 0.20635 -0.8086 0.10449 0.67755 -0.83251 1.2342 -0.6146 1.4713 -1.068 
cfhy 1.3543 0.4159 -0.28859 -0.34077 0.089014 1.207 0.097067 -0.58068 -0.38535 -1.5533 
paiin 1.0568 -0.0059481 -0.064346 -0.038154 -0.51993 -0.13926 2.1346 0.70548 0.19975 -0.16707 
v 0.3425 2.6113 1.5264 2.2506 0.27938 0.26542 -0.28474 0.57191 -1.1765 0.95672 
chodal -0.15693 0.55395 -0.53938 0.6723 -0.72227 -0.34198 -0.41774 0.42226 -0.62504 -0.74017 
qokod 0.24551 -0.138 -1.4276 0.11243 0.10993 0.014856 -0.52798 0.92052 -0.17915 -1.2803 
otcho 1.5651 0.034174 -1.1429 0.68851 -0.18032 1.0561 0.46075 -0.031647 -0.68726 -0.80346 
qodal 1.0183 -0.23895 -1.2114 0.68679 -1.3678 0.49222 -1.1777 0.81333 0.436 -1.2224 
ykaly -0.22391 0.67263 -0.7402 0.53963 0.28165 -0.99372 1.0193 -0.12147 -1.6712 -1.3527 
dalol -0.29071 0.19116 -0.87252 -0.45346 -0.35016 -1.0291 0.16388 0.86817 0.80504 -1.1748 
ofar -0.46275 0.81002 -1.1756 -0.092515 -0.13172 -0.24706 -0.45137 -0.23533 -0.0035954 -1.3803 
dom 1.8863 0.49499 -1.2594 -0.62413 -0.13734 0.8135 0.4045 -0.33153 -0.16703 -0.27304 
okeeos 0.96316 -0.12364 0.83491 0.48333 0.67983 -1.2781 -0.6632 1.0092 -0.74392 -0.94548 
cheeos 0.19641 -0.16182 0.047212 -0.37385 -0.44496 -1.3766 -0.30289 2.2544 -0.34239 -1.1741 
okcheey 1.2905 -0.32206 0.85958 -0.36703 0.13378 -0.3806 0.38832 1.8194 0.21444 -0.26501 
cthdy 0.093681 0.061517 0.83569 1.7805 -0.051083 0.44797 1.1912 1.1424 0.46592 -1.2557 
dody 0.50824 0.5714 0.10186 0.77947 -0.53467 0.82215 -1.2432 0.24378 0.75363 -0.67027 
otodar -0.0052476 1.9443 0.69912 0.60718 -1.6733 0.3282 -1.1524 -0.13399 -0.58466 -0.35949 
qokear -0.12382 1.522 1.7668 0.16912 0.93814 -0.016433 0.28563 0.42927 1.6574 -0.39767 
lkl 0.56652 1.2806 0.42149 -1.828 -0.99408 0.13556 0.66239 0.59192 0.54794 -0.36002 
keeedy -0.36513 1.7522 1.3907 -0.78356 0.48459 -0.38876 -0.41089 0.02045 1.3231 -0.95066 
ydy 0.039368 0.16093 -0.98107 0.52987 0.14618 0.48812 -0.21709 1.2829 0.62121 -0.37221 
lsheedy -0.69657 1.8548 0.80884 0.57616 -0.97611 0.65172 0.48343 1.1858 0.69336 0.11016 
daiidy 0.16586 0.91908 -0.85763 0.47727 0.21028 0.35479 -0.19268 0.98727 0.22369 0.96417 
ykees -0.35254 0.57726 -0.41705 -0.35621 0.38762 -0.85386 -0.35314 0.79047 -0.3613 -0.80088 
yshedy -0.74814 1.1505 -0.23739 0.85001 0.18858 1.1167 0.25502 0.48358 0.88808 -1.1561 
opor 0.022256 1.4079 0.40737 -0.15798 -0.57475 -0.0035445 -0.080368 -0.88865 0.3817 -0.76778 
sheoky 0.18952 1.7191 -0.062215 -0.93818 0.35985 0.43783 -0.07125 -0.339 1.2382 0.22824 
ok 0.21094 0.75616 -0.77095 0.91766 0.638 0.40838 -0.10864 0.07699 0.36931 0.33552 
solchedy -0.5699 1.0904 -0.32043 0.47609 -0.53112 -0.040268 1.3726 0.37385 2.0875 -0.65478 
lal -0.11682 1.3479 0.29304 -0.25068 -0.066799 -0.28951 1.0895 0.8399 0.63937 0.70887 
sheeor 0.54655 0.24533 -0.30669 -0.13657 1.2094 -1.0746 -0.2098 0.047196 0.46878 -0.44653 
qokeod 0.94881 0.44235 0.20423 0.85389 0.13305 -1.0195 0.3669 0.44803 1.6812 1.0866 
kechy -0.27147 1.3208 -0.72206 0.47458 -0.18874 -0.1825 -0.34476 0.2891 0.3882 0.76196 
oeey 0.91902 -0.11123 0.67995 0.36435 -1.1292 -0.75536 -0.46917 0.41602 0.73293 -1.063 
qopaiin 0.75705 0.35597 -0.31386 0.12212 -1.3987 -0.12209 0.17963 0.56337 1.4026 0.11706 
lkey -0.18361 0.76641 0.16901 0.071858 -0.38474 -0.35604 0.69203 0.22631 0.77979 -0.54018 
cthom 1.8514 0.033518 -1.0923 -0.30396 0.24104 0.54583 0.73178 -0.21993 0.091826 -0.39354 
olsheey 0.24742 0.64798 0.25814 0.2861 1.1953 0.19958 1.6716 0.31519 0.56851 -0.29418 
odam 1.0209 0.57144 0.093737 0.88978 -0.24235 -0.1784 0.41108 -1.0562 0.34806 -0.097893 
chokar 0.60605 -0.075542 -0.10751 0.17515 -0.73767 -0.47766 -0.12257 1.0551 0.72804 -0.2808 
qoeeey 0.32621 0.16538 -0.39535 0.39463 -0.23272 -0.16335 0.025543 1.6272 0.086608 0.24523 
qoly -0.93218 1.9648 -0.56221 -1.0609 1.6588 0.4749 0.83295 0.36411 1.2372 -0.76871 
dcho 1.8614 1.0508 0.71869 0.60779 -0.36022 0.4537 -0.48899 -0.066235 -0.69876 0.92722 
qoked -0.41633 0.82655 1.2009 0.74346 -0.54467 -0.072656 0.58554 0.99518 0.56803 -1.0965 
ycheedy 0.70423 0.53839 0.72587 0.5368 -0.38134 0.6189 0.26237 -0.085762 2.0981 -0.76654 
okaiir 0.24124 0.51721 -0.18331 0.60121 0.54248 -0.22871 -0.61208 -0.62526 -0.25622 -1.257 
so 1.0021 -0.17007 0.55337 -0.26682 1.2846 0.11331 0.27201 1.1192 0.33943 -0.77355 
okan 0.62592 1.1748 1.0991 -0.39312 -0.13984 0.51161 0.94733 0.045503 -0.77358 -0.43 
kshy 1.1546 0.86733 0.004565 -0.04135 0.42816 1.6739 -0.049702 0.41398 -0.88799 -0.51042 
dalor 0.61156 0.57789 -0.44549 -0.689 0.16143 -0.25511 1.5382 0.31778 -0.83714 -0.3261 
olkair -0.47365 0.73623 0.42374 0.32256 -0.31229 0.12047 0.47423 0.80853 -0.49155 -1.2951 
qochey -0.22178 0.77765 -0.50521 0.065848 -0.36146 0.21368 -0.52597 0.7624 1.1827 -0.34274 
 0.81465 3.4607 2.4763 1.6105 2.2032 0.21072 0.16113 0.66596 -1.6225 0.785 
ykeeo 0.39326 -0.073951 -0.13754 1.7729 -0.68006 -0.5156 0.53441 0.24297 0.097415 -0.57468 
oy 0.93375 0.44207 0.77919 0.45099 0.15179 0.81599 -1.2875 0.21132 0.5323 -0.82515 
aror -0.84627 2.2033 -0.034767 -0.28035 0.10253 0.69751 -0.92862 0.29281 0.70135 -0.17589 
ykeeey 0.49783 -0.096935 0.36133 0.54458 0.74835 0.041831 0.26712 0.79974 1.2912 -0.78858 
lteedy 0.10361 0.83744 0.70688 0.14428 -0.031015 0.15583 0.20234 0.76557 1.3648 -0.15441 
qokeedar -0.7069 1.1218 1.9612 1.5908 0.41402 -0.68538 0.22784 1.3537 0.53921 -0.90775 
ykeor 1.9583 0.13211 0.084322 -0.44236 1.1276 -0.18725 -0.65239 -0.85947 1.2327 -1.0268 
dcheo 0.048124 0.58851 -1.4157 0.263 0.28994 -0.27987 0.79438 1.378 -0.066144 0.86234 
otear 0.016517 0.67761 0.15848 0.21504 -0.36242 -1.7196 0.47119 0.021221 -0.017339 -0.34643 
qokeeedy -0.26913 0.77653 -0.15741 -0.22062 -0.4549 -0.92359 0.040549 1.0264 0.64264 0.11763 
tcheol 0.18169 0.97726 -0.25237 -0.22888 0.17766 -0.30188 0.023828 0.11197 1.2012 0.49581 
shekeey 0.121 0.02949 -0.044363 1.4652 1.2941 -1.0304 0.91054 1.1885 0.12385 0.0073992 
alchey -0.088135 0.48012 -0.31126 0.971 0.52349 -0.28553 0.5852 0.34782 0.1012 -0.12499 
chtal 0.24365 0.8001 0.32125 -0.54243 -0.1906 -0.16231 1.2366 0.38215 1.2353 -0.3267 
okalal -0.30569 0.99435 -0.30404 0.45156 0.20632 -1.8577 1.0108 -0.16178 -0.3711 -0.067248 
chedam 0.73598 0.27487 1.1575 0.22735 -1.284 0.52484 0.46283 1.7702 1.3319 -0.70349 
oro 0.55576 0.517 0.16742 -0.20896 -0.035033 0.30557 -0.58461 0.036745 0.29087 -0.68987 
tcheey 1.1754 1.2841 0.056935 -0.041206 -0.012313 1.4884 -1.1607 0.48891 0.49677 0.62359 
cheoldy 1.301 0.78092 -0.4479 -0.88776 -0.042061 -1.2906 -0.64099 -0.72024 1.0646 0.099379 
chek -0.35912 0.77943 0.31066 -0.35154 0.6749 -0.86453 -0.17985 0.69383 -1.009 -1.3249 
alody 0.067902 1.3679 0.77761 -0.62071 -1.1556 -0.84718 -0.27315 0.47775 -1.162 -0.72905 
an 0.59577 0.51242 -0.24482 -0.94679 0.3764 -0.013309 -0.29085 0.52793 -0.29466 -0.5434 
oltedy -0.60707 0.47383 -0.34875 0.22686 -0.0003124 0.11954 0.58576 1.2732 1.1809 -1.0696 
lcho -0.063934 0.82428 0.5841 -0.52164 0.11185 -0.59568 0.48104 1.5164 0.13394 0.046858 
olkeeody 0.68722 -0.22533 -0.28647 -0.5874 -0.43994 -1.1624 -0.16701 0.97692 0.11254 -0.95187 
okchd 0.15319 0.48457 0.23295 0.12199 -0.15818 0.70682 0.085999 0.52494 0.18869 -1.0813 
ykor 0.5849 0.80902 -1.1489 -0.087724 -0.26739 -0.15371 -0.44526 -0.22899 -0.55759 -0.039769 
shan 1.911 0.93538 -0.56235 -0.90405 0.82697 1.4148 0.83151 0.1612 -1.1978 -0.45159 
deey 0.96657 0.46919 0.15126 1.6032 -0.3293 0.84881 -0.54395 0.061597 1.2748 0.19122 
qokeechy 0.79786 1.1892 0.40289 -0.065022 -0.63854 -0.15637 1.4395 -0.042218 1.0657 0.98118 
okaiiin 0.61899 1.2375 0.41126 -0.96834 0.153 -0.84207 0.5604 -0.52874 0.075944 0.11628 
alkain -0.42623 0.70558 0.79171 -0.30114 0.094939 -0.62655 0.30783 1.3517 -0.76436 -1.3375 
opcheol 0.36694 0.67684 -0.31322 -0.11652 -0.16021 -0.12509 0.41985 -0.83749 1.2559 -0.74774 
qopchol 0.3014 0.95254 -0.92562 -0.048265 -0.93417 -0.16739 0.03627 -0.48728 1.5818 -0.006754 
okos -0.45573 0.69564 -1.4609 0.99337 0.65335 -0.48849 0.0076088 0.16948 -0.80432 -0.54626 
okeod 0.84687 0.19926 0.49351 1.8888 0.85993 -0.45338 -0.76685 -0.75931 -0.44573 -1.8839 
oko -0.51154 1.209 -1.0819 0.041422 -0.071404 -0.58832 -1.1769 -0.42017 0.070752 -0.83835 
tam 0.25585 0.54234 -1.458 1.2052 -1.4086 1.0367 0.51253 -0.20676 0.67879 -1.1312 
ety 0.80955 0.46636 -0.51432 0.21335 -0.06285 0.56207 0.38787 0.25762 -0.21146 0.20482 
qopy -0.086407 1.9267 -0.84153 0.64226 -0.89967 1.0966 0.53947 -0.99785 -0.19231 -0.011749 
shoiin 0.31544 0.97651 -1.1286 0.086538 0.20082 1.0641 -0.47261 1.0548 -0.34768 0.28118 
ochor 1.0582 0.45393 0.44732 -0.37551 0.021685 0.89375 -0.70925 0.58733 -0.5937 -0.76836 
lsheey -0.8627 1.9225 0.36611 -0.048637 0.5465 0.20943 -0.02223 0.59333 1.3471 -0.042657 
shckhedy -0.11827 1.1118 0.59044 0.9624 0.88079 0.35831 1.0208 -0.56489 1.6 -1.0521 
keeor 1.2768 -0.02014 0.5362 -0.092652 0.57354 0.13324 -0.20616 1.1965 1.4095 0.038259 
tshol 1.2928 0.46071 -0.68567 -0.22543 -0.52776 0.48175 0.10978 -0.94339 0.29817 -0.76193 
odair -0.20467 1.1429 -0.44469 0.66105 -0.68669 -0.37938 -1.1696 -0.004178 -0.57209 -0.39703 
schey 1.0558 -0.036001 -0.50408 0.32425 1.595 1.125 0.50848 0.78982 -0.17527 -0.84849 
tcheody 1.1922 0.86164 0.12658 -0.41002 -0.19545 -0.43162 -0.37142 -0.32252 1.2576 0.74788 
shoty 1.3865 0.51651 -1.1272 -0.36302 -0.91357 0.29636 0.53822 -0.35458 -1.0915 -0.58115 
lchal 0.67629 0.24381 1.3678 -0.24965 1.2179 -0.047099 0.68848 1.626 -0.041221 -0.62316 
teeody -0.2043 1.2782 0.57957 0.22265 -0.78064 -1.0637 0.15671 0.97327 -0.33971 0.56808 
qokchd -0.0066512 1.0007 -0.84787 0.081042 -0.048297 0.73981 -0.18569 -0.3761 0.37052 -0.67331 
odaiiin 0.37479 0.14059 -0.36755 0.35279 -0.11384 -0.22811 0.059649 0.38882 -0.63394 -0.78658 
ofchedy -0.11388 0.0968 -0.28211 0.12424 0.24576 1.1691 0.44913 1.0095 0.77497 -2.4499 
ytchol 1.7395 0.5589 -1.2082 1.4091 -0.96641 1.1878 0.25214 -0.72435 0.88775 0.26277 
cheokeey 0.10263 0.42484 0.3007 0.32523 0.20348 -1.1539 0.64525 0.66201 -0.1097 -0.083437 
dalal -0.072893 0.83368 0.12577 -0.29568 -0.5356 -0.71745 0.2429 -0.018139 -0.67354 -1.062 
ykeeor 1.6083 0.1441 0.5745 -0.054719 -0.065425 -1.1162 -0.043709 -0.42198 1.2238 -0.091793 
yteeey 0.74028 -0.55574 0.38801 0.89313 -0.68242 -0.30148 0.36009 0.80566 0.36935 -1.5719 
chetar 0.6482 0.97812 1.3378 -0.82949 -0.60396 -0.19861 0.42658 0.43727 -0.73566 -0.77245 
oiir 1.9125 -0.13973 0.93177 0.71583 -0.4234 -0.9169 -0.25952 -0.43103 -0.00013638 -0.58434 
pchol 1.7802 -0.49171 0.47179 -0.24839 0.41347 -0.15778 0.61009 0.28918 1.7097 -0.71865 
kshey 0.31344 1.2139 -0.88683 0.42224 -0.25976 1.1044 0.57176 0.44697 1.085 0.88572 
qokeos 0.56226 -0.32682 -1.9281 0.55773 0.61779 -0.91061 -0.29661 0.22231 0.12653 -1.1976 
oshey -0.01202 0.62959 0.36353 1.0902 0.33691 -0.67825 0.067162 -0.28595 0.86682 -0.45622 
oteal -0.14188 1.5987 1.2204 -0.34591 -0.33591 -0.99377 -0.40441 -0.51733 1.5756 -0.72877 
eey 0.35935 0.70236 0.14798 0.081871 0.30974 -0.62623 -0.23132 0.44305 -0.79355 0.089757 
olal -0.33922 1.4538 -0.40793 -0.60939 -0.084523 -0.53884 1.289 0.2721 0.80633 0.39172 
okeoly 1.1537 -0.11835 -1.0478 0.25103 -0.71826 -1.2694 0.65663 -0.52262 -0.10097 -0.85626 
sham 0.40548 1.1738 0.33416 0.13275 -0.52651 0.058487 1.8959 0.91018 0.037276 0.88897 
osaiin 0.038406 0.58228 -0.074849 -0.63295 -1.0094 -1.2505 -0.14819 1.3018 -0.36401 -0.34195 
doiir 0.31975 0.19192 -0.83979 1.2662 0.98519 0.59977 -1.0616 0.76074 -0.062299 -0.68064 
kcheol 0.99787 0.030405 -1.0316 -0.12076 1.1545 -0.42531 -0.33322 1.7533 -0.34804 0.47318 
qoain 0.015629 0.61672 0.055858 0.15513 0.59209 -0.51354 -0.16989 -0.061045 1.147 -0.57463 
par 0.043888 0.31384 0.42683 -0.4167 -0.52324 0.34239 0.41175 1.2457 0.68886 -1.6029 
otchar 0.8362 0.30634 0.13666 -0.23104 1.0118 1.3148 0.89744 1.4384 -0.73127 -0.85404 
chkchy 0.50908 1.5718 -0.89045 0.30672 0.81545 1.106 0.17812 -0.56023 -0.40154 0.33866 
rshedy -0.65891 1.178 0.42104 0.80079 1.2894 1.4899 0.29121 1.6436 0.82433 -0.9793 
sshedy -1.0868 1.1225 -0.193 1.626 0.8353 -0.13035 -0.045051 0.14948 1.6792 -1.1391 
loly -1.3133 1.7814 -0.21422 0.51263 0.49975 0.56534 -0.52565 1.0906 0.74501 -0.36744 
lched -0.73022 0.91721 -0.40553 0.21041 0.36904 -0.27655 0.39645 1.9112 1.2369 0.13522 
ykchol 1.0352 0.2118 -1.4551 0.33206 -0.68616 -0.098526 -0.023274 -0.54619 0.077966 -0.5281 
qopol 0.23203 0.47485 -1.0324 -0.090423 -0.5023 0.24663 -0.87959 0.33213 1.2259 -0.67042 
yaiin 0.93534 -0.57047 0.30807 1.0363 0.17818 0.11521 0.1776 0.47682 0.68533 -1.4452 
qoko 0.94664 -0.42443 -0.048422 0.25238 0.48158 0.12001 0.39628 1.5466 -0.58461 -0.73735 
qoteo 0.39852 0.15288 -0.40261 1.3276 -0.66642 -0.29073 -0.45556 0.86478 0.9111 0.23529 
chekeey 1.0934 0.024393 0.12767 1.7851 -0.048503 -0.3976 -0.36549 0.32226 1.0383 0.43484 
ykchey -0.24686 1.0003 -1.4736 0.7144 -0.15703 -0.77295 0.83712 0.59311 -0.55685 0.6588 
cphor 1.9318 0.2844 0.23227 -0.23725 0.61308 1.2995 0.086397 0.40437 0.94904 0.097642 
pchody -0.74012 1.1429 -1.7257 -0.27573 -0.25926 -0.24126 0.40724 0.36841 -0.11874 -0.3401 
opchol 0.49531 0.65783 -1.4659 -1.0244 0.37139 0.24433 -0.7353 0.68791 0.78218 -0.13935 
cphaiin 0.60661 1.534 -0.22958 -0.76425 0.12534 1.2225 -0.23232 -0.44441 0.26396 -0.13844 
oteodal 0.43315 0.70136 0.81325 0.52138 0.049669 -1.3142 -1.6524 0.90328 -0.56307 -0.49847 
cheekey -0.084467 0.34751 0.60308 -0.22072 0.72404 -0.7249 -0.43358 0.48557 0.33522 -1.8436 
ksheo 1.0654 1.5293 -0.32699 -0.73366 0.41208 0.31211 -1.6714 0.041134 -0.35804 0.60531 
rary -0.24291 0.99506 0.50199 -0.69155 0.10289 -1.584 0.1019 0.43624 -0.2602 -0.73748 
lpchedy 0.28159 1.3008 -0.5109 -1.6214 -0.71039 0.33507 -0.68905 0.73266 1.6138 -0.25239 
dalar 0.097274 1.0871 -0.96136 0.39312 -0.10208 -1.7753 1.479 -0.52544 0.28434 0.4753 
otary 0.18643 0.32043 -0.30436 0.85278 0.94012 0.0060483 1.3823 0.18423 -0.44886 -0.58491 
okechy -0.62874 1.1085 -0.24614 -0.47575 -0.12378 -0.75665 -0.30193 0.58242 -0.13788 -0.57261 
chtol 0.65015 0.78824 -0.61678 0.68865 -0.48119 1.2501 0.3897 -0.24424 0.74716 -0.058843 
tcheo -0.13086 1.1164 -0.85024 -0.3194 0.29656 -0.37607 -0.12229 0.58463 0.77114 0.6729 
cholky 0.10098 0.13164 -0.08432 0.60631 -1.2234 -0.35138 0.98812 0.4045 0.11949 -1.3445 
ctheody 1.1115 -0.35903 -1.383 0.50862 0.44081 -0.17176 -1.2485 1.1544 0.98033 -0.24173 
eeey 0.013661 1.0799 -0.92477 0.60835 1.0623 -0.9261 -0.43079 -0.059389 1.2259 0.83154 
koiin 0.82036 0.64508 -0.86216 0.33726 0.54732 1.2273 -1.0682 -0.084376 -0.66621 -1.2274 
ytedar -0.37981 1.5809 -0.5385 -0.041027 -0.57909 -1.1617 -0.031586 -0.39173 0.18668 0.39934 
qolkeey 0.26913 1.0275 0.74762 -0.10339 0.96438 1.4155 0.95846 -0.011354 0.76916 -1.3733 
dalchedy -0.27347 1.3796 0.10017 0.13656 -0.20417 1.1023 -0.73478 0.96059 1.3064 -0.12214 
qokoiin 0.71081 0.46334 0.35016 0.58344 1.0149 1.2184 -0.15308 1.6674 -0.24664 -0.022939 
chyky 0.76601 0.36583 -1.198 -0.2614 0.93678 0.25261 -0.47729 0.80357 -1.2265 -0.64372 
shkaiin 0.76083 1.2981 0.49128 -0.45896 0.21295 0.26008 0.37654 -0.10014 0.14576 0.66999 
tsho 2.3188 0.22033 1.3735 0.50275 0.25886 1.8277 -0.45048 -0.071548 0.46728 -1.0815 
soiiin -0.23243 1.3506 -0.74348 0.25155 0.86593 0.73974 -0.25307 0.078547 0.81141 0.17264 
qokchod 2.3611 -0.15694 -0.78117 1.0842 0.18183 0.7045 0.8757 -0.48525 0.29174 -0.084707 
ypar 0.39944 1.2675 -0.33151 0.41341 -2.0471 -0.67115 -0.3501 -0.83088 0.41611 -0.25305 
cheedaiin -0.27259 1.0203 1.3623 0.45562 0.075947 -0.14006 -1.3071 1.4639 0.62672 -0.73026 
qotaly -0.17031 0.7143 -0.62026 0.0015522 -1.839 -0.69647 0.85562 0.63324 0.54185 -0.52966 
ltedy -1.158 1.0636 -0.34052 -0.076986 0.40425 -0.86743 0.53748 0.24848 1.0822 -1.6062 
chopchy 0.85562 1.1073 -0.05154 -0.17199 -0.27219 -0.63371 -0.5595 -0.060715 -0.32722 0.82157 
yteol 1.6237 -0.2951 -1.0704 1.1175 0.25079 0.43673 0.34526 0.51262 1.1797 0.38829 
otaram 0.49202 0.24408 0.37927 0.6948 0.47287 0.19531 1.3495 0.17331 -0.011129 -0.65258 
lkam 0.085941 0.86841 -0.11426 -0.14908 -0.94463 -0.07096 0.40317 0.83857 0.86094 0.28377 
qoteor -0.50013 0.64681 -0.59783 1.0054 0.93628 -0.4546 0.067839 1.347 0.10681 0.25381 
ckheol 1.1284 0.49289 -0.90366 0.35042 0.93573 -1.1768 0.35331 -1.0937 1.7516 0.042848 
kary 0.094575 1.0223 0.83952 0.53661 -0.58333 -0.32309 1.1321 -0.0458 -0.6909 -0.47203 
podaiin 0.94673 1.4953 -0.53129 -0.26102 -1.1465 0.60326 -1.4564 -1.6343 1.3035 -0.9342 
pcheor -0.15125 0.28207 -0.85481 0.32428 0.17767 -1.0883 1.1066 1.6642 0.5324 0.41579 
pchdair -0.35987 1.5487 -0.2248 -0.75321 -1.5128 0.35266 0.06193 1.7222 -0.23148 -0.05042 
pchodaiin 0.87777 -0.27129 -0.4032 1.4129 0.72039 0.55737 -0.71638 1.0891 0.17619 -0.51227 
rcheey 0.6664 1.5562 1.6318 -0.42422 0.015574 0.28028 -1.0141 0.31923 0.52687 0.20353 
otalaiin 0.4176 -0.1398 0.18165 0.70509 -0.27719 -1.5725 0.75298 0.49017 -0.26702 -0.96351 
qoteeol 0.74942 0.73644 -0.016038 0.45601 0.56578 0.60638 -0.89564 1.4687 1.1412 0.99404 
ydar 1.0404 0.46974 0.24674 -0.83995 0.89103 0.74382 -1.2727 -0.011742 0.49364 -1.6616 
cholor 1.0559 0.2994 -0.66733 -1.3254 0.24256 0.62314 0.59999 -0.21043 0.49634 -1.4035 
ochol 0.58937 1.2373 -0.94771 -0.25647 0.12125 -0.65299 -0.61512 -0.66391 0.086768 0.59752 
okechedy -1.0189 0.38111 0.28711 0.87057 1.0097 -1.437 -0.17306 1.6221 0.83662 -1.4647 
qoteeody -0.10085 0.39816 -0.29469 1.006 -0.34404 -0.46353 -0.86828 1.4727 -0.78003 -0.3211 
dyky 0.42598 0.37064 -0.54624 1.7143 -0.41607 0.23328 1.6007 0.24816 -0.37565 -0.10267 
qolkain -0.29877 1.3851 0.34852 0.25449 0.13704 0.28427 1.4883 -0.53856 1.462 -0.90956 
qoedy -0.71245 0.78736 -0.23204 0.048812 -0.83869 -0.2296 -0.25184 1.1992 0.16113 -1.043 
ykam 0.61079 -0.14626 -1.0596 0.83385 -0.89355 -0.20299 0.61927 0.46085 -0.90327 -0.98342 
lkal -0.051721 0.38816 0.1411 -0.56132 -0.14744 -0.69511 1.1783 0.7599 0.55128 -1.0288 
qotshy 1.4575 1.5955 -0.0064732 -0.73941 -0.14598 2.3915 0.6789 -0.20312 -0.064782 -0.092433 
ald 0.14025 0.20058 0.47152 0.6661 -0.73198 0.056789 -0.16664 0.57745 -0.68663 -1.9151 
shdaiin 0.60929 1.1286 -0.44757 -0.34535 0.32254 1.2055 -0.077907 -1.1501 0.93161 -1.1037 
los 0.89583 0.44979 0.70678 0.91895 -0.40434 0.53 0.055627 -0.29422 1.245 -0.48786 
alain 0.51145 1.054 1.0091 0.64512 -0.59451 -0.42858 0.33685 -0.010608 0.57733 0.56921 
sheed -0.14171 0.84874 0.96426 0.88979 -0.20293 0.20243 0.53056 1.0478 1.9909 -0.50359 
ypchey 0.025315 0.73464 0.039159 -0.6316 -0.14294 0.56665 -0.89487 1.4847 -0.32008 -0.9376 
lchor 0.47061 0.5975 0.20578 -0.40067 -0.032939 -0.018538 0.61068 0.34334 0.27756 -0.16711 
lkeeody -0.12318 0.91607 0.45096 -0.43594 0.58235 -0.82482 -1.2917 0.76979 2.1957 -0.8286 
otcham 1.1963 0.83337 -0.46309 -1.5033 0.50356 -0.26149 -0.21885 -0.61138 -0.1306 -0.65738 
ckheody 2.3851 -0.37125 -0.14557 1.0774 -0.26482 0.31147 -0.74739 -0.17927 1.2047 -0.22418 
ail 0.83388 0.11367 0.74758 0.21655 -1.0427 0.05095 0.47068 1.5333 -0.18735 -0.27642 
sheeey -0.14532 0.87684 -0.62068 -0.80397 -0.3648 -1.3208 -0.3643 0.68738 0.71378 0.027911 
shekey -0.087379 0.26786 0.24968 1.9201 -0.57826 -0.2641 -0.45193 0.1665 -0.052594 -1.3952 
qoted -0.97987 0.77585 -0.39406 1.5828 -0.016092 0.39131 -0.55296 1.7578 0.23791 -0.67914 
pcheody 0.8928 0.28087 -0.51758 1.1185 -0.54173 0.84527 -0.61638 -0.45205 1.6047 -0.75824 
chkedy -0.71877 0.91521 -0.50256 1.0347 0.20658 0.032669 0.65988 0.86697 0.69656 -0.065905 
chokeody 1.0277 0.98641 -0.31452 0.26614 -0.15493 -0.22676 -0.84334 0.1014 0.3866 1.1668 
kcheor 1.1923 0.64253 -0.48691 -0.47277 -0.5013 0.38397 -0.11285 0.19347 0.90354 0.58847 
ldar -0.66483 0.47991 -1.2827 -0.64685 0.08518 0.11089 0.83961 1.4603 -0.103 -1.5769 
sos 1.1073 1.3784 0.0168 1.4483 0.07106 0.73011 -0.52125 -0.33001 -0.49876 1.0072 
shekchy -0.16898 0.96578 -0.2351 0.82869 0.21323 -0.14791 -0.64998 -0.97027 0.0097773 -1.2776 
ytaly 1.9004 0.73929 0.90144 0.48284 -0.53392 -0.43082 1.8454 -1.8787 -0.35484 -0.93487 
ees 0.31267 0.97989 -0.75854 -0.28031 0.16472 -1.075 -1.1796 0.66896 -0.29664 0.49376 
 1.0139 4.0632 3.196 2.4491 2.7409 0.34011 0.88756 0.96197 -1.8693 0.76645 
qoto 0.22785 0.6258 -1.3057 1.3548 -0.23374 0.64981 0.042935 0.13691 -0.65748 -0.28072 
olam -0.32491 0.92593 0.56327 -0.047084 -0.68581 -0.83582 0.7761 -0.027572 0.90845 -1.0645 
als -0.082399 0.12468 0.10208 0.27605 -0.59792 -1.337 0.86501 0.30829 0.79721 -1.3672 
c 0.94385 3.6471 2.7784 2.0549 2.4028 0.061156 0.37936 0.78249 -1.7914 0.78609 
chok -0.0023786 1.4275 -1.559 0.82579 1.2439 0.37978 -0.67059 0.2727 -0.42851 0.63214 
dchaiin 0.89411 0.54051 -0.97414 0.58043 0.57256 0.19205 -0.37133 1.8585 -1.1737 0.87873 
chochy 1.8138 0.19474 -0.19165 0.5802 0.66104 1.2742 1.1088 1.6132 -1.0157 0.40885 
 0.69487 3.703 2.8735 2.4015 2.6989 0.077912 0.82004 0.88507 -1.7224 0.65412 
ochy 1.1805 0.75788 -0.62638 0.60039 0.042678 -0.18829 -0.72832 -0.54334 -0.44188 0.37342 
qotair -0.54625 0.56793 -0.64202 0.42596 -0.19755 -0.79947 -0.2364 0.85259 0.27336 -0.36446 
osain 0.21674 1.1757 0.28099 -0.24496 0.10715 -0.074059 0.26013 -1.0522 -0.43087 -1.1178 
lkeol -0.48815 0.94789 -0.27159 -0.6624 -0.48628 -0.31202 -0.74319 1.4374 0.92367 -0.56823 
opchedaiin -0.23901 1.1006 0.052618 1.0581 -1.1053 -0.35662 0.85274 0.11977 -0.33423 0.083735 
okodar 0.57168 1.1006 0.040731 0.9131 -0.68251 -0.45695 -0.9935 -0.14103 -1.1542 -0.020644 
shodain 1.0276 0.58375 1.1459 0.83844 0.070722 0.60877 -0.0077302 0.030145 0.22656 -0.12416 
kshedy -0.61729 1.6766 -0.18179 -0.43144 -0.5283 0.47272 0.53799 0.47885 -0.08057 -0.19791 
oksho 2.2536 0.29231 0.050228 1.5813 -0.52538 1.1384 0.153 0.43323 0.1554 0.87426 
chockhey 0.27956 -0.28408 -0.22574 1.0081 0.70856 -0.8789 -0.06888 0.81095 -0.22981 -0.99875 
cheoty -0.025173 0.33902 -0.35133 -0.36502 -0.69833 -0.34456 0.080798 0.91345 0.31635 -0.86699 
dairal 0.44594 0.60213 0.68471 1.3018 -1.1884 -0.17155 0.83997 1.2425 -0.48801 0.37458 
shokey 0.36097 1.7066 -0.098229 -0.41521 0.14029 -1.0708 -0.4181 -0.39516 -0.29143 0.95708 
otarar 0.29413 0.29692 -0.79578 0.12146 -1.4029 -0.85685 -0.31199 0.17756 0.80288 -0.71932 
ysheedy 0.20566 0.61728 0.34603 -0.041668 -1.6726 -0.53027 -0.51095 0.31928 1.203 -1.1554 
ydain 0.95757 0.81714 0.42403 0.90112 -0.26268 1.6311 1.5494 0.10743 -0.52675 -0.51994 
qoal 0.068046 0.61419 -0.18129 0.40455 -1.2506 -0.21942 1.3395 0.59475 -0.07063 -0.27943 
chep -0.72484 1.1259 -0.96185 -0.55227 0.17705 0.19375 0.70606 1.0767 -0.18375 -0.44494 
saral -0.56548 0.76505 -0.75238 0.72489 0.97456 -0.099773 0.60925 -0.39047 -0.75909 -1.8205 
chotam 0.718 0.13138 0.46772 0.34174 -0.10016 -1.2347 0.16623 -0.61206 0.91566 -1.0912 
alkar -0.40267 1.1877 0.40545 -1.6781 -0.33227 -0.37003 0.39295 1.2991 -0.25895 -1.3435 
chokor 0.76152 0.035187 -0.32945 0.94879 0.83909 0.54563 -0.39718 1.3425 -0.24561 -0.042267 
qop 1.2192 -0.20522 0.6125 0.43265 -0.18474 0.35822 1.4308 0.53707 0.16567 -0.70014 
soin 0.49512 0.38571 0.019057 -1.4495 0.51924 -0.13522 1.3771 1.2505 0.23626 -0.66219 
cheod -0.23945 0.97216 -0.16052 0.33539 0.25806 0.36566 -1.9042 0.86908 0.65155 -0.66646 
yto -0.11336 0.90125 -0.91771 0.29509 0.43441 -0.22799 -1.3477 -0.108 -0.79552 -1.1335 
ycho 1.2029 0.3911 0.078495 -0.32964 0.28761 0.7675 -0.96483 0.68544 0.31033 -0.18539 
sheodaiin 0.72874 0.1069 -0.92297 1.3672 -0.73174 -0.39394 -0.73254 0.41214 0.65459 0.29006 
chaly -0.28835 0.56421 -0.98333 1.2713 -0.44437 -1.33 1.6528 0.29034 0.2889 -0.10806 
lkchdy -0.011838 1.2013 0.73421 -1.336 -0.34058 -0.17294 -0.68618 0.48326 0.52532 -1.3296 
cheocthy 0.98577 -0.15864 -0.65225 -0.20067 -0.32534 0.47927 -0.57323 1.8587 1.3627 -0.14815 
dalchdy -1.031 0.93213 -1.3612 0.67599 -1.0965 -0.63037 0.66894 1.368 0.030025 -0.25278 
ksheody 1.1897 -0.16751 -0.63614 -0.32333 0.22854 -0.021764 -0.79118 0.34097 1.1515 -0.71282 
chetain 0.050097 0.7801 1.3186 -0.37976 0.81636 -0.42292 1.9688 0.82316 0.57353 -1.1512 
opcheey 0.39362 0.017284 0.61777 2.0795 0.97662 0.62572 0.0033105 0.38763 0.89699 -1.2964 
shok -0.075029 0.67319 0.55476 0.32698 1.2938 -0.14568 -0.63229 0.30499 0.12303 -1.0033 
shockhy 1.586 0.21781 -0.7233 1.0207 -0.3975 -0.33487 0.0015727 -0.60763 1.5969 0.55592 
otodaiin 0.78903 1.0515 1.0178 0.62749 -1.492 -0.064182 -1.2574 0.25046 0.88302 -0.0025352 
deedy -0.22756 1.0898 0.88727 1.6033 -0.022669 -0.070887 0.11867 0.86415 0.76416 0.36967 
shokal -0.10584 0.077359 -0.9627 0.17907 -0.090437 -1.359 1.2083 0.66567 -0.043224 -0.79473 
shcthey -0.67913 1.3733 -0.44422 -0.19234 -0.20264 -0.46615 0.4351 1.1158 -0.1477 0.45245 
saiir -0.11704 0.59126 -0.27791 0.78577 1.2636 -0.055353 -1.3702 -0.50616 0.38678 -2.2091 
cheoly 0.050069 1.1123 0.6985 -0.67576 0.00071177 -1.2324 0.76914 0.81423 -0.52574 0.081051 
cto 0.68074 0.42636 -1.1978 0.22951 0.37712 0.997 -1.1009 0.86952 -0.55437 -0.67561 
ypchdy -0.53639 1.2619 -2.0046 1.5223 -2.0085 0.51939 -0.93416 -0.10204 1.1824 -1.1053 
otedal -0.18154 0.6724 -0.11748 0.68117 -1.3321 -0.47661 -0.66766 0.17044 1.135 -0.98424 
lam -0.12411 0.97197 0.55412 -0.14978 -0.14284 -0.0012945 0.57917 0.28605 1.0793 -0.5441 
chekchy -0.69992 0.77145 0.033791 0.63532 0.68402 -0.66051 -1.105 0.32804 0.06228 -1.6704 
qopar -0.16633 1.1078 -1.0096 -0.30748 -2.0961 0.05443 0.3833 0.66769 0.99888 -0.41178 
cholkaiin 0.084806 1.2363 -0.62529 0.15123 -1.2704 1.0003 0.86129 0.45482 1.2524 0.069888 
doly -0.3035 0.47275 -0.24464 0.1556 1.0952 -0.5483 0.45602 0.91107 -0.74416 -0.64482 
tshdy 0.38873 0.38012 -0.075712 0.22024 -0.96264 -0.1831 1.6499 0.13195 0.73712 -0.66062 
oteotey 0.14391 1.4407 0.59901 -0.11498 -0.075466 -1.7838 -1.086 -0.34279 -0.56718 -0.47463 
chd 1.2936 0.63033 0.26329 -0.039097 -1.2565 0.87893 0.9507 -0.11924 0.32724 -0.091018 
ctheo 1.2529 0.40667 -0.025063 -0.52272 0.41685 -0.73189 -1.0086 0.56338 0.74694 0.50872 
chekedy -0.75354 1.3482 -0.8215 2.6819 0.053605 0.019654 0.168 -0.69879 1.2556 -0.40423 
opchor 0.52711 1.2639 -1.0563 0.39716 -0.65695 0.91748 -1.0073 -0.32061 0.77114 0.29387 
otedaiin -0.67565 2.2162 0.68212 0.215 -0.73547 -0.092545 -0.78961 -1.0095 -0.1056 -1.3748 
pchedal -1.0859 1.4632 0.54863 0.93434 -0.31051 -0.22339 1.3416 2.149 -0.38085 0.038802 
cheedar -0.8837 1.342 -0.041445 -0.23738 -0.8388 -0.3751 -0.59235 1.4966 0.89107 -0.45347 
dsheedy -0.13937 0.60663 0.87635 0.57116 0.18783 -0.89629 1.4371 -0.0080645 1.2074 -1.1687 
oldam 0.34898 0.3961 -1.8214 0.077365 -0.12746 0.38528 -0.22534 -0.3366 0.83819 -0.9646 
eedy -0.17913 1.2851 -0.0070523 1.7819 0.69394 0.047406 -0.06274 -0.43573 0.42446 0.23577 
okeodar 0.99925 0.2449 0.87033 0.33572 0.11503 -1.741 -1.0302 0.044615 -0.85437 -1.5804 
shory 1.208 0.48391 -0.75521 -0.67844 0.58723 0.4973 0.67144 0.91687 -0.8559 0.19307 
qotched -0.2391 0.37047 -0.71402 1.1522 -0.45379 0.013158 -0.6702 2.5815 0.79957 0.16184 
ofchdy 0.2922 1.164 0.53842 1.0615 -0.6543 1.1394 -0.38442 -0.62635 1.6352 -0.96378 
chedol -0.71568 0.90771 0.40141 0.97697 -0.52402 0.20652 0.29487 1.5538 0.58426 -0.5405 
olkchedy -0.4106 1.5789 2.0601 0.53856 -0.38652 -1.1987 1.0339 -0.2837 -0.16911 -1.4062 
psheody 0.19249 0.76645 -1.0595 0.62258 -1.614 -0.76775 0.44269 1.0818 -0.082961 0.87403 
otechdy 0.53906 -0.36742 -0.75018 0.78574 -1.3711 -0.50368 0.79159 1.5684 1.44 -0.43523 
kcheody 0.56569 0.89185 -0.1812 -0.90162 -0.65179 -0.13451 -0.044407 -0.13381 1.1369 -0.15135 
chary 0.11812 1.0347 -0.24265 -0.75138 0.13393 0.28888 0.84229 1.2146 -1.106 -0.011876 
ykchor 1.8419 2.2532 -0.58181 -0.2738 0.89649 1.9147 -1.2518 -1.6046 0.20325 -0.1006 
qoeol 1.316 0.80761 -0.34528 -0.29056 0.82072 -0.71929 -0.20453 -1.2522 1.6059 0.13028 
