3410 25
daiin 0.54413 -0.92746 -2.7492 0.78277 0.40855 0.68601 -0.62766 -0.997 -1.22 -0.35318 -0.68965 -0.079027 0.58397 0.79103 2.2402 -0.94325 -0.40585 0.63131 -0.91351 -0.4142 0.11703 -0.22798 -0.74197 -0.89563 -0.21828 
ol -2.4845 3.0853 1.0009 -4.7126 2.0494 0.58085 -1.8991 1.3863 2.2459 0.36254 6.201 2.5223 2.0833 -4.5351 3.2405 -5.0709 1.235 -0.98577 3.9887 -1.2307 0.4324 2.5987 6.8672 1.5228 3.0531 
chedy -0.94961 3.3254 2.3553 -2.6748 -2.4759 -0.011625 -0.35099 -0.27673 2.3586 -1.4143 2.2837 -1.308 -1.7967 0.45499 -4.1444 -2.1321 2.3587 -1.5205 4.0822 1.0512 -0.64889 0.5847 1.3775 -0.0066141 0.22985 
shedy -1.3539 2.3103 1.6477 -3.0462 -0.20705 -0.80425 0.59673 -0.80639 1.3855 -0.52047 2.1283 -3.2286 0.28522 0.013027 -2.9731 -3.5479 1.8118 -2.6698 4.7983 -1.0602 -0.93325 1.1615 1.9651 1.7271 2.6373 
aiin -0.71286 0.48056 2.4931 -1.3261 0.11442 1.0123 0.51223 1.2978 -0.29998 1.3948 -0.26164 2.875 -1.8889 -0.95455 0.18166 1.6163 0.95531 0.32641 -0.56969 1.5153 -0.076718 -1.1981 1.149 -2.7079 -3.7356 
chol 2.2571 -3.3398 -4.7285 1.9713 0.067219 0.97452 -1.6524 -0.24295 -1.5767 -1.1049 -0.17087 1.9557 0.84145 0.23588 6.8104 -1.6458 -1.8447 1.1768 -3.7977 -2.1935 1.2734 0.47549 -1.057 -1.1695 0.32158 
chey 1.2434 1.2377 -0.082811 -2.7234 -0.32321 -0.044903 -1.6637 -0.29806 3.3888 0.7987 2.4971 -0.14798 -2.153 -1.6276 2.118 -0.84893 0.60294 1.2864 2.5525 1.9618 1.4834 1.3462 -1.3334 -0.98756 -0.23382 
or -2.5598 2.2071 1.5766 -3.6678 5.2777 1.8997 0.93408 4.862 -1.8573 1.1235 0.15586 4.2337 -0.92681 -3.1 0.24851 0.22454 -1.4543 0.42918 -1.9836 0.65979 -1.2634 -2.0473 8.2533 -4.2319 -3.9253 
ar -3.1034 0.044878 8.1695 -1.0772 0.61475 0.1915 2.0175 8.0303 -0.98174 7.2047 -1.553 4.0785 -4.1979 -2.9547 -5.3741 1.9358 1.7703 0.91129 -0.28072 2.9813 1.6089 -3.3513 3.4912 -4.4503 -4.5105 
qokeedy -0.96903 3.137 0.89542 -2.36 -0.52357 0.72642 -0.94046 -2.3146 3.1408 -3.1697 2.9224 -3.1597 -0.40855 0.13355 -2.9006 -0.42896 2.224 -1.9387 4.6757 1.7485 -0.65055 -0.42477 -0.053489 0.98822 -1.3105 
qokaiin -0.58976 1.7997 0.99692 -1.101 -1.5044 0.050756 0.19018 0.62337 2.6386 -0.45962 -0.23017 -0.81417 -1.7221 -0.78549 -0.46713 -1.3337 1.3961 -2.9559 1.3155 0.17418 1.6453 -0.29329 0.16208 -1.9743 1.6225 
dar -0.95146 1.3256 -0.65009 0.68499 0.57919 -0.40569 2.1364 2.1118 -3.2259 0.89071 0.17585 -0.35579 -0.75223 1.9496 -1.2142 -0.99372 -1.2457 0.069567 -2.0755 -0.3549 -1.3285 1.8316 2.2385 0.63938 2.1129 
qokeey 0.21513 2.4956 0.067714 -1.4659 -1.1601 0.31692 -1.2578 -2.1196 4.3835 -2.5951 2.0442 -1.9317 -1.3062 -1.5971 0.87734 1.2302 1.3278 -1.2719 4.002 2.5618 -0.096579 0.29881 -1.435 0.91982 -1.7784 
qokedy -0.80499 1.7361 -0.46942 -2.5959 -0.6295 -0.82458 -0.64278 -0.3713 -0.27186 -4.0952 3.9808 -2.9885 -1.1013 1.0748 -4.7409 -2.6084 2.8494 -1.7682 4.062 0.27494 -1.8722 1.0393 2.4139 1.4941 1.3376 
shey 1.2075 0.62215 -0.41759 -1.4774 0.46334 -0.87213 -1.7248 0.38081 3.3523 0.83596 0.7981 -2.4278 0.87991 -4.0088 2.4721 -1.614 1.6054 -0.63099 4.2125 -1.1677 1.3695 1.5026 0.69787 2.855 0.59537 
dy 2.6891 -0.8602 -2.1563 0.16326 1.9585 -6.0336 0.040226 -0.85054 -4.8715 0.65314 2.4959 -2.9972 2.3009 4.6384 2.2605 -3.9543 -3.1558 0.30733 -1.2598 -2.2293 -1.9783 3.8425 0.61501 2.1681 6.204 
dal -2.1061 -1.5788 -1.3322 0.54107 -1.82 1.9796 0.49606 3.3498 -3.7242 -0.62025 0.76109 -1.3715 -2.9091 0.45946 -0.091757 -3.2231 0.10776 0.10289 -0.69625 -0.10663 -4.3523 4.7306 -1.0555 1.8625 2.5129 
s 2.0822 -9.0314 -3.3863 -2.2003 6.1604 3.8295 3.3334 -1.2845 -9.6008 2.9783 3.9065 14.717 -4.4256 -3.0306 12.985 0.58618 0.21333 6.9354 -3.7275 -1.585 -4.5995 -0.51407 3.3929 -3.663 -4.3062 
al 0.75017 1.8432 9.0205 -2.7014 -4.6194 1.289 0.21405 4.9693 2.19 4.0811 1.3304 5.9915 -10.026 -1.7904 -1.1366 6.578 1.7112 2.0886 0.32609 3.0292 1.0494 -1.0641 2.1909 -1.2156 -4.8779 
okaiin -1.554 0.5477 1.4234 0.35125 -0.24 1.0325 0.83511 2.4617 0.66591 0.92719 -0.47227 0.47823 -0.26541 0.59567 0.22164 0.78054 2.1492 -1.6206 1.0041 0.19305 1.9637 0.27087 0.33472 -4.324 -0.91239 
chor 2.2304 -2.8696 -2.7257 0.40811 1.5903 1.2075 -2.6998 -1.8282 -2.0186 1.202 -0.62881 1.6753 2.0259 0.55598 9.9317 -2.915 -2.2822 1.1228 -5.7934 -3.2148 0.049462 -0.92507 -1.6171 -1.5595 -1.6332 
qokal 0.070719 2.0705 0.039537 -0.94985 -0.6621 0.019137 0.26125 2.3347 3.1532 -1.3573 0.76966 -1.3514 -1.7753 -0.10003 -2.2641 -4.257 0.69184 -2.299 3.1875 -1.1203 -0.24002 2.9213 0.52552 -0.50211 3.2444 
shol -0.41619 -3.906 -2.627 2.4825 0.93674 -0.31591 -1.5056 -2.0025 -2.4765 -0.65887 -1.7547 -0.51564 2.1178 -1.0903 4.8666 -1.404 -2.2578 -3.5352 -1.7168 -1.3625 1.2545 0.044964 -0.2814 2.5684 4.5218 
y -4.0646 -0.46944 2.9067 -3.1322 0.04873 -2.7319 4.6501 5.7888 -4.3429 2.807 4.8867 1.4345 -0.54203 -0.39484 3.9661 -0.30874 -5.3358 2.2402 1.9457 0.17669 0.94576 4.2068 2.3048 -3.9257 1.1885 
</s> -6.403 2.2886 3.6342 5.8244 -6.6792 -2.6132 1.4773 5.3082 6.873 0.1738 0.43141 4.5558 10.121 6.409 2.0361 10.808 4.9596 0.96697 -10.497 4.5388 4.1995 1.6111 1.4093 -12.764 -1.0643 
cheey 1.429 2.5643 -0.69888 -2.0403 -0.97246 1.5122 -1.648 -1.1171 2.4825 -0.27049 0.99945 1.3701 -1.9423 -2.2323 0.91145 0.17228 2.1193 0.083727 1.135 2.3076 1.4305 -0.25299 0.0099918 -0.77332 -3.1725 
okeey -0.092042 2.0963 -0.43448 -0.80077 0.044262 1.6003 -0.50417 1.5657 3.0265 -1.7846 2.6091 0.29695 -2.34 -2.5585 1.2868 3.7481 0.73984 1.2606 3.8559 2.6464 -0.77982 1.1027 -1.1345 1.1011 -5.5236 
qol -4.5529 5.3104 0.12977 -7.5225 3.8734 -0.27238 -5.4723 -0.20963 7.1317 0.30614 8.6496 -3.5916 0.28322 -2.8305 2.9597 -7.3 1.3465 -3.676 5.5951 -0.043093 1.9538 4.8855 1.3678 4.8014 5.2146 
otaiin 0.28003 0.79674 2.5172 1.8606 -1.2548 0.10462 -0.064641 0.29471 0.91558 1.8807 -1.7128 0.74101 0.85563 1.1216 -1.0386 1.2373 1.3923 -1.6345 0.36714 1.1465 2.5282 -1.5813 0.57962 -2.9069 -1.5624 
cheol 0.85968 0.95808 -1.943 -0.99659 -2.3835 1.4282 -2.2969 -0.1537 2.165 -2.1638 1.0841 1.9256 -0.85291 -1.6173 2.2608 -0.67492 0.27556 0.13578 0.55791 1.037 0.49243 1.4995 -2.6067 -0.23896 -2.4037 
otedy -0.28441 2.0048 1.652 -0.51195 0.61923 -1.2265 0.96426 -0.43722 -2.0452 -2.1099 0.59932 -2.7975 2.0784 2.1794 -6.5037 -0.019678 -0.52157 -0.69613 4.924 1.1457 -2.5652 1.1113 2.5013 1.5413 -1.7666 
qokar -0.86192 1.999 1.9114 -2.2156 -0.82019 -1.1706 1.8222 2.1062 1.1756 0.62764 -0.81729 -0.47996 -0.37153 0.60389 -3.2234 -4.1459 1.5839 -1.0955 2.234 -1.0901 -0.17532 1.2113 2.7063 -4.0101 1.9733 
chy 0.48176 -3.9719 -5.7038 -4.6541 0.48386 -4.6069 -1.9007 -2.1978 -3.1798 1.7944 0.31009 -1.7268 1.6959 1.8386 7.4086 -3.3416 -2.1194 5.366 -5.3031 0.1759 -0.55113 -0.86864 -1.3389 -5.4806 4.0864 
qoky -0.11787 0.075828 -0.63394 -3.5519 1.046 -1.6254 0.91358 -0.37314 1.1621 -1.8378 3.9159 -2.5255 0.64614 -0.68707 1.6388 -3.7418 2.5934 -3.7289 2.1541 -1.4487 -1.4103 1.4276 1.7105 -0.87161 1.3213 
okal -1.7781 1.0293 2.5245 1.3054 -0.21992 1.693 2.2628 5.6883 -0.27034 0.30302 1.4601 3.1378 -1.3361 1.0706 -2.9111 0.29451 -0.7068 -0.073262 0.17052 0.14761 1.4432 1.5112 3.0524 -3.3899 0.073052 
sheey 1.154 0.4146 -0.59255 0.010263 0.53948 1.4959 -2.7163 -0.70939 2.2625 -1.1795 -0.063055 -0.86508 0.50582 -4.3641 1.3969 0.17596 0.9871 -0.5835 1.8087 2.1763 2.4019 -0.45661 -0.77172 0.84828 -2.6209 
chdy -3.6914 1.2261 1.7171 -3.0428 -0.27958 -2.2113 1.9219 2.3488 -2.766 -1.9461 -0.88658 -1.0722 -2.8093 2.7149 -4.6577 -2.8588 -1.0713 -0.51242 0.23832 -1.2675 -1.0487 1.5493 2.0425 -2.5656 2.5559 
chckhy -0.2001 1.0878 0.16293 -1.4339 -0.29386 -0.68457 -0.52211 2.3905 0.22411 0.78887 1.4185 -1.4716 -2.2011 0.76075 0.38069 -0.8931 2.0916 -0.19421 1.8159 -1.0523 0.4391 -0.56645 1.8022 -2.4942 2.3968 
otar -4.055 2.5033 4.5555 1.3666 -0.24449 1.2043 1.1225 3.7218 -1.2336 1.2451 -1.2263 1.3387 1.2644 1.1716 -4.5454 0.37241 0.71616 -0.64799 0.36341 0.12246 1.1074 0.66457 2.565 -1.6234 -0.2319 
saiin -0.5002 -0.45179 0.17852 -1.3587 0.67658 1.7687 -1.0051 0.33168 1.6233 -1.8763 1.4019 1.7852 -1.7843 0.21177 -0.31264 3.1252 1.8397 0.014055 1.851 -0.45436 0.72928 0.1129 -0.46382 0.21443 -0.14572 
otal 0.41282 -0.40098 4.1148 2.0804 -0.061828 -0.85567 1.6788 3.4198 0.82905 0.19685 -1.2584 1.4825 -1.9013 0.20698 -3.7691 0.91439 1.0662 -1.8958 2.4826 0.38623 2.7953 2.0662 -0.47309 -2.1812 1.115 
qokain -1.0691 3.2572 1.961 -1.1924 -0.90367 -0.38032 -0.46055 1.0908 2.3411 0.9582 3.6587 -2.0189 -0.72922 -0.80322 -0.12706 -3.0265 3.9711 -1.1893 4.3342 -0.30123 0.30481 -0.14251 1.0615 -0.95605 4.2965 
oteey -1.0702 2.0978 2.0371 -1.017 -0.61716 0.15598 0.57741 -0.37539 2.4051 2.4282 1.09 -0.55856 1.7067 -0.65222 -0.20708 5.1607 -0.96476 1.8144 3.1709 2.1151 1.6098 0.29829 -3.103 2.8626 -4.9442 
okar -0.47768 1.3282 3.9761 0.36874 -0.23637 -2.7639 1.814 4.9959 -1.9366 0.55005 0.92674 3.0163 -1.6064 3.0839 -2.647 0.89578 1.5444 -0.69576 0.64509 0.10392 -0.50882 1.0046 6.5826 -5.2737 -2.1337 
okedy -0.84197 3.1028 0.71599 -2.2554 0.67319 -0.66324 2.8463 1.1302 -3.1022 -3.2638 5.1408 -0.23549 -0.44864 0.8974 -5.9293 -0.20589 2.6029 -0.40463 4.8298 1.5159 -2.3693 3.9276 4.371 1.5958 -2.139 
sho 1.6708 -6.9028 -7.2738 2.7352 -0.085601 -0.48182 -3.3997 -5.2061 -1.962 0.08949 -3.6766 1.1671 3.7907 -2.9708 8.6495 -1.7574 -5.8458 4.6437 -4.3485 -0.12732 0.60931 -5.7381 -6.1064 1.2287 2.6565 
dain 0.16918 -1.5659 -1.9625 1.0415 1.3957 -2.0754 0.37058 -1.1709 0.36495 1.6515 1.2838 -2.7386 2.7175 0.039566 3.3879 -1.0283 0.71559 3.5544 0.19665 1.1574 -0.75885 0.56149 0.56583 -0.95835 3.6507 
qokai!n -1.6845 3.4571 1.255 -3.1399 -0.16004 -0.2579 -1.8237 0.40242 4.4408 0.90535 1.3637 -1.5025 -0.049715 -2.4849 -0.49124 -2.2092 2.7256 -1.541 4.8011 0.79327 2.8778 0.16791 0.51249 -1.2134 3.1515 
oty -0.84956 -0.88322 -1.428 2.926 4.3361 -3.2063 1.9656 2.4063 -2.4965 4.163 -1.3325 -1.4504 5.1036 2.8101 -0.36492 -1.4669 -3.2016 -0.3689 1.9955 -1.7152 3.6447 3.003 1.5951 0.048625 0.74316 
r -2.2621 -0.94197 -1.774 -10.668 4.302 -0.7065 -4.9026 -4.7131 4.038 3.6151 10.303 7.033 -10.024 -2.6144 11.43 2.4674 9.1115 2.9168 -3.4882 0.25853 -1.555 -5.0404 -0.52939 2.6437 0.39826 
lchedy 0.79754 4.1683 2.1123 -3.4794 -1.5105 0.86125 -0.90459 -2.894 3.3593 -2.3811 2.745 -4.3544 -2.5876 0.20412 -1.8447 -1.7345 3.9424 -2.9204 4.6729 0.36655 0.82391 0.45441 -1.2693 0.45917 0.24569 
okeedy -1.2205 2.0934 3.1584 -1.8274 -0.74529 1.9745 0.36305 -0.19703 1.2906 -2.1819 3.2128 1.2155 -0.28671 -1.0072 -3.8349 1.4955 1.1175 1.2995 5.5489 2.5457 -1.1662 0.67103 1.838 0.14794 -1.5162 
dol 3.7921 1.6354 -7.1513 4.7371 1.6943 3.4821 0.36619 -4.3521 -4.1158 -2.7004 1.1973 -1.2459 6.4792 2.5799 2.0554 -4.3483 0.15162 0.68653 0.86154 2.1518 -7.0766 2.7841 -0.17349 -0.20063 2.5883 
qokey 1.9873 1.7361 -0.51805 -1.6939 1.2198 -0.22952 0.9714 1.587 2.0895 -1.4497 4.6103 -2.218 -1.5173 -1.9197 0.79324 0.761 1.1949 -0.26256 4.9593 0.75924 -2.2062 3.1993 0.91505 2.3924 -0.6827 
cthy 2.4167 -3.0841 -5.5068 1.8032 3.9982 -2.9764 2.3071 -0.63721 -1.8952 1.6173 -0.86657 3.0967 1.7138 -2.0113 8.1466 -3.9031 -2.406 2.0821 -5.0983 -1.174 -0.072467 -1.8482 -1.167 -3.9094 4.1232 
sheol 0.85453 5.5635 -2.8171 0.75898 0.29281 2.6036 -1.8165 0.88707 1.7911 -3.1815 -1.9873 -0.032003 -0.078567 -2.7993 2.2933 -2.5881 -0.39106 -3.1363 1.2016 -1.8676 -1.0968 1.4717 -2.5854 1.8748 -0.3701 
qotedy -3.0677 2.1942 0.76817 -2.2011 -0.27449 -0.32517 -1.2298 -3.537 -0.27476 -1.9048 0.16412 -4.2641 2.2942 2.7558 -4.3677 -1.0105 0.18023 -1.3166 4.6389 1.4188 -3.9899 0.59248 -0.83271 2.5037 2.9778 
o 1.0428 -7.295 2.4667 -5.7011 0.027212 -2.8973 0.12527 -3.4718 -2.7621 4.4458 7.5518 0.013949 -6.1162 3.1673 4.4745 9.9194 -1.2106 7.783 -1.71 3.015 2.5745 -2.5555 -0.35846 2.5391 -3.418 
dair 1.0331 -1.9128 0.6482 1.5808 -2.039 -0.28738 1.4045 -1.4864 -0.5201 1.1352 -2.322 1.3905 -2.4209 3.2152 -1.9661 -1.2391 -2.104 1.5786 -3.1023 0.85093 -1.1155 0.36048 -0.45168 0.52449 -3.8818 
qokol 0.18033 1.0482 -6.0157 1.4492 -1.3437 2.0372 1.0443 1.1121 -1.0537 -3.2916 -0.31596 -0.97375 1.3802 0.23812 0.34709 -4.3521 1.3552 0.07823 -0.54236 -3.9307 -1.3643 0.4711 2.535 0.33748 0.98086 
l 0.82967 -1.227 2.629 -6.1146 -7.4928 -4.995 3.6259 -1.3485 10.162 3.9514 8.3539 -2.3429 -12.863 -6.8893 4.7249 4.4775 6.0327 3.4867 4.7723 4.9223 3.0216 -6.0677 -3.529 1.1485 -1.0392 
shor 1.0067 -2.3166 -2.2837 2.6764 0.91894 1.8468 2.1078 -2.8875 -2.8726 2.085 -6.8019 0.29034 2.1793 -2.5558 4.4417 -3.9253 -1.5459 -1.6075 -4.0616 -1.7519 1.8457 -0.57714 -0.25523 -0.94193 3.1132 
shy 2.0669 -0.99081 -1.6167 -4.0934 2.4269 -4.1084 0.89202 -4.6003 -1.0798 3.0907 -0.57223 -3.9028 2.0774 1.5452 7.0253 -8.5155 -0.94533 0.57926 -5.814 -4.4163 0.018884 3.478 -1.6585 0.61389 2.9572 
oteedy -0.045821 2.9828 3.4316 -1.3247 -2.106 -1.3616 -0.38958 0.67438 2.6138 -0.90206 1.8073 -1.9827 1.8782 -0.034116 -4.766 1.88 -0.25965 -0.10387 3.1794 1.3846 1.1514 -1.1513 -0.86634 1.356 -3.6909 
oky 0.93085 0.35983 -1.3038 2.5186 3.1421 -1.6254 0.83987 4.3037 -3.7804 1.689 -0.79009 -0.35346 -1.4717 2.1167 0.8113 0.28777 -0.23979 -2.3277 -0.95943 -1.3337 1.686 4.3202 2.1436 0.23135 2.079 
cheor 3.4797 0.0099986 -1.8634 -0.50895 0.92867 2.1118 -1.536 1.5364 0.91342 1.3553 -0.31294 3.304 0.50474 -1.5232 5.174 0.96955 -1.5208 1.6154 0.07797 0.42212 -0.81233 2.7765 -1.555 -1.2067 -4.8291 
dam 2.1775 -3.4211 -2.4012 3.7137 -2.9725 0.29004 6.9673 0.15226 -7.4186 -4.2176 -0.64081 0.6464 0.1554 -0.33328 -2.463 -5.8413 -1.4548 3.3799 -4.5386 -1.1318 -2.0822 2.6124 1.0447 -1.0892 1.4001 
chody 0.57756 -1.7923 -2.5613 2.3443 -0.82736 -1.1432 0.65985 -0.81558 -4.0998 -2.6202 -2.1813 3.6719 -1.422 3.2189 1.2734 -0.2162 -1.9408 1.4037 -2.5973 0.015326 -0.30917 1.5618 -2.3124 -2.9548 0.50781 
qotaiin 0.24919 2.0975 1.7041 -0.74108 -3.0212 -1.373 -1.2045 -2.2423 2.3899 -1.0358 -2.6656 0.83049 0.91928 0.60505 -2.3261 -1.727 0.52901 -1.8054 1.0282 0.15058 0.5946 -3.118 -0.89556 -2.6438 0.47336 
qoty -0.70499 2.1156 -2.5778 -2.648 -0.78393 -5.9973 -0.806 -5.2401 0.010493 -0.92774 -2.3047 -0.61886 1.1957 -0.465 0.98123 -7.3713 -3.8286 -2.9213 3.1959 -1.3156 0.88235 -1.5534 -2.1605 0.50876 5.2035 
sheedy -1.1775 2.8302 1.2516 -2.2695 0.0099916 -1.6327 -0.49864 -0.82693 4.2285 -2.5502 0.82757 -0.94331 -0.98862 0.024342 -4.4479 -3.2155 3.5941 -2.1997 3.2661 -0.68956 -1.3833 -0.63989 0.75443 0.64177 -0.6342 
am -0.49162 -2.7888 8.2554 -2.1596 1.8811 1.4602 5.1593 4.4416 3.7505 1.5805 -3.4442 3.1402 -7.154 -1.8788 -8.1098 5.1341 -3.2709 3.8456 -2.4558 1.5324 4.6311 -1.8172 0.20499 -2.4861 -2.5798 
kaiin -0.20923 -0.2825 1.6972 -0.91537 -1.8108 -1.078 -0.052245 1.0514 1.3823 -0.14016 -2.9927 1.0229 -1.6704 -1.4296 -0.51036 -0.95752 1.8302 0.61216 -0.43388 -0.53167 3.0602 -0.82916 0.024059 -4.3369 2.8624 
cheody 1.7279 0.53902 -2.2598 2.3498 -2.1921 0.91826 -0.40641 0.023165 -0.67364 -0.76784 -3.0739 4.0178 -0.14072 0.88215 -1.3325 2.0455 1.544 -0.62638 0.18151 2.899 -1.6495 1.095 -1.8977 -1.6602 -4.9148 
otol -1.1302 -1.6777 -2.4898 4.6806 -1.3038 -2.0484 -0.35344 1.4531 -0.35484 1.3926 -1.4558 1.6646 5.9786 2.911 1.1826 0.49332 -2.2218 2.031 1.594 -2.1372 -0.97379 -0.097114 -0.66847 0.87466 0.12038 
chcthy -1.3587 1.6354 2.1731 0.32587 -0.67822 -1.3767 1.265 -0.73065 -0.019044 1.8565 3.6317 -1.5363 -0.82959 1.0196 2.0147 -3.2572 -0.8301 -1.7639 2.1921 0.036656 2.4134 -1.6038 -1.6965 -1.7621 2.0658 
qoteedy 0.65562 2.3882 1.6777 -3.3183 -2.9479 -1.0617 -1.9751 -3.5138 2.3383 -3.7259 2.2244 -2.6101 1.3493 -0.39515 -3.6713 -2.3124 1.0666 -1.1017 3.498 -0.17997 -0.65387 -1.5419 -0.40746 2.5787 -0.71571 
char -0.65968 -1.4414 0.82424 -1.5135 -3.1382 -0.26479 -2.1824 3.1311 -1.5734 1.9822 0.94364 0.53882 -2.3625 -3.3588 3.2802 -0.75495 -0.17788 -2.5049 -2.8663 2.9349 3.7769 -0.013293 -0.11784 -2.4995 -0.42528 
sar 2.3525 1.1248 4.6369 -5.3957 -2.5824 2.642 -2.0322 4.5243 -0.1649 2.4054 1.8488 4.6009 1.6388 -2.7087 -1.6517 2.6377 -3.3019 0.31246 1.0483 -1.195 -1.9766 -1.5563 1.4511 1.4133 -3.0194 
qokchy 0.40512 0.93368 -3.6459 -0.11101 2.0368 -1.6583 0.62119 -0.55012 -2.2189 0.14543 -0.65409 -0.43677 1.4888 1.2537 1.8401 -1.5195 -0.033613 -1.9708 -2.202 -1.6807 -0.47631 -2.6612 -2.3173 -1.8527 3.0881 
okol 2.1449 -2.4786 -4.5869 1.4706 -3.36 4.028 -0.82821 5.3085 -4.2369 0.11942 2.3518 3.4107 1.5448 0.012176 5.051 1.9208 -1.7247 0.36999 -1.7533 -1.7112 -2.6365 4.2409 1.3643 1.4343 0.82221 
cheo 4.0733 -0.25243 -1.2648 0.20135 -4.3908 1.7421 -1.9758 -3.3672 1.4908 0.64623 -0.59088 3.3028 -2.4233 2.2231 1.5619 2.3736 4.6083 2.7797 0.46245 0.70724 0.31918 -0.8881 -1.4519 -1.1353 -5.9612 
air -2.0233 -2.5491 4.5417 1.5532 -2.5167 2.4161 3.8747 4.5792 -1.8971 5.6321 -3.7707 6.0249 -3.692 -0.071853 -5.1971 4.2086 -2.0392 2.3146 0.35029 3.0562 -3.1081 -3.5007 0.23382 -1.9682 -4.4718 
dor 4.2054 -1.0275 -6.0205 -1.8101 2.8037 4.8413 -2.8542 -4.4096 -4.6699 -4.5467 -0.06141 -3.2364 2.2704 3.9725 6.0088 -3.2262 -4.8777 -0.51796 -8.1391 -1.795 -1.6289 0.53126 -0.74268 -1.8244 -0.76573 
okain -2.831 0.26183 1.2566 -0.16544 0.75635 0.10255 1.2859 2.7534 0.39365 2.7243 2.097 0.25641 -1.9613 -0.73235 1.1135 0.83709 4.0696 -2.3691 4.6884 2.1413 1.7958 0.90237 1.4452 -3.8814 0.92128 
raiin 1.9568 3.0385 1.229 -3.2984 -2.9251 1.46 -1.8605 -1.9263 2.427 -1.2885 -0.81446 -1.5819 0.68046 -1.3402 -0.85149 2.7183 3.3744 -1.4719 0.73834 1.2013 2.6103 0.4924 -0.291 -0.28856 -1.8356 
qotchy 1.9612 0.77924 -3.9993 2.0845 0.61754 -2.5243 1.5362 -4.1839 -1.8045 1.8992 -1.25 -1.014 1.1898 3.6587 3.3267 -3.6776 -1.2295 -1.1431 -3.937 -1.4359 1.7227 -4.4258 -2.5615 -2.8054 4.2053 
cho -1.4012 -2.9985 -5.4943 1.262 -0.26857 -0.15795 -3.142 -5.6712 -2.0623 -0.97581 2.0748 3.782 -0.29602 2.1881 8.314 2.2242 0.46787 6.4376 -7.4525 2.1449 1.9886 -2.0955 -6.3894 -0.4906 -0.14335 
qotal -1.8522 1.2764 -0.75683 0.9241 -0.96377 0.51957 -0.90317 0.44413 1.2362 -0.67071 0.015637 -1.9653 -1.585 -1.2524 -4.1303 -3.969 0.19736 -2.532 4.355 3.0815 1.4602 -0.055563 -4.1664 -0.64742 4.1224 
sol 1.696 1.8822 -1.5044 -4.2098 -3.542 2.5854 -3.12 -3.0192 5.0647 -3.3326 7.3742 5.5579 -0.51989 1.2075 0.7803 -9.9687 2.7646 -1.9184 1.5705 -5.6007 -2.4955 1.5225 0.91087 3.9134 -0.76371 
cheky -2.4366 3.4042 0.083347 -1.9705 -2.0129 2.5795 -0.14157 0.93517 -3.9564 -2.0107 2.9581 2.6424 -0.64394 4.1134 0.2962 1.6269 0.3142 2.3163 1.5168 -1.5909 -0.32909 2.0381 -1.9366 -2.3799 1.9224 
okey 0.23833 0.83752 -0.21007 2.7164 1.2738 -0.59386 1.8591 2.8858 -1.5347 2.6849 7.2343 3.0262 -2.7733 -1.3565 2.6499 3.2238 3.1902 4.9962 5.0283 1.9311 -3.9212 4.0727 0.66021 6.2889 -4.3049 
qotar 0.36433 2.8984 4.206 -0.1737 -1.9525 -4.6241 0.89884 -0.19285 0.90244 1.5739 -2.234 -0.56601 0.077397 2.5866 -4.7944 -1.1506 1.8797 -2.0979 1.5086 0.35138 -0.3341 -0.77206 0.2154 -1.8638 1.5534 
keedy 0.18393 0.95377 2.4257 -4.0073 0.44098 -1.7833 -1.1276 -0.39597 0.71355 -2.5458 2.957 -1.1203 0.061491 1.0978 -4.2877 0.74499 1.9928 -0.708 4.174 0.37895 -0.75615 1.7797 1.2365 0.7815 0.13089 
cheedy -0.86502 5.8908 3.0953 -2.4455 -2.123 1.4372 -3.2553 -3.3158 2.9776 -2.8325 0.29009 -1.1564 -4.1354 0.66357 -1.936 -2.6784 3.0924 -0.10721 4.2277 0.21774 -0.99929 -2.0653 -1.1055 -0.33826 -1.4708 
cthol 3.6671 -4.2044 -6.9352 6.0285 0.43684 1.0753 -1.5685 -0.68866 -1.8553 -1.0649 1.7726 1.0637 4.5456 0.67228 9.2678 -0.39247 0.96341 -2.4824 -5.5683 -1.0028 1.1675 -1.3335 -1.804 -1.6695 3.2341 
okeol 3.615 1.2365 -3.504 1.897 0.27674 3.6226 -2.8118 2.3579 -0.41438 -2.1247 0.78643 3.9154 -3.2433 -0.1246 4.073 4.2081 -0.14752 -0.25123 -1.0301 0.0081022 -1.8023 4.1033 1.7277 4.0491 -4.9139 
shckhy 0.74656 2.0596 1.0026 -0.96841 0.76032 0.64452 0.74709 2.8103 0.94336 2.8972 1.7098 -0.60835 2.4231 -1.5296 0.28099 -1.1726 4.0483 -1.9462 5.1057 -0.76604 -1.5534 2.3979 1.2954 -0.86487 2.7091 
dai!n 2.9222 0.60348 0.49228 -2.411 -0.94268 0.11097 0.14552 0.97281 1.9216 -1.6285 1.218 -1.7623 -1.0333 -0.81419 -0.96299 -0.73802 1.3381 -0.26231 2.4754 0.63427 1.7771 3.5228 1.8638 -2.0136 0.41355 
odaiin 2.3323 -1.2989 0.6549 2.1112 -1.2936 0.59599 0.8419 0.60681 0.056302 0.83081 -2.7728 1.9444 0.01905 2.1625 -0.19161 2.3516 -3.9532 0.20132 -2.9946 2.3572 -0.12515 -0.9523 2.7033 -3.275 -1.6099 
kar -1.7442 2.2701 4.7137 -0.19295 4.3368 -1.3596 1.9654 8.0051 -5.9395 0.96172 -4.818 1.1318 -6.0183 -3.3242 -2.9133 -2.0761 3.5183 -3.1643 -1.2357 -3.6724 3.1912 -1.4482 6.8353 -4.2476 -2.08 
oly -4.7673 0.63585 0.86385 2.3051 5.3855 -3.5608 -2.3228 3.188 -0.42315 5.073 9.6242 0.32686 5.2586 2.0458 0.40674 -6.028 3.6339 -3.3383 5.0172 -0.65866 -0.31541 3.4682 0.20039 4.9853 1.589 
qokchdy -0.59036 0.60944 0.38186 -3.573 -1.0013 0.56109 1.7066 1.9657 -3.7137 -0.72722 -0.83998 -2.4689 -0.14503 1.1061 -6.7037 -1.1067 3.2838 -1.0284 -0.49005 -0.81641 0.012385 -1.1748 3.2992 -2.9824 3.196 
otey -1.7034 -0.54981 5.0679 2.631 -0.62845 -0.69544 0.53155 1.139 -1.2217 2.974 1.0359 -3.1407 2.932 -0.5023 -1.3064 0.54286 -2.9899 -0.72725 5.9881 1.4534 0.71068 3.3362 -0.7615 4.9018 -2.0161 
okai!n -3.3427 2.4927 0.74694 -2.6263 -0.38343 0.57259 -1.0432 1.511 4.2819 1.9515 1.0674 0.34657 -1.911 -1.1005 -0.81358 0.38399 4.3516 -3.1885 5.9944 3.4429 4.6216 1.4119 0.70352 -4.1533 -1.0663 
ain -1.2204 2.1678 4.3853 -4.3503 3.6436 -0.73125 -0.48448 3.2987 -0.24689 5.562 1.7385 0.5595 -2.1583 -1.2465 -0.78187 2.9308 8.8291 4.4156 2.619 -1.0584 0.97403 0.99543 4.7448 -0.48466 -1.9174 
ykeey -1.3568 0.19082 -2.6241 -0.50868 -0.46239 1.8311 -0.7012 -0.19412 -2.404 -0.16339 1.3086 -0.0005888 -0.86985 -2.5035 3.5763 1.2554 -1.8567 0.73011 2.5063 4.2472 0.96352 0.14763 -0.46097 -1.2666 -5.093 
checkhy -0.2652 1.22 -0.56243 -3.0324 -1.5198 3.3022 -4.124 0.22493 0.97417 1.0821 2.2399 -2.4883 -2.7866 -0.33971 0.1632 0.12935 2.2621 -0.74088 4.4249 4.1724 0.24498 1.9819 -0.40037 -0.99373 1.5288 
shody -1.3376 0.20612 -1.7193 6.1676 0.64825 -1.021 0.22918 0.26939 -3.3119 -1.8805 -6.2934 2.9127 2.2495 -2.1472 -0.28748 -3.1342 -0.078744 0.78627 -1.6445 -2.0144 -1.1088 -2.313 -1.3568 0.73373 -0.83128 
chear -1.1648 1.8002 3.7646 -0.57912 -0.038161 2.2281 -1.27 2.3819 1.3801 4.2471 0.10547 2.108 -1.4722 -4.1029 5.721 0.31611 2.3048 1.8487 0.89826 2.9109 0.60196 3.0199 -2.3673 -2.652 -1.2909 
sal 4.1971 2.6172 -0.76646 -3.2004 -0.34431 0.7263 -5.2284 5.9028 -2.096 1.5135 2.5157 0.89897 0.066586 -2.7449 1.65 -2.2101 1.2763 -2.8595 0.97567 -1.265 -8.6364 0.47766 -2.3294 2.5693 2.298 
lkaiin 2.438 3.1224 1.7978 -1.4367 -3.4922 -2.6465 0.74943 1.0709 2.7772 1.4913 -1.4867 2.1194 -2.9381 -0.10896 -0.6432 3.1727 5.3606 -3.3571 2.0004 -0.038638 4.3898 0.68755 -1.7603 -2.5772 -0.48871 
cthey 1.7063 0.15357 -4.3941 1.4552 -0.18559 2.1369 2.5263 -1.3591 0.19665 -1.1033 0.16859 1.9532 -0.73723 -2.4652 4.7958 3.0253 -1.8404 4.1871 -1.3224 2.9545 -0.7513 -1.4391 -2.5825 -1.9522 -1.5197 
keey 1.7345 -0.28539 -4.271 -0.95986 -0.40098 -1.3249 -2.8924 0.80422 1.7063 -2.707 3.0897 3.0181 -3.6738 -3.3618 3.1921 2.267 -0.27424 0.64348 2.2493 3.2161 0.67622 0.33612 -4.5045 1.4787 -5.5786 
olaiin 0.1076 0.23158 2.2704 0.40329 0.65212 4.0539 0.75254 3.9558 3.4369 0.73187 0.24038 -0.10766 -1.1246 1.161 -1.6402 3.9367 0.33943 -0.80004 0.89447 -1.3417 -0.38853 -0.34429 2.6689 0.017486 -2.2665 
opchedy -1.1389 1.3024 3.0744 0.86571 -0.30712 -1.064 -0.010448 -1.5581 -0.24576 2.6774 -3.437 -1.7293 0.50254 1.3555 -5.6364 -0.48711 0.16221 -2.8546 3.3867 -0.866 1.4541 -3.5036 2.8562 2.8238 0.96213 
sheor 1.1463 4.1847 -3.322 1.2502 -1.5046 0.35607 -0.34096 -0.36639 1.4006 -0.51565 -2.0157 2.6968 2.4848 -3.5324 5.4895 -0.32294 2.7303 -1.0363 1.3228 -0.67399 0.21082 1.2044 0.77534 -0.55229 -2.2363 
kedy -1.2619 -0.55051 -2.5038 -2.4777 -4.7877 -3.7204 -0.56722 0.44142 -1.9654 -0.71023 5.5331 -0.27517 -1.0694 0.84581 -5.4235 -2.7056 2.7661 -1.3122 5.2024 3.5868 -3.0007 0.7773 5.8852 2.2154 2.2079 
qokeol 3.123 0.34314 -5.1497 1.1118 -3.4255 2.061 -0.32861 0.23786 2.3653 -3.0622 0.063484 1.4938 -0.99443 -1.6214 4.2778 2.3186 -0.54676 1.256 4.3194 1.489 -1.7642 4.6445 -2.5208 0.73059 -2.9243 
tedy -2.5905 3.9509 5.6559 0.33915 1.2248 -4.5828 -0.68228 1.6644 -2.3935 -3.6771 5.2016 -3.5136 1.4453 1.0661 -4.1776 -3.6801 0.62796 -3.4722 3.499 0.059995 -3.9313 1.9634 7.4544 3.5494 3.6956 
d -8.5692 -5.7465 -5.7104 -9.2849 16.427 -6.8316 1.2558 -6.9066 0.52231 12.394 16.349 -2.8825 -7.1888 -3.4861 19.428 5.1277 -1.1465 9.2087 -7.8612 4.1632 -1.7875 -16.049 1.5613 6.4423 2.072 
tol 4.4647 -2.5773 -10.373 -0.043947 -2.8724 -2.7733 1.163 1.5296 -0.98091 -4.3339 -1.0686 4.8494 5.5196 2.0672 -3.5718 -4.1302 -5.3489 -2.7092 0.30709 -3.6135 -2.2939 0.63766 -6.1055 -0.30532 6.0977 
sor 2.3328 1.73 4.1195 0.28799 2.7945 -1.7867 2.1511 2.7693 -0.089312 5.6274 5.1379 3.0507 3.1689 0.072202 2.1431 -7.2316 -1.5012 4.6771 1.2203 -5.69 1.9055 -2.1043 -2.2162 -1.77 -1.2276 
cthor 4.1228 -1.7431 -3.4948 4.5531 4.3646 -1.4321 -0.90299 0.11771 0.68087 5.5805 -0.97053 -1.2673 5.4396 3.5728 11.744 -2.7298 -0.40154 -0.38184 -4.0636 -1.5364 -0.92672 -1.4179 -1.0408 -7.029 0.99828 
otchy -0.73392 -0.69259 -2.4248 -0.50281 3.1242 -4.3392 -0.49081 -0.11393 -5.6807 5.657 -0.86473 0.29154 2.3961 2.6284 1.9055 -1.2741 0.070159 1.2867 -3.5835 -1.9119 0.42855 -4.112 -1.5735 -0.65636 1.5147 
chal 0.45486 -2.3041 1.2634 1.6577 -5.8742 -1.4542 -4.9564 7.3533 -0.61415 0.068087 2.5653 0.67633 -2.5876 0.96718 2.7721 0.77603 0.25231 -2.6089 2.7297 -2.3875 5.7383 0.69878 -0.15033 -2.0869 -0.076145 
qotol -0.17628 1.9276 -7.3445 -2.3975 -0.17558 -1.9475 1.7752 -2.1632 0.069096 -2.4166 -1.6377 -0.21453 4.3748 3.3756 0.92171 -2.615 -1.4607 -4.1489 -1.7926 -2.6671 -3.4757 -1.2619 -5.9271 -1.9304 1.6571 
shdy -0.33888 2.3574 5.6319 0.91726 -0.32544 -3.4487 1.7147 -2.6938 -2.7298 -3.983 -2.4504 -4.1845 1.1593 1.9282 -0.85838 -3.1419 -1.5572 -0.73914 2.4387 -3.1495 -5.7487 1.5862 1.4036 1.5619 6.2789 
taiin 0.38498 2.0461 0.43532 0.18959 -2.3626 -0.72721 0.1015 2.8264 2.1816 -0.94627 -2.2166 -3.7764 -0.68459 1.1587 0.27442 0.15791 0.25685 0.66652 -0.51994 0.28808 2.5542 -3.0784 -0.95841 -7.7768 -2.8314 
chaiin 2.2418 -2.1082 -1.3943 0.84571 -1.5958 -1.6312 -2.5183 -1.7524 -0.34704 1.1429 -1.6339 1.0204 -1.1308 0.46502 7.3103 -0.9557 0.40368 1.1752 -3.0714 2.5101 2.5065 -2.6482 -2.0259 -8.2407 1.6549 
sheody 1.7855 -1.179 -3.1313 1.8064 -0.68829 -3.2303 -1.6556 -0.7266 -0.83714 -3.8688 -6.4301 1.5683 0.0004153 1.0033 -2.6121 1.6584 -1.348 0.050733 -0.12341 0.18736 -0.030158 0.17642 -1.0274 -0.014645 -3.1977 
otam 2.3005 4.7104 4.4054 4.3593 0.27682 -1.0034 2.8701 2.4763 1.2904 -4.1314 -1.4026 1.3073 0.66409 -1.0673 -3.7458 -2.1457 -7.0386 -0.04155 0.32309 1.4672 2.4197 -2.1784 -0.51154 -4.972 -0.36953 
sheo 0.51816 -0.024365 -2.298 0.5544 -1.023 -0.94646 -5.9693 0.52466 0.18767 1.8736 -6.6683 3.6431 -1.0262 -1.955 3.5772 4.5297 2.3345 -0.93255 2.1537 -0.21158 -0.76153 -1.4314 -0.72732 1.8689 -2.5013 
ykaiin -3.9321 2.8199 1.6408 0.5419 -1.2798 -1.7733 1.6889 2.0282 -2.067 1.2321 -1.8253 0.94854 -1.1861 2.3555 -0.0043829 -3.3021 -0.27874 -2.405 -4.0404 0.86955 2.9763 0.8175 2.1386 -5.5228 -0.92691 
tar -3.4962 -0.41975 6.3159 -2.5001 3.8875 -5.5094 -2.3046 5.3245 -1.824 2.747 -3.6312 -0.8695 2.3421 -11.402 -2.1404 -4.8537 0.52303 2.4692 -0.38309 4.6009 0.57191 -3.8509 3.9852 -3.7669 -0.31684 
lchey 2.4139 6.702 0.73984 -2.1531 -1.0351 1.1682 -1.3142 -2.9457 2.3451 2.2858 2.2962 -4.6063 -1.0192 -2.0546 0.6257 -2.4701 6.3836 0.6224 2.4472 0.15598 3.987 0.07288 -3.7028 1.8059 1.0105 
ody -2.4768 0.57635 0.04966 0.21466 6.6703 -5.6078 -0.062912 2.9534 -6.3204 0.12853 -4.4905 4.0045 -1.784 3.5786 -0.84702 -2.5736 -6.5831 -0.80628 -1.1677 0.44909 -1.7741 3.1503 1.3259 -2.771 -6.2208 
otai!n -0.069752 3.3519 2.5462 0.28812 -1.9709 -0.37066 1.5708 1.6058 3.3461 1.5452 1.8081 0.54054 -2.6362 -3.0384 0.06894 0.011876 3.4276 0.14721 4.4349 -0.42658 6.1171 -1.5854 1.269 -1.1519 -1.5521 
olkeedy -0.59978 3.1819 3.6854 -0.65311 -0.23307 1.3715 -0.9042 0.77724 2.6703 -5.3709 -1.43 -1.116 0.6251 -1.2077 -4.6492 -1.2954 0.31399 -3.1162 3.0568 1.865 -1.0897 0.72127 1.9859 -3.1465 -0.44692 
ytaiin -0.50886 -1.4727 3.8791 1.708 -0.34728 -2.5496 3.5269 1.2368 0.88397 0.047195 -3.9495 4.4331 0.93327 1.2332 -1.9378 -0.21335 -0.14057 -4.7124 -2.7799 -0.58206 0.54484 -3.2897 -1.7656 -6.4998 0.23723 
chodaiin 0.90756 1.0804 -2.2076 2.7457 -0.56971 -0.061089 1.9491 -0.40607 -0.24024 0.34324 -2.9431 2.516 0.083298 0.47527 0.90065 -2.0025 -1.8998 2.5483 -2.8007 0.29549 0.61767 -0.062471 -3.3925 -2.5693 1.2444 
qoteey 1.9166 5.2667 -0.51658 -0.23309 -1.5783 -2.1432 -1.0893 -6.6308 0.47876 0.084088 -1.8786 -2.9635 2.6497 -1.0233 0.71184 -0.014064 0.2216 0.80472 3.9831 2.0727 1.7496 -3.3372 -2.7255 1.0435 -1.6144 
lol 6.5886 -2.1907 -3.6646 -9.1377 -0.85861 -5.059 4.5921 -1.9575 4.9927 2.2403 8.2124 -0.61813 0.74816 -3.1761 -3.2296 -4.2824 7.6628 -8.1894 6.7569 0.50538 -0.34057 1.3453 0.40076 0.67584 3.5121 
oteol 1.7058 0.013336 -1.5684 1.3986 -0.53289 3.7615 -2.6646 1.0173 -4.2768 2.3514 1.363 0.51898 0.67356 -0.59744 1.4925 4.4841 -0.79991 -1.7732 -2.1519 2.0929 -3.8086 0.23391 2.5629 7.4431 -2.5978 
olchedy -3.3526 4.7791 1.4799 -2.3249 -3.2314 1.1665 -1.8988 0.87209 0.97111 -1.7509 4.8026 0.20802 -1.1299 0.81874 -1.1192 -1.7472 0.17001 -4.2244 2.8877 4.4785 0.30397 3.8155 2.188 -0.97701 1.6715 
olkeey 0.64579 4.1661 0.4877 -3.3235 -1.2607 -0.68871 1.4244 -0.58161 5.2319 0.022246 1.593 0.12486 -0.63501 -1.7419 -0.011383 1.1681 6.4034 -0.077067 3.2003 1.382 -0.11577 3.0463 1.7442 -1.1242 2.5462 
qodaiin -0.72731 -0.64693 -4.5541 0.90555 -0.85283 0.85777 1.3734 -1.0977 0.95752 -4.0336 -2.1898 2.8179 0.58303 1.9926 -2.2788 0.63603 1.497 -1.0903 -3.8846 -0.3268 0.83406 -3.3513 1.7056 -3.535 -1.8892 
lshedy 1.8365 6.0694 0.21853 -6.5253 0.757 0.051798 3.0423 0.39723 1.9121 1.1997 3.8256 -4.1057 1.1216 -2.1255 -0.8754 -3.6571 1.8654 -0.99832 2.8312 -1.0865 -5.1051 0.77133 -0.61846 0.85181 2.3475 
dshedy -1.3405 5.5069 2.139 -3.2225 3.1943 -0.46059 2.8128 -3.0405 -0.97029 -0.61071 2.9468 -5.5654 0.40527 2.9171 -3.6087 -4.0083 1.9072 -2.4716 5.8364 -0.125 -4.3434 -2.0422 2.868 -1.5242 1.526 
lor 1.2119 7.1001 1.4052 -2.298 -4.0993 -0.91891 -0.71051 3.3118 8.739 3.3465 4.2777 1.1482 -3.0622 -3.282 1.3398 -0.32053 2.4187 -0.41525 8.2771 7.1219 1.7535 -0.18286 0.39789 -7.1713 -1.0535 
choty -1.8113 0.29273 -4.7823 4.7863 -1.3455 -3.536 -1.3449 -0.17187 -3.1161 0.89842 -3.7822 1.2847 1.4747 -0.0014131 3.0479 -0.9229 -2.7552 -1.3478 0.10018 2.2135 0.85143 -0.95789 -6.2189 -0.6078 4.1758 
choky 3.6234 -2.7199 -0.74312 4.4763 0.076299 -3.5757 -0.67194 0.99094 -4.0477 0.88009 0.13113 1.4196 -1.7942 2.6658 3.7513 -0.77853 0.5937 -0.40078 -0.35781 -0.70048 -4.0359 1.478 -7.2289 0.48681 0.15762 
olkaiin -2.6328 1.6989 0.76265 -1.8602 -2.9881 -2.8156 -0.03105 5.1783 3.7377 1.8686 -0.67658 1.8883 -1.1193 0.0027561 -1.034 1.2451 1.2716 -2.1984 -1.093 -1.7597 2.3996 -2.1362 5.0838 -1.8596 1.5294 
ckhy 6.6511 -1.5984 -5.21 0.08746 1.5101 0.95904 -1.727 -0.017653 -2.9574 6.0168 -1.5578 6.6471 -0.74211 1.4736 6.6897 -1.5369 1.9773 -2.1684 -3.4951 1.909 -7.1573 0.37493 2.1609 -3.8 2.7098 
sheky -7.0076 -1.3369 3.738 -0.65049 4.0812 -1.5494 2.2157 -2.8785 -1.582 -0.79671 -0.57913 -1.3749 2.2289 -0.64841 4.193 -4.8079 1.6469 3.3616 5.1879 -1.574 -2.2266 2.0273 5.2681 -3.4167 2.1295 
lkeey 0.73868 4.7685 1.8047 -3.1254 -3.3796 2.2937 0.46659 -2.4724 8.1831 1.1237 0.9739 -1.5966 -5.2865 -3.3904 -3.1992 4.3594 5.5365 1.112 6.545 6.0292 0.78936 -2.9446 -6.351 -0.33201 -2.3102 
sheckhy -1.2615 0.72794 0.16466 -3.157 1.8141 -2.0885 -4.474 1.499 2.6783 -1.7495 3.3597 -1.7837 0.71371 -0.032479 0.53958 -2.7233 4.1841 -3.6753 5.8004 -1.4211 0.14871 2.3214 -1.81 -0.40728 1.7632 
otor -0.57703 -0.17232 0.38462 4.0242 1.9292 1.4731 0.72547 0.95817 -7.8108 3.9735 -3.3192 0.6274 2.1455 3.7397 0.10401 -1.0049 -0.17709 -0.74818 -4.0905 -1.471 -1.4368 -4.356 1.3547 -2.8116 -0.89602 
lkeedy 0.83433 2.0556 3.5234 -1.7867 -0.14468 1.4357 -1.1922 -1.2187 4.032 -4.5998 2.0728 -2.9788 -7.6222 1.3833 -4.8762 3.8864 7.2662 -3.9898 4.485 3.4364 0.029979 -0.62634 -0.36835 -1.4819 -1.6386 
kol 6.9917 -2.115 -2.9643 -0.038277 -1.1324 2.5727 0.42457 -3.2024 -4.6206 -2.6819 -0.1389 0.25567 1.8741 -2.6068 8.2746 -2.3402 -8.5835 -3.2876 -2.6509 0.96657 -3.8167 4.8291 0.98515 1.909 6.2227 
otain 0.045575 1.5332 3.3837 0.2642 -0.16347 -1.3669 0.31012 2.5784 -0.77778 2.0299 2.9526 0.80993 -0.78134 -1.6764 0.61371 1.3462 4.8074 0.40762 5.0578 -0.14608 3.9023 -1.3054 1.8338 -2.9225 -1.2008 
ches 1.8065 -1.5331 4.8994 -0.60511 -2.0064 -0.097695 -3.5945 1.7832 0.031402 6.1035 1.94 0.27821 -2.8513 -1.4977 1.1105 -3.0252 2.7631 1.9981 0.37965 -0.98081 3.0673 -0.84309 1.7815 2.8668 -8.1407 
qokchedy -2.4361 2.9314 -0.55296 -1.7869 -3.1551 1.929 -1.2365 -1.6673 1.1819 -1.7948 -1.4837 -0.67849 -1.4353 1.8012 -2.8357 -3.5055 3.0056 -4.4484 -0.40003 0.76606 -1.5284 -1.9493 0.55643 -2.2516 -1.9311 
qo 1.0632 4.0012 -0.021959 0.8551 3.0398 -0.55231 0.71826 -9.2461 3.9372 4.0531 4.9618 -3.0431 1.995 -8.9835 5.3271 -12.236 4.2393 1.4503 7.736 1.0862 4.5287 -3.8883 -10.454 4.2306 -0.89873 
chos 0.57425 -1.4726 -4.2322 3.5737 -1.4952 1.6417 -5.13 -2.4962 -0.93743 -0.14721 -8.5151 3.8766 -2.5142 0.99687 6.0503 1.7155 -2.8576 3.5231 -2.5534 2.3823 -1.8324 0.051809 0.48881 -0.78121 -7.4816 
chedaiin -4.1274 0.78651 3.1473 -0.37143 -4.6114 2.1035 -0.83225 -0.64415 2.7505 -0.42518 1.6885 0.41013 0.45409 2.3778 -2.9162 1.2257 -0.10157 -0.45065 -0.43468 0.85046 1.3647 -2.821 -0.068867 0.7968 -5.039 
oraiin -1.2466 1.6687 -1.8814 -0.37204 0.39627 1.2906 -0.012275 2.1967 4.2527 1.2256 -4.1224 -0.42465 0.043727 0.64876 -3.0196 2.4772 3.1331 -1.7811 -2.0692 1.8949 -1.2306 0.509 4.0373 -1.003 -2.551 
shar 0.29799 -5.2041 0.91173 -2.8367 3.2463 0.65873 -1.3131 5.8246 4.7068 5.5064 -5.5181 1.2379 3.4487 -5.7643 1.2911 0.4983 -0.87674 -1.7217 0.92339 -2.2489 2.888 -2.8538 1.3239 -3.8872 2.3193 
okeody 1.5193 -1.3984 2.0696 4.7125 2.6158 0.32646 -0.99837 1.1701 -4.4008 -0.77655 -1.6508 3.3817 -1.207 1.8585 0.095769 3.2021 -0.48802 -0.89292 0.47629 2.8648 -6.3709 4.0008 1.4752 3.2055 -9.55 
qokor 4.6459 2.5747 0.14549 3.0912 -3.2019 -0.82024 1.5774 -2.6441 -0.26913 0.86038 1.0167 1.348 5.4364 0.25314 4.5864 -2.3446 0.31624 1.2673 -0.27355 -1.5994 -2.5774 -0.96709 4.0812 -0.3142 -0.66052 
oteody -0.32605 1.7814 2.2617 4.4445 -2.178 -2.3934 -1.9831 2.3773 -2.2057 0.61619 -2.9271 1.9224 0.2913 3.6062 -1.0694 4.9289 -3.9532 4.4494 2.1212 1.482 -5.4554 0.15519 -0.87445 2.7368 -5.9712 
chees -2.9371 -0.47362 -0.58412 -3.2072 -2.463 -0.046916 1.6052 -0.80175 -1.6933 -0.16029 -0.61068 -0.063567 -3.2464 0.67947 1.4968 0.60223 1.5117 -0.66219 -2.8449 -1.1937 -0.19269 -1.921 -0.69505 -0.85161 -1.7513 
otchey 0.63378 -1.2311 -2.3468 -2.3977 1.8304 1.5144 2.1988 -5.0142 2.5606 2.6272 -1.0148 1.0077 3.156 2.2424 -0.031845 3.325 -2.8552 -2.2003 -0.38475 0.55571 1.2414 -3.8204 0.95814 0.28773 0.27786 
chckhey -0.51663 3.5138 -1.7646 -0.66631 0.9022 2.4556 0.81234 -0.47149 2.1923 -0.62014 0.31784 -0.14709 -3.2187 1.8086 -0.062209 2.5264 3.4353 2.1285 3.7833 -1.8329 1.8442 -0.18848 -0.20903 -0.747 1.041 
tchedy -3.2476 2.2775 1.0736 -1.6724 -3.6013 -2.1864 1.141 -5.231 2.969 -0.067538 -2.1907 -1.9932 -1.6962 2.2716 -3.7962 -3.0014 2.8423 -3.9094 1.5902 0.38601 0.056428 -2.4443 1.526 1.3651 -0.9177 
cheal 2.0518 -2.6049 1.3821 1.0148 -2.3312 -3.1813 -3.6784 3.5067 2.9051 1.0981 2.1234 -1.2655 -4.95 -4.411 4.1906 -0.84048 3.6129 -3.0821 4.6689 5.0457 -0.91105 1.1625 -2.3738 -2.1389 -1.7787 
checthy -0.5661 3.5274 -0.86121 -0.13929 -3.157 2.2236 -2.6337 -0.95094 3.8369 -0.17592 1.1863 0.090657 -1.2008 1.5536 -0.6722 -2.651 -1.6953 -0.43433 6.6218 1.846 2.2354 2.5676 0.20661 -0.32322 1.537 
kchy 5.8743 3.9094 -8.1446 2.8989 1.7219 -6.2919 -0.40412 -3.8818 -7.0788 1.5262 -3.0042 -8.2003 1.0426 3.1001 5.831 -2.024 -1.3742 2.8782 -7.2031 -0.82078 4.2147 0.2186 -3.782 1.7657 4.1614 
aiiin -2.2946 0.32232 1.7067 -1.8238 2.2419 -2.1868 0.65666 5.1734 1.1439 3.1502 -2.0795 2.6354 -3.8704 -3.7607 -0.7918 0.63909 1.3576 -0.96292 2.1534 0.70832 -1.4181 -3.0067 -0.43644 -2.1852 -3.4363 
okor 3.6345 0.94708 -2.6211 1.054 1.9225 2.4368 1.7255 3.4463 -1.4185 1.1717 2.7937 6.3607 4.0273 -0.19968 4.045 3.0835 -1.4247 5.6489 -2.3842 -0.39627 -4.6676 4.3204 4.214 0.69947 -1.7978 
shcthy 0.2551 2.2949 -3.1021 -0.98329 1.357 -2.2071 -0.042198 -2.2343 -1.0089 2.1802 -2.5639 -1.691 2.4632 -0.60924 0.8098 -5.8513 2.6075 -3.7304 6.6605 -1.9478 0.60325 1.9413 -3.3875 -0.45942 4.5049 
okchey -1.1659 0.74325 -0.044158 -0.40567 -0.22991 2.3483 -0.60521 -1.0826 -2.7194 -1.2826 1.9211 0.88415 -3.6367 -0.057005 1.0003 0.55632 0.65309 -3.2077 -3.5174 2.9276 3.6408 2.3548 -1.5783 0.67323 0.46609 
qokeody 3.0836 0.99164 -2.0955 2.2703 -0.75531 4.1756 -0.31957 -1.6839 -3.5246 -4.4572 -1.8345 2.2676 0.11752 1.1637 -0.88828 0.50029 -1.4876 -0.82849 3.4817 0.59583 -2.1922 2.6212 -2.2796 0.45054 -7.3423 
okchy 2.3399 -1.392 -3.9411 -0.16189 3.0744 -3.4645 0.14182 1.6653 -4.3259 0.64386 0.46646 -0.61476 0.45799 2.9125 -0.049287 -1.6057 -1.6594 -2.6374 -4.1426 0.39769 -0.95614 4.1078 -1.8939 0.85492 1.6146 
ykar -0.075595 -0.53855 0.97314 -0.77459 2.5587 -5.6993 -0.045468 5.6067 -7.9783 2.9097 0.69573 5.09 -7.0954 3.6311 -1.0613 -5.9699 3.367 -1.5643 -3.2816 0.11764 1.8574 2.5051 6.1171 -7.6181 1.0189 
ai!n -0.30272 -0.028834 4.8825 -6.0945 3.1016 2.8324 -1.4387 1.0666 5.2562 1.6115 0.082562 0.94282 -3.8854 -4.5231 -0.13748 -1.08 7.1804 2.3662 3.7572 -0.34627 -0.38794 0.10298 2.0657 -3.1952 -2.4728 
olor -6.3147 4.3621 -2.7262 -5.0348 5.2193 -0.1378 -1.8438 4.6624 6.2936 7.7222 1.4416 1.6376 5.0022 0.64359 -1.1131 -3.6037 -0.57368 0.16484 0.75289 2.1315 1.8207 -0.57417 1.464 -5.1416 4.2794 
olkedy -6.0693 6.2412 3.8702 -0.32873 0.38421 -0.64368 2.2277 2.6716 -2.8988 -2.0564 2.4238 0.83372 3.7116 -3.5194 -5.0248 -7.6774 2.7105 -1.2467 4.3421 -2.5123 -1.8213 1.4697 1.579 2.3961 1.5122 
pchedy -2.5001 3.6715 3.4568 -1.7402 2.6584 -3.4364 1.4102 -0.88202 2.8693 3.4079 -0.63709 -5.1213 -0.16963 1.0575 -4.5958 -1.075 2.8052 -7.9019 5.0666 -0.050344 -3.2928 -1.9786 2.9603 4.7634 -1.0189 
ckhey 6.0088 -4.7011 -3.4118 0.7741 3.3102 6.3418 -1.6373 1.7138 0.33896 -4.831 -1.2156 4.328 -4.6218 -1.9982 8.1591 3.3439 -2.098 3.9011 0.92545 -2.4639 -3.2313 2.0123 -0.24056 -2.6794 -2.2574 
qopchedy 1.3544 -0.51864 2.959 2.9184 -2.1687 0.42384 0.73912 -0.86773 5.2681 -1.6559 -3.117 -0.97594 1.0827 1.0314 -8.0518 -2.1233 1.4635 -2.2022 0.50465 -0.4879 -2.4808 -1.4053 2.5176 3.2024 -0.99481 
kal 2.9653 -2.0072 7.2915 -2.0867 3.2137 -3.3449 2.9244 5.019 -2.7308 -5.0506 -2.6775 -1.8366 -2.9008 0.22495 -4.7541 -0.91712 -4.2071 -2.9953 -0.72888 -3.1776 5.8294 10.389 0.17987 -1.0777 0.93693 
cheos 1.5258 1.1474 -0.42555 4.4288 -3.7266 2.8407 -1.4252 2.0533 -1.5701 -1.0302 -1.7711 2.6733 -5.4194 -0.68922 0.023083 2.0312 4.7476 1.2453 -2.2767 5.7347 -2.2032 2.0009 -2.005 -2.1518 -5.2613 
otchedy -3.557 2.4854 1.4957 -2.2338 -0.73225 -1.6396 0.93222 -3.947 0.64197 -0.39518 -2.0978 1.4634 2.0704 3.591 -6.5131 0.078219 1.5966 1.0695 2.9641 0.26572 2.6017 -3.2086 0.63209 -2.7504 -0.13229 
lkar 3.5718 4.0309 3.7561 -3.8264 -0.42948 2.5031 4.9196 1.3738 1.3822 6.8544 -1.1351 0.54413 -7.3218 2.3069 -5.7733 1.4944 8.4781 -5.2656 3.8249 0.90409 1.2253 0.28681 -5.7542 -4.7226 1.421 
chedar -0.16186 2.62 2.7532 0.12471 -3.8757 3.5523 -1.3644 -1.5318 0.14895 0.3362 2.7424 0.10913 0.16346 0.766 -4.8931 0.47971 2.8452 -3.7431 3.6505 6.124 2.4974 -0.65163 -1.8042 -1.9715 -3.6315 
sai!n -0.25481 1.2553 6.035 -0.38291 2.0784 3.9741 -1.5823 2.5782 4.6172 -0.60669 2.043 0.64313 -1.712 0.66081 -3.637 1.1444 5.9751 -2.6818 7.202 -1.9066 2.5414 2.4368 -2.0731 -0.77519 -1.5512 
dchy 3.7904 -0.21231 -9.8569 -0.42225 1.4732 -2.6879 1.4325 0.39237 -4.4399 10.999 -1.0503 -3.9516 4.742 1.6627 6.5375 -2.186 -4.0376 7.0807 -5.4871 1.9621 -0.13742 2.2054 -3.6814 0.9314 2.9083 
daly 0.92272 3.7707 -1.4879 1.7682 -7.4586 -0.19011 2.3585 5.9926 -4.1232 4.4423 -0.033438 1.3152 -0.77837 -0.14406 -2.3682 0.2034 3.1814 0.87346 4.1247 -1.0895 -3.5362 5.251 -1.505 4.7307 2.238 
dchedy -2.5656 6.4349 2.9492 -1.3243 -4.1498 -1.2786 3.2118 -0.31635 -0.37432 -2.9316 2.4565 -4.2738 1.896 1.5584 -4.7763 -2.2536 0.51047 0.69455 0.59202 -1.6509 1.6568 0.37895 3.3497 1.1553 2.2136 
otchol 0.67801 -3.404 -7.7853 1.0536 0.020497 -2.1351 -0.61932 0.57269 -5.1386 0.87352 -2.0778 4.2293 4.5081 -0.74284 5.4346 0.65515 -0.44057 -2.1058 -9.1016 -3.015 2.506 -0.82207 -2.9037 2.192 1.9131 
opchey 2.5309 0.36473 -0.80226 -0.74413 1.0552 -0.1119 1.7736 -2.2906 4.319 3.137 -2.6578 0.74209 -0.58702 -0.83927 -3.6929 -0.81986 -0.50752 -2.4982 0.71767 -0.83569 -1.6997 -3.4745 -0.57068 4.4548 1.7967 
qokchey 2.4135 2.4644 -2.7849 -4.3539 -3.8681 -1.6489 -2.4644 -0.34285 2.232 1.6572 0.20465 -0.15766 -1.8109 0.46004 -0.33023 -0.9862 2.2432 -2.9933 -2.2338 -0.17195 2.6688 -2.1256 -1.0135 -0.27641 -0.82085 
otchdy -2.9392 0.97563 0.90931 1.3624 0.61886 1.3841 -0.45081 -0.45204 -3.8661 0.87038 -3.8039 -0.89017 2.695 4.0129 -6.3933 -0.45454 1.8151 -0.16572 -0.55127 0.76971 -2.0393 2.0858 1.4557 1.2613 -0.19798 
okam 0.47082 -0.90314 -0.72615 -2.8068 -4.2982 0.13187 5.8797 2.095 -1.8463 4.0021 3.3564 -3.4639 -5.313 4.6529 0.39865 2.0875 3.1098 1.8067 3.8528 -1.5819 0.051253 0.67465 7.1071 -2.5056 -4.3829 
yteedy -2.1967 3.7991 -0.14994 0.64059 -2.5367 -1.0272 1.333 -1.0301 1.4157 0.95518 -2.2115 -2.5638 -2.1624 0.86961 -6.42 -3.3183 0.44943 2.0613 0.087753 5.7246 -2.1469 -0.01823 2.3588 -0.55655 -0.26669 
oiin -0.71258 -4.8487 0.49815 -1.4103 0.70484 1.9244 -0.76363 1.0829 0.42411 0.60726 1.8752 0.42174 0.9721 -5.6562 4.6275 0.90098 -1.852 2.1233 1.1247 2.1964 0.76391 2.6006 4.598 1.4981 -0.62824 
qotai!n 0.90019 1.1643 2.4676 -2.7927 -3.2495 -1.645 0.74652 -3.3269 4.9381 -2.0499 1.0233 0.34551 4.0589 -1.595 -2.3442 -1.3598 3.2082 -0.69718 6.4733 -1.1937 3.1954 -1.7082 -2.181 -2.5856 2.3133 
olchey 1.2299 7.3783 -0.48891 -0.85116 -1.635 -2.4657 0.47964 0.47098 2.7333 1.838 4.7917 0.42864 -0.7575 -1.0992 1.4102 -1.528 0.89499 1.9385 3.5788 2.6517 -2.1059 0.019665 3.1971 0.3965 2.5747 
tchy 0.83536 -1.8305 -5.4812 -0.7834 0.64787 -4.1355 1.3018 -5.0538 -3.8976 6.1697 -6.0427 -6.1648 -0.13421 -0.72351 9.2222 -0.3104 -1.2887 0.012335 -3.4788 -1.9275 3.036 -2.4848 -0.65121 2.3944 1.7873 
lkedy 1.2239 2.861 0.90967 -1.7615 -3.1648 3.4722 -0.0037125 2.1077 -1.0432 -7.1565 3.405 -5.2364 -3.7816 0.97877 -9.3593 1.833 4.5335 -3.003 5.9602 0.29031 1.1251 3.9744 -2.3547 3.2775 -1.4636 
oldy -3.2423 5.1119 -6.2971 -0.77774 10.415 1.7134 -1.107 4.5081 -2.7283 1.0401 -2.1071 -6.0367 1.3646 3.652 -0.7067 1.4696 4.4921 -2.5327 6.3611 -4.517 -0.68322 9.0615 1.2282 4.2774 4.3289 
qokeeey 0.31976 4.7851 2.0022 -2.1509 -1.4741 0.1841 -4.3755 -3.0503 4.2976 -1.9006 -2.5383 1.263 -7.4886 0.19498 1.3546 0.31975 1.3514 -2.8733 3.4653 4.6201 2.3017 -0.99009 1.0183 -4.2594 -7.1367 
ykeedy -4.1264 3.4932 3.9824 -1.2046 -0.95578 -1.7764 -2.2613 -0.027495 -1.3591 -5.043 3.035 -3.7225 -1.7109 1.5097 -1.0386 -1.3759 5.424 0.69447 5.451 -0.34987 -1.8231 0.074235 4.5692 -1.9618 -1.7478 
aly 2.2058 0.98148 9.2288 3.9144 -4.3158 2.1278 -2.8535 3.5624 -7.0535 5.3218 1.288 -0.26414 -2.991 4.2642 -2.4414 2.6124 2.5386 5.6087 4.3031 1.0261 2.7805 5.8694 1.3598 1.8429 -4.6635 
dchor 4.1336 -4.8259 -4.7751 4.7487 1.0987 -2.8037 3.964 -3.0351 -3.6937 -2.2021 2.5434 0.72817 6.1514 3.0887 6.4017 -1.6151 -2.9882 0.22136 -7.7835 0.11866 3.6815 3.5733 -6.054 -2.6903 0.76892 
she 3.9077 0.75175 0.7374 1.9675 10.847 4.0014 -3.8463 -3.2328 -3.2248 3.9757 -6.7665 -0.36877 1.1114 1.6524 4.8695 -6.1425 -0.5226 0.8761 -0.60349 -1.384 5.7183 6.2168 7.8285 -3.4482 -0.75027 
qotor 2.9444 3.2072 -1.4335 -2.691 0.016932 -1.38 -2.1838 -5.4422 -2.2355 4.421 -6.1793 3.0115 4.7042 2.9228 -0.64715 -8.9968 -0.93792 -4.0992 -5.6161 -2.5639 4.3188 -2.3479 0.022839 -3.8342 3.0425 
os 3.4865 -5.6537 0.35806 5.5402 1.5961 -5.0603 -8.3546 7.7069 -9.149 5.9928 -7.2721 14.88 -0.85064 -2.0602 9.0519 4.3374 0.21365 4.6493 1.1247 0.21151 -1.1136 -0.63665 7.6642 -5.1797 -9.7279 
kor -1.882 1.0277 0.41919 5.1693 1.209 1.071 5.107 -1.816 -3.5803 -2.2219 -0.82577 0.69289 -2.0387 -1.0743 15.657 -2.7827 -4.7134 7.5654 -4.1975 -6.1872 -4.7266 2.2829 10.981 1.3638 2.6014 
yteey -0.6591 2.8584 1.7167 1.7478 0.50173 -3.258 0.053299 0.425 -0.74165 2.6313 -3.8696 0.4563 2.3302 1.2601 -2.3199 1.4326 -3.9514 -0.13063 0.18148 6.2618 -1.3868 -2.8869 2.6995 -4.6185 -5.912 
qokam 5.6632 1.9778 -0.72689 -4.7286 1.6285 4.3972 3.0612 -0.94231 -0.62439 -1.4792 2.2846 -2.9468 0.60559 -1.6133 -2.464 -1.4049 2.3059 -6.645 -0.90775 -0.67611 5.2577 0.35988 2.5485 -3.2559 3.3275 
yty -4.2555 0.63441 -5.685 -5.4885 12.109 -4.5676 8.3136 -4.7216 -7.3294 -0.087281 -3.8655 -0.85111 8.3566 2.1697 1.0435 -0.97424 -13.202 2.7641 -4.1752 1.2679 6.8723 3.39 1.4815 -5.934 5.9309 
tor -8.1189 -1.3428 -5.804 -2.8057 1.624 3.0361 1.5409 6.6901 -7.7627 1.3504 -4.9859 7.7827 6.4742 -3.8893 4.1879 -5.4402 -1.0354 4.3723 -0.91808 -5.4473 -3.396 -1.5298 4.5204 -8.8011 8.9832 
sy -0.47967 1.3322 -5.2341 0.28781 0.53233 10.745 9.1596 -12.601 0.50038 6.6365 4.7278 0.19824 0.83866 0.90265 15.713 -0.62682 -0.91393 2.7442 2.2148 2.2136 3.984 5.1023 2.2953 -0.29805 2.59 
okeeey -0.78601 2.066 1.5029 -1.112 0.50602 3.1484 -5.1311 -0.59693 3.4929 -3.0359 -1.2415 6.2186 -4.6454 -1.7385 0.71072 4.1668 0.2571 1.1594 2.9875 0.79242 2.5279 -0.13593 -0.69721 1.4813 -5.2491 
olky -5.7427 2.6395 6.654 -4.127 6.5542 -4.9816 4.7195 2.2866 1.049 3.2986 3.3326 3.1853 7.8413 3.3358 1.6449 -2.9428 -0.35601 -7.9086 3.7954 -6.6682 -2.1509 -1.9225 4.756 -5.1123 6.2798 
chedal -1.8983 5.1201 1.5765 0.022274 -2.2231 -0.059465 -0.041719 -0.8666 4.3742 -3.7006 -2.2051 3.9017 -3.2974 2.5316 -7.1095 5.1417 -1.5665 1.1427 3.2079 2.6399 4.2162 -2.343 1.3204 -1.3734 -2.9157 
tal 1.1919 3.7838 3.8921 3.8473 0.2419 -2.6493 -3.7708 8.0542 -0.7765 4.1673 -2.3902 -2.5093 -1.9613 1.3433 0.37554 -10.347 -13.437 -1.6992 3.5443 -0.39914 0.99174 4.4539 -2.434 -1.1273 7.0959 
chl -1.8889 8.8504 3.4952 1.7452 0.47908 2.2729 -5.5231 2.0733 3.067 2.318 2.5221 2.9386 -4.3782 -0.84058 2.8561 -3.1647 10.051 1.1538 -2.565 1.9501 2.5435 -1.3448 -5.1201 -4.6446 2.2108 
aiir -1.2076 -5.7036 -3.422 0.50984 -4.7594 -0.35284 1.7912 5.084 -4.5461 1.846 -0.903 7.0819 -5.4396 -0.53469 -5.9808 0.71227 -1.0005 3.3991 0.12159 0.3828 -0.80613 -3.0623 2.4633 1.6388 -4.7296 
sair -1.9504 -3.7441 6.0928 -4.0748 -3.4156 3.8161 1.4081 0.8192 -0.15734 1.9836 -3.2432 -1.4355 -4.3777 2.8156 -3.7409 0.47341 0.48278 -0.45956 2.3254 -0.82389 -2.2594 1.2137 -2.2625 -2.1826 -4.7335 
okchedy -2.4003 3.3038 2.9063 0.95114 1.3838 -0.055472 -2.3583 -0.37041 0.84752 -5.9761 -2.7591 -2.436 -1.3546 1.8641 -2.5131 1.2576 1.8249 -1.7033 0.16884 2.2861 -0.75216 -1.9296 5.9555 -4.895 -2.2745 
ytar 1.7112 2.0207 6.6541 1.0353 1.6362 -3.5757 -0.50129 7.7171 -3.6598 0.8581 -5.4241 1.6154 1.1331 2.6665 -4.3408 -1.5363 -3.053 -6.6207 -4.583 -5.446 2.1356 -3.448 0.56177 -4.9494 -2.7801 
ytedy -3.0692 1.8016 1.2695 6.7803 1.4687 -4.2955 4.3354 -1.8263 -9.63 -0.59631 1.7985 2.0435 -0.27346 2.1044 -3.172 -2.7303 1.035 -0.67881 2.0717 3.1522 -1.6652 1.7859 6.0459 2.2964 5.7599 
daiir 2.6142 -1.1563 -4.1843 -1.1071 -1.3211 -1.697 -0.15911 -3.4537 -7.5763 2.2347 1.1335 4.2031 -0.51627 3.9097 -0.13481 2.9197 -4.6513 0.47447 -2.708 2.1903 0.025152 -0.38755 0.95051 3.9722 -1.4522 
oaiin 2.8985 3.5059 -3.4821 -2.162 1.5113 3.4881 -2.6023 -2.1051 -1.5681 1.9796 -0.61138 9.1466 0.44866 -1.3395 2.9946 4.1271 0.90731 -3.2752 -1.78 3.8557 0.89106 -1.9264 -1.4522 -2.5712 -0.15916 
shear 2.1744 0.57457 4.4168 0.15651 0.67902 0.1548 -2.8733 0.26689 -1.24 0.46503 1.631 -2.6207 1.9506 -5.247 2.3278 -1.1386 7.7088 5.4734 3.2787 -2.3993 1.7374 -2.4254 2.6861 -0.090953 0.01561 
tchey 2.4823 1.3087 -3.5916 0.058594 -0.83319 -5.0014 2.6322 -2.9701 -1.4783 1.9613 -4.7039 -3.1472 1.1803 -2.6578 1.4399 -2.737 1.5146 1.2689 2.3866 -2.1493 -0.2506 -6.2236 -2.3868 -0.76026 -1.3976 
chety 2.0151 -0.6928 2.6114 1.9696 -3.3479 -0.80434 -4.6764 -2.1619 -2.5127 3.1192 -0.88914 -0.54828 -0.39915 4.575 -2.2927 -3.6001 2.6447 2.5893 2.5533 -0.47196 -3.1202 2.5332 -2.9926 3.8083 0.91552 
qotain -0.079694 3.5131 2.2395 -1.5457 -4.6261 -3.1489 0.22095 -2.546 3.5101 -0.049612 1.1671 0.42108 2.2198 -1.0013 -0.47554 -1.2461 1.7857 -0.58452 6.6615 0.25535 1.4081 -0.40952 -1.496 -0.59771 1.3439 
qor 3.2098 0.19775 7.2503 -8.0982 2.2487 1.6409 1.1006 -0.27041 5.7885 4.1674 9.5502 -1.8759 2.3989 -1.6168 -1.3864 -4.5444 6.9163 5.1847 -5.3877 2.4835 7.6239 6.7045 1.912 -4.2792 5.5068 
dary -1.3608 2.7106 -1.5877 -1.4592 -0.46112 -0.96407 1.1064 4.4249 -6.4084 -3.5836 4.9228 -3.1081 1.2959 3.2438 2.145 -3.7717 3.654 4.2886 -7.8076 -3.2627 -1.3082 6.5152 -2.3294 -2.2609 2.4 
otair 0.87334 0.22336 4.972 4.3222 -6.3319 2.0238 5.8948 2.6632 1.0909 2.3303 -0.12708 8.1186 1.7999 2.8314 -3.617 1.7434 0.64749 -3.0152 -0.35431 -2.3852 3.9664 -1.0188 1.5152 -2.8377 -3.0008 
qotey -5.0472 -0.13226 3.3934 -3.3882 -5.0136 -0.44102 -0.26887 -3.194 2.3212 0.10284 1.1444 -3.079 2.7953 0.28057 0.36994 -5.4208 -4.5884 -4.2447 4.7907 1.4848 -2.7236 -2.1603 -2.0976 -0.89577 -0.11384 
qoaiin 1.93 -3.4015 0.96796 0.8204 1.3629 0.33984 -2.3602 -0.0069746 -0.11204 -3.4551 2.1077 3.6007 1.309 -1.9626 1.1757 -4.0275 -0.62118 -1.9006 -1.1658 2.345 -1.4489 0.28428 -3.7991 -3.066 -5.9859 
olshedy -1.0304 4.3285 0.8559 -0.34407 2.2386 1.7678 -0.38581 0.82338 2.0354 -2.6632 2.0146 -4.3664 5.7856 -1.4788 -3.8894 0.77902 5.4165 -2.6707 2.8175 1.356 -3.5775 4.6784 3.4824 3.7552 5.8231 
ldy 1.2664 3.8653 -5.208 -1.1607 -0.94098 -6.5469 -8.6454 -2.2895 0.72172 -1.1037 -7.5864 -3.5737 0.812 -2.0024 -2.2724 -5.0324 5.4209 2.5523 12.77 -0.17188 -0.31231 2.251 0.31335 1.6988 -0.65801 
kchor -3.1775 -3.6652 -6.4869 5.1568 0.96378 2.8688 -2.8305 -7.1929 -2.0325 -1.0587 0.038367 -2.747 3.1309 3.7868 12.597 -5.9018 -0.61742 4.7854 -4.1689 -2.0815 1.915 -2.3112 1.9615 -3.0891 4.9303 
chkaiin -2.5624 -3.6848 -0.43767 0.17418 -0.30002 -0.85663 -5.448 -0.64024 -3.697 0.12844 0.71083 3.0396 -4.3837 2.5668 2.9225 -3.9029 2.5131 -4.7064 -0.75303 -1.7949 3.0641 -3.1324 2.918 -1.0317 -5.4486 
kchol 4.8788 -3.9592 -7.733 4.9334 0.7181 -3.3545 -0.23279 -1.4286 -2.8064 4.5204 0.40858 1.0213 0.067981 -0.51328 4.9665 -5.9156 -1.0259 0.35489 -4.3263 -1.0609 4.7571 -3.1792 -3.9706 1.6364 2.6575 
cheeky 1.8733 3.7757 0.28618 -0.68112 -2.7788 5.4817 1.5971 1.2589 -0.25492 2.2448 2.2226 -1.1524 -4.1947 0.6411 0.7876 -0.23564 2.7749 -2.9688 0.47572 1.0848 1.4209 5.447 1.3149 0.81043 3.9128 
ky -1.9992 -0.15532 -3.074 -6.5627 2.6534 -10.417 1.2267 -5.1736 -6.3731 -2.0502 1.5341 0.67325 -9.0912 2.3529 12.421 -3.8857 -2.4138 -7.3356 -2.7228 5.7619 -2.8573 7.4575 -3.5151 -6.9317 8.5561 
shaiin 1.1225 -3.6518 -3.3084 2.6441 1.5569 -0.91228 4.8064 -1.2129 1.6774 1.8523 -4.0019 1.0208 -1.1841 -1.2008 3.1585 -0.48876 3.605 -1.905 -1.577 2.0649 2.949 -1.0004 -1.8528 -7.145 0.81021 
shodaiin 1.482 -1.996 -1.6915 4.7037 -1.0562 -3.402 1.2712 -1.7116 1.6909 -0.83507 -1.8426 1.4513 -0.65041 -1.8105 -0.74227 -4.4144 1.1151 0.92469 -4.491 0.7673 0.70372 -5.2728 1.3917 -0.54294 0.27103 
odar 0.79568 1.7454 2.0848 6.232 -2.9243 2.0521 0.37172 5.4791 -1.9968 1.2335 -2.999 -0.42999 -2.5943 -2.0782 -5.6778 4.4672 -3.4407 0.35998 -4.9443 2.6583 2.6144 -7.5954 9.5429 2.6325 -0.34698 
kchey 3.8311 -1.253 -5.5729 -0.49006 -5.156 -1.4795 -4.7178 -0.16148 -2.5649 6.585 -3.3013 -3.3918 2.2006 -0.1817 2.5163 -2.1209 1.2791 3.012 1.1225 2.5775 0.53553 -5.0812 3.4243 -3.6385 -0.41682 
shecthy -2.1699 1.2514 -1.3891 3.1696 0.62771 -3.6686 1.0734 -0.72252 4.6939 0.83919 0.42765 0.1983 -1.1959 3.1548 -0.60038 -4.1203 1.3902 -2.9662 6.5336 1.3518 -1.6105 2.1319 -1.4205 -0.97049 1.4925 
ykchy 6.8983 0.67663 -3.104 0.5447 1.584 -5.6954 3.6846 -0.8071 -9.7257 1.183 1.8578 -2.5304 0.55528 0.81696 3.5324 -2.6899 -0.46715 -1.1096 -4.1189 -2.7046 2.5854 -0.45083 0.83374 -0.39203 2.8605 
tchor 2.5924 0.26869 -0.18276 2.6956 3.2592 -0.27948 -2.125 -4.2375 -3.2257 -0.46068 0.82095 1.6909 3.4841 -0.93277 9.0762 -0.25593 -0.78373 0.58124 -6.9952 -1.8699 -3.4468 -4.5575 -1.9109 1.7733 5.5456 
okair 1.4696 1.8842 1.7067 2.2497 0.84917 -2.0353 3.9188 7.386 -2.8834 -0.43495 1.3006 3.9157 -4.093 1.9281 -6.1862 1.368 0.5929 -3.7372 -0.037472 0.50402 1.1517 -2.2366 1.9281 -4.9298 -4.5314 
kchdy 0.66884 0.41117 2.5191 -2.0108 2.7942 -3.9829 4.2745 0.17791 -5.3013 -1.3166 1.549 -0.31546 -2.4212 -1.837 -3.015 -6.2337 0.5435 0.76854 -2.1552 -0.96783 0.97286 2.4301 11.386 0.60802 0.60345 
keol 3.5896 -5.1693 -5.5918 -3.9861 4.984 1.0437 -7.5847 -3.4501 3.2622 -7.6358 1.2477 -0.61994 -2.6483 -2.7948 4.9936 0.15999 -1.9659 0.68946 -4.0475 -0.65752 -2.3769 1.8329 2.6314 7.0123 -4.7872 
ary -1.2909 -0.81936 3.7009 -4.8459 0.69718 3.6074 1.9618 5.9728 0.69693 7.3577 12.261 7.9742 -2.009 -0.25216 3.956 3.4959 -5.0982 0.14866 -2.7331 1.3409 1.821 -0.013736 5.4867 1.8087 -2.2759 
keody -3.1317 0.13887 -1.0562 -1.8566 5.6353 -0.46993 -0.17926 2.0582 -6.422 -2.6031 -3.8854 3.0611 -6.5089 0.17172 -1.4561 1.1627 -2.9126 1.591 0.63887 0.34635 -3.7111 5.7964 -2.255 2.9762 -2.5704 
sain -0.42039 2.1938 4.346 1.4091 3.7349 2.0676 1.0375 0.30703 3.4867 -0.334 1.7176 0.64618 -0.81429 -0.19341 -2.2627 0.2383 4.8233 -1.6347 4.4284 -0.85568 2.2113 3.5509 0.29228 0.96187 0.95661 
ycheey 3.2232 4.2242 2.363 2.0816 -1.9214 -0.2069 -0.80514 0.49521 1.2794 -1.8915 -0.32072 0.25418 -6.5224 -4.1343 2.3438 3.6422 -0.39936 -2.1428 -2.5186 5.3557 2.0288 -1.0188 0.14667 0.18868 -0.1993 
qokeor 2.804 4.5033 -5.6946 0.35239 4.5418 1.6496 -2.051 -1.7679 3.5425 1.9011 -1.8136 3.456 -3.0738 -2.4731 3.8554 -2.4696 1.0969 -0.41729 2.4473 3.3574 -4.2866 4.0702 0.92175 2.7911 -2.2356 
okchdy -0.75352 1.4902 -3.0483 0.037265 5.1715 2.3505 7.2595 1.0802 -3.1268 1.041 -1.0255 -1.3141 -1.1746 3.4161 -8.0493 -0.016353 1.5862 0.19995 -0.092358 -0.29697 -1.2076 -0.66484 4.3431 -1.3567 0.98385 
rar -3.2069 -0.13177 3.2927 -10.081 -1.3388 5.6043 -2.7507 0.96182 5.4613 7.2356 -5.344 1.0063 -0.56152 -9.3098 -7.5461 4.4204 3.6002 6.4503 3.1538 3.7482 2.3313 -2.1359 -2.6074 4.3335 -0.32173 
qotchdy -2.4081 1.9737 0.46599 0.35093 -2.2368 -4.756 1.8865 -2.4625 -0.6627 -1.247 -4.3417 0.28089 -1.5969 2.5594 -5.8222 -2.7058 5.5413 -0.10877 -3.7794 0.51307 -1.3073 0.019319 0.006704 -0.38224 0.79064 
ckhol 3.9592 1.3123 -8.7171 2.6528 4.0666 5.8077 -0.81014 -3.6807 -4.5324 -3.6677 0.71016 2.522 0.92403 -0.21277 8.3126 -3.3704 1.0517 -0.1624 -3.1072 -3.3791 -6.3096 -1.5304 3.8872 1.4045 1.27 
ched -2.932 5.656 6.5603 -0.46319 -6.3821 1.9699 7.7027 -3.1474 0.4201 -1.5332 3.592 -0.10898 -3.9455 5.2569 -6.0903 -0.76952 3.4027 3.5824 1.9254 1.7414 2.8163 7.555 -5.2248 -0.85907 0.94989 
chdar 0.82334 5.1815 6.9351 -1.5338 -2.3598 -0.046184 5.3025 1.2326 -0.80403 -0.32634 2.7869 -1.3287 -3.3208 3.0404 -6.0066 -3.2911 0.30967 -0.14777 -4.7221 -1.7415 0.34171 -1.2974 4.347 -1.0901 -2.9998 
shed 5.7222 6.8493 4.3783 -5.1446 -3.879 -3.6562 -3.4421 1.4522 0.8383 0.64161 -0.16248 -3.8309 -2.8207 1.4153 -0.79746 0.99531 1.4016 0.84128 8.5523 -0.66371 -2.5448 2.3567 1.0976 -1.5515 2.2765 
s!aiin 0.39991 0.76724 1.2618 -3.1804 4.1624 5.2017 1.7086 -0.99779 -0.48219 0.23768 2.0542 2.6202 -4.8333 -1.0252 2.8044 -3.6569 3.2708 -1.474 -0.36968 -3.9051 -2.3503 0.24988 3.7012 0.46827 -0.47926 
cham 0.95025 -8.5017 -1.3557 -1.7974 -0.26531 -5.0569 -5.3959 4.6646 -3.2255 -5.6693 7.3698 2.7941 3.6676 -2.3456 -2.8671 -4.2827 0.52073 5.6357 -5.2264 0.69463 6.7819 1.1104 1.2862 -2.7282 3.2177 
rol -2.7061 1.2817 2.2671 -0.35559 -8.4234 -3.9685 -2.9595 -3.0557 4.353 4.2343 1.9666 -3.6644 3.5796 10.777 -5.084 -2.9329 7.8419 -7.9766 0.3042 -5.2759 4.1559 -3.9341 6.5874 2.1719 5.774 
olol 1.0342 3.0964 -4.1931 -0.30584 -0.45204 1.7647 0.71739 3.2276 -2.1566 1.5121 10.561 0.41428 0.49738 -5.0492 1.5448 -9.673 -2.3065 -7.2972 -5.1121 4.9673 -2.5572 1.7121 6.8322 5.2549 2.4303 
ty -2.3664 11.307 4.2053 -4.3521 18.472 -13.495 -7.7806 -3.6219 -13.28 0.94668 -2.5739 0.35598 6.2532 8.0207 6.6797 -8.062 -8.5556 -1.1512 -5.9063 -1.7634 5.5997 -7.4088 0.064876 -15.759 11.799 
qokeeo 1.2595 3.4814 0.97059 1.2174 -7.0344 3.3892 0.80775 -2.9065 2.4488 -4.1198 0.99662 0.21271 0.55618 1.3305 2.3004 7.8071 2.9677 -3.3761 3.8521 2.0581 -0.66177 1.0462 0.21034 0.61404 -5.5372 
qotchedy -0.61197 4.9349 1.5626 -2.2289 -3.8922 -2.2092 0.42512 -6.4891 2.6642 -0.5319 -2.1639 0.42671 0.096172 4.1997 -3.3696 -3.5904 1.8108 -4.7681 0.90173 1.8456 -0.8042 0.63911 -1.8642 -0.78856 -2.9449 
qoeedy -1.5711 -0.96705 5.4158 -6.965 -5.4774 -0.076286 1.912 -1.9858 5.3821 -7.6663 0.37146 -0.54329 -2.3445 -0.071743 -3.4137 -0.19732 4.9149 3.8729 0.17909 0.7002 -6.0522 -0.24873 5.1621 -6.6527 1.8858 
kai!n -4.1378 1.8239 -0.20333 -3.9746 -5.821 1.6703 0.72736 0.23887 6.2753 -0.48703 -2.323 -0.6555 -2.5655 -6.5984 0.29497 0.16449 3.4026 2.9377 8.2212 1.3852 4.297 0.14196 2.1058 -2.5497 4.6887 
kchedy 0.96785 4.255 1.1977 -0.61301 -6.6487 -0.87482 -1.8439 -0.96484 3.523 -6.548 -5.8133 -1.2181 -0.66276 -0.39439 -4.5581 -3.0389 2.9052 -2.2302 -1.5924 -0.78019 -3.0352 -2.1154 1.0996 -2.8402 3.1692 
ykedy -2.5238 4.5485 1.8513 -0.64066 4.1589 -2.2637 4.8738 -1.2332 -7.6495 -4.3471 5.8422 2.0045 0.11765 3.285 -1.1594 -2.892 -0.26116 1.2698 3.3575 4.0895 -7.6122 0.43562 3.6874 -7.1091 0.75661 
dchol 1.4154 -0.53711 -6.1044 1.9596 1.6885 -0.836 1.6226 -2.9423 -2.579 2.3726 0.04997 1.0481 7.4931 4.2112 1.7407 -1.4966 -0.027883 3.0506 -2.3162 -1.4885 -1.6037 1.5136 -7.0604 0.36113 4.5994 
teey 4.7713 4.3824 4.6826 1.5161 3.0666 -2.669 -6.7747 -1.3344 9.297 1.8979 1.682 -2.3815 0.40524 -3.4126 2.8568 3.8057 1.3306 6.2137 0.62919 7.5646 4.1016 -1.8074 1.9922 -0.35352 -9.1411 
okeor 4.9676 1.3696 -2.9496 8.7491 -0.435 1.4368 2.005 5.5406 1.7778 5.5556 3.9207 2.164 -1.7432 -0.086778 9.7463 2.2226 -1.4501 -2.2849 -0.25073 2.5664 -1.6073 3.477 2.6276 1.8974 -7.0583 
chocthy -2.8039 -0.099251 -0.99037 3.7898 2.1286 -4.0776 2.3263 -4.1108 0.34919 -0.8056 -2.3207 2.3337 2.336 3.0949 2.9174 -1.2865 0.31684 4.9107 -5.0152 0.078992 4.3773 -1.3892 -3.6682 -4.7272 -0.58572 
qotchey -0.59757 0.86396 -2.8569 -1.9112 2.2121 -1.5864 0.16592 -5.9936 -4.068 1.2022 -4.5568 1.5823 2.9486 0.19501 -0.5385 -1.3685 2.2291 -2.9876 -1.2278 1.4055 -0.45085 -7.5616 -5.7903 -4.2748 -1.0131 
chky -0.59323 3.1758 -4.2354 -5.9216 2.8774 -5.6691 4.7315 0.041361 -1.3965 2.7276 0.61821 0.39453 -6.066 8.102 4.6001 -1.8117 -1.0041 0.83911 -3.5087 -3.2739 5.9993 6.008 3.2543 -6.7363 6.4514 
oteos 0.028953 0.56912 3.1212 4.2732 0.88375 -0.48723 2.4572 3.122 -3.8984 1.9066 -1.1485 1.801 -2.5772 1.4554 2.2071 9.8858 -2.4694 7.1221 -2.1044 4.6085 0.22749 4.3177 -2.944 0.43804 -5.2786 
qockhey 4.3441 1.3359 -3.6513 2.4147 -1.9466 4.8152 0.48258 0.43778 4.6923 -7.399 -1.8863 -1.2279 -3.7626 -2.6561 1.9296 1.0878 1.7392 0.46796 -1.4938 1.5951 -4.0062 0.10881 -0.40446 -2.4576 -1.02 
okaly -9.1376 -0.81021 0.6401 8.1782 1.029 1.8837 4.0598 7.5352 -2.1727 1.5337 3.1287 3.9492 -1.6033 0.44224 -3.0515 -0.59049 4.0828 0.75507 4.8546 1.9614 -0.2755 4.6846 -0.092113 1.6717 -5.6219 
okchor 3.7358 0.75494 -6.2878 0.65273 6.1043 -3.44 3.9131 -0.064736 0.79237 1.7457 0.037135 1.5391 2.558 0.58841 5.7394 -0.81052 -3.9589 1.5799 -6.0974 1.6502 -4.6703 0.46058 -0.38286 -2.7759 3.0851 
qody 3.5931 -0.21878 -8.3651 2.4227 -2.0847 -6.0992 -3.9589 2.5285 -1.7517 9.5411 -10.91 -2.0603 0.44795 1.0322 -5.987 0.21061 4.3917 -1.9792 3.1111 5.5145 -2.2765 -2.515 4.6921 -0.026463 -0.72402 
ory -8.3874 3.8275 1.0905 -3.3047 5.1701 1.5387 3.7898 10.272 -9.4496 5.0214 9.5607 0.49578 4.7384 -8.0333 5.3558 3.3236 -1.2608 -5.2997 -1.5435 3.265 1.0286 -3.5117 -5.7845 -0.96838 -5.7751 
qockhy 0.7452 -1.194 -6.965 3.2684 1.3621 2.4016 0.38421 2.5044 1.0411 -3.4953 -0.23873 0.26305 -0.52012 1.1844 1.8037 -0.81685 -2.6791 -6.0282 -5.5449 4.2832 -2.4564 3.4999 0.65912 -1.3422 -5.752 
olkar -5.0978 -0.50036 3.0656 -0.37077 -0.6313 -3.2831 1.5244 7.2445 7.1138 2.6159 -6.9546 2.4812 2.8023 -4.013 -4.4703 -3.352 2.2334 -2.6037 2.755 -2.2578 0.98788 1.7921 1.9788 -3.1341 2.1589 
chockhy 0.85146 0.10223 -0.15162 5.6204 1.4312 0.99116 -2.3461 -0.54533 -0.47003 1.0107 -1.3501 5.2591 3.0265 3.0138 1.3766 0.42948 0.94438 2.0969 -1.7943 2.6149 -2.7221 2.1163 -2.1465 -0.98234 -4.6958 
dl -4.9623 5.1348 -0.90631 -17.792 -7.3877 -9.5748 3.6199 -3.3915 3.2326 16.355 2.5927 15.99 -5.0923 0.5303 -0.51496 9.8746 1.394 -4.5577 3.8953 -3.5237 0.054007 -14.318 7.2341 7.0955 8.6359 
cthar 0.2372 -3.5565 -2.4468 -1.2292 4.588 -0.79451 -1.4849 -4.2119 -4.3452 7.0804 -1.7079 2.1241 7.6027 -3.8486 5.1174 -0.78654 8.1988 -0.32677 -2.3774 2.2714 2.0348 0.77748 3.4769 -0.27492 2.3179 
chdal -3.3999 -4.3741 5.2105 -0.94718 -3.5501 3.141 1.2699 5.1607 -0.079627 -1.7793 -1.3469 -0.79301 1.1376 -1.0123 -4.7906 -6.2241 0.021039 -2.5711 -1.6141 1.0754 -0.97518 -2.0336 -1.1091 -9.657 -3.6871 
ydaiin 0.30448 -2.399 -4.8651 3.7218 -1.0835 1.5873 1.6137 1.0701 -1.8651 -4.5003 1.9224 5.8234 3.1428 -1.7634 1.3722 -2.7581 -2.7119 5.6983 -2.8547 1.1632 -2.0339 1.4711 2.1357 -1.4603 0.14296 
dchey 2.9701 4.6205 -6.1237 -1.2967 -0.55247 -3.4878 1.0983 -4.3637 -5.3531 -2.3834 5.077 4.1621 -5.1201 -0.50509 1.77 -2.2775 1.6326 3.7017 -1.9158 1.8302 2.7313 -1.962 1.3559 0.48771 3.9776 
sheal 1.1246 1.4687 4.3513 1.0722 -1.8788 2.1847 -3.3828 4.5792 4.913 6.3496 -0.049885 -3.9574 0.54813 -2.2371 0.39142 0.34624 0.22042 -6.6422 3.6104 2.6255 -2.1736 2.632 -2.9113 5.008 -2.6758 
om 9.8833 0.6046 1.5505 -0.92027 -6.5809 9.3192 10.671 3.5591 -12.38 -6.4411 -0.60336 10.265 -8.8585 -5.152 -4.8062 -0.85596 -2.1776 -7.7428 -5.4021 -0.52331 12.059 -0.90227 0.25688 -11.906 1.9119 
lky -3.1074 12.32 5.7972 2.6317 -2.6587 -3.1093 0.12103 -2.469 -8.4728 1.698 4.7672 -10.261 -0.42243 6.9955 -1.094 6.9172 1.8903 -10.726 13.823 12.09 9.1795 -5.2852 -10.773 -12.62 0.68164 
ral 8.5204 8.2825 2.4902 -12.78 3.7183 -4.9075 -10.936 -2.6397 7.8862 -1.932 2.8564 6.7443 -5.7074 -2.6666 3.7194 -1.3025 5.5824 -6.6056 -1.0963 -3.5484 0.52833 -1.1005 4.9958 2.6212 -2.1223 
opchdy 1.5459 2.2985 5.7258 1.3519 3.4197 -2.8936 -0.62282 -0.21362 -0.8712 0.062128 -5.5719 -2.0724 -1.5185 -0.058207 -8.2948 0.12592 5.221 -1.6059 -2.7356 0.57437 -0.073527 -3.5518 -1.3298 0.20988 1.0189 
otaly -3.7093 2.8319 3.5036 4.7606 1.505 4.709 5.0246 7.2487 -3.0218 5.9969 1.9007 2.9033 1.253 -0.4404 -2.4249 2.6071 0.73967 0.85363 0.51627 0.013586 3.5655 5.5252 1.2808 3.4919 -0.83856 
ols -5.4982 -0.76797 -1.8057 -8.469 3.0605 1.806 0.61426 7.9318 -2.0541 -9.4723 -0.76711 5.1763 1.7785 -8.1488 0.3275 6.7659 -3.3098 1.3403 -1.894 -3.9726 -1.4645 4.1346 6.8863 2.232 -0.52732 
ychor 7.6684 -1.3822 -0.20832 3.5036 0.18338 5.3567 1.4264 -0.73632 -5.4585 2.3957 -2.4036 1.0778 3.2089 -2.8019 6.3188 -2.5555 -0.67833 -0.90534 -5.2515 -2.3078 1.5396 1.896 2.5562 -0.12494 0.88363 
daldy -7.6447 0.1321 -1.501 1.4338 4.6636 3.3456 2.6528 5.9949 -3.7951 0.17202 2.3104 -6.7242 -2.186 -2.4586 4.5098 -2.2718 -3.3762 3.2287 -0.093212 1.1982 -1.3153 -0.054999 -1.2455 -2.6307 0.58705 
olkai!n -2.2954 2.9799 1.6627 -4.7986 -3.1058 -2.9689 -4.8421 1.646 7.0713 2.2629 0.2458 0.47471 0.28431 -2.974 2.623 -0.41203 2.942 -4.1468 2.9612 1.208 3.9654 2.085 9.6076 -0.19339 5.7577 
daiiin -1.5603 -4.8918 -2.1689 -1.9849 0.30262 2.1176 -0.78764 -2.3203 -3.7627 1.0016 -2.4925 0.8906 3.188 2.1505 2.9513 -2.2316 2.7809 2.8539 0.98135 -5.8781 -0.87239 -1.3538 -0.21421 -1.2945 -4.4816 
kain -7.7414 0.95155 0.15435 -3.4107 -2.4201 -3.2457 4.9046 0.057248 2.3556 0.40255 -1.0354 2.4486 -3.0579 -3.6041 1.7095 -0.96582 3.3283 1.9451 5.1583 0.15251 2.0154 0.75391 5.5185 -3.6445 3.391 
qopchdy 0.2885 -0.027028 4.9729 1.9313 0.55096 -2.0493 -0.011405 1.7803 2.7272 -6.0614 -5.0859 -5.5495 -2.6998 -0.54354 -6.3407 0.65016 2.6603 -4.9071 -2.5148 -4.1548 -3.2617 -2.7158 1.1442 4.7567 2.4156 
sh -3.5696 -4.4666 -3.7171 -2.8073 -3.6748 6.0097 -6.0044 -4.6685 -11.556 7.716 1.7557 8.1834 10.844 0.89899 5.8971 -2.5926 -10.366 11.219 -0.17151 2.2651 -1.9987 -2.0869 -3.4337 2.4597 -1.42 
shal -6.0172 -6.9407 5.7228 -1.3047 -4.9644 -2.8453 -1.2283 0.8289 6.2109 4.3463 -0.17445 -3.1136 -4.6355 -2.0024 8.2082 3.5402 1.7227 -6.5318 4.3221 4.0643 1.0109 1.903 -0.18023 -1.3559 4.1422 
otchor 6.2748 -4.3506 -4.1522 1.1282 3.475 -0.1464 1.4819 -1.4136 -1.3411 2.7786 3.049 -1.0069 0.41061 0.88982 7.3183 1.5772 -1.7588 -0.71769 -3.2377 -3.8218 1.4375 -3.0562 -5.9186 2.6762 0.73585 
lshey -6.3995 3.4774 1.5632 -5.9222 2.0409 -1.7377 -1.1297 -0.05797 4.7204 2.7799 4.185 -6.3029 -1.3979 -5.9093 3.2569 -3.6954 4.4281 -2.7336 6.3741 0.051312 4.036 1.8872 -6.1083 4.9504 -4.8647 
cthody 4.4362 1.8732 -5.4591 1.994 -1.5536 -0.92766 -0.38399 -1.499 -7.7537 -1.6584 -3.6 4.6376 2.256 -0.27005 7.7479 0.86212 -4.6398 3.2544 -6.9553 -1.4162 -3.6343 -2.3578 1.9908 -0.4835 -3.5687 
chokchy 4.0264 -3.1185 -4.2848 0.94584 -1.2307 1.57 -3.8048 -5.0308 0.43478 1.637 2.6262 0.90271 -2.5394 4.1177 9.8966 -1.2073 -3.2223 1.0276 -2.7699 -1.2646 -3.6616 -3.5506 -3.7511 1.6745 2.0314 
teol 2.7889 4.3262 1.8147 8.8364 -1.5696 -4.1623 -7.3288 1.8258 1.8628 -9.1518 1.8102 -3.0319 2.4626 -1.8112 9.0876 0.033415 -7.2476 -7.5759 1.1006 0.47925 -3.4624 1.1705 -0.44955 5.1526 2.1153 
qokair -0.34601 1.0755 0.9824 5.967 -3.733 -2.5126 6.0468 6.9862 3.4893 -3.3699 -2.3182 -0.54156 -4.1152 -1.507 -2.7822 -1.1535 -3.345 -1.119 1.3241 0.035067 1.4318 2.1988 1.4289 -2.2351 1.0211 
? -10.179 -1.4461 -2.1155 -8.8808 7.7302 12.2 5.7526 -2.0597 -2.4593 6.4137 5.7045 3.9298 4.2092 0.27809 4.5518 7.4074 -18.554 16.491 -0.047317 2.9455 -4.2925 -0.28104 -1.2667 5.8592 -2.6732 
chdaiin 0.80184 -0.63905 3.641 -2.8582 -3.4465 3.4248 -3.0443 -0.77585 -1.9662 -2.5663 -3.1673 2.9841 2.5263 3.6259 -6.1211 -3.0402 3.3034 0.35398 -2.0688 -1.5021 -3.0333 -2.6964 -0.23526 -6.4871 -1.8785 
key -4.7706 -8.9794 -6.9132 -4.9801 -1.7774 -12.509 -1.1707 5.0789 -5.6368 -3.2518 8.1082 5.9712 -6.6138 1.801 -0.31694 3.9951 -3.6803 7.6793 5.5693 3.7811 3.6212 6.1779 -11.513 1.1151 -3.3215 
okeeo 3.6563 0.68579 0.22262 2.3649 -1.5097 2.5878 0.10841 2.4104 4.4361 1.2527 2.9682 0.99925 -4.0934 -2.4853 -0.69293 7.3856 4.5641 2.1928 -0.86871 5.3663 1.2632 0.22656 -7.0409 2.6664 -8.8138 
qokeed -4.0918 1.0628 3.7784 -4.753 -2.2008 -3.3651 2.19 -3.9946 -0.59476 -5.8443 1.819 -5.1021 -1.968 -1.3665 -0.86696 2.2475 1.4843 -4.0074 7.7832 6.3546 -4.5501 6.2402 0.81187 1.0301 -1.6671 
chokaiin -3.5438 -2.3393 -1.467 0.91525 -3.8635 -0.64998 0.5291 1.5048 2.3242 -3.5764 0.21061 0.81513 -4.121 -1.6584 3.7629 -0.26835 -2.3407 1.4942 -2.0562 1.8076 0.95811 -4.9757 -3.6593 -5.689 -0.80626 
orol 0.97571 1.2084 -0.79555 2.8616 -3.0899 -7.9446 -3.5214 9.2894 2.2034 5.9401 4.377 5.4296 3.0305 2.0212 3.1719 -4.7343 -4.2347 -3.5755 4.0116 -1.802 2.2667 8.7608 10.252 4.7275 -2.2793 
ctho 6.0828 -1.0719 -4.7333 2.5085 -2.4153 -1.7225 2.7064 -3.3585 -1.7158 -2.2036 6.6112 3.9879 0.68084 1.3128 12.707 -4.1877 -8.2332 1.9492 -10.995 0.35479 1.3613 -3.4264 -0.49181 -5.0568 3.8169 
tchol 1.9154 0.093516 -9.434 4.285 -0.44996 -3.9055 1.8813 0.53417 -5.8054 0.95248 -3.0852 0.75477 2.972 -3.3023 8.6422 -2.0988 -6.4248 -1.5019 -5.0627 -1.9547 2.4585 -7.1878 1.3211 -1.297 6.7448 
qokchol 3.0167 -3.015 -6.18 6.2942 -3.1055 -0.86725 5.3955 -0.85083 -2.3476 -0.17059 -2.3641 -1.7137 4.386 0.9487 6.8095 -3.0818 -0.38066 1.3697 -4.6215 -2.1444 -2.0671 2.5685 4.4183 -1.0101 1.9834 
teedy -4.2347 8.5817 2.1377 -4.3902 -1.4411 -0.73751 -1.9647 -3.3306 2.6924 -3.1166 3.1273 -1.8247 -1.4409 6.3969 -3.5563 -5.0529 -4.2317 -0.98142 1.9031 2.3686 -2.2199 1.2067 -2.6884 -0.87291 -5.5536 
chain -1.0769 -2.872 2.0162 0.51442 2.0164 0.80699 -5.0284 2.2326 3.4627 -3.2859 0.56093 -1.9059 -1.5339 1.616 4.3466 3.8153 5.2115 0.55197 -7.3917 -0.68538 2.0858 -2.228 -2.1419 -5.5016 9.5239 
yky -8.4418 -6.989 3.6997 6.7665 7.6514 0.6045 5.6777 8.1194 -12.76 -3.6291 -1.1466 -4.6356 4.5777 1.7063 3.2552 5.5373 -3.1669 3.2588 -5.0716 -4.159 -0.74519 -2.1502 9.2699 -5.2832 5.8102 
chs -4.1065 6.2912 -1.4164 1.0321 3.9466 5.4483 -15.034 -5.7035 -0.93286 -0.80347 -6.1735 6.8569 0.83233 5.2794 4.885 2.5718 1.0692 -3.411 -8.8204 6.6675 -0.59832 3.3236 -1.8723 0.57533 -0.80943 
ytal -0.48511 -1.7557 3.2959 9.9767 3.1524 2.6894 2.5462 12.653 -2.3078 5.7192 -8.2423 2.7008 -0.69628 -1.0029 -3.0993 -7.4525 -6.9839 -1.4195 -3.1472 -3.1183 -0.70079 0.68892 1.7504 -3.3168 5.2763 
okody 2.6093 0.48389 3.6838 -0.93681 6.1237 1.843 4.3403 2.5673 -5.3352 0.95715 -1.8854 9.2083 1.1064 4.0477 -0.9713 6.0124 -6.2765 3.2981 2.7041 -3.038 -3.3023 2.6061 -2.5537 -2.2253 -7.4896 
chom 5.3892 -6.6543 -3.4034 -0.26952 1.5547 4.3771 -2.2625 -0.38542 -5.6191 -3.2081 -3.7655 3.1977 4.1633 -7.3075 6.5612 -4.1367 0.15683 5.8425 -15.866 0.38767 -2.2452 -1.3687 -6.5314 -3.53 -1.2645 
opchy -1.8743 -0.70293 5.5348 1.4783 5.4708 -5.5995 -0.23886 -3.2102 -2.9759 -0.89579 -1.3841 -2.9922 1.5634 -1.1778 1.9028 -0.72311 3.723 2.3805 -3.9477 -2.5886 0.23632 0.54897 0.98315 4.4216 3.6783 
cheeo 1.906 7.5705 -0.88454 0.78552 -6.3268 6.4232 0.31787 -0.96114 0.43484 -1.619 3.6654 1.7436 -6.5406 3.7521 -3.3785 5.5425 4.3986 -0.83904 -0.18784 6.5131 2.4393 -5.8129 -3.2723 -6.6134 -1.841 
ychey 6.4964 2.4123 1.1647 2.1396 1.912 -6.1818 -2.1719 -1.6979 -1.9191 -4.67 3.8561 7.1748 0.59672 -1.4565 2.8874 -4.4627 -1.7515 -2.3715 -2.4802 6.2512 -1.8146 3.2709 -5.5274 -4.436 -1.2109 
tchdy 2.3241 7.5962 1.7576 -6.4431 -0.80473 -2.1215 -2.4833 -1.1102 -5.2917 -0.57713 -1.0203 3.1004 -0.66989 -0.31213 -3.9559 -7.3246 0.62668 -3.1049 -4.0666 -1.1661 -1.3511 -0.80407 3.2685 -1.4788 6.4505 
cphol 1.3671 -4.909 -2.86 1.6469 -0.73422 -3.4106 -5.9823 -3 -5.6246 -5.0537 0.026928 4.1938 5.5748 -0.87422 7.165 -2.7624 4.9522 -4.8505 0.29347 -8.2919 2.0229 2.4312 -1.1061 5.5558 1.9655 
ror -8.1255 3.925 1.2077 -0.11983 1.2645 3.5893 -1.3955 -2.7441 11.691 -3.9281 5.0561 1.2791 11.185 -3.766 -6.9634 -0.74848 5.1938 6.1636 0.033428 -6.4629 13.978 -7.7941 -4.921 5.3591 5.823 
otody -1.1789 2.7242 3.818 3.1958 1.6948 -2.5808 3.8601 1.6365 -2.3688 0.96176 -2.5739 6.772 -0.063672 8.0226 -5.6005 4.5561 -7.3296 -0.10603 -1.3866 0.54832 -0.15106 2.9826 1.2957 -0.009745 0.69315 
ykeody 2.1 0.87616 -3.0565 4.7597 0.41198 -1.428 -1.1368 1.0345 -3.4675 -1.2625 -1.7608 -1.6997 -0.87658 6.6292 3.2292 5.4094 -3.145 -0.53005 -2.3743 0.16367 -5.7901 0.61249 -3.1425 2.1987 -6.308 
odal -2.1641 -8.0794 -0.50538 5.7357 2.4138 2.1697 -2.3871 3.7377 -6.1822 0.84481 -3.5807 -2.8746 -0.71996 0.72028 0.77135 2.4325 -7.3005 -6.4955 2.255 3.3171 -3.1522 -4.5097 2.6881 -0.14236 -1.735 
soiin 0.97726 -1.8142 -5.3521 2.0076 4.1121 1.5299 -4.9642 -4.3241 1.0282 0.68281 -2.8472 -1.0339 -1.3482 1.7012 0.27754 -3.2353 5.7224 1.2444 3.256 2.3846 5.2773 3.3871 -2.6009 -1.266 -1.3013 
sheeky -3.7434 3.5042 9.1178 -1.2514 5.7753 -2.1027 2.5088 2.2577 -1.2674 0.87957 3.44 -5.3615 1.9809 -1.4594 3.106 -0.22286 4.8421 -1.5933 12.372 -3.1934 -2.4037 1.9611 -0.94959 -2.0191 -2.0566 
qoeey -0.1207 -5.7679 -5.2088 -4.4153 -2.1278 1.3929 3.19 2.4335 2.3307 -7.0838 -3.8553 2.7183 -7.5086 -5.9237 -0.72238 1.8391 0.36644 1.0196 1.2591 -1.7616 -3.4175 -3.7228 -3.1577 -2.499 -3.3069 
kair -4.0375 -6.6436 7.4858 -2.5174 -4.8772 1.5512 9.2532 5.4957 0.84284 2.3801 -3.3081 1.3202 -1.4039 -6.8797 -4.7414 6.0733 7.6732 -1.4622 -3.8496 -3.6133 1.151 -4.9483 4.5961 -0.46872 4.9359 
ytchy 1.4576 -2.8261 -2.1257 7.8777 5.3554 -6.5499 1.2368 -1.8967 -5.3721 2.4271 -1.5373 -3.614 3.0194 0.88893 3.821 -3.7791 -0.90208 6.8112 1.0226 2.6259 -4.2927 -4.4116 -1.3943 -3.5036 3.4952 
choly -2.6306 -1.3862 2.0727 5.0772 1.7944 -5.1663 -2.3767 4.0896 0.91021 -0.59651 -0.938 4.573 -1.2242 -1.3973 10.879 -0.041144 -3.0205 4.0348 -3.1264 0.56352 -2.9854 3.0108 -0.35383 -2.3657 -0.32333 
lo 9.6885 3.0927 1.6595 -9.4413 -13.019 -7.9819 8.8167 -9.7532 6.1538 3.0876 19.641 6.7733 -12.076 5.0643 -7.1812 0.9498 15.732 -14.415 13.602 6.7357 -2.3762 -12.259 -7.7728 -5.4929 8.7069 
shedaiin -1.9062 -1.258 3.3012 0.8002 -1.4143 0.30075 -1.6996 -2.4758 0.9984 -0.69056 -2.6782 -1.9605 -1.5117 3.4345 -5.9712 -0.28619 -0.87528 1.01 -0.21991 1.6145 1.9698 -0.55258 -0.41531 1.5875 -3.8824 
pol -5.2863 -3.7785 -1.3483 -1.6095 -0.94499 -3.4616 5.0059 0.1645 11.614 1.3947 -3.5579 -4.0534 2.322 -6.5198 -2.6603 6.099 -2.094 -10.262 4.1401 4.8033 -4.2275 -4.1015 -1.1643 5.9962 7.1433 
okeeol -0.97221 4.0713 -2.564 1.0025 0.32243 7.7448 0.76796 1.5074 0.24645 0.79876 3.1779 5.6733 -0.68294 -0.50987 2.5087 6.4765 -0.35967 1.9351 1.8239 -0.30329 -0.59742 3.4592 -6.1861 6.7349 -5.2312 
ctheey 3.131 2.9055 -8.1036 1.23 2.4449 0.58449 -4.3858 -1.1238 -2.8023 1.9291 -0.28915 5.8238 -1.0099 -1.006 5.621 1.1052 0.23087 2.0104 0.026255 3.0159 -1.1008 -2.6524 -0.40665 -0.21411 -5.913 
qokeeody -2.6321 1.2525 1.9446 0.66644 -2.3742 6.018 2.2099 -3.8874 0.79614 -2.1105 -3.8688 3.3723 -1.3961 3.5658 -0.098853 3.0003 0.55358 -1.2524 2.7735 2.4537 0.57146 4.0638 -0.50197 -3.4197 -8.5209 
cphy -0.76708 -9.5117 -2.7447 0.41771 0.56367 -0.77681 2.8223 -5.467 5.5566 5.0532 -6.3659 -1.9467 2.3763 4.8097 2.5898 -4.4959 -8.6611 5.9647 -5.9698 -2.2162 -0.41217 -2.7939 9.47 0.15468 1.9779 
chckhdy 1.8915 3.0829 -1.5837 -3.4715 -1.1685 -1.6267 1.5967 2.7434 -2.426 -0.52896 1.5907 2.9587 -2.6166 2.0498 -6.6833 -3.9788 2.3592 2.1904 -0.29798 -2.016 -3.2346 -3.9809 2.2481 -3.1945 -1.2788 
lkchedy -1.0274 3.0379 3.3466 -0.91055 -3.9716 -0.69427 -6.1167 -0.20591 7.681 1.159 -2.104 -1.3202 -1.5259 7.9722 -3.3681 -0.77704 2.6358 -5.4732 3.897 -2.5161 2.4231 -3.0885 -4.9523 -2.7685 -3.3939 
lkai!n 4.3754 2.5372 2.4361 -6.8267 -3.6847 4.1558 -1.3131 -1.2104 5.0849 3.2369 3.8962 -0.40952 -0.053821 -5.4135 1.8455 3.0937 8.1447 -1.3114 5.2465 0.017343 9.0087 0.36929 -2.6822 -1.1283 0.75312 
oar -6.9254 -0.98123 5.1913 -8.3425 -2.8351 5.6548 -1.848 8.1158 -3.6483 4.3884 -8.6203 11.367 1.6263 5.9763 -5.34 15.183 -7.255 -7.529 -3.2998 1.7861 6.1527 0.7297 7.1708 -8.2041 -6.2005 
cheeor 1.7814 5.7023 0.067472 -1.1879 -0.75425 8.3914 -4.1336 -0.56222 0.74427 0.98459 0.58234 7.9934 2.4567 -1.7442 2.0226 -1.0658 -2.6247 0.2835 -0.9854 1.7075 0.8705 -1.8528 0.40091 -2.1281 -5.1076 
qotchol 3.4079 3.6533 -7.0588 1.4147 4.2023 -4.6366 0.46318 -3.6367 -2.7806 0.47219 -1.8451 2.3052 2.7118 -1.2799 8.0934 0.74962 -5.4902 -1.2709 -11.462 2.6205 5.186 -0.45985 2.5644 0.7369 3.033 
ytor -1.5321 -1.4553 -3.502 -0.014345 3.8519 1.5837 3.3645 5.23 -6.9815 6.6228 -0.94674 0.80159 2.3784 2.7322 2.4077 -8.431 -4.9902 -7.2565 -8.4773 -6.9838 -2.9573 -5.192 -1.2508 -0.37217 -3.9563 
lchdy -0.53864 2.4853 0.7539 -2.2033 0.0018754 -0.87324 -0.9063 1.1295 4.9063 2.5731 1.3389 -6.7281 4.2837 -5.9291 -2.4946 -4.5399 5.5732 0.8911 4.2389 3.5556 -3.885 5.1729 1.4245 5.9583 -6.4431 
chkeey 2.4409 2.462 -2.8991 -3.4566 4.1435 2.877 1.2366 -0.90757 -1.3635 -1.2818 2.2283 1.3307 -8.5605 0.31882 6.0205 0.19743 -2.9791 -1.7745 2.7308 -3.2434 5.6673 -4.2659 -1.0417 -4.3205 -2.2005 
okeo -2.4894 -3.2366 -0.32835 7.1445 3.2772 4.5602 -2.3115 6.2624 0.54865 2.3892 0.30942 4.9622 -4.0022 3.3477 6.561 10.731 0.72347 3.3202 2.349 1.3557 -8.2153 2.3099 3.7297 3.3938 -8.4172 
r!aiin -1.2098 3.3573 -0.94107 -7.8341 1.3283 0.45391 -2.3299 -1.956 1.8265 2.5537 -0.18961 0.25898 -4.0423 -2.7994 2.0105 -0.17847 3.2093 -0.1371 -2.8944 2.0818 -2.6047 -2.6932 -3.8609 -0.006021 2.0535 
choiin -2.7318 -4.9171 -9.4833 -0.62475 3.7381 0.81719 0.72462 -4.5262 2.2203 4.5732 -0.49972 1.1857 4.7028 2.727 3.735 -4.3082 -4.8065 4.9636 -3.2972 1.2472 -0.13485 2.6264 -4.0794 2.169 3.1813 
shky -5.0941 2.5364 -0.24045 -3.621 1.9125 -3.7323 4.5484 -3.1507 -12.192 -2.3308 -4.9541 -1.5351 0.80382 2.1932 3.117 2.7525 -0.27384 -3.0976 10.171 -2.8311 -4.5232 5.6931 -3.9743 -0.58763 1.3181 
olkain -1.6002 3.8295 -1.0951 -4.2434 -3.5502 -3.5943 -1.1908 2.5439 3.6742 2.007 1.259 -1.9737 1.9378 -0.61087 0.94594 -1.2286 2.1569 -2.4957 4.3169 0.025341 1.2173 3.0853 10.401 -0.69083 5.6114 
sheos 3.2095 3.7946 2.174 8.2419 -5.2164 -7.1312 -0.32275 -3.844 -4.4087 -3.2331 -7.118 2.2208 2.4995 -1.993 0.61038 1.3189 1.774 4.8566 0.7632 6.2862 0.58183 0.18565 3.6163 -3.1423 -5.5907 
qotam 0.56989 4.5622 2.7788 1.7306 -1.6876 1.1582 4.9212 -1.6094 7.5453 2.3143 -3.818 2.8773 -2.08 -1.097 -1.6518 -3.5994 0.86548 2.8578 3.3648 -1.965 -2.0349 -8.8732 -0.82471 -5.0002 -3.7758 
ry 11.374 -1.0497 11.979 3.4623 -2.7078 6.3622 -0.23579 -12.119 6.2212 0.74244 0.83323 -4.5607 12.176 -5.2762 -0.52678 -2.3496 14.58 19.579 -1.4645 9.4185 -10.398 10.008 0.1474 1.0671 7.8172 
ockhy -5.054 -4.2876 0.19084 9.3172 -0.32408 -2.9624 -1.1544 0.9577 2.6759 -1.7856 -1.6976 3.2233 -0.82108 2.258 5.8804 3.6513 3.7101 -4.2411 -1.4775 7.8174 -9.0684 -1.0173 3.2991 -4.0549 -6.0523 
aral 1.7287 1.9259 2.9117 -0.39217 2.3731 2.8795 -3.8856 1.8717 -2.9316 3.7356 0.068665 5.9397 1.8119 2.7155 -3.6104 5.1802 3.4655 -10.621 -5.8778 -0.025323 0.67238 -4.2063 1.1499 3.0605 -7.1648 
okeeody 1.3864 -0.31232 0.54607 -1.909 -1.4161 6.2589 0.97832 -0.67881 1.9396 -1.5517 0.7366 4.9991 1.7127 0.9008 -2.8498 6.5383 -1.7759 -1.3961 -1.9456 4.5022 1.9656 1.7452 -0.49109 -1.5954 -7.2483 
yteody 7.7414 -0.26896 2.9206 8.4153 -0.66834 -2.232 0.55296 -2.4964 -8.5318 4.9225 -5.2349 2.5282 0.78336 2.3381 -5.5149 -2.0678 0.18625 -1.5474 -1.0004 -0.55472 -3.3414 -2.1605 1.097 8.6673 -9.0757 
oteo -3.3315 -0.16097 3.3347 6.5075 0.14776 3.6172 1.4767 2.0605 -4.8647 4.6925 1.8976 1.5739 0.86748 3.604 -0.62122 9.8035 -8.3122 5.3832 1.7532 3.6013 -1.7538 -3.6198 -6.1284 6.4685 -10.158 
dan -2.0768 -12.296 -7.1299 4.1462 3.4807 -1.2674 0.83945 -8.2192 -5.5475 6.1827 -9.1182 -1.0314 0.45004 1.4056 12.058 1.3288 0.24165 13.187 -3.6101 0.91536 -5.9846 -1.2729 0.18987 -0.48135 10.973 
olkal -3.4508 0.73698 4.8008 2.2463 -7.7015 -0.70482 2.3288 5.2283 4.9585 -1.8044 3.9872 -1.3986 0.026327 3.5905 0.89517 -1.4145 -1.2154 -5.6004 1.9543 -1.8305 0.98861 0.719 4.3642 -3.8377 0.031636 
olkey -0.14738 6.2289 -2.3874 3.1254 4.8933 -2.5292 0.11684 1.4171 -2.6776 -1.0114 -3.7905 3.7452 5.472 -2.1428 -0.82242 1.1014 3.3108 0.98258 8.2001 -4.9861 5.9911 -0.52147 3.7587 -0.54941 1.4841 
ot 3.3327 3.578 11.971 7.4911 6.0218 0.86081 -4.5604 2.9855 9.2774 -7.1407 6.5254 8.6512 6.7408 -2.2747 -4.0487 2.9311 -16.696 -4.3231 -1.283 1.4503 0.76041 2.1237 -1.5513 12.139 0.67075 
qotchor -0.20325 -2.4227 -4.0332 0.81695 3.646 -0.79289 -0.92804 -3.8375 -0.56926 0.54229 -1.3668 -1.2619 7.6683 4.6849 8.2708 -0.89797 -8.792 0.96162 -6.4106 -0.28524 1.6366 0.14256 -1.861 -3.1817 2.3661 
shckhey 0.11022 -2.6388 3.9817 -0.66356 0.32562 -0.24386 -3.8281 2.5918 1.2283 -2.5772 -3.2796 -1.4171 -3.8668 -3.6373 4.7252 3.5905 -1.3835 -1.0409 5.3643 -0.75593 -0.20071 4.5298 -0.27819 1.6214 1.8944 
laiin -2.313 -5.4281 4.4147 -2.0339 -7.306 2.5889 -2.0577 4.8215 3.6793 0.1017 0.94287 -0.87963 3.3922 0.44434 -2.5172 1.5848 -1.2597 -2.9634 1.1271 0.77719 3.4785 1.1366 -0.25297 -2.6656 -7.1604 
ytol 3.9114 6.3382 -4.6655 6.8535 7.1568 7.4403 8.5747 -3.2839 -1.182 0.059964 -5.5818 -2.5392 4.0103 5.424 1.5029 -8.9174 -5.4942 -0.89741 -7.7662 -8.5917 1.5088 0.49437 -5.3781 -0.22038 -3.6206 
qokaly -0.4675 8.8461 -1.4693 6.5808 -0.68231 1.0216 2.7665 3.5527 0.087877 -0.90017 -1.4409 -4.7224 -2.8701 3.2803 -1.709 -5.1574 0.88001 -2.058 6.8453 -0.43163 0.58057 3.9147 -0.32526 -2.5596 -1.9141 
aldy -3.8972 1.6402 1.5284 -2.6877 10.252 7.4464 -3.374 1.0417 -4.1718 4.7434 0.56424 2.0044 -1.3579 0.14657 -0.22772 4.9247 1.6302 9.6922 -2.3042 4.1709 1.7255 8.2142 5.103 3.5994 1.08 
oteor -1.3128 1.4204 4.2576 1.1384 3.3866 3.847 3.4158 6.2554 -2.2226 -0.079089 3.6193 0.6925 1.0344 -1.5417 1.5601 0.1411 -5.4493 2.5743 -0.81477 2.4653 -0.6761 9.0836 -1.8452 -0.18938 -6.1701 
chkal -0.72541 6.6707 1.3153 2.1972 7.6453 -3.2193 4.0035 -4.4464 1.1887 -1.8074 0.16666 2.8634 -8.0736 4.475 0.8206 2.5194 0.7631 1.4265 2.1894 2.657 6.8197 0.050435 -1.8199 -5.9791 2.4958 
shes 0.02936 1.0068 1.7881 -5.195 -5.3288 -7.5777 -2.259 0.0090656 -6.5537 5.4189 5.4694 -0.58359 3.1984 -4.3068 0.74405 0.13556 4.9021 5.2127 0.1197 -1.6726 -1.2886 -0.6775 -3.1639 11.429 -4.7663 
ram 12.12 9.8071 4.2872 -10.164 6.5294 -6.6255 9.1935 -8.2912 12.245 -2.1512 -3.1101 -0.90873 -2.8542 -1.2684 -5.0059 -0.61361 3.1864 -9.2612 -0.9081 2.8971 -1.5245 4.3465 -2.7041 -2.5536 -6.111 
dcheey 1.6584 0.17136 -4.8487 -4.6491 -0.84572 -1.2333 -4.1911 -9.3987 -0.32771 -3.5929 -4.8641 -1.8057 -2.6476 1.0301 1.8391 2.9944 -4.9253 3.5126 1.8465 6.6938 0.84205 -2.2939 -2.169 -2.825 0.36691 
opaiin 1.9406 -3.8649 2.0797 2.6575 1.7457 4.1658 4.0556 1.7467 1.3771 -1.0922 -2.1737 3.3065 -1.314 4.5663 -6.6793 4.5756 -8.2345 -0.75899 4.0927 -1.6932 2.3558 2.0914 -4.1385 1.4093 -1.1158 
olar -7.317 0.41212 -2.0005 2.0547 -7.6246 0.87489 -7.2741 12.569 0.46844 2.5492 6.0253 1.7809 0.15849 -4.7187 -3.6055 -3.11 3.0296 -6.263 0.0027052 4.0143 0.9938 -3.5779 4.0039 3.1324 -3.0745 
qopchy 1.2364 -5.0157 -0.91876 0.27567 1.0243 0.12416 2.8346 -3.8723 2.4171 -2.2434 -5.3567 -1.4168 2.5628 -2.1933 -2.9671 1.2876 0.97395 -0.097908 -5.2085 -5.6485 0.87881 -4.3939 2.1224 6.7385 3.6631 
lkain 2.8937 2.4773 -0.18824 -4.1617 -1.9218 1.0967 0.036422 -0.60512 1.7827 1.569 3.2663 -2.4955 1.2405 -2.7803 1.1889 4.0092 11.039 1.9126 6.8508 -2.1919 5.2495 -1.3247 -0.085255 -1.8721 0.13255 
okchol 0.18181 -2.0474 -5.5037 3.8951 -4.6959 0.57277 1.7511 2.3762 -3.541 2.3257 -4.5471 0.10236 -0.21576 4.3284 7.3938 -0.67281 -1.8017 5.0101 -4.9867 -6.3959 -3.3889 2.1266 -1.1196 1.1095 1.2646 
m 3.0566 6.2465 -0.62723 1.6103 -10.93 10.075 21.326 9.2304 -5.0972 -18.804 4.3839 5.0441 -27.372 -0.23077 -2.4161 -6.8468 -23.653 7.8134 3.3132 1.9543 -9.4826 -7.6155 9.425 -22.536 28.001 
do -11.495 -11.412 -10.155 -6.7335 -0.77591 5.4158 13.093 -18.802 -3.6841 0.18417 3.2172 -7.1823 -4.4761 6.5017 1.4882 -14.102 -4.1045 8.4559 -20.113 0.45937 8.9051 2.4764 -20.715 4.3636 4.1437 
keeol 2.6922 -3.0343 -6.7871 0.43823 -3.588 3.0196 -3.3386 3.302 6.2966 -0.82642 3.8926 2.9746 -2.969 -2.2828 3.7606 5.2329 -2.104 1.0133 -0.4671 3.5762 0.55417 1.8586 0.84608 4.6809 -6.0145 
pchor 1.5963 -1.3696 3.1571 -4.2038 -0.24217 -2.06 -3.1787 -3.6027 -2.4326 4.3932 -6.7791 -1.9037 8.4217 -2.1858 -1.4673 -1.8555 -2.6921 -5.2676 -6.5955 -1.0392 2.0237 -5.9321 0.82214 1.2411 3.244 
otedar -2.684 -0.98014 5.3193 2.9685 2.8624 -0.071246 -1.3482 -2.2183 -0.49174 -2.2301 -0.24751 -2.483 0.4221 3.0339 -5.2125 5.2112 -4.5479 4.8527 1.8773 4.8047 -2.7989 2.0128 4.4092 6.2011 -3.5391 
ly 1.8643 11.701 -5.4181 -11.382 -7.2768 -17.88 -19.774 6.8491 -6.0788 -13.994 5.9101 -6.824 8.509 -8.1819 5.6603 -20.271 -23.633 6.6667 24.275 0.73103 12.593 9.562 7.835 -7.5797 17.525 
ycheo 0.41343 -1.0926 1.1666 -0.91222 -6.6177 1.4514 1.732 2.8347 -2.3481 -5.1601 2.1787 6.0805 -8.0496 2.827 2.8667 4.9066 1.137 -3.4952 0.27665 -4.1801 -2.8015 -2.7737 -0.49596 -2.3451 -2.7361 
cthedy -5.6172 4.5846 -0.44738 -3.8496 -4.6612 2.4193 1.6889 -3.6071 -4.7404 3.8054 4.1601 0.36397 -7.3284 1.1682 -3.0071 0.22865 5.1612 -0.54217 4.621 7.3023 -4.5753 0.31603 -1.8095 3.1145 0.077565 
doiin -2.2831 -2.7213 -6.4251 3.8478 8.8226 2.8022 -1.5566 0.91441 2.411 0.73992 -0.14323 -2.7057 5.1474 1.0389 6.3326 3.2087 -3.6276 1.219 0.87396 -0.79375 -1.9724 1.636 -5.0405 3.8912 -1.7008 
sheeol 0.48014 6.4726 2.329 -0.98809 -1.4911 3.8969 -1.5203 -3.1656 -2.6817 -4.1346 -1.6709 3.155 4.6024 -4.7493 3.2186 -2.2361 0.87432 0.39387 6.5944 -4.4382 1.4589 -0.34502 -3.9821 0.49798 -4.9004 
lcheey 0.69211 5.741 -3.061 -0.26538 -3.6899 -0.67681 -2.3429 0.35131 8.8041 0.94822 2.7811 -4.1307 3.8196 -2.2946 -2.1751 0.73259 7.2207 1.4315 1.3333 5.3602 4.2641 0.38708 -3.0695 -0.72632 -0.27507 
ykeol 0.24661 2.4333 -7.535 3.4043 -2.7009 -0.42812 -9.3905 4.8422 -3.4142 -6.2552 -0.92177 0.50647 0.14654 3.6728 6.0131 2.6606 -1.8755 1.2544 -1.5065 -1.1705 0.50157 3.0545 5.4705 -0.42149 -2.2972 
shedal -3.341 -6.5112 2.3325 -5.6791 2.5038 3.6962 6.4485 -2.0383 3.7414 3.9668 0.485 -2.0743 -7.5477 0.59408 -7.8519 -5.5656 3.1653 -3.203 6.0258 3.263 -3.6289 6.1774 -2.8368 2.1227 -2.2324 
okees -0.75829 -2.7071 6.093 0.67007 2.1942 7.9539 -0.031769 2.0706 -3.3511 3.7647 6.5765 -3.5747 -2.7063 6.7911 -5.292 2.2352 -2.1513 2.8344 -3.1945 2.2195 -0.8441 -0.65814 4.8536 2.4839 -5.4571 
chodar -1.6143 -1.5391 -4.5656 0.37952 -1.2118 3.2626 7.5479 -1.6464 -1.5106 -2.6213 -5.822 1.623 1.5724 -2.1717 -1.3189 -0.42467 -0.6645 -1.9849 -6.6141 -0.080608 0.012261 1.0108 -8.3053 -1.3288 0.81575 
chckhedy -2.3822 1.8396 -1.1056 -1.5463 1.375 -2.5091 0.91438 3.2142 2.2392 -4.508 2.3785 -2.2646 3.5433 1.9667 -1.1475 2.652 2.3242 -0.52866 9.1923 -1.4552 -2.6323 -0.40958 -1.3625 -5.4366 1.0076 
qokshedy -1.2534 -1.2217 -0.13153 -6.5024 1.2526 6.2072 1.7267 -4.653 2.9486 0.27686 2.0608 -2.03 3.6658 0.90491 -2.4806 -4.6661 3.5745 -4.899 2.8493 -0.7113 2.2827 1.5783 -1.5746 -3.2028 2.9782 
olshey -1.6947 4.0477 -0.43542 2.9556 1.4173 1.6048 0.50737 -0.99016 4.4745 0.98109 3.46 -7.0106 7.3878 -2.955 -1.1054 1.3456 3.9662 -2.1195 4.7058 2.9089 3.4325 -0.90187 2.264 3.1727 5.7613 
ykal -9.8405 1.8548 1.0508 -2.5587 3.98 0.48431 2.5483 6.3032 -9.3996 6.7637 -0.14854 2.7413 -2.9596 4.4365 2.7595 -1.2526 -4.1416 -6.3364 2.6348 0.27494 5.87 4.9509 5.3762 -5.958 -3.2782 
okeal 3.4835 -7.0619 5.3494 2.3783 -2.0318 1.2477 0.58572 7.1864 -2.7095 -5.2923 1.5141 10.038 -10.388 -7.0551 -6.4749 6.9363 0.68519 -4.8562 8.0649 0.63255 2.2505 4.1318 -0.83477 7.1654 0.40481 
qokechy 1.1279 -0.78305 -2.4719 3.6504 0.095518 -2.1498 1.0287 -5.2897 3.3942 -6.1232 -2.865 -1.6956 1.3058 -2.9227 -4.161 4.1563 3.2361 0.66634 2.525 6.5258 0.93952 0.9656 -5.4869 1.7575 1.5147 
rchedy -2.6268 1.5707 0.69973 -6.2319 -6.213 -3.4802 -7.8887 -4.9724 2.6195 -0.91865 0.0032329 -1.8948 -8.9029 -1.7193 -2.3083 -5.6132 0.75331 -5.7346 3.8307 6.6924 -4.0826 -4.2875 0.75651 2.8945 3.8146 
cheeody 1.3018 4.4915 -0.57574 -1.2996 -2.7874 3.8532 0.40083 -3.8618 0.048767 -0.79083 -3.5372 8.2747 -6.219 -0.56 -0.50486 2.2936 3.3858 0.5915 -0.2812 2.6908 0.50354 -1.0631 0.77164 -2.0901 -4.4635 
dshor 2.6167 -1.6402 2.2442 3.6077 3.4894 -1.31 0.13729 3.536 -2.0933 0.013599 4.8413 -7.914 3.6242 2.9945 1.4611 -6.5023 -2.8926 -5.7065 -5.0624 2.0724 -2.2154 0.89866 -3.507 -4.3243 4.7392 
ytey 4.4954 3.5944 5.1201 9.1 2.3107 -9.8747 -2.132 2.6754 -6.5771 1.8778 -0.51903 -5.3226 -0.52342 1.6992 4.779 -8.1097 -6.5722 -3.9523 -1.1997 2.9547 1.4075 4.9371 1.4794 0.35278 -3.9039 
oteeody -5.3676 -0.18561 2.1582 1.794 -0.74138 -0.40922 7.6999 -1.3522 -4.6702 1.2431 2.7209 -1.0535 -0.092671 1.6666 -2.5867 0.28637 0.43081 4.4786 0.9217 0.050268 -0.52697 2.3653 -6.9625 4.3701 -4.2907 
ycheol -4.1687 -1.5614 -7.0531 3.3265 -5.7955 -1.6581 2.9226 -2.635 1.7847 -4.0952 3.2566 3.6536 -4.0087 -1.7742 1.5736 -1.2798 5.0427 -4.4481 2.0566 1.6835 5.9038 -3.1651 0.58775 0.31183 -2.8096 
ykeeody 4.8714 0.72682 -2.2418 -1.025 1.6014 -1.0606 1.9957 -0.60684 -2.6007 -0.96 3.2364 4.5235 -2.3722 5.8748 -0.17854 1.3238 0.4408 2.4209 1.2168 0.39335 -6.3824 5.7172 -1.8793 0.13153 -5.3908 
shee 2.4634 -3.3661 0.80934 -1.2119 0.84056 -0.60142 -2.4653 -2.3393 -7.1378 3.6568 -5.5741 5.371 -2.4694 -1.2818 -3.5986 0.64111 6.8196 3.6904 5.8866 -3.4027 4.8215 -0.1193 8.9713 3.3496 -6.3925 
chan 4.9628 -6.519 -2.3985 2.4531 5.7692 -7.0873 -6.215 -4.1529 -0.089161 0.65836 4.1163 -0.42373 -1.4158 -1.4882 13.953 2.1649 6.7775 -1.6609 -4.0691 8.4606 6.8683 2.0512 -1.179 -7.2018 2.3298 
pchdy -1.4958 -3.6659 3.1217 -4.2871 -1.369 -2.6477 -0.63832 -3.5201 -2.866 1.4357 -8.5569 -2.3258 -2.236 0.67282 -4.004 -3.6881 7.5071 -7.3733 -1.4341 1.304 -8.1797 3.6881 7.1554 0.83297 7.7559 
ytam 0.19494 6.0081 1.0627 7.2048 0.51881 1.8466 8.3709 8.5803 -6.3133 -6.2954 -1.062 8.3905 1.6742 -2.2252 -5.6887 -4.2849 -3.2176 -3.6321 -9.714 -0.09121 3.5861 0.32652 3.2851 -8.2004 3.1286 
cthaiin 1.033 -10.492 0.25257 4.1027 0.027601 4.2667 -1.8505 -0.31875 2.0124 1.7325 -3.5117 0.24742 3.5323 0.96151 7.7479 -1.0548 4.0398 5.4348 -6.5542 0.2213 -0.41868 1.7249 -0.34454 -7.601 4.3828 
choy 9.3612 -0.65038 -7.0109 -4.9136 5.8252 0.1531 5.096 -5.6403 -1.6208 -2.7982 -4.4212 6.8681 1.8677 1.6609 3.9357 2.1726 -1.406 9.9924 -4.7921 -5.1259 -1.2203 4.3626 -4.0757 -3.4575 3.6984 
daim 8.6377 -3.335 -10.361 6.3921 -3.8807 4.2044 8.4333 2.3125 -4.1088 -0.29536 -5.8359 -0.72098 -3.105 -3.6481 -5.9373 1.1595 -4.4598 -0.62424 -0.4783 9.3395 -1.8779 -2.1211 -1.7925 -4.6634 -1.6158 
chotar -3.3069 2.5595 2.6508 11.513 -8.8734 -1.7622 -4.3603 4.5492 5.0675 0.34545 -3.2928 1.9758 0.99003 -1.5488 2.7438 -0.54616 -0.77142 -3.6135 -5.2256 2.7912 1.6619 0.59521 -0.71339 5.2913 -4.5773 
oteeo 1.2745 -5.6246 2.7 1.7202 -4.9502 -3.1741 -1.2203 0.16366 5.2732 4.3092 -3.4321 2.6428 -2.9977 1.2513 -3.4241 7.529 0.17143 5.5633 0.83538 3.1617 4.8402 -1.898 -1.5161 1.6777 -4.2934 
tair 0.4458 -3.5743 6.0809 2.0195 -6.4969 -5.808 1.8261 6.3742 -0.026908 5.2178 -4.6239 12.363 -9.6951 -3.1931 -10.294 -1.1013 -0.87928 4.6092 1.0855 3.353 6.9667 0.3514 6.1287 1.06 -10.449 
shocthy 1.513 -4.4983 -0.52415 2.9023 1.6348 -2.4681 -3.3654 1.3911 -4.4833 -3.1754 -4.7684 0.26637 3.3806 -0.62976 2.4084 1.1693 1.9173 0.1658 -5.1791 0.20165 -4.0984 -2.1589 -6.2191 -3.7814 -0.038873 
tey -1.5196 -9.001 3.3297 2.1637 2.6298 -9.655 -2.9843 0.019817 4.4942 -3.5228 2.7293 6.8866 9.5941 -8.5844 -1.1708 -3.1769 -4.7363 2.6925 7.4598 5.055 -7.8216 -6.7199 -3.4972 1.0535 -8.1236 
chkar -6.9822 3.0927 -5.5195 -5.0874 6.614 -1.5678 0.27976 0.71719 4.1747 5.3905 -4.0124 -7.1753 2.1357 0.65649 3.1021 -2.0186 2.6972 3.1654 0.03406 -3.3933 4.9279 -1.1954 0.73662 -2.0942 -3.0015 
qoteol 7.3105 0.43066 -5.0284 1.879 -1.3161 1.5327 -4.7606 2.5586 0.36225 3.3096 -2.2257 -2.9397 5.1499 -1.8797 -0.81257 3.1076 2.7755 0.74885 4.5812 -2.0995 1.8925 -0.7824 -0.43363 5.4385 -3.9391 
checkhey -0.32253 4.9124 3.4164 -2.7991 0.95879 4.7531 -6.9458 0.20516 -3.5529 -2.8556 1.1757 3.0605 -2.1951 -6.5549 3.8447 3.6579 0.38398 0.39544 8.0098 4.3632 0.76622 -1.2112 0.17649 -2.129 0.96122 
qodar -7.728 0.15138 -6.7174 0.67262 0.28733 -5.5145 -0.017396 -0.47646 0.10483 0.42249 -6.9487 1.1938 -3.6852 -2.8062 4.0735 -4.1285 8.6745 0.96639 -4.2862 5.113 -5.9253 10.295 -0.19235 2.543 -2.9171 
yshey -8.5157 1.1415 -0.50728 -2.3129 -5.7739 -1.8061 -3.2319 2.9247 3.5167 4.5334 -2.7872 3.9787 0.10805 -3.6817 -1.556 1.0139 0.21869 -2.4384 1.1357 6.2696 0.59823 0.90655 -3.0889 1.9472 -0.35392 
ykol -4.0635 -3.3769 -10.154 0.75347 4.956 4.6007 5.464 2.1686 -5.4786 1.2742 -1.4529 -0.4344 -1.8898 3.5919 1.5728 -4.0965 -2.7942 -3.3334 -4.0007 1.6493 -4.6636 9.4249 -6.2517 0.27905 2.6975 
ychol -3.5605 -2.7528 -3.1561 5.3055 -1.3928 6.8906 -4.3834 1.8352 -3.0782 -4.7761 1.8754 7.6251 0.30157 0.227 9.0509 0.3726 -2.4197 -4.2643 -4.948 -4.3243 3.1068 -2.327 7.5195 0.60361 3.0458 
opar -0.48644 -0.1601 3.471 4.5355 8.8564 -8.6775 6.992 6.7083 -6.0503 4.8945 0.073104 5.838 0.56351 -1.2011 -6.4091 9.173 -2.8533 -3.2028 6.9678 6.241 1.0892 -2.7516 10.753 -1.9135 1.289 
chotchy -3.2423 -2.5648 -3.2434 4.2358 1.1771 0.55539 0.41343 -6.5166 -5.7215 0.80408 1.9301 1.075 3.84 0.96221 5.0358 0.72893 0.9855 0.5166 -6.7531 0.79444 1.6631 -5.1134 -11.983 3.1861 8.1812 
dshey -4.7502 -2.156 -3.6067 3.6914 5.2632 -1.2297 3.0605 -4.3134 4.1456 -3.0169 3.8202 -7.2381 -2.3087 1.5705 0.4807 -5.2244 5.801 2.4221 2.9703 4.9091 -3.0077 -0.47616 1.699 -3.0238 2.2791 
chory 0.64369 1.8988 -9.4545 2.3823 3.3124 5.1834 -3.7795 -8.978 1.2866 0.15216 -4.7293 -3.3265 7.5406 4.497 8.7926 0.33778 0.61697 0.83813 -5.407 1.8269 5.1661 3.7941 -1.6173 -2.0596 3.1586 
ypchedy 3.4718 3.2743 1.473 1.0326 -1.4168 -3.6677 7.0918 -1.867 -2.9348 -0.3087 -3.0947 0.98881 -2.2182 1.2573 -5.1442 -0.59911 -4.0471 0.39547 0.42791 -1.3836 -2.8585 -3.3613 9.9174 2.3569 -2.4 
qok 0.33867 4.2655 -6.4169 -7.8068 -1.5655 -0.45401 -11.088 -0.93109 1.0818 -6.6703 7.3932 -5.1119 0.30366 -1.3793 5.7555 -4.3692 -4.0616 -5.9829 1.9001 4.3583 -0.55248 1.7719 1.7494 0.16259 2.2794 
fchedy -1.7673 4.03 2.5443 -3.9736 4.007 0.8929 -0.15062 0.43284 6.6782 -1.5575 2.1133 1.4146 -2.7818 4.4461 -4.378 1.9232 -0.88403 -7.7806 2.9406 -9.1264 2.9206 -7.1473 7.4008 4.8408 0.63715 
qokeeol 1.0923 -1.3022 1.392 1.353 -6.4422 8.7012 1.84 -2.4489 1.5893 -7.5265 0.29265 0.23684 -3.8088 0.45482 2.8855 2.929 -1.2779 -0.64971 3.4085 -1.19 -2.3219 2.6687 -2.2039 0.8445 -5.0353 
oral 3.9281 -3.0448 0.29147 2.0443 0.71298 -0.18254 -5.6273 1.6192 -1.1484 0.69813 -3.4537 10.496 1.1351 -1.3161 -3.7001 4.6857 3.9061 -5.337 3.865 1.6754 -3.4842 -4.8443 12.34 0.20481 -0.29623 
okary 2.4861 -0.93299 3.2838 -4.4859 8.5451 -3.2859 4.3596 8.488 -4.3249 6.055 2.7394 6.0131 6.4756 1.9265 -4.3567 6.4818 2.5651 1.0405 -0.43145 -1.9214 -2.5439 -1.0581 5.3201 -5.7349 -3.2696 
chcphy 2.027 -1.1031 3.7167 2.5437 3.5395 -3.6036 -6.4263 -1.9396 1.1099 3.8407 -2.6638 2.3182 2.1828 2.1634 3.394 6.1405 -1.1617 -0.32236 -1.5182 0.10896 4.1234 -6.068 6.5656 0.93043 1.1206 
shety 5.7366 -0.86771 4.5891 -3.2388 -4.845 -10.839 -1.6309 3.8366 0.81484 3.1544 -5.1367 0.071937 2.7585 -2.5062 0.87862 -4.3968 9.0493 -2.5381 11.565 -8.6089 -4.1794 1.7833 -1.538 -0.74469 -5.9379 
sam 14.667 8.179 7.8026 -5.0269 -5.9958 -8.1234 2.7183 -1.3324 -7.3025 -4.3148 5.9394 -0.28122 -3.8561 -7.4926 0.62497 -2.0312 -3.5426 1.7264 -9.6171 -1.5512 4.6108 -0.46162 -1.4491 7.0887 -10.162 
cheodaiin 2.0109 -0.20273 -0.91349 1.7005 -1.0788 3.6195 -1.3296 -2.1634 -2.0299 0.83451 -4.9217 7.2886 -0.24995 -0.23233 -2.5746 0.6345 -2.1747 4.2188 0.34563 2.4514 2.6332 0.38228 -1.3101 -1.5023 0.55468 
shek -5.5289 2.984 9.3769 -10.106 7.0681 0.93886 5.4464 4.9134 -10.783 6.9124 -1.8733 -8.77 2.2925 -4.4558 -0.098276 2.3536 5.6472 -6.756 6.8548 -9.3783 1.9815 -0.80812 7.1551 2.0455 0.76427 
chty 3.2251 -12.045 -5.5725 -4.562 -8.297 1.3191 -4.3046 0.49912 -3.7141 -2.7259 -4.1917 5.0974 0.85588 -1.9733 -2.5003 -5.9239 -2.6445 -1.8339 2.381 -3.6976 3.1385 -2.4188 -2.6167 -4.4555 7.2419 
qot -2.7319 14.762 -4.9572 2.5622 2.0383 -12.351 2.104 -9.7011 7.186 -1.3853 3.0355 6.6532 -1.1581 5.6371 9.7719 -13.392 0.75441 -1.1127 -8.8415 0.64433 3.7939 0.76773 -4.3448 -4.3547 -0.4253 
g 3.8069 -13.372 -16.939 8.7863 -12.366 1.7382 11.28 6.9072 -3.1033 -1.9249 22.517 -3.5114 0.4572 2.644 12.288 -9.757 -7.6235 12.125 -19.388 -5.6707 -14.48 -28.613 9.7829 -5.3041 20.854 
ytchedy -1.3347 7.8119 3.0168 -0.95546 -5.7254 -2.6691 2.3349 -1.2346 -5.0423 1.7717 -4.4342 -0.76841 -0.1355 4.7925 -3.568 -2.8303 3.9778 -0.54487 0.89963 2.0374 -5.6517 0.97713 -4.0017 -5.6945 -0.96032 
pcheol 1.7494 5.3083 0.699 1.4012 -4.9515 2.1308 -3.4488 -4.9386 2.4101 -1.2284 -4.0549 -1.2197 0.87161 -1.3825 6.2928 1.5766 -0.68154 -6.224 1.3042 -4.0001 1.1874 -0.076391 -1.0497 7.4205 7.0151 
ls -8.9435 12.166 4.7899 2.9196 -2.7419 4.3284 6.8965 -6.0966 -20.545 4.0754 12.793 0.32756 -24.137 1.6936 5.6389 -20.287 18.453 -4.8182 -4.6982 6.2555 -4.6124 -7.5906 5.4569 -7.5812 -2.0313 
chdam -3.3749 -7.0675 6.0011 1.3635 -5.1834 8.7798 2.6965 3.0688 -5.3614 -3.95 3.1764 -3.5026 -1.8853 -1.5584 -7.8534 -6.6402 2.3747 -6.3561 -0.083743 2.1119 4.383 1.8212 7.0054 -2.9926 -1.8376 
otoldy 5.2888 0.014015 -4.8809 6.3216 5.1327 1.2982 -1.0116 8.1798 -7.8911 -3.3136 -3.0933 -1.895 10.394 3.0971 -4.4336 4.3477 -4.0751 -3.1483 -3.7977 -2.8698 0.15955 4.7941 1.1662 1.9554 4.6417 
okeeor -0.019758 3.325 0.67837 -2.196 4.3767 2.8936 0.46611 1.0202 1.847 2.6308 1.9224 5.3786 -6.994 -2.4511 7.8287 4.3289 1.5483 5.8447 0.3048 2.0246 -2.5026 5.4931 -2.7467 1.6962 -7.1651 
arody 5.6605 -0.82158 13.083 -3.3068 3.4389 -1.7493 -5.2804 -1.8756 2.5503 2.6645 -8.7838 -4.1506 2.6548 -0.99943 -7.4614 2.1597 0.66747 -2.3627 -2.713 2.1862 -2.586 -8.3318 2.4294 -2.9573 -5.2515 
shod -3.5367 1.8482 0.6166 1.8379 5.6013 2.2695 -3.9451 -7.1935 -3.7032 2.5358 -2.5263 10.936 4.6048 1.4302 -4.5107 -3.6356 7.4347 -3.573 -10.306 -0.21395 5.0114 -1.8524 -8.5259 5.986 -5.8291 
kam 5.7894 -2.5891 2.4732 7.9661 3.6602 1.609 -0.35046 -0.61887 -15.823 -16.273 3.579 -10.888 -8.1916 5.6735 -4.4111 -5.5541 -2.6956 1.2417 -5.1619 -0.83704 4.5178 4.8679 3.1794 -1.2886 2.5319 
arol -5.9035 6.4773 11.039 -6.0599 8.9119 10.373 -3.4615 0.79038 -1.062 2.3925 2.4333 0.85987 8.2895 -9.7199 -4.319 1.1985 4.3279 1.3187 -1.1018 3.2673 1.4706 -2.7707 3.0154 1.3118 2.9146 
ytchor 2.4534 -2.318 -6.6467 -6.0075 5.45 1.4683 4.6534 0.52589 -5.6848 4.1636 4.5889 0.15021 5.6379 0.98069 7.6472 -3.6297 -5.2742 -3.1913 -4.5631 -5.1953 -1.956 -3.7654 0.48427 -3.1542 1.2609 
qoar -4.2447 -0.97312 0.18062 -1.2532 -5.1631 -4.0053 -4.2667 5.7761 0.20866 0.311 -9.7263 -2.328 1.2845 -12.995 -2.7037 -12.914 0.99514 -3.2316 -4.084 5.8983 0.51467 3.405 -8.8207 -1.0307 -7.5344 
sheod -0.8882 -2.1331 0.47297 6.7095 -5.8185 7.3154 -1.682 -0.94982 0.91261 -0.67951 -1.8562 -2.6437 -1.9485 6.0716 2.3158 -3.3475 0.57759 -8.1784 0.086485 2.4667 1.2802 4.2895 -2.3546 -3.021 -7.4716 
opal 0.58911 -7.5315 3.771 1.058 1.86 2.2601 1.3168 4.8514 1.4654 -1.6364 -1.7353 4.3159 -2.4781 2.3998 -6.5836 8.018 -3.2865 -8.6448 1.6289 1.293 5.4588 3.9297 5.6741 0.76977 -4.3637 
otshedy -7.6028 4.0496 2.889 -0.99616 -0.97528 4.0942 4.9996 3.7431 2.1878 1.1832 -2.6526 -5.3581 1.5763 0.94393 -3.7383 6.3317 1.3872 -0.15359 4.9121 -1.7346 -0.62947 -5.7855 3.4671 -3.2885 3.2656 
qokl 5.9144 8.679 -5.2193 -10.801 -1.9287 -9.3463 -2.7874 2.1563 8.2964 7.3012 -4.9579 1.403 -9.4372 -11.467 3.0689 -11.817 6.8499 1.6975 2.9882 -0.41058 3.0975 5.9163 1.049 2.2358 6.3052 
qotody 3.0615 9.9032 -2.9003 7.4769 -1.5085 -6.8913 -7.5148 -2.6236 1.742 0.97139 -6.2552 8.2518 0.89687 6.077 -4.0579 -6.6585 -1.1914 -2.452 0.81942 1.2801 0.23564 -1.8228 3.0175 0.76686 3.1586 
chekaiin 0.47664 -0.8682 -1.2427 -2.84 2.3289 -0.57537 -3.2611 5.0378 -0.88372 1.5704 -2.1512 -1.562 -6.3043 4.3767 1.557 5.8326 1.0072 4.0425 2.2551 1.0673 -1.0392 1.5188 2.0171 -6.4311 3.4333 
ytchey 4.1737 2.1736 6.3385 -0.85702 -2.4806 -5.4792 2.4962 -4.1205 -6.2631 4.2674 -1.1291 4.2646 0.87061 -1.2865 3.4974 -6.2356 -1.7393 2.0101 -2.647 4.4084 -4.1009 -2.0005 -1.33 -6.8285 -2.3356 
oram -3.7241 6.2961 -0.62968 1.4961 -0.16106 4.5562 -3.9702 6.9849 1.5073 -3.234 0.34538 4.1886 6.2135 -3.7578 -5.0098 -0.66391 -0.49316 1.9888 -0.31086 1.9782 10.943 3.192 -5.4367 -2.4446 -9.6537 
ckheey 2.7425 1.417 -6.0032 4.7252 -3.0178 0.95195 -2.1153 1.59 1.6704 -1.0476 -1.4982 5.257 -3.7627 -6.2156 7.2583 4.0621 -5.0256 6.2996 1.9576 4.1067 -2.6547 -4.8453 0.66446 1.5704 -4.8307 
lr 11.332 21.675 22.871 -4.7703 11.918 13.685 -5.7432 -7.9496 7.2474 14.266 12.357 8.0415 -4.9845 -7.9326 5.0116 -5.5076 11.654 2.6818 1.4884 -4.2862 -0.55847 -11.039 8.4375 10.446 -5.4711 
ckhor 7.2873 -2.6842 -1.7742 7.2393 3.3465 5.5132 -5.5969 -5.1976 0.24085 -0.76979 -6.7039 4.4994 4.011 5.2729 0.84051 -4.5139 7.8782 -2.7247 -9.1449 -4.496 -1.5266 1.2047 -0.045786 1.0642 -0.70149 
cheockhy 3.2443 2.5036 0.99377 1.8829 -5.3269 0.16343 -3.8675 3.6086 -5.3314 -2.9919 -0.012197 3.131 0.31934 -3.184 4.5672 5.1073 3.604 2.1435 -1.6799 7.1705 -3.4889 4.6249 0.89005 -4.9716 -0.16273 
chokeey 3.5472 3.7158 -2.5849 0.57533 -1.9001 1.1371 -1.8299 3 5.1092 -0.84175 7.5714 -0.17643 0.32057 2.0656 5.2458 1.4811 -3.4193 4.3774 -0.94788 2.4249 -4.9147 -0.41988 -4.1382 -1.4586 -1.315 
chotaiin 5.5367 -4.9622 -1.9565 -1.433 -2.4284 -0.60988 0.49135 -0.043685 2.3395 2.1225 -4.3942 1.8738 1.903 5.8798 -2.7827 -1.6089 -2.3214 0.74772 -1.6759 -3.8425 5.0292 1.4777 -6.3017 -4.698 -1.6941 
qokchor 7.9368 2.9998 -7.9705 3.7932 1.1189 -4.8985 7.8234 -3.632 3.9613 1.139 2.0773 0.98191 2.3508 3.171 10.865 -2.4277 -0.028324 -1.2143 -5.3681 -4.4584 -4.9899 1.1161 -2.4088 1.1051 3.683 
octhy 4.4489 4.2486 4.875 3.7645 -2.2881 -4.1695 2.9201 -3.5401 1.7335 5.649 -1.4485 6.1153 3.8554 4.7127 0.0025347 -3.4934 -1.7562 -4.8733 1.0111 1.6917 -5.5064 0.70266 2.0589 -0.64784 -2.2323 
shees -1.5865 -4.1789 -1.3759 -8.2504 -1.3096 -3.1675 -2.081 0.26733 -3.8383 3.1342 -5.6562 3.5002 4.8283 1.4619 2.8085 1.6737 0.076063 -4.4559 2.7098 -3.2379 -0.047018 4.2491 -0.8206 -2.6128 -2.5617 
qotcho -2.8189 0.44596 -0.45273 2.3732 -2.8995 -2.8774 -0.83465 -9.4315 -0.90039 0.89496 -2.8659 -0.81158 2.0288 4.7382 9.8365 -2.0483 -1.335 -2.2134 -5.8157 3.0565 -0.61781 -4.4594 -8.2834 -5.5576 1.8828 
chekal 0.19198 2.3706 1.0379 -1.6672 -4.3014 5.7657 4.9509 -0.57821 -2.3613 -0.58896 -6.3116 0.76175 -2.5258 -0.23729 -0.94881 -1.8065 2.6856 8.6329 4.6639 -3.7371 -3.559 2.3397 2.7186 -4.8837 2.0087 
qokcho 8.9255 -1.1029 -10.138 2.9507 -2.3094 2.1528 0.92007 -5.8014 0.0014084 -2.2121 -0.41363 1.369 -1.4283 4.163 2.8523 -1.6056 3.1358 0.13367 -3.2839 2.4736 -1.2165 -0.50783 -0.6482 -4.7358 3.754 
