3410 25
daiin -0.031825 0.11212 0.023059 0.29521 0.14813 -0.0051339 -0.096203 -0.31841 -0.16154 -0.073253 -0.0063505 0.31636 0.083236 0.42464 -0.22747 0.093564 -0.08625 0.21277 -0.30675 0.32278 -0.10955 0.43484 -0.1554 0.18317 0.043188 
ol -0.18505 0.011149 -0.018042 -0.0099572 -0.22206 -0.044178 0.04375 -0.22488 -0.54435 -0.23425 -0.074602 0.18897 0.025257 0.44894 -0.34687 0.13508 0.073333 0.036662 0.23523 -0.039895 0.0075016 0.13122 -0.27008 0.2611 -0.062994 
chedy -0.29794 -0.09514 -0.021498 -0.16241 -0.55441 -0.22165 0.099584 -0.016668 -0.42841 -0.24523 0.063035 0.12532 -0.20793 0.2286 -0.72223 0.24048 0.094075 -0.10279 0.012426 0.19866 0.11983 -0.056115 -0.52541 0.034495 0.11788 
shedy -0.37408 -0.054337 -0.04438 -0.11874 -0.56662 -0.32059 0.096152 0.01951 -0.63978 -0.4066 -0.017371 0.34338 -0.22271 0.28412 -0.53937 0.11909 -0.054922 0.14531 -0.017746 0.063211 0.24089 -0.0076426 -0.66421 -0.060426 0.061763 
aiin -0.29346 0.22069 -0.071541 -0.18391 -0.045089 -0.039797 0.14489 -0.35153 -0.10013 -0.16135 -0.037118 0.026591 -0.10381 0.21175 -0.24529 0.42405 0.024811 -0.27354 -0.11241 0.16375 0.060632 0.11566 0.04956 0.42815 0.058123 
chol 0.13145 0.14514 0.026489 0.30218 0.17683 -0.091089 -0.179 -0.4216 -0.23119 -0.086914 -0.11395 0.23081 0.21011 0.53998 -0.2072 0.035277 -0.11375 0.22827 -0.32684 0.30959 -0.25154 0.64624 0.1187 0.35885 0.020075 
chey -0.091336 0.066444 0.36656 0.03473 -0.15626 -0.13525 -0.049194 -0.1748 -0.52876 -0.053855 -0.057896 -0.028558 -0.029991 0.47831 -0.37175 0.14551 -0.075937 0.018311 0.082549 0.23271 -0.01171 0.17556 -0.12956 0.10512 0.16737 
or -0.2303 0.1195 -0.215 -0.013139 0.0027585 -0.11509 0.12482 -0.48462 -0.25663 -0.32707 0.056201 0.050354 -0.0088428 0.39184 -0.25516 0.29216 0.17932 -0.031663 0.015076 -0.040859 -0.010882 0.059404 -0.057686 0.31548 0.020325 
ar -0.3984 0.19903 -0.13526 -0.10076 -0.01037 -0.060257 0.2975 -0.37072 -0.19132 -0.071804 0.1195 -0.0021921 -0.18766 0.23751 -0.28351 0.53142 0.094919 -0.21762 -0.19455 0.065964 0.13194 0.022325 0.0091667 0.3314 0.11452 
qokeedy -0.38079 -0.08187 0.23116 -0.30823 -0.53925 -0.045245 0.029579 0.029964 -0.49279 -0.34543 0.28975 0.29739 -0.1195 0.25156 -0.71461 -0.10178 -0.11753 -0.2085 0.24247 0.33651 0.053427 -0.0023104 -0.8256 0.11823 0.15025 
qokaiin -0.2232 -0.17283 0.16803 0.026947 -0.30212 -0.27778 0.31602 0.14181 -0.37651 -0.080228 0.0055356 -0.0032063 -0.067639 0.29027 -0.45363 0.18454 0.063887 0.047647 -0.10716 0.19827 0.010757 0.049444 -0.50686 0.42143 0.020154 
dar -0.22769 0.12357 -0.1864 0.13469 0.11048 -0.25426 0.016703 -0.31022 -0.34769 -0.11097 -0.11582 0.32234 0.097097 0.20808 -0.32604 0.31751 0.061192 0.14392 -0.20415 0.0031082 -0.075187 0.12748 -0.242 0.077074 0.19102 
qokeey -0.25629 0.046318 0.39712 -0.17544 -0.39501 -0.09548 0.0049583 -0.14113 -0.51251 -0.14965 0.15461 0.12689 -0.036048 0.24421 -0.54408 -0.12854 -0.28235 -0.084515 0.23664 0.31475 0.027486 -0.053669 -0.45075 0.33664 0.10784 
qokedy -0.14211 -0.076133 -0.082843 -0.19912 -0.76638 -0.27456 -0.059525 -0.096195 -0.63362 -0.62689 0.034678 0.40847 -0.31303 0.29139 -0.62064 0.095752 0.068606 -0.15929 -0.054168 0.25861 0.0010686 -0.10746 -0.80313 -0.21505 0.17556 
shey -0.15141 0.053422 0.31198 0.1623 -0.20559 -0.24812 0.12745 -0.17404 -0.57002 -0.2992 -0.035693 0.24927 -0.052113 0.37641 -0.23591 0.018122 -0.25749 0.26343 0.095714 0.046051 -0.059479 0.20213 -0.2434 0.25172 -0.053398 
dy -0.025591 0.12587 -0.11011 0.28101 0.063239 -0.1014 -0.15878 -0.18942 -0.3692 -0.13374 -0.18834 0.57282 0.12248 0.38116 -0.21383 0.34114 -0.04647 0.17805 -0.24971 0.18313 -0.0099912 0.44331 -0.20831 -0.14195 0.24908 
dal -0.05054 0.26972 -0.14774 0.03708 -0.20211 0.00597 -0.024087 -0.31105 -0.33865 0.061373 -0.29539 0.42368 -0.19436 0.18244 -0.49466 0.16115 0.06873 0.038833 -0.30189 0.0037936 -0.063333 0.32299 -0.31691 0.084489 -0.12346 
s -0.070658 0.28046 -0.15102 0.063825 0.28161 -0.058219 -0.12258 -0.58623 -0.3059 -0.031601 -0.11892 0.27792 0.16885 0.38377 -0.17905 0.10713 0.090806 -0.0091223 -0.27832 0.12543 -0.032726 0.41476 0.18663 0.39033 0.0088291 
al -0.34496 0.27029 0.058503 -0.22042 -0.15656 -0.089383 0.16613 -0.30026 -0.34998 0.087937 0.1296 -0.096102 -0.070674 0.18017 -0.39461 0.36432 -0.10101 -0.31349 -0.13898 0.1589 0.082243 -0.053762 0.047485 0.4543 0.034965 
okaiin -0.11111 -0.13337 0.050015 0.11056 -0.0080943 -0.029844 0.42747 -0.052797 -0.22182 -0.0046301 0.036271 0.018407 -0.20538 0.44681 -0.38767 0.28458 0.20439 -0.059388 -0.092933 0.29902 -0.054608 0.16356 -0.14435 0.43392 0.0035865 
chor 0.078986 0.27697 0.0562 0.30297 0.39088 -0.11565 -0.33823 -0.47531 -0.11525 -0.17451 -0.29537 0.1851 0.30068 0.75377 -0.057248 0.028483 -0.18013 0.26862 -0.39189 0.44222 -0.066228 0.92385 0.14754 0.57647 -0.045032 
qokal -0.06053 0.033712 -0.10677 0.15377 -0.56962 -0.16736 0.19472 0.2277 -0.54374 -0.030963 0.050443 0.013403 -0.12215 0.45373 -0.80579 0.34138 0.051173 0.1469 -0.003107 -0.081338 -0.12199 -0.0225 -0.60432 0.099018 -0.083421 
shol -0.036607 -0.14918 0.11992 0.25561 0.13788 -0.1486 -0.053391 -0.2916 -0.37542 -0.16973 -0.24179 0.57113 0.3543 0.34507 0.0075159 0.17931 -0.33602 0.14146 -0.53628 0.03507 0.023528 0.51237 -0.21824 0.31874 -0.058518 
y -0.36943 0.031135 -0.14308 0.30442 0.28806 -0.23509 0.056158 -0.23371 -0.47755 -0.059549 -0.21448 0.14723 -0.08905 0.43436 -0.11229 0.20927 0.028223 -0.085005 -0.18051 0.15438 0.15103 0.3145 -0.025607 0.114 0.057638 
</s> -0.19998 -0.045766 -0.0095463 0.12528 0.095843 -0.047648 0.057755 -0.31259 -0.11571 -0.088059 -0.027501 0.15406 0.021691 0.23869 -0.22081 0.2547 -0.049316 -0.07624 -0.15429 0.16556 -0.12216 0.23917 -0.16781 0.30572 0.0518 
cheey -0.095081 0.08853 0.23317 -0.13827 -0.17173 -0.16815 0.028913 -0.23641 -0.32045 -0.227 0.12944 -0.030569 0.20028 0.35033 -0.39541 0.054451 -0.09213 -0.03726 0.10753 0.26077 -0.11298 0.23591 -0.18297 0.39059 -0.0099749 
okeey -0.13725 0.36029 0.1858 -0.092894 -0.035421 0.03838 -0.034007 -0.37421 -0.46645 0.074751 0.30474 -0.060663 -0.23482 0.30382 -0.50639 0.11327 -0.30452 -0.29616 0.28428 0.089216 -0.014617 -0.12319 -0.10693 0.51655 0.1622 
qol -0.15161 -0.21358 0.27188 -0.22675 -0.3644 -0.20256 -0.025957 0.027339 -0.98228 -0.18131 0.032373 0.17067 -0.14032 0.76748 -0.58327 -0.0010063 0.089481 0.15262 0.47274 -0.33439 -0.025278 -0.038228 -0.8455 0.234 0.23493 
otaiin -0.32757 -0.18789 0.12064 0.19182 -0.057321 0.038344 0.47876 -0.1265 -0.080925 -0.085934 0.13611 0.086668 0.24929 0.22713 -0.42862 0.37352 -0.028318 -0.15041 -0.36327 0.17736 -0.039802 0.10976 -0.12593 0.37829 -0.031339 
cheol 0.11771 0.16166 0.075072 0.025448 -0.16831 -0.023553 -0.15123 -0.35553 -0.3348 0.082607 -0.0032084 -0.03193 -0.020348 0.37591 -0.48677 0.0066614 -0.10813 0.0096755 0.18675 0.25153 -0.11807 0.27229 -0.19033 0.47015 -0.037157 
otedy -0.18242 -0.13823 -0.23605 -0.16954 -0.29822 -0.078527 0.023882 -0.13915 -0.40563 -0.62047 0.24458 0.47279 -0.20218 0.13724 -0.788 0.22487 -0.49388 -0.26357 -0.033814 0.19373 0.24593 -0.29407 -0.49743 -0.19119 0.43878 
qokar -0.20589 -0.041989 -0.043221 0.16322 -0.48819 -0.23469 0.39841 0.0099519 -0.13002 -0.18769 -0.21343 0.044401 -0.19018 0.44085 -0.52473 0.40461 0.090246 0.12049 -0.035383 0.12387 0.27742 -0.0071436 -0.45282 0.15487 0.050758 
chy 0.025748 0.038076 0.018935 0.44506 0.19307 -0.027434 -0.37958 -0.39836 -0.29653 -0.25448 -0.499 0.19026 -0.010467 0.59296 -0.1121 0.1663 -0.026397 0.020384 -0.44664 0.46251 -0.141 0.59672 0.1323 0.014044 0.32998 
qoky -0.028721 -0.073718 -0.0076192 0.013982 -0.2475 -0.20147 -0.048517 0.19467 -0.64256 -0.30588 -0.10773 0.33447 0.0025454 0.38219 -0.23294 0.20956 -0.056293 0.20866 -0.011993 0.20317 -0.10907 0.30595 -0.48418 0.06961 0.12497 
okal -0.10216 0.064813 -0.33877 -0.0055661 0.028947 -0.26052 0.39912 -0.020502 -0.40928 -0.24489 -0.097214 0.17062 -0.24034 0.38078 -0.4612 0.46506 -0.038086 -0.21696 -0.1239 0.0011692 -0.092321 -0.03251 0.053485 0.16381 -0.05234 
sheey 0.075628 0.034086 0.29647 0.011631 -0.16979 -0.12236 0.24018 -0.46926 -0.23003 -0.17027 0.050493 0.13827 -0.10339 0.39858 -0.32867 0.014786 -0.28403 0.068281 0.059694 0.12277 -0.24337 0.18014 -0.20544 0.33035 -0.077903 
chdy -0.23158 -0.053931 -0.35531 0.022693 -0.35936 -0.3155 -0.10868 -0.18088 -0.19232 -0.28177 -0.16584 0.12209 -0.33038 0.60114 -0.25081 0.48242 -0.086547 -0.1318 -0.48222 0.075404 0.36435 -0.20559 -0.2796 -0.10674 0.17931 
chckhy -0.26715 0.20841 -0.14136 0.38154 -0.18355 -0.2245 0.21114 0.015958 -0.42827 -0.41 -0.020805 0.0013405 -0.025551 0.41283 -0.33566 0.13824 0.30351 -0.013207 -0.14549 0.26951 0.16914 0.05064 -0.33612 0.089455 0.078872 
otar -0.35433 -0.077154 -0.27058 -0.073909 -0.058984 -0.12996 0.41508 -0.048283 -0.19428 0.022641 0.0052364 0.19353 -0.027007 0.21593 -0.56561 0.60194 -0.11159 -0.188 -0.096628 0.049809 0.08949 -0.12348 -0.26866 0.12743 0.13184 
saiin -0.12676 0.2445 0.044369 -0.009279 -0.12165 -0.18028 0.10566 -0.27431 -0.4772 -0.22529 0.30871 0.0041337 -0.016892 0.28317 -0.34259 0.04733 0.096772 -0.27916 0.021577 0.13216 -0.12535 0.20865 -0.14837 0.27187 -0.05334 
otal -0.070688 -0.089301 -0.070216 0.1845 -0.17321 -0.10858 0.45404 0.0265 -0.34078 0.043698 -0.0010878 0.35589 -0.20965 0.26923 -0.58167 0.58445 -0.048083 -0.0082387 -0.27581 0.15243 0.1517 -0.32157 -0.074223 0.44141 -0.016491 
qokain -0.48666 -0.088498 -0.0036974 -0.013542 -0.61675 -0.46477 0.4151 0.20005 -0.6934 -0.18578 -0.13697 0.14246 -0.21161 0.48868 -0.43469 0.069264 0.21951 0.049158 0.19899 0.10925 -0.0713 0.029363 -0.65861 0.070548 0.074628 
oteey -0.50802 0.049241 0.42871 -0.11909 0.087207 0.047353 -0.19577 -0.16857 -0.31985 0.18552 0.28694 0.31796 -0.2031 0.29055 -0.65571 0.33781 -0.35564 -0.24259 0.32749 0.10335 0.2325 0.047655 0.10723 0.38594 0.23189 
okar -0.15848 7.6695e-05 -0.53232 0.11257 0.039912 -0.19954 0.53547 -0.13015 -0.23851 -0.48171 -0.12084 0.19471 -0.1595 0.20929 -0.32815 0.52393 0.13313 -0.31127 -0.025063 0.22619 -0.068034 -0.078958 -0.15217 0.24406 0.22116 
okedy -0.09198 0.070628 -0.29045 -0.28926 -0.43782 -0.040344 0.08342 -0.25631 -0.52044 -0.43662 0.10148 0.71077 -0.24998 0.39912 -0.65384 0.20749 -0.075609 -0.48828 0.14665 0.28216 0.18647 -0.35665 -0.32558 -0.28166 0.26004 
sho -0.07799 -0.046884 0.038 0.54988 0.053369 0.13609 -0.35472 -0.71114 -0.17599 0.12487 -0.046616 0.24163 0.44024 0.64317 0.080381 0.090026 -0.45178 -0.07936 -0.62315 0.38221 -0.16613 0.75394 0.30984 0.28497 0.2294 
dain -0.24074 0.042896 0.053055 0.59118 0.15218 0.12078 -0.092028 -0.36265 -0.52097 -0.16078 -0.20394 0.25385 0.1017 0.50898 -0.11644 0.15426 -0.032508 0.35207 -0.18802 0.36362 -0.22315 0.30384 -0.095819 0.028645 0.28486 
qokai!n -0.37211 -0.33078 0.34037 0.1016 -0.4512 -0.35102 0.52095 0.20291 -0.66577 -0.23613 -0.031923 0.020746 -0.11576 0.49519 -0.55058 0.065594 0.068167 0.023634 0.22596 0.14993 0.030447 0.084401 -0.71498 0.20979 0.071395 
oty -0.21296 0.11069 0.062618 0.42877 0.28038 -0.17332 0.17517 -0.12289 -0.0073476 0.024831 0.050563 0.51785 0.075726 0.62062 -0.2113 0.39914 -0.10194 0.14899 -0.31512 0.040961 0.17079 0.068044 -0.21414 0.054637 0.1923 
r -0.48161 0.25837 0.067127 -0.080706 0.093941 -0.053413 -0.33205 -0.37997 -0.60706 -0.12035 -0.030767 0.17703 0.14612 0.33599 0.016171 0.11715 0.15906 -0.14491 -0.078149 -0.03977 0.0069303 0.441 -0.12041 0.29777 0.064337 
lchedy -0.38069 0.074163 0.30149 -0.27119 -0.7988 -0.38475 0.056035 0.29705 -0.5207 -0.24806 0.20145 0.057628 -0.16722 0.2734 -0.50011 -0.018273 -0.11598 -0.040746 0.01712 0.47127 0.090731 0.10805 -0.59013 0.22133 0.13423 
okeedy -0.42678 0.037142 -0.21963 -0.045426 -0.43826 -0.019985 0.12847 -0.23863 -0.52255 -0.21379 0.13506 0.21942 -0.025552 0.32739 -0.6579 0.035434 -0.23058 -0.5376 0.33675 0.20448 0.27812 -0.42199 -0.3809 0.29697 -0.091009 
dol -0.012244 0.13217 -0.17022 0.14913 0.038447 0.14789 -0.10129 -0.39598 -0.29765 -0.070108 -0.32706 0.5978 0.33126 0.25631 -0.53285 -0.25215 -0.056587 0.15316 -0.16808 0.53022 -0.53078 0.27496 -0.48651 -0.052194 0.22609 
qokey 0.16137 0.40822 0.086287 -0.17185 -0.3117 -0.18689 0.046582 0.0056794 -0.77346 -0.17657 0.087682 0.20294 -0.21646 0.56986 -0.44964 0.0014565 -0.18967 -0.027522 0.30009 0.060268 -0.084492 -0.089819 -0.46727 0.079663 0.11385 
cthy 0.097089 0.12211 -0.16723 0.63458 0.24012 -0.25037 -0.088342 -0.59933 -0.36956 0.099975 -0.42963 0.16961 0.43167 0.92393 0.15499 0.22844 -0.085475 0.52207 -0.31799 0.40302 -0.29134 0.80759 0.23393 0.39124 0.37019 
sheol 0.038882 0.4768 0.15798 0.07759 -0.1977 -0.35654 -0.15277 -0.36937 -0.02688 -0.028548 0.098778 0.13767 0.046744 0.18107 -0.47414 -0.037666 -0.2055 0.18994 0.12833 -0.21162 -0.2766 0.11521 -0.86023 0.55449 0.12729 
qotedy -0.60246 0.11423 -0.012921 -0.11238 -0.47079 0.11194 -0.34665 -0.11817 -0.32529 -0.56164 -0.16083 0.67639 -0.18392 0.08875 -0.87782 -0.14855 -0.35511 -0.16467 0.026916 0.16857 0.42154 -0.14884 -1.0141 -0.12341 0.17793 
o -0.51502 0.14402 0.07268 0.029079 0.24869 -0.039602 -0.27738 -0.3931 -0.58321 -0.16737 -0.071958 0.27374 -0.10592 0.17601 -0.066311 0.22826 0.047843 -0.28627 -0.35 0.095277 0.10331 0.42871 0.28705 0.35099 0.12808 
dair -0.40291 0.11141 -0.066154 -0.14927 0.10981 -0.11534 -0.038085 -0.47639 0.056577 0.014711 0.12869 0.22076 -0.016839 0.22403 -0.36672 0.31577 -0.31928 0.10459 -0.64107 0.34531 -0.016693 0.21701 0.089985 0.10077 0.18429 
qokol 0.10897 0.012595 -0.47752 0.47365 -0.15207 -0.05639 0.079132 -0.42279 -0.08626 -0.3275 0.052866 0.42399 0.10834 0.3396 -0.59842 -0.055006 0.042586 0.46537 0.021678 -0.0035828 -0.22328 0.21897 -0.33264 0.35376 0.052454 
l -0.65126 0.040925 0.16558 -0.050115 -0.14974 -0.13969 -0.12492 -0.23041 -0.77894 0.053324 0.04483 -0.0026062 -0.15235 -0.016612 -0.24641 0.0081015 0.015956 -0.18397 -0.21318 0.10277 -0.063059 0.34908 -0.075311 0.33624 0.14297 
shor -0.085057 -0.1194 0.13088 0.63939 0.14247 -0.22797 0.17157 -0.32419 0.12804 -0.13867 -0.54841 0.47688 0.3393 0.26467 -0.17214 0.060443 -0.28147 0.40022 -0.72417 0.2123 0.032363 0.65792 0.040005 0.74393 0.066447 
shy 0.1148 0.31077 0.3154 0.35945 0.0084802 -0.058069 -0.34301 -0.15077 -0.25556 0.017071 -0.39292 0.34637 0.17616 0.61429 -0.035888 0.59008 0.057198 0.31878 -0.30615 0.18709 0.015784 0.72908 -0.1538 0.17093 0.31614 
oteedy -0.45656 -0.11028 0.055093 -0.14267 -0.3419 -0.023591 0.17996 -0.24982 -0.2818 -0.08896 0.47498 0.18649 -0.2788 0.11768 -0.65476 0.20466 -0.49453 -0.35889 0.25963 0.092464 0.22724 0.17736 -0.35714 0.084533 0.29033 
oky 0.12402 0.2656 -0.2517 0.14029 0.22284 -0.30359 0.1747 -0.17544 -0.22449 -0.065283 0.031536 0.43073 0.14716 0.48343 -0.1546 0.50047 0.091266 0.19398 -0.40492 -0.13181 0.010955 0.19547 -0.09741 0.29419 0.17545 
cheor 0.30991 0.42927 0.17472 0.048875 0.25016 -0.18016 -0.20837 -0.54207 -0.23987 0.021092 0.073263 0.090827 0.067908 0.63409 -0.27303 0.092156 -0.3495 0.074239 0.052523 0.23898 -0.0029126 0.46042 -0.051537 0.42079 0.052018 
dam 0.095206 0.20664 -0.52753 0.19536 -0.33785 0.016282 0.089154 -0.64351 -0.12566 0.076823 -0.12935 0.54993 0.18984 0.17452 -0.33084 0.2154 0.084783 -0.010206 -0.40601 0.20494 -0.017378 0.25733 0.076389 0.10151 0.20947 
chody 0.05971 0.089063 -0.4371 0.14309 0.068598 -0.16411 0.030294 -0.57847 -0.028223 -0.12776 -0.22063 0.34238 0.18303 0.24126 -0.24908 0.15195 -0.26865 -0.27849 -0.59437 0.31037 -0.12764 0.24573 0.068581 0.0947 0.2079 
qotaiin -0.5487 -0.45816 0.032744 0.05409 -0.43875 -0.030128 0.2026 -0.075471 -0.038858 -0.16869 -0.061102 0.062133 0.079669 0.060325 -0.40395 -0.030127 -0.1703 0.12856 -0.16544 0.56266 -0.067142 0.17921 -0.40107 0.51161 0.2 
qoty -0.20392 -0.24482 0.074157 0.47736 -0.19832 -0.6575 -0.1285 -0.048965 -0.3071 -0.19396 -0.4526 0.32554 0.41311 0.47979 -0.12658 -0.26906 -0.44969 0.14688 -0.33682 0.22087 0.34644 0.02076 -0.69761 0.18831 0.31321 
sheedy -0.54602 -0.22043 -0.010218 -0.32866 -0.86212 0.17759 -0.079792 -0.36257 -0.45337 -0.21324 0.37994 0.16683 -0.043993 0.45035 -0.51187 0.20541 0.069026 0.24693 0.1822 -0.061342 0.1106 -0.037815 -0.49486 0.26975 0.15104 
am -0.35034 0.03781 0.028659 -0.025323 0.064903 -0.12941 0.35199 -0.42624 -0.28608 -0.0372 0.18215 0.16742 -0.34447 0.052321 -0.52623 0.45103 -0.035999 -0.060341 -0.24879 -0.0677 0.046403 -0.018577 0.32761 0.29601 0.37967 
kaiin -0.20932 -0.2627 -0.083269 0.38138 -0.34899 -0.30932 0.37959 -0.1007 -0.14124 -0.20447 -0.31811 -0.068945 -0.20017 0.27606 -0.20249 0.34729 -0.057142 0.16573 -0.25626 0.29923 -0.17523 0.22494 0.011706 0.51071 -0.00059141 
cheody 0.32295 0.31965 0.034075 0.019387 -0.21462 0.22607 0.34983 -0.62106 0.40712 0.031952 -0.15244 0.26762 0.061827 0.07664 -0.54751 0.13613 -0.41038 -0.4864 -0.35744 0.24836 0.0041391 -0.02343 -0.18292 0.61481 0.29538 
otol -0.2113 -0.15034 -0.082512 0.57224 0.40779 0.27615 0.090169 -0.32347 -0.21861 -0.26378 -0.14882 0.49792 -0.0048859 0.46627 -0.36721 0.26874 -0.51044 -0.032038 -0.28511 0.08676 -0.16039 0.24597 -0.02388 0.062333 -0.090158 
chcthy -0.41017 -0.35376 -0.1486 0.16878 -0.33804 -0.60658 0.0042781 0.26759 -0.20176 0.099987 0.020075 0.51567 0.035426 0.71229 -0.18021 0.1499 0.08741 -0.017807 -0.24655 0.23697 0.19847 0.3441 -0.17282 0.037562 0.0342 
qoteedy -0.42822 -0.11619 0.1261 -0.42875 -0.81434 0.21554 -0.29238 -0.25394 -0.56022 -0.70785 0.1972 0.39091 -0.39867 0.15472 -0.56984 -0.20487 -0.22873 -0.20117 0.090271 0.21316 0.39844 0.13717 -0.6728 0.13154 0.3224 
char -0.059361 -0.11549 0.083718 -0.059282 -0.12434 -0.45674 0.31935 -0.46319 -0.42945 0.072744 -0.22184 -0.10853 -0.2874 0.36991 -0.21714 0.13157 0.049191 -0.2335 -0.37519 -0.048448 -0.0080868 0.64267 0.39773 0.44129 -0.036122 
sar -0.21413 0.27828 -0.13736 -0.13437 0.0014165 -0.40522 0.037978 -0.35923 -0.46491 -0.30185 0.21804 0.032653 -0.13325 0.17515 -0.47071 0.20169 -0.18147 -0.53773 0.16079 -0.17542 0.25856 0.43902 0.13614 0.22984 0.019338 
qokchy -0.16528 -0.1169 -0.19212 0.55738 0.078169 -0.42699 -0.13746 -0.42154 -0.068397 -0.10257 0.019959 0.24208 0.23109 0.28823 0.19173 0.36737 -0.077804 0.22668 -0.59458 0.081843 -0.26949 0.73867 -0.48488 0.17814 0.60404 
okol 0.34112 0.54816 -0.2448 0.29608 0.24881 -0.15132 0.17009 -0.28603 -0.30531 -0.044806 -0.13245 0.3788 -0.13101 0.45382 -0.43668 -0.070421 -0.25056 0.11495 -0.2176 -0.18827 -0.088164 0.69166 -0.021145 0.49494 -0.27378 
cheo -0.30746 0.22717 0.2547 0.010092 -0.10509 0.23862 -0.25789 -0.40569 0.2698 -0.21908 0.33267 -0.013657 0.23048 0.30081 -0.47245 0.043874 -0.23226 -0.12224 -0.23671 0.51838 -0.2942 0.36541 0.25988 0.50087 0.11584 
air -0.61831 0.39183 -0.24923 -0.078929 -0.00072779 0.20382 0.29788 -0.6999 -0.063539 -0.030012 -0.053627 0.1187 -0.27503 0.034465 -0.50236 0.30603 -0.062628 -0.29138 -0.47764 0.0062273 0.38175 -0.046835 0.214 0.33954 0.1709 
dor 0.083628 0.22938 -0.19774 0.19602 0.20253 0.069825 -0.33358 0.041383 -0.11671 -0.44483 -0.28492 0.64574 0.65482 0.3756 -0.40057 0.15634 0.20568 0.30642 -0.42027 0.42672 -0.35877 0.70218 -0.033852 0.27707 0.28078 
okain -0.22905 0.01318 0.16873 0.256 0.095038 -0.68132 0.50829 0.012185 -0.58448 -0.16568 -0.25063 0.12161 -0.28737 0.53417 -0.21112 -0.03212 0.20629 -0.32036 -0.32313 0.056463 0.12237 -0.33186 -0.47882 0.32235 0.099628 
raiin -0.018849 -0.090931 0.63222 -0.12534 -0.49374 -0.024479 -0.060032 0.077104 -0.094566 -0.15999 0.037869 0.19182 0.10295 0.0625 -0.45791 0.21221 -0.062513 -0.333 0.21117 0.21527 0.16877 0.40005 -0.1944 0.83298 0.26141 
qotchy -0.34617 0.08287 -0.071218 0.60232 -0.1188 -0.62205 -0.12126 -0.2175 0.19566 0.1577 -0.23865 0.48854 0.57735 0.70962 0.16826 0.067302 -0.13729 0.2124 -0.90432 0.42994 -0.30969 1.0488 -0.37824 -0.14556 0.54347 
cho -0.1151 -0.026959 0.16388 0.21926 0.23485 0.19416 -0.45696 -0.66084 -0.13332 0.11173 -0.19095 0.17654 0.12248 0.45472 -0.21434 0.097706 -0.081768 -0.39351 -0.43691 0.43638 -0.37697 0.76758 0.17858 0.31143 0.12118 
qotal -0.18637 -0.33416 -0.085158 0.023283 -0.32478 -0.21871 0.44055 0.0087456 -0.24763 0.099803 0.23005 0.2435 -0.24972 0.34284 -0.80857 -0.20204 -0.037112 0.061051 -0.264 0.3309 -0.17129 0.11717 -0.74633 -0.014062 0.17437 
sol -0.19139 0.084053 -0.20844 -0.18827 -0.58921 0.13494 -0.23567 -0.19104 -0.45228 -0.35131 -0.10844 0.17001 0.40503 0.38316 -0.57256 -0.034865 -0.15526 0.12627 -0.034179 -0.31868 -0.43654 0.20433 -0.54483 0.14777 -0.26075 
cheky -0.3595 0.11274 -0.39571 0.17966 -0.16779 -0.34815 -0.40611 0.12144 -0.15708 -0.027107 -0.13111 0.37672 0.072228 0.25371 -0.73514 0.46722 0.040297 -0.29855 0.016689 0.123 -0.048895 0.077128 -0.19853 0.077566 0.01317 
okey -0.18604 0.75363 0.16506 -0.33952 -0.052213 0.3558 -0.044506 -0.36411 -0.89576 0.072157 0.1221 0.68615 -0.092808 0.53311 -0.45141 0.16281 -0.018185 -0.40038 0.1829 0.049299 -0.16557 -0.21747 0.16278 0.036828 0.078866 
qotar -0.44818 -0.33976 -0.07233 -0.00045077 -0.45731 0.14894 0.4634 0.14224 -0.039071 -0.12343 -0.32199 0.20104 -0.083834 0.15352 -0.60373 0.8587 -0.19339 0.10523 -0.23086 0.25363 -0.13226 -0.11783 -0.42689 0.073134 0.3762 
keedy -0.19371 0.010961 0.081749 -0.37713 -0.43546 0.0011873 0.059701 0.094497 -0.4396 -0.74065 -0.16046 0.53033 -0.375 0.33714 -0.53742 0.404 -0.33268 -0.24104 0.11464 0.47402 0.51106 -0.10015 -0.4228 -0.079233 0.21078 
cheedy -0.54317 0.19897 0.083269 -0.26188 -0.8004 -0.37368 -0.39595 -0.0019562 -0.19874 -0.1416 0.4114 -0.016775 -0.10098 0.47787 -0.87557 0.027914 -0.067229 -0.0029349 0.18814 0.39431 -0.25096 -0.26331 -0.59275 0.29901 -0.072405 
cthol 0.1235 -0.060267 -0.27988 0.47063 0.4343 -0.2104 0.071216 0.0003734 -0.44541 -0.038097 -0.19274 0.4761 0.46037 0.65166 -0.11813 -0.24194 -0.26327 0.48525 -0.49241 0.57047 -1.0799 1.3052 -0.075034 0.73619 0.13106 
okeol 0.55527 0.79569 0.078372 0.1086 0.28097 0.14709 0.060341 -0.20719 -0.28407 -0.047256 0.28136 0.0985 0.32421 0.48652 -0.43562 0.20919 -0.081573 -0.56217 0.17669 0.03926 -0.33002 -0.058853 0.13388 0.8606 0.35927 
shckhy -0.57935 0.42256 0.083906 -0.10736 -0.1338 -0.30332 0.78046 0.22204 -0.40318 0.023555 -0.35471 0.26134 -0.28308 0.65822 -0.71303 -0.02663 0.14595 0.042531 0.40224 0.25043 0.37854 0.039653 -0.48249 -0.064393 0.2077 
dai!n 0.11486 0.19071 -0.0045225 0.1006 -0.2315 -0.16218 0.13645 0.034616 -0.66479 -0.13286 -0.067392 0.074357 -0.084724 0.2499 -0.54498 0.23422 -0.040998 0.13435 0.064174 0.19651 -0.090287 -0.09057 -0.25884 0.25584 0.24413 
odaiin -0.2494 -0.030948 -0.21732 0.093204 0.49226 -0.11161 0.37867 -0.43485 0.2623 -0.23214 -0.20462 0.0045741 0.088456 0.0061034 -0.40331 0.31591 -0.44425 -0.23267 -0.45342 0.15926 -0.16031 0.32324 0.24958 0.6266 0.35712 
kar -0.29003 0.31625 -0.28388 0.18573 -0.17935 -0.50058 0.67938 -0.20416 0.042937 -0.61711 0.11715 0.40824 -0.0091565 0.64549 0.3266 0.58651 0.13128 -0.18267 -0.25207 0.031489 0.17083 -0.30732 0.10832 0.74973 0.090424 
oly -0.12613 -0.033888 0.12234 -0.14076 0.19541 -0.0057155 0.12593 -0.044467 -0.62393 0.086669 0.26269 0.80784 0.16628 0.8931 -0.47814 0.029546 0.14879 0.088416 -0.085775 -0.26822 0.14637 -0.036827 -0.46512 -0.038705 0.14964 
qokchdy -0.51145 -0.35804 -0.2551 0.28472 -0.71205 -0.34479 0.52692 0.0015735 0.2025 -1.0421 -0.12109 0.70882 -0.89167 0.13599 -0.72284 0.092115 0.59042 -0.24472 -0.33768 0.0065475 0.35877 0.17197 -0.076953 0.028379 0.65325 
otey -0.36066 0.21489 -0.18203 -0.036191 -0.27749 0.12952 0.064896 0.063031 -0.67252 -0.040489 0.11715 0.67556 -0.26061 0.14791 -0.29978 0.48685 -0.47748 -0.37391 -0.098883 -0.21931 0.21628 0.27875 -0.33919 0.03295 -0.098802 
okai!n -0.33274 -0.35263 0.6353 0.007814 -0.21996 -0.42741 0.61128 0.002242 -0.31925 -0.23692 0.07056 -0.094567 -0.15306 0.8372 -0.59243 -0.069215 0.0079522 -0.33254 0.075777 0.087808 0.069342 -0.54772 -0.42326 0.50863 0.023009 
ain -0.63976 0.5787 0.33934 -0.10193 0.065031 -0.057636 0.29527 -0.099572 -0.40028 -0.43409 -0.057046 0.14368 -0.26902 0.2176 -0.3168 0.44805 0.40274 -0.10176 0.23457 0.0096354 -0.084219 0.25437 -0.025049 0.29528 0.17864 
ykeey 0.12455 0.19233 0.025157 0.13548 0.052522 0.062422 -0.20257 -0.64466 -0.31506 0.096257 0.19157 0.3494 -0.036855 0.63639 -0.33174 -0.24747 -0.12287 -0.33965 -0.12755 0.11642 0.30313 -0.094647 -0.033695 0.49926 0.053936 
checkhy -0.18011 0.51414 0.3987 -0.32305 -0.45285 -0.40637 0.1498 0.012486 -0.55742 -0.25192 0.022254 0.018351 -0.27948 0.58776 -0.66896 -0.30676 0.023471 -0.59219 -0.023607 0.10483 0.07112 0.29686 -0.63166 -0.22161 -0.10871 
shody -0.09015 -0.17061 -0.55658 0.5187 -0.40224 0.31384 0.20761 -0.94322 0.13279 0.089663 0.075985 0.73396 0.1466 0.23198 0.092329 0.30569 -0.6052 0.045407 -0.47144 0.14454 -0.34679 0.41563 -0.098417 0.57134 0.031892 
chear -0.22134 0.58135 0.49181 0.062691 0.22772 -0.5212 0.48727 -0.16199 -0.33339 0.20127 -0.45522 -0.026545 -0.34814 0.50933 -0.078706 -0.24009 -0.045719 -0.27432 -0.17037 0.3737 -0.23258 0.14072 -0.11513 0.77492 -0.12267 
sal -0.053685 0.88404 -0.26444 -0.066185 -0.51427 0.045017 0.17188 -0.49565 -0.54838 0.059701 -0.081919 -0.0042219 -0.26252 0.36501 -0.036268 0.14276 -0.33372 0.1527 0.25488 0.0058883 0.12381 0.48966 -0.48884 0.014131 0.27597 
lkaiin -0.24113 0.0070729 0.72095 0.24586 -0.49206 -0.30645 0.6616 0.44617 -0.20639 0.079777 0.06345 -0.13009 0.07348 0.30105 -0.25377 0.63201 -0.24912 -0.59395 0.040884 0.24889 0.18383 0.16343 -0.22403 0.72091 0.37507 
cthey -0.13637 0.053217 -0.12829 0.33825 0.24385 -0.42267 -0.23694 -0.89443 -0.27324 0.14007 0.021261 0.098877 0.083908 0.31791 -0.34317 -0.34453 0.031716 -0.14972 -0.21563 0.44425 -0.23257 0.24673 0.50265 0.55617 0.50725 
keey 0.16181 0.28234 0.34608 -0.068029 -0.21328 -0.24433 -0.35194 -0.57722 -0.55573 0.12274 0.4409 -0.084803 -0.065535 0.54997 -0.0029692 0.011865 -0.46909 -0.51545 -0.17741 0.077217 -0.29052 0.15986 0.090557 0.38718 0.3176 
olaiin -0.58073 0.34782 -0.12428 -0.24906 0.30295 0.045327 0.52183 -0.20397 -0.21401 -0.58239 0.40178 0.063216 0.020831 0.17052 -0.87578 0.221 0.1417 0.20926 0.045972 -0.19062 0.10775 -0.015516 0.17987 0.62789 0.089259 
opchedy -0.63132 -0.27713 0.29314 -0.053179 -0.33795 -0.0048154 0.97694 0.065932 -0.15976 -0.76961 0.32396 0.79015 0.52 0.0077216 -0.80995 0.31516 -0.17806 0.30191 -0.47401 -0.039733 0.44627 0.0025222 -0.22432 0.099253 0.46717 
sheor 0.15535 0.24719 0.062421 0.34912 -0.19874 -0.49707 0.018323 -0.33802 -0.23363 -0.26827 -0.27567 0.0053286 0.49876 0.28106 0.0054617 0.027812 -0.42497 -0.44302 0.16914 0.13709 -0.50826 0.019132 -0.62489 0.64713 0.0069519 
kedy -0.33824 -0.10741 -0.28356 -0.0013896 -0.67071 -0.11196 0.26904 -0.12054 -0.63087 -0.74695 -0.18591 0.35556 -0.31893 0.44075 -0.30987 0.083625 0.11666 -0.7594 -0.11817 0.087421 -0.14835 -0.010587 -0.45331 -0.27548 -0.1256 
qokeol 0.63539 0.82336 0.17802 0.33087 -0.023112 0.15059 -0.016203 -0.38391 -0.49765 0.06636 -0.042303 -0.031256 0.16962 0.43219 -0.7465 -0.18389 -0.62216 -0.23349 0.14248 0.48821 -0.29509 -0.1707 -0.17613 0.63955 0.098294 
tedy -0.22985 0.049935 -0.57888 -0.25341 -0.68742 -0.11422 -0.025034 0.012975 -0.84537 -0.53279 0.14635 0.76946 -0.12621 0.3108 -0.65062 0.46204 0.1464 -0.14826 -0.056345 -0.12558 0.01717 -0.68107 -0.72144 0.024215 0.24169 
d -0.68758 0.28649 0.094798 0.19413 0.33795 0.0059452 -0.67566 -0.64717 -1.0253 0.016045 -0.45183 0.23234 0.053124 0.57585 0.048264 -0.075558 0.33693 -0.079092 -0.49435 -0.055502 -0.020767 0.46829 0.23011 0.051835 0.50629 
tol 0.32897 -0.024801 -0.55121 0.45133 -0.12619 -0.17582 0.18145 -0.281 -0.25703 0.045395 -0.15288 -0.058454 -0.27575 0.15619 -0.73365 0.077579 -0.5083 0.18975 -0.31956 0.022096 -0.21319 0.62156 -0.33731 -0.087209 0.49361 
sor -0.38021 0.10038 -0.47355 0.12611 0.095285 -0.24587 0.13685 -0.023052 -0.28265 -0.28251 0.35867 0.23656 0.17503 0.74327 -0.07118 0.38284 -0.15481 0.20906 0.24901 0.12102 -0.07827 0.37022 0.034111 0.22547 0.04618 
cthor -0.27101 0.30998 0.19962 0.77444 1.0609 0.29196 0.52435 0.29133 0.045952 -0.18598 -0.93544 0.36843 0.41463 1.4794 0.27465 0.17146 -0.20739 0.38773 -0.29982 0.30245 -0.41343 1.0142 -0.62952 0.56652 0.30327 
otchy -0.32752 0.011363 -0.14664 0.52837 0.31916 -0.45263 0.071655 -0.27309 -0.0062618 -0.27027 0.20681 0.42814 0.22206 0.74243 0.091448 0.54934 -0.26525 0.038348 -0.65689 0.099953 -0.13026 0.78967 0.16214 -0.38651 0.68166 
chal 0.092506 0.0095655 -0.013929 0.26285 -0.11583 -0.11354 0.73389 -0.060199 -0.59351 -0.13636 0.35293 -0.19961 -0.42625 0.58678 -0.40252 -0.11109 -0.1946 -0.24967 -0.47383 0.062149 0.061433 0.61813 -0.2145 0.3003 -0.32636 
qotol -0.24717 -0.1637 -0.31245 0.52431 0.32943 0.17926 -0.59959 -0.1107 0.1434 0.12743 0.11277 0.33775 -0.088417 0.39519 -0.17551 0.032474 -0.28424 0.21988 -0.29955 0.35003 0.026213 0.50305 -1.2532 0.42234 1.012 
shdy -0.4081 0.48918 -0.59705 0.07099 -0.65777 -0.40114 -0.3132 0.26367 -0.39076 -0.47871 -0.32382 0.57688 0.17851 -0.016039 -0.26107 0.56728 -0.57946 0.1545 -0.45646 0.30882 0.11884 -0.24961 -0.55666 0.052299 0.27807 
taiin -0.24184 -0.3146 -0.13663 0.49032 -0.31356 -0.060001 0.30405 -0.12103 -0.037962 -0.03183 0.23484 -0.19591 -0.31665 0.5784 -0.08571 0.24233 0.016687 0.18132 -0.29127 0.61527 -0.11993 0.47743 -0.062362 0.40583 0.20813 
chaiin -0.11298 -0.0745 0.20562 0.78203 0.08769 -0.030944 0.19225 -0.066054 -0.24181 0.004605 -0.70827 -0.36448 0.28266 0.72653 0.094521 -0.0052584 -0.15131 -0.18352 -0.75397 0.88892 -0.33152 0.82357 0.15243 0.46118 0.40822 
sheody 0.41382 0.034903 -0.018722 -0.040671 -0.25268 -0.20656 0.12777 -0.68692 0.49472 -0.4952 -0.0028835 0.23187 -0.069895 0.24541 -0.21592 0.47735 -1.0222 -0.18797 -0.55407 0.17472 -0.29802 -0.16681 -0.0019577 0.34483 0.79383 
otam -0.27456 -0.27508 -0.87448 -0.12073 -0.32463 -0.209 0.042747 -0.25815 -0.083453 0.44455 0.076624 -0.0070724 0.26209 0.33153 -0.68736 0.48072 -0.56388 0.11244 -0.057197 0.36398 0.21529 0.092513 0.063134 0.31884 0.41543 
sheo 0.1599 0.51786 0.33631 0.57949 0.21443 -0.067972 0.09231 -0.55094 -0.01915 -0.14722 0.20327 0.021034 0.25815 0.22551 -0.35476 -0.12113 -0.33017 -0.62534 -0.26834 -0.21438 0.16854 0.13867 -0.090306 0.78786 0.19922 
ykaiin -0.10506 -0.32179 -0.33445 0.094353 -0.25729 -0.56793 0.15605 0.022417 0.48323 0.073488 -0.20905 0.29571 -0.024858 0.92668 -0.084992 0.77596 0.47283 -0.30814 -0.65312 -0.30227 -0.18288 0.085496 -0.21098 0.47397 0.055562 
tar -0.10722 0.13699 -0.081689 0.42212 -0.528 0.163 0.91941 -0.60178 -0.34232 -0.36345 -0.23948 -0.054716 -0.42679 0.5423 0.25591 0.42344 -0.2823 -0.2731 -0.19656 -0.14377 0.056651 -0.0010784 -0.10641 0.23921 0.085698 
lchey -0.50953 0.17363 0.56807 -0.37932 -0.73974 -0.59584 0.2992 0.01164 -0.11404 0.14651 0.25154 0.32297 -0.075541 0.48445 -0.59415 0.18168 0.25491 0.2051 0.55273 0.1796 -0.23853 0.75567 -0.50521 0.10298 0.33231 
ody -0.072152 0.088846 -0.25584 0.096911 0.15253 -0.097551 -0.26738 -0.5154 0.033491 -0.33844 -0.35875 0.13069 -0.28908 0.7698 -0.049379 0.68808 -0.44371 -0.073747 -0.58364 0.073306 0.18533 -0.29473 0.0998 0.056078 0.50911 
otai!n -0.33244 -0.23856 0.36771 0.27729 -0.43903 -0.67771 0.78026 -0.089607 -0.67708 0.076352 0.30341 -0.086896 0.078815 0.57821 -0.47619 0.22735 0.27842 -0.17266 0.27162 0.032545 0.021901 -0.10555 -0.012338 0.65086 0.06073 
olkeedy -0.35384 -0.16825 -0.56127 -0.12556 -0.26291 0.25007 0.36664 0.14041 -0.082817 -0.52695 0.13548 0.09299 -0.42688 0.30462 -1.0488 -0.049164 -0.24015 0.029709 -0.12798 0.31538 0.026191 -0.42002 -0.80437 0.68114 -0.1892 
ytaiin -0.55985 -0.52921 -0.46038 0.0064714 0.16988 0.039087 0.54252 0.1007 0.089864 0.17337 -0.10107 0.26182 0.097857 0.25866 0.20464 0.73206 -0.4541 -0.13591 -0.67576 0.076337 0.024794 0.26876 -0.37418 0.75827 0.35967 
chodaiin -0.35314 0.075387 -0.090239 0.6486 -0.37922 -0.07379 -0.042441 -0.82249 0.12716 0.50101 -0.4 -0.094423 0.50112 0.39394 0.0021132 0.26252 -0.20312 0.085434 -0.49308 0.30133 -0.10392 0.45669 0.08079 0.48669 0.36115 
qoteey -0.61237 0.20322 0.5173 0.50047 -0.37389 -0.048633 -0.18034 0.027703 0.038879 -0.27542 -0.0054835 0.58659 0.36587 0.060014 -0.30373 -0.29725 -0.57203 -0.3557 0.31475 0.62865 0.017272 0.31373 -0.40425 0.2023 0.5813 
lol 0.15868 -0.33598 0.12425 -0.40035 -0.50308 -0.46819 0.35429 -0.024529 -1.0365 -0.35393 -0.3346 0.21682 -0.22775 0.20005 -0.35224 -0.034345 -0.12938 0.086793 0.30889 -0.041377 0.30836 0.16718 -0.54889 0.40441 0.87508 
oteol -0.075704 0.87905 0.0085349 -0.35023 0.23416 -0.41086 0.3062 -0.68834 -0.48328 -0.14136 -0.054325 0.61535 0.1696 0.070932 0.14942 -0.045737 -0.19504 -0.73727 0.13663 -0.40065 -0.26898 0.17744 -0.13395 0.47576 0.48145 
olchedy -0.2923 -0.38408 -0.35223 -0.54317 -0.4941 -0.2438 -0.12687 0.226 -0.86151 -0.10931 -0.1384 0.022515 -0.29543 0.80952 -0.60712 -0.047175 -0.010579 -1.0364 -0.074648 -0.53374 -0.1173 0.031392 -1.0169 0.22662 -0.24453 
olkeey -0.27498 0.049746 0.48432 -0.11564 -0.89174 -0.63296 0.3734 -0.1897 -0.54456 -0.51199 -0.46682 -0.13584 -0.25829 0.20194 -0.58739 0.3027 -0.025474 -0.11418 0.80606 -0.028341 -0.57325 -0.048868 -0.36578 0.40056 0.41531 
qodaiin -0.081058 -0.68088 -0.27754 0.11033 -0.33203 -0.0019834 -0.022575 -0.7356 0.38842 -0.56692 0.22371 0.19984 0.1405 0.2307 -0.32876 -0.17064 0.37623 0.13034 -0.57432 0.087238 -0.86259 -0.011628 0.075262 1.0045 0.55364 
lshedy -0.37034 0.89737 -0.14999 -0.27905 -0.56727 -0.4102 0.37856 0.19517 -0.79687 -0.035387 -0.45527 0.042836 -0.2116 0.16784 -0.30885 -0.046679 -0.35448 -0.083863 0.66331 0.50064 0.089573 0.5407 -1.1211 -0.080089 0.79674 
dshedy -0.67579 0.36457 -0.51723 -0.40595 -0.60265 -0.16252 -0.39382 0.094598 -0.27831 -0.7339 0.26677 0.50436 0.3137 0.41244 -0.63316 0.20229 -0.0060607 0.13604 0.071406 0.086409 0.18042 -0.18342 -1.0004 -0.30055 0.62667 
lor -0.29381 0.051812 0.34117 -0.256 -0.35878 -0.2383 0.29016 -0.30367 -0.4001 -0.18796 0.16526 -0.67844 0.18031 0.70872 -0.60444 0.047942 -0.067522 -0.046227 0.31108 0.032498 -0.16568 -0.099087 -0.35506 0.42961 0.12736 
choty -0.16302 0.035835 0.036867 0.96411 -0.070647 -0.09822 -0.1517 -0.43794 -0.042928 0.28822 -0.29712 0.757 0.36046 0.41462 0.14821 -0.17271 -0.79425 -0.59208 -0.61015 0.088548 0.015309 0.46625 -0.49906 0.045336 0.4675 
choky 0.15662 0.94527 -0.23467 0.12757 0.27743 -0.31656 0.041737 -0.42423 -0.18107 0.13829 -0.047011 0.51247 0.17302 0.37216 0.26599 0.45098 -0.49011 -0.022216 -0.82347 0.25045 -0.32296 0.74912 -0.24978 -0.022501 0.66469 
olkaiin -0.70312 -0.46357 -0.2163 0.49038 -0.20338 -0.10825 0.81006 -0.21774 -0.23372 -0.48395 -0.10361 -0.33861 -0.17659 0.40679 -0.16166 0.63757 0.17399 -0.67453 -0.091334 -0.9528 0.27562 0.33168 -0.31337 0.68441 0.10807 
ckhy 0.0017306 0.87376 -0.30581 0.019645 0.21138 -0.31372 0.02519 -0.69732 -0.12567 0.038223 -0.70082 -0.3645 0.45946 0.69544 -0.042165 0.10855 0.11326 0.24403 -0.89404 0.17618 0.014666 0.51891 -0.058592 0.25973 0.48262 
sheky -0.66515 0.1374 -0.12203 0.20629 -0.4804 0.48147 -0.33197 0.35827 -0.31134 -0.43424 -0.83451 0.54802 -0.22177 1.1504 -0.52103 0.15299 0.17335 -0.28726 -0.17999 0.30918 0.12402 -0.28049 0.23049 0.47222 -0.78983 
lkeey -0.97926 -0.11087 0.93112 -0.33555 -0.5915 -0.35026 0.26721 -0.49052 -0.51001 -0.043471 0.17873 -0.32133 -0.24446 0.19903 -0.48459 -0.22005 -0.39394 -0.291 0.29745 0.51247 0.042319 -0.18805 -0.1076 0.51069 0.77554 
sheckhy 0.050305 0.18471 0.30096 -0.0014386 -0.94277 -0.13773 0.42232 0.56916 -1.081 -0.70178 0.55927 -0.065546 -0.1273 1.2092 -0.09708 0.20513 -0.52632 0.074568 0.11418 0.20853 -0.16923 0.072504 -0.82985 -0.12971 0.064826 
otor -0.18841 0.2121 -0.50832 0.22761 -0.016282 0.27266 0.32932 -0.32319 -0.036805 -0.28846 0.35631 0.52133 0.24371 0.29209 0.019832 0.30257 -0.39433 0.098511 -0.93514 0.35322 0.17431 0.30975 -0.084225 0.19265 0.22805 
lkeedy -0.44273 0.28366 0.42307 -0.77677 -0.5851 -0.35634 0.30903 0.051678 -0.68183 -0.44071 0.58994 -0.1573 -0.40572 0.064562 -0.51369 0.044498 -0.014426 -0.56447 -0.36469 0.46673 -0.46777 -0.15173 -0.27781 0.29124 0.55494 
kol 0.312 0.41354 -0.2631 0.23979 0.0028486 -0.082939 -0.40886 -0.074063 -0.55846 0.15265 -0.82941 0.38396 0.49474 0.10566 -0.74493 -0.01732 -0.2211 0.32513 -0.48987 0.37986 -0.12138 0.34836 0.14382 0.477 0.33776 
otain -0.34603 0.0054042 0.11238 0.24467 -0.42857 -0.25451 0.69655 0.041765 -0.64853 -0.10014 0.33795 0.094094 -0.19466 0.52423 -0.18482 0.41342 0.30004 -0.43409 0.059529 0.019723 -0.0028381 0.065456 0.013808 0.27809 0.035377 
ches -0.33081 0.73306 0.42604 -0.36324 -0.57941 0.34367 0.29417 -0.28564 -0.36794 -0.56191 -0.094891 0.26565 0.0030127 0.5049 -0.16768 0.25768 0.037496 0.021049 0.0079476 0.030697 0.13769 0.60863 0.14805 0.1685 -0.22591 
qokchedy -0.073596 -0.010545 0.013418 -0.28552 -0.67483 0.20966 0.12706 0.07866 0.47254 -0.098458 0.37097 0.094046 -0.050628 0.37682 -0.75689 0.16897 0.11936 -0.021891 -0.50577 0.040461 -0.25947 0.22204 -1.0868 0.43202 0.074822 
qo -0.063374 0.1952 -0.025968 0.097115 -0.075213 -0.095799 0.16571 0.020464 -0.38487 0.37052 0.10574 0.24612 0.12067 0.72132 -0.36999 -0.18947 -0.1358 0.19792 0.52914 0.68772 -0.20808 0.32989 -0.36534 0.098666 0.46146 
chos -0.0073059 0.47539 -0.0037676 0.30641 0.34583 -0.20419 0.075221 -0.66715 0.35922 -0.54653 -0.41868 -0.30138 -0.10456 0.17064 -0.54738 -0.087026 -0.549 -0.049359 -0.56065 0.10365 -0.49299 0.097439 0.10763 1.0323 0.0092253 
chedaiin -0.9025 -0.63419 -0.14871 -0.44813 -0.51464 0.097677 -0.21661 -0.12518 -0.083515 0.17959 0.4716 0.061805 -0.63695 0.10391 -0.72315 0.088001 -0.22307 -0.44491 -0.49665 -0.073138 -0.33037 0.48085 0.045994 0.48262 0.069152 
oraiin -0.27926 0.11049 0.30797 0.13909 0.2564 0.15278 0.47034 -0.27379 0.32621 -0.59628 0.30441 -0.46449 0.055626 0.38766 -0.60595 0.38546 -0.1894 0.042634 -0.19807 -0.43178 -0.43575 0.018106 -0.52932 0.33973 0.55659 
shar -0.38014 -0.17626 0.31695 0.64213 0.092264 0.26194 1.2211 -0.31771 -0.36543 -0.46697 -0.4577 -0.22207 -0.1889 0.44346 -0.20776 0.43126 -0.34389 0.31628 -0.19015 -0.39837 0.16258 0.36241 -0.124 0.58457 0.14804 
okeody 0.55124 1.0863 -0.16459 -0.86761 -0.16843 0.59774 0.062347 -0.22114 -0.050524 -0.35062 0.047732 0.56695 -0.025121 0.39061 -0.36362 0.88578 -0.5987 -0.75621 -0.61151 0.10481 -0.28135 -0.091768 0.10157 0.56558 0.11844 
qokor 0.06494 0.20491 -0.51585 0.20894 -0.41903 0.3494 -0.14444 -0.073643 0.25111 -0.46068 -0.1125 0.36559 0.59804 0.17137 -0.60707 0.11255 0.27395 -0.24201 -0.29934 0.079902 -0.24934 0.82252 -0.30278 0.66507 -0.22985 
oteody -0.21135 0.78423 -0.6297 0.17144 -0.19376 0.60392 -0.15266 -0.47798 0.13916 -0.041862 0.16445 -0.0094548 -0.35504 0.22553 -0.70595 0.66758 -1.0484 -0.87865 -0.29747 -0.10771 -0.31305 -0.067923 -0.1556 -0.072162 0.34597 
chees 0.019839 0.1526 -0.016428 0.15857 -0.25242 0.044695 -0.85559 -0.23726 -0.27209 -0.068271 -0.17312 0.085653 -0.27051 0.4077 -0.43869 0.49453 0.362 -0.092231 -0.39307 -0.00017282 0.15769 0.24481 -0.081095 0.50857 0.16952 
otchey -0.73945 -0.10181 0.41068 0.013003 0.62761 0.2801 -0.13747 -0.034474 -0.3798 -0.27523 0.013746 0.47414 0.82342 0.16541 -0.42871 -0.14614 -0.15344 -0.15635 -0.37536 0.0040891 0.43721 0.11775 -0.26973 0.56632 0.67644 
chckhey -0.66096 0.30425 0.48007 0.26536 -0.086331 -0.77869 -0.10269 0.085198 -0.25197 -0.12402 0.32935 -0.13698 -0.21358 0.46126 -0.83345 0.088023 0.44651 -0.12331 0.20792 0.25443 -0.60881 -0.06311 -0.0055944 0.2415 0.28455 
tchedy -0.38253 -0.47257 0.60047 -0.3606 -0.62681 -0.21026 -0.45822 0.27956 0.061052 -0.21176 0.1843 0.7377 0.14695 0.041704 -0.73705 0.49346 -0.11825 0.063888 -0.67621 0.042096 -0.029527 -0.018985 -0.66896 0.45392 0.37683 
cheal 0.079036 0.37443 0.39955 0.055073 -0.52613 0.32827 0.61511 -0.27555 -0.90107 0.21568 -0.033892 -0.52324 -0.37127 0.49905 -0.25517 -0.20548 -0.02007 -0.14069 -0.5189 0.28138 -0.066624 0.21162 -0.32115 0.24243 0.22539 
checthy -0.21076 0.092909 0.17741 0.063228 -0.13306 -0.63271 -0.055754 0.53144 -0.55786 -0.31726 0.43544 0.018603 -0.05454 0.86112 -1.1459 -0.5503 -0.14444 -0.47398 -0.20778 -0.15464 -0.44049 -0.13499 -0.82485 -0.076143 -0.082589 
kchy -0.17261 0.35342 0.3482 1.1683 -0.26562 -0.19586 -0.27454 -0.30969 -0.0068092 0.15458 -0.24551 0.91835 0.7037 0.52453 0.087823 0.59956 -0.34331 0.288 -0.57553 0.36361 -0.37859 1.1456 0.025241 -0.13679 1.1489 
aiiin -0.24643 0.12937 -0.032196 -0.14518 -0.24727 0.42516 0.48275 -0.7073 -0.38592 0.011223 0.36462 -0.48064 -0.076164 0.70208 -0.36566 0.40614 0.33285 -0.075342 -0.25145 -0.36699 0.41079 -0.16543 -0.068057 0.69086 0.23174 
okor -0.21236 0.42813 -0.5636 0.19029 0.74729 0.30683 -0.10944 -0.68134 -0.23894 -0.043335 -0.44856 0.26488 0.34632 0.27961 -0.75494 0.24958 -0.11887 0.075006 0.57293 0.27256 -0.58547 0.055122 0.049374 0.47917 0.69591 
shcthy -0.077525 0.2276 0.44888 0.57658 -0.71323 -0.00094961 0.27557 0.30206 -0.063578 -0.060244 -0.2635 0.72077 0.10671 0.92728 -0.25056 -0.32493 -0.55763 0.64202 0.012671 0.44755 0.57782 -0.097315 -0.88463 0.21085 0.48156 
okchey 0.23935 0.026965 0.18578 -0.17881 -0.14377 -0.33939 0.16621 -0.026973 -0.88147 0.49426 -0.24612 0.60867 0.2012 0.38583 -0.37644 -0.18527 0.5701 -0.57246 -0.68744 0.14713 -0.47356 0.18121 0.1792 0.34918 0.38792 
qokeody 0.84877 0.79583 -0.10742 -0.12922 0.010671 0.11877 -0.057407 -0.267 0.52746 -0.2173 0.48565 0.84183 0.18982 0.61436 -1.2411 -0.21189 -0.6504 -0.37313 0.056624 0.64678 -0.13842 -0.2304 0.29535 0.52634 0.73042 
okchy 0.21145 0.26667 -0.19371 0.065865 0.20821 -0.38498 -0.19494 -0.13693 -0.1403 -0.21125 -0.24842 0.32666 -0.073785 0.40736 -0.31259 0.63396 -0.29813 0.18119 -0.43285 -0.55397 0.048395 0.82623 -0.29789 -0.095897 0.57761 
ykar 0.12322 0.072795 -0.9608 -0.32843 -0.17815 -0.48565 0.5786 -0.22565 0.078959 -0.43473 -0.095479 -0.17398 -0.047932 0.98248 -0.066284 0.83512 0.42548 -0.12959 -0.6507 0.070812 0.098914 0.1093 0.12448 0.20108 0.41831 
ai!n -0.72669 0.060822 0.32222 -0.51303 -0.30828 -0.048744 0.43748 -0.12639 -0.37956 -0.31393 -0.10607 -0.14393 -0.24567 0.42022 -0.17957 0.18715 0.25538 -0.13724 0.26551 0.31177 -0.15933 0.13363 -0.085498 0.54814 0.083235 
olor -0.92216 -0.23754 -0.15604 0.36889 0.34368 0.10356 0.54636 0.11014 -0.36732 -0.31112 -0.1784 -0.51947 0.29147 0.97052 -0.23419 0.41398 0.11469 -0.00034243 0.43263 -0.14381 -0.28399 0.21534 -0.79209 0.0081478 0.53295 
olkedy -0.37375 -0.12717 -0.65297 -0.18879 -1.2027 -0.20838 0.23607 -0.0063361 -0.52368 0.093532 0.48705 1.2421 -0.29233 0.88097 -0.2725 0.2299 -0.0042067 0.19399 0.89826 -0.34031 -0.70653 -0.44442 -0.89559 0.36903 0.52003 
pchedy -0.62785 0.33728 0.53234 -0.9484 -0.47457 0.29665 0.57562 0.38058 -0.39791 -0.54574 -0.11269 0.3815 0.17541 0.4245 -0.06025 0.51465 -0.18139 0.28225 -0.3746 -0.21362 0.74684 -0.41554 -1.138 0.69165 0.79291 
ckhey 0.4118 1.1563 -0.10151 0.24388 0.38335 -0.11631 -0.24394 -0.62057 -0.28227 -0.58006 0.23635 0.15675 0.21426 0.84974 -0.40712 -0.52365 -0.43902 0.43489 -0.63931 0.17393 -0.5238 -0.065314 0.55773 0.72154 0.31531 
qopchedy -0.5378 -0.029809 -0.065859 -0.65873 -0.89548 0.60818 0.26065 -0.29781 -0.10876 -0.76361 0.25666 0.4389 -0.094617 -0.19891 -0.9202 0.71449 -0.91776 0.34939 -0.35865 -0.094309 -0.26078 -0.31851 -0.55084 0.34284 0.35284 
kal 0.24155 -0.084201 -0.17875 -0.049652 -0.47504 -0.51118 0.2476 -0.13133 -0.33948 -0.231 -0.45166 0.38161 -0.32184 0.24149 -0.59069 0.60292 -0.46559 0.41028 -0.16706 -0.028524 0.3458 -0.18816 -0.088 0.2712 0.37214 
cheos 0.2337 0.51745 0.03672 -0.39232 -0.16801 -0.14551 0.52049 -0.78228 0.29541 0.2103 -0.14626 0.17503 -0.095001 0.28788 -0.40379 0.037099 0.12885 -1.0844 -0.3026 0.087171 -0.63004 0.10649 0.055095 0.69618 0.1383 
otchedy -0.99971 -0.74371 -0.0068048 0.33654 -0.41435 0.19934 0.099558 0.11773 0.39954 -0.37023 0.37715 0.50978 0.22082 0.30056 -0.93533 0.2856 -0.2368 -0.3703 -0.078151 0.70062 -0.013787 -0.21513 -0.035091 0.078187 0.59477 
lkar -0.52333 0.7088 0.50303 -0.26372 -0.65595 -0.70837 0.91803 0.45974 0.19724 0.03674 0.14839 -0.2 0.42179 0.60863 -0.55923 0.56511 0.16762 -0.12329 0.12823 0.26333 -0.19449 -0.0085873 -0.12165 0.13099 0.70449 
chedar -0.68452 -0.20045 0.40846 -0.58661 -0.18878 0.034827 0.3664 0.23366 0.040005 0.079463 0.18924 0.35954 0.096718 0.12451 -1.1046 -0.17076 -0.16417 -1.0207 -0.25041 -0.022164 -0.09993 0.076436 -0.50044 0.25159 0.19264 
sai!n -0.49511 0.34472 0.22491 -0.22022 -0.62335 -0.079867 0.42267 0.29654 -0.6317 -0.19864 0.70134 0.41116 -0.0085855 0.52128 -0.30999 0.31289 0.13251 -0.11077 0.049221 -0.11399 -0.053324 -0.36274 -0.41445 0.62863 -0.11984 
dchy 0.002483 0.51045 0.14094 1.1616 0.59475 -0.45956 0.13772 -0.92582 -0.12143 0.86038 -0.70012 0.18851 -0.11541 1.2656 -0.17145 0.20023 -0.56769 0.10448 -0.27323 0.35959 -0.13607 0.82852 -0.049141 -0.2725 1.1558 
daly -0.01283 1.0182 -0.17357 0.8673 -0.32992 -0.32277 0.52035 -0.41635 -0.16062 0.12429 -0.23435 0.56535 -0.1679 0.13848 -0.95402 -0.11768 0.042618 -0.22913 -0.051726 -0.83349 0.47477 0.039439 -0.52796 0.18331 0.2691 
dchedy -0.69232 -0.33564 -0.4597 0.08611 -0.80187 -0.70008 -0.12653 0.27294 0.076263 0.031093 -0.013532 1.1607 -0.57204 0.082597 -0.66967 0.59124 -0.017829 -0.46279 0.39747 -0.36508 -0.02444 0.08976 -0.62646 0.19988 0.47278 
otchol 0.33828 -0.64845 -0.20975 0.50616 0.70677 -0.33486 -0.04905 -0.88216 0.22013 -0.28006 -0.642 0.89706 0.21546 1.0855 -0.11971 0.15111 -0.82568 0.28802 -0.38309 -0.58083 -0.25822 1.4948 0.40833 0.69221 0.62839 
opchey -1.1887 0.15344 0.15674 0.057955 0.062445 0.11246 0.47034 -0.34565 -0.13014 -0.19353 0.14106 0.32765 0.35209 0.21947 -0.2609 0.16948 -0.57922 0.74098 -0.50157 -0.40679 0.42143 -0.0083226 -0.57417 0.14619 0.7208 
qokchey 0.0077317 -0.0077034 0.65888 0.14003 -0.39599 -0.081823 0.18387 -0.36212 0.33973 -0.79424 0.21255 -0.58563 0.22879 0.27343 -0.62566 -0.10335 0.32186 -0.46957 -0.016751 -0.3592 0.15829 0.9305 -0.27426 0.54685 0.99152 
otchdy -0.70435 0.25953 -0.20415 -0.22572 0.13466 -0.20773 0.25321 0.06024 0.7152 -0.52477 -0.3462 1.0389 -0.39077 0.26724 -0.59112 0.5243 -0.44358 -0.3423 -0.55753 -0.067927 -0.10623 -0.10606 -0.81967 -0.036965 0.040204 
okam -0.42309 0.51552 -0.24021 -0.06887 0.34271 0.24917 -0.033459 -0.23983 -0.20752 -0.51821 0.14824 -0.12148 -0.40982 0.56883 -0.63752 0.36403 0.60798 -0.13216 -0.48979 0.39153 0.3038 -0.089545 0.27216 0.30983 0.27917 
yteedy -0.40533 0.11734 0.14734 -0.14022 -0.26967 -0.064101 0.46318 -0.57597 0.32924 -0.018547 -0.33639 0.16411 -0.13553 0.60022 -0.95717 0.24481 0.097199 -0.49026 -0.36722 -0.073689 -0.29863 -0.70306 -0.69726 -0.48252 0.66284 
oiin -0.29802 0.38028 -0.009291 -0.021319 0.038133 0.5035 -0.30959 -0.28903 -0.64195 -0.3128 -0.33524 0.31281 -0.41182 0.41745 -0.11691 0.13252 -0.082021 0.3074 -0.056895 -0.21373 0.057179 0.20627 0.092071 0.75318 -0.086136 
qotai!n -0.73565 -0.58866 0.17727 0.48385 -0.89675 0.0036104 0.32631 0.42705 -0.62206 -0.15308 0.036099 0.36822 -0.056274 0.22672 -0.67263 -0.1258 -0.29199 -0.044837 0.42988 0.85861 0.17097 0.0038318 -0.39143 0.54299 0.28495 
olchey -0.63509 0.45226 0.13658 -0.16552 -0.37248 -0.51007 0.054854 0.067982 -0.73317 -0.30167 -0.12649 -0.17923 0.1306 1.0006 -0.75213 0.023304 -0.59226 -0.64406 0.53812 -0.35265 -0.87639 0.1171 -0.60364 -0.61278 -0.049959 
tchy 0.23544 0.35745 0.65202 0.48007 -0.2905 0.024101 -0.54079 0.019677 -0.36011 0.1833 -0.57981 0.58681 -0.074635 0.68302 0.0057518 0.53638 -0.2145 0.4097 -1.2591 0.21041 0.42634 0.86399 0.30819 0.43127 0.64122 
lkedy 0.23563 0.20745 0.17604 -0.47723 -1.1589 -0.42955 0.30233 0.12574 -0.33733 -0.5751 0.80332 0.55077 -0.74599 0.24469 -0.80415 0.052615 -0.28502 -0.68003 -0.14607 0.15087 -0.0053043 -0.14685 -0.42422 0.061526 0.52269 
oldy -0.0077598 0.94699 0.25033 0.63274 0.14748 -0.37675 0.083907 0.18602 -0.088398 -0.0112 0.49684 1.0745 -0.69402 1.0647 -0.37434 -6.9358e-05 0.055479 -0.12791 -0.053067 -0.28477 -0.30217 -0.03286 -0.94653 -0.15065 0.18892 
qokeeey -0.27782 0.20159 0.23735 -0.80849 -0.29918 -0.38186 -0.30356 0.13151 0.24953 -0.75362 0.2626 -1.0406 -0.12343 1.0416 -0.26894 0.077067 -0.37037 -0.72814 -0.047674 0.63905 -0.46342 -0.11516 -0.39762 0.65013 0.49457 
ykeedy -0.35679 0.32181 -0.28149 -0.38258 -1.1111 0.17284 0.12412 -0.099806 -0.45257 -1.1668 -0.0057977 0.66554 -0.46996 0.66879 -0.12147 0.13228 0.16049 -0.3388 0.08912 0.10842 -0.36728 -0.35613 -0.53263 0.15672 -0.15239 
aly -0.28738 0.47577 0.21938 -0.061758 -0.25571 -0.29349 0.42883 0.034151 -0.32908 -0.29498 -0.28598 0.48686 -0.22178 0.47607 -0.87687 0.26611 -0.30308 -0.55159 -0.43912 -0.33562 0.15493 -0.02518 0.41281 -0.035086 -0.44588 
dchor 0.39441 -0.321 -0.1168 0.098436 0.7137 0.38079 0.1024 -0.24265 -0.39555 0.010785 -0.59191 0.85264 0.29858 0.593 0.075559 0.39326 -0.69688 0.14074 -0.31075 0.49337 -0.33873 1.4537 0.11753 0.53621 1.0202 
she -0.38642 0.30889 0.18915 0.25106 0.42482 -0.693 -0.082103 0.28599 -0.062673 -0.83254 -0.14441 0.42178 0.57443 0.87553 -0.25952 0.36723 0.20254 0.20117 -0.034895 0.4655 -0.5866 -0.085615 0.5215 0.66845 0.12843 
qotor -0.43284 -0.56681 0.021766 0.16114 -0.0070142 -0.067882 -0.092041 0.48433 0.97541 -0.32725 -0.37256 0.19562 1.0985 1.3875 -0.27712 0.53247 -0.19994 0.40158 -0.79677 -0.35449 -0.17204 1.0823 -0.4501 0.49453 0.23201 
os -0.060462 0.48496 -0.33308 0.38791 0.41486 -0.21641 0.51293 -0.46096 -0.2318 -0.43089 0.063078 -0.15882 0.046796 0.50575 0.085797 0.10137 -0.77275 -0.25006 -0.60481 0.07833 -0.50792 0.29715 0.23683 0.30039 0.1469 
kor -0.28319 0.63888 -0.17715 0.22503 0.083604 -0.30667 -0.682 -0.36129 -0.11682 -0.30323 -0.80903 0.21909 0.11001 0.95197 0.2437 0.2953 0.25358 0.00094979 -0.45957 -0.12528 -0.2692 -0.047544 0.25558 0.65743 0.026894 
yteey -0.58804 0.38657 0.016305 0.16507 0.38588 0.09038 0.40678 -0.49942 0.11728 -0.27143 -0.19954 0.41845 -0.25902 0.2301 -0.023836 0.34873 -0.53823 -0.73766 0.27038 0.3272 -0.25913 -0.13342 -0.23558 0.21457 0.64105 
qokam 0.18355 -0.1164 0.21835 -0.16021 -0.81775 -0.98431 0.10986 0.13875 -0.055789 -0.37733 0.13766 0.44869 0.21251 0.27029 -0.37376 -0.30661 0.45903 0.20693 -0.19521 0.022741 0.32618 0.92311 -0.52419 0.69099 0.48052 
yty -0.28056 -0.39543 0.18534 0.83545 0.49639 -0.40318 -0.38968 -0.61724 -0.053511 -0.35412 -0.77952 0.52189 -0.088943 1.1336 -0.072604 0.71969 -0.23583 0.09003 -0.070056 -0.24446 -0.049924 -0.16892 0.081222 -0.1058 1.0608 
tor 0.11935 0.06734 -0.94712 0.37943 0.23498 0.17939 0.36912 -0.24962 -0.0040161 -0.71459 -0.41368 0.042464 0.22662 0.97377 -0.24067 0.098639 -0.19969 0.19068 -0.10445 -0.16007 0.0014023 0.38471 -0.00078133 0.069695 0.28178 
sy -0.19337 -0.14762 0.10523 0.21979 -0.068913 -0.078278 -0.50816 -0.20362 -0.35676 0.11179 -0.11617 0.66247 0.34139 0.83711 -0.073512 -0.15035 0.29245 0.019066 -0.35676 0.18985 -0.19935 0.16334 0.029446 0.69765 -0.29793 
okeeey -0.30704 0.36986 0.31577 -0.067392 -0.20751 -0.21016 -0.17928 -0.2093 0.13927 -0.17087 0.15611 -0.27255 0.082407 0.56568 -0.41677 0.14726 -0.63166 -0.32572 0.084025 -0.38677 -0.27648 -0.28725 0.31655 1.3575 -0.16935 
olky -1.139 -0.32081 -1.0498 0.30069 0.041404 0.56831 0.29074 1.0386 -0.71315 -0.4682 -0.16743 0.14895 0.47597 0.9497 0.0075859 0.9495 -0.41136 -0.11619 0.50899 -0.097541 0.96793 0.28248 -0.65606 0.75437 0.46243 
chedal -0.3916 -0.50987 -0.27667 0.35687 -0.435 0.25297 -0.18885 -0.10807 -0.035022 0.068477 0.78722 -0.21256 0.40542 0.11741 -1.3191 0.48884 -0.16777 -0.59648 0.065195 0.14016 -0.19312 -0.71413 0.057324 0.73797 1.1484 
tal -0.085586 0.31137 -0.63727 0.35408 -0.66153 0.26136 0.86356 0.17439 -0.41381 0.27652 -0.45183 -0.099722 0.072766 0.7733 -0.72926 0.1286 -0.037571 0.2219 -0.604 -0.13052 0.16081 0.061169 -0.55251 0.051835 -0.2774 
chl -0.58471 0.30963 0.043707 0.17527 -0.45788 -0.23034 0.45623 0.31147 -0.29019 -0.11164 -0.41063 -0.047953 0.14359 0.69822 0.39645 0.13437 0.3481 -0.3845 0.23655 0.61287 -0.84991 0.2168 -0.37433 0.60247 0.053442 
aiir -0.41633 0.089877 -0.47926 -0.42932 -0.40625 0.2834 0.3071 -0.80084 -0.04749 -0.32556 0.0107 0.10624 -0.06744 0.32971 -0.60192 0.28275 -0.35143 -0.41246 -0.81021 -0.20284 0.35587 0.22325 0.70812 0.085248 0.037014 
sair -0.60386 0.38935 -0.015357 -0.74639 -0.4319 0.070317 0.032102 0.26122 -0.072027 -0.31741 -0.34242 0.0033341 -0.82689 0.57309 -0.69081 0.11091 -0.66204 0.4007 -0.89424 0.30205 0.031534 0.17855 0.63648 0.41817 -0.19648 
okchedy -0.54387 0.17414 -0.53435 0.2626 -0.30642 0.013191 -0.11864 0.15399 0.31909 -1.3187 0.0064573 -0.068797 -0.48607 0.2633 -0.26002 0.3599 0.23527 -0.75126 -0.53198 0.17969 -0.90626 -0.50915 -0.4043 0.93167 0.10982 
ytar -0.39158 0.17175 -0.65717 0.13426 -0.24541 0.24352 0.39748 0.30695 0.4728 0.13051 0.4483 0.091546 0.17584 0.59155 -0.16618 1.0807 -0.21764 -0.041756 -0.66641 -0.19222 0.22773 0.53864 -0.14714 0.51486 0.24652 
ytedy -0.18724 0.45 -0.98981 -0.36954 -0.7491 -0.28335 0.60289 -0.60015 -0.94494 -0.53253 -0.79183 1.7589 0.4565 0.29522 -0.23358 0.23753 -0.22278 -0.37003 -0.34505 -0.22775 -0.48805 -0.62113 -0.20761 -0.52319 0.80695 
daiir 0.1196 0.34584 -0.061986 -0.15562 0.020687 -0.1276 -0.69209 -0.36847 0.0064649 0.071616 0.067854 0.75745 0.59332 0.020079 -0.84816 0.32684 -0.26714 -0.5214 -0.737 -0.11649 0.325 0.59102 0.34018 -0.015142 1.0232 
oaiin 0.29862 0.12362 0.17203 -0.24644 0.58213 -0.48645 -0.22966 -0.49208 -0.36196 0.52045 -0.085006 -0.24936 0.55447 0.69936 -0.33686 -0.022209 0.079737 -0.87614 -0.15514 0.061499 -0.32377 0.2946 -0.16916 0.73273 0.55401 
shear -0.93322 0.27024 0.35748 0.35113 -0.40296 -0.44664 0.63168 -0.1696 -0.60615 -0.76042 -0.13221 0.49282 -0.34164 0.010216 0.2437 -0.26916 -0.20349 0.45197 0.064251 0.27793 -0.66532 0.32857 0.2721 0.60614 0.39035 
tchey -0.031341 0.64671 0.54539 1.2158 -0.55863 0.46296 0.13621 -0.51242 -0.22167 -0.40434 -0.15924 0.057038 0.10061 0.4023 -0.33304 -0.19701 -0.11442 0.40698 -0.23478 0.87737 -0.024656 0.7532 -0.064242 -0.16061 1.0954 
chety -0.85311 0.78015 -0.014692 -0.36324 -0.29247 0.22553 -0.16961 -0.068877 0.26329 -0.14979 -0.2021 0.5086 0.34278 0.73289 -0.35769 0.046154 -0.60446 -0.012422 -0.52938 -0.017628 -0.22909 0.45178 -0.39775 -0.51294 -0.096681 
qotain -0.56335 -0.28825 0.069121 0.25573 -0.8872 -0.0023686 0.21377 0.1994 -0.56655 0.15826 -0.031205 0.15622 -0.20633 0.12995 -0.60024 0.088419 -0.47724 -0.19723 0.45024 0.43148 -0.066692 0.045566 -0.536 0.30701 0.25465 
qor -0.13895 -0.36598 -0.043099 -0.42916 -0.0055784 -0.37187 0.419 0.17426 -0.24564 -0.25652 -0.44635 -0.08746 -0.58858 1.4916 -0.50862 0.3038 0.92366 0.014222 0.70961 0.22112 -0.22515 0.72303 0.51615 0.40694 0.4646 
dary 0.21773 0.37783 -0.65325 0.2562 0.01024 0.18142 0.077343 0.10803 0.31155 0.1038 -0.51318 0.51907 -0.83455 0.90906 -0.10929 0.36987 0.70485 -0.40002 0.1401 0.55492 -0.23232 0.89 -0.809 0.37593 0.33636 
otair -0.46864 -0.14816 -0.78688 0.032264 -0.19865 0.018793 1.0706 -0.0040373 0.14103 0.12814 -0.021806 0.33168 0.53053 0.08561 -0.56251 0.4406 -0.59781 -0.82943 -0.088083 -0.15839 0.40433 -0.018231 0.36526 1.1214 0.10998 
qotey -0.45542 -0.6979 -0.36526 -0.0012075 -0.3425 -0.31028 0.57438 0.18422 -0.27297 0.093027 -0.45895 0.51442 -0.12679 0.072851 -0.8428 -0.61254 -0.3523 -0.43099 0.024775 0.2823 0.55429 0.21492 -0.62197 0.78116 0.094841 
qoaiin 0.54911 -0.6915 -0.20757 -0.46559 0.026842 0.37473 -0.12191 -0.54364 0.26392 0.0887 -0.029554 0.47097 -0.42812 0.97225 -0.35003 -0.57463 -0.68831 -0.35867 -0.38941 0.31029 0.050641 0.27312 -0.092261 0.78365 0.42101 
olshedy -0.78645 0.30515 -0.21431 -0.51462 -0.16032 0.16394 1.072 0.43351 -0.74696 -0.058658 -0.56913 1.1716 -0.5151 0.52758 -0.49101 -0.46277 -0.39095 -0.49823 0.64778 -0.0926 -0.55727 0.43984 -1.3178 -0.20638 0.34159 
ldy -0.59784 0.12396 0.51516 0.36374 -0.6074 -0.60191 0.27658 -0.32687 -0.39101 -0.81516 0.36197 0.028188 -0.27825 0.5275 -0.094881 -0.019375 -0.85769 -0.20046 -0.12138 -0.063668 -0.52023 -0.3361 -0.77924 -0.087359 0.12851 
kchor -0.31172 0.11424 -0.17708 0.69544 0.44855 -0.395 -0.63631 -0.21073 0.01583 -0.18137 -0.75678 1.3483 0.25373 1.0574 -0.45723 -0.866 -0.082042 0.16706 -0.59655 0.94925 -1.0625 0.76102 0.12468 0.36175 -0.023378 
chkaiin 0.36611 0.030377 -0.0015059 -0.34404 -0.43486 0.062748 -0.0061836 -0.11425 0.60285 -0.97454 -0.052675 -0.01225 0.096454 1.3963 0.11559 -0.12404 0.02542 -0.43837 -1.5134 -0.076953 0.3777 0.72507 -0.097904 0.92621 -0.4664 
kchol -0.050837 0.18826 0.046887 0.52664 -0.24311 0.12648 0.6258 -0.73088 -0.064737 -0.47255 0.18554 0.29381 0.93113 1.1696 0.23397 -0.14817 -0.35622 1.0515 -0.39858 0.075236 -0.46735 1.1919 -0.20779 -0.01531 0.69195 
cheeky 0.24 0.67973 -0.072825 -0.45553 -0.64691 -0.57323 0.25039 0.63162 -0.59756 0.2239 -0.86232 0.36058 0.38677 0.13456 -1.126 0.23105 0.37002 -0.088687 -0.14233 -0.25184 -0.27333 0.32037 -0.3753 0.23175 0.38523 
ky 0.065977 0.35426 -0.30092 0.10548 0.011135 0.27752 -0.49952 0.30308 -0.81455 0.078923 -0.57433 0.1912 0.38796 0.62594 0.10234 0.32684 -0.15285 0.4619 -0.82296 0.69189 0.31517 -0.11803 -0.38647 0.43535 1.0205 
shaiin 0.030694 -0.23841 1.1923 0.8163 -0.0033817 0.16294 0.42067 0.13953 -0.14582 -0.10564 -0.63601 0.4493 0.3212 0.6773 0.0019912 0.046576 0.131 0.64674 -0.82738 0.66338 -0.55931 -0.14961 -0.34518 1.0388 0.95233 
shodaiin -0.19283 -0.96468 -0.33371 -0.035528 -0.47612 -0.36384 0.6248 -0.9358 0.10012 -0.18992 0.17351 0.52358 0.45173 0.46314 0.28231 -0.17558 -0.48905 -0.1257 -0.80164 0.32778 -1.2657 0.56383 -0.014532 0.52196 0.52568 
odar -0.72367 -0.07265 -0.35943 0.27178 -0.17581 -0.1559 0.80739 -0.7502 -0.70171 -0.27845 0.56796 0.36622 0.46869 -0.31998 -0.51044 -0.035967 -0.31954 -0.41366 -0.37911 -0.36397 0.2208 0.44074 0.53031 0.5518 0.24595 
kchey -0.20043 0.40715 -0.17192 1.3359 -0.22181 0.13938 0.28681 -0.34157 -0.039373 -0.78694 -0.5009 -0.35961 0.23605 0.64524 -0.73296 -0.37623 0.064859 -0.59622 -0.56145 0.52448 -0.070638 0.8341 0.23672 -0.061393 -0.035037 
shecthy -0.25415 0.014838 -0.20937 0.036227 -0.62973 0.19884 0.62402 0.70155 -0.71143 -0.23427 0.31312 -0.35429 0.61313 1.2284 -0.4038 0.22516 -0.57545 -0.10284 -0.72666 0.40496 -0.46315 -0.82693 -1.1094 -0.15837 0.33049 
ykchy 0.056123 0.44487 -0.32578 0.91288 0.19651 -0.97359 0.3731 -0.42844 -0.23471 -0.11324 -0.87766 1.3923 0.92535 0.61796 0.48862 0.18129 -0.091844 0.28326 -0.10633 -0.18331 0.5088 0.84612 0.17246 0.72502 1.4089 
tchor -1.031 0.55636 -0.37193 0.15494 0.09906 0.23382 -0.13453 -0.45222 -0.27913 0.11927 -0.48868 0.51189 0.58577 0.40453 0.87963 0.21824 -0.36095 -0.037135 -0.21002 0.34845 -0.81114 1.2492 -0.12591 0.80045 0.31247 
okair 0.09183 -0.18868 -0.74564 -0.37044 0.025692 -0.075902 0.99673 0.01767 -0.10495 -0.28001 0.5008 0.094323 -0.19221 0.40254 -0.38617 0.56612 0.19638 -0.70711 -0.74054 0.002343 0.45522 0.25757 -0.28599 0.31616 0.67964 
kchdy 0.25439 -0.26473 -1.0711 -0.88413 -0.6561 -0.6564 0.17992 -0.23859 -0.12267 -1.155 -1.1033 0.82464 -0.010524 1.1754 0.036583 0.39196 0.25597 -0.22024 0.059675 0.25676 0.42864 -0.03688 0.47794 0.43976 0.4673 
keol 0.45768 0.26102 0.44879 -0.30447 -0.18255 0.21061 -0.56542 -0.44561 -0.53066 -0.61643 -0.35882 0.48429 0.10448 0.36692 0.1051 -0.11556 -0.15609 0.035366 0.14692 0.049554 -1.0418 0.39531 -0.011989 0.75253 0.60215 
ary -0.44312 0.049708 -0.45328 -0.61063 0.23943 0.37445 0.068149 -0.37477 -0.56234 0.34838 0.10237 0.090887 0.059576 0.75209 -0.29591 0.33877 0.29125 -0.62459 0.13652 -0.33948 0.36826 0.19319 0.029365 0.61294 0.18492 
keody 0.20915 0.68644 -0.078483 -0.31887 -0.18205 -0.61728 -0.55404 -0.64142 0.57027 -0.084764 -0.53599 0.82631 -0.18396 0.79192 -0.29747 0.056829 -0.36318 -0.3606 -0.24702 -0.23449 0.76021 -0.72 0.077943 0.70195 0.87424 
sain -0.39612 0.27683 0.23805 0.22209 -0.28068 -0.060261 0.2532 0.056552 -0.49498 -0.031798 0.36964 0.56827 0.067447 0.43277 -0.16048 0.12021 0.065533 0.10625 -0.11912 -0.0083812 -0.15074 -0.364 -0.27962 0.61718 -0.087117 
ycheey -0.023712 0.61596 0.2314 -0.231 -0.63038 -0.79113 0.2232 0.093513 -0.50783 -0.089685 -0.18144 0.045999 0.058337 0.037511 -0.13757 0.35621 -0.2219 -0.70256 -0.61156 0.0051093 -0.34803 0.18158 0.50412 0.56638 0.16021 
qokeor 0.38214 0.83662 0.44837 -0.17875 -0.023582 -0.0037528 -0.4024 -0.63685 -0.48172 -0.33795 -0.50256 -0.14809 0.70943 0.91295 -0.5499 -0.3685 -0.31381 -0.15705 0.26543 -0.17993 -0.35467 -0.77593 -0.85105 0.65273 0.37512 
okchdy -1.116 0.30947 -0.47886 0.11966 0.18133 -0.24381 0.31145 -0.089035 0.072385 -0.69387 -0.0037274 0.71188 -0.27106 0.094822 -0.78245 0.14421 0.30532 0.42894 -0.4813 0.044435 -0.47317 -0.49635 -0.18386 -0.17846 0.96576 
rar -0.91946 0.20997 0.35064 -0.23897 -0.23693 -0.25536 -0.048361 -0.46251 -0.56886 -0.55963 -0.13093 -0.15099 -0.18119 -0.24249 -0.94094 -0.037065 -0.096858 0.047702 0.52881 -0.5906 0.063295 0.49833 0.00035776 0.42383 0.49443 
qotchdy -0.54585 -0.62635 -0.057789 0.080281 -1.0056 -0.23172 0.16811 -0.4061 0.28317 -0.23211 -0.40455 0.48613 -0.70017 -0.13027 -0.48176 0.72503 -0.0029342 -0.11697 -0.36269 -0.023854 -0.65712 0.27878 -0.025335 0.067423 0.77123 
ckhol 0.15302 0.9606 -0.37685 -0.21692 -0.048462 0.11061 -0.5289 -0.96413 -0.52931 0.103 -0.15485 0.73605 1.0827 1.0281 -0.32814 -0.57478 0.24146 1.0913 -0.3109 0.26204 -0.63791 0.26173 -0.0080218 0.713 0.51513 
ched -0.48818 -0.064204 0.17473 0.11942 -1.2445 0.059892 -0.17289 -0.11028 -0.31957 0.45329 -0.18776 0.47776 -0.1811 0.41279 -1.1169 0.43488 0.21268 -0.50897 -0.40283 -0.072221 -0.30533 -0.77345 -0.11772 0.10121 0.047998 
chdar -0.87107 0.13549 -0.61946 -0.66138 -0.45688 -0.50743 0.10149 0.27441 -0.016129 -0.028457 0.3718 0.34526 -0.23337 0.22705 -0.385 0.94197 0.29716 -0.24253 -0.11409 0.25667 0.2261 -0.0023515 -0.035642 0.22578 0.8252 
shed -0.67098 0.9139 0.41799 0.3112 -0.87523 -0.58047 -0.47898 0.094526 -0.26057 -0.48667 0.083684 -0.060739 -0.043882 0.54722 -0.55903 0.29177 -0.40055 -0.1998 0.29623 -0.1229 0.58054 -0.039302 -0.38814 -0.10412 0.33842 
s!aiin -0.02297 0.80068 -0.3068 -0.32688 -0.36692 0.15004 -0.14061 0.12913 -0.37753 -0.25039 -0.012056 0.55318 0.19752 0.46786 -0.40363 0.25664 1.0432 0.28055 0.11995 0.036748 -0.010954 -0.069323 -0.22049 0.84361 0.2951 
cham 0.42895 -0.80559 -0.82909 -0.15659 -0.604 0.85236 0.44032 -0.73175 -0.4678 -0.2854 -0.45408 0.015442 -0.48966 1.5859 -0.5194 -0.15704 -0.072147 -0.30298 0.14996 -0.11809 -0.14281 1.369 0.79646 -0.10055 0.29346 
rol -0.73221 -0.25485 -0.12978 -0.13202 -0.60072 -0.0185 0.4712 0.9987 -0.18542 -0.56397 -0.51876 0.60873 0.35985 -0.083246 -0.56855 0.13953 0.04042 -0.30106 -0.46595 -0.10104 -0.46887 0.77781 -0.66543 0.2342 0.22002 
olol 0.074913 0.28816 -0.51246 -0.48727 -0.29131 -0.42727 0.39521 -0.46427 -0.73887 0.083911 -0.64684 0.98138 -0.0061826 0.75278 -0.4585 -0.59822 0.52166 -0.19895 0.1949 -1.1062 -0.74005 0.65453 -0.65048 0.1433 0.10807 
ty -0.29048 0.29112 -0.45222 0.84339 -0.23616 -0.090874 -0.23261 -0.013787 -0.54216 0.011776 -0.33237 0.58689 0.7371 1.2992 0.44481 0.89091 -0.042136 0.2572 -0.19948 0.17914 0.11681 0.33678 -0.16854 -0.32384 0.76232 
qokeeo -0.13844 0.57997 0.27432 -0.0049239 -0.23939 0.14915 -0.16175 0.33866 0.054189 -0.13012 0.28982 0.49128 0.27829 -0.25483 -0.65211 0.088207 -0.77069 -1.2513 0.2321 0.2847 -0.070009 0.12157 -0.4054 1.2466 0.22282 
qotchedy -0.072314 -0.11426 0.66806 -0.80791 -0.98388 0.052471 -0.34153 0.16863 0.86224 -0.20221 0.033263 0.56515 0.096971 0.27804 -0.80267 0.45192 -0.28225 -0.42917 -0.34235 0.13248 -0.26492 -0.074392 -1.1227 0.54893 0.71103 
qoeedy -0.71028 -0.29131 -0.76549 -0.50434 -1.3916 0.85329 -0.087761 0.14437 -0.43636 -0.88355 -0.91995 -0.49016 -0.59089 0.63018 -0.89407 0.022569 -0.084201 -0.32443 0.056011 0.4451 0.15147 -0.23883 0.11823 0.87997 -0.075895 
kai!n -0.96342 -0.27427 0.23256 0.62123 -0.80934 -0.49113 0.37381 -0.18498 -0.71442 -0.081184 -0.61009 -0.10961 -0.39824 0.27876 -0.31381 -0.36686 -0.43635 -0.14488 0.73024 0.28969 0.045598 -0.080256 -0.32446 0.78293 0.20082 
kchedy -0.2924 -0.20862 -0.93851 0.24163 -1.1368 -0.21177 -0.12372 -0.26084 0.25787 -0.42691 -0.13045 -0.24601 0.25767 0.0053815 -0.31014 0.046696 -0.17003 -0.032409 -0.312 0.0085618 -0.31187 0.28474 -0.94691 0.84301 0.2252 
ykedy -0.25826 -0.18805 -0.98245 -0.20665 -0.38873 0.55343 -0.56402 -0.13685 -0.069537 -0.86557 -0.63714 0.99151 -0.41401 1.1593 -0.64699 0.13415 0.30727 -1.0733 -0.44165 0.67969 -0.090444 -0.70621 -0.2053 -0.51482 0.60395 
dchol -0.45692 0.0082602 0.10227 0.80598 0.28547 0.45453 0.15713 -0.49978 0.55239 0.37504 -0.62184 1.2588 0.39579 0.66677 -0.58693 -0.096012 -0.39916 0.015847 0.15107 0.32969 -0.041795 0.7246 -0.087206 -0.12506 0.88095 
teey -0.80455 0.028996 0.63625 -0.48983 -0.039361 0.35055 0.033713 -0.17942 -0.21773 -0.41562 0.24792 -0.09883 -0.24829 0.82515 -0.42292 0.50178 -0.72741 -0.54812 0.67359 0.2043 -1.1659 0.43535 0.11458 0.12557 0.057426 
okeor 0.0067796 0.89614 -0.16979 -0.16042 0.59916 0.31038 0.24076 0.048747 -0.41364 0.27878 0.20414 0.088756 0.18213 0.22202 -0.51898 0.46972 -0.18909 -0.042141 -0.39339 0.11542 -0.73571 0.12496 0.0089719 0.99843 0.22626 
chocthy -0.71844 -1.1763 -0.30084 1.1323 0.065565 -0.59591 -0.021065 -0.028736 0.26426 0.093622 -0.22754 0.029289 -0.32949 1.2728 0.54638 0.31892 -1.0588 -0.63452 -0.85627 0.43448 -0.9709 0.55416 0.28755 0.50413 0.62747 
qotchey -0.52193 0.20101 0.35559 0.37707 -0.67762 0.63618 -0.055977 -0.099171 0.89113 -0.56376 0.42961 0.64829 0.30023 0.46747 -0.080736 -0.43058 -0.040435 -0.072568 -0.43056 1.2316 0.42535 1.2819 -0.053212 0.60813 0.94649 
chky -0.14573 -0.074321 -0.054681 0.74413 0.15195 -1.0194 0.26374 0.1149 -0.032228 -0.046551 -1.1039 -0.37993 -0.30263 0.90382 -0.26269 0.60816 0.81789 0.058369 -0.74069 0.040087 -0.14852 -0.19776 -0.071158 0.39897 1.3398 
oteos -0.358 0.60002 0.49104 0.32015 0.64475 0.44293 -0.036867 0.010977 -0.15535 0.53993 -0.25278 0.24834 -0.20134 0.53983 -0.92129 0.89802 -0.15621 -0.95115 -0.17564 0.20485 -0.55154 -0.17506 1.0222 0.44551 0.93289 
qockhey 0.047395 0.71352 -0.68955 -0.097144 -0.88812 0.063141 0.38101 -0.4089 -0.25961 -0.1269 0.12679 -0.71086 0.588 0.066917 -0.88917 -0.7626 -0.61213 0.24719 0.03535 0.53711 -1.357 -0.080875 -0.19683 0.99597 0.6542 
okaly -0.19162 0.68511 -0.40044 -0.5955 0.067285 0.17502 0.94889 -0.11751 -0.19873 0.091548 0.16223 0.96382 -0.63063 1.097 -0.40993 0.65085 -0.19796 -0.58758 -0.4626 -0.30275 -0.52273 -0.8694 -0.12263 0.15201 -0.18579 
okchor -0.64752 0.13855 0.13766 0.39933 0.38748 -0.031964 -0.060026 -0.8823 -0.26891 0.92269 -1.0566 0.065263 0.35708 0.99609 -0.22595 0.041332 -0.11572 0.94123 -0.35473 -0.063406 -0.14807 0.3668 -0.13629 0.16598 1.4745 
qody 0.32688 0.43459 0.79018 0.68217 -0.045334 0.64128 1.2906 -0.69443 0.15305 -0.74462 -0.21492 -0.094424 0.32108 0.42116 -0.75144 -0.16475 -0.40549 -0.20299 -0.93647 -0.37291 -0.096046 0.30435 -0.4788 -0.16447 0.97248 
ory 0.25135 0.63494 -0.18132 0.18445 -0.04024 -0.15021 0.22211 0.32705 -0.10836 -0.35278 0.53748 1.0704 -0.51668 0.54883 0.23687 0.041222 0.63149 -1.3019 0.28247 -0.4714 -0.16864 0.79859 -0.64678 0.69054 0.56366 
qockhy 0.56886 0.13712 -0.75723 -0.45404 0.57867 -0.23431 -0.44669 -0.23119 0.14658 0.14398 -0.37802 0.39474 -0.48604 0.16222 -1.0218 0.19315 -0.32416 0.17014 -0.66237 -0.34633 -1.0215 0.35683 -0.2789 1.0089 0.71375 
olkar -0.78511 -0.4464 0.12291 0.57446 -0.3999 -0.095765 1.1233 -0.14231 0.079764 -0.3954 -1.0795 -0.034061 -0.89654 0.87009 -0.17163 0.13602 -0.81099 0.14672 0.024193 -0.4305 0.17377 -0.71692 -0.68329 0.75633 0.30236 
chockhy 0.2087 0.21153 -0.14316 -0.45019 0.50506 0.078294 0.39294 -0.85322 0.43902 -0.4227 0.12074 0.23136 -0.0064514 0.74018 -0.48429 0.25223 -0.41974 -0.31518 -0.46155 0.3241 -1.0016 -0.035942 0.19497 0.59908 -0.0079491 
dl -0.68272 0.19493 0.43422 -0.069022 -0.23179 -0.19266 -0.2167 -0.10684 -0.308 0.18539 -0.24262 -0.086931 0.53449 0.25914 -0.70411 0.46026 -0.15015 -0.13244 0.193 -0.37209 0.76675 0.45946 0.078247 0.12508 0.82601 
cthar -0.034546 0.30488 1.1048 0.41984 0.60577 1.1299 0.1835 -0.25608 -0.20778 -0.69072 -0.91288 0.89494 -0.22584 0.94083 0.28122 0.0085667 0.36749 -0.2761 -0.039336 0.11196 -0.31911 0.91162 -0.39807 1.0076 0.51928 
chdal -0.87582 -0.12734 -0.80372 -0.44298 -0.52442 -0.016183 0.91146 -0.28438 0.8025 -0.12472 -0.40978 -0.305 -1.0673 1.1485 -0.96935 -0.12162 -0.070609 0.091011 -0.39957 0.064951 0.45241 0.2312 0.066069 0.29892 -0.056297 
ydaiin 0.043542 -0.23443 -1.4198 0.48855 -0.059094 -0.24198 -0.61044 -0.98785 0.009434 0.84274 -0.20698 0.07975 -0.19324 1.4783 -1.0093 -0.34081 -0.0021892 0.15923 0.081996 -0.034515 -0.84295 0.30191 0.1882 0.8635 -0.25006 
dchey 0.35944 -0.18763 -0.36142 0.078705 -0.48839 -0.95834 -0.39854 -0.69092 -0.3935 -0.18369 -0.24353 0.90564 0.83932 0.7699 -0.21305 -0.53 -0.033311 -0.65715 0.079713 0.44003 -0.064734 0.77282 0.40034 -0.16624 0.93401 
sheal -0.77248 0.53052 0.62505 0.073496 0.017095 -0.4128 0.6037 0.57704 -0.26967 0.51976 0.21399 0.47993 -0.37659 0.039006 -0.8028 0.2372 -0.90898 -0.0098689 -0.078328 -1.0767 -0.25026 0.35657 -0.61171 0.62071 0.24043 
om 0.26381 0.40664 -0.2395 -0.017724 -0.40608 -0.67125 0.44586 0.27316 0.26073 0.57609 -0.19895 0.67315 0.21093 0.073893 -0.78491 0.16429 0.24963 -0.24785 -0.16963 0.19855 -0.42555 0.2598 0.38379 0.69844 0.61035 
lky -0.60477 0.090425 1.0882 0.55206 -0.61919 -0.18298 0.44348 0.86397 -0.51094 -0.18235 0.69713 0.60129 0.21569 0.4391 -0.51281 -0.25176 0.041334 -1.4892 -0.62733 0.38072 0.5081 -0.38133 -0.59279 0.2989 0.9023 
ral -0.15782 -0.14926 -0.091532 -0.53492 -0.78233 -0.70445 -0.51366 0.34475 -0.4158 -0.23339 0.64773 -0.70155 0.29534 0.81369 -0.11084 0.52384 -0.2891 -0.29364 0.27966 -0.61983 0.094014 0.96366 -0.35843 0.48864 0.90501 
opchdy -1.1267 0.66369 0.64683 0.00025458 -1.5806 0.54592 0.49758 -0.36658 0.49921 -0.13563 0.31591 0.84827 0.38094 0.7522 0.55275 0.99138 -0.40846 -0.43072 -0.58067 -0.064034 0.019172 -0.33276 0.080853 0.27695 0.78145 
otaly -0.59856 0.46145 -0.094538 0.11826 0.012962 -0.075961 0.63055 0.14746 -0.79858 0.87072 0.15123 0.95876 -0.12491 0.80363 -0.7748 0.87918 0.20429 -0.4917 0.13203 -0.90448 -0.10888 0.024768 0.5409 0.25299 0.0586 
ols 0.13382 0.23657 -0.49109 0.26635 0.12685 -0.23849 -0.24704 -0.15155 -0.66094 -0.66038 -0.39168 -0.027408 -0.74149 0.16953 -0.14156 0.36698 -0.25289 -0.080525 0.23662 -0.60955 0.55859 0.34626 0.0092174 0.97271 0.86874 
ychor 0.96772 0.79201 -0.21322 0.41729 -0.26933 0.10481 0.37048 -0.017539 -0.262 0.073574 -0.60475 0.58558 0.81968 0.70078 -0.61266 0.2939 0.51472 0.4329 -0.20223 -0.46693 -0.6988 1.1578 0.37349 1.236 0.35336 
daldy -0.60104 0.22454 -0.15838 0.18899 -0.34276 0.84962 -0.065071 -0.36762 -0.4658 0.67193 -0.28356 0.88909 -0.53551 1.0074 -0.03433 0.00020663 0.08945 -0.024107 -0.41038 0.27522 0.27354 -0.12459 -0.36623 0.26247 -0.082578 
olkai!n -0.397 -0.54273 0.20348 0.63622 -0.42125 -0.27007 0.67363 0.28684 -0.87047 -0.84415 -1.1208 -0.1283 0.14278 0.61804 -0.50524 -0.1834 0.25106 -0.63408 0.49181 -1.1809 0.046056 0.38825 -0.89628 0.99334 0.15049 
daiiin -0.32463 0.13969 0.26422 0.62578 -0.27016 0.54977 -0.47555 -0.16732 0.4346 -0.87069 0.35393 0.58384 -0.10232 1.0555 -0.60026 -0.18428 0.21617 0.82753 -0.38193 0.20559 0.33614 0.70683 0.84339 0.93303 0.1229 
kain -0.67872 -0.47436 0.0069596 0.40583 -0.47005 -0.13893 0.10696 -0.226 -0.60569 -0.096312 -0.55003 0.064134 -0.46512 0.45429 0.11642 0.15041 -0.062283 -0.23505 0.2326 -0.047527 0.23862 -0.15641 -0.17109 0.64548 0.33551 
qopchdy -1.0944 0.1522 -0.096051 -0.27939 -1.739 -0.33246 -0.1676 -0.097081 -0.41555 -0.90505 1.0373 0.62894 -1.1439 -0.51026 0.20994 0.49856 -0.4758 0.63411 -1.8612 -1.3926 -0.403 -0.0085356 -0.80097 1.3973 1.205 
sh -1.089 0.30609 -0.54725 0.32107 0.61132 -0.10557 -0.53816 -0.50999 -0.085984 -0.12942 -0.37109 0.13594 -0.15853 0.5674 -0.62409 -0.50181 -0.44817 -0.097711 0.064067 -0.068351 0.38974 1.1889 0.5256 0.62974 0.016447 
shal -0.95301 0.23504 0.60373 0.16166 0.094532 -0.030986 0.54042 0.75633 -1.3352 0.076421 -0.85931 -0.32782 -0.48032 -0.001086 -0.44802 -0.087308 -0.70093 -0.073317 -0.70677 -0.19 0.18185 0.12374 -0.42741 0.8455 0.18468 
otchor -0.12236 0.76116 0.56598 0.39834 0.51683 -0.2636 -0.049964 0.6286 -0.67861 0.51072 0.97562 1.2184 0.33961 1.0632 0.089952 -0.26891 -0.7043 0.61951 -0.57196 0.90995 -0.15214 1.4211 0.52597 0.56989 1.6143 
lshey -0.074072 0.15747 1.2732 -0.22876 -0.75766 -0.66663 -0.42774 -0.17019 -0.56268 -0.21741 0.429 0.45591 -1.5704 1.0696 -0.18317 -0.43626 0.079402 0.0032503 0.46558 -0.27616 0.028342 -0.16907 -0.65506 0.73684 1.2888 
cthody 0.32247 0.78141 -0.84906 0.7818 -0.22916 -0.42034 -0.46148 -0.84323 0.047605 -0.35833 -0.13658 0.6078 0.37343 0.24906 -0.082317 0.17772 -0.5774 -0.71751 -0.66752 0.25586 -1.044 0.97136 0.80053 0.43306 0.54123 
chokchy -0.37001 1.0537 -0.24875 0.14176 0.2572 -0.040949 -0.24397 -0.075121 -0.41561 0.26175 -0.41007 0.029454 0.87454 0.86889 0.2783 -1.095 -0.21961 -0.6248 -1.5457 0.49912 -0.23668 1.5887 -0.72137 0.77542 0.17059 
teol 0.10692 0.16122 -0.88417 -0.039912 -0.42176 0.16695 -0.43051 0.18553 -1.0532 0.051594 0.21045 0.71098 0.025077 0.19676 0.48627 0.12906 -0.97459 -0.7849 -0.27996 -0.27971 -0.87815 0.44705 -0.96362 0.92622 -0.0033948 
qokair -0.03272 0.14386 -0.76816 0.87359 -0.65593 -0.36733 0.70021 -0.1339 -0.82385 0.078043 -0.13988 -0.39128 -0.39374 0.31337 -0.446 0.3848 -0.50824 -0.16241 -0.83322 -0.32504 -0.5322 -1.2451 0.046841 0.92717 0.46004 
? -1.2112 0.046051 -0.35127 -0.077213 0.84434 -0.079336 -0.50062 -0.53722 -1.0661 -0.099769 -0.38228 0.57056 0.006819 0.85738 -0.38091 -0.23064 -0.3674 -0.077082 -0.252 -0.10503 0.55132 0.58172 0.59191 -0.11529 0.36304 
chdaiin -1.3898 0.44959 -1.2276 -0.5046 -0.9479 0.10951 0.47618 0.024435 1.6515 -0.99018 -0.21258 -0.25356 -0.53006 0.46233 -0.77033 0.21395 -0.22615 -0.17138 -0.045059 0.33216 0.12103 0.81804 -0.55543 0.52943 0.38502 
key 0.39466 -0.40882 -0.20224 0.27716 -0.0882 0.060068 -0.12461 -0.5148 -0.8613 0.23608 0.42568 0.076174 -0.62154 1.0941 -0.43764 -0.052064 -0.21582 -0.7045 -0.70538 0.50009 0.26912 -0.037795 0.54911 -0.36868 1.1062 
okeeo -0.36537 0.52539 0.61853 -0.28558 -0.23427 0.30034 0.17489 -0.51784 -0.31709 0.488 0.49586 -0.33378 -0.30396 0.11798 -0.57823 0.0034747 0.13669 -0.37067 -0.049573 0.21364 -0.075498 0.28222 0.34312 0.80406 0.81625 
qokeed -0.044683 -0.017353 0.10071 -0.27512 -0.85488 0.77066 -0.27025 -0.3146 -0.74768 -0.50229 -0.52227 0.60701 -1.3056 -0.016178 -0.91133 -0.31505 -0.3953 -0.71478 -0.16256 -0.18271 0.27711 -0.46541 -1.0247 0.54661 0.53659 
chokaiin -0.68728 -0.56307 -0.053947 0.17915 -0.98012 -0.40094 -0.13568 -0.527 -0.0010202 0.64398 0.32886 -0.23008 -0.31389 1.1551 0.25868 -0.52415 -0.57375 -0.72897 -0.86356 0.31387 -0.553 0.30844 0.42797 0.4838 0.021043 
orol 0.38728 0.046043 -0.61591 0.28447 0.25036 -1.0224 0.51374 0.32354 -0.74565 -1.2181 -0.15486 0.38057 0.53342 1.0183 -0.76365 0.22403 -0.48219 -0.52201 0.063729 -0.88769 -0.55026 -0.22247 -0.26378 0.2396 -0.20668 
ctho -0.27131 -0.2892 -1.1054 0.58477 0.62098 -0.55475 -0.58512 -0.63127 -0.6746 0.095208 -0.54389 0.071196 0.6563 0.76422 -0.18091 -0.27854 -0.21655 0.066131 -0.51938 0.3056 -0.57561 1.3933 0.31114 0.60426 0.49469 
tchol -0.0024398 0.3169 -0.81479 1.5423 -0.45223 -0.029021 0.15375 -0.64993 -0.56608 -0.13505 -0.04679 0.014194 0.73382 0.53356 0.082077 -0.52124 -0.64877 0.10267 -0.96051 -0.11074 0.044175 1.188 -0.11807 0.2642 0.63513 
qokchol 0.64827 0.19536 -0.55558 1.1432 0.20993 0.50623 0.041451 -0.44291 -0.67008 -0.074013 -0.78021 0.88671 0.28706 0.23729 -0.4613 -0.38492 -0.28445 0.82712 -0.71305 0.24228 -0.87512 0.5025 -0.45552 1.1777 0.74349 
teedy -0.90575 -0.042288 -0.75805 -0.73419 -0.11554 -1.1526 -0.89466 0.45112 0.34461 -0.1054 0.55894 0.31393 -0.38106 0.74648 -0.48605 -0.1669 -0.21186 -0.76357 0.0083302 0.42077 -0.14517 -0.07331 -1.0292 0.35266 0.95591 
chain -0.61252 -0.76162 0.054492 -0.0078242 -0.14098 -0.17172 -0.021759 0.045658 -0.37588 -0.15554 -0.75556 0.48755 -0.22773 0.34637 0.42153 0.40345 0.47729 -0.49042 -0.99704 0.30687 -1.1775 0.98726 0.1941 0.64399 0.55808 
yky -0.69673 0.064419 -0.56865 0.43077 0.66578 0.76603 -0.040951 -0.047738 -0.60225 -0.29793 -0.29519 1.142 -0.054336 0.79581 0.40386 0.87665 0.31558 0.30425 -0.5113 0.039692 -0.55086 0.22561 0.34453 0.40677 0.85444 
chs -0.50334 0.46128 -0.34104 -0.293 0.027553 0.62531 -0.59831 -0.061496 -0.011423 -0.051477 -1.2126 -0.47682 0.69304 0.31374 -0.32819 0.20868 -0.31211 -1.0336 -0.45685 -0.027429 -0.4409 0.3438 -0.61412 0.79542 0.066402 
ytal -0.41068 0.54351 -1.017 0.57983 -0.50296 -0.33396 1.3668 -0.49248 0.29233 0.61815 -0.19341 0.10715 0.30946 0.95463 -0.63456 0.39163 -0.16777 0.9093 -0.8847 -0.9704 0.042659 -0.1472 -0.33604 0.57518 0.01559 
okody -0.50585 0.62234 -0.89603 -0.090971 0.48322 -0.012416 -0.32153 -0.25268 0.59195 -0.081431 -0.13271 0.59579 -0.13855 1.1054 -0.58487 0.60697 -1.0121 -0.74376 0.39446 0.16954 0.46553 -0.35769 1.1024 0.74016 0.68364 
chom -0.5748 0.50378 -0.58717 -0.9568 -0.073677 -0.1439 0.027061 -1.3203 0.96413 0.37699 -1.7294 0.7754 -0.3132 0.82131 0.17955 -0.63453 -0.16547 0.64747 -0.79782 -0.50353 -1.0515 1.9888 0.20765 1.1988 0.84758 
opchy -0.93297 0.078653 -0.13607 0.15024 -0.61264 0.63489 -0.44784 -0.13341 -0.70271 -0.85187 -0.38434 0.98439 -0.65914 0.66846 0.74717 0.76701 -0.53439 0.87994 -0.15491 0.080864 -0.94254 0.1495 0.4654 0.90452 0.32707 
cheeo -0.89381 0.03485 0.30191 -0.1185 -0.32333 -0.6972 0.16508 0.070193 -0.0036619 0.26764 0.26775 -0.16026 0.23083 -0.35275 -1.2459 -0.24539 0.083006 -1.3181 -0.42189 0.24369 -0.50182 0.075583 -0.013787 0.43088 0.82824 
ychey 0.60222 0.043265 -0.6925 -0.89624 -0.68523 0.62009 0.11246 -0.5728 -0.27017 0.5747 -0.76562 -0.066346 0.73732 1.0305 0.078039 0.064236 -0.66115 -0.85438 0.23837 0.33537 -0.68761 0.4129 -0.46312 0.19301 0.99972 
tchdy 0.0090691 -0.12075 -1.1243 0.042093 -1.143 -0.99902 -0.48454 0.13557 0.41456 -0.3444 -0.58619 -0.14926 0.4768 0.6187 -0.51125 0.45934 -0.27359 -1.0461 0.010249 -0.56628 0.54579 0.86091 -0.63969 0.037148 0.7152 
cphol 0.73325 -0.14122 -0.18729 0.2022 -0.41766 -0.16146 -0.34103 0.18784 -0.13575 -0.87309 -0.29631 1.3704 -0.19326 1.0518 0.44663 -0.0012669 -1.6181 0.10214 -0.33318 0.34804 -0.30055 0.47935 0.11266 0.88342 0.044487 
ror -0.72159 -1.0514 -0.27796 0.41461 -0.22563 0.022058 0.59712 0.41501 -0.46853 -0.48192 0.90284 0.70852 -0.20087 0.199 -0.27763 -0.02518 -0.92229 0.20466 0.82886 0.089409 -0.49452 0.15537 -0.51238 1.046 1.1124 
otody -0.75687 0.11199 -0.57638 -0.14412 0.23395 -0.50448 -0.051778 0.24977 0.184 -0.12229 -0.17666 0.59537 0.27422 0.54586 -0.31648 1.3232 -1.0116 -0.808 -0.38885 -0.33227 0.18439 -0.5745 0.50606 0.28068 0.9669 
ykeody 0.25194 0.98306 -0.43224 0.7584 0.20729 -0.062736 -0.78821 -0.17707 -0.051923 -0.0095172 0.22611 0.55751 -0.59729 0.16797 -0.68286 1.0851 -1.2768 -0.35645 -0.49842 -0.020808 -0.82951 0.37932 -0.028607 -0.062688 0.96599 
odal 0.29595 0.21559 -0.28673 -0.56408 0.74575 0.34967 0.79965 -0.21811 -0.37951 -0.47179 -0.11547 0.42935 0.4829 0.76332 0.044576 -0.029189 -0.46703 -0.010486 -1.4464 0.03018 0.76988 0.058479 -0.5289 0.43048 0.84807 
soiin 0.064685 0.32683 1.08 0.16595 -0.36664 -0.5483 0.037052 -0.13791 0.34229 -0.48879 0.21925 0.63981 0.623 1.4168 -0.33504 -0.25788 -0.10088 0.32516 -0.21026 0.31058 -1.1165 -0.59435 -0.031139 0.17126 0.54777 
sheeky -0.73497 0.37187 0.055583 0.17144 -0.34202 -0.1392 0.43909 0.40098 -0.8205 -0.032274 0.94762 0.63264 -0.98519 1.4321 -0.73446 -0.13149 -0.063427 0.3848 0.52615 -0.14222 0.6843 -1.0445 -0.67189 1.0425 0.1866 
qoeey 0.52839 -0.019417 -0.591 -0.70695 -0.33017 0.42162 0.20999 -1.1391 -0.015914 -0.027789 0.59119 -0.56325 -0.88262 0.94932 -0.24407 -0.94417 -0.84572 0.1081 -0.67887 -0.50819 0.96515 0.0483 -0.14733 1.6958 1.2843 
kair -0.89528 -0.38377 -0.22461 0.50061 -0.56106 0.56497 1.025 -0.1048 -0.41091 -0.11689 -0.76631 0.6522 -0.49503 -0.37822 -0.48749 0.31399 0.49988 -0.29003 -0.44602 -0.478 1.0407 0.50654 0.27457 1.2603 0.71839 
ytchy -0.43227 0.46211 0.12977 0.95488 -0.010566 1.006 0.22417 -0.9052 -0.1589 -0.1177 -0.6317 1.0449 0.12852 0.99573 0.47919 0.34848 -0.4855 -0.096923 -0.31432 0.60955 -0.7054 0.78298 -0.10151 -0.53482 1.0972 
choly -0.49262 0.69829 -0.53726 0.38099 0.58486 -0.22422 -0.25946 -0.22375 -0.12215 0.083725 -0.56231 -0.51243 -0.58459 1.5461 0.78917 0.19193 -0.98697 -0.67309 -0.52001 -0.11234 -0.60343 -0.037899 -0.16566 1.003 -0.10765 
lo -0.0756 -0.45639 0.16309 -0.72141 -0.83135 0.086894 0.28248 -0.020711 -0.73523 -0.22919 0.26656 0.042441 0.020376 0.25262 -0.74242 -0.10801 -0.078264 -0.2691 -0.31677 0.61381 0.25634 0.19791 -0.33537 -0.027853 0.7338 
shedaiin -0.97271 -0.24519 0.27602 -0.50584 -0.83003 0.25607 -0.47149 0.086349 0.028468 -0.25669 0.61909 0.55026 -0.17591 0.27753 -1.0575 0.30844 -0.75536 -0.062734 -0.8425 -0.11089 -0.73778 0.080828 0.32224 -0.25621 0.34006 
pol -1.125 -0.61717 0.31068 -0.23864 -0.12194 0.74751 0.35871 -0.20212 -1.1824 0.063575 -0.21302 0.04204 0.11461 -0.067139 -0.20792 0.0038114 -0.73646 0.32834 -0.090724 -0.49524 -0.21154 -0.12958 -0.53268 0.84243 1.0237 
okeeol -0.086585 1.2155 0.21685 -0.1387 -0.3152 0.22962 -0.3955 -0.18689 -0.33577 0.86395 0.35257 0.26702 0.58714 0.72665 -0.77123 0.47418 -0.71182 -0.58337 0.87613 -0.53567 -0.7101 -0.041956 0.21286 0.74436 0.42304 
ctheey -0.47152 0.92419 0.10055 -0.15766 0.1905 -0.038345 -0.54456 -0.68885 0.17282 -0.37191 0.56047 -0.17613 0.99365 0.78642 -0.23787 -0.019489 -0.32731 -0.38658 -0.18374 0.056693 -0.4361 0.70393 0.29137 0.60243 0.16351 
qokeeody 0.10708 0.40971 -0.099599 -0.35659 0.30012 -0.40377 -0.080736 0.17262 1.0965 0.052212 -0.30234 0.30034 -0.32283 0.47424 -1.0724 0.38334 -0.17404 -0.99798 -0.027383 0.52807 -0.57152 -0.5147 0.19021 1.6591 0.63931 
cphy -0.81013 -0.14238 -0.1786 0.28841 0.47193 0.33143 -0.067023 -1.1251 -0.86097 -0.88487 -1.3219 -0.43821 0.48918 1.2048 -0.19409 -0.0085331 -0.72207 0.45107 -1.2673 0.31702 0.16968 0.19407 1.1586 0.029777 0.74979 
chckhdy -0.25169 -0.26791 -1.4355 -0.074161 -1.6929 -0.38091 0.73504 -0.71587 -0.073381 -0.72736 0.11892 -0.49817 -0.0058227 0.52044 -1.6181 -0.14953 0.82129 0.27809 -0.31325 -0.32472 -0.43872 0.38599 -0.23299 -0.4446 1.1419 
lkchedy -0.63171 -0.14434 0.42941 0.35234 -0.69442 0.3657 -0.073597 0.37746 0.33489 -0.29455 1.0179 -0.89019 -0.019652 0.43074 -0.93473 0.34888 -0.71351 -0.2267 -1.0321 -0.061951 -0.10132 0.19616 -0.90124 0.58366 0.59893 
lkai!n -0.41838 -0.01287 1.0275 0.25802 -0.91671 -0.50087 0.89621 0.62289 -0.85438 -0.19192 -0.15817 -0.27738 -0.17339 0.46177 -0.65315 -0.17003 0.28332 -0.49084 0.54055 0.6665 0.075209 0.48938 0.46731 1.0048 0.52848 
oar -0.0078125 0.19517 0.044464 -0.38381 0.92997 -0.10987 0.54522 -0.16988 0.16029 -0.043006 0.46637 0.12628 -0.13813 0.85951 -1.1355 0.53409 0.30304 -1.2037 -0.98872 -1.0928 0.08545 -0.41059 0.48811 0.85264 0.60338 
cheeor -0.54826 0.24561 -0.37848 -0.50252 0.17111 -0.16111 0.29234 -0.082205 0.88836 -0.21083 -0.15581 -0.3356 0.89598 1.0883 -0.40556 -0.096007 -0.55614 -0.65958 0.67712 0.035058 -0.6784 0.3496 0.29025 1.19 0.11874 
qotchol 0.12328 -0.23544 0.22482 0.41848 0.24807 -0.39113 -0.53615 -0.76975 -0.53278 0.4817 -0.91628 0.52394 1.3054 0.85689 0.054482 0.41596 -0.20634 0.1313 -0.76182 -0.1351 -0.76889 0.51783 0.43314 0.82411 1.3138 
ytor -0.25711 0.41587 -1.2731 0.17499 -0.073555 -0.11889 0.12525 0.5931 0.6985 0.48506 0.67449 0.016842 0.71617 1.4228 -0.39378 0.38306 -0.58529 0.63879 -1.2187 0.0050399 1.0015 1.5302 0.015459 0.61167 0.89719 
lchdy -0.32198 0.19364 1.2654 -0.83023 -0.66638 0.22178 -0.098641 -0.61165 -0.26733 -0.21465 -0.24862 0.61562 -0.77793 0.85525 -0.5447 -0.068108 -0.29869 0.14044 0.30766 -0.43477 -0.46209 0.21286 -0.33514 0.18579 0.20988 
chkeey -0.21623 0.6979 -0.2931 0.26542 -0.26138 -0.84495 -0.19246 1.1689 -0.58809 -1.0002 0.63836 -0.1932 1.1517 0.52851 -0.17544 -0.15588 0.13101 0.29502 -0.35255 1.199 -0.44395 0.16442 0.51809 1.189 1.4445 
okeo -0.53049 1.5335 -0.37058 0.083418 0.80499 0.42827 0.39761 -0.6006 -0.36719 0.47189 0.25031 -0.012534 -0.32852 0.32179 -0.63619 0.2705 -0.25059 -0.59019 -0.53178 -0.37479 -0.70074 -0.25732 0.18672 0.6561 0.50536 
r!aiin -1.0615 1.0108 0.36474 0.03656 -0.59985 0.066282 -0.84758 -0.29537 -0.13338 -0.046318 -0.43539 -0.39846 0.24521 0.48329 0.10014 0.0066161 -0.04226 -0.17439 0.41628 -0.46162 0.35143 0.6167 -0.7037 0.54974 0.67734 
choiin -0.69792 -0.3338 0.39991 0.6888 0.60857 0.60026 -1.1245 -1.0102 -0.047334 0.27874 -0.79619 0.43302 0.6024 1.0905 -0.2175 -0.31834 0.2027 0.28036 -1.1061 -0.11297 0.13405 0.76996 -0.18562 0.60382 1.2223 
shky 0.44952 0.42012 0.37613 0.819 -0.70271 0.090213 -0.34738 0.27976 -0.4396 -0.017379 -0.71029 0.87214 -0.22722 0.90243 -0.74404 0.42234 -1.0411 -0.34575 -0.98818 -0.66729 0.80118 -1.1613 -0.62471 0.40726 0.34219 
olkain -0.2248 -0.083967 0.082848 0.97398 -0.35595 0.026556 0.36841 0.39321 -0.77982 -0.96843 -0.85364 0.05387 -0.083644 0.74836 -1.0859 0.041524 0.65937 -0.61819 0.44498 -0.98979 0.23154 -0.077779 -0.75081 0.35958 0.24494 
sheos 0.07502 -0.028456 0.08928 0.62884 -1.0689 0.23074 0.11066 0.0045301 0.64644 -0.69833 -0.54355 0.77868 -0.4978 0.2605 -0.26173 0.46788 -0.76476 -1.1775 -0.45408 0.62664 -1.2726 -0.035518 0.68036 0.6284 0.39329 
qotam -1.7411 0.085429 -0.046204 -0.085816 -0.081658 -0.38301 0.18516 0.052069 0.40525 0.6484 0.059809 -0.21669 0.12132 0.12927 -1.1677 -0.054645 -0.47275 0.22449 -0.21782 0.06633 -0.67855 -0.013525 0.22167 0.64931 0.39511 
ry -0.38915 -0.026226 0.16938 -0.81566 -0.71074 0.70832 0.082379 -0.71882 -0.30292 -0.78324 -1.398 0.0090269 0.23511 0.26248 -0.56944 0.14617 0.022015 0.13072 0.31833 -0.1026 -0.0046377 0.39437 -0.10259 0.5241 0.52796 
ockhy -0.41611 1.0685 -0.93403 -0.01948 0.28367 0.86216 0.67858 -0.10277 -0.42106 -0.21719 -1.0155 -0.7766 -0.25138 0.030602 0.099287 0.062494 -0.28746 -0.94368 -1.3689 -0.36173 -1.1256 -0.35431 -1.2874 1.4257 0.72653 
aral 0.014983 0.57468 0.2018 -0.83874 -0.17136 0.31547 0.8596 0.30795 0.57914 0.13215 0.60932 0.36534 0.59397 0.42476 -0.62644 0.64236 -0.2989 -0.48782 -0.53315 -0.51055 -0.075353 0.50013 0.25863 0.9229 0.37564 
okeeody -0.29932 -0.14584 -0.060983 -0.45692 0.85923 0.25548 0.52844 -0.10028 0.49529 -0.06076 -0.33641 0.21692 -0.1343 0.47036 -0.70184 0.22936 -1.066 -1.0524 0.66774 0.22758 -0.22817 0.5627 0.32006 1.079 0.55321 
yteody -0.098838 1.0852 -0.57482 -1.1828 -0.24435 0.29294 0.81434 -0.59194 0.36893 -0.77517 0.55621 1.0695 1.3302 0.21503 -0.73246 1.1493 -1.5876 -0.78021 -0.47153 -0.41188 0.17267 0.96345 0.34406 -0.13708 0.92438 
oteo -0.91631 0.4846 -0.049727 0.13546 0.71294 0.31388 0.37157 -0.084875 -0.40514 0.57222 0.49348 1.0399 -0.12918 0.28913 -1.103 -0.0026471 -0.69406 -1.1016 -0.43766 0.019748 0.21974 -0.11963 0.94788 0.48356 0.31916 
dan -0.46462 0.56419 0.79951 1.0883 0.23701 -0.17569 -0.18094 -0.58156 0.18504 0.060864 -1.0151 0.62749 -0.37688 0.82475 -0.32367 -0.2338 0.23444 -0.075492 -0.91994 0.24502 -0.61377 0.69575 0.35258 -0.026588 0.54435 
olkal -0.62516 -0.346 -1.002 0.11507 -0.2227 -0.43701 0.27746 0.49759 -0.6442 0.09125 0.12791 -0.12915 0.13934 0.38905 -0.8485 -0.014843 0.02006 -0.23337 -0.22724 -0.47 0.49014 -0.28828 -0.66958 1.0896 0.13576 
olkey 0.12566 0.32962 -0.089234 1.2931 -0.58866 0.08659 0.55184 -0.065186 0.26239 -0.51711 -0.012467 1.1787 0.90454 1.7547 -0.22958 0.3857 -0.39982 -0.31989 1.504 -0.13596 0.14358 -0.8623 0.16636 0.39103 1.1564 
ot -0.48937 -0.35233 -0.91187 -0.085964 0.05232 -0.17176 -0.042963 -0.089847 -0.78528 0.011227 0.27499 0.32096 0.38459 0.066039 -0.30596 0.63003 -1.1546 -0.46607 0.25317 -0.0089941 -0.3119 -0.25484 -0.040567 0.26293 0.92051 
qotchor -0.019079 -0.19164 -0.79765 0.94691 1.4339 0.27559 -1.1951 0.45476 -0.40796 -0.56533 -0.41835 0.47288 1.0896 2.1534 -0.43416 0.45259 -1.2492 0.060628 -1.0583 0.17933 -0.64233 1.1026 -0.10997 0.20141 0.67405 
shckhey -0.40953 0.99547 0.65605 0.35486 -0.52835 -0.51343 -0.57168 1.5391 -0.78604 -0.6384 -0.71762 -0.35231 -1.2786 1.081 -0.033113 0.1422 -0.94263 -0.69862 -1.0461 -0.36031 -0.39408 0.10021 -0.015381 0.94051 -0.32192 
laiin -0.59214 -0.40544 -0.20238 -0.30459 -0.095367 -0.31936 0.85104 0.10131 -0.31149 -0.63078 0.42122 -0.20862 -1.0032 0.23829 -0.8302 0.021895 -0.57008 -0.038839 -0.20141 -0.099935 0.7657 0.51036 0.049778 0.91583 0.16082 
ytol -0.98676 0.68159 -0.3134 0.50512 0.19349 -0.33538 -0.32542 0.43016 1.3452 0.1337 -0.38579 0.72344 1.1564 0.81446 -0.69227 0.82281 -0.04457 1.0655 0.21331 -0.1913 -0.9836 0.65938 -0.16302 0.90003 1.3251 
qokaly -0.18494 0.93661 -0.31594 -0.16428 -0.58365 -0.72238 0.39064 0.13559 0.071269 0.18399 0.21604 0.63259 -0.52474 0.79919 -0.90368 0.2389 -0.30126 0.80071 0.15948 0.25997 -0.54959 -0.70262 -0.4715 0.24613 0.29306 
aldy -0.8151 0.69975 0.20982 0.065502 0.42955 0.25057 0.22929 -0.94145 -0.01219 -0.13504 -0.79491 0.089419 -0.15591 1.2455 -0.73576 0.035052 0.72833 -0.88718 0.2264 -0.20265 -0.32179 -0.38785 0.50959 0.083949 0.046545 
oteor 0.11694 0.17488 -0.38294 -0.37257 0.3329 0.071986 -0.23264 0.34365 0.011933 0.034089 0.16924 0.74936 -1.0043 1.6288 -0.46552 0.518 -0.27108 -0.79963 0.23671 0.7792 0.018357 -0.53724 0.5142 0.60082 0.23582 
chkal -0.44026 0.6062 0.6315 0.11003 -0.38129 -0.26303 -0.25345 0.79082 -0.36547 -0.10183 -0.22907 -0.25383 0.60672 1.1385 -0.030904 0.6801 0.18852 -0.91104 -0.36488 0.71835 -0.85523 -1.0183 0.18027 0.18923 1.4687 
shes -0.55133 0.97397 1.0208 -0.33842 -1.0415 0.40768 -0.22419 -0.10616 -0.46031 -0.19518 -0.10804 0.83878 -0.45609 0.54283 -0.23702 0.032627 -0.24178 -1.1266 0.013726 -0.62922 0.40212 1.4659 0.76075 -0.1978 0.60366 
ram 0.35769 -0.58169 0.53654 -0.54095 -0.66383 -0.19964 -0.30499 0.36342 0.10633 -0.44539 -0.99207 -0.30041 -0.14015 0.59535 -0.53713 0.46153 -1.02 -0.20604 0.30551 0.37221 -0.10511 -0.17247 -0.78459 0.69557 1.24 
dcheey -0.4724 -0.10205 0.39097 -0.14463 -0.52626 -0.46894 -0.90032 -0.39196 0.31881 -0.97774 -0.84268 -0.18726 0.21715 0.68933 -0.50801 -0.98839 -1.0507 -1.1239 -1.4362 0.88892 -0.29908 -0.32703 0.40079 0.016368 1.0425 
opaiin -0.8235 0.46113 -0.84153 -0.7967 0.23807 -0.72714 0.05062 0.26366 -0.21312 -0.0046527 0.59525 -0.24301 0.11967 0.51765 -0.87807 0.24574 -2.0627 -0.43928 -0.6031 -0.52774 0.17702 0.024118 0.55016 0.43241 0.38849 
olar 0.17324 -0.24115 -0.91164 -0.35879 -0.50843 0.32069 0.97975 -0.33086 0.0089597 0.095995 0.22511 -0.19976 -0.56029 0.74029 -0.42684 -0.013189 0.15369 -1.0006 -0.35773 -0.95285 -0.29748 0.86895 -0.52319 0.77631 -0.17479 
qopchy -0.53551 -1.0464 0.29767 0.14193 -0.57674 -0.12344 0.42715 0.3023 -0.028353 -0.50225 -0.51171 1.3315 0.7508 0.017187 -0.43647 0.20928 -0.64777 1.4092 -1.0826 -0.28677 -0.16009 0.50509 0.27409 1.7193 0.75025 
lkain -0.67736 0.4486 0.74968 0.53464 -0.64813 -0.32912 0.68124 0.14541 -0.5239 -0.48939 0.025932 0.25216 -0.33566 0.27285 -0.62539 -0.18686 0.50259 -0.39581 0.47359 0.44243 -0.28251 -0.062419 0.043019 0.40622 0.25553 
okchol -0.87056 1.3 -0.32066 1.3687 0.44998 -0.38015 -0.21735 -0.344 0.39958 0.2237 -0.68692 0.54274 -0.52332 0.62775 -0.75468 -0.024632 -0.1492 0.53716 -0.59788 -0.30001 -1.3262 1.0213 0.43788 0.44379 0.3015 
m -0.99162 0.37246 -1.2529 0.29435 -0.10954 -0.60888 -0.25707 -0.55288 -0.92101 0.12813 -0.060995 0.011959 0.27938 0.12083 -0.3522 0.20049 0.60284 -0.32466 -0.48487 -0.29247 -0.29298 0.33845 0.35049 0.051097 0.72081 
do -0.28823 -0.69098 0.11983 0.52774 -0.11589 -0.43401 -0.9788 -0.44142 0.38201 0.88928 -0.21266 0.678 -0.37164 0.94961 -0.843 -0.51272 -0.26916 0.19343 -1.4024 0.15091 -0.35548 0.42042 0.26306 0.54061 0.39968 
keeol 0.37287 0.028835 0.28019 -0.25146 0.048069 -0.20429 -0.12232 -0.31395 -0.54113 -0.59476 0.21588 -0.47421 -0.016809 0.026743 -0.86239 -0.038645 -0.96596 -0.12413 -0.042548 -0.88652 -0.35533 0.65128 -0.16102 0.99888 0.42416 
pchor -0.61033 -0.1013 0.33097 0.3692 -1.0312 1.0094 0.41836 1.2338 -0.25798 -0.28176 -0.27456 0.38222 0.74477 0.73398 -0.63653 1.2869 -0.27513 0.58583 -0.50984 -0.75579 0.49657 2.045 0.61753 0.29888 0.92288 
otedar -1.3243 0.2396 -0.15703 -0.70015 0.12892 0.5478 -0.017216 -0.064873 -0.66041 -1.2919 0.30036 0.84076 0.23458 0.10902 -0.30993 -0.055782 -1.396 -1.0898 -0.19517 -0.36317 -0.65272 -0.90275 0.30398 0.7694 0.36905 
ly 0.41047 -0.15958 -0.51125 1.0759 -1.2868 -0.31194 -0.43772 0.3924 -0.45653 -0.57944 -0.34332 0.31004 -0.15819 1.4656 -0.67252 -0.0025262 -0.67061 -0.051867 1.0485 -0.54848 -0.0093574 0.38561 -0.76164 0.21476 -0.0065998 
ycheo 0.32377 0.99703 -0.62162 -0.40546 -0.8501 -0.33274 -0.11417 0.14066 -0.21355 0.38966 0.85489 -0.51306 -0.27895 0.29129 -0.27678 0.077105 -0.27364 -0.53957 -1.2532 0.021316 -0.0070153 0.14893 -0.37926 1.0701 0.43267 
cthedy -0.96646 0.9984 0.62345 -0.87307 -0.80272 0.0070406 -0.52346 0.02138 -0.69041 0.34452 -0.022001 0.7835 0.031455 -0.047632 -0.90788 -0.33973 0.38047 -1.124 -0.34604 -0.18958 -0.53904 -0.90548 -0.7471 0.45827 0.88227 
doiin 0.17417 0.37079 0.3368 0.47453 0.51613 0.96052 -0.48698 -0.29171 -0.45932 0.22378 0.56681 1.0509 -0.11981 1.028 -0.51842 0.08228 -0.33256 0.58333 -0.021401 -0.16068 -0.54437 0.53811 0.018989 0.3417 0.75796 
sheeol -0.33023 0.60701 0.1209 0.63453 -0.82555 0.25752 -0.41125 0.65212 -0.033723 0.34242 0.43104 0.75315 0.46203 1.0697 -0.47343 -0.81388 -0.71332 -0.33902 1.0914 0.56874 0.49244 0.61651 -0.060274 1.4012 0.11139 
lcheey -0.57057 -0.52214 0.75218 0.19558 -0.37585 0.30508 0.89103 0.11142 -0.24642 0.04434 0.096619 -0.47418 0.08325 0.53484 -0.2708 -0.089383 -0.41863 -0.8015 0.32999 0.25292 -0.31892 0.66537 -0.99546 0.20284 0.90332 
ykeol 0.79173 0.56702 -0.70417 1.5387 -0.10308 0.28631 -0.19187 -0.25911 -0.018026 -0.46286 0.2211 -0.056914 -0.33199 1.0682 -0.64229 0.13633 0.13104 -0.86225 -0.14892 -0.12196 -0.88792 0.11653 -0.33856 0.6989 -0.0069015 
shedal -0.27683 0.31146 0.57551 -1.3198 -1.2215 -0.3761 0.033417 0.38983 -0.66888 0.19984 -0.58849 0.04386 -1.3361 0.78653 -1.5958 -0.0034327 -0.17363 0.90842 -1.4212 -0.265 0.32431 -0.67448 -0.66302 0.016525 1.2468 
okees -1.1683 0.40394 -0.78006 -1.0709 -0.035771 0.22669 0.41346 -0.10057 -0.52192 -0.37649 0.35722 0.67013 -0.37599 0.19583 -0.47441 0.3515 0.17644 -0.44878 -0.67732 -0.1301 -0.0056911 0.33263 0.42384 -0.015027 0.25877 
chodar -0.95937 0.30571 -0.77151 -0.65485 -0.78912 -0.56639 -0.11513 -0.40472 0.68245 0.92287 -1.3139 0.26637 0.32844 0.094504 0.35161 -0.060432 -1.5633 1.0703 -0.3818 -0.10879 -0.50185 0.29296 -0.3701 2.0688 1.398 
chckhedy 0.02282 -0.31552 -0.46186 1.0874 -0.3105 0.94973 -0.20366 0.42134 -1.2471 -0.85081 0.27776 -0.50375 -1.4773 1.2306 -1.5723 -0.32002 -0.54687 -0.61151 0.11127 0.36809 -0.35075 -0.54239 -0.4949 -0.10247 0.76174 
qokshedy -0.078108 -0.78986 0.62376 0.425 -0.77389 0.39578 -0.080374 1.0416 -0.34039 -0.95491 -0.21502 0.93208 -0.21358 1.1923 -1.8732 -1.0394 0.32254 0.53323 -0.055315 0.44927 0.36394 0.37489 -0.08766 0.46842 0.35992 
olshey -1.0316 -0.46752 0.43463 0.75291 -0.48126 0.34597 1.235 0.37559 -1.1782 -0.053801 0.16913 1.578 0.29813 0.40912 -0.66213 -1.1261 -0.11556 -0.24877 0.58827 -0.73977 -0.79174 0.58042 -0.86878 0.096685 0.79372 
ykal -0.24101 0.27513 -0.55172 0.49534 0.26076 -0.63855 0.072934 0.624 0.15019 -0.039681 -0.19318 0.19749 -0.13833 1.1046 -0.069277 0.74874 0.29358 -0.73083 -0.83082 -0.57766 0.84167 -0.14287 -0.73024 0.74213 0.2361 
okeal 0.69853 0.67009 -0.18671 -0.73286 -1.0885 -0.29175 0.55619 0.20612 -1.2493 -0.28345 1.0831 0.84884 -0.48881 0.14529 -0.7684 0.83486 -0.92907 -0.71653 -0.5162 -0.98137 -0.32185 -0.34968 1.1109 0.88661 0.62378 
qokechy 0.060315 -0.19967 1.1433 0.10082 -0.94879 0.067559 0.24463 -0.83007 -0.5773 -0.10199 -0.067308 0.47557 0.11627 -0.12019 -0.45293 -0.94969 -0.85117 -0.97908 -0.75733 0.68824 -1.0222 -0.44292 0.24956 0.28003 1.4327 
rchedy -0.65963 -0.18997 0.99227 -0.54326 -1.3162 -0.17115 -0.1311 -0.51782 -0.80259 -0.40303 -0.52274 -0.68055 0.15849 0.55431 -0.70818 -1.2152 0.043374 -0.96624 -1.4484 -0.96794 0.015557 -0.062552 -1.5447 0.33278 0.59863 
cheeody -0.53403 0.89489 -0.0014407 -0.42369 -0.91735 0.43699 -0.41136 -0.11254 0.65129 0.42181 -0.26911 -0.25052 1.105 0.43742 -0.9838 -0.088591 0.39945 -0.43319 -0.68639 0.52287 -0.28623 -0.46817 0.23132 1.5392 0.54447 
dshor 0.31476 -0.13975 -1.0659 -1.1366 -0.074519 0.36055 0.65121 0.30446 -0.074077 0.63689 -0.57881 0.73806 -0.42221 1.449 -0.24835 -0.077475 0.52417 0.73893 -0.61469 0.58555 -1.0576 1.1138 -0.64092 -0.019246 1.4603 
ytey 0.1352 0.30938 -0.65437 0.39397 -0.73113 0.014551 0.24819 -0.15684 0.15265 0.46377 -0.39439 0.94779 0.56989 0.97827 -0.21761 0.88585 -0.18745 -0.081518 -0.63565 0.091233 -0.081613 0.20123 -0.12762 -0.19009 0.079198 
oteeody -0.92776 -0.19804 -0.19909 0.027323 -0.50426 -0.051963 -0.55417 -0.40339 -0.80688 1.3178 -0.17972 1.1756 -1.3711 0.89661 -0.54945 0.45398 -0.31793 -0.0059355 -0.48648 -0.48707 0.35826 -0.33749 0.3426 0.60701 0.14998 
ycheol -0.31649 -0.66299 0.60972 0.6065 -0.93198 -0.086022 0.020174 -0.34192 -0.3589 0.046622 0.47266 0.36813 0.73816 0.49994 0.04092 -0.27009 -0.11915 -0.82699 -0.24987 -0.49284 -0.4391 -0.44897 -0.47201 1.3739 0.36273 
ykeeody 0.41027 1.7309 -0.52991 -0.70141 -0.0060536 0.2587 -0.60982 0.2249 -0.21707 0.1987 -0.60054 0.24329 0.2477 0.36476 -1.1343 0.6933 -0.17154 -0.60116 0.066542 0.6415 0.24719 0.42425 0.054903 -0.14447 2.0068 
shee -0.57191 1.2036 0.19619 0.27084 -0.85524 0.53209 0.059171 -0.39456 0.63827 -1.3325 0.40973 0.88636 0.62769 0.99985 -0.85032 -0.036412 -0.29598 -0.21875 -0.55078 -0.20926 0.32529 -0.59592 0.98788 0.52136 -0.21128 
chan -0.060024 -0.83601 1.111 -0.21177 -0.073368 0.89477 0.28929 0.74216 -1.3156 0.27711 -0.7927 -0.00035519 -0.061415 1.5167 0.58127 0.24003 -0.48624 -0.26913 -0.70715 0.99728 -1.3568 1.1773 0.70282 0.73571 1.6882 
pchdy -0.36888 0.46655 0.068053 -0.51702 -1.4787 0.3478 0.45527 0.59043 0.21187 -0.9415 -1.8132 0.62934 0.38827 0.22693 0.083558 0.42578 0.47584 -0.62474 -1.1123 -0.43898 0.75174 0.51185 -0.66297 0.71893 0.80165 
ytam 0.067706 -0.77961 -2.0109 0.56166 -0.62544 -0.0053855 1.0593 -0.34279 0.31662 0.50635 -0.053866 0.35609 0.038289 0.57292 -0.78616 0.43518 0.63824 -0.13031 -0.091204 -0.35846 -0.80317 0.13771 -0.06761 0.98673 1.0986 
cthaiin -0.67072 0.4372 -0.019753 -0.030109 0.51046 0.04453 1.0893 -0.39632 0.46524 -0.64934 -2.0854 0.5172 -0.3509 1.5553 -0.06704 -0.35177 -0.12187 0.31763 -0.97573 0.79932 -1.8869 0.8617 1.3457 1.1353 0.19062 
choy 0.34683 1.0316 0.082271 0.32527 -0.44544 -0.79379 -1.0796 -0.60084 0.42326 -0.25392 -0.12703 1.0919 0.75951 1.0985 -0.90703 0.094216 -0.047157 0.68988 0.42792 0.35034 -0.52306 0.83778 0.99369 0.19186 1.1986 
daim 0.13419 0.98413 -0.61753 -0.16539 -0.48653 -0.45241 1.804 -0.62781 0.82446 0.4449 -0.26557 -0.018399 0.2605 0.22381 -1.1701 -1.2628 -0.52501 -0.85455 -1.9575 0.24355 -0.82578 0.11287 -0.065809 0.10655 1.3742 
chotar -0.97083 0.13176 -0.27905 -0.3415 -0.80449 -0.24524 0.56732 0.36349 0.78075 0.75954 -0.41181 0.5597 -0.3351 0.46318 -0.73863 0.43358 -0.96727 -1.2109 -0.81158 -2.1641 -1.8729 0.83811 0.27077 1.4465 -0.42717 
oteeo -0.706 0.016182 0.0097075 0.30694 -0.42158 0.41639 0.45387 -0.34956 -0.1939 0.2913 -0.12006 -0.62832 -0.29 -0.14778 -0.97958 0.36161 -1.3053 -0.12027 -0.77947 0.15588 -0.071034 0.29038 0.68554 0.35597 0.791 
tair -0.56445 -0.45639 -0.18705 0.31967 -1.3775 0.33513 1.2241 -0.21918 -0.63291 -0.51296 0.19568 -0.73418 0.31197 0.64492 -0.60493 0.80932 -0.3772 -0.4644 -0.69479 0.010862 -0.15632 -0.5641 1.4273 0.37406 1.0566 
shocthy 0.33374 0.33838 -0.53501 0.58354 -0.43757 1.3303 0.28887 -0.20251 0.4436 -0.15083 -0.33163 0.71203 -0.97246 0.424 0.24572 0.72743 -0.73917 -0.51496 -0.31683 0.84651 -1.0246 1.6906 0.43033 0.68252 1.0854 
tey -0.1758 -0.13901 -0.25106 -0.66754 0.27282 1.156 0.24001 -0.61371 -0.53172 -0.35349 -0.046059 0.38567 -0.04286 0.9152 0.080044 -0.02259 -1.3697 -0.78802 0.16672 0.24871 0.0024629 0.27495 0.46079 0.36188 0.53909 
chkar -1.2623 -0.079296 0.72465 0.9665 0.18364 -0.33796 -0.41066 -0.4175 0.57966 -0.37372 0.94029 -0.082586 -0.64489 2.2288 0.70304 0.11695 -0.15035 0.23076 -0.28051 -0.66308 -0.36045 0.72711 -0.638 -0.00601 1.1407 
qoteol 0.031491 1.2462 0.76955 0.70494 -0.36315 -0.22158 0.76754 -0.55336 0.42083 -0.62071 1.3542 1.0805 -0.067054 0.90065 -0.62559 -0.37136 -1.4777 -0.27188 0.95351 -0.9522 -0.20954 0.97974 0.33865 0.19592 1.0619 
checkhey -0.055625 1.5232 -0.061266 -0.3582 -0.42345 -1.3301 0.35145 0.11719 -0.47242 -0.98756 -0.016155 0.26693 0.069228 1.1887 0.15649 -1.2577 -0.66105 -1.296 0.60904 0.69466 -0.085743 -0.34396 -0.37235 0.82236 0.15304 
qodar 0.2202 0.063894 0.73087 0.40248 -0.4238 0.30432 -0.48884 -1.0747 1.1483 -0.67072 -1.5501 0.29231 -0.70107 1.4717 -0.68173 -0.17094 0.78435 -0.73901 -0.57748 -1.5561 -1.9715 -0.029743 -0.81342 0.18279 1.2948 
