3410 50
daiin 0.082905 0.35291 -0.0029191 -0.13015 0.1904 -0.15049 -0.0073078 -0.1794 0.16381 0.059155 0.18065 0.075466 -0.0071077 -0.12012 0.11301 -0.00066607 0.29273 -0.010056 -0.15888 -0.093106 0.021457 0.11855 0.0045255 0.061122 0.23271 0.24996 0.047378 0.080873 0.078317 0.19373 -0.12783 0.23445 -0.040172 0.096441 -0.074158 -0.25506 -0.36459 0.19609 0.038867 -0.0989 -0.23142 -0.13442 -0.14989 -0.15709 -0.029226 -0.066109 -0.093077 0.24963 0.18735 -0.041984 
ol -0.10668 0.26226 0.32619 0.12766 -0.073004 -0.42011 0.25513 -0.039005 0.29467 -0.18971 -0.043365 0.059878 -0.13111 0.03401 0.17316 -0.096606 -0.16743 0.069877 0.013477 -0.28868 -0.045603 0.08734 0.011362 0.094473 0.33043 0.38193 0.03753 0.10793 0.011919 0.009676 -0.1156 -0.0014017 0.097191 0.049864 0.097919 -0.0093129 -0.04631 0.12475 -0.12878 -0.10655 -0.037317 0.096887 -0.088411 0.053429 0.090434 -0.15655 0.09337 0.08024 0.0029721 -0.0067552 
chedy 0.085821 0.18573 0.39576 0.21267 -0.029936 -0.52333 0.19094 -0.094904 0.029937 -0.11294 -0.2838 0.080712 -0.021168 -0.088179 0.09081 -0.15281 -0.086725 0.13391 -0.017244 -0.050809 0.0079195 0.24947 -0.051641 0.32206 0.42608 0.13964 0.15823 0.20986 0.2059 -0.0079458 0.1722 0.27516 -0.0075069 0.14859 0.30113 0.055275 0.056386 0.10372 -0.14289 -0.16211 0.083185 0.20302 0.11832 0.086537 -0.11268 -0.141 0.064152 0.089227 -0.36677 0.28311 
shedy 0.097519 0.21524 0.48083 0.31236 0.081699 -0.4352 0.1473 -0.088136 -0.02462 -0.19579 -0.43925 0.15313 0.028762 0.046608 0.18941 -0.27471 -0.018492 0.20532 0.07553 -0.12931 -0.039027 0.17657 0.082289 0.19175 0.60764 0.31452 0.35254 0.17216 -0.046734 -0.12097 0.26794 0.32669 -0.080634 0.061942 0.25558 0.10163 0.035262 -0.054912 -0.11465 -0.23848 0.11165 0.1561 -0.073131 0.0084344 -0.12376 -0.11113 0.13959 0.22048 -0.32916 0.039649 
aiin -0.11454 0.079743 0.04093 -0.24864 0.05574 -0.32295 0.34977 -0.095884 0.15267 -0.052302 0.10753 -0.083607 -0.075062 -0.36223 -0.031932 0.047249 -0.028338 0.037035 -0.016506 -0.073585 0.15184 0.11221 0.092257 -0.10258 0.11447 0.16348 0.095837 -0.025327 0.20928 0.10593 -0.0201 0.16613 0.13755 0.14719 -0.1345 0.36467 0.042774 0.10023 -0.097183 -0.17155 -0.1036 -0.023702 0.12355 -0.039013 -0.013864 -0.13505 0.0037974 0.19106 0.0092823 0.098652 
chol -0.039638 0.40037 -0.19775 -0.31114 0.072142 -0.058344 -0.0097445 -0.2254 0.41058 -0.03879 0.27453 0.14844 -0.049054 -0.1018 0.27822 0.14847 0.36271 -0.017258 -0.12846 -0.14796 -0.10011 0.32598 -0.08174 0.017882 0.18503 0.39317 -0.068686 0.015855 0.28669 0.31645 -0.21025 0.13346 -0.068569 0.19538 -0.080972 -0.15381 -0.39839 0.15547 0.039033 -0.14943 -0.23972 -0.23712 -0.14529 -0.1005 0.10743 0.080388 -0.013807 0.0094685 0.24717 -0.083218 
chey 0.010632 0.068867 0.18039 -0.17061 0.096618 -0.41154 0.060108 -0.12395 0.10369 -0.020591 0.11514 0.16121 -0.048531 0.069074 0.037775 -0.20813 0.12489 -0.072555 -0.1373 -0.29301 -0.080144 0.15414 0.14357 0.27139 0.35837 0.34942 -0.077591 0.22397 0.16076 0.079103 -0.148 -0.090934 -0.097068 0.15358 -0.094337 -0.090754 -0.064866 0.041895 -0.19499 -0.17236 0.20462 0.041997 0.077281 0.083322 -0.02089 0.06075 0.061155 0.12714 -0.095375 0.084689 
or -0.11195 0.24678 0.26133 0.025762 -0.062878 -0.31093 0.16775 -0.077355 0.24766 -0.15348 0.14625 -0.056724 -0.028125 -0.271 0.14113 -0.11857 0.0027869 -0.014359 0.086928 -0.17508 0.06938 0.30043 0.078268 -0.11172 0.064344 0.32299 -0.044483 -0.11099 -0.023997 -0.011333 -0.051764 0.15673 0.30813 0.062793 0.075247 0.27538 -0.022534 0.10089 -0.12731 -0.12713 -0.27947 -0.14932 0.053005 -0.088761 0.064139 -0.064945 -0.16646 0.31478 0.11839 0.13052 
ar -0.12126 -0.0398 0.18848 -0.088526 0.042223 -0.24787 0.19151 0.036975 0.21276 0.0027736 0.088414 -0.18742 -0.15463 -0.52915 -0.14002 -0.018883 -0.043677 0.10808 0.030465 -0.13885 0.28313 0.24673 0.18671 -0.08492 0.2922 0.20011 0.1047 -0.040699 0.051839 -0.048271 -0.013429 0.26476 0.14448 0.25739 0.051667 0.27289 0.12801 0.10486 -0.021854 -0.17858 -0.17906 0.11203 0.18398 0.086728 -0.11651 0.073883 -0.0032836 0.20011 -0.037869 0.10221 
qokeedy -0.090206 0.39478 0.47737 0.25142 -0.058149 -0.72452 0.28391 0.1363 -0.17081 -0.0070516 -0.079299 0.047947 0.11899 0.28526 -0.063513 -0.15622 0.068221 0.25148 -0.12516 0.10521 -0.11126 0.054162 0.0052368 0.50722 0.48192 0.35183 0.35318 0.34779 0.055688 0.10514 0.19318 0.30791 -0.11424 0.077557 -0.00046647 0.02538 0.077816 0.10881 -0.25308 -0.15716 0.27996 0.4468 0.21925 0.20545 -0.10269 -0.43428 -0.025378 0.1689 -0.35628 0.21222 
qokaiin -0.072632 0.14527 0.45337 0.24466 -0.04372 -0.058878 0.3015 -0.091951 0.070648 0.10264 -0.0893 0.13316 -0.10641 -0.075588 0.18481 -0.48163 0.14466 -0.064192 -0.13365 -0.22284 -0.18635 0.20586 0.024283 0.14247 0.4654 0.20829 0.06357 0.054755 0.088963 0.11636 -0.062588 0.3924 0.026006 -0.035263 0.11686 0.032531 0.13153 0.063426 0.075341 -0.22168 0.017093 0.28809 0.18953 0.14652 -0.12527 -0.051533 0.19267 0.060765 -0.13828 0.24893 
dar 0.062033 0.22108 0.24004 0.052162 0.063467 -0.21598 0.0398 0.050179 0.41692 0.085712 -0.031146 -0.013818 -0.028986 -0.028507 0.11832 -0.15272 -0.10987 0.18988 -0.016994 -0.22453 0.28312 0.2967 -0.0096919 0.018599 0.31268 0.10284 0.14147 -0.11492 -0.015964 0.12603 -0.088363 0.32705 0.048165 0.13839 0.15315 -0.090246 -0.098241 -0.02057 -0.13138 -0.2053 -0.14848 -0.22074 -0.034826 -0.24104 0.0076483 0.07472 -0.025562 0.036907 -0.036613 0.048409 
qokeey 0.037626 0.29911 0.158 -0.050217 0.0099963 -0.37426 0.19491 -0.0017177 -0.046024 -0.13828 0.029354 0.3118 -0.06697 0.054755 0.074505 -0.2689 0.26291 0.22107 0.0014926 0.010138 -0.071416 -0.040051 0.013875 0.40414 0.39741 0.53598 -0.10059 0.36351 0.27784 -0.093433 0.11684 0.214 -0.2355 -0.021618 -0.16155 0.11934 -0.042045 0.048619 -0.3018 -0.17323 0.29554 0.40028 0.22037 0.28076 -0.023191 -0.30095 -0.054203 0.11236 -0.25503 0.28834 
qokedy -0.18609 0.26683 0.36822 0.42953 -0.084485 -0.85009 0.029281 -0.086467 0.059169 -0.12512 -0.45474 0.2761 0.15456 -0.066999 0.13763 -0.21724 -0.092053 0.18138 0.0048397 0.077753 -0.10448 0.24121 -0.18106 0.50181 0.49015 0.24786 0.49295 0.27698 0.11108 -0.040061 0.1033 0.38287 -0.25806 0.096456 0.44001 -0.022965 0.091374 -0.015818 -0.32923 -0.17167 0.10898 -0.03146 0.00076525 -0.10166 -0.008086 -0.29601 -0.082705 0.25536 -0.354 -0.06795 
shey -0.046358 0.18859 0.1703 0.17087 0.0047896 -0.092038 0.30393 -0.079172 0.34921 -0.23764 0.15759 0.26093 0.11155 0.11234 0.1546 -0.31596 0.21843 0.1471 -0.026276 -0.26408 -0.064585 0.12873 0.13434 -0.012033 0.41919 0.39335 0.12799 0.251 -0.093358 0.09925 -0.22947 0.015864 -0.25637 0.11338 0.12419 0.015541 -0.18663 -0.13266 -0.048526 -0.21683 0.15656 0.1953 0.051627 0.1588 -0.033867 -0.11814 0.025523 0.30736 -0.17037 0.092674 
dy 0.23736 0.30589 0.057274 -0.12579 0.26309 -0.11743 -0.032388 -0.12791 0.19917 0.24065 -0.11594 0.26912 0.072069 -0.043522 0.22707 -0.031447 0.16544 0.1844 -0.031854 -0.26894 0.0010231 0.17705 0.16293 0.080853 0.15898 0.22936 0.36193 0.071557 -0.055942 0.21606 -0.022169 0.31045 0.14003 0.019503 0.035864 -0.25547 -0.49641 0.082392 -0.26251 -0.092108 0.10041 -0.26269 -0.084943 -0.30259 -0.061053 -0.015601 0.018349 0.24253 -0.059055 0.0072396 
dal 0.032561 0.34943 0.33855 -0.20992 0.12543 -0.28322 0.17382 0.029983 0.12516 -0.029175 -0.21311 0.29659 -0.2821 0.037115 0.17681 -0.054203 0.1409 0.20558 0.16124 -0.39796 0.081203 -0.020663 -0.027838 -0.099658 0.31545 -0.033779 0.40249 -0.038818 0.14453 0.055524 -0.079969 0.32652 -0.29306 -0.046187 0.12701 -0.066175 -0.19499 0.011612 0.054022 -0.1115 -0.15407 0.038352 -0.064383 -0.21526 0.048909 0.032679 0.023435 0.24429 -0.14041 -0.16476 
s -0.052985 0.30004 0.0364 -0.34807 -0.14382 -0.26758 0.11024 -0.36697 0.30604 0.15574 0.29429 -0.12776 -0.18902 -0.035873 0.096828 0.055285 0.24227 -0.010186 -0.0016836 -0.25103 0.29319 0.14959 0.22079 0.032396 0.27896 0.1369 0.25018 -0.049261 -0.1206 0.22838 -0.17561 0.099407 0.024214 0.036595 -0.12014 0.080609 -0.33554 -0.11174 -0.027379 -0.11306 -0.38665 0.062441 -0.15016 -0.24495 0.1561 -0.059838 0.0059713 0.25558 0.1037 -0.23963 
al -0.22552 0.083495 -0.052696 -0.23547 0.053484 -0.3166 0.29896 -0.10068 0.17584 -0.020013 0.037597 -0.11707 -0.21466 -0.25711 -0.086392 -0.09866 -0.055841 -0.11904 -0.021165 -0.13207 0.22984 0.21452 -0.028253 0.047551 0.39167 0.07951 0.10892 -0.040262 0.19434 0.09975 -0.046424 0.15748 -0.018198 0.11083 -0.0035703 0.34465 0.17114 0.046262 -0.24392 -0.12319 -0.10733 0.16995 0.24038 0.22464 -0.21596 0.1371 -0.042024 0.14318 -0.05338 0.15491 
okaiin -0.21828 0.22662 0.42854 0.081605 0.087737 0.056511 0.35516 0.0077683 0.063988 0.044679 0.12889 0.0091847 -0.18993 -0.32443 -0.11464 -0.17423 0.0057713 -0.019487 -0.06037 -0.35938 -0.058075 0.049864 -0.079602 0.13513 0.25075 0.0952 -0.048095 0.17942 0.24402 0.059557 -0.054858 0.33592 0.2262 0.18397 0.020731 0.068623 0.077071 0.34382 0.034147 0.020867 -0.26663 0.071885 -0.019605 0.1678 -0.2195 -0.10914 0.1759 0.13006 0.25614 0.026657 
chor -0.0070154 0.5015 -0.041855 -0.53569 0.27003 0.029735 -0.043076 -0.21226 0.41821 -0.079897 0.17859 0.15211 0.026396 -0.29229 0.33697 0.079683 0.66134 -0.23247 -0.026518 -0.23155 -0.068995 0.32124 0.30383 -0.019623 0.26644 0.54409 -0.072307 -0.32943 0.074754 0.50902 -0.22908 0.038999 0.023696 0.18903 -0.35287 -0.10713 -0.65351 0.21336 0.10213 -0.047799 -0.32862 -0.19525 -0.20852 -0.20546 0.22011 -0.10274 0.10421 0.034844 0.3518 -0.16681 
qokal 0.24769 0.24251 0.41113 0.30226 -0.20084 -0.2752 0.29099 -0.12453 0.091217 -0.48785 -0.34218 0.27691 -0.040616 0.1067 0.29786 -0.19281 -0.080406 0.19233 -0.074146 -0.43055 0.031533 0.10957 -0.23307 0.34687 0.33383 0.07876 0.13787 0.32057 0.34357 0.45577 -0.18587 0.45674 -0.14155 -0.065017 0.2938 0.026302 0.13996 -0.13183 -0.079662 -0.2102 0.063924 0.26855 0.14777 -0.093341 -0.10814 0.0041329 0.25574 0.087975 -0.31037 0.11938 
shol -0.15699 0.5607 -0.22012 0.078508 0.31532 -0.095582 -0.29617 -0.19768 0.19461 0.25817 0.073619 0.11219 -0.022481 0.16789 0.45658 0.16523 0.18761 0.036172 0.14512 -0.0076117 0.063111 0.28908 0.0042327 -0.28071 0.54162 0.59485 0.080794 -0.026879 -0.059079 0.14364 -0.28345 0.24491 -0.10513 0.23287 -0.28894 0.07182 -0.31383 0.12299 0.053541 -0.32169 -0.072173 -0.091668 -0.24106 -0.39772 0.0013141 -0.026469 0.21296 -0.032009 0.29133 -0.062182 
y -0.081346 0.24627 0.22572 -0.06746 -0.091645 -0.067472 0.23707 -0.14466 0.12283 0.31643 0.21141 0.25221 -0.062777 -0.19803 0.053664 -0.0075708 0.042501 0.043911 0.17895 -0.36888 0.25944 0.24967 0.11687 -0.034913 0.45871 0.26667 0.1146 0.055574 -0.15974 0.054821 -0.024402 0.11159 0.053609 0.052503 -0.032037 -0.015748 -0.13068 -0.056311 -0.091779 0.021549 -0.20981 -0.19262 -0.11805 -0.059817 -0.019808 0.25329 0.078115 0.17319 0.18819 0.16767 
</s> -0.050597 0.21751 0.096968 -0.082873 0.097891 -0.17144 0.226 -0.081726 0.12613 0.069891 0.14031 0.092028 0.024071 -0.077104 0.063554 0.033167 0.053272 0.00055357 -0.073953 -0.070984 0.054533 0.11097 0.08375 -0.00070333 0.18254 0.23243 -0.0084815 -0.045151 0.051287 0.073142 -0.122 0.29591 0.0928 0.070085 -0.03308 -0.051966 -0.081235 0.13789 -0.042756 -0.18825 -0.17611 -0.030296 -0.029203 0.082048 -0.12402 0.0084653 0.028614 0.070654 0.17189 0.055416 
cheey 0.019273 0.066349 0.22059 -0.28354 -0.088183 -0.47058 0.3149 -0.20118 0.070416 -0.3958 0.25576 -0.063756 -0.093422 0.052848 0.029176 -0.33678 0.22978 -0.18425 -0.10245 -0.15084 0.084604 0.10886 0.057275 0.050602 0.24557 0.34808 -0.06189 0.061273 0.020843 0.16354 -0.082221 0.2783 0.0041197 0.14121 0.1285 -0.0023642 0.099649 0.012736 -0.0066703 -0.17973 0.28854 0.19397 -0.074485 -0.025684 -0.17585 -0.1429 0.091093 -0.09693 0.1776 -0.0062902 
okeey -0.18565 0.22393 -0.093919 -0.092293 -0.024761 -0.39904 0.41067 0.29055 0.25014 -0.36874 0.27179 0.057483 -0.040619 -0.066486 -0.058598 -0.16554 0.16805 0.15943 0.042868 0.051083 0.30199 -0.024493 0.051273 0.090007 0.21193 0.19815 -0.096761 0.46541 0.23151 0.24529 -0.0094109 0.17922 -0.020462 0.17718 -0.17624 0.24378 0.011285 -0.044936 -0.4166 -0.1249 0.064727 0.29031 0.2714 0.37415 0.12924 -0.082192 -0.11937 0.23567 -0.11514 0.16167 
qol -0.0082705 0.11954 0.49326 0.51629 -0.24807 -0.6696 0.45611 0.018765 0.17653 -0.40855 -0.20407 -0.013604 -0.173 0.22448 0.20401 -0.55307 -0.042888 -0.016576 0.21207 -0.44888 -0.1452 0.15458 0.099974 0.33411 0.54869 0.54803 0.035634 0.54966 -0.09704 -0.14191 0.0037408 0.21263 -0.19245 -0.24551 0.21978 -0.067544 -0.074913 0.15765 -0.30859 -0.10523 0.37734 0.17551 -0.20644 0.04338 0.24965 -0.039967 0.2225 0.040222 0.16489 0.18546 
otaiin 0.0316 0.023643 0.15904 0.11565 0.097455 -0.066112 0.10582 -0.26904 0.075723 0.39954 0.24259 -0.25047 -0.095528 -0.23772 0.1737 0.09689 0.1177 -0.12488 -0.11219 -0.07246 0.1832 0.068788 -0.12065 -0.071518 0.40484 0.35462 -0.017386 0.19776 -0.12764 -0.060626 0.081275 0.46673 0.28458 0.22677 -0.0046877 0.26709 -0.024893 0.30953 0.20232 -0.098221 -0.096239 0.065333 0.38815 0.0869 -0.52006 -0.035514 0.23174 -0.032843 -0.022525 -0.0018287 
cheol 0.0048504 0.25718 -0.019218 -0.32043 0.066383 -0.47649 0.20666 -0.056821 0.018426 -0.39893 0.046421 0.065506 -0.31437 0.15774 0.17538 -0.093724 0.11498 -0.22163 -0.13942 -0.18152 0.12206 0.20222 -0.22603 0.17516 0.13174 0.43097 -0.06232 0.14339 0.38528 0.32138 -0.12807 -0.0078986 -0.021937 -0.045904 -0.16825 -0.16514 -0.14666 0.41981 -0.067573 -0.13844 -0.029329 0.078936 -0.025049 0.02324 0.11827 -0.20986 0.18924 0.014712 0.053691 0.089956 
otedy -0.041745 0.28018 0.32807 0.45498 -0.054307 -0.732 0.000173 0.17185 -0.098398 -0.063508 -0.26138 0.061756 0.30317 0.073933 0.18961 0.076159 -0.29687 0.19423 0.067751 0.36898 0.19814 0.23021 -0.10515 0.30332 0.14595 0.29786 0.41185 0.29139 -0.11632 0.1151 0.11119 0.52341 0.16628 0.50797 -0.041348 0.11909 -0.12156 0.15048 -0.31104 -0.13755 0.1052 0.069814 0.050861 -0.17733 -0.3182 -0.041787 -0.25783 0.41856 -0.27424 0.28991 
qokar 0.10419 -0.015082 0.68604 0.23378 -0.030693 0.1135 0.30099 -0.10019 0.16069 -0.19328 -0.31893 0.32923 -0.19913 -0.39478 0.14994 -0.14131 0.056331 0.11091 0.10783 -0.49582 -0.045646 0.1704 0.00067844 0.34381 0.19024 0.18122 0.14959 0.10338 0.12524 -0.065474 -0.1928 0.31032 0.11031 0.36693 0.15327 0.0074626 0.045412 -0.097429 -0.21103 -0.14381 0.092946 0.020852 0.010439 -0.18697 -0.15501 -0.31627 0.11831 0.029678 -0.35061 0.30042 
chy 0.20003 0.1399 0.13876 -0.53958 -0.0018098 -0.20854 -0.072688 -0.39747 0.059613 0.38307 0.063794 0.56584 0.088995 -0.057292 0.043758 0.18414 0.38273 0.0061923 -0.14254 -0.36538 -0.14013 0.2265 0.20598 0.16684 0.29801 0.0115 0.17043 0.050489 0.23181 0.40138 -0.35166 -0.047993 0.091799 0.26913 0.14634 -0.048696 -0.55315 0.083242 -0.067896 0.095402 -0.19321 -0.18562 -0.14477 -0.12917 0.075875 0.049345 -0.051421 0.28303 0.48929 0.11128 
qoky -0.10691 0.31753 0.47069 0.16949 0.15337 -0.14253 0.15713 0.22079 0.10161 0.25981 -0.05345 0.088564 0.30669 -0.020378 0.19591 -0.31445 0.022501 0.17161 0.15785 -0.10056 -0.35153 0.27861 0.20766 0.26047 0.17321 0.49764 0.27819 0.44591 0.11844 0.20346 -0.040804 0.19793 0.13361 0.16745 0.12358 -0.13051 -0.11681 -0.076764 0.037434 -0.24796 0.16414 0.31624 -0.029067 -0.41868 0.42913 -0.21658 -0.028281 0.16378 -0.11343 0.1137 
okal -0.28913 0.23186 0.23834 0.11486 -0.026649 0.052696 0.29664 -0.052984 0.16766 0.16339 -0.08088 0.28519 -0.27882 -0.17399 0.2169 -0.071178 -0.031513 0.15341 0.2242 -0.41987 0.24804 0.34225 -0.092008 0.015241 0.08218 -0.016653 0.099706 0.052375 0.091513 0.31133 -0.11789 0.24191 0.27722 0.24422 0.37966 0.26015 0.26923 0.036632 -0.068139 -0.20801 0.00020497 0.060942 -0.036024 -0.039156 -0.06746 0.12015 0.18601 0.38511 -0.031204 0.12031 
sheey -0.050154 -0.1065 0.24127 -0.015358 -0.063136 -0.38417 0.19083 0.012458 0.23224 -0.29646 0.39437 0.15686 -0.034477 0.10706 0.0064671 -0.21966 0.54176 0.11759 -0.075346 -0.20435 -0.071367 -0.1132 -0.064652 -0.058496 0.30736 0.19451 0.071369 0.15543 0.019983 -0.044519 -0.36082 0.35575 0.0060269 -0.15262 -0.25849 0.2083 -0.11248 0.37836 -0.078255 -0.26997 0.31504 0.086201 -0.056371 0.15547 -0.14144 -0.080144 0.13824 0.26363 -0.069843 0.043272 
chdy 0.23175 0.22379 -0.20248 0.45115 0.08724 -0.29318 0.20554 -0.13164 -0.11902 0.19548 -0.64946 0.43306 -0.025468 -0.3126 0.12096 -0.018257 0.23295 -0.031846 0.02194 -0.1742 0.31458 0.48718 0.01191 0.16071 0.13982 0.34426 0.14886 0.077078 0.36711 -0.18052 0.070986 0.098312 -0.00072011 0.41157 0.087033 0.093455 0.18505 0.052566 -0.08036 -0.078701 -0.26012 -0.34142 -0.031714 -0.23947 0.086437 0.027747 0.049586 0.48614 -0.096326 0.30775 
chckhy -0.18276 0.10389 0.51591 0.26041 0.36514 -0.12594 0.30142 -0.30963 0.18558 -0.15773 -0.22503 0.37063 0.25086 -0.16137 0.028716 -0.013638 0.31109 0.32606 -0.11994 -0.1396 0.017725 0.34133 0.075291 0.34256 0.58188 -0.069652 0.064159 0.21166 -0.015314 0.34746 0.039421 -0.10927 0.15623 0.058975 -0.05609 0.16349 -0.10431 0.24725 -0.17875 0.035644 -0.22549 -0.072811 0.20497 -0.054983 0.17866 -0.13236 0.19831 0.065256 -0.28462 -0.0038749 
otar -0.049138 0.17676 0.44989 0.27007 0.044603 -0.29525 0.13394 0.28104 0.13938 0.079576 -0.2115 -0.25605 -0.047601 -0.24805 -0.072247 0.036967 -0.42364 0.23643 0.11643 -0.34371 0.18887 0.17811 -0.14505 0.11326 0.31533 -0.053047 0.089844 -0.071974 0.23293 0.04968 -0.088029 0.39908 0.18633 0.39591 -0.017447 0.27348 0.019444 0.067935 -0.12861 -0.1349 -0.32628 0.23136 0.018134 -0.042614 -0.44892 0.018396 0.0054546 0.015222 0.057499 0.30532 
saiin -0.3568 0.17573 0.05313 -0.23579 -0.097501 -0.29612 0.33296 -0.30959 -0.26998 -0.043675 0.077216 0.02038 -0.12609 -0.099976 0.16102 -0.12482 0.26303 0.29078 -0.016408 -0.057087 0.10352 0.034755 0.017604 0.26042 0.42744 0.24343 0.060997 -0.019886 0.0016752 0.096844 0.0051342 0.12978 0.042068 -0.16618 0.10672 -0.055958 0.124 0.27081 -0.25244 -0.26877 -0.068295 0.35143 0.12067 -0.10378 0.28981 0.10529 0.088537 0.45105 0.16268 -0.004767 
otal -0.088937 0.30903 0.19776 0.21711 -0.033832 0.24218 0.087044 0.010199 -0.064215 0.12937 -0.21269 0.018101 -0.22172 -0.4908 0.21048 -0.11718 -0.12589 0.20555 -0.15343 -0.11496 0.21059 -0.06527 -0.21565 -0.05063 0.33133 0.19482 0.015694 0.39293 0.21676 0.15381 -0.24232 0.7957 0.066644 0.36991 0.042154 0.30141 0.037132 -0.23281 -0.071544 -0.29042 -0.0020617 0.22085 0.22501 -0.011397 -0.13658 0.11035 0.30053 0.15301 -0.18061 0.030737 
qokain -0.18851 -0.16555 0.8472 0.19581 -0.045016 -0.17129 0.35777 -0.16916 0.13307 -0.091827 -0.40351 0.12411 0.0008249 -0.0075655 0.11024 -0.2872 -0.18346 0.12363 0.36952 -0.47498 -0.28916 0.25424 0.00088687 0.27694 0.62579 0.14679 0.099673 0.19459 -0.089693 -0.13787 0.14824 0.36871 0.10053 -0.082651 0.27032 -0.1221 0.0874 0.10552 -0.15336 -0.42537 0.094547 0.36074 0.10859 -0.068017 0.13646 -0.30572 0.17524 0.17895 -0.29022 0.033561 
oteey 0.26828 0.12651 -0.04909 -0.19783 -0.21828 -0.35734 0.11775 0.46875 0.10374 0.10241 0.15859 -0.054577 -0.23382 -0.0018578 -0.20194 -0.11358 0.0049527 0.048541 -0.29792 -0.26373 0.38143 0.13285 0.097877 0.13509 0.42776 0.19153 0.20741 0.45183 -0.18049 -0.01014 -0.031554 0.11809 -0.010705 0.173 -0.31805 0.16445 -0.21637 0.18917 -0.35661 -0.56271 0.12535 0.46631 0.14513 0.7476 -0.20033 -0.037648 0.13068 0.22449 -0.00071061 0.26922 
okar -0.39035 -0.08478 0.54142 0.098955 0.015275 -0.17944 0.41031 -0.25344 0.14659 0.042474 0.039045 0.055513 0.12116 -0.54716 0.11135 0.073495 -0.33578 0.23129 0.14386 -0.11552 0.40145 0.34692 -0.093974 0.65454 -0.0017547 0.011492 0.29637 0.071739 0.038379 0.17225 -0.18911 0.31752 0.49005 0.2724 0.26822 0.13532 -0.055102 -0.15405 0.069658 -0.0082438 -0.054439 -0.070998 -0.056758 -0.14167 -0.18059 0.04735 -0.086785 0.18216 0.1623 0.071506 
okedy 0.081724 0.51541 0.18078 0.22022 -0.14748 -0.82136 0.23768 -0.092639 0.2854 0.028798 -0.2852 0.48506 0.051956 0.032212 0.19524 -0.11017 -0.38266 0.39686 -0.018348 0.23744 -0.12984 0.33335 -0.28962 0.37996 -0.091182 0.22627 0.26145 0.36428 -0.14092 0.098992 0.43262 0.28843 0.14348 0.2557 -0.025816 0.17954 0.015678 -0.13295 -0.41979 -0.23994 0.15429 -0.015582 0.18486 -0.24064 -0.19083 -0.14151 0.011217 0.7286 -0.33341 0.19057 
sho -0.22842 0.20362 -0.70435 -0.4036 0.24391 -0.14827 0.18111 -0.29676 0.28565 0.034398 0.40591 0.11623 0.24547 0.024078 0.24836 0.52449 0.69775 -0.13169 -0.27204 -0.31309 -0.25593 0.11259 0.11372 -0.26785 0.44556 0.32068 -0.049193 0.098539 -0.083577 0.2455 -0.15501 0.43639 0.35838 0.38138 -0.42977 -0.11207 -0.34638 0.16774 -0.090688 -0.20279 -0.20898 -0.15855 -0.31169 -0.046734 0.071924 -0.024375 -0.39934 0.17408 0.38013 -0.12666 
dain 0.16095 0.04937 0.030526 0.030945 0.29978 -0.23507 0.077652 -0.43607 0.29566 0.19112 0.20498 0.18439 0.35542 0.17883 -0.056212 -0.17317 -0.11377 0.13673 -0.26016 -0.45115 -0.0057067 0.038865 0.10379 0.25049 0.40674 0.49539 0.070013 0.10677 0.10799 0.095182 -0.12773 0.15687 0.12972 0.10956 -0.20285 -0.15619 -0.4939 0.21136 0.080425 -0.067448 -0.12886 -0.40427 -0.21146 -0.14992 0.022469 0.27809 -0.071846 0.31988 0.062977 -0.1481 
qokai!n -0.11419 -0.19354 0.70428 0.31471 0.036609 -0.33487 0.3041 -0.13332 -0.13186 -0.040709 -0.14133 0.10743 -0.045848 0.11874 0.32016 -0.50762 0.0039215 0.13249 0.14088 -0.50278 -0.38556 0.017409 0.17727 0.15363 0.66551 0.34445 -0.0036346 0.3767 -0.087602 0.10124 0.095163 0.34964 0.063774 0.039812 0.16312 0.053081 0.21669 0.16542 -0.15199 -0.29286 0.052727 0.38288 0.14044 0.070017 -0.17798 -0.34348 0.44614 0.019758 -0.2232 0.087357 
oty 0.27782 0.11828 0.22068 -0.051386 -0.08415 -0.23949 -0.18578 0.32594 0.038461 0.23988 -0.065474 -0.15964 -0.048041 -0.27417 0.30068 0.39797 0.2098 0.44823 -0.17465 0.16476 0.1949 0.009799 0.02114 0.13822 0.49058 0.32211 -0.030676 0.37586 -0.11656 0.051612 -0.25095 0.28911 0.10575 0.24888 -0.35225 -0.31231 -0.33156 0.059806 0.23595 -0.045258 -0.0038121 -0.129 0.50616 -0.31626 -0.039606 0.10118 0.31637 0.46146 0.16461 0.10662 
r 0.006404 0.18148 -0.010749 -0.20824 0.044274 -0.43637 0.58349 -0.26915 0.15871 0.22564 0.2485 0.095375 -0.057747 -0.0068554 -0.14088 0.011586 0.069548 -0.0025783 0.044053 -0.2948 0.27313 -0.012075 0.1891 -0.043396 0.58704 0.17987 0.23221 0.0043246 0.019312 0.13992 -0.15374 -0.1048 -0.1407 0.060201 0.1182 -0.15794 -0.065036 -0.22087 -0.20968 -0.13526 -0.20934 0.13065 -0.041918 -0.054876 0.35794 -0.096224 0.038321 -0.01984 0.2197 -0.18083 
lchedy -0.058243 0.34455 0.40466 0.083632 -0.16377 -0.34773 0.25371 0.010453 -0.16495 0.0081718 -0.26285 0.021579 0.19242 -0.035267 -0.089911 -0.33372 0.24074 -0.0075242 0.21886 0.2029 -0.37799 0.46542 -0.036876 0.37607 0.67599 0.42092 0.19293 0.12443 0.21723 0.034947 0.081751 0.26643 -0.39308 0.26449 -0.14414 -0.15281 0.18515 0.12604 -0.20144 -0.02249 0.3734 0.44004 0.37284 -0.054756 -0.035302 -0.16926 0.16088 0.19993 -0.47172 0.14231 
okeedy -0.2281 0.47652 0.1152 0.098649 -0.21033 -0.45131 0.13867 -0.0090382 -0.19321 -0.12902 -0.17305 0.11968 -0.053301 -0.13868 0.19534 -0.12053 -0.11813 -0.045101 0.083953 -0.10689 0.39261 0.053136 -0.25059 0.39679 0.38481 0.45782 0.20544 0.29802 -0.030319 -0.062288 0.34478 0.12189 0.41784 0.2167 -0.19203 0.11777 0.048402 0.026166 -0.18019 -0.26588 0.36488 0.25277 0.36981 0.20615 -0.20632 -0.32657 -0.12167 0.44374 -0.44364 0.071893 
dol 0.098535 0.54394 0.26559 -0.090126 0.20176 -0.50395 -0.019452 -0.1773 0.44366 -0.0029444 0.0036672 0.063017 -0.1006 0.47446 0.1184 -0.067295 -0.15971 0.20333 -0.024008 -0.26845 -0.076814 -0.24081 -0.31727 0.17905 0.19528 0.18518 -0.064301 -0.093279 0.078203 0.23188 0.11529 0.62996 -0.1264 0.43884 0.076391 -0.34358 -0.23692 0.29639 0.14667 -0.047626 -0.0088926 -0.34887 -0.26299 -0.13396 0.095313 -0.1101 -0.63914 0.11095 0.28902 -0.022995 
qokey -0.12655 0.26274 0.23069 0.20986 0.043987 -0.42171 0.1797 0.012158 0.46799 -0.1023 -0.031375 0.077473 0.037844 0.02603 0.10819 -0.45932 0.21202 0.17564 0.14583 -0.068253 -0.08867 0.24315 -0.090596 0.73743 0.17889 0.38285 0.036839 0.51827 0.18718 0.23885 0.053823 0.024692 0.094374 -0.17446 -0.083854 -0.14667 0.060229 -0.34097 -0.36654 -0.38271 0.45799 0.064361 0.20505 0.10607 0.19345 0.040092 -0.042366 0.49438 -0.31425 0.010088 
cthy 0.024782 0.30282 -0.31416 -0.50567 0.12453 -0.075084 -0.029156 -0.56517 0.51443 0.20333 -0.068416 0.14859 0.43917 0.034319 0.51328 0.0075517 0.38012 0.12523 -0.21667 -0.34777 -0.30753 0.40907 0.45924 -0.21168 0.24578 0.065559 -0.2968 0.11281 -0.077098 0.43463 -0.50305 0.34143 0.39085 0.17641 -0.43073 -0.13765 -0.79711 -0.14643 0.14507 -0.52031 -0.41092 -0.35782 0.23033 -0.15627 0.47643 0.22764 -0.18843 0.39884 0.24028 -0.40795 
sheol 0.20303 -0.011879 0.31919 -0.15908 -0.041111 -0.44052 0.067015 0.34253 0.084116 -0.5155 -0.056093 0.15176 -0.24386 -0.02423 0.40693 -0.39842 0.27301 0.15987 0.21169 -0.085972 0.15428 -0.18014 -0.36407 0.26139 0.31617 0.47929 -0.13367 -0.27345 0.30036 -0.044199 -0.011018 0.60088 -0.20635 -0.073587 -0.13848 -0.51358 -0.2253 -0.25166 0.022696 -0.44331 -0.091847 0.4997 0.1495 0.0067693 0.031653 -0.28833 -0.27519 0.093903 0.083304 -0.15377 
qotedy 0.043744 0.40226 0.51311 0.36611 0.13534 -0.81536 0.11456 0.14742 -0.24356 -0.13472 -0.76497 -0.0065705 0.1557 0.39745 0.012957 0.098979 0.065103 0.052128 -0.014136 0.46287 0.26076 -0.10795 -0.26588 0.0021266 0.79381 0.15473 0.34783 0.20329 -0.21234 -0.079016 0.053163 0.35675 -0.19735 0.26319 0.075672 -0.096979 -0.43403 0.33031 -0.55376 -0.51613 0.016731 -0.03174 0.24274 -0.092088 0.06427 -0.43005 -0.034721 0.41385 -0.51846 0.09327 
o -0.32892 0.031726 0.037325 -0.48519 -0.055525 -0.11498 0.34778 -0.046325 0.11827 0.42544 0.35843 0.089009 -0.094425 -0.11348 -0.26039 0.076619 0.14308 0.095782 -0.064858 -0.26407 0.39961 0.37419 0.12816 -0.11167 0.68745 0.17659 0.44367 0.060265 -0.1271 0.0035106 0.00092607 -0.0244 0.066498 0.13732 0.18752 0.057843 -0.25784 -0.062872 -0.16137 -0.11393 -0.067259 0.018969 0.0029146 -0.0064599 0.083548 0.058706 -0.084674 0.10795 0.096543 -0.05169 
dair 0.13324 0.16035 -0.23317 -0.28541 0.48072 -0.43242 0.052051 0.11542 0.11577 -0.07799 -0.03811 0.20368 -0.28431 -0.03612 -0.011716 0.22799 0.056621 -0.33946 -0.35838 -0.15817 0.31567 0.3851 0.38842 0.047746 0.12887 0.26484 0.05356 -0.17738 0.088521 -0.027866 -0.16283 0.58919 -0.11388 0.063619 -0.056992 0.16467 -0.17955 0.065249 0.16884 -0.20321 -0.2541 0.072124 -0.034364 -0.25132 -0.096714 0.2112 -0.19701 0.050344 -0.039294 0.051375 
qokol 0.25497 0.63295 0.4204 0.10138 0.039579 -0.38139 0.15788 -0.20555 0.49471 -0.67108 -0.03196 0.49652 -0.24038 0.36489 0.1319 -0.050463 0.20824 0.34437 -0.28776 0.059054 -0.066979 0.10491 -0.37879 0.24798 -0.16798 0.2019 0.061569 -0.072829 -0.024306 0.23103 -0.12529 0.42624 0.18577 0.23605 0.15108 -0.29692 -0.27472 -0.17269 0.18826 -0.32449 -0.44239 -0.083154 0.10832 -0.16577 -0.18254 0.018151 0.10784 0.014479 0.17201 -0.083058 
l -0.50733 -0.019568 0.13955 -0.2934 0.19922 -0.35416 0.57699 0.010663 0.085544 0.23044 0.11645 0.14359 -0.069347 0.24109 -0.32785 -0.14373 0.029339 0.012372 0.058038 -0.11853 0.049239 0.32072 0.11765 -0.00078512 0.59206 0.25913 0.13466 0.010832 -0.14224 -0.078664 -0.046412 0.083898 -0.25444 0.10709 0.29183 -0.081998 -0.1379 0.0071179 -0.15749 -0.14036 -0.31535 0.27954 0.19558 0.11754 0.10774 0.13462 0.14838 -0.003806 -0.15422 -0.056154 
shor 0.018102 0.18799 0.12009 0.089992 0.29155 0.32303 0.082503 -0.11936 0.13952 0.071124 0.21838 0.097016 -0.04891 0.37774 0.51822 -0.043916 0.3692 -0.18336 0.15804 -0.14356 0.031554 0.44183 0.46997 -0.50032 0.38575 0.18364 -0.16805 -0.34843 0.21702 0.17216 -0.27875 0.47621 0.026425 0.5054 -0.5605 -0.074515 -0.76555 0.18288 0.41863 -0.10741 -0.45955 -0.13228 0.08833 -0.46313 -0.32826 -0.23191 0.12926 0.18222 0.4033 -0.12204 
shy 0.5086 0.011449 0.074085 0.034516 0.37947 -0.16816 0.024354 -0.34402 0.3476 0.26655 -0.091984 0.24636 -0.15298 -0.12386 0.088017 0.06625 0.32486 -0.18639 -0.29893 -0.3756 -0.22043 0.39008 0.23181 -0.23335 0.25271 0.68987 0.33417 -0.13821 0.43447 0.18947 -0.069478 -0.060838 -0.098452 0.27989 -0.47042 -0.34611 -0.5606 -0.26641 -0.27017 -0.12728 -0.0087692 -0.018211 -0.070773 -0.26281 0.033184 0.027634 0.0058216 0.11666 0.5465 0.10258 
oteedy -0.029878 -0.013552 0.15925 0.050516 0.12582 -0.81749 0.18019 0.24847 -0.26546 -0.057075 0.010653 -0.31005 0.10293 0.033335 0.023484 0.34012 -0.057741 0.14105 0.1302 0.17882 -0.039716 0.10303 -0.099937 0.25755 0.3672 0.42583 0.35247 0.3426 -0.14034 -0.037315 0.013047 0.38054 0.056496 0.19977 -0.12848 0.11913 -0.046553 0.21497 -0.36958 -0.19959 -0.072838 0.2724 0.3517 0.53218 -0.40205 0.11208 0.14677 0.074512 -0.27596 0.10805 
oky -0.1147 0.44119 0.039282 0.048935 -0.017094 0.085671 0.19734 0.29374 0.34025 0.13435 -0.070726 -0.17683 -0.19082 -0.17291 0.16077 0.098275 0.348 0.61639 -0.17813 -0.16209 0.37132 0.24602 0.11408 0.20249 0.23105 0.18751 0.28484 0.06041 0.11357 -0.032802 -0.43338 0.2872 -0.037186 0.10623 -0.17234 -0.085303 -0.018428 0.14452 -0.031534 -0.061361 -0.029421 -0.44132 0.33687 -0.38266 0.055071 0.21256 0.17329 0.030365 0.12698 -0.19429 
cheor 0.14101 0.065995 -0.0013186 -0.47548 0.52063 -0.38364 0.14063 0.26014 0.55779 -0.46175 0.43807 -0.36495 -0.10654 -0.11098 0.40984 -0.40668 0.30803 -0.23677 0.12448 -0.37021 0.07543 0.43971 -0.11845 0.24978 0.20982 0.28239 -0.032182 -0.081994 0.072482 0.23566 0.019623 0.047179 0.27395 0.13778 -0.1782 -0.024327 -0.51804 0.24916 -0.040334 0.29603 -0.072529 -0.043572 -0.15284 0.28516 -0.060434 0.089528 -0.21748 0.06483 0.24389 -0.17063 
dam 0.3106 0.37377 -0.10431 -0.12499 -0.0093928 -0.35321 -0.28027 -0.52328 0.47141 0.11369 0.13452 0.58878 -0.36977 -0.2529 0.053601 0.38598 0.029404 0.21214 0.031052 -0.26181 0.13432 0.13785 -0.24387 0.12759 -0.057253 0.20063 0.27158 -0.13493 0.09046 -0.062524 -0.17067 0.65182 0.36085 0.43065 -0.17269 -0.24267 -0.2303 0.042326 0.1335 -0.095661 -0.22776 -0.05092 0.22151 0.037284 0.025668 -0.16767 -0.026415 0.12617 -0.36746 -0.27443 
chody -0.1905 0.38304 -0.18312 -0.23221 0.093138 -0.35195 -0.2716 0.10072 0.36272 0.35799 0.19811 0.18578 -0.10728 -0.24234 -0.0073118 0.14773 0.49693 0.1497 0.10593 -0.31874 0.21311 0.37373 -0.36606 0.3948 0.12065 -0.22129 0.094839 -0.21629 -0.092901 0.10728 -0.5001 0.47015 0.11556 0.3931 -0.1539 0.16201 0.02229 0.13186 0.094133 -0.20047 -0.44717 -0.35332 -0.12426 0.17781 -0.025119 -0.11825 -0.16397 -0.11436 -0.018816 -0.17612 
qotaiin 0.076565 0.062324 0.43646 -0.28536 -0.2157 -0.037078 0.19546 -0.26454 -0.32563 0.078628 -0.0359 -0.082918 0.031202 0.19838 0.22166 -0.042579 -0.081009 -0.031525 0.099857 0.05191 -0.35763 0.11605 -0.046162 0.18978 0.60686 0.26971 0.067787 0.23787 -0.025285 -0.059601 -0.10516 0.52136 0.012186 0.28326 0.073905 0.25563 0.12235 0.24396 0.30079 -0.29977 -0.34465 0.034956 0.036477 -0.090081 -0.59417 -0.27609 -0.11918 -0.17036 -0.074379 -0.008686 
qoty 0.27872 -0.051078 0.23212 -0.25744 0.04775 0.076075 -0.24753 -0.13391 -0.1562 0.07669 -0.53766 0.19995 0.25507 0.47416 0.78617 -0.32607 0.33497 0.081348 0.13678 -0.21209 -0.079037 0.31379 0.0056402 0.59522 0.93407 -0.035115 0.19127 0.40813 -0.23439 0.018368 0.13725 0.24966 0.093499 0.32413 -0.083045 -0.11055 -0.27494 -0.41281 0.3506 -0.28307 -0.078571 -0.061918 -0.02904 -0.35017 -0.26849 -0.36655 -0.14932 0.023833 0.38236 0.44638 
sheedy 0.23578 0.064022 -0.01892 0.59806 0.09135 -0.792 0.45829 -0.026652 0.35699 -0.66463 -0.13522 -0.10304 -0.13331 0.060206 -0.16482 -0.0091133 -0.34946 -0.18125 -0.014093 -0.083585 -0.20409 0.26812 0.067345 0.3166 0.55959 0.39071 0.18301 0.30384 -0.0047562 -0.067932 -0.080055 0.49345 0.037319 0.13585 0.23425 -0.020525 0.36165 0.010265 -0.15518 -0.20061 -0.13098 0.21214 -0.2617 0.17269 0.0030454 -0.43622 -0.25949 0.031113 -0.13774 -0.0050206 
am -0.13639 -0.14555 0.074014 -0.18811 -0.1734 -0.29664 -0.21693 -0.11391 -0.20152 0.0034356 0.3539 -0.13409 -0.25087 -0.13046 0.11295 -0.11486 -0.038714 0.27677 -0.078241 -0.12417 0.17557 0.20826 0.36182 0.043384 0.26226 0.27822 0.1787 0.11199 0.086987 -0.050959 -0.072529 0.5736 0.25314 0.17803 -0.089264 0.46128 -0.027204 0.064928 -0.13664 -0.27909 -0.2598 0.24917 0.41647 -0.034187 0.10007 0.42525 -0.037802 0.36106 -0.11821 0.282 
kaiin -0.18487 -0.062399 0.2959 -0.014833 0.097357 0.14349 0.14988 -0.35522 -0.20072 -0.082272 0.14766 0.048493 -0.10033 -0.11131 0.13945 -0.048897 0.38379 -0.098625 -0.10732 -0.27638 -0.066875 0.31722 -0.179 -0.030369 0.3142 0.20805 -0.08999 0.202 0.24387 0.12045 -0.59543 0.39954 0.046778 0.58922 0.23071 0.28086 0.15561 -0.0026926 -0.085116 -0.078563 -0.33827 -0.28116 0.025609 0.053618 0.033952 -0.018646 0.31516 -0.013134 -0.17871 0.1271 
cheody 0.13088 -0.1081 -0.1148 -0.074314 0.33496 -0.54981 0.4187 -0.10112 0.33904 -0.29374 0.033114 0.18026 -0.34618 -0.21436 0.15378 -0.060806 0.057094 -0.23104 0.1368 0.45306 0.32195 -0.10968 -0.23772 -0.066405 -0.19095 -0.19089 0.10863 -0.12929 0.2979 0.12784 -0.1127 0.69402 -0.10101 0.4173 -0.57018 0.25099 -0.45189 0.52575 -0.01696 -0.20034 -0.21723 -0.044109 0.032192 -0.019426 -0.49287 -0.14238 0.01012 -0.184 0.0505 -0.21003 
otol 0.05076 0.40818 -0.27694 -0.030218 0.38635 -0.014087 -0.033075 0.33243 -0.11571 0.13701 0.24526 0.17224 -0.051001 -0.10688 0.26798 0.49054 0.0090468 0.31586 0.10674 -0.31504 0.26172 -0.072353 -0.21637 0.29845 0.48866 0.41344 -0.17483 0.17271 0.013506 -0.088137 -0.091208 0.12958 0.33666 0.32555 0.30628 -0.26881 -0.54869 -0.11308 0.20869 -0.3693 -0.45329 0.020679 -0.10696 0.054285 -0.63425 0.055735 -0.18593 0.24437 0.62022 -0.2689 
chcthy -0.023411 0.2361 0.03147 -0.11033 -0.24473 0.30337 0.18792 -0.13176 0.11975 -0.043219 -0.67967 0.22122 0.24053 -0.39683 0.41442 0.1425 0.086737 0.04878 0.019785 -0.54536 -0.20057 0.44839 0.16559 0.017988 0.49619 0.25309 0.023195 0.37443 -0.41694 -0.17099 0.4132 0.79103 -0.057461 -0.081838 -0.081569 0.061888 -0.35085 -0.076628 0.20454 -0.24089 0.43467 0.10414 0.15019 0.023066 0.099594 -0.2801 0.15392 0.076901 0.089438 0.1293 
qoteedy -0.23997 0.25185 0.31923 0.10167 -0.46343 -0.83675 0.24492 -0.023193 -0.54495 -0.33851 -0.52989 -0.045744 0.060225 0.13726 0.27801 -0.22627 -0.021925 0.13273 -0.0019175 0.33094 -0.25695 0.42066 0.080559 0.034573 0.64614 0.37509 0.63383 0.30562 -0.33105 -0.017473 -0.095365 0.28093 -0.35715 0.060382 0.29769 0.33464 -0.38831 0.07209 -0.17585 -0.40946 0.086529 0.44336 0.24299 0.02054 -0.097863 -0.27834 -0.30283 0.44682 -0.41396 -0.017991 
char -0.44574 -0.14245 -0.21066 0.03018 0.027832 -0.30713 0.15676 -0.25207 0.16353 -0.038304 0.40237 0.14235 -0.019359 -0.34134 0.053252 -0.077177 0.40343 -0.02106 0.33464 -0.47384 -0.055619 0.6211 0.27196 -0.3243 0.33714 -0.19712 -0.021676 -0.016244 0.38719 0.28407 0.12722 0.2595 -0.062277 0.27514 -0.2853 0.23355 -0.37121 -0.055176 0.36431 -0.26519 0.13823 -0.23011 0.17257 0.33107 0.27225 0.062555 0.44815 0.10017 -0.037067 0.16437 
sar -0.036664 0.10571 -0.011262 -0.061591 -0.084228 -0.5122 0.49319 -0.027497 0.30991 -0.40216 0.28961 -0.042045 0.12295 -0.13568 0.29021 0.11878 0.071874 -0.029476 0.3038 -0.29429 -0.0079159 0.1165 -0.16048 -0.069069 0.58102 -0.3602 0.48686 -0.19883 0.042807 0.30611 0.29803 0.062242 0.61645 0.00098351 -0.027017 0.29335 -0.2352 0.076395 -0.59459 -0.16205 -0.058079 0.64012 0.088949 0.12956 -0.032424 0.084379 -0.048032 0.076054 0.1121 0.31314 
qokchy -0.092544 0.01549 0.057819 0.077084 0.27662 0.031785 0.34114 0.056724 0.25316 0.26996 0.13865 0.45812 0.58593 -0.35011 0.076567 -0.19883 0.47396 0.11492 0.20331 -0.339 -0.11138 0.46337 0.13925 0.02089 0.3715 -0.14511 0.1106 -0.055889 -0.4234 -0.016406 -0.21203 0.7905 0.15485 -0.14926 -0.34242 -0.48545 -0.22604 0.11298 0.1226 -0.8113 -0.33797 -0.50767 -0.33664 -0.42949 0.031231 -0.17429 -0.36045 -0.14321 0.47942 -0.006975 
okol -0.50604 0.41963 0.23586 -0.027699 -0.067937 -0.01944 0.19004 0.22045 0.68101 -0.2127 0.34803 -0.033442 -0.55207 0.1053 0.20681 0.049025 0.58045 -0.15531 0.41341 -0.47315 -0.017438 0.20099 -0.20462 0.063283 -0.073819 0.058718 0.13438 -0.06972 0.15801 0.48422 -0.22115 0.049068 0.055356 0.16725 0.066291 -0.25595 -0.1687 0.038984 -0.15479 -0.17177 -0.18375 -0.32271 -0.048795 -0.2064 -0.23873 0.25251 -0.05832 0.56923 0.33328 -0.11474 
cheo -0.018391 0.1245 0.070592 -0.77979 0.2159 -0.2253 0.44298 -0.083758 0.16741 0.056834 0.35551 -0.11238 -0.22433 0.10026 -0.22403 0.14009 0.49482 -0.42335 -0.46949 0.2178 0.035223 0.1738 0.17646 0.52263 0.08461 0.29536 0.063471 -0.10182 -0.00050133 -0.15033 -0.2518 0.11951 0.077327 0.11525 0.24531 0.23977 -0.16612 0.51753 -0.32797 -0.27634 -0.15945 -0.096089 0.11976 -0.029577 -0.20067 0.057328 -0.27509 -0.0053592 0.0097019 -0.30207 
air 0.068448 -0.10857 -0.094775 -0.13355 0.21806 -0.3356 0.28059 -0.034462 0.075345 -0.21813 0.017488 -0.046538 -0.55906 -0.52861 -0.1026 0.0029464 -0.012084 -0.099403 0.17562 -0.27139 0.55117 0.10103 0.17823 -0.29404 0.2504 0.079899 0.1448 -0.22091 -0.080627 -0.17502 0.27403 0.48403 0.12523 0.6497 0.060478 0.33714 -0.13357 -0.15366 0.059015 -0.10041 -0.42231 0.08717 0.10988 0.29812 -0.29114 0.042201 -0.4804 0.38078 -0.096757 -0.085136 
dor 0.11095 0.55161 0.11787 -0.10142 0.33007 -0.15535 -0.62054 0.1002 0.42435 0.13532 0.059266 0.12007 -0.018954 -0.088586 0.011404 -0.052945 0.26694 -0.24312 -0.15718 -0.30484 -0.12389 0.49392 0.0069384 0.088184 0.22545 0.59363 0.20998 -0.53795 0.085971 0.82044 -0.003035 0.27393 0.10764 0.10506 0.075486 -0.081533 -0.702 0.42559 -0.0085692 -0.061018 -0.097258 -0.3696 0.13647 -0.46682 0.09583 -0.4974 -0.53145 -0.062082 0.35328 -0.079694 
okain -0.51216 0.17021 0.63104 0.10054 0.28452 -0.093702 0.39281 -0.071753 0.19859 -0.062783 -0.12836 -0.0080264 0.15582 -0.14068 0.20897 -0.18972 0.042561 -0.20984 -0.16692 -0.084776 0.11563 0.018527 -0.20792 0.38132 0.58691 -0.23559 -0.13243 0.63997 -0.10608 0.050258 0.20878 0.28587 0.2423 0.27004 0.058747 0.068623 0.12868 -0.25257 0.41337 -0.28041 0.13381 -0.076652 0.30988 -0.067745 0.27673 0.12085 0.24021 0.44549 0.26984 0.10409 
raiin -0.01638 0.34813 0.17803 -0.044978 -0.21914 0.04311 0.38316 -0.043475 -0.071924 0.11851 0.14281 0.13715 -0.29112 -0.080229 0.30365 -0.26715 0.15371 -0.25602 -0.11414 0.27651 -0.21717 0.030855 0.21482 0.21333 0.2614 0.54649 0.26686 0.055766 0.58557 -0.080838 -0.0082857 0.14543 -0.12296 0.32398 -0.074301 0.071488 -0.27214 0.3038 -0.35338 -0.16345 0.44072 0.16298 0.36458 0.30822 -0.18587 -0.20508 0.085319 -0.26543 0.18254 0.18827 
qotchy 0.14304 0.08867 -0.078083 -0.22365 -0.081339 -0.0036425 0.067582 -0.45931 0.50556 0.55215 -0.30677 -0.11792 0.46195 -0.044187 -0.049931 0.33117 0.88592 -0.15614 -0.36205 -0.54303 -0.43764 0.31619 0.42731 0.3087 0.3433 0.045073 0.047991 -0.21642 -0.4858 0.056387 -0.39353 1.1258 -0.16335 0.17943 -0.2044 -0.68062 -0.43549 -0.36363 0.17658 -0.39251 0.083411 -0.2074 0.24989 -0.24494 -0.17629 0.037125 -0.27015 -0.031521 0.5982 -0.064652 
cho 0.067619 0.37419 -0.54922 -0.46544 0.10183 -0.44361 0.20005 -0.52362 0.16298 0.48818 0.25231 0.060941 -0.071687 -0.15049 -0.075082 0.11036 0.34738 -0.50339 -0.10829 -0.28682 0.37462 0.007563 0.30209 0.092249 0.15648 0.18304 0.090552 0.10136 0.26558 0.051285 -0.31527 0.14965 -0.21826 0.35094 0.20338 -0.099984 -0.57608 0.10889 -0.20029 -0.15977 -0.4493 -0.30984 -0.15753 0.16309 -0.076781 -0.012128 0.097108 -0.072171 0.51012 -0.34956 
qotal 0.037662 0.1019 0.13951 0.46898 -0.11792 -0.7643 0.16158 -0.10134 -0.15222 0.18826 -0.33238 -0.16802 -0.10245 -0.16066 0.11571 -0.68653 0.17924 0.25076 0.16004 -0.47109 -0.49575 -0.19633 -0.2043 0.2394 0.22872 -0.041438 -0.015496 0.21085 0.11739 0.40247 0.1415 0.82114 -0.41571 0.26862 0.13208 -0.060038 0.010468 0.18762 0.4535 -0.38049 -0.24891 0.18495 -0.073895 -0.19998 -0.082622 -0.065126 0.16887 0.17868 -0.45118 0.063191 
sol 0.21708 0.43959 0.060677 0.36881 -0.09741 -0.6396 0.41553 0.12735 0.55455 -0.1923 -0.36596 0.045611 -0.11202 0.43119 0.15439 -0.061665 0.30094 0.078866 0.043923 -0.62355 -0.1358 0.12445 -0.032684 0.27712 0.56582 0.19447 0.34207 -0.69617 -0.13095 0.59931 -0.14153 0.11007 0.093747 -0.079072 0.24835 0.07886 0.19769 0.21103 0.12291 -0.26434 0.088852 0.59701 -0.28633 0.12634 0.081961 -0.36277 0.12486 -0.064017 -0.2577 -0.23481 
cheky 0.36046 0.34955 0.13954 -0.07783 0.085273 -0.14998 -0.11715 0.27342 0.055298 0.34962 -0.55005 0.077332 -0.15735 -0.10991 -0.12208 -0.012118 0.31226 -0.09819 0.3452 -0.60266 0.43566 0.28369 -0.1187 0.31475 0.019977 -0.1543 -0.23594 0.072025 0.59284 0.070824 0.14694 0.069355 0.31049 0.35864 0.60365 -0.18231 -0.18188 0.24538 -0.48434 -0.95499 -0.17817 -0.17974 0.22251 -0.067164 -0.0057436 -0.30836 0.25502 -0.01793 -0.20807 0.11314 
okey 0.029579 0.36201 -0.4642 -0.4049 0.01954 -0.4285 0.43831 -0.016285 0.88873 -0.23389 -0.054848 0.23552 -0.31991 -0.10206 -0.33235 0.08522 -0.46003 0.25462 0.047711 -0.20394 0.41965 -0.071281 0.062413 0.35164 0.016449 0.36223 0.042272 0.71567 -0.06159 -0.010238 0.18377 0.13211 -0.23382 -0.024582 0.10299 0.19544 -0.20878 0.013596 -0.71412 -0.15553 0.50146 0.043674 0.29304 -0.14317 -0.032665 -0.2848 0.18003 0.55653 0.04947 -0.45159 
qotar 0.37806 -0.19218 0.54475 0.036515 0.23564 -0.32046 -0.094422 0.046739 -0.027623 0.21008 -0.42752 -0.033301 -0.0042703 -0.073436 -0.18809 -0.035458 -0.57283 -0.19192 -0.033264 -0.095838 -0.13074 0.21656 -0.12634 0.16787 0.35067 0.28894 0.05235 0.18154 0.1384 0.075647 -0.3746 0.7209 0.25161 0.27472 0.38365 0.16077 0.062603 0.043103 -0.081433 -0.3297 -0.057489 -0.15762 0.17937 -0.40862 -0.83012 -0.13102 0.42216 -0.058642 0.075394 0.16373 
keedy -0.13345 0.29159 0.43701 0.27627 0.62929 -0.48353 0.5787 -0.4379 -0.39578 0.19964 -0.50047 0.43123 -0.27354 -0.13306 0.19893 0.16701 0.1514 -0.1248 0.085477 0.41749 0.26677 0.15159 0.22666 0.39362 0.31438 0.16209 0.41736 0.53428 -0.24833 0.24478 0.11574 0.024692 0.075675 0.17759 0.36551 0.32749 -0.10911 0.010139 -0.68216 -0.38421 0.57526 0.39049 -0.11798 -0.0075784 -0.19247 -0.28858 0.16858 0.16993 -0.10264 -0.099523 
cheedy 0.25841 -0.01604 0.19942 -0.3539 -0.29567 -0.52597 0.59147 -0.086336 -0.19283 -0.39092 -0.31806 -0.5266 0.28885 0.16032 0.010248 -0.55466 0.19808 -0.39659 0.23603 -0.2372 -0.12798 0.28628 -0.41831 0.64126 0.47628 0.4054 -0.27353 -0.16713 -0.08484 0.083439 0.14031 0.47649 -0.38938 0.32705 0.19642 0.42712 0.25972 0.088116 -0.64073 0.030386 -0.1616 0.28198 -0.13414 -0.46211 -0.44926 -0.51675 0.26303 0.1961 -0.35464 0.30875 
cthol -0.4953 0.80504 -0.19862 -0.38647 -0.0084157 0.016338 -0.10467 -0.43331 0.34354 0.44871 0.48528 -0.044816 0.2583 0.022998 0.12862 0.20942 0.11021 0.087953 0.24003 -0.31115 -0.45318 0.23026 -0.47948 -0.052202 0.26517 0.35417 -0.34964 -0.0064194 0.05338 0.90463 -0.77853 0.64614 -0.31066 0.29414 0.078282 -0.60397 -0.87323 -0.040071 0.51199 -0.74258 -0.18046 -0.036775 0.13835 -0.65311 0.19646 0.15259 -0.17716 0.26468 0.79058 -0.37521 
okeol -0.44075 0.12541 -0.29725 -0.37488 -0.65443 -0.31748 0.22505 0.35942 0.60244 -0.056668 0.2393 0.11936 -0.52524 0.18138 0.53318 -0.26151 0.082089 0.1876 -0.29057 0.2512 0.13132 0.087957 -0.21967 0.30736 -0.10077 0.42453 0.29298 0.057952 0.36456 0.64595 -0.14026 -0.042518 -0.1213 -0.038635 -0.2581 0.33925 0.013395 0.29189 -0.41429 -0.30127 -0.22359 -0.0042025 0.69127 -0.22029 0.068662 0.19075 -0.41899 0.30579 0.46739 -0.27026 
shckhy 0.37144 0.29537 0.65983 0.39498 0.25901 -0.16803 0.31777 -0.29425 0.33209 -0.40798 -0.44061 -0.14168 -0.14078 -0.26956 0.54473 0.038647 -0.71718 0.008065 0.41213 -0.13849 -0.65384 0.013837 0.038029 0.39363 0.70463 -0.04104 -0.29374 0.47981 -0.024276 0.49117 0.25363 0.40659 -0.013444 0.41263 -0.13001 0.11326 0.025803 0.15854 -0.44432 0.11539 0.22199 -0.095908 0.17959 0.039421 -0.12225 0.25517 0.12463 0.42525 -0.045448 0.017865 
dai!n -0.056888 -0.047186 0.23577 0.020069 0.24692 -0.44292 -0.15464 -0.098127 -0.027994 -0.28049 -0.010897 0.045183 0.16688 0.03697 -0.081374 -0.45144 -0.081906 0.16686 -0.13153 -0.25759 0.19703 -0.2274 -0.15757 0.52853 0.19209 0.55359 0.093081 -0.059019 0.41683 0.25248 0.01015 0.21522 0.32964 0.26742 -0.14084 -0.093155 -0.40157 0.032165 -0.084236 -0.32379 0.048089 0.0027815 0.26897 0.092681 0.10734 -0.03249 0.34633 0.079882 -0.3303 -0.13231 
odaiin -0.33725 0.29761 0.070298 -0.064549 0.089419 -0.07025 0.48411 -0.1985 0.15967 0.426 0.34765 0.035219 0.084582 0.030349 0.23972 0.20254 0.35192 -0.16669 -0.084614 -0.13568 0.27689 0.3522 0.24912 -0.12718 -0.19839 -0.063961 -0.12001 -0.35954 0.17491 0.24499 -0.23828 0.5338 0.6142 0.43926 0.098689 0.58969 -0.5762 0.11153 0.30642 -0.0089284 0.14422 -0.07487 0.394 0.19068 -0.15891 0.40736 -0.40443 0.16068 -0.020319 0.3763 
kar 0.0057747 -0.09501 0.007569 0.22427 0.35901 0.16085 0.37838 -0.44941 0.46566 -0.15572 -0.20583 -0.48177 0.12514 -0.90597 0.23184 0.29755 0.043646 0.57813 0.0098534 0.12999 0.35024 0.53861 -0.31668 0.18685 0.18231 0.31735 0.12747 -0.074613 0.20435 -0.035492 -0.16849 -0.019011 0.29815 0.89051 0.1279 0.56317 0.1993 0.18252 0.042121 -0.07373 -0.32181 0.13896 0.34837 0.075334 0.43527 -0.20906 0.33823 0.19747 0.57395 0.11688 
oly 0.24042 0.15205 -0.13411 0.53898 0.077763 -0.34608 0.42593 0.1125 0.42494 -0.34221 -0.18763 -0.34968 -0.044611 0.42513 0.16141 0.21105 -0.14891 0.05763 0.39329 -0.51143 0.29611 0.1708 0.7706 0.44357 0.19778 0.40846 0.20622 1.0038 -0.22449 0.21674 -0.02336 0.53832 -0.19441 -0.16978 -0.0047831 -0.029932 -0.27345 0.39227 -0.3753 0.32696 0.21158 -0.14983 -0.022573 -0.53027 -0.072953 -0.50523 0.65751 0.17451 -0.053383 -0.1594 
qokchdy 0.24527 -0.032242 0.69509 0.48327 -0.14846 -0.41174 -0.031308 -0.56346 -0.41426 -0.37857 -0.015517 0.45646 -0.23429 -0.32013 0.065704 0.041638 0.074019 0.10385 -0.014861 0.20114 0.078711 0.4117 -0.22327 0.070719 0.10683 -0.17751 0.49415 -0.30427 -0.10953 -0.18003 0.43036 0.67406 0.27003 1.0058 0.85107 0.053448 -0.32788 0.039917 -0.13952 -0.3364 0.034412 -0.23295 0.55524 -0.21797 0.1401 -0.49121 0.55293 0.62428 0.20584 0.53112 
otey 0.086544 0.19674 -0.074287 0.1744 0.030757 -0.20971 0.31285 0.18546 0.060243 0.33834 -0.3821 0.17343 -0.20234 -0.23941 0.01953 -0.011203 0.021379 0.19953 0.35362 -0.43637 0.18137 -0.14834 -0.22001 -0.39116 0.26186 0.79015 0.48091 0.14353 -0.25035 -0.1692 0.29437 0.44303 -0.13955 0.31704 0.26825 0.19721 -0.37549 -0.15125 -0.23982 -0.36264 0.55453 0.41901 -0.076559 0.36342 -0.40791 0.29188 0.14862 0.30077 0.028635 0.10548 
okai!n -0.23493 -0.02532 0.35925 0.39445 0.026166 -0.43247 0.33158 0.03835 0.023437 -0.32951 -0.033267 0.18617 -0.13494 -0.12551 0.21886 -0.42636 0.1501 -0.21466 -0.22997 -0.34556 -0.0043105 -0.043698 0.026767 0.32001 0.33034 0.048198 -0.71629 0.70797 0.15133 -0.22721 0.052811 0.35702 0.10046 0.30283 0.16599 0.26462 0.30865 0.062802 0.033622 -0.32396 0.17727 0.31576 0.50971 0.031633 -0.12427 -0.45822 0.53271 0.25556 0.27568 0.19317 
ain 0.18151 -0.20703 0.33684 -0.035913 0.31595 -0.27964 0.68614 -0.31193 0.060173 -0.058193 0.44196 -0.40337 -0.03438 -0.30349 0.12519 0.018357 -0.37791 0.15633 -0.02604 -0.25066 0.22159 0.0080177 0.41637 0.44603 0.53964 0.028244 0.26394 -0.22258 0.086211 0.081164 0.025211 0.062786 -0.1048 -0.052879 0.1079 0.40292 -0.16868 0.040985 -0.33617 -0.37764 0.11757 0.055944 0.048057 0.24792 0.38231 -0.0070553 -0.13304 0.40079 0.077656 -0.015521 
ykeey -0.041268 0.3244 0.098215 -0.079673 -0.49282 -0.44004 -0.044326 0.53355 0.55688 -0.37592 0.30948 0.22731 0.11919 -0.27514 0.092083 0.059251 0.34406 -0.37764 0.13048 -0.24316 0.12078 0.08063 -0.15554 -0.36035 0.054945 0.27369 0.0011017 0.7179 -0.1599 -0.020319 -0.02964 0.33706 -0.14011 0.33083 -0.37245 0.7657 -0.46987 0.0087453 -0.10691 -0.049905 -0.30912 -0.26507 0.29132 -0.0042289 0.2242 -0.35415 -0.48168 0.059464 -0.079922 -0.13861 
checkhy -0.38394 0.46447 0.60119 0.41409 -0.16804 -0.85125 0.33432 0.13035 -0.096752 -0.4153 -0.063881 0.03486 0.22353 -0.21898 -0.20864 -0.20715 0.21344 -0.19384 0.30753 -0.69665 -0.16586 -0.33192 -0.22346 0.19482 0.52271 -0.1582 -0.27327 -0.070119 0.60905 0.11255 0.408 0.3699 -0.53126 0.51279 0.11697 0.34593 -0.10381 0.16408 -0.27632 -0.13622 0.67787 0.34899 -0.08241 0.039341 0.28422 0.12909 -0.28281 0.42121 0.14007 0.052965 
shody 0.25854 -0.039117 -0.67109 -0.50257 0.5227 -0.090921 0.016326 -0.16689 0.11736 -0.3416 0.10837 -0.2438 -0.36843 0.27913 0.527 -0.15244 0.51037 0.33611 -0.022196 -0.29465 -0.0012122 -0.18853 -0.022698 0.13553 -0.084255 0.349 0.6676 0.12644 -0.49566 -0.102 -0.46887 0.85476 0.33493 0.44697 -0.090279 0.10083 -0.12979 0.15749 0.57782 -0.31513 -0.99992 -0.20452 0.15045 -0.12167 -0.25589 -0.7916 -0.079681 0.24464 0.098732 -0.25649 
chear 0.003601 -0.49584 0.62196 -0.55047 0.36288 -0.022831 0.75689 -0.37849 0.25261 0.22107 0.21018 -0.13535 -0.11641 0.38959 0.2969 -0.35201 -0.1603 -0.50066 0.66623 -0.36616 0.017145 0.36671 0.031743 0.056981 0.38765 -0.12451 -0.25181 0.091218 0.24353 0.19533 0.11196 0.059134 -0.22037 0.065875 -0.35707 0.17715 -0.41546 0.29298 0.04093 0.10912 -0.21261 0.56194 0.051335 -0.12792 -0.14247 -0.0726 0.39721 0.55467 0.50375 -0.2061 
sal 0.42986 -0.42356 0.42935 -0.15839 0.10605 -0.66508 0.2724 -0.48605 0.26825 -0.64228 -0.56379 0.073441 -0.23866 -0.35258 -0.15052 -0.24733 0.43662 0.19186 0.44839 -0.096926 0.13289 0.14711 -0.40601 -0.4741 0.23171 0.58587 0.18661 0.20873 -0.05375 0.15517 0.045732 0.23576 -0.20522 0.037449 -0.17039 -0.15942 -0.13111 0.13191 -0.35258 -0.47987 0.31775 0.20287 0.042251 0.050439 0.22094 0.41711 -0.43093 -0.11514 0.075474 -0.12972 
lkaiin -0.28011 -0.34833 -0.31978 0.084916 0.15677 0.17812 0.7651 0.002551 0.08341 -0.0032158 -0.36049 0.46168 -0.16106 -0.48521 0.39215 -0.51358 -0.10364 0.11117 -0.16006 -0.11748 -0.28343 0.025996 0.33197 0.49921 0.3956 -0.24003 0.0040854 0.20821 0.074969 0.33435 -0.18892 0.40275 -0.30517 0.6891 -0.23071 0.10681 0.34117 0.31976 -0.14425 -0.64415 0.30418 0.15967 0.35001 0.42439 -0.64993 0.15473 0.66447 -0.28279 0.35389 -0.15288 
cthey 0.079084 0.47037 -0.45516 -0.55797 -0.18594 -0.13741 -0.17346 -0.29722 0.19659 -0.13479 0.49833 0.47265 0.14933 0.17443 0.15226 -0.33903 0.43908 -0.13596 -0.13174 -0.24263 0.78102 0.45342 0.087578 -0.0064009 0.33452 0.30358 -0.41439 -0.032255 0.035117 -0.30613 0.41382 0.54922 0.3175 0.66551 -0.27363 -0.014651 -0.29828 0.30313 0.32727 -0.054969 -0.1009 -0.17411 0.42183 0.31797 0.46035 0.16491 -0.27988 0.15553 0.21168 -0.38147 
keey -0.31965 -0.33847 -0.65623 -0.78337 -0.034615 -0.37031 0.42717 0.30002 0.20547 -0.20516 0.27561 0.29003 0.02067 -0.1146 0.076232 -0.10384 0.51225 0.20676 0.15258 0.13231 -0.0070418 0.2604 0.012286 0.48072 0.26544 0.0021876 0.22651 0.80806 0.11766 0.19777 0.058009 0.13463 0.022357 0.18277 0.023119 -0.26263 -0.23942 -0.079845 0.007573 -0.12208 0.26295 0.158 0.26367 -0.070109 0.22279 -0.45142 -0.027967 0.19237 0.038267 -0.13553 
olaiin -0.072845 0.24116 0.20102 0.11297 0.14188 -0.24011 0.047581 0.21384 0.066857 -0.70157 0.22431 -0.21492 -0.41754 0.023975 -0.29552 -0.17084 -0.27777 0.13635 0.12324 -0.13447 0.42954 -0.046425 0.61397 0.52231 0.039514 0.4859 -0.28511 -0.21403 0.36612 -0.032765 0.21554 0.28747 0.52407 0.16405 -0.073564 0.47015 -0.00097425 0.51501 -0.030699 -0.4543 -0.45201 0.38879 0.29704 -0.51096 -0.064604 0.16851 0.3881 0.30783 0.2065 -0.012399 
opchedy -0.050115 -0.21658 0.31843 0.66451 0.45217 -0.26665 -0.40842 -0.16075 0.29633 -0.23982 0.11039 -0.044426 -0.20661 -0.055751 -0.049506 0.31244 -0.27501 0.42814 -0.066016 -0.10127 -0.058416 0.31076 0.33515 0.23949 0.76286 0.080892 0.26637 0.12463 -0.5255 -0.15825 0.20655 0.69176 -0.20163 0.31096 -0.11355 0.59364 -0.15067 0.26154 0.015214 -1.1105 0.068345 0.17564 0.26342 -0.51493 -0.7344 -0.55955 0.51868 -0.287 -0.0022755 0.27975 
sheor -0.043181 -0.24412 0.22318 -0.068596 0.28611 -0.279 0.41992 0.19152 0.57165 -0.14965 0.20777 0.48185 0.49382 0.26972 0.80297 -0.26056 -0.069967 -0.64616 0.80127 0.32308 0.42341 0.11434 -0.0032536 0.54 0.17714 0.39725 -0.19072 -0.035206 -0.11047 0.19032 -0.28033 0.17695 0.31193 0.49983 -0.19268 -0.46949 0.027096 0.11895 0.17118 0.056726 -0.00050544 0.096798 0.21639 0.025532 -0.099699 -0.49524 -0.142 0.10131 0.62069 -0.46424 
kedy -0.37779 0.29449 0.15992 0.25258 0.18493 -0.68273 0.32626 -0.077693 0.12186 0.1092 -0.39273 0.66232 0.29155 -0.20428 0.47319 0.63138 -0.38253 -0.18182 0.38506 0.11912 -0.16228 0.1966 -0.22275 0.30058 0.31865 0.441 -0.056689 0.15247 -0.061311 -0.010864 0.093664 0.20007 0.1497 0.3933 0.78145 -0.019505 0.069243 0.23104 -0.013333 -0.10707 0.30745 0.042527 0.50119 -0.18229 0.43653 -0.17033 0.026715 0.43492 -0.27897 -0.20389 
qokeol -0.50167 0.21527 -0.023061 -0.30699 0.1181 -0.33004 0.30511 0.10873 0.55233 -0.078415 -0.04807 0.24409 -0.44915 0.18806 0.39111 -0.59705 0.415 -0.19639 -0.078351 0.11049 0.44732 -0.14612 -0.62451 0.5175 -0.01541 0.7599 -0.43654 0.22898 0.30715 0.36766 -0.31675 -0.057881 -0.25897 0.56564 -0.12067 -0.0687 -0.7308 0.38698 0.091937 -0.17951 0.20774 0.12806 0.13663 0.32928 -0.086245 0.39331 -0.39554 0.027806 -0.52133 -0.57896 
tedy 0.4766 0.48116 0.084366 0.81488 -0.19262 -0.84692 -0.1204 -0.64933 0.30345 0.21042 -0.53726 0.014188 -0.022035 -0.15936 0.0004758 0.23958 -0.35443 0.059092 0.47718 0.0047394 0.30686 0.33956 -0.76008 0.46873 0.50569 1.0495 0.12528 0.47677 0.22785 0.26843 0.48119 0.12208 0.063516 0.23914 0.72739 0.54198 -0.24951 -0.20756 -0.78228 0.25193 -0.13582 0.233 0.027238 -0.39889 -0.37948 -0.31434 0.15809 0.058938 -0.048097 0.19361 
d -0.23972 0.33684 -0.49313 -0.30381 -0.15706 -0.58197 0.52741 -0.13958 0.18766 0.59806 0.12838 0.25616 -0.13098 0.061136 -0.18828 -0.045802 0.27185 0.21228 -0.17236 -0.44012 0.16499 0.38259 0.58065 -0.29372 0.99401 0.19955 0.062684 -0.076652 -0.40705 0.26878 0.015689 0.041239 -0.25227 -0.21347 0.12963 -0.019682 -0.68148 -0.61113 -0.32035 0.089958 -0.34825 -0.47288 0.22241 0.040121 0.38728 0.13824 -0.15122 0.43804 0.25664 -0.25751 
tol 0.1299 0.069996 0.23863 -0.025371 -0.27253 -0.40445 -0.074404 0.30101 -0.27435 -0.35286 -0.04254 0.2423 0.21223 0.15176 0.28584 -0.11139 0.5011 0.12777 0.63195 -0.020557 -0.048366 -0.10369 -0.45794 -0.13174 0.03805 -0.020313 0.086193 0.33167 0.25114 0.37171 -0.39747 0.84694 0.4627 0.3873 0.00037452 -0.3357 -0.48621 -0.12724 0.0089687 -0.53666 -0.23108 -0.23096 -0.04366 -0.60829 -0.092578 0.62062 -0.12641 0.14168 -0.16939 0.16192 
sor -0.033136 0.35244 -0.03511 -0.16037 0.20025 -0.23061 0.59346 0.084187 0.048595 -0.068023 -0.16425 -0.33237 0.30872 -0.022402 0.40388 -0.058744 0.067512 0.40965 -0.14766 -0.50266 -0.2536 0.85016 0.01485 0.34382 -0.069228 0.33336 0.040378 -0.10337 -0.26117 -0.20747 -0.081888 -0.16244 0.41449 0.16262 -0.16028 0.02159 -0.33418 0.065814 0.1703 -0.40628 -0.5218 0.17363 0.19093 -0.13724 0.30314 0.23494 -0.0702 0.28369 -0.1771 -0.19967 
cthor 0.42686 0.62993 0.50446 -0.31781 0.83321 0.34198 0.25268 -0.12346 0.53132 0.70117 -0.037845 -0.39414 0.3121 -0.48635 0.39185 0.023916 0.28029 -0.15022 0.2448 -0.4307 -0.53483 -0.25354 -0.056784 0.49078 0.80046 0.61632 -0.56497 -0.25664 -0.51236 0.7218 -1.0911 0.11208 0.24717 0.011378 -0.022356 -0.095039 -1.0314 -0.025413 0.52067 0.08577 -0.13212 -0.48228 0.32066 -0.32878 -0.0089453 0.43188 -0.14386 0.19089 1.3489 0.17934 
otchy 0.78482 -0.19061 -0.2919 -0.069366 0.66408 -0.38144 -0.11719 -0.3091 0.27142 0.31418 0.14805 0.036295 0.21066 -0.36766 -0.048092 0.42838 0.35091 0.17992 -0.17137 -0.56407 0.070159 0.8086 0.10685 0.019971 0.23024 -0.21827 0.31968 0.045536 -0.60605 0.45789 -0.21316 0.31924 -0.019007 -0.058738 -0.35346 -0.16897 -0.50714 0.15155 -0.12803 -0.51267 -0.15827 -0.19441 0.23002 -0.24074 -0.21998 -0.072015 0.53913 -0.012606 0.74083 0.14307 
chal -0.66016 0.16853 -0.077052 0.22648 0.2056 0.13979 -0.016272 -0.22611 0.020085 -0.52937 -0.30295 -0.0034686 -0.20724 -0.42328 -0.0046971 0.31315 0.52359 0.079765 0.55459 -0.29894 -0.37793 0.211 -0.057288 0.52508 0.59235 -0.074859 0.19528 0.59227 0.31917 0.71114 -0.11238 0.16038 -0.34666 -0.17983 0.34653 0.32449 -0.25168 0.33284 -0.050188 -0.28188 -0.30202 0.066745 0.18379 0.24434 -0.74354 0.50291 0.59476 0.079798 0.49398 0.16183 
qotol 0.29657 0.0043564 0.25845 -0.22194 0.23464 -0.54837 0.04716 0.608 -0.3503 0.23099 -0.5104 -0.11861 -0.11 0.036765 -0.089576 -0.11431 0.54182 0.056456 -0.13637 0.35383 -0.29466 0.36738 -0.31011 0.17062 0.21338 0.24229 0.20999 0.72257 -0.42297 0.42543 -0.12618 0.58955 0.18384 0.22792 0.12599 -1.0013 -0.66599 -0.15823 0.0020766 -0.6064 -1.2038 -0.067513 0.051455 -0.44288 -0.00070515 -0.38718 -0.49575 -0.24403 0.71249 -0.1262 
shdy 0.39397 0.16577 -0.13258 0.091244 0.41152 0.042083 -0.11405 -0.43461 0.23907 0.30894 -1.1675 -0.012922 0.21734 0.036065 -0.1545 -0.38433 0.027951 0.47954 0.36689 0.25583 0.25915 -0.17182 -0.28242 0.4268 0.67903 0.50829 0.57695 -0.51607 0.35291 0.16836 0.15597 0.49442 0.50683 0.69428 -0.13354 -0.081192 -0.040285 0.034319 -0.11587 -0.34713 -0.072268 0.02424 -0.092907 -0.23906 -0.17436 -0.2203 -0.034684 0.50912 -0.17188 0.36005 
taiin -0.03574 0.08952 0.48503 -0.21872 0.14115 0.017195 0.22212 -0.25025 -0.078957 -0.13036 0.038312 0.42945 0.24299 -0.3713 -0.53814 0.11874 0.18564 -0.15079 -0.20111 -0.4797 -0.4614 0.26663 -0.23254 0.26037 0.04436 0.67952 -0.2541 -0.10899 0.11878 0.040111 -0.047033 0.58702 0.069723 0.36136 -0.19411 0.11708 0.12996 0.34728 0.30912 -0.21474 -0.42926 0.044935 0.14667 -0.013166 -0.33757 0.46005 0.27624 -0.30627 0.21215 0.20187 
chaiin -0.3682 0.022637 0.17491 -0.50317 0.38485 0.23771 0.13913 -0.72001 0.050938 0.49188 -0.0073473 0.62712 0.082315 -0.021823 0.29489 0.11107 0.4305 -0.66876 -0.099459 -0.48957 -0.34868 0.48482 0.061143 0.13889 0.44689 0.21673 -0.5208 0.048055 0.013492 0.95784 -0.4895 0.31097 -0.0013139 -0.19807 -0.090593 0.4906 -0.65734 0.6586 0.17388 0.091479 -0.38989 -0.89796 0.32533 0.077052 -0.24105 0.29665 0.047096 -0.26308 0.44866 -0.10995 
sheody 0.14516 -0.16164 -0.13366 -0.27976 0.23519 -0.45911 -0.25115 0.36582 0.037236 -0.12501 0.17658 0.44776 0.11668 -0.24118 0.25365 0.25696 0.65638 0.032794 -0.23261 0.37577 0.12737 -0.034612 -0.59442 0.18982 -0.033584 0.22364 0.25762 0.17785 -0.16321 0.25718 -0.91991 0.76709 0.22611 0.57447 -0.40844 0.88391 0.053257 0.046745 -0.092312 -0.52799 0.066163 0.17823 -0.15018 -0.23315 -0.010512 -0.065947 -0.12908 -0.16339 0.19975 0.39702 
otam 0.18664 0.35848 -0.23802 -0.035051 0.15088 -0.29451 0.14256 -0.33291 -0.33241 0.52444 -0.61815 -0.11679 -0.89127 -0.3165 0.078193 0.23061 0.45265 0.54807 0.43321 0.066345 -0.30678 0.48715 -0.15977 0.083758 -0.24448 0.56635 -0.67481 0.34116 0.037724 0.13165 -0.16445 0.67725 0.79726 0.39604 -0.52372 0.36165 -0.021471 0.12141 -0.40255 -0.14839 -0.39114 0.088091 0.17963 0.44961 -0.091469 0.074131 -0.1773 0.00056588 -0.30897 0.50257 
sheo -0.31056 -0.86755 -0.28476 0.018167 0.1186 -0.42192 0.093887 -0.47687 0.47242 -0.42828 0.17061 0.014505 -0.22259 -0.051138 0.69416 0.15781 0.59768 -0.19938 0.25809 -0.11336 0.33893 -0.53486 -0.094204 0.061528 0.3974 0.060385 0.19909 0.29752 0.041779 0.39692 0.068422 0.22971 -0.059878 0.29521 -0.34058 0.42833 -0.10364 0.47872 -0.44352 -0.48885 -0.42806 0.42159 -0.16974 -0.03321 0.15326 0.082519 -0.21357 -0.12766 0.5849 0.080158 
ykaiin 0.057996 -0.19528 0.0017057 0.097287 -0.010358 -0.22749 0.324 -0.21778 -0.036623 0.48939 -0.89816 -0.2604 -0.0029379 -0.2645 0.66349 0.18441 0.27657 -0.099661 -0.14257 -0.35961 0.21514 0.42644 -0.032924 0.21441 -0.14083 0.50704 0.013244 0.020401 0.67247 -0.67235 -0.28044 0.58187 0.31046 -0.23321 0.15806 0.16176 -0.20025 0.59367 0.38184 0.061408 -0.25827 -0.67953 0.51613 -0.086458 0.2202 0.14237 0.60794 0.19517 0.76517 0.15321 
tar 0.0082073 -0.59354 0.10576 0.52929 0.22896 -0.4223 0.21776 -0.5065 0.13434 -0.059131 0.14764 0.60174 -0.13329 -0.67857 -0.20744 0.13242 0.061671 0.10605 0.5335 -0.54849 -0.12584 0.19413 -0.49087 -0.1204 0.20148 0.60578 0.38738 0.37206 0.31666 -0.18148 -0.54628 -0.38546 0.2203 0.6884 -0.36997 0.11164 0.13067 0.017248 0.32723 0.072525 -0.16557 0.18415 0.54447 -0.083732 0.042502 -0.057222 -0.28784 0.66669 0.19456 0.46824 
lchey 0.29161 -0.060815 0.67817 -0.28749 0.022163 -0.51475 0.28072 -0.048337 0.26903 -0.22549 -0.069406 -0.65274 -0.24414 0.083821 -0.2095 -0.19044 0.2039 0.38503 0.0070757 -0.30309 -0.67328 0.42704 0.3714 0.63552 0.27557 0.018618 0.15449 0.32085 0.089948 -0.13167 -0.30477 0.41638 -1.0575 0.49311 0.32396 -0.23927 -0.017424 0.096013 -0.3689 -0.44092 0.26403 0.29531 0.32745 0.36939 0.11458 -0.48345 0.49844 -0.15592 0.16316 0.23899 
ody -0.01042 -0.21155 -0.20438 -0.093331 0.12886 -0.42997 -0.13777 0.5871 -0.32279 -0.27909 -0.44014 0.17769 0.035067 -0.15398 -0.072174 -0.050969 0.14707 0.0042958 0.082639 -0.13113 0.47918 0.26739 0.3603 0.30948 0.25381 0.47762 0.18233 -0.089955 0.02482 0.22889 -0.33627 0.44005 0.21673 0.1413 -0.7125 0.56805 0.23289 0.073559 -0.023432 0.070649 -0.47638 -0.63202 -0.24418 -0.59386 -0.27508 0.059239 -0.00064686 0.61355 0.56599 -0.1968 
otai!n -0.14241 -0.26689 0.30735 0.13812 -0.21027 -0.14744 0.0023137 -0.24658 0.44247 -0.21752 0.43933 -0.13875 -0.20463 -0.31904 0.23515 -0.18982 -0.042766 0.0093644 0.43888 -0.55396 -0.17889 0.39101 -0.11892 0.57905 0.5599 0.49289 -0.2932 0.45124 -0.21039 -0.13925 0.17577 0.32573 0.089601 0.26881 -0.1924 0.26129 0.63309 0.12549 -0.11146 -0.13255 -0.33482 0.17817 0.70473 0.36777 -0.20449 -0.13766 0.86291 -0.059087 -0.12096 -0.048409 
olkeedy 0.065284 0.17357 0.59343 0.36955 -0.34011 -0.36679 0.0016727 0.13866 -0.32339 0.18996 -0.60065 -0.20025 -0.31819 0.21168 0.20943 -0.37713 0.052629 0.044062 0.37306 0.18825 -0.022658 -0.095372 -0.063538 0.73518 0.10192 0.93015 0.27605 0.13581 0.47276 0.44354 -0.033494 0.15878 0.41887 0.065136 0.19846 0.22719 0.048683 0.6021 0.46709 -0.11681 -0.21816 -0.24254 0.69793 -0.027455 -0.56096 -0.22249 -0.062026 0.60563 -0.36929 0.53979 
ytaiin 0.25366 0.12513 -0.22885 -0.080912 0.40331 0.15429 0.13246 -0.1535 -0.355 0.77752 -0.47855 0.06894 -0.32718 -0.34569 0.59751 0.20112 0.075153 0.30614 0.049028 0.41202 -0.33084 0.31476 -0.077731 -0.38407 0.3919 0.28794 -0.23779 0.21345 0.029186 0.22248 -0.15809 0.55564 0.81355 0.11264 0.236 0.4795 -0.057132 0.33414 0.72232 -0.56866 -0.61287 -0.063423 0.74173 0.17522 -0.17933 0.23611 -0.15069 0.13261 0.66394 0.25949 
chodaiin 0.31054 -0.41778 -0.46825 -0.50585 -0.21729 0.075853 0.80412 -0.48215 -0.071603 -0.083407 0.2324 -0.090731 -0.090282 0.14656 0.28326 0.22156 0.12431 0.076755 0.17706 0.19521 0.28317 0.60602 -0.19849 -0.053175 0.62552 0.4829 0.19522 -0.40326 -0.032408 -0.12779 -0.35472 0.79924 -0.019971 0.76426 -0.61465 -0.74729 -0.34816 0.1375 0.46218 0.2744 -0.47762 -0.30009 -0.18034 0.35986 0.11022 0.027527 -0.1673 0.34871 0.3672 0.00015704 
qoteey 0.64384 -0.20078 0.14411 -0.52944 -0.20304 -0.05906 0.26061 -0.20529 0.13647 0.63308 0.17922 0.32455 0.10667 0.23833 0.13038 0.030269 0.58423 0.10086 -0.17724 0.13037 -0.45939 -0.36429 -0.24454 0.42938 0.65822 0.65465 0.11888 0.081977 -0.44611 -0.21432 0.54788 0.14953 -0.027693 0.55928 -0.43292 0.16436 -0.30582 0.03064 -0.44228 -0.33885 0.43745 0.35178 0.40869 0.24576 -0.79142 -0.44481 0.028983 -0.014105 0.050122 0.05893 
lol -0.30064 0.20234 0.64927 0.061329 0.27427 -0.42508 0.45418 -0.050647 -0.22407 -0.35849 -0.1763 0.14238 -0.25161 0.15579 0.28059 -0.8413 -0.19151 0.18848 0.25396 0.31024 -0.3869 0.60131 0.023464 0.3613 0.42202 0.1187 0.16543 0.3995 -0.3579 -0.33847 -0.70499 0.38579 0.45873 0.56996 0.28911 -0.18896 -0.2762 0.098218 -0.29797 0.15553 0.44377 0.53148 0.43195 -0.31618 0.49514 0.13912 0.16066 -0.19337 0.10218 0.10438 
oteol -0.11948 0.11347 0.3016 -0.34828 0.36122 -1.1312 -0.22931 0.5407 1.0389 0.27369 0.40656 -0.015483 -0.079598 0.18764 -0.27208 0.13955 0.37725 -0.41233 0.53484 0.19751 0.31406 0.58929 -0.14457 -0.28682 -0.30326 0.2447 0.42171 0.094694 -0.24468 -0.34832 0.40686 -0.18512 0.19958 0.80523 0.1151 0.15701 -0.36626 0.0098021 -0.19314 -0.31845 0.27129 0.55837 0.95999 -0.096678 0.38079 -0.085258 -0.046667 0.11454 0.80718 -0.030463 
olchedy -0.86591 0.54051 0.40332 0.43994 -0.6591 -0.48965 0.94556 0.56259 -0.060418 0.14473 -0.46951 -0.13896 0.25172 0.29878 0.017675 -0.3448 -0.093984 -0.17289 0.65857 -0.62303 0.088117 0.2076 -0.56105 0.22153 0.67561 -0.091242 0.42405 0.4968 0.26075 0.12285 -0.13758 0.65602 0.0091141 -0.067449 0.51426 0.18782 -0.053645 0.15292 0.1106 0.061237 0.81707 -0.32184 0.10209 0.29951 0.14537 -0.18784 -0.2755 -0.017563 0.020397 0.37675 
olkeey 0.29417 0.16187 0.46088 0.12543 0.24449 -0.52328 0.69393 -0.29189 0.15498 -0.25417 0.37144 0.45319 0.091199 0.34857 0.45948 -0.35492 -0.68092 0.11999 0.066531 -0.000797 -0.1407 0.0031535 -0.057831 0.99293 0.58336 0.030251 -0.051752 0.091837 0.75681 -0.62522 -0.40775 0.37072 -0.22121 0.22198 0.15158 0.18562 0.10652 -0.41562 -0.71111 -0.48915 0.34085 0.13378 0.32727 0.24849 0.30165 0.12651 0.36977 -0.17157 0.19871 0.0010578 
qodaiin 0.17233 0.10346 -0.12406 0.44382 -0.22416 -0.40752 0.11241 -0.44056 0.23328 -0.035646 0.64933 0.64748 -0.22271 -0.02494 -0.083883 0.07835 0.059379 -0.07947 -0.21301 0.32443 -0.30906 0.49488 -0.45038 -0.089846 0.15456 0.043629 -0.42463 -0.35247 0.38244 -0.23243 -0.24648 1.1287 0.59566 0.1063 0.32952 0.4507 -0.33106 0.3327 -0.044516 -0.54066 -0.95204 0.19787 -0.16941 0.17074 -0.15688 -0.36431 -0.20273 -0.42656 0.76243 -0.41832 
lshedy 0.29015 -0.0065733 1.066 -0.61173 0.32006 -1.1052 0.48144 0.080895 0.14699 -0.16846 -0.98713 -0.073077 0.19417 0.16367 -0.1485 -0.53276 -0.14881 0.59282 0.69516 0.51152 -0.91562 0.22263 -0.084689 0.14989 0.2593 0.073031 0.37546 0.35928 -0.22015 0.58005 0.22659 0.23854 -0.075165 0.7236 -0.30944 -0.40257 0.1406 0.097264 -0.29716 -0.38451 0.21559 0.29617 0.29471 0.033082 0.46794 0.2754 0.33272 0.29724 0.097422 0.32423 
dshedy 0.89731 0.10276 0.69896 0.67991 0.004717 -0.51985 0.34896 -0.3614 0.42421 0.73971 -0.35857 -0.34418 0.28097 -0.1366 -0.13443 -0.023865 -0.099286 -0.11569 0.61198 -0.087024 -0.092232 0.149 -0.52092 0.7178 0.65699 0.27607 0.41147 0.3351 -0.51349 -0.14843 0.75484 0.81819 0.42899 0.32554 -0.018562 0.21337 0.51771 -0.066105 -0.73959 -0.66221 0.38518 0.024083 -0.56054 -0.32405 0.10649 -0.3819 -0.39511 -0.059459 -0.13885 0.1758 
lor -0.13947 -0.24967 0.29002 -0.13054 0.072703 -0.56865 0.32589 0.2632 0.068349 -0.79714 -0.23041 -0.16698 0.081476 0.23378 -0.25017 -0.20982 0.13767 -0.17927 0.27606 0.031437 0.21802 0.35283 0.093277 0.26191 0.49683 0.76093 -0.82204 0.46184 0.10737 -0.086394 -0.21655 0.1373 0.15339 0.19293 0.26765 0.091227 0.24751 0.48545 0.33708 -0.38613 0.28771 -0.32276 0.39815 0.37492 -0.027408 0.058363 0.10022 -0.17426 0.18583 0.050714 
choty 0.17753 -0.23149 -0.44235 -0.0016199 0.51751 -0.041072 0.17368 -0.15076 -0.34498 0.54307 -0.21933 0.51027 0.27568 0.57167 0.61497 0.38554 0.41835 -0.092731 0.29088 -0.68965 0.42936 -0.036423 0.14758 0.18894 0.42606 -0.28637 0.46294 0.44678 -0.048635 0.15674 -0.21576 0.67652 -0.1897 0.27324 -0.7702 -0.42215 -0.44898 0.40568 0.34028 -0.16005 -0.47936 -0.29005 0.17501 0.33088 -0.10975 -0.1894 -0.16381 0.37274 0.56787 0.10194 
choky 0.28547 -0.13286 -0.34759 -0.83666 0.75849 -0.19405 0.042028 0.18656 0.5313 0.73236 0.004177 0.098387 -0.16497 -0.44868 0.17103 0.25477 0.23078 0.49157 0.51493 -0.057186 0.052967 0.43569 -0.50872 0.6177 0.45658 -0.36286 0.84891 0.16459 0.24279 0.78625 -0.23153 0.49441 -0.21075 0.30327 -0.42452 -0.31053 -0.17388 0.36416 0.47137 -0.30682 0.21128 -0.24609 -0.23741 -0.68281 0.49002 0.46101 -0.38764 0.0022099 0.094773 -0.25768 
olkaiin -0.53863 -0.12713 0.12378 0.19991 -0.43975 -0.25812 0.61288 0.11276 -0.20767 -0.5349 -0.085732 0.36151 -0.16953 -0.39069 0.28473 -0.0029443 -0.42062 0.19702 -0.10223 -0.63814 0.34431 -0.0010829 0.14339 0.21993 0.59001 0.34908 0.57304 -0.2862 -0.10925 0.11941 -0.53476 -0.021189 0.42538 0.12998 0.38057 0.34987 0.047473 -0.22857 0.67754 -0.6417 -0.29327 -0.047746 0.88038 0.1764 0.013504 0.14585 0.47241 -0.39046 0.62445 0.63881 
ckhy -0.39268 -0.42408 -0.011548 -0.48224 -0.0070418 -0.31492 0.55992 -0.57814 0.74574 -0.25644 -0.77199 0.046359 -0.30982 -0.24107 0.21373 -0.020615 0.52997 -0.11777 0.46136 0.42338 -0.27546 -0.027484 0.21725 -0.26365 0.49308 -0.39097 -0.25266 -0.30375 -0.026735 0.94376 -0.14014 0.66511 0.58322 0.53699 -0.31384 -0.31145 -0.323 0.35108 -0.045627 -0.13003 0.14531 -0.75263 -0.48338 -1.0268 0.16021 0.70003 -0.13243 0.33632 0.84323 -0.28629 
sheky 0.027806 -0.0030679 0.49057 -0.18964 0.051195 -0.022439 0.57163 0.15056 0.36757 0.20668 -0.85172 -0.2194 0.14627 0.47706 0.35869 0.36282 -0.10067 -0.25615 -0.22804 -0.81634 -0.53951 -0.33471 -0.33457 0.18843 0.55391 0.2617 0.16506 0.63832 0.30456 -0.1066 -0.25575 -0.23942 0.60129 0.33374 0.076064 1.0975 -0.19288 0.40559 -0.18855 -0.10315 -0.55512 -0.36514 -0.29705 -0.42753 0.35059 -0.72434 0.31248 0.93288 -0.3158 -0.299 
lkeey 0.16999 0.0051001 -0.085947 -0.073837 0.20616 -0.56334 0.63546 0.094727 -0.26789 -0.20532 0.29088 0.40425 -0.013866 0.0044617 -0.33186 -0.70826 -0.025824 0.22558 0.20501 0.23965 -0.31169 0.07753 -0.023232 0.13511 0.80633 -0.0011165 -0.71645 0.32556 0.35681 -0.44192 0.45748 0.28105 -0.45343 1.2819 -0.081453 0.3638 0.43852 0.437 -0.15555 -0.88323 0.14716 0.29126 0.45665 0.39856 0.46222 -0.089205 -0.18633 -0.10746 -0.12115 0.55316 
sheckhy 0.12573 -0.074428 0.3347 0.59132 0.22331 -0.44093 0.42794 0.009625 0.18454 -0.55096 -0.73748 0.033384 0.91856 -0.32286 -0.25052 -0.51038 0.29228 0.4405 0.099252 -0.4939 -0.49308 0.24866 -0.85267 0.41348 0.78389 -0.030374 0.07024 0.79682 0.4044 0.42324 -0.64344 0.074835 -0.22221 0.082561 0.53435 0.13032 -0.20522 0.61046 -0.50998 -0.48824 0.40621 1.0833 -0.015054 -0.16758 0.30076 -0.40899 0.35131 0.11671 0.12846 -0.2301 
otor -0.33948 0.10018 0.15604 0.27192 0.41227 -0.43905 -0.058671 0.11242 0.36474 0.12698 -0.06216 -0.46399 0.14208 -0.14497 -0.69615 0.34775 0.055384 0.19495 -0.061977 -0.22905 -0.17475 0.45787 -0.18664 0.045125 0.22705 0.15821 0.36713 -0.37891 -0.11541 0.055635 -0.17861 0.31782 0.04296 0.75251 -0.49389 0.060978 0.019565 0.4597 0.26314 -0.27428 -0.53259 -0.1615 -0.070316 -0.31191 -0.71094 0.21558 -0.39007 0.26613 0.56757 -0.34008 
lkeedy -0.62294 0.043679 -0.074664 0.22832 0.12878 -0.31897 0.37355 -0.085254 0.0042847 0.056037 0.14992 0.036336 -0.0092524 -0.043904 -0.24083 -0.35264 -0.088563 0.11499 0.023144 0.79726 0.11409 0.23101 -0.41193 0.71143 0.75832 0.30339 -0.13568 0.16957 0.61525 0.33874 -0.12006 0.71854 -0.65146 0.43846 0.56819 0.70255 0.44383 0.47306 -0.4976 -0.11394 0.43202 0.2829 0.39962 0.053612 0.7174 0.073776 -0.24463 0.13816 -0.0028171 0.34277 
kol -0.34692 0.25346 0.036573 0.025466 0.52842 0.1885 -0.37846 0.14708 0.60856 0.14486 -0.11063 0.3242 -0.70789 0.41813 -0.089417 0.3417 0.57104 -0.19868 0.077207 -0.15077 -0.06701 0.26359 0.14168 0.02289 0.34768 0.11865 -0.48737 0.15559 0.76173 0.55676 0.034675 0.33651 0.49718 0.49147 -0.46523 -0.26622 -0.54501 0.12613 -0.28672 -0.60849 -0.11926 -0.44885 0.082632 0.051398 0.026585 -0.20847 -0.51102 -0.039122 -0.05468 -0.29481 
otain -0.167 -0.18173 0.23948 0.062061 -0.046224 0.047746 0.18201 -0.21483 0.29783 0.1209 0.10267 -0.20273 0.043791 -0.61859 0.18397 0.2339 0.017518 -0.11054 0.31064 -0.37581 -0.15356 0.12342 -0.077808 0.57164 0.51781 0.36296 0.23963 0.57092 -0.34937 0.056286 0.15358 0.2545 0.16415 0.13966 0.059833 0.20991 0.5741 0.13552 -0.098595 -0.17105 0.040839 0.0177 0.51935 0.41554 -0.24576 0.022796 0.59802 0.26191 0.0090516 -0.25569 
ches 0.50933 0.38963 0.03171 -0.21646 0.03151 -0.39972 0.50499 0.12502 0.48201 -0.29946 0.32705 -0.19093 -0.19022 -0.56344 -0.0059032 0.032106 -0.089753 -0.11189 0.22266 -0.43211 -0.46016 0.40344 -0.18994 -0.049243 0.45456 0.48495 0.67849 -0.37523 0.089312 -0.11895 -0.3218 -0.27252 -0.75622 0.1434 0.0016027 0.9134 0.011993 -0.047999 -0.040277 -0.17734 0.302 -0.21849 0.33625 -0.041943 -0.19039 -0.037541 -0.018568 0.0824 -0.07413 -0.19751 
qokchedy 0.31927 0.41331 0.40255 0.31492 -0.061705 -0.18326 0.56785 0.238 0.22794 0.33708 -0.172 0.26138 -0.38279 -0.21037 -0.35559 -0.30995 0.60591 -0.36847 -0.052581 -0.20756 -0.26284 -0.15898 -0.1653 0.46136 -0.056665 0.35212 0.44891 -0.45892 0.414 0.03017 0.52907 0.53339 -0.32202 0.022237 0.46032 -0.16941 0.37808 0.43388 0.48439 -0.64886 0.24451 -0.066479 0.67877 -0.58072 -0.44198 -0.63865 -0.54115 0.049429 0.037165 0.31565 
qo 0.50572 0.28373 0.26861 -0.37022 -0.081084 -0.24562 0.39787 -0.47932 -0.026511 0.033605 0.00099266 0.091634 -0.12983 0.070937 0.18797 -0.35466 0.050135 0.35252 0.043725 -0.35837 -0.12685 0.21152 -0.12581 0.6303 0.49854 0.19009 -0.12064 0.22616 -0.32089 -0.16137 -0.08408 0.19772 -0.11188 0.13197 -0.23593 -0.30138 -0.45442 0.45624 -0.36289 0.56491 0.031501 0.6567 0.10599 0.1872 -0.097382 0.11796 -0.072613 0.011604 0.3155 -0.32525 
chos -0.020486 -0.47476 0.098774 -0.73093 -0.24503 -0.20762 0.29449 -0.043196 0.38452 -0.14982 0.20401 0.17962 -0.19861 0.22018 -0.24949 -0.28867 1.2839 0.0051 -0.026827 -0.093059 0.33126 -0.63705 -0.062306 0.31908 -0.0041649 0.36219 0.1777 -0.56481 0.19841 0.18689 -0.087953 0.32791 -0.14803 -0.090676 -0.24119 0.95312 -0.47275 0.2214 0.45864 -0.84803 -0.28317 -0.69892 0.17255 0.00099334 -0.27992 0.14384 -0.24718 0.51117 0.48785 0.89246 
chedaiin 0.14216 0.32883 -0.13391 -0.11411 -0.42048 -0.45389 0.89356 0.45426 -0.22504 0.19501 0.34118 -0.23029 -0.24523 0.31857 -0.15618 0.68409 0.2132 -0.2005 -0.0042532 -0.02531 -0.1811 0.55864 -0.45701 0.2733 0.59736 0.19701 0.66329 0.15649 0.55975 -0.0075237 0.32772 0.60337 0.35067 0.0135 0.44508 0.36078 -0.03404 0.033548 0.36027 0.18306 -0.33764 0.43395 0.28987 0.27156 -0.052903 0.010588 0.032102 -0.084949 -0.3915 0.58272 
oraiin 0.35813 0.12431 0.083584 0.30041 0.17509 -0.46066 0.56693 0.32678 0.12579 -0.041671 0.18283 0.16292 0.1327 -0.26077 0.6293 -0.084502 -0.2346 0.27888 -0.25725 0.69869 -0.29428 -0.11553 0.038489 0.083289 0.25363 0.39827 -0.24442 -0.26769 0.18236 0.041685 -0.25562 0.44089 0.33691 0.35586 0.4792 0.77571 -0.22378 0.87187 -0.20502 0.20998 -0.3623 0.35131 0.53393 -0.37342 0.36968 0.5091 -0.088671 -0.11899 0.65668 0.32033 
shar 0.049252 -0.52978 0.11462 0.63176 0.44766 0.16214 0.76326 -0.009914 -0.12765 -0.48802 0.46988 0.27537 0.16099 -0.18654 0.58174 -0.23799 -0.31132 0.39851 0.4428 -0.31909 -0.49368 -0.13256 0.48086 -0.37972 0.54118 0.36543 -0.11091 0.15812 0.052661 1.0116 -0.21591 0.12765 0.075219 0.26539 -0.55869 0.71236 -0.48149 -0.15396 0.58833 -0.44371 -0.6178 -0.33863 0.50436 -0.29221 -0.38503 -0.13581 0.19183 0.38421 -0.12936 0.13799 
okeody 0.1295 -0.17447 -0.62961 -0.10315 0.48616 -0.4144 0.51974 0.34915 1.1919 -0.25329 -0.13347 0.23944 -0.52084 -0.46012 -0.35169 -0.084458 0.10649 0.091976 0.22502 -0.012171 0.41741 0.25986 -0.25446 -0.12428 -0.31157 0.15429 0.82308 0.0047927 0.68879 0.60028 -0.30312 0.48915 0.20247 0.30344 -0.58563 0.98326 0.080743 0.42661 -0.40381 0.27542 0.74349 0.30286 -0.14998 -0.21237 -0.31302 -0.63156 -0.46401 0.55401 0.37743 -0.21452 
qokor -0.085148 0.27927 0.43928 0.20035 0.17475 -0.07292 1.4617 -0.24151 0.51997 0.73077 0.089347 0.30639 0.14004 0.12868 0.94401 0.64278 0.34276 0.076124 0.47934 -0.33129 -0.36073 0.23008 -0.09038 0.32091 -0.38213 0.7159 0.09382 -0.3778 0.066345 -0.029794 0.093539 0.093262 0.28605 0.21287 -0.091837 0.040975 -0.76337 0.026923 0.2696 -0.0040318 -0.20895 -0.15653 0.59205 -0.10895 -0.62447 -0.35682 -0.93342 -0.50517 -0.48155 -0.77902 
oteody 0.39299 -0.64221 -0.48731 -0.30803 0.40809 -0.42021 0.7835 0.42665 0.15628 0.031588 -0.21071 0.19989 0.0015357 -0.041286 0.29098 0.61229 0.18995 0.20918 0.61719 -0.19053 0.43544 0.17792 -0.17087 0.29006 -0.1976 -0.0098114 0.093683 -0.077677 0.21432 0.40817 -0.25123 0.75513 0.32151 -0.011382 0.26121 0.58377 -0.2299 0.14563 -0.88354 0.21321 -0.48392 0.39728 0.11036 0.22397 -0.87512 0.17178 -0.62904 0.6073 -0.060525 -0.027506 
chees 0.11802 -0.097223 0.26449 -0.21178 -0.19506 -0.49061 -0.26379 0.57064 0.28453 0.011914 -0.66872 0.23918 -0.089598 -0.015995 -0.17049 -0.35442 0.13706 -0.1816 -0.036255 -0.00023586 -0.17862 0.39041 0.61674 -0.041228 0.10926 0.66847 0.35466 0.051036 0.57522 -0.057097 0.26196 0.087544 -0.4393 0.52468 0.11389 0.57388 -0.22674 0.14946 -0.1452 -0.19957 -0.97234 -0.21614 0.0073415 -0.10322 0.057748 0.11963 0.037202 -0.070161 0.61896 -0.44865 
otchey 0.2271 0.6955 0.33547 0.196 -0.19184 -0.080687 0.097323 0.1086 0.052916 0.56335 0.48567 0.38711 -0.50748 0.12194 -0.37342 0.01964 0.24829 -0.54195 0.35666 -0.067146 0.20675 -0.3712 0.78403 0.31569 0.87827 0.57011 -0.097532 -0.17897 -0.36222 -0.40605 0.39895 0.53644 0.13964 0.1087 -0.71009 0.123 0.075628 -0.27799 -0.33426 -0.67588 -0.018626 0.32053 0.10376 0.15362 -0.29424 0.14809 -0.37855 -0.29793 1.1154 -0.039512 
chckhey 0.43637 -0.42873 -0.21632 -0.040812 -0.66494 -0.1798 0.38266 0.2218 0.37834 0.06416 0.43523 -0.29865 -0.54239 -0.077563 0.50075 -0.37096 -0.125 -0.13471 -0.18944 0.079757 -0.36465 0.29472 -0.16214 1.087 0.98051 0.12453 -0.59171 -0.56232 -0.053224 0.090115 0.41683 0.5833 0.28961 0.63286 0.63242 -0.47429 0.38157 0.40954 -0.38115 -0.099731 -0.16474 0.53524 0.22284 -0.0188 0.22003 0.13648 0.62777 0.63585 0.079326 -0.25629 
tchedy 0.43496 0.29492 -0.079811 0.33108 0.22327 -0.1504 0.36285 0.26387 0.018095 0.4915 -0.21624 0.19659 0.15462 0.23721 0.61102 -0.12805 0.075516 -0.25462 -0.31501 0.13096 -0.179 0.47312 0.24423 0.62896 0.7079 0.22243 0.47259 -0.015748 0.34225 0.035854 0.31246 0.61067 -0.54212 0.2471 0.50969 1.0132 -0.050105 -0.2455 -0.12976 -0.11506 -0.29053 0.68498 -0.080551 -0.51119 -0.23714 -0.55598 0.059289 -0.47135 0.035801 0.25925 
cheal -0.40476 -0.30009 0.010119 0.33113 0.48957 -0.52037 0.50448 -0.19808 -0.12793 -0.2153 0.4717 0.47764 -0.50463 0.21033 0.017913 -0.0038047 0.18187 0.20034 -0.24037 -0.46002 0.012261 0.22193 -0.46438 0.47881 0.5842 0.12836 0.033184 0.85123 0.52308 0.46245 -0.038934 0.035117 -0.64402 -0.099602 -0.1154 0.32561 -0.13222 0.21854 0.66318 0.063171 0.25196 -0.15242 0.29301 0.16286 0.15711 0.32848 -0.41073 0.17521 -0.092234 -0.011413 
checthy 0.055794 -0.2763 0.33062 0.38746 -0.77597 -0.7718 0.22156 0.23693 0.10684 0.24834 -0.34157 -0.22119 0.65003 0.67308 0.62651 -0.16129 1.0679 0.20769 0.52649 -0.49586 0.18183 -0.07831 0.30387 1.0103 0.54673 0.51139 -0.3411 0.078831 0.0833 -0.16199 0.40907 0.66956 0.007223 0.3232 0.43904 0.19732 0.11799 -0.060685 0.21721 -0.049246 0.62539 0.78648 0.40247 0.62939 0.16501 0.2692 0.42012 0.51248 -0.18649 -0.099777 
kchy 0.13592 -0.1744 0.069156 -0.72745 0.82122 0.21816 0.079166 -0.32816 0.57018 0.13906 0.09856 0.50666 0.12552 0.35429 0.31949 0.81988 0.60081 0.68163 -0.7167 -0.51519 -0.59093 0.60643 0.078862 0.034648 0.31987 -0.062104 0.14701 0.24477 -0.37278 0.2294 -0.074177 0.84738 -0.26832 0.39986 -0.50683 -0.47922 -0.97315 0.36772 -0.55608 0.075792 0.15529 -0.58637 0.82428 -0.038352 0.15628 -0.028681 -0.31069 0.12468 0.73823 0.084508 
aiiin -0.059254 -0.30256 -0.35992 -0.083496 -0.19542 -0.40187 0.59124 0.0696 0.060057 -0.61586 -0.22165 -0.32873 -0.43355 -1.2084 -0.11984 -0.90387 0.057307 0.28283 0.24666 0.086106 0.28185 0.41389 -0.024003 0.022553 0.63852 0.31146 -0.0094164 0.10999 -0.30113 -0.22485 -0.045262 -0.0581 0.20468 -0.17962 0.26465 0.31734 -0.34696 0.11333 0.33364 -0.219 -0.32937 0.034692 0.69378 -0.31751 -0.25039 0.021844 -0.34538 0.029544 0.49275 0.053493 
okor 0.29176 0.090394 0.7365 -0.60087 -0.77002 -0.49035 0.62031 -0.30187 0.51066 -0.18796 0.33434 -0.122 -0.056755 0.47215 -0.43945 0.083066 -0.31763 0.47451 0.19072 0.13688 0.58491 -0.16867 0.12967 0.20663 -0.36037 0.45948 -0.33425 0.30311 -0.088219 0.92396 -0.30364 0.41763 0.91239 0.62758 0.028418 -0.088164 -0.93811 -0.52206 -0.081479 -0.22042 0.074586 -0.11012 -0.076133 -0.068234 -0.30294 0.067287 -0.42928 0.31732 0.47159 -0.33753 
shcthy 0.20515 -0.26537 0.70429 0.22389 0.20646 0.26197 -0.076584 0.026354 0.1166 -0.37955 -0.81703 0.0077313 -0.092361 0.76956 0.13024 -0.99614 0.35804 0.17191 0.035007 -0.72561 -0.34916 -0.0083472 0.38783 0.55765 0.68915 -0.035173 0.56252 0.31144 -0.47233 -0.18206 -0.40447 0.48885 -0.30024 0.8461 -0.16417 -0.50573 -0.04971 0.092281 0.18017 -0.35273 0.4197 0.42746 0.22524 -0.12427 -0.57081 -0.33655 -0.78355 0.69714 0.45173 -0.41979 
okchey -0.62993 0.31181 -0.30764 -0.15339 -0.2813 -0.48347 -0.44776 0.31882 0.15582 0.45347 0.037878 0.55279 -0.80568 0.16247 -0.36956 -0.5788 0.66836 0.09387 0.15429 -0.57523 -0.036104 0.13903 -0.029185 0.11566 0.71333 -0.50024 0.087153 -0.29368 -0.0023672 0.47466 0.014103 0.79025 0.17145 0.046182 -0.36918 -0.12302 -0.21258 0.18078 -0.02542 0.092908 0.25312 -0.036928 0.84584 0.14114 0.078329 -0.61508 0.77252 0.038316 0.052912 -0.39435 
qokeody 0.41651 0.6265 -0.070108 -0.42612 -0.41841 -0.32915 0.14059 0.71555 0.36489 -0.32327 -0.35791 0.69049 -0.063696 0.020038 0.32203 -0.35638 0.81618 0.32765 0.04783 0.24117 0.25109 -0.041521 -0.078988 0.63735 -0.64362 -0.10363 0.08549 -0.097047 -0.013591 0.21345 -0.1289 0.58722 -0.1871 0.77591 -0.59444 0.83319 -0.59711 1.1561 -0.4523 -0.065489 0.10052 0.61555 -0.3158 -0.23584 0.070648 -0.5967 -0.49847 0.58517 0.16888 -0.25031 
okchy 0.092144 -0.059886 -0.13972 0.24733 0.78713 -0.26169 0.36507 0.1186 -0.046223 -0.042275 0.25606 0.49692 -0.39592 0.2132 0.039811 -0.090394 0.44162 0.42517 0.060268 -0.61667 0.21732 0.5189 -0.19759 0.11369 0.62792 -0.44634 0.74255 -0.48543 0.079512 0.30812 -0.38301 0.37219 0.56934 -0.20653 0.16853 -0.54252 -0.32886 0.032469 -0.16815 -0.10556 0.41684 -0.10338 0.11981 -0.012294 0.18093 0.49487 -0.28234 0.34777 0.72026 0.4008 
ykar -0.20224 -0.027704 0.29609 0.086277 0.26675 -0.27288 0.68851 -0.69365 0.0031338 -0.18625 -0.55809 -0.10514 -0.28832 -0.53218 0.2137 0.32319 0.20579 0.55273 -0.30062 -0.4498 0.16626 1.1311 -0.39075 0.48917 -0.10558 -0.50777 0.18831 0.054429 0.19808 0.31627 -0.062742 0.42539 0.54459 -0.14137 0.16995 0.75735 0.10532 0.19487 0.22736 0.010019 0.17607 -0.94143 0.043524 -0.43917 0.19608 0.18875 0.026623 -0.026554 0.5283 0.024456 
ai!n 0.099474 0.022432 0.31955 0.049637 0.24326 -0.41746 1.0395 -0.51934 0.14107 -0.084528 0.47761 -0.32851 -0.02744 -0.21356 -0.35808 -0.20776 -0.28419 0.089674 0.0055528 -0.35164 -0.25265 -0.19164 0.23868 0.50967 0.53494 -0.088701 0.15433 -0.11423 0.28365 0.19977 -0.13216 0.11071 0.076309 0.25184 0.029858 0.57283 0.37086 -0.10449 -0.0066589 -0.10765 0.17913 0.28074 0.10963 0.16832 0.20956 -0.39052 -0.0019521 0.2677 -0.026713 0.31857 
olor 0.66664 0.47006 0.75397 0.45991 0.078679 -0.8554 0.77982 0.043863 -0.34067 0.081166 0.017083 0.25424 0.3383 0.17654 -0.28344 0.024718 -0.13927 0.14899 -0.10285 -0.73035 -0.066831 0.042197 0.2036 0.27551 0.43089 0.33487 -0.39202 -0.1566 -0.77575 1.3798 -0.54114 -0.063145 0.1918 0.56992 -0.39804 0.20922 0.3597 0.079181 -0.017377 0.53221 0.046585 0.34651 0.80857 -0.31865 0.087764 0.00047672 0.51836 -0.11897 0.32888 0.54106 
olkedy 0.70744 0.10396 0.31434 0.76478 -0.2703 -0.47186 0.86621 -0.36139 0.19503 0.17964 -0.35814 -0.1852 0.014509 0.35432 0.16198 -0.055211 -0.81882 0.05868 0.63024 -0.77323 0.09121 1.0164 -1.3676 0.45922 0.16398 0.93926 0.63345 0.65816 -0.32271 -0.17863 0.53086 0.093877 -0.60235 0.35362 0.21504 -0.18023 0.16165 0.11113 -0.0041195 -0.43875 -0.28462 0.3171 0.12907 -0.28074 -0.038632 -0.52471 -0.071242 0.35714 0.063911 0.18507 
pchedy 0.53122 0.26852 0.79257 0.47988 1.0144 -0.40232 0.36286 0.29557 0.18081 -0.063076 -0.75161 0.39862 -0.47472 0.1811 -0.11815 -0.51517 -0.46384 -0.63245 0.36766 0.19318 0.22819 0.4022 0.54449 0.3779 0.53903 0.68075 0.74644 0.084786 -0.60566 -0.18004 0.13211 0.25966 -0.097722 -0.31686 -0.41148 0.90728 0.24242 0.21514 -0.19124 -0.70916 0.1616 0.81443 0.50286 -0.47983 -0.0098111 -0.56029 0.11191 -0.2301 0.20334 -0.040078 
ckhey 0.20282 0.14037 -0.38417 -0.25861 -0.14484 0.016637 -0.28078 -0.42832 0.67474 -0.38329 0.67251 0.10042 -0.02157 -0.094535 0.036866 -0.21658 1.0749 0.057368 0.30218 -0.070982 0.57334 0.75507 -0.58619 0.81726 0.32896 0.30276 -0.57282 -0.35487 0.58707 0.39015 0.33537 0.24217 0.40633 -0.39456 -0.59708 0.27935 -0.7681 0.44009 0.020522 -0.41024 0.09878 0.028065 0.01021 -0.43497 0.31975 0.38265 -0.21552 0.74376 0.35983 -0.57192 
qopchedy 0.26683 -0.086282 -0.023913 0.85202 0.24771 -0.61077 1.1968 -0.37071 -0.064039 0.25398 -0.10057 -0.05417 -0.69413 0.31879 0.099881 0.048281 0.0072756 -0.18154 -0.20475 0.74554 0.30562 0.42647 -0.36228 0.099423 0.24127 1.1854 0.63801 -0.51647 -0.51286 0.059779 -0.27357 1.2819 -0.055766 -0.0017306 0.69218 0.64532 -0.19769 -0.10289 0.19213 -0.75741 0.59706 0.36103 -0.044015 -0.17236 -0.59114 0.4481 -0.26696 0.13399 -0.98948 -0.31488 
kal 0.045405 0.27721 0.34975 0.39895 0.81207 0.0087737 -0.058119 0.28745 -0.28213 -0.11717 -0.41579 0.57925 -0.44751 -0.16587 0.19839 -0.20394 0.27236 0.338 0.49463 0.13339 0.25231 0.97784 -0.028885 0.28127 0.435 0.23032 -0.22509 0.10556 0.32367 -0.13719 -0.19903 0.59905 0.31951 -0.095585 -0.37691 0.65097 -0.57481 -0.50317 -0.58161 -0.14579 0.068503 -0.217 -0.12082 0.45996 -0.2589 0.064959 0.4581 -0.08962 -0.013252 0.1688 
cheos -0.19084 -0.28073 -0.19168 -0.44732 0.21826 -0.67561 0.51935 -0.14612 0.72998 0.29597 0.21935 -0.15127 -0.224 -0.032878 0.46884 -0.29725 0.25495 -0.12515 0.69712 0.045128 0.25465 0.11378 0.12973 0.37534 -0.35437 -0.68148 -0.055142 -0.20352 0.5881 -0.89542 -0.49561 0.55031 0.11121 0.37792 -0.046309 0.46939 -0.27285 1.0532 -0.060593 -0.19732 -0.13454 0.028985 0.49354 0.379 0.55937 -0.057879 -0.19261 0.34833 0.19087 -0.44256 
otchedy 0.5384 0.49501 -0.050356 -0.038679 -0.1604 -0.10665 -0.20519 0.19168 -0.92126 0.082152 -0.0089701 0.38473 -0.22032 0.090963 -0.082013 0.1762 -0.082254 -0.36565 -0.53188 -0.39644 0.24291 -0.051882 -0.14005 0.55649 0.6782 0.18487 0.0020955 0.18516 -0.30861 0.13783 0.056957 0.69533 0.43562 0.89644 0.69662 0.41314 0.23945 0.55204 -0.20327 -0.11055 -0.11179 0.30808 0.51519 -0.11376 -0.84917 -1.0136 -0.35894 0.067491 0.24796 0.38557 
lkar 0.56163 -0.010536 0.30228 0.092837 0.088335 0.40563 0.11208 -0.25444 -0.069414 0.60233 -0.21071 -0.11938 -0.1324 -0.62519 0.44994 -0.79753 -0.20755 0.17301 0.34541 -0.59389 -0.16727 0.22908 0.14862 0.70008 0.60887 -0.26011 -0.21385 -0.24637 0.37965 -0.35922 -0.14992 0.76008 -0.50863 0.40059 0.059126 0.46484 0.69045 0.71964 -0.44519 -0.78488 0.63443 0.11206 1.0139 -0.0984 0.21301 0.35747 -0.54881 -0.15748 0.091947 -0.080048 
chedar -0.5669 -0.04465 0.15065 0.090034 -0.065041 -0.69072 0.3978 0.45173 0.17088 0.04469 -0.25834 -0.567 -0.11149 0.21227 -0.30761 0.22541 0.1403 -0.61868 0.055795 0.091221 0.18606 -0.026388 -0.056948 0.12134 0.32599 -0.088874 -0.14977 0.23173 -0.20192 -0.076669 0.25182 1.1276 -0.15293 0.16188 -0.35779 0.16846 -0.14002 0.69869 -0.19838 -0.34853 0.60155 -0.15658 0.86496 0.3149 -0.27571 -0.58695 0.24043 0.03231 -0.40444 0.15534 
sai!n -0.022058 0.046007 -0.099774 0.66639 -0.10038 0.27917 0.68513 -0.38137 -0.12148 -0.12409 -0.056061 -0.58283 -0.05089 -0.16333 0.090692 -0.20612 -0.1795 0.14893 0.051623 -0.07217 0.33466 0.26852 -0.29644 0.53134 0.8147 0.64992 -0.030548 0.15086 0.26654 -0.21126 0.27021 0.41911 0.16885 -0.28379 0.10205 0.0087669 0.061114 0.42072 -0.2255 -0.29113 0.30862 0.65849 0.51676 0.019511 -0.02125 -0.10933 0.22822 0.6948 0.16939 -0.092791 
dchy 0.67647 -0.46127 -0.31047 -0.3646 0.17049 -0.52255 0.16525 -0.17249 0.85418 0.26103 -0.041698 0.65225 -0.0091461 0.24113 0.12072 -0.33394 0.58148 -0.52869 0.15919 -0.58167 -0.16681 -0.033478 0.77264 0.022287 0.16065 -0.024228 0.20963 0.14628 -0.39484 0.52418 -0.29358 0.92398 -0.13648 1.162 -1.1208 -0.68229 -0.53702 0.0028999 -0.40117 0.36804 -0.22849 -0.64977 -0.041983 -0.27051 0.25376 1.0291 0.23777 0.60622 0.74236 0.46219 
daly 0.25901 -0.128 0.13398 0.20899 0.039805 0.0028939 0.035018 0.016397 0.75943 -0.96877 -0.52654 0.62658 -0.5081 -0.19484 0.77688 0.29465 -0.27677 -0.025237 0.7695 0.075532 1.0311 -0.12858 -0.19734 0.35223 0.65703 -0.38006 0.29673 0.38504 -0.26423 0.23161 0.10143 0.71618 -0.6664 0.38386 0.63124 -0.089852 -0.58904 0.30633 -0.16469 -0.36637 0.16997 -0.45734 0.77727 0.16029 0.056657 0.63912 -0.1163 -0.12201 0.014631 -0.10627 
dchedy 0.21949 0.62062 0.73178 0.43172 -0.085503 -0.55946 0.6049 0.19826 -0.1992 0.43419 -0.64746 0.1053 -0.2164 0.60461 -0.037322 0.89598 -0.031046 0.48032 -0.4612 -0.24369 0.17587 0.43165 -0.57631 0.51378 -0.25159 0.72626 0.66971 -0.0056267 0.39388 -0.71956 -0.028731 0.46455 -0.06973 0.50446 0.30973 -0.10626 -0.25709 -0.38366 -0.69976 -0.75017 -0.14324 0.022096 0.9072 0.94256 -0.052996 0.10605 0.64106 -0.33513 0.067276 -0.085155 
otchol -0.24634 -0.094567 -0.88232 0.019306 0.1577 -0.24301 -0.023349 0.56571 0.38237 -0.1104 0.2469 0.74851 -0.8568 -0.12174 0.84863 0.4529 0.47416 0.22618 0.13577 0.22088 -0.42133 0.70599 0.10925 -0.085722 0.20714 0.13604 0.25497 0.14334 -0.26872 0.41355 -0.92062 0.072749 0.021494 0.43117 -0.26976 -0.48746 -1.6171 0.60122 0.49057 -1.4425 -0.16471 -0.69967 -0.34843 -0.8483 0.2312 0.13483 0.26418 -0.040139 1.6081 0.45685 
opchey 0.76485 0.11222 -0.58003 0.7077 0.41278 -0.23603 0.4513 -0.0020842 0.5581 -0.4723 -0.46551 0.24234 -0.80074 0.21864 -0.28474 0.065416 -0.1114 0.67619 0.18711 0.30031 0.014505 0.071678 1.0774 0.64231 0.75122 0.2725 -0.15392 -0.097678 -0.13723 -0.072671 -0.11135 0.33292 -0.11912 0.72256 0.026624 -0.6769 -0.16653 0.043945 0.38642 -0.30285 -0.14248 0.30767 0.62983 -0.34793 -0.54686 0.13104 -0.58359 0.056594 0.14967 0.26277 
qokchey 0.093239 -0.89444 0.26261 -0.41394 0.31415 -0.22216 0.49365 -0.19986 -0.66569 -0.49945 0.34303 0.92309 -0.46095 -0.26803 0.73045 -0.065189 0.80741 0.188 0.77284 -0.081442 0.0014379 0.12119 0.79348 0.76579 0.24237 0.2992 0.16819 -0.12222 0.23227 -0.026168 0.26861 -0.074234 -0.33733 0.16579 0.63699 0.27588 -0.69615 0.4344 -0.10262 -0.31462 0.024391 0.12714 0.95643 -0.29856 -0.025967 -0.32008 0.0022397 -1.1066 0.64651 0.40226 
otchdy 0.077065 0.0095769 0.80931 0.15987 0.45937 -0.4132 0.2186 0.858 -0.4524 0.38292 -0.19231 -0.26272 -0.40524 -0.09045 -0.15523 0.5872 -0.028069 -0.33748 0.47272 0.083459 0.55584 -0.47359 -0.21368 0.17346 0.15263 0.27071 0.25304 -0.33055 -0.060396 -0.3005 -0.3427 0.96058 0.21667 0.70436 0.22031 0.027888 -0.10362 -0.030218 -0.23705 -0.38404 0.32338 -0.079158 -0.13228 -0.80637 -0.32968 -0.74884 -0.11572 0.68542 0.4721 0.18208 
okam -0.36548 -0.05432 0.47448 0.43814 0.077691 -0.33222 0.14529 0.17362 0.76774 0.45804 -0.063065 -0.11293 -0.60411 -0.33667 -0.69992 0.20654 0.51193 -0.16058 -0.58061 -0.41361 0.13003 0.070017 0.53122 0.95895 -0.2136 0.55927 -0.16008 -0.049294 -0.20782 0.44686 0.39963 -0.17625 0.15608 1.3192 0.73734 0.83851 0.0060951 -0.2629 0.13369 -0.35508 -0.39801 0.11887 -0.070599 0.28177 -0.089 0.22928 -0.0029493 0.42115 -0.027114 -0.25801 
yteedy 0.60253 0.14607 0.45398 -0.16123 0.19793 -1.129 -0.13965 0.12773 0.17162 0.24184 -0.70364 0.48077 -0.49055 0.23464 -0.092568 -0.08107 -0.013706 0.21876 -0.25818 -0.72804 0.039276 -0.32875 0.12185 0.79287 -0.4926 0.47104 -0.096323 -0.17667 -0.19984 -0.40934 -0.30126 0.80952 -0.28154 0.11593 -0.015019 1.0861 -0.17211 0.0269 -0.31837 0.18414 -0.37756 -0.089132 0.79469 -0.016017 -0.48955 -0.21816 -0.02891 0.14696 -0.28259 0.50921 
oiin -0.60173 0.37259 0.32354 -0.13865 -0.052971 -0.35368 0.55988 0.50287 0.39193 0.10374 0.10768 0.035467 -0.63261 0.19863 -0.52904 0.29301 0.42801 0.39983 -0.090249 0.059657 -0.3515 0.34626 -0.41758 -0.37644 0.52495 0.69265 -0.12554 0.2149 0.08001 0.23862 -0.085317 -0.49941 0.29171 -0.068592 -0.1631 0.35336 -0.27841 -0.26263 -0.11501 -0.35693 0.29005 -0.60199 0.31238 -0.02667 0.023219 0.020715 -0.0057752 0.453 0.1363 -0.092768 
qotai!n 0.15774 0.37166 0.58827 -0.026014 -0.38432 0.097992 0.31805 -0.23528 -0.64178 -0.1994 0.04451 0.21424 0.39524 0.38557 0.071312 -0.36057 -0.31277 0.02513 0.39345 -0.17542 -0.42657 0.061339 0.046736 0.36186 1.0821 0.40775 0.019291 0.51533 -0.10782 0.022254 -0.033174 0.65836 0.40903 0.68655 0.054913 0.1758 -0.0091944 0.24973 -0.21714 -0.48441 0.03726 0.51934 0.1631 0.72235 -0.74272 -0.19187 -0.10719 -0.10057 -0.65436 -0.70497 
olchey 0.66006 0.18134 0.11628 -0.30406 0.3258 -0.74741 0.81565 0.4693 0.79646 -0.49569 -0.35483 0.56655 0.50975 0.75764 0.61786 0.33565 0.04782 0.019551 1.1089 -0.51882 -0.71258 0.16662 0.0058847 0.70861 0.29337 -0.12888 -0.74752 0.50247 0.053553 -0.0037094 0.091932 0.38787 0.26877 -0.073118 0.48251 0.24355 0.60456 -0.35441 -0.95049 -0.25137 0.51636 0.042012 0.78736 -0.087631 -0.21612 0.070398 0.14254 0.39125 -0.12597 -0.12815 
tchy 0.4522 -0.31528 0.12512 -0.33675 0.35436 0.3252 -0.26919 0.14641 0.35942 0.38995 -0.20911 0.13019 -0.097983 -0.012453 -0.00055166 -0.032214 1.0084 0.043556 -0.32852 -0.17243 -0.32018 0.67449 0.51087 -0.58002 0.80218 0.58702 0.51186 0.43095 0.35044 0.01769 -0.12764 0.63177 -0.51064 0.90326 -0.25092 0.4078 -0.59607 -0.35807 -0.25202 0.47838 -0.11353 -0.12244 0.13348 -0.10014 -0.097227 0.3234 -0.048171 -0.055136 0.91396 -0.83438 
lkedy -0.64178 0.004446 -0.32889 1.0495 -0.2043 -0.73805 0.11008 0.066645 -0.12937 -0.20628 -0.44353 0.67479 -0.38265 -0.1422 -0.041691 -0.46053 0.40337 0.22262 0.062397 0.1757 -0.24168 0.31031 -0.62778 0.88035 0.10175 0.38572 0.69637 -0.3905 0.51436 -0.2924 0.28514 0.72626 -0.66017 0.7803 -0.025904 0.12666 0.39361 0.89612 -0.87501 -0.46388 0.42882 0.30109 0.22138 0.33004 0.19782 0.40977 0.16307 0.63702 -0.33208 -0.23171 
oldy 0.39451 0.79455 0.45229 0.55128 0.15782 -0.31482 0.75227 0.5647 -0.079858 0.060959 -0.16677 0.34281 -0.32998 -0.06303 0.55642 -0.25774 0.59315 0.16723 0.015537 -0.077252 0.26714 -0.66238 -0.47877 0.51963 0.24433 0.15922 -0.12642 0.17258 -0.75035 0.50002 0.080209 0.77392 -0.43297 -0.16751 -0.75017 -0.021408 0.5393 -0.0015096 -1.2689 -0.68833 0.74499 -0.45193 0.07497 -0.70513 0.46376 0.12627 1.0507 0.83128 0.89676 -0.49689 
qokeeey -0.11323 -0.44581 -0.2013 -0.29554 -0.22028 -1.1048 0.085624 0.14373 -0.2476 -0.44666 -0.21499 -0.21967 0.38134 -0.34869 0.5114 -0.42844 0.24399 -0.41386 0.090862 0.0042175 -0.70934 -0.091799 -0.2322 0.81085 0.17906 0.42146 -0.41247 -0.10961 0.5338 0.42744 0.027584 0.53727 0.18987 0.4132 -0.30268 1.0582 0.92442 0.3442 0.31514 -0.50197 0.17994 0.094345 0.25088 0.40515 0.26493 -0.14526 -0.60958 0.15013 0.69617 -0.018246 
ykeedy -0.17672 0.21382 0.36209 0.26848 -0.10868 -0.30747 0.55752 -0.071189 0.22798 -0.079382 -0.98783 0.37362 0.32121 -0.011912 -0.57041 0.13468 0.28952 0.62495 0.39068 -0.37035 0.05792 -0.36344 -0.17326 0.93217 0.43473 0.76665 0.54982 0.080921 0.46111 -0.9702 -0.01302 -0.10625 0.022899 -0.057539 0.81876 0.60723 0.3334 0.31028 -0.15176 -0.76027 0.21592 -0.36198 0.13572 0.52709 -0.095343 -0.78677 -0.13874 0.76467 0.40152 -0.48721 
aly -0.43021 -0.085894 -0.19519 0.12914 -0.047554 0.13467 -0.035261 0.28454 0.25835 -0.36198 -0.29089 -0.34202 -0.50169 -0.33957 0.16103 0.29114 -0.40356 0.092719 0.93496 -0.74065 0.50593 0.07969 0.29416 0.7025 0.48102 -0.019363 0.11476 -0.040007 0.54948 -0.60194 -0.084442 0.30011 -0.59633 0.52582 0.042214 0.65631 -0.44911 0.12745 -0.29957 -0.42755 0.38453 -0.36003 -0.026794 -0.076697 -0.28731 0.061902 0.15663 0.69 0.0046249 -0.011186 
dchor 0.057843 1.0039 0.50984 -0.93778 0.4852 0.047433 -0.092494 0.096714 -0.23255 0.46826 0.52711 -0.0012262 -0.61457 0.56472 -0.17492 -0.30124 0.28796 0.021095 0.53171 -0.10646 -0.12421 0.74774 0.25315 0.47903 -0.023931 0.5038 0.69557 0.81732 0.31622 -0.4296 -0.73133 0.49535 0.2391 0.20295 -0.20314 -0.15397 -1.2064 0.70038 0.38668 0.054055 0.11646 -1.2946 0.15574 0.1825 0.17786 0.7801 -0.45637 -0.26066 1.84 -0.30801 
she 0.17563 -0.25753 0.22836 -0.43011 -0.066244 -0.14249 0.085347 -0.45817 0.2097 0.27703 0.29107 -0.45665 0.51988 0.11993 0.19648 0.40988 0.11708 0.49963 -0.30988 -0.06707 0.25359 0.4145 0.032894 0.1235 0.20481 0.6958 -0.84724 -0.10054 0.28768 0.81765 0.39367 0.31834 0.2597 0.81273 -0.43057 0.55938 -0.52651 0.22925 0.19446 0.033565 0.77555 -0.10786 0.37615 -0.81288 0.63082 -0.72632 0.80068 0.4261 0.51063 -0.058003 
qotor 0.56048 0.3486 0.30869 0.30985 -0.5294 0.42844 -0.17622 0.26294 0.25968 0.0068302 -0.54725 -0.60523 0.077469 0.2864 0.33395 0.44607 0.24233 -0.42504 -0.11995 -0.55749 -0.55805 0.55032 0.21319 0.16864 0.9353 0.40159 -0.064168 -0.78383 0.2084 -0.050418 -0.93495 0.54319 0.56248 0.76379 0.12604 -0.47115 -0.26714 0.64322 0.052086 -0.45336 0.010522 -0.60239 0.10613 -0.98727 -0.79614 -0.088205 -0.13183 -0.53102 1.2126 -0.30936 
os -0.15759 -0.39658 -0.34114 -0.44686 -0.010682 -0.18617 -0.047156 0.0096803 0.68121 -0.11809 0.42958 -0.33928 0.23668 -0.21793 0.22912 -0.22779 0.35879 -0.038146 0.29756 -0.27625 -0.00952 0.15918 -0.52243 0.49445 0.2563 0.14282 0.444 -0.071168 -0.43097 0.73834 -0.51609 0.21069 0.26906 0.16418 0.22688 0.64074 -0.34986 -0.038968 0.44866 0.081401 -0.20576 -0.51297 0.039771 -0.43555 -0.38391 0.28402 -0.34742 0.75155 0.41878 0.43984 
kor 0.14924 -0.0090149 0.10473 -0.55379 0.51965 -0.1647 0.56139 0.031388 1.4529 0.23388 -0.40605 0.62343 0.064132 0.30371 0.30957 0.6187 -0.27854 -0.20801 -0.28167 -0.40886 -0.053947 0.90498 -0.34405 -0.14142 0.21056 0.73901 -0.5246 -0.086976 0.013304 -0.20708 -0.15417 -0.058014 0.55776 0.12238 -0.18407 0.91461 -0.60267 -0.87608 0.048415 -0.078191 -0.47485 -0.47862 0.063607 0.11051 1.009 -0.28477 -0.18839 0.20365 0.74123 -0.093378 
yteey 0.29544 -0.3589 0.17279 -0.42403 0.32306 -0.87594 0.10588 0.25398 -0.010819 0.25896 -0.010948 -0.46464 0.2806 -0.2381 -0.093451 -0.22127 -0.21247 -0.037413 -0.07023 0.18113 0.33911 -0.31076 -0.52897 -0.16998 0.14696 0.64053 0.18693 -0.16416 -0.53116 0.22585 0.302 0.63927 0.57965 0.60831 -0.44086 0.49265 -0.39006 0.25389 0.13654 0.17805 0.43014 -0.29524 0.62821 0.087358 -0.42809 0.14065 0.27119 0.45998 0.64701 0.36698 
qokam -0.033782 0.16402 0.27835 1.271 -0.8196 0.059789 0.17212 -0.73473 0.22193 0.2495 0.4035 0.093906 -0.037763 -0.1062 0.33098 -0.50143 0.39418 -0.25077 0.32196 -0.2112 -0.76988 0.48812 0.13034 0.22644 0.023296 0.36739 0.28796 -0.34867 0.43446 0.59555 0.21587 0.76459 0.014754 0.31849 -0.70688 -0.47375 -0.27444 -0.14847 -0.82019 -0.9472 0.11063 -0.1299 0.55346 0.16119 0.19336 -0.45379 0.71172 0.13265 0.10942 0.45616 
yty -0.35161 -0.27554 0.29903 -0.0065639 -0.47459 -0.25767 -0.10542 0.86587 -0.40919 0.5339 -0.0258 0.93598 0.036389 -0.33513 -0.02315 0.19676 0.3485 0.46389 0.015303 -0.46625 0.34451 0.10068 0.15289 -0.20388 0.54448 0.62895 -0.58399 0.17876 -0.90191 0.043064 -0.77172 0.26802 0.58741 1.011 -1.0634 0.067445 -0.92694 -0.23097 -0.72311 -0.21566 -0.066336 -1.0783 0.19883 -0.85112 0.39076 -0.3559 0.17962 0.35151 0.41075 0.35865 
tor 0.50608 0.53846 0.50817 0.22394 0.14678 -0.13395 -0.068988 -0.038296 -0.14014 -0.073119 0.085672 0.57054 -0.15596 0.24233 0.51608 0.63149 0.33606 -0.03782 0.27887 -0.69378 -0.061089 0.15717 -0.19573 0.13384 0.18413 0.17421 -0.22036 0.094409 -0.21921 0.38498 -0.40721 -0.16923 1.0695 0.95473 0.0042327 0.046685 0.47129 0.36703 0.29233 -0.0053596 -0.82909 -0.32105 0.3519 -0.24462 0.48059 0.055609 -0.38696 0.22351 0.47732 -0.61201 
sy -0.34167 0.80847 0.18719 -0.19257 -0.083923 0.097099 0.70292 0.063896 0.43039 0.64276 0.087371 0.0075247 0.027231 0.60854 0.078706 -0.80841 0.17171 -0.33978 -0.52748 -0.64445 0.061399 0.0093614 0.12313 0.4614 0.25938 0.5637 0.35954 -0.058011 -0.1648 -0.45644 0.074638 0.10875 0.13662 0.73297 -0.13625 0.050323 -0.21591 0.60639 0.28631 0.51811 -0.027046 -0.40057 0.051226 -0.65256 0.47352 -0.061936 0.046309 0.34099 0.12343 -0.63391 
okeeey 0.044939 -0.15102 -0.66865 -0.34977 -0.46501 -0.015536 0.46567 0.14744 -0.0013397 -0.11552 0.18087 -0.094843 -0.9929 0.057684 0.44633 -0.085958 1.1122 -0.15017 0.24379 -0.18251 0.13029 -0.24033 -0.25438 0.3164 0.39291 0.28483 -0.32011 0.20173 0.26117 0.084059 -0.59918 0.016835 0.621 -0.18024 -0.3698 0.76065 0.39854 0.067929 -0.45456 -0.72972 0.31005 0.47173 0.55715 -0.23897 0.14419 -0.5223 0.11154 0.38371 -0.053437 0.53247 
olky 0.24773 0.73109 0.19223 0.43279 0.46096 0.07975 0.91147 -0.24133 -0.39059 -0.4631 -1.1016 -0.49602 0.71884 0.23847 -0.32974 -0.75683 -0.80141 0.074666 -0.16815 -0.91454 0.29391 0.067804 -0.024232 0.45779 0.75052 0.00091639 1.1367 0.29077 -0.56512 0.36861 -0.45716 -0.17409 1.808 0.31842 -0.12904 -0.1629 -0.12871 -0.082924 -0.49233 -1.0926 -0.79718 -0.099209 0.60026 -0.19006 0.082877 -0.58017 0.057858 -0.061099 0.6592 0.15519 
chedal -0.11068 -0.68235 -0.25243 0.56422 -1.2603 -0.57677 0.1366 0.056728 -0.16598 0.31511 -0.041812 -0.46227 -0.17909 0.077312 -0.25214 -0.1262 0.24658 -0.41484 -0.76871 -0.068775 1.0114 0.2229 -0.57964 1.074 0.35417 0.67888 -0.20974 0.57869 0.24445 0.33172 -0.29459 0.81474 0.33448 0.65173 0.50798 0.50824 0.15369 0.22262 -0.5786 -0.49967 -0.49736 -0.0068904 0.60311 0.42478 -0.65582 0.5718 -0.94178 -0.65281 0.092375 0.38546 
