997 25
daiin 0.49183 -0.54447 -0.50902 -2.9645 0.99248 3.8378 0.24369 2.016 -0.90506 0.37854 -0.87965 -3.5058 -3.0716 1.295 0.15359 -1.3906 -0.63623 1.5781 0.40818 -0.61011 -1.4278 0.27703 -2.6774 -0.61978 -2.3714 
</s> -2.8339 0.96486 4.0625 5.385 4.0593 -7.3778 -1.0241 3.9282 -0.63224 -0.78205 6.0065 5.4718 -10.246 9.0652 1.0087 8.6278 11.665 -1.4922 0.11631 0.057774 -6.5281 8.2481 -7.47 -5.0934 0.03857 
ol 1.6092 -0.10499 8.4427 8.7995 -1.967 -0.56779 -1.5955 -5.3274 4.4743 2.9901 2.9447 4.0787 -6.6585 -4.8323 -3.6651 4.5068 -1.0366 2.4852 -4.1177 -3.7806 2.3482 0.94272 5.9116 -0.99084 5.5403 
chedy -1.2422 -0.8736 2.5369 -1.853 -2.2128 -5.6021 -2.2877 -0.0030971 4.9945 -2.3048 2.2826 3.4586 2.496 -2.8671 0.89772 8.0085 -1.3344 -2.8575 3.1771 1.9599 1.2591 0.86814 8.387 1.2381 3.4747 
aiin -1.7686 1.9239 1.8682 1.4031 0.28345 -2.9971 2.0512 1.2679 0.41711 -2.1913 -2.3475 0.81946 -0.37077 1.5987 1.2481 -1.3918 4.5773 -4.1127 0.47774 1.5309 -4.8967 1.551 -2.9886 1.3847 -1.5525 
shedy -0.14727 -0.8872 2.499 0.10483 0.28798 -2.3425 -1.9674 -3.4919 4.9726 -2.7628 2.1977 2.8646 1.968 -6.5175 0.18066 8.4859 -3.4154 -0.90932 1.5554 -0.20252 4.21 0.074937 10.404 -1.2245 5.141 
ar -2.3565 2.369 3.1625 6.7497 2.5906 -9.8529 1.9954 0.9868 4.0558 -8.4762 -1.2548 8.9573 3.1872 -4.0282 5.6196 -5.5779 13.103 -9.5706 -4.0555 -0.67146 -1.7166 3.6381 -4.5491 -0.25417 -2.2851 
chol 0.74517 0.58124 -1.5835 -2.0162 0.87068 7.9034 -0.19437 -0.85722 -1.1267 2.9103 0.59131 -7.0822 -8.7183 4.4723 -1.0066 -4.0834 0.1554 7.3752 -1.452 -0.55272 -4.343 0.62019 -5.3701 -0.30183 -3.7799 
or -2.8904 5.28 5.0409 5.944 -3.5391 0.14559 8.1494 -0.78643 6.0217 2.2537 -0.10589 3.7858 -2.953 -1.8742 2.3271 -2.8536 4.9104 -4.1435 -5.6362 -3.9092 -2.9237 6.8107 -6.7885 -1.4823 2.4593 
chey -2.9239 -1.1589 -2.0787 2.5616 1.0762 -2.8389 -1.0793 0.19759 0.86838 0.33832 1.0431 -1.9791 -5.7323 -1.2879 -2.7845 1.6743 -2.5672 2.9674 0.44975 1.2398 0.068386 -1.9561 2.996 2.6094 1.867 
s 0.82183 10.967 -1.0894 0.69306 0.80498 14.424 9.0233 0.98586 -4.419 3.0456 3.912 -11.483 -9.3902 2.0537 2.1882 -11.195 0.74209 3.0249 4.0128 6.1532 -12.419 -7.5379 -15.993 5.2689 -4.526 
dar -0.27507 0.96365 2.0871 -3.732 -1.1433 1.1113 1.191 0.78942 0.83645 -2.1561 1.5196 0.069521 0.089086 -3.376 2.5321 -2.1752 1.6805 -1.2341 -2.3831 -2.5198 1.4414 0.76844 -1.3226 -3.9274 -0.034013 
y -0.052606 -0.304 3.3476 7.1638 10.105 1.2051 -1.064 -1.1836 3.1791 1.2238 2.6198 7.1504 -4.5112 -2.4408 8.6914 -2.5642 -2.3194 1.3621 -3.8696 -1.546 -3.1048 -3.278 -5.3426 -6.0232 5.5534 
qokeey -4.7098 -2.1119 0.3199 2.9127 -0.87657 -2.737 -0.065768 -0.9074 3.2136 -0.507 0.22126 -0.49518 -0.33934 -2.0428 -6.41 4.2832 -3.5012 -0.74608 3.332 4.5513 -0.65559 -1.2047 6.9879 6.1983 1.9728 
qokeedy -1.6498 -2.5224 1.7445 0.66882 -1.6343 -3.0318 -0.15449 -0.45847 6.5004 -0.96531 0.67831 2.3702 1.7578 -3.7249 -4.0979 8.0474 -3.3663 -3.1261 5.187 4.4142 0.65678 -1.4178 8.7909 3.5849 3.578 
qokain -1.8451 -1.8518 4.6927 4.2492 1.1137 -6.6992 -3.534 -0.97788 1.9615 -1.6138 -0.79301 2.6778 -2.8929 -4.0819 -1.1508 9.1157 -1.2042 1.4706 -0.82398 -0.74996 2.4845 0.86383 7.9331 -2.5602 3.2598 
shey -2.8587 -2.3026 1.156 7.2558 0.59809 -0.58009 -3.1862 -2.5233 0.86758 -0.69019 0.030449 -2.2128 -6.4045 -2.6719 -4.1264 2.8142 -3.0427 2.1622 -0.3578 0.42099 2.1603 -1.2085 6.7991 0.14591 2.0931 
dy 2.9161 -2.1338 3.4978 -6.0665 5.6911 7.6232 2.9585 0.47561 0.57553 1.9378 7.5257 -6.9078 -2.444 -4.1694 4.9686 0.095475 -2.4828 -0.017344 -1.2113 -3.7304 -2.6351 -6.3559 -0.76296 -11.872 0.86433 
qokedy 0.096043 -1.9459 4.7399 -3.7935 -2.6197 -1.3692 -0.63062 -2.2653 6.7393 -0.83224 4.772 3.5124 1.0157 -6.1217 0.56892 7.8425 -4.1299 -2.6194 3.9121 1.716 2.9197 -0.41048 8.1861 1.1769 4.9232 
qokaiin -1.1049 -0.92678 2.0467 0.44154 1.1119 -4.6986 -2.4794 -0.52296 -0.7076 -2.1401 0.42409 2.8326 -2.1944 0.22964 -0.57716 5.0722 0.02637 -0.087058 0.77158 1.1589 0.48556 2.8452 1.9167 -1.3314 -0.12735 
al -1.7406 3.5801 0.94976 8.5833 3.4111 -13.747 0.30151 0.81329 1.6761 -9.5587 -3.5176 3.0976 2.3851 -0.088482 -4.7801 -7.0577 10.909 -11.022 0.066293 5.92 -3.6202 3.0453 -4.0908 2.9273 2.255 
dal 3.4171 2.2034 2.6404 -2.5149 0.8402 3.5227 -1.6311 -0.53864 -1.1719 -5.7858 4.4235 -2.5135 -2.8547 -5.9991 -2.1131 -0.082121 0.36798 -2.816 2.1091 0.13856 4.5643 -2.4777 -0.37298 -5.4379 -3.3834 
okaiin -1.9938 -0.70962 0.73395 1.8762 2.4927 -3.9348 0.12967 -1.3014 -0.4874 -3.4236 -1.6664 3.2308 -2.6783 0.66642 -0.00021965 1.2869 3.5422 -0.76052 -0.72073 -0.29311 -0.40399 3.2456 -3.1284 -0.17059 -1.0663 
dain 0.59216 -2.714 2.025 2.4648 3.1784 0.22058 -1.3411 0.53477 0.047597 -3.1017 -0.79535 -3.1061 -3.5927 -1.3363 -0.16249 0.79592 -4.6099 3.1657 -0.14442 0.8124 -0.23246 -1.5706 1.3445 -1.6279 1.5392 
chor 1.1925 3.2338 0.48787 0.73259 0.055235 8.7664 0.79232 4.6399 -3.4491 5.8127 -1.9414 -9.1701 -7.9922 3.8559 0.86735 -3.3667 -0.95644 7.7629 -2.5799 -1.6378 -5.7573 1.5444 -8.7068 -1.3321 -5.9588 
qokal -1.8456 -0.98157 4.8282 -0.58548 -1.5875 -3.5333 -6.4165 -3.94 -0.70994 -2.4629 4.3824 1.9167 -1.6801 -4.5708 -0.6362 6.0513 1.1234 0.7574 -1.4236 -1.0596 2.3875 1.8586 8.0532 -1.7269 1.3904 
o -5.4649 -2.0343 -4.4869 7.084 8.034 -4.3757 -1.8976 3.3776 8.2491 -9.7624 1.3774 -5.9059 -7.7195 7.6824 7.3533 -7.03 -7.0851 -5.2428 5.2391 1.2008 -8.5247 -9.4958 -14.696 5.3297 4.2614 
l 1.0479 -6.0432 -4.5454 13.108 -1.6501 -20.107 -14.283 6.2112 0.44907 -11.353 1.208 -5.6177 -0.62266 3.9307 -11.112 5.5839 -11.561 0.49385 10.459 14.897 -2.1281 -4.5912 -1.6848 14.467 3.7402 
shol 1.1611 0.71346 -0.86803 -1.3483 1.7159 5.1428 0.59282 -1.9071 -1.4643 3.5138 -0.56283 -8.4083 -6.8952 3.0835 -0.85692 2.0977 0.16025 7.3526 -0.045948 -1.7489 -0.043889 -0.080227 -1.4672 -3.831 -3.8521 
cheey -5.061 2.1979 -3.3808 1.6901 -0.43383 -4.0985 0.39692 1.2557 0.73594 -0.36897 -0.84346 -0.75887 -2.8729 2.7221 -3.5423 1.3631 0.43418 1.4233 1.9387 2.4767 -0.875 -0.35298 3.7177 5.5738 0.38569 
okeey -5.1756 -1.5516 -0.48261 3.7964 0.14509 -2.6316 -0.90865 -2.1928 2.5711 -0.52494 0.55599 -1.0314 -2.1735 -1.3464 -7.7787 -2.4616 0.26002 -5.5535 3.4908 4.3946 -1.1956 -2.466 2.1857 7.6442 -0.99774 
r -4.1217 -6.7577 3.7598 8.9698 -0.27602 -1.5702 -4.3219 -3.9562 6.9342 -4.452 3.3158 -1.7227 -10.624 1.0813 -2.7268 -4.6903 -8.2615 8.9111 -1.7256 -2.7359 -3.5285 -7.349 -6.4811 17.129 4.2033 
cheol -3.1487 -0.0013992 -0.54188 2.1904 -2.6318 -0.034031 -1.4588 -2.0374 1.4497 3.8066 0.61382 -2.5393 -3.753 2.4039 -6.3847 0.33578 -0.86199 2.3001 1.1831 3.6001 -2.6148 0.87022 2.801 5.3798 -0.60331 
otedy -0.10011 -2.6889 3.1508 -1.9887 -0.051199 1.3127 2.5305 -1.7156 5.7383 1.0563 -0.40576 3.9747 5.8675 -4.5457 0.9265 3.14 -1.298 -8.7354 3.1562 -0.13159 0.872 -0.18845 7.0197 0.65503 2.1005 
chy 1.7481 1.323 -2.3394 -3.1234 5.1719 7.7701 0.085966 4.4539 0.89726 -1.3962 -2.5103 -9.8571 -8.1103 -2.0156 4.5421 -3.2803 -4.0147 10.047 -1.4568 -0.91496 -3.9444 -6.2068 -5.9528 -4.1542 -2.089 
qokar -1.2586 -0.066506 4.2656 -0.95002 0.81499 -3.1657 -3.1305 -1.952 0.56812 -2.9624 2.4927 4.325 1.808 -3.4057 1.7454 5.7355 0.73038 -0.084586 -1.5805 -0.01261 1.0718 2.3799 3.44 -5.7391 1.2214 
okal 0.75896 -0.77962 2.6029 0.11594 0.44896 -2.0387 0.49208 -4.2759 2.465 -4.9652 4.307 6.0495 -0.83677 -2.8369 1.9657 -1.2492 5.881 -4.2304 -2.0494 -1.1741 -1.9459 1.3161 -1.5518 -1.4259 -0.67564 
otaiin 1.9456 0.74358 -1.6385 0.69942 1.255 -2.626 1.5016 2.3941 -1.4439 -2.6264 -4.2335 1.7289 1.046 2.601 0.51224 0.69248 4.8087 -3.0255 0.15243 -0.90943 -2.8812 1.8061 -0.70656 -0.85333 -3.3659 
otar 2.587 1.6871 -0.015908 0.20655 2.0891 -2.6578 1.9633 -1.31 2.4787 -4.6976 -2.488 4.5519 1.17 -1.7411 2.9158 0.65284 8.2466 -7.0911 -0.30598 -2.23 -0.18698 3.3752 2.0002 -3.252 -0.76357 
sheey -4.0205 0.68577 -1.2083 2.5113 0.20606 -0.48939 -1.3442 1.6586 -1.0615 -0.13315 -2.0301 -1.9275 -1.1166 -0.12675 -5.4636 1.2176 -1.0298 0.82982 1.4542 2.5494 -0.87056 -0.26745 3.0395 4.4592 -0.45282 
chdy 1.4236 1.7634 6.6038 -7.1305 0.22602 0.98746 2.1853 -0.56384 1.9881 -1.3269 2.8531 4.2027 2.6945 -3.4524 5.7992 4.5948 2.0014 -2.2139 0.24611 -1.9939 1.3998 2.4096 1.3886 -5.3405 1.1731 
qoky 2.4135 -2.7038 3.5932 -1.7981 -1.8921 0.9087 -1.2755 0.08673 2.2132 0.84425 1.0646 -0.22709 -3.3807 -3.963 -2.319 5.6053 -3.1766 3.6751 -0.14944 -0.25174 4.2865 -0.047841 6.8794 -4.9911 4.1813 
oteey -1.5952 -2.9009 -6.2621 4.1084 3.3132 -1.4145 0.34187 -0.64737 1.2296 -2.0012 -3.5723 0.54768 3.144 -2.6837 -3.7075 -4.0251 2.1523 -6.8553 2.1007 2.9594 -2.2082 -4.9366 5.6462 3.637 -2.0074 
okar -3.0608 2.8409 2.5727 0.7262 2.1465 -2.0398 2.4988 -0.64823 1.1427 -1.5138 3.6092 9.2708 0.65537 -1.2615 4.4631 2.8414 4.4923 -4.995 -0.85645 -2.3451 -0.4418 0.79124 -4.9787 -4.1566 1.5271 
qol -1.7579 -2.0359 9.9928 4.7132 -3.4148 -5.1271 -5.9191 -9.4465 5.0055 1.403 1.4949 0.69023 -8.3209 -5.4891 -8.1635 13.378 -7.236 6.2551 1.5971 -3.0711 11.631 -5.1889 10.88 -1.9313 8.5854 
okain -5.0783 -1.0061 4.9479 5.6082 4.2647 -6.7031 -1.1779 0.0038651 0.36396 -2.0099 -0.7906 3.6391 -1.6047 -3.1284 -2.5402 4.1865 2.8783 -1.0498 -2.1728 -0.47701 1.1263 1.4124 3.985 -1.347 1.4805 
chckhy -0.65113 0.55474 3.6551 -0.45876 2.5018 -1.967 0.48163 -0.65101 0.46068 -2.9221 1.5484 1.3186 -2.607 -2.3414 0.34877 3.2842 0.72745 0.67445 -0.18849 -0.17267 0.58591 0.62326 2.3543 -1.9719 2.7679 
otal 2.8556 0.029744 2.9013 -0.039342 4.2578 -4.2733 1.1218 -0.79927 -2.8598 -4.2497 1.5271 3.6838 -1.5528 -3.4375 0.53849 -0.66733 7.5216 -4.6673 -0.67341 -0.18285 0.75804 2.2812 2.8068 -2.3071 -0.97139 
saiin -1.5815 0.81361 0.80041 -1.1521 0.25479 -2.0691 -0.20382 3.6592 1.6522 -0.52935 -0.52466 0.44895 -1.5476 -1.4838 -2.7735 -1.0194 0.4969 -3.6871 2.1596 3.301 -1.0681 0.25874 -0.40433 1.623 2.3269 
sho 1.882 0.07946 -5.1215 -5.9157 0.5564 8.5516 -0.40972 2.3228 -1.8503 2.6316 -5.7368 -15.135 -7.0075 6.2434 0.32187 -3.6752 -3.6271 11.012 1.2068 -0.17959 -4.9734 -3.5383 -5.9189 0.82067 -9.7037 
okedy -1.5223 -1.7828 7.3251 -4.2176 -0.44743 -0.099549 0.63907 -3.8119 2.7429 2.9693 5.6244 4.8662 2.0086 -7.2962 -0.26134 3.25 -1.9367 -8.4571 2.5304 1.2974 -0.44623 -1.758 5.8418 -0.35044 4.2873 
oty 1.1511 -3.0495 1.2899 -0.97638 9.3415 7.5374 0.18204 1.7383 -2.8938 0.38399 -3.2738 -0.39888 0.15516 -4.7765 -0.027173 -2.0337 5.6035 -3.0517 -2.8181 -2.7624 -0.53089 -0.69067 2.4004 -10.168 -3.4227 
okeedy -0.44178 -1.477 3.3763 0.83033 1.9831 -2.6314 1.9223 -1.0984 5.4959 0.63684 1.5767 2.9895 2.1305 -5.1094 -1.9388 3.9188 -1.1524 -8.6735 3.9564 3.2963 -2.6284 -0.81679 5.3397 2.332 2.7456 
lchedy -2.3526 -1.6301 2.1122 -0.29168 -3.2712 -4.7579 -2.4164 -0.40533 4.7112 -3.5158 0.46811 1.6454 -0.12696 -3.2626 -2.5486 9.1719 -1.8736 -0.53748 4.4406 1.9323 3.5391 -0.23414 10.66 4.9441 4.6941 
ain -6.3865 2.5923 2.4347 7.9539 7.443 -6.3674 1.5038 -2.2198 1.5865 -7.4927 -3.7677 4.182 -4.7799 -7.4948 -4.1863 3.7579 2.3336 0.41403 0.11908 4.9408 0.29677 2.0662 4.5885 3.163 5.884 
dair 1.4266 1.9662 -1.8554 -4.7802 1.4249 -0.17739 2.1179 0.88609 -0.2989 -2.5022 1.5549 -1.8822 0.33071 -0.41899 2.761 -3.4565 2.2941 -1.359 -0.18994 -1.3891 -4.2789 -0.68559 -4.2916 2.8901 -4.5388 
qokey -3.5369 -1.5081 4.2876 3.2314 2.9765 -0.56999 -1.8725 -4.3403 0.95895 2.631 4.5671 -2.4388 -1.8225 -5.5287 -5.796 1.5187 -2.2273 -1.2817 1.1513 1.8421 2.5766 -1.882 8.6608 3.1095 4.4336 
dol 3.713 -0.8983 0.41427 -4.6405 -5.0851 10.992 3.0026 2.1203 -0.91921 1.5332 7.4532 -7.519 -6.2747 -1.6943 -4.4054 0.69761 -9.2527 6.1873 -0.11642 -1.5448 1.6956 0.11101 3.4143 -1.6631 3.3037 
sheol -5.2554 -1.4969 0.4857 -3.267 -2.3193 2.2361 -1.0441 -3.2817 -1.4323 3.0565 1.4555 -1.1704 -2.166 0.6292 -8.1871 -0.33352 -0.31756 3.0359 -0.76604 1.2305 2.301 1.9895 5.3041 1.5299 -1.2242 
oky -1.4488 2.041 4.1549 -3.6126 3.7156 3.2056 -1.7463 -0.69692 -1.9108 2.4611 2.7039 0.94481 -5.8988 -1.8888 2.7132 -0.13135 4.6654 -1.1519 -3.3013 -4.2715 -1.5586 2.1054 -2.8994 -7.1237 -3.9444 
oteedy -0.87683 -2.7949 -1.4711 1.4698 -1.0769 -1.0704 1.1213 -0.40666 4.564 -1.8368 -1.3042 2.9474 5.2257 -3.4298 -1.4517 2.8087 3.1323 -7.8641 3.8077 2.0415 0.22681 -0.15322 6.9984 3.7943 0.84598 
cthy 0.8575 -1.0182 2.6147 -2.6589 1.878 9.8638 2.5493 0.95982 -4.779 0.51922 -0.27731 -9.3723 -10.013 3.5241 3.1092 0.025932 1.9814 10.138 -2.9494 -2.678 -4.6859 0.92894 -6.4857 -7.354 -1.149 
shy 5.4147 3.0856 -1.1756 -1.4698 5.4177 9.9575 -2.5745 0.20843 1.7526 -2.1563 1.1134 -4.0646 -8.2182 0.80768 4.3606 -1.1563 -3.6839 14.096 -3.4338 -1.4008 -0.90763 -3.1621 -2.3622 -9.4691 -0.22156 
qokol -0.82201 1.0164 0.54427 -4.0609 -1.2332 3.9743 -1.8551 -3.8073 0.81666 2.8999 3.7313 -0.19082 -4.6113 0.36484 -0.72427 -0.19169 -3.2243 2.7047 -0.01345 0.30793 3.458 4.595 0.6102 -1.5054 -0.44742 
otain -3.4432 -2.694 -0.38236 7.1855 4.6341 -5.7576 -1.6173 -1.136 1.7771 -5.9068 -1.0168 4.3896 -0.069325 -0.48458 -1.0359 4.7146 4.9517 -3.754 -0.32947 -0.13349 -1.1811 0.80566 2.9422 -1.7544 2.6485 
shor 2.398 0.68764 2.8511 -2.0989 2.4631 7.8739 0.85742 1.7055 -3.2284 4.8781 -5.2592 -7.6287 -6.3379 3.1561 2.0709 0.49424 1.7746 4.6768 -0.74348 -5.7319 0.31482 1.3273 -4.1376 -3.7135 -5.5226 
cheor -3.118 -0.24131 -0.099708 3.501 -1.4372 2.664 1.0203 -0.055243 -1.5763 3.1087 0.5091 -5.5331 -4.7494 0.83937 -4.323 -6.9989 0.74019 0.76939 -0.69758 2.557 -0.78138 1.0603 0.038004 4.3339 -1.8053 
chody -1.6967 0.11644 -1.6699 -7.9862 1.0992 5.2775 -0.56781 0.50865 -1.4312 -0.93366 1.7169 -5.2592 -0.68056 3.7907 2.433 -4.2171 1.5131 0.42385 -0.17308 0.1999 -6.7077 2.0804 -4.7299 0.053674 -3.2115 
cheody -3.1049 1.3164 -2.2508 -3.9805 -1.9856 1.086 1.0264 -3.8562 -3.2668 2.0105 0.28863 1.1087 2.9283 7.0551 -5.0147 -1.2982 3.0859 -2.1736 1.3396 0.48185 -5.8043 2.4563 -3.1324 6.2813 -4.2961 
qotedy 1.4673 -2.8085 2.7746 -3.0364 -1.2013 -0.47349 0.37717 -0.59414 4.8217 3.65 1.8965 0.51483 5.5068 -4.766 0.34238 8.5759 -2.4934 -2.4691 4.1862 1.8107 2.4168 -2.9258 10.919 -1.7258 -0.073903 
dam 4.4756 2.3928 -1.3309 -9.612 -0.53297 10.11 4.4988 -0.091244 -2.9356 -0.0081264 6.4471 2.4424 -1.1713 -5.3448 1.8858 -3.7916 2.7585 0.88715 -1.5985 -1.4769 -1.1024 2.6767 -6.9708 -1.7762 -2.2121 
qoty -2.3158 -1.7064 -1.4693 -4.0401 4.8113 3.1427 -2.7961 2.1805 -1.3587 -2.3505 -2.4062 -4.6667 -0.14358 -0.13687 1.3949 6.1792 -6.0913 5.5935 -1.0765 -3.2634 -0.87343 -1.7441 6.8321 -5.7046 1.4897 
am -2.4882 1.0108 7.0263 2.9301 -1.2982 -5.7575 5.8095 8.3431 0.91122 -7.4237 -4.7247 6.4229 2.2419 -3.3084 3.7934 -11.388 11.372 -13.865 -0.40206 4.4141 -2.1757 2.6982 -6.4298 -0.097995 5.0613 
char 0.74873 1.6119 2.4932 1.5028 4.2249 -4.4977 -6.2275 4.9812 2.9274 -3.6252 -5.8316 -4.2281 -4.5203 -2.9746 1.9597 -0.39612 7.3151 3.9164 -1.7596 2.0877 -3.9659 0.77865 -2.2561 -0.46689 -2.4591 
air 1.1621 8.7428 -2.3078 -1.7054 2.1014 -7.0122 6.8143 -3.8831 1.7091 -2.7176 -0.49743 3.0996 5.6186 3.2008 6.3301 -8.4971 4.6427 -7.4969 0.099769 -0.23413 -2.9021 0.37538 -2.7762 3.2127 -1.8496 
sar -3.0913 3.7083 0.4086 6.3048 -0.86566 -3.5672 2.0868 -2.182 6.4968 1.3265 -0.33803 2.5023 0.95567 -4.3024 1.3246 -1.1498 5.9088 -7.7058 0.29493 0.021423 2.0049 2.4369 -4.8526 1.1934 -1.0265 
sheedy 0.0065974 -2.3934 -0.63714 0.16559 -2.4445 -2.4 -3.2752 -1.8075 2.2089 -2.3525 0.49263 3.6285 1.079 -0.52592 0.38583 7.2159 -3.2058 -2.9535 5.0218 1.5836 2.2483 -0.77038 7.1177 2.467 4.0037 
otol -0.22731 -2.4742 -2.884 -0.7127 2.5683 8.8031 -1.8748 0.65407 -1.2768 1.4145 -0.20713 0.26162 0.12673 2.3889 1.3066 -0.50385 0.53795 -1.6784 -0.28985 -5.4704 -1.1627 -1.2359 -1.9013 -1.6563 -4.3668 
chcthy 0.56321 1.1383 1.7332 -1.7356 -0.37558 -0.8431 -2.0904 -0.62331 1.8774 -0.10103 0.44435 0.11165 -2.9461 0.531 1.0102 3.5558 -0.39793 2.426 0.57305 -0.10003 1.934 -1.3468 3.536 -5.0182 -0.95654 
kaiin 0.26113 0.17926 1.8512 2.2962 1.762 -5.0661 -1.3232 2.6073 -4.605 -2.8705 1.606 2.3864 -1.6937 4.8621 2.2585 4.2341 2.9312 3.1509 0.028072 2.073 -2.2639 3.5164 -3.9599 -2.341 -3.715 
qotaiin 0.79319 -2.072 -0.89104 -3.4031 -0.5653 -2.3634 0.50475 1.9275 -0.82689 -2.7124 -3.8056 1.1055 -0.18378 3.078 2.404 3.1121 -0.32512 -0.97888 1.4304 0.61209 -2.2085 3.5604 2.4152 -0.94528 -1.8454 
cho 4.6623 -2.8267 -3.6777 -5.2473 -2.5279 3.2495 1.7789 3.5566 -2.1474 -2.3536 -3.3217 -11.551 -7.7659 8.7402 -3.5909 -2.8057 -1.4873 14.848 0.92474 5.1834 -11.991 -4.8547 -8.6089 3.8239 -3.8856 
okol -2.2647 4.4818 1.4677 0.71044 -1.0222 9.664 -1.4213 -4.2656 3.0939 2.572 3.8765 -0.61503 -6.6951 1.531 -3.7358 -4.9373 0.39098 -0.23566 -1.3254 -3.2888 0.75984 3.9244 -5.7591 2.5306 -2.9983 
qoteedy 0.74958 -1.7787 0.60247 -1.1568 -3.0501 -0.73528 -2.1288 -0.43912 5.7389 -2.9562 0.35117 0.24122 2.3316 -1.3674 -1.183 6.5108 -2.7903 -3.7135 5.9114 3.1983 1.8995 -0.1716 8.4598 2.2009 3.4943 
cheo 1.8307 3.8146 -8.3931 -0.23655 -3.8049 -3.1968 -1.0969 3.4286 -2.6144 -2.0624 1.1509 -5.2084 -1.6761 1.8148 -6.1645 -2.3484 0.11598 -0.23631 2.7918 5.9455 -7.8871 -0.32138 -1.3336 8.2499 -3.1455 
d 0.55266 -10.796 -5.2234 5.9569 1.9161 -0.43619 5.1375 5.7739 4.4498 -12.489 -1.4802 -6.5286 -8.4888 -13.8 7.114 -11.536 0.91283 14.589 -9.987 -2.2165 -3.545 -19.599 -18.729 -7.4776 -1.9036 
qokchy 0.013338 1.2912 -4.0948 -5.8468 1.8414 5.4505 1.134 -1.0106 -0.20712 1.4166 -0.55704 -2.6836 -4.5169 1.1184 2.5857 2.6696 -3.7755 6.1637 -0.47486 -2.345 1.618 2.8096 -3.7127 -5.3903 -1.7023 
sol -1.4282 0.99494 3.7627 -0.98678 -8.279 0.46395 -6.3951 0.56692 5.1959 -3.091 2.4325 -2.7613 -5.1978 -2.8302 -2.4956 6.2807 -5.7244 1.7099 -0.60226 -4.0922 1.1257 0.55682 4.3208 1.2378 0.75884 
odaiin 3.0713 1.5725 -0.16765 -2.2201 -2.0208 1.9196 2.5611 1.2721 -2.7862 0.037745 -0.61444 1.2032 0.33304 5.2879 0.76516 -1.6685 4.6146 -2.953 1.276 1.0099 -5.193 1.9303 -6.9895 -1.6326 -0.099821 
cheky 0.77334 -0.35111 1.4353 -3.6823 4.4947 0.62066 2.4406 1.0254 0.4605 0.8159 5.6383 -0.93771 -0.64795 -6.0841 0.61071 0.81398 2.5798 -1.9499 2.2087 2.8803 -0.9107 -1.9009 1.7753 0.049223 -1.8061 
okeol -6.1272 0.32809 0.36458 2.7705 -0.023819 5.5099 3.3159 -5.7055 -1.576 4.8028 4.3728 -2.1261 -7.7245 0.45317 -9.2237 -8.4556 2.6703 -4.0625 0.91085 2.8119 -4.4061 -0.73505 -1.1542 8.9188 -3.3368 
qotar 2.8285 0.99493 -2.9098 -0.14174 -2.906 -3.0197 -0.73088 -1.7135 0.41541 -3.8589 -1.0435 0.89051 3.4037 -0.84959 4.3235 7.2544 4.2376 -2.9784 0.63192 -1.6731 0.37002 2.6013 4.008 -6.1455 1.365 
dor -3.5823 6.0964 3.038 -6.7775 -0.77318 5.8411 5.4372 5.5089 3.3855 9.0281 -2.3914 -7.7404 -4.5398 -3.0401 -4.9712 -1.0867 -6.488 5.8448 -3.9997 -3.1599 -5.1079 -1.6702 -5.3602 -1.8633 -4.3599 
sain -1.8965 -3.3342 3.4408 4.8432 0.91996 -4.2094 -2.2524 -2.5431 -0.45394 -4.6676 0.72292 1.6427 -3.9058 -6.173 -3.0048 3.9942 1.0213 -3.0041 -1.1747 -1.2781 -0.22645 0.54553 5.6592 1.232 6.7163 
okey -1.3725 -1.7524 -1.1387 5.0665 0.01784 -1.4107 -0.1327 -8.0307 1.0719 3.4775 6.1936 -4.0435 -4.4465 -9.3602 -4.922 -6.91 2.0206 -8.6906 2.1008 4.6869 -0.75827 -5.6507 1.1103 4.1858 -2.1059 
raiin -2.7176 3.7886 0.12036 2.844 -1.8799 -5.7464 -0.26604 2.9285 0.6159 -0.085167 -4.1522 1.2145 -1.1514 0.35245 -1.3811 5.7104 -2.8873 2.0926 2.6987 3.2463 0.61364 3.4188 -0.85741 5.4081 0.75766 
keedy 0.40993 0.054898 4.2348 -0.65422 -0.77059 -6.7327 -0.011069 1.1099 4.7834 -2.4484 3.9683 1.3023 -1.5103 -6.244 -1.3914 4.2784 -3.0587 -5.0963 2.5641 5.4416 -2.0784 0.82149 8.0844 0.077336 4.9462 
qotchy 3.3738 -1.1787 -2.3024 -7.5231 1.0183 5.4377 2.0821 3.4752 -1.7266 -0.32371 -2.6893 -4.3414 -3.8077 6.0272 2.8044 0.58341 -3.334 8.7013 -0.89615 -3.4914 0.37863 -0.1373 -1.7391 -6.1009 -2.5038 
oly 2.0461 -0.75036 4.0763 5.682 -4.7491 1.2867 -8.9204 -9.6811 7.387 -2.8822 -0.56115 -3.1469 -0.11755 -9.551 1.457 5.2117 3.1738 -0.29337 -4.7355 -8.6882 3.4641 -3.2375 8.2271 -4.853 -0.19493 
qotal 1.1408 -3.0095 -0.89639 -1.384 -0.57031 -4.6824 0.91291 -5.3379 -2.3068 -3.463 -1.436 -0.19175 0.25381 -2.522 0.34508 4.9359 -2.7228 0.43269 -0.40255 1.1311 1.746 6.5022 5.1379 -2.4816 1.3732 
qotain -2.1939 -2.7728 -0.74277 1.0798 0.30789 -6.4904 -4.7217 -1.7034 0.4578 -4.7151 -1.2709 4.1975 0.40319 -0.35712 -1.4082 4.5748 -3.1896 -2.1316 -0.98269 -0.35283 -1.2802 1.5687 10.594 -0.62207 3.5421 
shckhy -0.48886 1.2692 3.6756 3.8256 2.6757 0.65295 -2.6901 -1.7966 0.007887 0.1918 -1.1612 0.16645 -1.6321 -4.9115 -0.92124 2.7162 1.6131 0.83186 -2.4274 -1.2986 1.3431 2.1658 7.5085 -2.1403 3.7104 
otey 4.9909 -2.5378 -3.5606 4.8959 7.301 0.94487 1.647 -2.0435 1.0219 -2.8912 0.43848 -1.4936 4.133 -5.8847 -3.3742 -2.9753 1.1228 -9.4561 0.48695 -1.6768 -2.3138 -3.7638 5.9298 0.49564 0.06426 
cheedy -4.8494 -3.291 -2.1822 -1.7204 -2.3803 -6.504 0.34226 0.15867 3.2968 -1.2219 -0.96832 1.9628 2.1554 -0.8028 -0.94149 5.4996 -3.4307 -2.6029 5.3743 5.0673 2.7345 1.5164 5.2337 5.0433 2.1397 
kar -6.4892 8.465 7.6061 5.4776 1.882 -5.8925 4.0048 -1.5641 0.71957 -5.8893 -1.4696 9.7441 -1.2449 -0.29198 7.7388 2.0447 6.4223 -6.9442 -2.81 -2.53 -0.28072 8.4266 -10.096 -5.6209 10.595 
ykeey -2.6474 -1.0653 3.505 1.7229 2.2242 -0.56582 4.1407 -4.9437 1.7778 3.0084 -0.99713 -3.4393 -0.25156 -2.5017 -5.4309 -0.75561 -2.7891 -3.7295 4.5356 7.4823 -1.8304 -0.085586 -3.8075 3.1586 -3.4716 
cthol 2.8266 -1.1222 0.73284 -1.9007 -2.0098 10.883 4.8481 -0.79224 -0.3235 4.2286 -1.2704 -11.097 -12.328 5.8188 -0.51902 -0.32309 -1.392 9.8236 -0.49591 -1.7846 -3.6644 2.0402 -3.5392 -2.2383 -2.1435 
keey -5.6704 -5.9648 -4.6689 3.8088 -0.3714 -0.64376 -1.7773 2.4248 0.43736 -0.17582 0.020548 -5.2909 -2.3693 0.1228 -5.4372 -0.16253 -3.4165 0.89435 3.8289 6.3561 -4.5081 -4.2588 -1.229 7.6462 -1.5845 
qo 1.9291 -10.851 -4.7734 -4.7295 0.52764 -7.1539 -3.4353 -0.58352 -7.373 -1.0834 -10.65 -2.1111 -16.448 -4.9176 -7.6319 -0.987 -16.161 2.8779 -0.46178 2.3665 0.65106 -2.8758 15.211 -2.1782 -3.0596 
olaiin 0.18781 2.4191 -0.36264 0.61494 -1.938 -3.2416 5.4408 -1.394 1.4155 -4.014 -0.70996 2.3748 0.82529 -1.8649 -1.8768 0.78555 5.3755 -3.8257 -0.91937 -0.58803 -3.7563 1.1051 -0.32657 1.1513 3.1407 
shody 0.72399 -0.70425 -2.2712 -6.3505 1.2075 4.4617 3.081 0.72936 -3.4398 -0.086237 -7.4612 -2.8139 0.24903 1.4235 2.579 -2.5587 -1.8588 -0.99064 -0.35044 -1.3199 -4.8963 4.6383 -3.8699 0.23915 -6.5795 
sor 0.26725 1.3399 -1.4674 2.4562 -1.5252 3.0035 -2.2321 -0.029745 -2.1628 0.054175 0.89723 0.53541 -6.3839 -1.1904 0.028581 -3.2816 -4.4311 -1.9531 -5.7076 -6.1275 -4.6203 1.5058 2.2292 -2.3384 1.843 
chear -3.3153 -1.1339 3.3407 3.9836 2.8938 -2.6082 1.1284 -0.28806 -0.52355 -4.5901 -3.274 -5.9209 -4.8311 -1.4228 -3.1432 -0.19777 3.5678 -0.43684 0.72985 0.75486 -1.1825 -0.57675 -2.3812 2.2255 0.73953 
cthey -0.86482 -6.2848 -3.9584 -1.3154 0.51404 3.6731 -0.79924 3.5781 1.1759 1.7031 0.56886 -8.0112 -5.29 -0.31457 -5.9321 -4.1501 -1.9057 1.6344 1.3962 6.1532 -5.3977 -0.4727 -5.3041 0.6851 -2.3025 
qokchdy -1.2087 7.4276 1.8403 -5.3036 1.2746 2.2442 1.1117 -1.0076 1.2015 -1.0077 0.18812 3.226 2.2686 -1.9545 6.4863 7.5953 0.38532 -1.3954 3.1621 -1.7135 5.4372 4.9457 0.16219 -3.9231 2.3804 
qokeol -5.6352 -0.68432 -0.11044 2.0219 -4.1532 4.4343 -0.1975 -4.3615 -5.0747 7.0722 4.8466 -0.99017 -7.301 0.1015 -10.666 -2.9457 -0.5015 0.40198 2.1953 4.5201 -1.4036 -1.8432 2.4938 8.4813 -2.4312 
sal 2.5511 2.2555 -2.1198 2.2851 -1.4739 1.8097 1.4429 -6.311 6.0121 1.4863 6.7419 1.3977 -8.8196 -4.9879 -3.2755 2.4695 0.36381 -1.7837 -2.9165 -4.4746 -4.6704 -1.3743 1.6892 -1.5033 0.76897 
opchedy 1.4869 1.7873 -0.36748 -3.8135 1.2176 -5.5648 0.68672 -4.5065 0.7735 0.47165 -3.9319 2.9296 3.5762 -2.1472 2.2824 5.6286 1.3696 -3.9561 1.4976 0.67042 -1.5836 1.2857 8.0632 -2.6329 0.2551 
otam 2.1944 -3.5106 -0.92575 -3.8551 0.31018 0.42541 4.5594 0.80869 3.7864 2.3358 1.5841 8.6795 -2.4848 1.722 0.79326 -1.5144 6.6758 -6.3534 0.21594 -0.75555 -3.9419 1.7268 2.4426 -0.35603 -2.4254 
lchey -3.6524 -3.2166 0.31367 3.4559 -3.0073 -1.3063 -2.4225 -5.7725 3.2811 -2.5557 -4.8095 1.9019 -6.44 -0.12786 -5.2089 7.2345 -1.9363 2.9943 2.8199 0.65191 2.4913 -0.017415 9.1449 5.6278 3.7028 
chal -2.0685 1.8963 2.9622 7.8451 2.1695 -5.4805 -6.6583 -2.6669 1.5487 -5.0426 2.3488 -5.8445 -5.4902 1.1863 -3.7967 3.309 7.8212 -2.5599 -1.0827 -2.9725 0.02221 6.4028 -3.4451 0.78864 1.4705 
sheody -0.29999 2.066 -3.16 -6.7382 0.92146 7.0191 1.3495 -2.3094 -3.9819 -0.037155 -0.98114 0.62392 5.4594 3.9004 -4.4691 -2.0671 3.7883 -1.668 0.82735 0.74765 -5.3019 3.3509 -0.15266 2.6343 -3.5762 
sheor -0.025898 -1.3579 1.7447 3.5578 -1.9866 5.3822 1.1883 -0.7645 0.92282 5.5187 -4.104 -3.378 -3.0773 2.4361 -8.2839 1.4642 4.0939 -0.36512 0.27502 0.27725 -0.32917 2.7195 4.959 -1.4263 -0.88593 
chaiin 1.9877 -1.3762 0.45955 1.3985 2.9163 -0.40469 -2.8405 4.02 -0.95159 -1.6158 -4.3708 -6.281 -7.2407 4.8977 0.47483 -0.81217 2.4964 7.4243 -1.405 1.8549 -6.4478 0.13157 -9.5174 -3.8539 -1.4343 
checkhy -1.7135 1.2132 1.731 2.3218 1.0953 -3.5496 2.4492 -2.0338 4.3809 1.2703 4.0795 -0.54519 -2.2066 -1.381 -4.1021 8.397 0.42626 -2.5802 4.4627 -0.3504 2.7587 -3.509 3.9919 0.90043 0.39436 
lkaiin -5.3753 0.10798 -2.1473 5.4088 2.8765 -10.459 -4.0506 1.9954 -5.0604 -3.3634 -0.80977 2.9946 -1.2435 5.2758 -1.3425 5.872 3.1203 -1.9505 -0.5984 -1.2674 -3.4291 2.2054 1.4976 0.7757 -1.9579 
sheo -3.6932 3.8108 -4.7501 1.7299 1.5093 -0.087169 0.76376 -1.1822 -2.7709 -0.048205 -5.2634 -2.3225 1.9461 0.18833 -5.4505 -4.031 3.0703 -2.2901 -3.1461 -3.2481 -4.5755 5.0266 -4.0792 7.5781 -3.4314 
kedy 4.076 -1.1455 10.12 -0.93655 -1.3105 -0.29592 -2.7647 2.3066 6.4929 0.20668 2.963 3.0984 2.0887 -5.2985 0.4347 5.7261 -2.1102 -4.2509 2.5452 1.8169 1.0527 -1.181 6.7699 -3.651 9.1173 
ody -3.8335 -3.3818 4.6735 -3.8673 4.847 1.089 10.113 -8.8966 1.1158 0.8608 -2.3158 3.4124 5.9214 -3.1345 7.45 -2.2767 -2.1551 -6.1319 -2.0156 -1.9613 -5.1538 -1.9604 -8.8625 -6.4401 0.35764 
aiiin -2.0163 1.7992 1.9393 1.5844 -0.77593 -3.6873 1.188 2.4244 -1.2745 -4.9071 -4.4568 4.1151 -0.30207 2.8814 -0.98498 -2.685 2.9111 -2.1915 -0.3036 2.5724 -0.58977 3.1948 -2.895 -0.861 -0.44791 
chodaiin 0.059297 -1.4675 -4.2914 -4.5112 -2.7873 3.6044 0.22268 0.21054 -4.2403 0.65435 -2.1088 -2.6547 -1.7159 5.3176 2.8147 -3.77 0.91024 3.36 -0.13874 0.2145 -1.4734 2.9633 -5.6947 0.016675 -2.3272 
ykaiin -0.76922 1.3702 4.2871 -2.5807 0.27289 -1.1912 1.3817 0.0040685 3.0736 -1.1494 -1.8129 4.3776 -1.3945 1.6064 6.1743 0.56156 7.3841 1.1399 -2.3113 0.97265 -2.7313 4.407 -4.0796 -6.8819 0.046616 
shdy 5.9342 -2.2601 2.4187 -8.845 0.28684 4.0444 0.65125 -1.874 0.74468 -2.5832 -0.88387 1.8942 -0.021219 -5.2923 6.3402 4.7028 -1.7793 -2.8222 3.9239 0.13131 0.53606 -1.4695 2.4456 -5.5455 2.4536 
cthor 2.7267 1.7864 0.02797 4.686 4.294 7.5868 0.83393 2.2191 -3.4945 6.9233 -1.4897 -8.0104 -12.633 2.0948 2.5819 -2.5576 1.2325 10.523 -3.4436 0.75202 -3.483 3.299 -6.8428 -6.1335 -4.1201 
olkeedy -2.8277 -3.416 5.7327 -0.11062 -0.33169 -2.8142 1.2586 2.7986 2.7165 0.72618 0.94893 6.0252 -0.077681 -2.2081 -0.57928 8.3603 -0.35586 -4.0116 1.3006 1.6526 -0.1757 5.5535 5.1128 -1.8924 1.0141 
tol -0.12806 -1.8632 -4.016 -10.991 -0.95784 13.764 -1.9553 -2.2621 0.49965 2.1056 1.6181 -2.548 -2.3146 5.1794 0.14175 -0.08482 5.5285 6.0436 -0.88879 -7.6304 4.5712 0.42939 4.2273 -4.1185 2.6788 
taiin 0.62417 -0.39414 -1.5869 -2.5293 0.62193 -4.6113 -1.5509 3.4305 -2.509 -8.0328 -2.2908 1.664 -4.0364 0.66984 -0.11937 -0.72056 1.0243 0.64205 -2.8371 1.3982 -7.3219 5.1526 -5.559 -1.5816 -0.66833 
qoteey -0.2469 -6.4758 -5.716 1.4734 0.34002 -2.8703 0.44158 4.5296 3.1029 -0.9331 -5.3598 -4.0287 3.3829 -0.031414 -1.8681 -0.44536 -3.7788 0.60834 0.55999 3.2939 -2.2486 -1.9778 7.0758 0.88791 0.034314 
qodaiin 0.45785 -1.099 -0.82368 -6.9807 -3.7141 1.2479 0.95177 -0.52579 -3.4658 2.4432 -4.7043 3.0577 -0.90364 4.8596 2.3648 3.5644 2.3497 1.5792 2.5765 0.86486 -3.8718 3.9071 -6.2382 2.2742 -0.74842 
otchy -0.40598 1.4699 -2.7602 -5.8436 3.5209 4.1175 3.4366 3.2055 -0.98638 3.5732 -4.791 -3.5819 -0.85598 1.0535 4.0746 -1.098 -1.9887 3.6894 -3.8997 -5.6014 -1.6042 1.1647 -6.0004 -7.4174 -1.8953 
kain -2.2581 0.42691 4.9563 8.8314 2.3539 -13.555 -3.7259 -1.4599 -2.8606 -3.1183 -1.7288 6.5249 -6.0741 -1.4593 -4.4457 4.937 -1.7481 0.63852 -1.1941 3.8718 0.35874 -0.32461 2.1251 -3.0601 2.7959 
qotol -0.0084817 -1.2138 -4.0864 -8.9734 -3.901 5.5632 0.29079 -1.0161 -6.7194 2.015 -1.1538 -3.5674 -4.2759 2.1872 -0.10642 5.2085 -7.6923 4.6803 -0.41586 -4.2271 0.53627 1.3004 1.8079 -6.544 -2.4006 
ches 1.7595 9.1708 2.1656 6.3451 3.6534 -0.99086 -6.4966 0.84722 0.97981 -3.7159 -4.8629 -0.61704 -0.099266 -1.2479 2.75 -4.8043 3.5048 -1.6976 1.1395 -0.59688 1.5371 0.29788 2.3638 8.3267 -2.678 
tar -0.36643 3.3625 2.9658 5.2987 -7.1644 -4.6126 1.0367 1.7116 1.7079 -7.1426 -4.6159 9.0747 -1.877 -5.8198 5.8374 -2.699 0.52539 -4.0417 -7.3371 -6.5422 1.9514 1.4716 -2.0249 -5.9384 3.3526 
oteody 1.4816 0.35938 -7.4428 -1.7128 1.0564 4.0261 5.9421 -6.466 -1.4667 -0.75642 -2.2701 2.2406 6.9614 -0.91022 -5.2445 -9.2982 4.2674 -10.851 2.4097 1.372 -5.4313 -3.6799 -1.3602 6.6415 -4.212 
tedy 2.1983 -2.8908 11.539 1.7148 -2.4965 4.5373 -0.15662 -2.9654 7.8971 0.16592 6.5936 2.5547 1.3962 -4.1416 -1.1894 5.1576 -2.3034 -9.6351 0.71157 -5.6325 1.1695 -5.3355 11.764 -6.8037 12.293 
qokchedy -0.87728 0.69073 2.2273 -5.1033 -2.2141 -3.7638 0.92367 -0.50671 -0.50598 0.28377 -2.3676 1.9849 2.2241 1.1102 2.8082 7.9339 -2.1719 0.92963 3.5061 1.1555 3.2493 4.7432 5.8044 1.4604 -2.9444 
lshedy -4.0837 0.11972 1.4156 1.2989 -1.7409 -0.54594 -1.496 -0.32968 6.1915 0.06102 2.5271 3.4376 -1.0376 -6.7938 -3.3875 6.3056 -4.5366 -0.37043 1.1661 0.70246 6.462 -0.72608 10.484 -0.94349 4.4424 
choky 1.9531 7.1464 -3.6072 -3.1341 -0.082345 5.8555 -4.0941 1.7016 2.4178 2.3792 0.15236 -2.1158 -4.7206 1.3024 0.91363 -9.0126 -2.9776 1.9218 -1.918 2.9888 -5.0212 1.0474 -5.0384 -3.0184 -1.7989 
chedaiin 2.7056 1.3161 -2.1325 -2.9317 -1.935 -0.31763 -0.98473 -0.14349 5.6915 -5.8491 -2.2976 2.5136 3.9568 0.97597 1.1917 1.6283 1.6373 -4.2897 4.5328 2.9553 -3.7543 1.3019 -0.51448 4.7705 0.81742 
choty 3.9866 -4.3996 -3.6609 -3.6491 -0.37786 8.7554 -0.28795 3.8138 -0.98234 -1.1224 -2.179 -8.9241 0.84266 5.336 -0.89078 -3.5165 -0.13038 3.2928 -0.89571 -2.6338 -3.4728 -3.884 1.7302 -5.2972 -3.3813 
lkeey -11.473 -0.037033 -1.1549 6.1876 2.3474 -9.2414 -3.5517 3.9447 -0.082031 -4.5766 -4.4556 -1.1826 0.37485 0.15851 -5.3985 6.8284 -2.8404 0.37473 1.949 5.4404 -6.4004 3.8262 7.7661 12.128 2.6013 
olchedy 0.88286 -0.96597 5.2131 -0.76217 -0.61235 -4.0294 -3.991 -5.1677 7.7286 -1.585 4.698 3.0237 0.96049 -0.15842 -1.5164 10.945 1.1794 -0.94713 2.582 -4.0494 2.0073 -2.2988 7.1238 1.4811 4.9307 
ytaiin 4.7555 -1.5964 3.4133 -2.8559 4.327 -0.08159 2.8595 3.6487 -3.7585 -0.37911 -6.1286 2.3756 0.8743 5.5265 3.8251 -0.031794 5.2952 -0.025242 -1.45 -0.06317 -3.8265 7.1532 -1.5253 -5.9372 -1.4434 
otor 2.3628 6.7181 -4.4182 -6.3503 0.68573 5.408 6.6935 -0.63763 3.7364 -1.9128 -2.0884 -0.17236 -2.923 3.5994 4.6994 0.67849 4.3856 -2.1912 0.70851 -10.697 0.1196 -1.2242 -4.7327 -0.11536 -4.8595 
chees -2.4554 3.8932 -1.7263 0.0053178 -0.92363 0.38343 -2.3248 0.39182 3.8211 -2.2578 -0.91193 0.030988 -0.37336 -1.5536 -0.71276 1.2287 -1.185 -1.0225 3.1457 2.0049 1.3567 -1.406 -6.3032 1.1534 -2.4295 
olkeey -1.1905 0.090785 2.1652 5.0924 0.29909 -3.7914 -4.8597 0.35968 -1.359 0.055458 0.5094 3.9686 -3.8134 -3.6828 -5.5302 8.6133 -1.8252 0.29698 -1.0682 -1.367 -0.29936 3.4876 5.3045 1.827 4.8904 
lor -7.6666 -1.7025 2.6278 8.2633 -10.175 -9.3218 0.36354 5.493 8.2762 3.0256 3.0508 -1.223 -2.2014 -2.122 -4.6373 8.5845 3.2102 1.9418 -6.9187 -0.42438 -5.8643 4.6087 1.5029 -4.0318 0.57341 
lol 2.0411 1.3787 3.8682 8.1823 -5.102 -1.5622 -6.2174 -1.5078 0.52071 -3.6974 7.2566 1.3674 -7.4551 -3.1985 5.6095 5.5003 -4.0112 0.52865 -1.362 -9.8672 8.5982 0.63048 11.149 4.2562 11.061 
chos -4.8789 2.5948 1.0346 -2.5148 2.0432 8.2491 3.8077 0.75496 -9.5262 0.66333 0.3839 -4.0947 -1.3018 4.8357 -0.42107 -7.7419 -0.070514 -1.3542 2.3096 2.1244 -4.4166 -4.1228 -5.3841 1.9196 -9.8127 
kol 1.3587 -0.006606 -0.4517 -2.4408 10.747 4.7719 1.1524 -6.7114 6.0747 6.1325 4.4536 -12.425 -14.649 7.0681 -0.68546 3.7091 -8.3007 3.7488 3.693 -0.90914 -5.826 4.4109 -9.1302 -1.7652 -3.3508 
sy 5.7212 -3.7066 3.3305 4.3041 6.778 4.6111 -1.7631 -2.961 -8.8849 3.327 -0.61389 3.2679 -8.1187 0.0031648 -10.584 -11.869 -6.9198 14.301 -5.2285 11.197 -2.0479 -4.2567 4.9629 -5.3047 -11.564 
cheos -4.5037 2.9892 1.794 -1.0406 -1.4209 -1.2291 -0.20885 -2.7812 -0.08591 0.63699 1.5567 -4.6093 2.8267 3.1877 -6.1356 -3.2827 0.90222 -3.6359 -0.73552 2.6643 -9.6562 2.7523 -4.7967 4.6876 -1.9774 
ykar -5.071 0.050994 3.2369 -3.2223 6.1721 -2.8366 3.3026 -1.6221 1.2218 -2.1315 4.409 7.0197 -3.4422 6.7591 7.8073 -5.4823 5.5416 -2.3459 -4.3462 -4.2622 -0.41596 0.70994 -6.5657 -10.574 7.1634 
lkeedy -7.252 -2.8686 3.9542 2.1831 -2.5397 -5.8775 -0.43914 5.6201 -0.7913 -6.1561 2.0483 0.27348 1.3625 -1.7256 -3.8679 7.7817 0.22391 -5.3917 6.0368 7.8532 -0.89132 4.8915 6.4497 6.4901 5.0633 
oteol 0.40337 3.1247 -4.5967 5.7582 -2.294 3.1184 4.4453 -8.6363 8.3579 4.581 -0.95964 -4.8877 1.246 -1.2344 -3.7039 -4.3981 4.9673 -3.5247 0.67737 1.2593 -2.4857 -2.4107 1.3264 3.3925 -2.0675 
okeody -3.3749 0.87719 -1.001 -2.2463 1.6885 2.9554 7.9506 -10.615 -0.061419 4.1915 4.3519 -4.6371 3.9018 -3.9137 -4.5931 -7.2585 6.7319 -9.8224 0.5015 -0.7864 -6.1602 -1.3307 -5.0484 7.4571 -3.9651 
ckhy 2.4027 0.086081 2.4063 -3.0445 -1.3619 4.8398 2.3455 0.3077 -5.9335 5.3227 -0.30391 -0.012352 -7.6326 1.6866 0.83645 -2.9475 2.221 4.1281 -2.4901 -3.2671 -4.558 -0.80762 -13.261 -0.92154 -3.3039 
okor -1.0202 2.2509 -0.62909 4.3748 -3.6232 9.6603 2.7581 -4.6249 -1.3102 7.1511 2.3121 -1.7257 -7.2089 -1.9923 0.73429 -7.6888 1.0753 -6.1038 -0.24727 -2.7648 -2.6851 -4.4179 -1.6948 1.3991 -0.62437 
kchy 5.6423 1.4343 -4.1033 -10.354 10.844 9.7763 2.6776 -4.3058 -2.2831 1.2623 0.90359 -7.501 -9.6616 1.0613 5.4091 -0.95148 -5.1277 12.873 -0.16833 -3.6873 -0.63761 -3.4224 -3.6122 -4.9934 0.0023016 
oraiin -0.50065 0.4619 -2.4162 2.1614 -2.7776 1.298 1.496 -1.2667 -2.4292 -1.1156 -3.2878 4.0207 -1.4545 2.4012 -1.7659 2.4729 0.065798 -4.684 1.957 -0.18065 -2.1822 2.8824 -4.8325 0.089468 0.36383 
pchedy 2.8297 -0.05512 -2.5397 0.45716 -1.2611 -11.319 7.1174 -2.7102 0.31825 0.35695 -3.4638 3.0545 5.6343 -4.6621 -1.0063 8.9583 -4.8387 -2.2802 0.007276 -2.6482 4.6596 -1.0652 6.3898 -4.1925 4.5868 
oiin -3.9907 3.9566 7.0162 3.8308 2.1636 4.6339 -0.85948 -0.7522 0.60207 -4.4696 -4.5543 -0.009886 -5.9251 1.5178 -0.7132 1.2747 1.4329 -2.4726 1.0092 -1.9019 -2.3407 0.57297 -5.5241 -1.2735 1.1059 
otchedy -1.3553 -3.7161 -3.4215 -4.9516 2.0528 -2.8613 2.7254 0.70849 3.2627 0.15055 -4.4052 5.0102 4.7345 3.4774 5.9507 4.7279 -3.4838 -4.9275 4.2167 1.3317 -1.1547 4.1941 6.2941 1.1655 0.35866 
chedar -2.1995 -0.48306 0.41094 -0.29706 -1.7214 -2.6904 1.0298 3.1326 4.9177 -5.4995 -1.6844 0.63478 5.7229 2.5137 -3.7989 8.7595 3.41 -6.9989 7.0948 4.6485 -3.0684 1.811 5.7412 3.2641 -4.0462 
sheky -4.1335 -1.104 4.6776 1.9563 4.8563 0.55238 0.79385 -3.6214 -0.94329 -5.7808 2.5234 -0.6211 0.10382 -13.048 -1.3064 2.196 -1.1155 0.58944 -0.037344 5.7176 5.3197 -0.083938 -0.44333 -6.4649 -0.73693 
dshedy 1.1378 -3.921 1.9513 -8.01 -0.52094 -1.438 3.6243 -1.0728 8.4073 -1.4407 1.0964 3.0621 1.8389 -8.9413 4.4042 6.215 -4.4367 -1.1496 2.7485 1.3577 2.8023 -2.3511 10.035 -1.7722 6.5712 
lkain -2.9404 0.19273 2.9543 10.605 5.6083 -11.45 -5.6707 1.7936 0.62947 -3.0776 -3.6924 4.5115 -5.5758 0.79245 -3.432 5.3586 4.4588 4.2874 -0.7286 4.7153 -1.5007 0.46927 13.413 2.8736 1.1591 
otchdy -1.0036 -2.223 0.15685 -7.5075 1.8199 2.5019 4.9219 0.53551 -0.068313 -0.41135 -0.3259 0.22251 6.9052 1.1128 3.3831 4.7599 1.6728 -7.8664 2.5713 -6.0528 1.7611 1.0776 -0.0034035 -4.0602 -3.1581 
tchedy 1.5388 -0.86086 -1.1316 -6.4238 -2.4007 -6.4269 -0.86866 -2.3158 0.12175 -2.8128 -4.401 2.3079 4.0902 -7.0026 4.3095 9.0112 -2.8437 1.7355 2.6611 3.5094 -0.10351 0.23726 8.2927 0.7489 -7.6892 
qokeody -4.1824 -0.45779 1.3209 -6.9424 -2.3396 4.3061 5.342 -5.8065 -2.1538 6.3327 3.6609 -2.0721 3.1788 0.53948 -11.164 -5.2866 -2.4941 -3.8567 1.8024 3.7843 -4.1079 -0.019949 1.3784 7.3623 -0.74774 
shar 0.65127 3.2334 6.4182 6.7102 6.1095 -0.22576 -3.5364 1.0069 -0.16401 -4.3387 -11.674 4.3997 -5.133 1.0775 0.6807 -2.8103 4.2008 0.26704 -3.7356 -3.0354 2.1722 1.3177 4.7011 -6.2122 -7.1319 
okam -1.0346 4.8787 5.1716 -0.94392 5.1211 -2.0214 -4.2816 1.9692 -2.8089 -1.6908 2.433 4.243 -0.32565 -5.5229 2.9993 -0.41215 1.1865 -7.7466 1.5483 -1.4041 0.74064 -0.51288 -5.3696 0.45131 -0.34015 
olkain 3.7754 2.6691 8.0295 11.891 1.5539 -5.2968 -5.6562 -0.72287 0.84746 0.98042 2.033 8.2261 -4.4688 -4.1034 -0.23522 10.595 3.4875 2.7041 -2.4463 -1.337 3.0614 -0.21008 5.5105 -7.5547 3.7786 
sheckhy -3.302 -1.4225 8.6322 6.1401 -1.1148 -3.7841 -3.9157 -4.9591 1.1158 -3.3836 -0.23707 -2.4095 -3.8007 -6.5159 1.2579 5.9835 -0.7283 0.75685 -2.995 -2.4715 0.60916 1.2361 9.38 -1.3097 3.3151 
otchey 3.8493 -1.6155 -3.3162 -2.2125 6.5044 -2.5832 4.8873 1.9702 0.095638 2.3385 -3.9294 4.6511 -0.90767 5.7664 -3.815 -0.40483 -5.0046 -1.0546 2.4895 0.36448 -0.98562 -1.5019 -4.0561 -0.87667 -2.2331 
daly -4.3718 6.8155 -3.2153 -1.2728 0.37408 -0.66202 -0.87245 -4.1328 -1.4965 -2.1051 5.1413 0.17061 -2.6951 -6.612 -4.2566 -0.091673 9.5181 -6.0099 -4.9376 -7.8242 1.6455 1.5449 -1.2155 -4.8809 1.7868 
shcthy 2.1517 3.0463 -0.97241 0.67338 1.4246 0.85245 -6.1513 -1.0117 -3.4288 2.9038 0.3959 -0.93635 -2.7634 -1.3342 -1.6124 4.1423 -7.2532 0.1377 0.74031 -3.7366 8.033 -0.28912 9.4329 -5.3199 -3.43 
okchey -2.4564 -2.8174 -3.0291 -1.4548 0.5149 -1.0156 -0.61915 0.67653 0.041136 3.1155 0.58135 -2.3879 0.83084 -0.42639 0.60921 -1.4382 0.76041 5.5241 0.81155 3.5191 1.8772 -0.85701 -2.3689 3.3762 0.80546 
os -11.94 -0.84754 2.9319 13.621 16.537 13.104 7.7741 -6.5543 -3.3782 7.4382 -3.5408 -17.766 4.7108 10.127 5.2576 -14.588 11.934 -20.626 -3.5946 -11.874 -8.2125 5.6259 -6.3666 -4.5341 -7.8233 
qokor 7.8511 2.5342 -3.0425 0.48487 -7.3555 0.058736 6.0431 -5.858 -6.076 5.7777 2.0188 -1.6693 -8.4479 1.2912 0.5749 -1.5228 5.7463 4.6474 -0.146 -2.6047 5.4211 1.6163 4.1752 2.5674 4.4842 
okchy 1.8653 1.7732 -2.8379 -4.6951 3.7836 5.6831 -0.47648 -2.35 2.0081 1.7833 4.4218 -1.354 -1.6507 0.79271 1.5403 -5.0025 -5.3916 0.51859 -2.7564 -2.3614 -1.2473 1.3075 -2.8936 -6.07 -4.4823 
lkar 1.5961 4.953 -4.4241 1.7005 3.7986 -8.4515 -1.4511 0.8459 -0.25984 -1.22 -2.1794 12.565 1.3727 1.0578 -0.49917 5.2903 0.18171 1.2906 -2.7374 -0.34284 -1.9545 7.902 8.2022 2.9276 3.8918 
qopchedy 6.871 0.86073 2.3582 -5.3524 -5.5679 -6.7118 0.088823 -4.3321 -3.2775 0.40828 -0.77425 3.0746 1.8797 2.6467 1.3284 4.5546 -2.0525 -6.2747 3.5075 0.21966 -2.5603 2.5143 8.5493 1.3627 3.2815 
olkaiin 3.2592 0.51816 3.9333 2.6532 -1.7701 -7.2669 -0.60479 -0.97325 -2.9291 -2.4111 -4.5134 7.0906 0.28244 -0.93197 0.70614 2.0321 3.5283 -2.8294 -0.96164 1.1725 1.0268 4.5541 -4.1899 -3.8055 1.5164 
olor 3.5494 -3.6023 5.2072 5.6529 4.1115 -5.1868 -1.6296 -4.9867 4.0249 5.177 -3.476 4.9481 -2.7866 -2.492 0.23013 -3.632 -0.070353 0.18719 -8.5971 -7.5215 -0.40953 -0.82156 0.28556 -4.9639 4.3529 
ykeedy -0.3419 -2.4216 5.2837 -2.5451 0.49055 -0.5439 -2.0219 -5.5569 5.4429 -3.2302 6.156 2.4826 4.7512 -3.8529 -1.4638 6.7866 -2.7412 -5.4647 4.4775 4.981 0.12623 -0.15116 -0.17337 -5.0144 5.1286 
yteey -0.71727 -0.26245 1.7338 -1.7174 1.8058 -0.10934 4.094 -1.3696 4.3111 0.75123 -11.421 -0.64733 0.87239 4.5371 -0.2391 -1.2181 4.8349 -7.4061 1.4117 0.78537 -7.7272 1.3909 -0.50616 -3.274 0.36782 
opchey -1.4493 3.6805 -3.7261 -0.31851 -2.8943 -3.6873 3.1346 -1.5329 -4.1007 0.86752 -0.080545 3.0474 -1.579 2.4006 -1.0635 -3.6186 -6.6242 -1.3437 -4.3652 -6.6499 1.6654 -0.50878 5.7934 -0.22826 1.179 
chckhey -4.9822 -3.269 -0.2558 1.9863 -0.89737 0.70664 0.2193 -1.9469 -2.1547 -2.0452 1.0202 0.73204 -0.038863 -1.5831 -2.4722 2.6698 -1.486 -0.3276 1.071 3.1031 -1.3976 0.66961 4.3232 2.1395 4.4034 
checthy -5.2879 -2.5453 0.11146 -0.42827 2.6202 -2.2271 -4.0224 -0.029797 2.7459 1.7877 5.2142 -4.1279 -2.7661 0.049049 -2.0531 5.0286 -1.7121 -0.8773 3.3531 0.34963 2.6497 -2.1631 8.2233 1.1013 3.4312 
cheal -2.9217 2.2604 1.4236 8.2334 10.231 -7.3816 -7.0282 -2.1087 -3.2437 0.36363 2.9347 1.1255 -4.1628 1.0551 -5.2149 1.3062 -0.81327 0.96673 1.0558 0.83344 -1.0111 -1.8208 -1.2065 7.7453 -0.94836 
ky -1.712 -0.52774 5.4533 -2.4188 1.2175 -2.2508 -10.405 14.756 3.6416 8.5082 13.816 -20.553 2.5266 -6.4629 3.6577 -6.9559 -15.997 9.5556 -7.4096 1.6832 -7.2925 -10.58 -0.36476 -6.8305 -1.4308 
oldy -7.9032 0.93023 2.0144 -1.9576 6.6569 7.019 7.2637 1.2767 7.6428 6.7665 9.3222 8.6892 -7.3097 -1.7894 -5.7605 1.1654 -1.7085 -5.5427 0.0049466 -4.4876 8.6023 -0.98464 2.3184 -9.1197 0.99434 
chl -5.6015 -0.98985 3.1965 3.1892 -0.027814 -6.5665 -5.9351 4.0395 1.3713 -1.6508 0.36259 -3.445 -4.1964 6.2587 4.9197 1.7638 3.6605 6.7848 2.0715 -0.017226 3.9065 -6.2341 -1.372 1.7374 2.0317 
otchol 2.3719 -0.30816 -5.6832 -0.58596 2.5272 10.52 -0.52755 -4.1415 -2.4002 5.9286 -5.3746 -5.3453 -10.534 7.3233 4.0662 -3.0634 -4.1455 4.481 -1.3209 -4.5388 -3.9711 1.9329 -4.3245 -5.1188 -6.7331 
yteedy -4.218 1.2828 0.6055 -7.0812 -0.58464 -3.5848 3.3803 -3.915 -0.4469 -0.84071 -2.8418 1.9188 0.77657 -4.1839 -1.535 2.4457 -1.3922 -7.2585 0.64891 0.86489 -4.5639 0.051547 2.9827 -3.0402 2.1513 
dchedy 0.24853 -2.9951 -4.6332 -9.6237 -4.2355 -2.7688 -4.9775 -2.4372 7.3609 0.27779 4.7476 9.0849 -0.81389 -3.9271 3.0302 3.135 1.05 1.0488 1.7442 4.793 3.4086 2.2895 6.5933 -2.1401 3.6303 
sair -7.3005 6.9785 -1.4454 -5.2747 2.6448 -2.4907 -0.31859 0.14786 0.3845 -1.4231 1.8702 1.677 -3.298 -1.0963 1.0878 0.96305 6.3818 -7.0318 5.771 3.4003 3.5981 -1.466 -4.8013 -3.6356 2.3084 
dchy 3.8488 0.74946 -4.4695 -7.5604 7.1147 11.296 3.0795 -2.7311 2.0123 -4.2827 -3.2655 -4.2895 -8.0707 -1.9537 1.3146 -8.3827 -7.7334 12.25 -3.8803 -2.3659 -1.0123 -7.0862 -5.7009 -7.036 -6.9472 
tchy 0.90539 4.2613 3.6895 0.56943 10.488 6.2478 0.67141 2.556 -0.8645 1.9487 -8.0279 -12.365 -5.0537 0.2187 9.004 -1.6376 -9.0218 8.0282 2.6624 -4.1795 5.766 -7.9161 -2.9117 -2.884 -12.032 
qokeeey -8.2349 -4.2934 4.156 4.0719 -0.22618 -4.6986 4.1066 4.6321 1.6545 0.30571 -0.24866 0.52124 4.3153 4.7739 -5.6947 2.9125 -0.13206 -0.76092 2.4437 4.7922 -5.1943 -2.5038 3.7658 7.1782 2.7444 
qokchey -1.7949 3.3851 -3.8243 2.1816 0.05599 -0.44806 -0.20456 -0.040052 -1.8075 2.3098 -4.0344 0.29348 -0.14621 -0.26272 -1.8454 5.681 2.4799 6.3709 1.0482 2.3057 2.248 4.1134 0.19311 2.9613 1.1089 
ckhey -5.5062 0.94051 8.8323 0.83622 -0.52884 6.0885 4.366 8.0468 -2.8174 4.9239 4.4824 -1.6039 -9.93 -2.2827 -10.334 -4.4551 -2.0881 0.073012 0.01588 2.3788 -5.4048 -1.9953 -9.8565 6.3483 -3.8932 
aiir 0.41427 3.9443 -0.4881 -6.1929 3.5562 -0.86003 0.14955 1.6913 -8.7397 -4.1987 1.9827 1.681 0.57908 2.3266 6.5482 -7.6756 7.1808 -8.5478 4.6606 3.0942 1.312 5.1113 -3.8513 3.7166 -2.4149 
kal 6.2893 -4.167 8.9223 0.26213 7.9831 -2.7959 -7.5482 1.9673 -0.57503 5.4986 5.1039 13.256 0.8835 -3.4652 2.0959 1.3378 2.7285 -5.7114 0.56806 1.4508 -1.2257 -0.22367 2.8995 -1.2976 -3.537 
daiir 1.0073 4.6908 -4.5616 -4.18 7.778 6.9516 3.4494 0.027112 -5.8595 0.62903 3.8046 2.0126 0.75814 6.0601 1.0112 -3.393 -2.9183 -6.5675 2.8161 -7.2639 -3.3514 -6.7294 -4.2437 1.3424 -3.5889 
dchor 7.6054 -5.5186 -8.6041 0.52203 4.2104 8.4836 -0.52747 0.77653 3.2165 4.3707 -4.0093 -5.9037 -11.989 2.5008 -1.4629 -0.83934 -5.0094 6.9178 -3.1678 -3.41 -6.4665 1.2208 -9.8036 -7.7851 -3.1023 
kor -5.931 5.5294 2.1201 5.6604 -0.93195 9.9692 4.8772 0.99862 7.4537 -0.19807 2.7587 -1.7423 -6.4669 0.55055 -1.2194 -6.4792 1.34 6.7445 -2.35 2.7027 3.6099 -0.72024 -9.8586 -5.9521 -1.8193 
lkedy -1.1531 -1.2188 3.1696 1.9809 -1.8155 -2.0317 -1.7685 -4.6486 5.8576 -5.6016 3.9532 7.9595 6.9707 0.50863 -1.442 4.1565 1.6305 -4.7887 7.4628 6.0814 5.7381 0.80929 9.3514 7.8144 4.9594 
she -1.9283 2.5125 -0.94494 0.35181 7.5905 5.6209 -0.80696 4.9127 5.4474 2.8422 -4.4361 -8.5502 -4.0172 -2.9269 7.8244 0.83093 5.9463 2.2797 -2.0758 4.832 -8.179 4.1723 9.7359 -10.795 -9.5132 
olkedy 4.6034 -4.1661 3.2643 2.5525 -4.8384 -1.8864 -5.9747 -5.4024 4.938 1.8592 1.118 6.3202 0.65483 -6.3442 2.803 2.6965 -5.9234 -7.3856 -2.8323 -8.1924 4.4056 -3.0161 9.0161 -5.5379 2.9088 
chedal 0.4144 -1.6664 -2.9825 -1.9384 0.1711 -4.3801 -1.6297 -1.0729 7.0814 -1.7417 -0.023535 6.7855 3.2227 3.7183 -0.75973 0.09327 -3.5502 -7.1034 4.5127 5.577 -2.9023 2.7031 0.19862 2.1968 -2.1329 
qotor 2.2993 3.7784 -4.5384 -2.9022 4.3542 -0.13909 1.7336 -3.4395 -5.8301 3.2668 -4.7727 0.59416 -3.1661 10 7.835 1.016 -6.3297 8.2657 -2.5674 -4.3114 -1.4552 3.8819 0.8592 -4.6785 -5.8198 
okeeey -8.0499 1.4418 -1.3184 3.3554 4.5002 -0.1864 0.15949 1.5254 0.1798 0.41783 -0.67869 -0.43941 -0.32525 0.77885 -9.3489 1.4968 0.76448 -5.4203 3.4467 5.7594 -7.3985 0.83989 -0.87177 5.913 -2.7555 
oaiin -2.0071 -4.0315 -1.6431 -1.0883 -4.6844 0.78677 7.1845 5.4609 4.839 1.0396 5.0559 -8.74 3.9683 2.4165 -2.7192 -3.9694 2.2645 2.8339 -1.4947 1.4053 -2.4006 -0.95745 -4.8153 1.1144 -4.8648 
aly -4.4221 10.549 -1.1356 8.2905 5.0905 -1.653 4.2422 -4.5539 6.2007 -6.3536 -0.30094 2.0507 0.49302 -9.9136 -1.1277 -3.6554 12.598 -3.972 -2.2239 3.8338 -0.028112 1.6371 -1.0158 -0.704 -8.5667 
otair 6.1034 12.186 -3.4594 -2.4753 0.84915 -6.2421 -1.513 1.833 -0.020848 -4.4936 0.75441 7.9028 -3.3477 3.9266 -0.80125 -2.4534 7.4967 -9.6708 0.76191 -2.9608 -4.2972 3.9055 -1.9437 1.4868 -5.6311 
qokam -3.3434 6.3676 6.1456 -0.064497 0.48568 -3.324 -3.1711 4.2101 1.6483 3.0063 6.7052 -0.34781 0.24391 0.30835 0.013727 6.7798 -1.8185 -0.88356 -1.3182 -5.1051 2.6306 5.7488 1.9615 0.18122 3.536 
okchdy -6.6941 1.1008 -2.0082 -3.9681 -2.4721 4.0408 1.3946 -1.4357 0.52346 2.0715 2.0718 9.5363 4.5412 -1.3185 8.2109 3.9554 -0.91495 -6.5036 1.8715 -5.1239 5.3349 -1.2781 -6.4315 -4.832 2.4569 
cheeky -2.0129 -0.069409 3.7227 7.9974 -0.32384 -1.2405 0.05113 1.1878 2.6409 3.2491 6.8894 0.92064 2.5468 -1.1171 2.1672 4.118 0.50484 4.1048 0.18868 5.7638 0.57916 2.9353 3.649 1.3318 -2.067 
olchey -0.9603 -4.0912 6.8953 1.2456 2.7705 -3.8271 0.60944 -6.798 -0.02338 5.3546 3.2037 0.72109 -4.5363 -0.61285 -3.6516 5.5732 -1.2833 1.6178 1.3601 -3.7516 4.2003 -6.1014 9.6443 2.5096 5.106 
dchol 3.0449 1.7213 -9.3072 -5.8971 0.60403 8.8698 -3.0129 -1.9021 0.44046 -0.33518 -0.35937 0.22404 -7.5128 2.7851 -1.3707 -6.8855 -6.9724 8.0605 -6.3798 -3.6649 -3.7974 3.3295 -2.7547 -4.6384 -5.9557 
ldy -11.642 -10.304 6.967 3.5244 -7.0554 -1.8867 15.123 1.5185 8.3413 -10.876 5.1257 -11.423 0.51941 0.43459 -8.0239 2.9127 -7.0199 -4.231 -4.305 -7.0768 7.6348 5.4927 13.714 -5.4295 3.0315 
ary 4.8736 4.6058 8.8759 7.203 0.17417 -2.2399 10.238 -4.0091 5.7328 -9.5918 10.752 5.9763 -4.8211 -2.7091 2.1215 -3.9583 1.294 -4.0805 -4.7254 -7.1669 -8.7328 -3.2979 -7.8093 6.5539 6.4154 
oteos -6.1521 -0.73092 -6.5244 4.75 7.7232 4.9243 2.7877 0.016899 -4.427 -2.018 -1.5031 -1.871 1.1418 -3.1311 -3.7189 -12.426 5.0864 -10.539 1.6871 -2.2098 -3.9576 -14.085 -5.4053 6.286 -13.084 
shear -1.9549 1.5462 -0.71303 0.89436 3.8937 -2.0374 -0.27439 0.90444 5.7555 -0.81142 -6.697 -5.2477 -4.6529 -10.131 0.10715 1.6208 1.2121 2.2538 -4.8151 -4.4152 -3.7208 5.2289 2.6521 6.0589 3.8133 
kchol 6.02 1.0732 -0.41878 1.4099 4.498 7.3529 -3.1233 -3.1687 -10.655 6.3039 -0.092634 -7.0508 -11.091 3.6528 6.0663 -4.4737 -3.1872 8.8765 -0.12226 0.72094 -2.0903 1.8397 -5.9096 -0.6406 -6.1802 
ytar 3.3069 5.237 6.2201 1.5847 -0.46142 1.7982 6.4986 -2.7291 -4.8616 -6.4245 -6.0744 3.107 -2.0649 0.23371 9.5375 6.0937 19.41 -2.9973 1.9194 -1.4349 1.2287 9.3054 -3.9466 -4.7194 -5.962 
tal 4.5393 5.3242 6.9834 5.1446 -6.0221 -1.872 -1.8807 -10.511 -4.0202 -13.054 -2.1947 -2.2151 -0.79698 -3.4186 -1.8707 0.0017374 1.7848 2.5251 -7.5262 -4.2894 8.632 7.74 -0.25823 -15.557 2.0381 
qotchedy -0.72936 4.9121 -3.579 -6.5344 -6.6408 -2.5399 -2.1796 -1.0957 0.62038 -1.2349 -2.1649 3.445 4.4367 1.2428 5.451 6.7405 -3.2746 0.70693 2.6267 0.7166 -3.7312 0.0013699 8.1729 3.6181 -1.0544 
ytedy 6.6519 0.0092234 7.7659 -4.7403 0.41513 8.2882 0.73138 -6.9506 4.0633 2.9698 10.824 -1.4379 7.0987 -3.0753 5.2602 5.764 -3.5021 -7.729 5.0632 -3.2591 1.3129 -7.2846 0.49152 -8.9116 1.2023 
okchedy -4.9938 -1.3668 7.8636 -7.4727 2.8314 -6.4953 -1.5003 -0.27671 0.4897 2.1388 -4.1173 7.0858 2.3357 0.48836 4.9224 7.6305 2.1782 -4.8169 6.0384 4.5751 -1.8163 1.2353 -0.10395 0.98416 0.64963 
chockhy 3.2345 -1.8445 -2.444 -4.8831 -5.9172 5.0749 2.0841 -8.2835 -1.5136 -0.21196 -2.3763 -7.4294 -3.2474 1.4396 -0.42417 -5.5412 9.6864 1.9932 0.62834 3.5539 -5.5505 1.7822 -2.1972 1.9842 -0.46382 
otaly 2.665 2.5905 5.6974 6.7185 4.1684 -4.838 1.6365 -9.584 4.4687 -3.8411 4.552 5.0815 -0.71905 -7.9146 6.7587 -4.2142 11.105 -10.005 -1.1037 -1.5824 -0.43463 -0.87574 -4.6384 -0.042164 -12.157 
chdar -2.963 5.3859 3.2263 -2.4156 -5.7187 -1.6014 3.6799 3.1623 8.0475 -4.1252 1.1794 4.4102 0.42031 2.5568 7.2453 -0.0066129 2.6152 -11.11 1.4295 -4.1266 2.731 5.7872 -0.14808 -2.915 0.50026 
dary -3.6936 11.478 8.0737 -5.6195 0.32564 -3.3788 2.5082 1.5656 8.1071 2.1612 4.8634 0.93237 -1.0631 6.3083 3.985 -4.6649 0.87845 4.8528 -1.2469 -0.81863 3.8867 -6.2766 -1.4818 -6.6078 3.5204 
otody 1.4544 -5.9853 -1.436 -5.9224 4.6641 0.97035 0.75319 -4.057 7.4132 -1.1796 -1.2484 6.3367 13.366 3.7551 6.5044 0.073743 4.9656 -9.4356 -1.0673 -6.1794 -5.9563 -3.0933 -9.4132 -8.7214 -1.488 
qotchdy -2.2047 1.4501 -0.25066 -6.7538 -1.2405 0.46522 2.9132 -0.66809 -3.4747 -1.6173 -0.19292 -1.0189 -2.0352 0.34546 7.8824 8.5591 0.88914 -5.8258 5.3962 -1.9525 -0.21499 1.7364 -0.43495 -4.0066 -5.6449 
olky 4.4878 2.722 2.215 11.93 0.82886 -0.15647 -9.8288 -2.3005 1.3443 6.942 2.2957 9.0929 -0.66564 0.87279 1.6178 5.9876 -4.9297 -4.1564 -3.3179 4.0738 -3.3035 6.573 3.9719 -18.308 7.9349 
qotey -2.0427 -2.0142 -0.58251 -0.69506 0.55625 -3.2669 2.1603 -3.3738 0.50865 0.67336 -1.2105 -5.9915 1.8558 8.1372 -4.6562 0.95696 -4.4541 -6.6527 8.9017 6.634 6.7388 -1.2161 10.026 -4.6258 4.6947 
yty -1.4276 -7.1758 5.1855 -12.162 20.291 5.8927 4.0473 -3.4503 -4.547 1.5617 -11.28 -5.1849 -1.0185 5.4006 4.2292 -10.006 4.7858 3.3228 -0.12708 -4.0704 8.5406 -4.9835 1.0028 -12.659 -3.0856 
okaly -2.8069 -5.3888 -0.24699 -1.6003 -0.79102 0.29579 -2.2983 -6.6125 -1.9824 -0.84447 7.1746 4.2696 -0.02262 -7.9673 -1.99 -3.3938 15.724 -11.537 -0.50539 0.31543 0.67049 -6.3859 3.3013 -8.1016 -0.25861 
shodaiin 4.5055 -1.1724 -5.1969 -3.2262 -3.259 3.5424 -1.4025 3.4386 -1.9065 -4.8981 -3.2175 -0.92078 -4.9993 6.4386 -0.62419 -4.0731 1.6701 2.7998 1.6977 2.6743 -0.20186 2.5979 -1.6817 -1.7192 -0.98224 
ykchy 2.7533 1.4902 -1.6862 -1.3552 10.542 16.908 -0.47051 0.21262 -1.2309 -0.53548 6.7994 0.092251 -4.3636 -1.7536 1.3329 -4.8563 -7.0482 6.7348 -4.5463 -2.4909 -0.15298 2.765 -5.5274 -9.2875 -5.7135 
kchedy -1.3673 0.081981 6.7866 -4.992 -4.7124 -4.4983 8.6875 1.3423 -2.1253 0.061069 -0.3796 6.4717 6.9885 6.0399 6.0598 6.2338 0.28051 5.0634 4.7613 6.5196 4.8548 3.5901 4.8958 1.0647 2.3126 
qoaiin -4.3925 5.0143 0.80315 -1.6576 -5.5133 1.0864 0.00389 7.0279 3.6626 -1.5693 0.10039 -4.0193 -1.4233 4.9436 -1.1624 -6.257 3.5242 -1.7881 3.1343 5.7876 3.8263 4.2105 -2.7323 0.13981 1.4186 
tchor -1.041 4.9448 2.245 0.4355 2.5711 12.752 0.68895 4.9173 -2.6667 -3.0687 -8.0669 -5.6025 -7.3983 4.3403 4.8951 -1.076 -4.7253 13.457 -0.53335 -5.3223 -1.9719 -4.8242 0.54854 5.6124 -8.0404 
kchey -2.2406 2.5169 -2.9916 -0.047815 1.7286 -0.59342 4.3629 3.1297 0.22386 4.2866 2.7873 -6.634 -1.1376 1.6996 2.0517 -2.0936 -2.807 4.5085 -1.3646 4.4448 -2.8326 2.5407 -1.6 -3.9282 -3.6729 
chety 1.2975 1.6664 4.5745 -1.5467 5.8009 6.742 -5.3667 7.3511 -2.635 -1.293 1.3846 -5.0108 6.2367 -1.6882 3.2416 -4.3407 -0.8529 -0.80312 2.0968 2.5566 -1.351 -3.0833 9.6707 2.7291 -5.1139 
ols -9.9047 1.0808 -12.498 8.7152 -11.287 -0.51926 13.692 -0.94631 6.2677 4.9553 16.288 2.6559 -1.3451 -1.0252 7.0089 -5.0178 -0.38056 -4.7571 -1.3355 4.6081 9.8396 5.5018 -5.2392 -8.8401 7.3805 
tor 0.48256 10.398 -4.6161 -8.0935 4.5403 7.5064 8.2248 -1.3072 11.434 2.1648 4.2556 -0.1181 -8.4844 -4.7069 1.2078 -3.8448 5.3849 -1.8158 -5.6042 -3.0355 -5.0512 1.042 1.4297 -15.966 -2.3644 
odar -1.1642 -3.2754 -6.8139 6.457 -5.8104 2.2424 13.371 6.3696 2.6622 -5.2239 -3.0214 5.0019 3.6096 7.2685 5.0394 1.1422 10.504 -13.278 7.0501 -0.52317 4.7997 3.8142 -11.253 -2.5364 -0.84193 
qor -6.946 2.5664 7.7452 -2.4739 -1.1232 -10.878 -2.6173 -2.408 11.506 4.1829 -8.6368 1.2091 -13.209 -6.9685 7.1639 9.4694 -4.1551 5.5401 -0.90003 3.2029 -2.7119 12.8 -7.8173 3.5537 3.4456 
rain 0.20063 3.4889 7.4859 15.562 -5.0657 -5.6448 1.3608 0.62518 2.0097 -9.0192 -10.745 -1.1475 -2.8195 -0.41125 -7.7054 3.0738 0.28062 -6.428 -1.3094 -0.70915 1.6438 7.2725 12.404 0.57092 0.091136 
olshedy -0.33005 -1.3327 4.4567 6.1881 -7.087 4.1639 3.8986 2.5382 7.6359 5.5699 -0.3819 3.5071 2.925 -9.3819 1.0741 7.2065 -3.6415 -0.7679 -0.90184 -2.0257 6.4184 -2.1745 11.516 -4.1025 3.7162 
sh -3.7096 5.5045 -17.322 -0.36216 9.9049 8.4448 -4.3057 -4.4128 -17.454 4.0179 -7.8532 -18.726 9.461 5.6216 9.0705 -9.1537 -3.923 1.0339 -1.3814 -11.109 -12.05 -21.921 7.6995 3.3871 -6.4772 
tchey 1.4594 1.4542 -6.8529 -1.5581 6.4522 1.2023 5.3192 -3.9885 -4.0943 -4.3857 -8.3142 1.6782 -3.2907 1.1855 2.838 1.0586 2.0568 9.6196 -0.10039 -4.2847 1.4246 -1.2803 -1.81 6.8364 -1.0222 
om 15.606 9.9602 -20.631 -1.9217 11.785 -4.8247 -3.2829 8.5006 -17.773 12.632 4.285 4 -2.8871 -0.16534 -4.498 3.6114 12.477 -7.9594 2.9921 5.3069 -9.6646 14.413 -1.3701 0.10249 1.8579 
qokeor -7.1395 -0.26596 -0.93972 7.0617 -7.5099 0.85096 2.9727 -9.1082 -1.3423 2.1071 1.9322 -8.2 -3.2265 1.5057 -6.2467 -4.6898 -7.3412 3.9251 -1.8209 7.0708 -2.6261 1.9766 4.0155 1.8685 -0.65976 
ycheey 1.185 -3.3713 -1.1462 4.3171 -2.695 -3.6721 3.6043 4.6088 5.3268 -2.7059 -1.7376 -5.7224 1.317 4.5013 -3.5581 1.4517 9.5938 0.92533 0.72133 -0.51979 -0.46807 3.1842 -2.4895 4.6915 2.4805 
qokair 1.3042 -2.6728 4.1353 -7.7056 0.97436 -9.2063 -6.2625 -7.9006 -2.8189 1.621 2.1011 5.8322 -2.064 -1.7152 1.9118 -1.1458 6.6048 -3.1093 0.1232 1.9725 2.3288 2.1801 -3.3917 -3.489 -0.12871 
daldy -0.53456 4.1933 0.93172 -0.48021 0.5219 3.8698 1.0699 4.7846 2.5784 -5.7299 1.9751 -4.4875 -5.734 -8.609 -1.8486 -3.3207 1.8838 -6.8594 3.8209 7.0077 4.2415 -5.2437 0.70085 -13.384 -7.4366 
teey -4.1556 -10.84 -4.8216 12.543 -9.3484 -0.29973 10.917 0.47883 -2.9222 -0.30316 -3.5874 -2.0273 4.1538 -5.2098 -0.033916 -12.165 7.5852 7.39 -6.7 6.6004 -3.1407 -5.2218 10.245 8.8905 8.6689 
daiiin -2.1624 4.4972 -4.0176 0.39608 0.26205 0.71712 0.62672 2.96 -1.6989 -0.59017 -2.609 -7.6243 0.23087 -0.87605 3.0425 -1.3774 -4.204 1.0691 1.1232 1.868 -0.97841 1.1503 -2.289 0.77609 -5.2118 
ckhol 1.1649 -2.419 0.87089 -2.5647 -5.7596 11.323 -1.7862 -8.82 -6.5167 6.3472 1.6032 -2.2205 -6.6989 4.0819 -12.068 -3.6984 -1.6742 10.987 -4.6024 -2.5979 -4.5941 2.4729 -11.116 5.0196 -0.38703 
keody -4.3507 -2.3074 0.11635 -5.8774 4.2534 4.8254 1.7376 -4.5772 -0.83925 3.9247 3.0093 0.90568 5.5109 -4.3234 -5.384 -7.8632 -1.6988 -5.271 -2.9099 2.5951 -6.3019 0.14994 -1.8556 -0.73416 -10.987 
okair -2.8177 0.45973 0.26673 -2.2451 2.1607 -4.8271 2.3548 -3.5189 -4.4392 -2.9096 0.68024 10.722 1.609 -0.9875 4.9768 0.11746 12.356 -4.2085 -2.4173 -4.1368 -2.492 -0.61781 -5.6009 -0.017259 0.97293 
keol 6.8687 -4.4899 6.9612 4.1223 -3.7786 -0.51674 1.8224 4.0577 -1.6671 12.829 -0.15067 -2.4214 -9.2161 0.15216 -6.0865 -12.374 -7.1611 -0.40865 5.3765 9.0699 6.3039 -2.3175 -2.1852 9.3764 3.2182 
okeor -2.0512 0.57942 5.9378 3.8156 4.0941 -1.8484 7.3662 -14.071 -8.0656 6.4947 5.4333 -4.4717 -6.6002 4.8067 -9.0069 -16.235 5.242 -2.837 -2.5348 -0.77838 2.2973 -3.4975 -1.15 4.0261 0.51413 
qokeeo 1.6305 5.207 -4.9979 7.8857 -1.4538 -1.5808 2.1174 -2.933 0.13256 -4.0935 9.4989 -0.28144 5.4846 7.2461 -14.694 5.1378 3.1797 -3.2229 7.2756 6.7141 -4.7556 -2.9486 4.8697 9.7752 -3.2634 
dl 2.2553 -8.7799 -20.005 14.078 -0.96881 5.7315 -19.873 23.891 -9.443 -18.949 -3.0814 -3.187 9.1536 19.957 -3.9906 -4.9852 -15.776 -11.686 8.2071 6.9228 17.004 2.8683 0.16494 -27.03 23.885 
ykedy -1.5002 0.96628 9.057 -11.374 1.4916 4.0817 0.23731 -2.5515 8.0502 -0.35604 2.9482 5.9647 1.0361 -8.7907 0.30398 7.9341 -3.7663 -6.2906 -0.30752 0.71985 -11.028 0.53181 -0.9344 -7.5471 5.1234 
olkar 5.0295 -6.5431 6.2916 3.3157 -3.2448 -7.1821 -8.8769 -2.2774 -5.0346 0.23474 -8.0183 10.221 -2.5511 -4.8822 2.8866 -1.4631 4.9884 -6.2736 -4.4028 -3.2794 7.0755 8.5663 -0.1289 -6.1762 0.10476 
shecthy -0.78858 -5.2109 3.3556 0.36034 0.02003 -0.5229 -5.8284 -1.9651 -6.9513 -1.0118 1.7247 -3.7555 -3.908 0.78462 -1.5585 4.143 2.2448 -2.2972 3.9108 -0.97635 6.7092 -3.8203 14.761 -2.8674 1.456 
okeeo -9.8724 3.3721 -9.2225 7.1541 -3.7332 -3.8511 -2.988 -4.5752 -3.1058 -3.8984 2.198 3.7453 1.2463 6.4444 -12.294 -4.0227 6.982 -2.107 4.4646 10.305 -3.353 -6.8439 -3.5069 6.2719 -1.1087 
kchdy 3.229 5.9078 9.3602 -1.1932 -1.0002 5.6071 7.0367 -7.4906 2.4854 -5.2748 8.1695 4.9603 2.5568 -3.7724 14.396 3.011 -1.3871 2.3974 1.4656 0.70327 4.8759 7.9734 -6.0624 -0.98393 7.6343 
lo -8.6944 -7.6899 1.7639 -2.2618 -14.891 -25.674 10.398 33.071 -6.2242 -27.484 12.397 16.775 -1.5352 -14.088 -21.816 27.708 -11.266 -3.5196 -7.3394 -17.667 8.4067 1.6412 -9.5406 -0.036982 14.188 
cheeo -8.7341 -3.11 -8.0974 1.61 -4.0707 -4.6132 2.3849 0.62625 1.4074 -7.8396 -5.8226 3.3167 2.1257 10.401 2.1397 7.0527 -1.6971 -3.4056 9.5323 7.0238 -5.3522 0.18793 -2.3089 8.3899 2.1948 
kchor 3.7078 4.9104 -2.0717 0.5488 -4.0194 12.726 -2.5034 6.4815 -0.56152 5.5192 -4.059 -13.835 -11.997 -1.8843 0.71101 1.2949 -1.457 12.73 0.20098 5.4495 -4.4379 0.50237 -5.9891 -7.9601 -3.7925 
ctho 5.7765 -0.3115 -0.39055 -8.5814 -0.66597 11.059 2.4583 5.5932 0.80107 3.3992 -2.8182 -11.124 -11.276 7.5458 -5.2869 -2.3099 -6.0851 4.6854 -1.8517 -1.8576 -11.174 -0.37835 -10.105 -12.365 2.5728 
shaiin 0.048158 -2.7991 0.35258 0.81664 4.8797 -2.1761 -6.483 4.6326 -4.6544 2.0733 0.018576 -8.135 -5.7425 4.0015 2.1712 4.1258 -1.1488 3.903 -2.0161 -3.9244 -2.2839 9.7403 -5.1487 0.28474 -5.6228 
okeo -0.79072 3.5528 -0.70461 7.6636 0.48584 2.6579 -0.14222 -8.6842 2.883 1.4365 6.3281 6.22 -5.6046 3.6468 -10.026 -13.492 7.3253 -12.108 2.7485 1.8152 -4.6725 -9.7668 -14.893 4.864 -6.1553 
opchdy 1.2175 1.159 3.0667 -1.2122 -7.4231 -3.9915 13.618 -0.21076 2.4794 -6.1555 -4.2244 6.0787 -0.38488 5.5838 5.9186 -1.3147 -2.4224 -4.8223 -0.47905 -5.2916 3.6728 2.8581 8.6543 -0.99838 1.0187 
lky -2.7824 -14.983 1.0468 8.1599 5.7536 -18.392 -7.6746 -0.59011 15.817 0.75792 -2.5059 -5.0309 12.565 -7.1777 6.4069 16.544 0.056213 6.5958 -3.9244 8.2791 -14.196 5.1074 11.514 0.58174 -3.4642 
chocthy -1.2884 -7.0342 -1.332 -0.82303 1.9641 5.8469 -1.4244 4.1545 -2.6306 0.62211 -10.005 -7.2173 -2.5752 6.3234 9.5264 3.1778 -4.21 2.4609 1.3254 -0.73163 -7.4228 1.6433 -7.6945 -6.2611 -4.0917 
qoeedy 9.5481 -0.85382 5.3294 1.5403 -0.10127 -8.4142 -1.4638 4.7541 1.0667 -0.085409 7.0271 8.492 5.8134 -3.4067 6.5925 3.7876 -6.3305 -0.22341 5.9611 14.472 1.9859 8.0499 2.7546 2.4953 9.9971 
pol -5.5288 8.8194 -15.251 9.8774 -4.4109 1.6403 -5.5848 -17.251 -1.6527 -7.7076 -11.01 3.8492 2.2049 10.016 -6.541 1.9297 3.5447 3.4446 6.5188 8.011 11.66 -10.408 3.2881 -15.373 13.725 
soiin -9.657 -1.3517 6.0252 2.8167 -5.341 1.2245 -1.743 9.8635 2.3749 0.7509 -1.807 3.5814 0.38821 5.9707 -9.8638 0.93247 0.7195 2.0245 -4.1832 -0.036736 0.96815 -2.1 5.2561 -9.1261 -4.1637 
chain 3.3601 3.876 6.8613 4.9173 6.2309 -8.5559 -2.8852 6.5085 -3.8134 -3.9984 0.19734 -2.2293 0.094349 5.1445 4.992 2.9867 1.8084 11.627 -5.4446 4.186 -11.16 2.8539 -8.0206 -5.9332 -1.9605 
chdal -2.3105 2.0608 3.6614 -6.5239 -7.1867 5.2187 3.1112 8.2059 3.8767 -10.321 0.21437 0.4432 9.5724 -2.3319 2.7267 0.81874 6.9469 -6.3723 -1.2674 -0.56875 6.6629 14.355 -2.9211 -9.1241 -5.7866 
sheal -4.3411 -1.6429 -8.1619 9.9688 3.9296 -5.4023 -0.3512 -1.0422 3.976 0.66398 -3.4379 -2.1507 -6.1769 -4.3911 2.4256 -4.3862 1.8694 -2.1146 5.5847 4.7487 11.919 -4.8612 6.4895 5.2214 1.6348 
ched -2.2336 -8.3991 -3.2497 -15.157 -4.7644 -13.029 -5.5967 5.5925 -3.437 -8.9551 3.318 -2.5009 -2.9664 -4.8857 -0.33988 4.7977 4.9728 -6.3278 6.6939 0.69469 -0.0628 -12.291 6.1619 1.9129 4.4234 
chedain 1.0454 2.9561 -3.297 -2.706 4.4744 -6.0592 0.43137 1.8154 6.5575 -9.613 0.75011 4.293 2.9314 1.0526 -2.7063 4.1104 -6.3041 -5.0709 6.2297 6.1128 -6.9697 4.0969 1.7046 10.275 4.7418 
okees 0.39726 5.4369 1.0581 4.8185 -1.4133 2.7834 -1.6534 8.8962 8.223 -4.7115 8.1725 5.844 6.3972 -0.63625 0.32807 -0.59761 9.7275 -10.884 4.8257 5.9174 -5.0416 -4.1106 -7.4555 -1.8092 -4.3838 
ty -20.162 0.60052 9.2392 -10.972 15.327 18.06 15.033 3.9754 3.8868 -14.792 -8.1906 -8.2878 3.8559 16.216 10.223 -4.7525 -1.0717 17.82 -2.9975 -11.531 8.5214 -25.362 2.0875 -25.944 27.598 
odal 4.1408 12.921 3.5364 -0.93977 -5.485 7.0985 2.4439 -5.5765 7.6005 -5.0729 -2.2037 1.8387 -0.63075 6.0161 4.0462 -2.3655 1.1553 -5.2117 7.5855 5.3936 0.6007 -6.0705 -6.3696 -9.543 -5.5073 
rol 19.576 -2.3471 10.494 1.2576 3.4782 -11.093 5.0981 1.1924 -3.2686 8.4503 3.4623 1.3047 1.9343 2.7777 16.21 7.4978 5.781 9.3129 9.6506 6.1971 20.191 -0.87464 15.967 -2.2141 -2.1907 
aral 12.183 4.7537 -5.4075 4.8401 -6.6601 8.2391 2.4552 2.7891 8.8991 -19.04 -9.3737 6.6818 7.8593 3.9399 -2.7042 -7.7532 4.8941 -0.23971 -8.7368 -4.0425 -12.582 11.255 0.28041 2.7082 7.6535 
shed -10.029 -2.8373 6.4149 0.64516 -2.935 -3.9002 1.2536 -10.414 6.4288 0.2356 -0.81772 2.0711 -2.1196 -3.9694 9.6962 6.6606 2.7458 0.89454 4.0391 1.9329 8.4663 0.46641 6.2888 2.6103 6.787 
dan 12.712 -5.8917 7.3335 1.3796 14.217 16.752 2.3264 10.605 1.9511 -19.94 -13.801 -12.295 -9.717 -10.864 5.34 -15.526 -8.2067 7.312 -4.933 5.8746 -6.4628 5.6351 0.18308 -8.4298 1.2823 
qody 7.2582 6.1016 -7.6547 1.4238 -3.2062 -0.45483 5.0109 -0.15015 -7.1258 9.9634 -2.2295 0.11281 12.574 -6.2209 -6.0162 7.5589 5.5774 1.8055 -1.6599 -3.5249 4.113 8.5187 -4.4759 4.5793 -10.635 
qokeed -3.2914 11.947 4.9111 4.4627 -3.3076 -1.6661 -2.9356 -2.5117 8.6211 -0.096961 5.9092 0.70591 9.1762 0.64381 -5.5164 5.4703 -8.7677 -0.87769 5.3496 3.8594 3.4391 -7.2575 10.021 4.3149 5.6484 
tchol -1.6443 -3.7631 3.6385 -7.8921 7.5716 7.7242 -0.41785 2.1138 4.7266 4.4131 -3.9126 -9.8595 -6.0329 7.1551 8.5095 -8.3259 1.2264 6.3881 -3.2496 -9.6843 -3.0327 -4.0817 -3.9928 0.45824 -10.782 
chkaiin -3.243 7.1074 5.8598 0.23143 4.5551 1.3829 -5.9062 0.91662 3.5617 -6.4892 -0.22308 -9.6616 4.954 6.3596 3.199 1.1683 6.2513 3.9214 0.85057 -1.9108 -1.291 4.9598 -4.9408 4.2595 0.005165 
lchdy -4.7202 6.0723 -3.98 3.2066 -6.1367 5.4063 -2.5892 -11.262 12.189 -18.999 0.68192 -2.7102 2.9896 -5.2089 1.4802 5.8756 1.4547 0.090273 6.4026 4.3209 4.6669 -1.0772 8.3853 4.3524 1.3778 
chky 0.012087 -0.47898 -3.6141 -2.0945 6.8291 -2.016 -2.6085 9.5087 3.973 1.6738 10.851 3.5344 -3.546 2.4284 7.5483 -4.9133 3.8425 16.106 -7.0838 7.6608 -1.8575 -0.36222 -1.8432 -13.771 5.0661 
qotchey -6.1018 6.0871 -3.7734 -4.8798 -1.3551 0.97106 3.3872 0.8555 3.4153 -4.0414 -8.1489 -0.47155 -4.4638 9.6364 1.2525 2.0776 -8.7201 1.734 3.0156 1.8176 -3.9611 -3.0481 1.1451 -6.8335 -4.9035 
ytal 12.463 2.6015 13.49 -0.52203 -1.505 5.5372 0.76245 0.38634 -13.304 -12.928 -1.1384 4.5871 0.53752 -3.8918 10.897 -10.303 9.4136 2.3414 -6.7251 -2.6516 6.3768 3.7699 -0.58272 -13.1 -2.1318 
okody -2.2247 -0.26754 2.4069 -3.305 3.801 8.2461 5.7475 -7.4327 -7.0312 1.6747 -3.0351 4.6371 3.4501 -2.5924 5.9109 -10.649 -1.1422 -14.906 1.1684 -2.9076 -4.4799 -1.147 -10.745 0.67967 2.1184 
olol 10.106 0.37666 6.2707 11.241 -3.1769 7.4397 -3.4498 -7.3217 11.8 1.8396 4.1206 -3.787 1.022 -6.151 -8.9209 1.6376 -0.0099056 6.8453 -5.3802 -7.6913 6.6806 3.5636 -1.7916 3.6761 7.7333 
chs -4.2915 -2.8424 -2.6229 1.3845 2.8958 -10.594 9.8657 -2.3779 3.1639 7.4068 9.9738 -14.389 2.423 10.822 11.843 5.139 -1.7339 4.9063 2.9487 -9.8522 -5.583 -5.6513 -20.034 15.205 11.814 
ydaiin 5.4182 -8.655 6.9961 -4.8797 -2.3306 9.3153 -1.2717 5.0147 -0.48778 -1.9449 1.6045 -4.7711 -2.5131 4.5774 -0.23284 -8.8584 -0.19346 -1.6383 2.056 1.7043 2.6126 2.8779 -0.19986 -1.3529 -5.59 
okeeody -1.2743 1.8412 -1.3932 -1.9099 -0.54048 3.5583 -0.78518 2.1294 -7.2538 1.7231 -3.2787 4.6737 5.2212 -4.8115 -7.7094 -5.9921 0.96353 -6.4514 -0.67023 6.1269 -12.361 0.216 -2.4266 6.8725 -7.2269 
qockhy 4.7843 3.1413 0.92496 -7.7252 -4.8518 6.1004 3.8514 -10.902 -2.2424 -1.3111 6.3366 0.52752 -1.241 2.7792 -1.8473 -3.54 5.2835 3.4338 0.64771 -1.1435 -3.4168 -2.9729 -2.1652 4.9578 -1.4017 
okchor 0.37325 -3.7708 -1.9461 -3.9714 5.9874 11.811 -1.4453 2.6647 -6.1809 2.5231 2.5721 -1.6956 -0.31212 -4.4387 0.026366 -3.3328 -3.266 7.318 -5.4849 -5.6728 2.6829 5.7701 -7.9185 -0.25342 -7.2677 
qockhey -2.4778 4.9853 -4.3706 -0.24086 -7.3238 1.8811 3.7727 2.1887 -0.30444 1.009 9.0977 5.5324 -4.6364 -0.4594 -10.663 1.2267 -1.2151 4.8085 1.3716 6.3658 0.1026 3.5064 -1.8683 7.518 -3.9318 
chdaiin 0.74997 4.296 3.12 -12.185 4.3238 1.4927 6.0435 4.882 4.5489 -5.7002 -4.2195 2.1587 7.3665 -3.6458 4.3758 6.7497 2.0152 -2.5157 1.0229 -7.9399 0.44282 6.6135 -2.1397 4.9697 -7.6373 
chokchy 6.7659 6.1159 -0.81455 -1.31 1.6525 7.1774 -1.3768 4.0588 -0.13545 -2.7698 -0.31172 -10.63 -5.5889 7.1148 -3.4033 0.34065 -4.8317 7.8449 2.6616 -1.4498 -6.7759 -7.2383 -7.5059 -0.0096465 -3.9974 
otchor 3.6699 1.4772 -5.4928 2.2226 0.6532 9.4429 -5.4989 0.75505 -6.0558 8.4403 -4.7418 -3.8462 -12.604 8.986 3.9624 -3.447 -9.64 6.9831 0.58837 -1.6205 -2.5401 2.7812 -3.478 0.41783 -3.5037 
odain -1.1502 5.8406 -3.0779 -1.5742 5.0746 -4.3623 11.2 -7.3664 1.49 9.4591 -0.14255 1.7109 6.9316 2.0477 -3.5435 0.5398 -5.1629 2.4172 3.3128 6.4995 3.2195 -0.19136 -4.8654 -0.53008 6.1446 
rar -14.273 2.7606 0.67049 11.624 -6.5131 -19.892 -6.6952 -1.4589 -0.57934 -0.0076509 0.67339 12.2 8.119 -16.592 -5.7106 11.192 -3.4983 1.6422 -6.0232 -0.3695 6.1968 -1.3858 -12.506 4.8535 -21.191 
choly -4.7145 -8.2368 1.1341 8.494 1.3523 8.0441 1.2726 -1.1893 4.9842 0.44556 6.8497 -9.1663 0.27767 4.4104 0.041948 -6.1282 10.422 4.7845 -5.3612 -1.5226 -5.7246 -0.23221 -6.4762 -0.6313 -5.1099 
qokaly -8.4226 3.365 7.4832 -7.2938 -6.0765 -2.3152 -7.6912 -8.6732 -0.67608 2.9213 8.4625 7.3943 -3.2331 -0.81516 -3.331 -1.1184 8.3538 0.71692 -6.0699 -4.1651 0.8253 -1.0233 13.255 -1.5003 1.8046 
dchey 0.7342 -1.53 1.2606 -5.5676 0.96172 9.1809 2.6322 -6.0623 3.1173 1.6235 3.3148 2.0432 -3.712 3.3653 -2.5395 -2.7774 -4.1479 13.876 -2.4761 -2.6357 1.182 -7.8353 7.3969 2.0603 -1.4616 
cham 0.38856 -4.2653 10.601 1.5098 0.89427 5.5659 -0.54361 6.4118 5.8489 -11.138 -1.3023 0.9819 -16.44 9.1184 10.909 -5.6625 3.5994 -6.328 1.1041 -3.7784 -2.2158 3.8993 3.9702 -5.4442 3.0011 
ral -6.1363 25.127 -5.6907 4.0159 -8.6818 -3.4421 -4.2735 6.4715 13.523 -12.779 -5.7989 6.1048 -12.829 2.1023 4.7544 6.9084 7.1197 1.998 2.9194 0.27562 -9.1021 -8.7887 4.5291 2.372 9.3226 
lshey -11.636 -0.08882 2.3896 14.566 -8.06 -0.83874 0.0073435 -0.90577 11.138 -13.152 2.1614 -2.1816 -4.4882 -8.6105 -11.04 6.3971 -9.1776 0.90111 -2.1914 -2.4422 6.364 -3.08 5.4755 2.1924 3.2849 
yky -5.373 0.21163 -1.9791 -2.7914 19.508 5.5852 3.743 -7.0462 1.2448 -6.7569 -6.449 1.9451 3.7781 -10.809 2.8182 1.4907 1.875 6.2971 -7.7937 -9.2948 1.9554 -2.3182 -21.23 -12.831 4.9926 
do -6.7165 -6.1308 -26.004 -22.765 -9.5973 25.599 -5.2558 -2.3488 1.0315 -34.942 17.179 -17.144 -12.237 13.699 3.7465 -5.9006 -5.832 29.795 -14.408 -6.3421 -23.798 -8.3833 21.791 -15.479 -14.464 
opaiin 3.2854 -1.3785 -2.7844 0.082231 -2.598 4.3743 -4.8331 6.8549 -0.34073 -1.2645 -1.7447 5.9948 8.5984 5.5999 -3.2498 -3.5967 -1.7953 -13.545 1.9063 -6.1068 -6.3122 0.047273 -6.4662 7.2822 -1.5967 
qokeeody -7.4666 6.382 -2.3777 -5.4791 -0.18239 -3.1628 -1.225 -0.36468 -4.2727 1.6992 6.3432 3.6159 7.3238 3.256 -7.5304 -3.066 -2.3989 -2.7399 1.2578 8.6622 -8.821 -2.0945 1.7929 3.3945 -4.9413 
olar 8.7205 4.0766 -1.8871 7.3889 -1.6591 -7.0643 -6.9142 -15.707 12.582 -3.5659 0.15524 1.6399 -1.8444 -0.07292 14.103 1.7142 0.86897 -2.9738 -0.40626 -8.1389 -5.4668 3.1109 -8.0351 11.665 -2.8158 
cthody -4.4621 -1.6902 1.8025 -5.4479 -1.6388 10.501 14.11 -5.3192 -5.1495 -1.2076 -0.93344 -6.3976 0.7613 2.5926 3.033 -6.1217 -0.14713 7.693 -1.8583 -0.81611 -8.3613 -1.3965 -13.179 6.3124 -2.0295 
ror 6.6248 4.1957 -5.9429 10.929 -7.5152 -14.254 -4.3212 -4.9496 10.901 -3.2743 -14.622 6.9172 -5.5335 2.5003 -17.349 -10.66 -11.583 -1.4944 -10.88 -5.4271 4.3391 6.9196 2.7404 -1.7789 2.4815 
ytchy 6.5155 -2.6988 -8.108 0.3103 3.3064 10.992 5.5605 6.6625 -3.0931 -2.8671 -4.4083 -4.7258 -9.1283 -3.6588 2.0115 -0.72002 -4.6637 1.9154 -0.1283 1.6868 -3.6628 -0.82482 -5.2635 -13.85 -0.79606 
cheeor -4.3547 -2.2935 -6.5347 7.5011 -5.5658 1.2571 9.3301 7.1644 -5.1587 5.3587 1.4939 -1.4858 -2.1928 4.5561 -7.6832 -2.0208 6.863 -4.4501 1.8164 3.0238 -0.34586 -3.0946 -0.74726 -1.7964 1.0181 
chokaiin 2.9026 -5.4615 3.2189 -4.1179 1.1047 -5.8622 -2.7741 2.451 0.30717 -3.3698 -5.1901 0.26209 -8.6213 6.1707 -0.38518 -1.4874 0.12948 1.9785 5.1153 3.44 -0.79136 -2.8538 -5.8053 4.0665 -7.154 
teol -4.0917 -2.6312 2.0512 8.8064 -14.158 8.3266 -1.6265 -13.149 11.035 -2.7756 7.6504 -6.8079 1.9583 1.5296 1.5972 5.7602 14.78 8.6482 -8.1048 -2.228 -17.696 0.33561 6.9643 2.7154 10.014 
ory -2.7201 -0.76132 9.9549 7.274 2.7508 0.66414 13.402 2.9552 4.0055 2.7924 -5.1994 -6.3053 7.2098 -6.8422 8.8294 0.76605 14.956 1.5364 -5.6837 -12.01 5.181 0.9831 2.9663 5.9207 4.9689 
k 20.104 3.076 -15.587 16.8 -29.436 -14.076 -6.9549 70.992 7.0157 -62.091 -6.0524 -30.861 -5.6754 2.2759 -1.3639 -11.691 -10.929 -0.066635 -3.4524 -10.548 11.909 -26.944 -5.3257 -27.218 -2.0786 
key 0.45956 -1.482 11.034 2.4179 0.81227 1.479 -14.9 9.787 -6.8762 0.76444 -2.4046 -4.16 3.4615 -13.62 -2.402 -24.29 -6.8726 -8.9521 -10.238 0.54937 -0.1782 -2.7594 0.83991 -4.0925 6.9364 
ykeody 1.6611 5.4112 6.0078 -6.6845 9.4924 8.6414 1.2052 -5.0634 -1.9206 2.2928 5.6323 -1.4442 5.014 -5.2314 0.2122 -10.421 -6.5814 -8.1839 -0.72606 -2.1125 -11.505 -0.4655 -4.544 10.973 -11.891 
oteo 3.086 -1.9752 0.6355 1.5393 5.5048 -2.8528 4.3615 -1.8349 0.12487 -8.9896 -0.83242 4.7041 10.066 4.7574 0.18059 -21.999 5.2058 -10.838 3.1027 7.756 -9.2761 -21.267 8.3199 5.376 -10.393 
shal 14.193 -17.383 -1.603 7.5927 11.052 -9.3765 -8.8604 -1.129 7.063 0.038194 -3.3997 -7.0894 2.3071 -4.7604 -4.6682 -2.7915 0.28146 -5.7364 -1.8443 6.5832 2.7744 15.342 2.7351 -7.8704 -1.6608 
ychey -3.09 -6.0176 -4.1081 -0.12947 -3.9295 6.2785 -3.5631 -0.16537 3.8505 4.6181 3.9427 -5.2917 -5.3173 6.8922 3.7412 -5.3867 2.9173 -2.3032 1.0062 3.6307 -0.064517 7.2869 0.61831 -4.6491 2.6365 
qopchdy 0.98427 0.60756 -3.0072 -1.4761 -8.9333 1.7704 2.6411 1.4485 -6.2969 -3.9956 3.7056 6.0643 -2.2628 0.1387 5.9225 8.0728 -1.5904 -7.2919 7.898 -1.8163 5.8274 1.0006 1.016 2.6273 6.9886 
orain -9.2424 2.7434 -1.5446 4.4002 5.353 -0.15815 5.2722 -3.4272 -10.739 1.0232 -1.5449 1.5429 4.4833 -6.9697 -3.0396 7.438 6.2085 1.9866 -3.0431 -9.1435 3.4909 -2.8129 2.0915 5.9502 14.853 
ychor 4.1216 1.8915 4.7079 -1.1828 -1.772 10.498 -3.2598 7.563 -7.8935 9.4545 -1.6434 1.5631 -11.359 -0.89277 -2.5297 -2.5543 2.7074 5.8284 -1.3236 -0.39096 0.59363 3.1755 -7.6712 -0.92547 -10.345 
teedy -12.494 -0.15251 -0.8441 -8.9931 -10.038 -2.7031 10.575 1.0934 9.9276 -5.2913 4.7193 2.5702 5.236 -2.8414 -6.3615 12.28 -4.3611 -4.7651 -1.5966 -3.3707 -10.826 -3.3899 1.1478 -2.8123 13.95 
ot 2.1297 -4.6017 21.286 11.972 -7.783 -8.1187 21.294 1.949 -11.632 -8.8251 17.616 -7.3852 11.31 22.199 22.795 -9.1707 -0.66629 -14.86 2.0078 -7.7275 -13.754 -22.062 22.492 1.5463 2.92 
oteeos 8.1258 0.84329 -10.004 14.344 7.7708 -0.32952 -1.2267 -10.178 -8.8941 -1.6978 -3.7048 1.4443 6.5866 -6.2779 -8.0804 -14.431 7.561 -8.0825 -2.2484 4.0931 -6.8369 -5.0917 -3.1803 6.846 -5.9668 
cthar 2.0804 4.9874 1.1014 10.368 -3.0992 6.6145 -8.8892 -0.013243 2.5024 -2.0794 -13.548 -5.3819 -10.853 -2.3166 3.3751 4.361 -2.8135 8.3599 -1.6221 -0.61439 -4.0721 -2.8348 -2.1628 -5.986 -4.5118 
qoeey -12.042 3.5111 5.8229 -0.35511 -4.8484 -3.2959 0.2336 3.2389 -1.0575 -9.7741 1.1402 -5.8302 0.12539 7.726 -3.9119 -13.133 -6.2027 -10.392 -0.096072 -3.9514 5.2451 11.89 -10.007 12.118 10.257 
okeeol -3.3829 2.4976 1.0147 -1.92 -0.23141 4.7021 0.64479 -1.5594 -3.2545 4.6595 -1.2825 -6.1563 2.8351 -2.8112 -11.629 -5.96 5.7742 -5.9473 -0.021226 -1.2596 -8.0002 -6.5049 4.3486 9.5362 -4.37 
ykeol -1.1744 -1.2849 7.1869 -2.3753 -0.44576 -0.74674 1.8323 -7.3858 3.5714 8.4469 10.203 0.53308 -3.5451 1.7349 -4.2447 -5.0813 9.5335 4.2067 -4.0632 -2.225 -1.4443 -1.4356 -4.0645 4.2453 -3.384 
qokchol 4.4472 -2.5095 -3.4045 -1.5389 -1.1955 8.2571 3.0979 -2.3561 1.1012 5.1923 8.6375 -5.7144 -6.9931 2.5982 -0.80625 -2.6339 -2.2681 7.4558 -3.5723 -9.0122 7.6112 8.4426 -14.472 0.73706 -5.9461 
lkchedy 1.404 -5.1012 2.2883 2.8249 -8.8025 -6.2847 -4.6783 -4.641 -10.849 -2.6105 -8.6117 4.8652 4.0322 3.9299 4.3486 14.556 -0.22669 -1.7417 5.5407 0.072337 -3.1633 -1.0187 4.3593 3.1615 -3.6801 
ctheey -7.7676 7.7177 -5.3567 -1.8514 -1.2956 -0.57004 -4.6326 4.6548 -1.7055 12.603 -3.5531 -6.5397 -8.812 -2.5049 -9.0458 -1.2608 0.78914 1.7686 -1.721 5.8294 -17.63 -3.0655 -7.5943 3.9635 -4.1543 
sheeky -4.7799 -4.0193 0.88436 13.387 -0.93505 -2.4515 -0.083289 -2.6893 3.988 -6.3954 3.9797 -4.4905 4.9861 -14.69 3.4018 2.5907 -6.2768 -3.4382 -1.611 7.5325 2.9775 1.9485 5.6853 -7.0558 3.2146 
ykol 6.2539 -3.482 2.6505 -13.508 -3.8668 5.8363 -3.0378 -1.2484 -4.86 -1.7764 1.6683 3.2108 -19.025 -0.52367 -1.7571 -3.5322 -7.8497 0.51813 0.35404 -16.601 9.6103 -16.609 -5.517 -5.6414 -16.325 
okchol -1.1591 5.1557 -2.7112 -11.145 0.33957 11.282 -6.3322 -3.6387 -6.4465 -0.033079 2.6319 -5.7163 -2.3563 -1.6227 -1.6599 -8.1509 6.1139 5.6246 -1.6675 -5.8319 1.586 -6.0841 -7.5982 2.2725 -0.57615 
oiiin 12.588 3.0926 1.8957 3.1419 -3.2754 2.0993 -3.767 3.5379 -1.19 -2.9343 4.3289 4.5072 -5.4507 4.5529 -16.693 1.6657 -2.1248 -2.9837 2.4164 1.6709 -3.5464 0.92203 -8.1596 -1.5653 3.5131 
opchy 5.3338 -3.914 6.8116 -2.9277 10.157 1.9679 3.0671 -3.6139 8.0366 1.1602 -4.7682 4.2318 -4.8092 4.9543 6.5257 2.2437 -0.10743 5.7382 0.08179 -4.3332 -4.26 0.27466 2.4562 3.7871 -5.5232 
shes 3.8444 -0.80965 -15.05 6.9387 0.2106 3.7032 -7.1859 -5.9481 3.7995 -3.4862 -11.382 -6.0101 -3.5417 -16.732 0.4584 -0.21074 8.467 -2.7679 3.8667 -3.1131 4.96 -16.234 3.0088 3.3257 -7.1412 
tey 9.7484 -19.383 -15.15 1.8315 2.8555 -10.535 23.588 -11.955 -14.915 -3.8159 1.4231 -8.0409 -1.3996 -12.835 3.9697 -23.335 4.2721 2.265 -3.9601 7.5185 4.9705 8.1779 -8.426 15.903 30.133 
t -11.989 -28.116 -15.079 22.602 6.7658 16.679 -44.837 -0.73034 6.2356 3.6241 -26.335 -51.281 6.7875 -17.868 35.262 -22.631 -12.197 26.752 -12.451 -14.186 12.785 -44.473 -9.0444 -19.368 32.755 
shedaiin -1.0292 -4.4672 -6.1104 -4.7847 -6.7188 1.2991 -3.2486 -0.10544 2.9962 -4.9474 -5.9318 8.6327 5.4532 -0.75957 12.042 -2.0891 3.6034 0.55382 2.1965 0.54258 0.29322 -6.3006 1.5988 4.235 2.4089 
ytor 13.479 6.3634 -16.162 3.0441 -1.9262 2.8858 6.5929 5.1815 0.055993 6.6506 7.0918 -2.7053 4.7467 0.843 0.033599 -11.362 -0.079687 8.4608 -14.664 -8.1524 3.8249 10.988 -9.3301 -12.562 -3.8463 
laiin 3.2557 11.827 -0.41172 -13.327 3.3604 -13.818 0.32737 -2.5646 9.3871 -3.9957 -8.3945 -4.4841 2.3823 0.068787 -1.096 -8.631 2.5488 -3.7011 1.2185 1.6265 3.7977 6.3312 -1.0876 3.5485 13.764 
qok 11.256 -15.76 20.491 14.361 6.2039 5.8962 -12.858 -1.7519 -2.5358 10.49 2.6891 -6.3379 10.101 -1.3888 -8.0874 4.6701 -15.731 -5.0364 14.424 12.761 22.457 0.3585 -3.875 -6.1118 7.593 
yteody 7.0761 11.4 -14.678 -3.4662 1.4189 1.022 13.105 -5.8165 -6.0547 -0.2588 3.5823 -10.05 2.2302 -1.291 -6.2445 -5.7583 5.5345 -10.773 -0.50281 -3.883 -4.1937 2.1577 -0.43604 -4.5103 -7.1184 
dshor 5.1831 6.9008 11 -5.4409 -5.2846 10.657 -2.0639 4.7078 8.0755 -2.4287 -0.41414 -3.5179 -5.7594 2.3642 11.608 -2.0152 6.4724 11.355 1.7765 1.8711 5.5588 -2.2504 0.72574 -6.8915 -1.7196 
tchdy 0.22779 -4.9316 -5.6166 3.7484 -6.2022 0.20178 15.459 0.83511 -5.9122 12.457 9.2161 1.7959 7.2966 1.0805 15.859 10.212 1.6642 4.0154 1.0639 -6.125 6.6882 -0.24237 -1.3656 0.51868 -3.4297 
aldy 0.70716 3.8908 0.037755 1.1804 2.2897 6.1911 -0.16323 11.844 13.201 -3.2616 -2.8292 7.0613 -11.512 -6.336 -9.1901 -2.954 7.8645 -3.5408 3.5581 13.976 -2.3676 2.3298 -11.545 -10.977 -0.98623 
qopchy 4.3317 10.085 -3.852 -1.4513 -2.5105 2.7208 3.1986 1.8532 -14.832 4.1715 0.38857 4.3735 -1.7757 3.9112 5.3283 6.6401 -12.109 4.5336 2.7899 -0.81647 3.0629 4.5672 -2.52 -1.8526 -1.1744 
ytey 12.864 2.0509 -5.3083 -5.1031 0.42891 -4.4694 5.1402 -14.82 -3.4433 -1.3191 3.2008 -8.3858 -0.053109 -1.5305 -3.3703 3.0866 6.1309 -2.6515 -12.133 -19.393 -11.55 3.7121 -14.386 -10.718 6.2675 
chokeey -3.3678 -1.3962 1.1518 -3.5055 -3.5592 4.6745 -2.0713 6.1805 -1.9184 -6.394 2.0365 -8.991 -11.31 6.4232 -9.0423 -3.3917 -2.3716 -2.1473 7.044 5.1021 -0.94159 -6.8288 -2.5016 -1.9468 7.385 
olkey -3.2733 -10.829 -2.7738 3.0344 1.6678 6.7969 -0.46807 -8.1311 -13.784 12.083 -0.94418 8.9315 0.72512 -13.016 12.633 -10.049 5.2579 8.1414 -11.712 5.9284 -2.3265 6.4258 14.782 -4.0711 12.773 
qokechy -5.4314 -7.7218 -4.1509 0.29999 -6.0878 -2.8382 10.306 4.893 -5.3274 4.458 -3.4877 -2.0008 0.80356 -4.6239 -3.432 6.1673 -3.0673 0.17931 3.3382 -0.20191 2.019 -3.2494 -1.1196 8.9634 -5.56 
choiin 3.6702 0.037122 -0.92447 -1.4042 -2.0834 10.632 -3.6043 5.6827 -11.494 -1.314 -9.8467 -3.316 -7.6492 7.5148 -0.19364 -0.20637 -4.9055 9.3418 0.59759 -3.3438 -5.6616 -9.4389 1.6191 -1.6394 1.0137 
shee 3.3889 12.035 4.0252 4.5633 -1.0063 -6.0859 19.692 4.3047 -7.6913 -0.37806 -2.6145 7.2448 8.971 -8.1536 -9.7786 -17.177 5.1422 2.5117 -6.6536 12.057 9.2146 2.7516 10.212 -4.5241 9.5419 
cphol 2.9006 -5.3022 10.201 -5.097 1.7859 0.13612 -4.8589 -12.16 -12.112 19.126 5.788 -14.91 -2.0524 -1.7584 1.5155 6.1772 4.9501 6.8882 -3.049 -6.7284 -5.881 1.3236 -12.151 1.0544 2.2672 
lcheey -9.1328 -0.085506 -6.5517 8.251 -9.3027 -2.6722 -2.2511 7.9181 -4.645 -2.9805 -3.7531 9.0565 -7.5431 4.5935 -9.5422 10.669 1.1493 -3.9661 0.75321 -8.3058 -0.87736 -6.6551 4.5418 3.5703 4.0518 
keeol 2.6939 -3.6454 -5.1212 2.3114 -6.9135 -5.5628 4.0737 -2.6531 1.3423 12.408 0.81786 2.93 -8.0073 7.1992 -10.664 -11.111 1.794 -0.66201 4.9574 11.139 6.316 -4.8319 0.82982 1.664 3.1538 
qotchol 2.7927 -5.5577 -5.0765 -2.4124 5.035 5.6424 7.703 1.0526 4.9981 11.518 -0.50181 -8.0155 -7.2046 12.071 0.9586 -6.2418 0.21395 8.694 -3.5509 -8.7807 2.876 -3.9553 -3.9015 -7.2642 -4.5561 
cthedy -0.18012 -5.554 -0.23122 -14.942 -1.3603 -9.253 -8.8562 -8.1982 0.59882 1.7663 6.8756 -10.233 6.5394 -7.484 -1.411 -0.15847 -0.39818 3.5131 0.82254 -1.9662 -2.7274 -8.4003 1.1375 13.261 17.617 
ytain 7.9455 -8.0201 13.599 5.7337 1.4849 -0.22743 7.5089 12.379 -7.8567 -0.47502 0.41476 12.229 1.4266 -4.12 16.528 -3.193 1.5254 6.5359 -5.5818 9.9761 -7.6941 10.093 10.049 -0.8952 3.1102 
qot 5.4512 -9.5564 3.8189 -19.227 -1.3807 -15.304 17.72 -9.5112 -1.0698 5.5701 -16.278 -22.221 -21.111 -1.2536 19.443 10.68 -0.98204 22.567 2.0731 -4.1811 2.099 -7.6718 8.2467 -4.255 -10.462 
shky -4.0269 -13.784 -2.1322 -0.87297 4.7353 7.6626 -6.8894 2.3832 0.95844 13.238 -0.88192 6.2209 5.3852 -13.978 -11.164 -5.1562 -3.6341 -2.3485 0.037145 12.897 15.572 -0.26272 -0.97035 -19.149 -13.47 
oteeody 3.1486 0.98689 6.3335 -7.0655 7.4533 4.5393 -6.9446 -6.1097 -5.4049 -11.103 0.099902 2.3691 8.2515 1.9584 -3.7855 -3.1265 1.1396 -8.8144 5.0468 -5.9747 -6.5016 -14.221 6.5568 10.292 -9.5191 
chotchy 11.995 -3.0342 -6.5209 -5.9392 -6.8722 8.4703 3.1999 2.603 -5.5027 -0.76491 -4.159 -9.335 2.2907 9.5208 4.5033 0.33591 -9.5502 15.604 0.47417 -6.4558 -3.7557 -8.0219 -2.2197 5.1863 -10.129 
otedar 4.0069 1.5097 4.1562 2.4786 -5.1718 -5.3807 1.0013 -8.9007 5.884 -2.2644 -9.0372 4.5968 4.8193 1.1593 -0.0067452 -1.4553 8.6201 -17.376 11.255 3.2788 -2.8187 -9.7123 -1.6127 9.5184 2.2356 
olshey 2.3107 -4.5852 -1.6223 11.8 -0.37726 -0.64366 2.7112 -1.261 10.583 5.8149 -6.7668 -0.26094 -1.0686 -4.6948 -2.6663 8.7888 -3.0147 -1.8627 -0.08369 -9.1127 10.438 1.1695 5.9366 0.67577 1.7037 
chkeey -2.8954 -1.4013 -10.146 -4.8142 -2.4873 -6.2069 -7.1388 0.55645 -0.060108 7.5912 1.4295 -7.533 -6.3433 -1.4016 5.6656 -0.13363 2.6696 6.0368 5.2772 7.1079 4.1074 2.4003 -7.8224 7.1024 2.1085 
oar 4.4173 11.968 -2.4197 6.6533 -1.129 -4.0423 3.0446 17.864 25.106 3.3782 -3.2078 -6.6644 19.039 10.957 -13.555 -26.499 20.938 -13.002 -9.5121 -0.92456 6.9747 13.183 -9.903 -10.711 10.35 
cheeody -5.4433 2.6368 -0.75195 -6.2733 -2.1817 -4.3316 5.0958 -0.57526 -12.581 -11.299 5.1593 -0.98518 7.7197 11.118 -7.65 -2.356 7.5006 6.1207 1.7685 0.78325 -4.6822 -10.728 2.1709 9.6888 0.41053 
chodar 2.7062 -1.8445 -7.6398 -6.9552 0.74505 0.23876 -0.19424 5.9526 -6.6845 0.71986 3.2925 0.093362 5.5373 0.99042 4.8067 -3.8009 -5.6169 -1.7998 -4.9812 -9.6837 -4.3914 -0.45649 -3.0165 1.4709 -12.882 
chom 1.624 -10.991 4.8671 8.5246 3.6873 3.5474 -0.41655 11.409 -8.8969 17.169 7.9627 -7.8438 2.0187 12.046 1.9898 -14.417 -4.1551 9.81 -10.824 -1.4455 -5.7523 3.8478 -5.9124 -2.1637 -18.859 
ls -16.879 -27.295 -21.319 8.3565 1.108 -8.8993 9.1928 -42.015 -1.3086 15.403 10.576 -8.2134 -13.816 12.398 26.43 16.908 -24.126 -23.648 22.328 18.136 16.567 22.606 -16.068 -28.229 -4.6481 
sheeol -10.084 5.4182 -1.271 0.081762 4.1776 7.4023 -0.58939 2.2476 -1.5752 2.077 -3.9609 1.9838 0.82894 3.9753 -6.8168 -4.6382 -9.9945 -2.5399 2.4171 2.6086 -0.79079 -1.3771 8.6458 5.0099 8.4798 
ytol 1.1234 -1.032 -2.8834 -8.7658 17.871 13.366 11.94 -5.221 -6.5168 18.216 -1.8795 4.7777 7.4759 2.9305 8.2652 -8.342 6.1653 26.862 -9.7099 -7.0785 8.7807 11.187 1.7059 11.72 9.0565 
cthaiin 2.8591 -1.4637 7.5323 10.739 -0.3124 4.5622 -0.81971 5.454 -6.3081 -3.0219 -2.0433 -16.093 -3.8566 5.9516 4.3223 0.85267 2.1946 5.5051 -0.82668 3.1482 -10.792 3.1572 -14.896 -5.5818 -0.81044 
ram -20.074 11.505 0.67235 -0.71948 -14.561 -3.9086 22.322 0.44964 15.244 -6.7599 0.68616 15.293 -1.4374 11.721 -9.064 -12.282 -14.073 6.588 -9.7771 -10.773 25.571 7.789 11.305 2.3487 -17.426 
qodar -7.0877 -5.6404 0.65111 -9.7577 -15.745 -1.8114 1.3076 -8.4062 -2.6213 0.82782 -9.5441 -14.597 5.3597 -5.2165 2.094 -7.2001 5.1813 -3.7823 -3.4326 -6.3506 10.985 6.2092 -8.9805 -2.6709 8.96 
dcheey 0.40871 -9.799 -15.177 -5.9462 2.9495 -7.9333 -3.8862 -3.8526 1.4444 2.801 -1.1333 -12.819 -0.33954 11.31 -4.222 -5.7255 3.8415 5.8569 4.7262 8.1719 3.434 1.0986 0.9761 0.90107 6.8908 
m -1.6209 17.218 39.492 -38.391 29.218 -0.68723 33.587 -5.8098 -25.575 19.661 -4.999 56.034 -14.388 1.7993 13.819 -10.308 -1.322 7.6221 -7.4647 -7.8295 -29.383 -21.189 21.61 18.969 28.526 
chckhdy 3.8972 8.7081 1.1117 -5.004 -11.27 4.3886 -2.3438 7.3847 3.784 -0.37567 1.5548 12.46 4.6272 -4.1559 5.257 6.1918 4.2077 2.2452 0.4112 -0.25397 -1.8163 -3.2397 3.48 0.36393 0.48848 
ykeeody -4.7494 4.0068 0.41365 -12.692 1.413 13.675 -4.6573 -9.8225 -3.9567 -1.1446 6.9225 -0.6594 3.3202 -1.7794 -5.4987 -5.9778 2.408 -6.4513 1.8576 -0.56342 -12.472 -4.3917 0.78521 9.3036 5.1996 
qotam 3.672 -4.1144 1.4087 -5.2388 -1.9941 0.12008 -8.3883 6.1229 1.002 -8.0656 -3.0299 -0.19279 10.078 -1.0913 -3.6195 -4.4533 -4.1861 -1.0279 -3.5463 15.229 -15.757 15.49 6.1916 -2.6725 -3.1967 
okeal 3.3198 -6.744 8.6555 7.7595 6.57 2.992 -0.0076222 -8.0375 -3.7886 -10.656 13.606 -3.5822 -2.8713 -8.3167 4.9436 -5.2907 3.1332 -12.462 2.906 6.9333 -11.426 6.6773 6.6731 11.359 5.2196 
oteor -1.3738 -9.274 1.635 -0.41713 0.30916 -6.7812 2.334 1.5947 9.9358 2.1078 -0.96591 -5.6181 -0.3984 -12.266 6.4455 -9.7099 13.479 -0.63572 -6.0241 1.789 -4.7078 3.0391 -2.4121 7.6057 1.0668 
yshey -5.2111 -2.778 1.13 -3.1777 -5.0629 -12.44 4.204 2.135 4.0409 -3.1645 3.1633 2.9464 -1.165 3.9183 -9.0658 -7.2513 1.5491 1.5992 -2.8062 6.4472 6.5051 -5.0812 5.4013 -10.409 -6.1651 
tair 1.4308 -5.2473 -10.056 5.5649 3.1375 -2.4663 1.5007 -10.974 -1.2831 -11.062 -0.52176 10.796 -3.7482 7.1219 1.403 0.80101 5.8142 -11.789 0.36857 -4.1618 -8.6158 -0.51394 -0.67345 -4.1468 -0.9475 
chty 1.6764 -0.10077 -22.589 -8.3588 -0.22791 13.493 -12.365 11.713 0.60201 -2.5822 -3.6635 1.5469 7.7224 -8.9428 -6.2619 1.6083 0.1375 9.0454 -2.5894 -1.8022 7.8422 4.9623 -8.8236 -3.5887 -0.082557 
olkal 4.3053 -6.0055 -1.4572 3.2606 0.48663 -12.049 -3.6855 5.878 1.0086 3.9874 9.4695 7.7573 4.3826 -9.0361 10.433 6.7911 14.88 1.9731 -2.3492 -6.7154 11.541 7.2729 -1.7239 9.6665 -3.0111 
cheodaiin -1.0684 1.9628 -4.2541 -4.2321 -1.8464 4.9098 -2.1395 0.72274 -5.5128 2.6247 -1.9628 3.4567 0.45404 10.433 -5.4224 -1.9494 1.9044 0.37065 4.6584 1.7038 -1.9434 -3.9993 -3.6637 3.4892 -4.2015 
okeeor -6.2646 1.2494 4.5572 5.0697 -5.0329 -1.7156 2.8479 -2.6551 -3.779 5.1664 -0.45328 -5.5169 -5.2749 -0.41932 -5.8318 -5.3968 0.06471 -5.3559 2.8307 8.5773 -6.7536 -5.3318 2.491 3.4517 -9.9171 
oral -7.958 8.8971 -7.3749 21.728 -1.813 14.249 -0.68467 -4.5939 12.994 -1.4981 0.93267 0.10997 0.35008 19.874 14.208 6.4174 11.769 -5.1002 11.186 5.4998 -9.6163 -5.7028 2.5541 -0.49257 0.39997 
sheos 2.1561 0.10525 -16.102 -7.1409 -11.72 0.6836 -5.374 -0.88168 -0.22078 -2.5978 -1.9338 0.88815 0.64619 -0.53995 -2.2233 1.996 6.5371 -5.8096 -5.1467 1.3557 -18.842 9.1096 -4.9882 -6.8575 -1.8121 
shedain -5.6193 -1.8099 5.4685 -4.5439 0.087579 -9.3935 1.5711 9.6015 -4.2132 2.9205 0.9991 5.7206 4.5206 -1.0299 -1.67 14.21 -0.072485 -3.4689 4.3318 1.29 -7.3321 -3.4755 -0.83058 4.5985 1.7584 
ypchedy 1.5759 12.002 -2.8727 -11.875 -3.5773 -2.6717 2.7978 1.4412 10.223 10.557 5.49 4.3294 -0.12871 -6.8137 10.573 4.2363 -0.73431 -9.6469 4.7548 3.9472 -3.872 2.5363 0.63095 -4.4227 -4.6354 
daim -2.9951 13.491 -10.233 -3.7074 12.845 5.0528 -0.34232 10.74 2.96 9.6194 9.8405 -0.9718 12.068 1.6499 1.5838 -8.3195 -6.2754 3.3282 -0.11696 10.188 -2.4342 13.191 -2.5598 5.8778 -6.414 
orol 8.3682 0.043098 -3.1597 -2.5737 13.11 -9.5158 -8.0511 -21.723 -9.0249 7.5516 0.18072 12.645 -8.812 -7.4099 -6.7823 9.1084 7.6147 3.0387 -4.5376 -5.4341 -8.2953 1.2987 -9.6127 0.86008 18.127 
shdar -4.2997 3.2947 0.14885 -8.3386 1.5177 5.4761 -1.5847 -14.367 -12.866 -1.8088 -14.978 4.8216 0.74468 2.3854 9.1204 -7.1458 12.718 -3.019 3.3728 -4.9496 16.148 4.3231 6.2241 1.2104 9.6407 
chkain -2.4702 8.9876 5.7752 6.3001 -1.707 -11.722 -0.21916 1.0613 4.9702 -9.7681 6.0153 3.8975 -0.28704 16.161 1.9368 2.0272 3.6332 9.0537 -1.755 -3.4306 1.0207 -6.9526 0.60178 -1.1116 11.818 
shocthy 0.066736 -9.1737 -2.8477 2.0481 2.5379 6.7271 1.6939 0.52573 -7.1447 1.5064 -3.678 -2.5534 -6.9145 12.124 -3.2325 -1.8919 2.0823 -0.49724 2.1313 3.9196 -4.5222 2.4242 -5.0904 -9.8292 -6.9602 
cphy 19.664 1.23 -9.3928 -2.3719 -0.072582 1.3478 -2.5314 0.56642 -15.936 11.448 6.9988 -16.535 -9.1005 -5.5198 8.2315 2.5958 11.888 8.429 7.5366 1.302 6.5998 -5.4452 -11.027 0.04338 10.448 
opar 2.7126 6.8248 5.8075 7.7593 14.594 -9.8998 3.7863 -3.7322 2.4236 16.948 -2.0149 11.07 7.0594 0.64212 2.4551 -11.72 -15.393 -24.434 -9.0316 -15.387 -4.6673 5.3537 -6.1821 -3.9025 5.2244 
chkal -5.2148 -6.748 0.69345 1.0647 8.628 -9.4523 -7.9861 -1.3428 -0.3193 -3.642 -3.0499 -0.90108 6.1297 13.59 -4.3294 -3.7125 3.2462 4.7042 -3.207 4.6849 -7.8471 -1.3775 1.5021 -4.0437 4.4173 
g 43.761 9.2858 17.81 -19.121 -24.627 15.269 -65.863 -15.428 51.712 34.775 11.585 13.78 22.471 -6.3288 15.571 -17.006 -37.369 28.276 -5.0994 -0.16553 15.49 15.867 -75.347 13.771 -17.655 
ykain 1.8676 4.008 11.436 7.5687 2.7102 -1.0882 -1.6413 0.22638 2.6726 0.41833 0.48819 12.963 -3.467 -1.9209 3.0338 7.2325 4.764 -0.21133 -7.1975 -6.3771 -10.712 0.41832 -5.5021 -6.3438 12.285 
otees 8.3205 -12.249 -3.586 9.0022 1.9827 11.146 -2.2511 2.5785 13.62 -0.51406 4.4175 4.0799 16.526 -1.4773 2.9567 -7.2179 6.2592 -13.096 2.1166 7.1242 -10.447 2.9386 -6.4137 1.8957 -8.5504 
shedal -3.9794 2.4046 5.6525 -6.9131 -6.7114 -7.9929 -16.211 -8.0957 5.3797 -7.2997 3.4811 5.1546 0.77977 -7.7363 -2.5779 3.3223 -12.43 -0.1418 1.8769 6.5086 4.0956 1.6742 2.7329 1.4006 -4.8516 
keeody -2.5872 5.6618 -1.3042 -5.5785 -5.4204 -0.96963 3.1409 7.9297 -15.346 -0.65457 7.2186 -2.4412 4.1323 -3.5063 2.6607 -8.9047 -2.8043 -5.5823 -2.0132 -2.6037 -9.0729 -2.4387 -1.4364 13.965 -3.7281 
oees 8.944 10.564 11.756 8.1482 -12.563 12.999 4.1784 5.2929 -10.412 1.0047 -0.61336 22.631 14.546 6.5611 -1.2744 -9.9817 -0.28439 -3.0199 -3.8062 13.033 -8.7685 7.1712 -22.564 -13.26 -0.58991 
pchor 10.366 10.626 -1.4463 2.7247 -3.8659 3.0093 -0.52032 20.348 -10.691 3.0338 -4.0933 3.4865 -4.8359 6.203 12.43 -3.0762 -8.3655 3.8458 -0.26555 0.93181 -5.4395 -1.6893 8.5361 -3.7158 2.4363 
ytam 12.426 -11.2 -2.1712 -11.602 -8.0605 8.2718 1.0143 -2.5191 -2.5964 -0.45121 2.9327 22.735 -7.8823 5.8015 8.999 -5.6632 20.559 -0.64757 0.22985 7.2383 0.13837 6.4919 -1.4392 -16.055 8.7181 
qotchor 5.9399 3.4696 2.2591 -2.3282 2.3847 6.3142 1.6454 3.7243 -5.482 9.4839 -3.2458 -0.11765 -13.693 3.6541 0.55371 0.51914 -6.0775 12.122 -3.5741 -6.8264 -5.2324 -7.6793 -5.257 -3.5532 -5.6321 
chekal -2.7842 17.5 7.2814 -10.071 9.9979 -7.1708 -2.6918 -9.5829 1.9676 -0.50867 3.2243 1.4578 1.6366 -3.2015 3.6029 -7.8642 -4.4445 -0.7372 -1.616 1.0489 -3.1866 1.3168 0.88436 5.9199 12.19 
chan 5.8386 -1.6652 -2.6259 6.2032 7.3091 0.9563 3.5497 11.28 -9.001 -5.9486 -7.0075 -20.416 -17.674 -0.56075 -6.8855 5.6642 13.36 13.952 1.9649 4.1518 -8.0001 -9.1734 -4.8692 -6.8337 9.205 
ockhy -2.8484 -9.7745 0.57841 2.8076 6.5961 6.7717 -4.92 -2.9487 1.0665 -3.9212 2.7766 8.0687 1.6516 7.3357 2.4473 -5.6259 4.4492 -1.4802 4.2312 -4.3703 6.5115 -2.7952 -15.211 10.333 -7.9919 
arody 8.1229 6.7466 7.7144 0.90384 1.9215 -7.647 15.731 3.0889 -10.187 1.5492 -16.152 -1.9413 8.5931 2.2563 0.69217 0.24988 -2.8777 -5.8283 3.5591 3.6523 -1.4746 5.0451 2.5788 0.16033 9.1984 
a -1.6112 -7.4236 -21.365 30.663 -15.91 -16.211 -14.785 -30.346 -6.1267 -33.248 2.2035 19.437 18.886 16.368 8.1068 -15.898 -58.389 -15.872 -5.25 -7.7614 -17.819 -3.2241 -74.688 13.471 30.071 
sam 11.371 4.2055 5.9356 -6.982 30.168 31.022 -11.891 16.399 -17.749 -12.777 -10.126 14.052 1.7075 -16.204 -0.17188 3.0206 17.361 10.167 5.9113 1.5921 -3.711 -1.5751 15.984 19.1 0.78392 
olain 5.4783 -17.393 -1.7597 1.8127 1.6932 -13.273 6.5218 -12.042 -3.9706 -1.7168 1.8069 8.161 0.47821 -0.53676 -5.5885 3.0513 -0.94014 9.4475 -5.4455 -2.2126 8.4938 6.889 9.6439 5.1434 12.613 
aram -9.555 9.605 -2.4376 -2.4613 13.866 4.61 21.775 -2.0316 8.148 -16.144 8.6265 22.333 -1.5781 1.3018 2.2934 -8.1748 3.3784 -1.1502 -0.20668 -4.3699 9.7863 -5.053 -5.1368 0.97005 -0.018537 
ly 12.254 -27.186 16.711 4.9832 14.38 0.77298 -61.268 -22.977 -2.6578 6.7727 -16.593 33.219 -7.1453 -29.348 -18.938 30.532 -5.71 12.238 -15.663 -25.529 -10.725 -21.885 4.0454 -1.9392 2.6161 
kair 9.4106 5.3003 1.5341 8.295 5.8188 -23.211 -0.94642 2.9985 -4.2792 3.9225 2.9481 4.3221 5.9659 -11.767 6.7917 3.5099 4.8838 0.094974 -1.955 7.0853 4.1847 7.6683 -20.198 -3.6476 -5.7338 
okary -8.1659 5.9383 -0.81005 3.9388 3.8469 6.812 1.3419 -8.4528 15.411 -5.0512 -7.7302 7.9156 -1.2027 -0.48378 10.741 -13.745 8.6745 -7.5611 3.1149 2.9464 10.82 7.383 -9.8225 2.7254 6.74 
qoteol -0.89836 4.8821 3.1283 4.7221 3.9965 0.36407 -7.2637 -18.102 5.3675 10.345 -6.7868 -9.6015 1.709 -0.1091 -0.07973 -0.57165 -3.9702 -4.0254 -1.9792 -0.9728 -12.932 8.964 7.2823 10.446 -1.6888 
doiin 8.0973 -3.5717 -0.67763 6.8897 4.4899 15.941 4.3554 4.6368 -7.5261 3.32 -4.4888 1.0338 -5.0971 -6.1648 -2.7535 -0.24536 -1.1744 8.8669 -7.2455 -10.173 -7.5545 -0.98172 -1.0734 7.3474 -4.0338 
ykal -3.8636 7.227 -0.89559 19.081 -0.40455 -3.803 -2.8136 3.1447 3.0735 0.65658 15.318 8.0178 -3.3346 -6.1869 9.308 0.65855 15.986 -12.121 -7.4685 -7.6095 -2.1236 -3.0676 -7.5327 -13.354 -16.81 
chokain -1.5093 -1.3204 4.8606 4.0573 -1.4357 -1.601 -3.7813 6.0195 -0.60693 -4.6364 -8.4846 -6.525 -2.4911 6.8033 0.18737 1.4768 6.846 1.1611 5.2267 0.6378 6.7862 -2.8857 -2.1218 -1.486 5.0931 
qoteody 4.2426 -2.7788 2.3852 0.0042539 -2.3599 2.6133 7.8015 -4.1043 -5.7703 0.94298 -7.7716 1.0201 8.5844 0.75443 2.9413 -7.4698 -9.283 -7.2278 1.8476 5.7793 -3.9321 10.467 6.7124 8.5961 -8.699 
checkhey -3.2334 -6.9756 6.2819 3.5429 7.5455 -0.70446 4.0362 6.3045 1.8541 8.903 0.8475 -1.3098 0.11896 -1.6456 -7.3832 5.6807 -6.9651 -4.5461 5.8424 -1.7679 1.3164 -7.3652 0.40151 8.3374 2.6466 
chory 9.5255 3.8171 2.2252 8.7892 2.9684 3.4394 5.4498 6.962 3.0597 9.3351 -6.6234 -11.327 -7.5857 16.707 -12.872 -7.3247 -0.8087 14.037 -4.545 3.416 1.3126 -4.8861 4.8808 -20.314 -6.2502 
pchedar -0.75735 -1.1939 6.5199 -0.17018 3.5115 3.5809 13.452 -4.9381 -6.0332 -9.9627 -9.1794 6.5112 12.889 1.4207 -3.7348 3.823 -3.1123 -2.4415 5.4743 -4.772 14.447 -6.9839 2.4946 -0.95944 3.0708 
alam -15.234 9.1519 9.6414 12.754 -3.9785 -10.577 -8.7996 9.3692 1.5868 -20.122 13.937 0.5958 0.95229 -2.3501 -15.742 -10.497 -5.0817 -0.58755 -3.3951 12.954 13.499 2.5097 -12.627 -10.01 -10.202 
olkam 7.7647 10.721 12.594 -3.5592 -7.2626 -21.052 -6.0443 -2.4762 -1.2372 -13.253 -4.0043 -11.9 5.6318 -5.7618 2.5021 4.3798 1.6976 -1.5051 -15.992 -24.902 -7.0078 10.763 4.4086 7.5387 -5.9414 
qolchey -8.3038 3.146 -1.7054 -1.5925 4.5747 -8.666 4.2319 3.7685 8.0585 1.9072 -0.8559 4.4635 -2.5294 -13.377 -7.1902 8.4137 -11.178 7.2694 -5.395 -1.983 9.601 0.72428 11.738 -4.4534 3.9698 
chotar 13.393 6.9367 -11.228 -8.6353 -3.8178 6.0289 2.0603 -8.1958 3.1383 -13.399 -8.1782 -3.9542 -8.8897 1.9189 -9.4851 0.21399 22.747 -5.8144 7.0577 3.2295 -2.5708 1.2242 4.4645 -6.4069 -6.7091 
chkar -0.59036 -12.943 15.89 0.73523 15.224 6.0743 -5.3076 3.9146 7.9107 -8.5245 -11 10.706 2.5465 11.958 7.5178 -9.5057 -10.795 5.304 -2.1034 -8.5607 7.417 4.5151 3.4781 10.036 5.5752 
ytchey 3.2247 -0.51778 -1.5407 -11.406 14.365 -3.5618 0.77547 5.7648 -4.422 8.1864 -9.5069 9.8528 -1.3649 -3.6933 6.671 -5.2549 1.1367 7.3408 -5.4688 -5.2846 -10.535 -5.864 -0.12413 9.6752 -3.282 
shckhey -7.3268 0.37271 6.0193 1.5098 7.8169 -4.459 -19.748 9.1757 -1.9947 3.392 -2.0463 -0.27458 -0.099547 -6.2737 -4.6972 5.4595 0.91661 -5.4576 1.9749 -0.44263 -3.0734 -4.2384 -1.373 3.9354 3.2362 
qokshedy 1.1309 0.66263 -10.569 8.6616 -0.429 5.0537 3.1539 -4.933 -6.9309 -3.4802 12.739 5.2587 7.6802 -14.748 5.2554 19.613 -2.6161 16.581 0.95485 3.5491 6.3753 -1.2162 7.8663 3.478 2.0092 
tain -7.0638 -2.6367 -5.2489 24.841 10.345 -8.8643 -22.742 -10.098 -8.1061 -9.1071 3.6434 -1.488 -11.992 -2.1652 11.224 5.2413 -12.77 1.0946 -6.382 0.17958 -3.1025 19.021 0.48037 -0.33073 8.2178 
olkeeey -9.7853 -10.132 -3.3516 2.0306 5.3032 -9.9916 -2.0103 9.7179 -1.2623 4.5844 0.27373 9.3262 0.66195 -2.1801 -3.2438 3.6732 4.5196 0.54599 -6.7158 -5.8379 -5.0011 -6.6531 7.0295 2.266 -5.9867 
ycheo 5.3839 2.0652 -2.4407 -3.7727 -3.809 -4.1529 -22.134 7.4506 10.796 0.34259 7.0218 -2.2422 1.9842 6.1331 3.8781 -0.96539 2.649 -1.204 3.9496 -1.0058 -9.4878 0.34185 -7.1118 18.292 -3.2381 
teody -1.643 0.85744 -4.7917 8.7084 -6.0388 2.041 -9.2881 -12.977 -7.9923 4.4308 -13.27 -5.0009 1.8282 7.5715 -6.3897 -15.015 -3.9004 -13.608 3.3482 7.7176 -2.3523 2.1076 0.051201 -0.33617 1.5409 
ycheol 3.697 0.76029 -6.067 6.7999 -5.1248 -4.0425 -4.2166 -3.6133 4.9992 -3.2682 10.567 -0.90156 4.3437 11.817 -13.082 -4.5308 -3.6706 10.579 -8.159 3.0982 -3.3068 6.4633 -0.22846 -3.4728 3.7582 
chckhedy -8.3058 -2.7781 6.4883 -8.0164 6.0818 1.1285 8.0988 -1.2059 -1.4323 -6.6015 6.838 2.0094 3.1415 -6.7834 -2.1326 7.0939 -1.6829 -2.2117 3.7397 -0.65751 4.8673 -1.3146 6.3964 2.7735 5.6266 
dshey -0.35952 -21.866 11.029 -9.9934 5.2199 -0.24634 0.63439 3.086 5.0661 6.1381 -11.07 1.9996 -8.3488 -1.2562 -9.2681 -6.2134 -11.52 -3.57 3.699 7.5121 8.0864 3.9457 5.8162 -4.3951 -4.0969 
oain 0.81774 -0.48172 -9.3494 12.802 5.5748 -6.8479 -0.10975 -4.478 1.9495 -9.0816 7.1003 -24.003 0.77023 3.4075 0.0941 -8.8503 2.2695 -2.4398 -2.4002 7.1414 -0.63887 21.421 7.798 2.3666 10.228 
okshy -5.8709 -4.6861 9.4141 0.79161 0.11828 14.792 3.582 -7.554 -11.272 1.1443 -4.5053 4.5205 5.964 -0.18025 10.316 9.4409 1.6756 10.14 -0.85317 -7.3704 3.256 -8.8092 -10.254 -7.9656 3.8855 
qolchedy 0.9636 0.026664 5.0842 -1.3053 -2.4614 -12.708 -10.336 0.56759 2.9107 -3.592 2.7173 1.9892 1.21 -12.968 -5.744 8.0968 -5.8307 10.504 -5.42 -7.6179 10.859 -3.2251 8.879 7.4673 8.5941 
otoldy 4.0622 1.0959 -2.4814 -3.4247 -4.4567 13.855 7.803 5.6709 4.1467 16.841 10.977 2.5921 -1.0237 -6.0134 5.3676 5.8455 8.1921 -4.2987 -2.8518 -13.402 -0.22569 2.4295 -0.93227 -0.73843 -14.453 
pcheol -4.4135 7.9891 5.3885 -3.9794 -1.2045 -7.1612 -3.5347 5.1139 10.713 5.4895 1.9476 0.027465 -0.13078 10.207 -22.162 4.8486 -11.874 3.2526 -6.1856 -11.494 0.37218 -4.513 4.662 -4.0353 -2.4024 
olcheey -14.927 0.10313 -8.1679 10.249 -2.4428 -5.6072 7.6818 5.031 10.249 3.9138 3.6426 8.5395 -2.5023 12.988 1.1676 2.2395 -3.8114 3.8976 -2.2356 -6.3511 5.4437 -1.2627 3.7548 4.9115 -4.1685 
shek 3.8709 16.973 6.4601 -1.3917 13.92 5.6452 0.3597 -8.0217 -5.6618 -15.487 -19.854 8.0155 6.9445 -8.9992 -10.53 1.7916 6.1708 6.2346 -0.042686 5.1838 2.1879 -11.125 12.286 -12.878 12.61 
oram -0.15293 -7.594 -12.428 7.0747 6.6577 3.5335 2.789 -8.7018 2.9636 -11.522 10.585 -10.054 8.0075 -1.1437 13.745 0.64578 6.5085 -3.7906 -8.0893 -18.427 -15.895 20.673 -4.3327 29.29 -0.49477 
ychedy 12.102 -2.377 -6.3818 1.256 -6.0173 -3.9513 -1.0306 -0.097384 11.518 6.378 1.2601 5.6143 -0.12868 -1.672 9.9729 5.1312 2.7575 -0.5474 1.0519 0.59473 1.3286 10.337 13.595 4.3117 -0.15477 
okeos -8.0303 9.3243 -4.7866 -5.3376 1.6898 2.8968 21.1 -8.2542 9.0959 3.3947 8.5389 -0.67086 6.6812 -6.5908 -0.9923 -14.022 13.283 -7.8953 5.6644 3.7356 10.86 -8.3909 -6.6171 7.7772 -4.238 
shod 12.331 -1.8926 2.6227 -12.213 -10.336 -8.4144 -1.1057 9.9918 -5.3603 11.671 -14.853 1.9845 -8.3747 4.7028 9.1482 -11.233 -4.4376 -9.7235 -0.32395 -4.7703 -6.4516 -4.1336 10.889 0.68086 -11.857 
choldy 4.7758 0.0053888 0.69535 7.7812 -5.7721 4.5282 -8.7823 6.5009 -2.5827 16.809 13.725 -2.9916 0.9665 3.0227 -6.7369 -8.1216 -10.702 -2.0609 -0.96 4.0645 6.0602 0.36222 -11.028 -8.3722 -15.597 
sheod -0.98804 1.2717 3.7106 0.61328 6.432 11.624 9.8058 -4.4468 -6.6794 -3.6966 1.3297 -11.895 7.4555 8.9008 6.5383 3.0282 -4.2374 2.5652 10.342 13.123 -6.3713 8.9176 6.3105 5.9345 7.7697 
ytchor 6.2954 0.62263 2.9637 -6.3266 -6.8515 11.56 -1.6809 9.9756 -3.0674 9.945 -1.9196 0.7008 -10.734 -10.668 11.742 -6.2667 -1.0004 13.622 -7.1888 -8.0678 5.325 3.9091 -9.3777 4.5352 5.0904 
ctheol -8.2759 -2.3362 -9.208 5.5467 -1.3336 12.96 -4.0137 10.23 -2.4175 18.111 4.3661 -1.2522 -15.027 -6.5605 -14.343 -5.2568 -0.79843 6.1038 -8.4329 -1.2584 -11.567 3.7904 -1.9761 9.9085 3.6803 
sary 14.123 28.329 8.1191 -6.2802 6.332 -2.6212 -7.8295 13.569 9.8966 12.931 10.212 -5.203 -9.273 -0.89696 0.7901 -2.0422 -4.0095 -8.5447 2.1851 -21.847 2.0271 -11.71 -22.338 6.6049 4.799 
x -10.717 -11.838 -1.183 3.3951 3.5 -15.289 -3.5659 -2.0221 24.137 -16.483 -20.813 30.054 0.91143 -14.295 -7.0127 -17.199 -37.079 10.763 -5.4705 19.602 -18.661 -25.19 -37.206 7.2384 5.0385 
shos 0.18122 4.8421 -14.22 7.7142 4.291 8.6782 2.6852 10.6 -15.386 -9.7116 5.0148 -10.349 0.31469 -7.1964 23.654 0.45909 17.015 1.0235 -4.4356 -12.214 -16.02 -3.0439 -2.1346 12.211 -4.3643 
rchedy -5.1753 -1.9659 3.6773 -4.5652 -5.416 -8.3618 -4.7933 -2.1992 11.802 -0.18466 -6.1273 -3.1333 2.4689 1.877 3.2856 8.3774 -10.234 8.9881 5.6802 4.9285 -1.5209 -9.344 17.953 10.686 -0.9681 
chekaiin -5.0428 0.84884 5.6959 -0.75467 11.968 -2.8038 11.251 0.36548 -2.3535 6.4032 4.3833 6.6716 -0.96498 3.6833 0.32847 2.7586 2.484 -4.6048 3.2769 -2.6367 -3.7297 -8.1395 -11.127 0.39074 -2.652 
pchdy -4.0801 4.6202 -1.9659 -8.7072 -1.4955 -0.34038 1.6717 -8.0492 -7.375 -8.4862 -10.791 4.8352 0.90118 9.9628 -0.15761 7.6838 -0.64504 -0.5945 8.7837 1.2611 17.151 2.4406 -1.8761 -14.756 13.934 
qokaldy 4.0441 -2.9658 8.0806 -7.2831 -7.9896 -11.445 -4.5318 1.9388 -10.854 5.6712 14.455 -1.1613 1.3064 -16.465 6.7075 -1.1464 6.3028 -2.1637 -4.5632 -0.47765 3.395 -0.73551 -3.4288 -1.7447 0.81401 
arol 3.0764 -0.99191 16.09 2.0037 18.87 11.837 0.14782 8.8885 4.9486 -9.2945 -9.5649 4.9897 8.1751 1.0792 -5.5775 0.24791 7.2978 -3.8578 -3.5925 -13.6 -0.82589 5.475 12.511 7.8729 2.9507 
f 8.8181 -2.3526 -9.3602 0.97448 19.417 -13.126 18.488 -4.4416 11.842 -13.243 20.969 1.5572 17.893 8.2865 17.665 -19.031 -13.376 13.479 9.7308 16.107 5.0131 -35.209 -19.977 0.1216 -19.356 
ckheey -0.33347 2.7722 11.077 -2.6105 -9.6383 2.9035 3.994 2.4346 -16.811 6.0104 -2.9199 2.3474 -14.055 5.1918 -1.1875 -12.216 4.7772 -0.097561 2.2097 0.66939 -11.847 -12.686 0.91095 17.837 3.6778 
oteeo 9.7488 8.3027 -8.1197 -0.13534 4.9005 -20.38 -17.428 -7.8433 -3.5689 3.0415 -12.62 -6.0945 2.5639 11.2 -1.9034 -15.49 7.773 -6.6743 0.24826 -8.8344 4.316 -5.4883 1.378 12.145 -0.83817 
