997 10
daiin 0.39574 1.8382 5.0263 0.74456 -0.46143 3.0135 -3.1888 1.6443 -0.2958 -0.47029 
</s> 2.6152 2.4972 1.0678 -1.9893 -1.4301 -16.217 -1.2458 -2.7188 1.7369 -7.6205 
ol 7.6784 -8.3494 -0.052916 -0.93241 -0.083875 -9.9345 4.3581 4.9588 -2.6635 1.2851 
chedy -1.8078 -8.6276 -7.9995 -1.9414 -0.049341 -2.7822 6.2723 -0.82336 -5.5971 5.0756 
aiin -0.33909 3.8189 -1.6962 -1.496 0.68358 -1.7269 0.6787 -5.6276 3.4643 -2.2054 
shedy 0.78462 -12.344 -6.8359 -0.083516 0.49514 -5.2919 6.2028 1.6205 -6.3468 3.9357 
ar 1.3522 5.3694 -12.361 3.9583 3.2117 -9.5459 1.3369 -9.7036 8.6582 -6.666 
chol 1.2507 5.5899 11.557 -0.95556 -0.1782 2.7946 -6.1176 5.0679 1.2105 -0.8974 
or -0.20895 1.8867 4.312 3.8882 0.8431 -9.367 2.5743 -6.2533 4.6151 -5.8318 
chey 5.0499 0.20449 -0.63125 -3.9746 -3.266 -0.50087 3.3766 4.9101 -1.7411 3.6817 
s 6.0013 17.036 19.822 1.5124 -0.67733 5.5647 -4.307 -4.1606 8.9838 1.5201 
dar -0.92936 -1.797 -0.27027 3.9796 1.9144 0.44859 -5.2914 -1.52 -1.4594 -1.196 
y 9.3024 5.3001 -1.475 10.959 -3.9815 -10.904 -4.0562 -1.7561 0.39256 -0.20071 
qokeey 2.6181 -4.5202 -2.0168 -8.0636 0.58906 0.052541 9.2023 2.3297 -0.91005 6.5091 
qokeedy 0.76804 -9.1488 -4.6939 -4.6776 0.62105 -0.7939 9.9329 0.28213 -4.2651 7.88 
qokain 2.862 -8.0693 -6.8964 -3.4829 -4.1099 -8.162 5.118 5.1864 -6.2591 -0.42038 
shey 5.6494 -2.954 -1.0559 -5.2547 -2.1379 -4.7461 4.1034 6.9624 -2.1291 2.4346 
dy 7.8182 -3.983 4.7129 9.8423 -1.1502 4.3124 -9.3639 -0.013264 -4.0638 -1.8193 
qokedy -0.39024 -13.108 -5.8749 1.643 2.435 -2.1401 5.2494 1.7996 -6.5879 6.5585 
qokaiin 0.38299 -3.1745 -3.9608 -2.222 -1.1049 -3.3399 1.6602 1.3401 -2.489 -0.31212 
al 3.5758 7.6279 -14.627 -6.3227 4.2183 -4.7654 3.3319 -7.9647 10.532 -3.2515 
dal 6.4048 -4.1861 -0.26572 4.0519 1.0257 1.346 -3.8535 0.084044 -1.2433 -0.83879 
okaiin 1.1762 1.0722 -2.5367 0.35047 -0.43028 -3.7846 1.4999 -0.19811 2.144 -3.4344 
dain 2.6512 0.20376 0.30987 0.24534 -2.8513 -1.7169 1.4494 5.4028 -0.7772 -1.0949 
chor 2.3195 9.0891 14.909 -0.96161 -4.4787 2.1813 -6.8842 5.2353 1.1902 -5.0973 
qokal 3.7947 -10.59 -3.8575 -2.3064 0.5295 -4.8788 0.83216 1.6244 -5.4486 0.20327 
o 12.299 18.444 -7.816 2.0425 -5.5116 2.0407 -2.4013 -2.0709 5.8876 6.7382 
l 5.3353 9.0625 -17.381 -12.404 -7.6846 4.777 19.428 12.25 2.6238 13.405 
shol 1.1272 1.2349 8.7481 0.024455 -1.4226 0.60487 -4.9716 7.1841 -1.9789 -1.0659 
cheey 0.2767 1.4846 -1.1094 -8.4709 -1.2958 -0.083708 4.6738 2.0029 -0.22277 3.4672 
okeey 5.4834 0.1244 -2.249 -7.4714 4.5714 1.5099 5.7065 -1.3958 4.5276 6.5613 
r 12.294 9.2506 -3.3123 -1.2234 -3.709 3.9633 4.4314 10.299 3.5327 10.191 
cheol 0.72816 -0.26153 3.6811 -9.4996 3.149 0.68101 3.2602 3.4244 1.2936 5.1679 
otedy -2.6545 -9.159 -6.1745 3.4524 5.0476 0.44689 4.2235 -6.4369 -2.2369 5.0973 
chy 5.9512 10.534 6.6894 4.259 -6.7825 0.29716 -8.3924 7.4695 -1.1155 -0.35348 
qokar 0.68802 -7.1095 -5.088 1.142 -1.2403 -5.5564 -0.50728 -1.4291 -5.1259 -2.0468 
okal 2.8494 -2.3181 -4.2469 4.3858 4.3326 -3.8714 -1.1968 -5.0779 3.0194 -2.0578 
otaiin -2.8303 3.4278 -2.3453 0.044837 -1.4444 -0.30128 -0.11422 -5.0271 0.99462 -3.05 
otar -1.7886 -0.70817 -6.0804 2.8377 2.8052 -5.3051 -1.5897 -7.0319 1.3464 -2.5923 
sheey 0.93341 0.70663 -0.80903 -9.0049 0.3869 0.9472 2.4094 2.2011 0.17254 2.8243 
chdy -3.8657 -7.1995 -5.3306 7.1788 2.6541 -2.6737 -4.779 -2.8454 -4.9652 -0.44519 
qoky 3.0924 -9.4729 -2.6866 1.8434 -0.4382 -1.467 -1.2379 8.294 -6.1476 0.36546 
oteey 2.8291 3.219 -5.2422 -3.8083 1.348 2.9596 5.4735 -5.0913 3.8939 4.8772 
okar 1.7332 -3.1631 -3.7208 5.9806 -0.60416 -4.3815 -1.6621 -9.5204 -1.5241 -3.4948 
qol 8.5984 -18.593 -6.4908 -5.3595 -0.94616 -8.6896 7.2762 16.433 -8.3997 1.135 
okain 3.9608 -4.6602 -6.3615 -3.0001 -1.5716 -7.0444 3.8108 1.7455 -0.80959 -4.1333 
chckhy 1.4616 -3.9315 -4.1059 0.32818 -0.29025 -3.3912 -0.70694 1.7741 -2.5843 -0.94025 
otal 1.4977 -2.0563 -5.8454 2.99 1.4702 -4.1003 0.26073 -4.1478 1.5881 -3.713 
saiin 2.5525 0.35324 -3.08 -2.7738 1.4638 0.092433 0.31589 -1.8179 0.65766 2.9928 
sho -2.5062 13.377 13.358 -2.3828 -6.3625 9.6255 -7.2724 9.0936 -0.48634 -0.85135 
okedy 1.8607 -11.638 -6.4577 4.2809 6.0143 0.75608 1.3368 -3.6539 -3.327 6.1184 
oty 2.9922 -0.83511 -0.65585 5.1185 0.64256 0.3261 -8.0222 -1.9035 -1.216 -3.4047 
okeedy 1.5569 -6.2742 -6.2936 -1.3256 3.3559 -1.4911 6.0715 -4.7504 -0.57215 5.4166 
lchedy -0.64013 -8.9206 -8.0987 -5.6213 -0.75016 -1.0461 9.4717 3.438 -5.4015 6.5175 
ain 5.7769 0.77429 -9.1294 -5.8761 -1.059 -10.216 5.8442 2.0384 1.8813 0.94739 
dair -2.9048 3.5388 0.67709 3.1763 2.2639 3.5754 -2.0264 -2.4287 3.1763 -1.3833 
qokey 7.4115 -8.7813 -1.1607 -4.4601 3.9722 -2.3876 4.5719 4.3081 -0.72954 4.9544 
dol 1.9162 -7.4272 11.567 1.6765 -0.51203 8.512 -0.64707 9.2776 -4.5522 0.779 
sheol -0.46837 -5.4603 4.0982 -7.4586 5.936 1.9 -0.99738 4.1936 -0.85888 3.591 
oky 2.8602 -2.4205 5.4577 3.6529 1.4252 -3.727 -10.087 -2.6307 -2.227 -4.8789 
oteedy -0.95557 -4.0873 -6.3245 -0.88885 2.5621 0.43376 7.8758 -6.8058 0.45923 5.1478 
cthy 2.887 5.3278 12.36 4.2949 -3.1955 -0.40815 -10.924 9.1586 -1.2669 -5.4191 
shy 2.5993 4.0732 5.5632 5.5137 -4.3621 -3.3535 -11.333 12.248 -4.5334 -2.1919 
qokol -0.36859 -4.5892 4.8765 0.76607 3.4464 -0.88879 -4.0472 3.7831 -3.0597 3.1252 
otain 2.6991 -1.4782 -6.661 -3.7226 -2.6444 -8.562 7.4644 -2.9957 1.6316 -5.0496 
shor -0.68113 2.4171 10.571 3.2693 -2.1322 1.874 -7.4336 5.9635 -0.99526 -6.6224 
cheor 2.3544 2.4128 5.1531 -6.135 4.0489 3.1658 0.68724 4.2427 5.331 0.043738 
chody -2.7732 4.6597 6.4045 0.76344 1.6706 5.1853 -4.3958 -1.7384 2.1444 -0.95837 
cheody -3.4666 1.0554 5.2416 -7.0893 5.4187 5.5246 0.25423 -4.8806 3.0185 2.472 
qotedy -1.2809 -12.153 -4.3738 0.64907 1.181 1.3351 5.152 -1.4822 -7.048 6.1615 
dam -1.2573 -0.78407 5.1509 11.203 5.6767 3.8404 -7.3725 -1.2801 1.8546 -0.73105 
qoty -1.842 -2.2041 1.5552 -0.089973 -5.3599 0.66828 -3.6225 4.2081 -8.7019 1.8705 
am 2.0703 4.9439 -7.6181 3.9922 5.3319 -5.3341 5.783 -9.9478 13.184 -8.3639 
char 2.7094 6.937 -3.9397 -2.6478 -3.7353 -5.4078 -1.5139 3.1553 2.106 -4.4594 
air -8.324 6.6576 -4.0826 7.0211 4.9637 -1.0147 2.3637 -9.5136 8.6867 -4.0032 
sar 0.97991 3.8618 -2.1804 6.4398 4.2161 -7.348 4.6465 -6.435 5.5697 6.0783 
sheedy -2.2405 -6.6051 -6.4125 -2.5123 0.55185 -2.065 7.0983 -0.34811 -3.6713 5.2891 
otol 0.070202 2.5694 4.8003 3.6221 -0.069006 2.4654 -4.8433 -3.8195 -0.075268 -0.78433 
chcthy 1.4371 -2.6901 -0.28961 -0.10723 -2.5094 -4.2691 -2.4278 1.7214 -5.3543 1.3218 
kaiin -0.074076 2.2339 -2.9994 -0.51991 -3.9027 -1.8281 -1.3919 0.62478 -1.181 -4.5058 
qotaiin -5.7502 0.14209 -3.1801 -1.1215 -2.2994 1.7792 -0.085867 -0.97833 -3.1172 -1.1207 
cho 0.18505 13.808 7.778 -4.713 -7.0865 13.413 -2.9245 9.8511 2.1872 -1.9741 
okol 3.9132 0.34895 9.5881 1.1824 6.4511 -1.4368 -6.6522 0.19219 2.5766 2.5512 
qoteedy -2.4517 -7.9753 -4.7487 -2.4929 0.70112 -0.095752 7.3557 -0.5552 -4.7946 6.8098 
cheo -0.94032 8.3034 1.9686 -8.2046 -0.95712 6.0633 4.7462 -1.2351 3.4489 5.5779 
d 13.386 18.914 0.43902 12.221 -12.563 8.0764 -1.5047 8.4676 8.5077 -10.227 
qokchy -3.8538 1.5014 7.24 4.157 -2.8547 0.70141 -7.3868 4.6084 -5.5213 0.14971 
sol 3.7881 -5.6123 1.6284 -3.3599 -1.4873 -2.05 1.2427 6.4127 -4.901 3.2288 
odaiin -2.517 4.0065 2.6799 1.5858 1.6708 2.1639 -3.3674 -5.6691 3.0198 -3.3626 
cheky 3.6024 -2.8912 -0.089541 4.3582 1.0579 0.94591 1.03 -3.3226 -0.18339 2.1667 
okeol 5.7981 1.8498 8.6495 -8.9231 9.6794 3.7357 -0.80953 -3.2558 7.4771 5.6727 
qotar -4.0124 -3.8085 -7.0885 1.9137 -1.8623 -3.5277 -0.12731 -4.2276 -4.7998 -1.3624 
dor 1.4437 -0.74177 16.224 -2.1468 -1.1415 4.7304 -5.4722 1.5393 -2.4361 -2.7237 
sain 3.2309 -6.9579 -5.0596 -2.5515 0.87233 -6.0481 5.9986 1.721 -0.17559 -1.8812 
okey 13.518 0.63393 -2.9607 -0.74364 4.7699 2.4079 2.4248 -4.3977 5.5007 8.2085 
raiin -1.3301 2.3435 -1.8 -5.1741 -6.2407 -1.5881 7.1176 1.6131 -2.6472 2.3724 
keedy 3.2903 -9.1642 -7.8469 -2.1351 1.1658 -2.1917 5.2966 -0.49416 -4.4875 6.2993 
qotchy -5.2014 3.1665 5.0516 4.1166 -5.3175 6.2118 -8.8323 8.4984 -5.2343 -5.2284 
oly 8.4811 -8.8997 -1.8739 3.9701 -0.59782 -8.4853 1.6227 5.2398 -4.3321 2.2548 
qotal -4.1587 -4.3705 -3.9757 2.0524 -0.44013 -2.5292 4.13 3.4168 -2.479 -0.08323 
qotain -1.2623 -5.517 -9.0271 -6.1429 -2.7786 -4.2813 6.393 1.9732 -3.9261 -0.865 
shckhy 2.2118 -6.3497 -3.0353 -2.6537 1.1463 -6.2797 -0.44184 3.2288 -2.6112 -1.7537 
otey 4.2132 -0.59936 -3.9634 1.1396 3.4655 0.76113 4.2838 -6.6775 4.5999 1.7864 
cheedy -2.9951 -4.9728 -5.6832 -5.6132 0.85821 1.2888 10.014 -0.92537 -2.0847 7.0755 
kar -0.57027 1.1435 -6.4656 6.8191 -2.8524 -15.757 -1.8128 -11.506 1.6272 -13.356 
ykeey 2.9877 1.138 2.4714 -1.9724 2.4434 2.9136 4.5188 -1.0288 3.2943 5.2203 
cthol -0.5714 4.2302 17.845 0.70649 -1.1268 2.2246 -6.1677 11.221 -0.43566 -1.8835 
keey 7.0645 6.2537 -0.26917 -7.6488 -2.854 7.9435 5.8755 3.4674 2.2559 8.2631 
qo -0.092576 -2.175 -0.83935 -7.1652 -5.3327 6.306 -0.1068 12.296 -7.4173 3.2441 
olaiin -2.1216 -1.427 -0.9817 -2.0388 3.2353 -3.4014 3.408 -5.4424 3.4966 -3.4929 
shody -6.1209 5.1146 4.0401 1.0452 -0.4548 4.7556 -5.5765 -1.9465 -0.14895 -2.5332 
sor 3.3263 -0.55894 4.4998 -1.2802 -2.3849 -1.7409 -2.3579 -3.0743 -1.542 -3.6191 
chear 3.5594 2.5183 0.32856 -5.1928 1.5836 -4.0139 2.9209 4.0593 5.6266 -3.6363 
cthey 3.785 5.6137 6.6962 -3.1478 -0.5221 7.9254 -0.030368 4.9744 3.9043 0.22565 
qokchdy -5.4352 -6.618 -0.78275 5.9084 -0.35182 -4.8765 -2.8125 -3.8435 -7.3821 0.90643 
qokeol 6.6289 -3.0333 8.6946 -9.4392 5.572 7.2726 3.827 2.4476 3.4006 5.9777 
sal 10.294 -1.9974 2.3063 2.6993 -1.5646 -4.1624 0.37614 -4.0325 -1.8961 4.951 
opchedy -7.5314 -5.3613 -5.4353 -1.3208 1.2085 -2.744 2.1456 -2.9979 -3.9116 0.31009 
otam -1.1597 -3.2847 1.6073 -0.06699 3.0914 -0.18799 -0.012718 -8.5134 -0.039785 0.15149 
lchey 1.3897 -5.8036 -3.9998 -8.7013 -0.3452 -2.9438 6.2488 7.6311 -3.3766 4.2179 
chal 3.8048 -0.21765 -0.17427 -2.7228 -0.94013 -9.7036 5.7885 -1.9078 4.5663 -7.905 
sheody -5.6961 0.86371 5.3877 -2.517 5.8525 6.1326 -2.4845 -5.1141 2.7888 0.042696 
sheor -0.14905 -2.8718 3.9746 -7.8149 4.3327 -0.94357 -1.6456 3.3585 1.0976 -1.9265 
chaiin 3.7641 9.1239 4.8295 0.082578 -5.7049 -1.5322 -4.4607 6.5491 1.9559 -6.4237 
checkhy 2.6392 -5.2297 -1.5583 -3.7438 0.68836 -3.0651 5.1237 0.36304 -2.9645 6.7534 
lkaiin 2.0484 1.7979 -8.1317 -9.3811 -6.1767 -2.0751 3.0466 -3.0736 -2.1221 -3.2596 
sheo 0.19898 5.4826 4.3196 -8.7056 0.87462 1.8453 1.3118 -5.0202 5.1699 -3.3448 
kedy 2.9385 -10.438 -13.905 5.7596 4.0698 -1.7577 0.59468 4.1738 -3.5986 4.2802 
ody -1.4545 -0.026947 0.74366 11.179 2.2902 2.3049 -3.1907 -11.557 2.6102 -4.884 
aiiin -0.7547 3.2858 -3.2797 -3.163 0.30447 -3.6897 -0.50998 -2.8978 2.8743 -4.5825 
chodaiin -3.4723 6.5108 4.6354 0.99733 -0.46307 4.8374 -4.5927 1.6718 0.78258 0.25227 
ykaiin -1.4815 -0.055626 -0.83897 4.9223 -1.4522 -4.926 -4.7574 -5.0195 -1.1227 -7.2206 
shdy -2.2147 -4.8611 -5.6485 10.074 1.8122 1.1105 -6.1961 0.27348 -6.6791 6.6323 
cthor 3.8497 9.5255 15.007 2.5012 -4.0218 -5.6603 -8.5862 9.0656 0.28604 -2.4871 
olkeedy -0.086633 -9.2779 -3.6993 -1.6275 -0.60697 -2.1997 3.9041 -2.6384 -5.2696 0.6793 
tol -8.2505 -4.6178 10.032 4.148 9.6343 -0.24552 -7.4465 7.0855 -0.18658 0.76751 
taiin -2.6901 4.7457 -0.97168 0.13367 -3.1287 0.094481 -0.54731 -1.545 0.65403 -3.9143 
qoteey -1.6539 2.3105 -3.4912 -5.8952 -4.8836 5.0883 6.1224 1.9931 -1.9064 2.813 
qodaiin -7.2704 2.8364 2.3746 2.349 0.69006 2.8677 -1.9239 -0.30701 -1.0798 2.2382 
otchy -3.5556 4.7297 4.4749 5.0907 -5.0958 3.4497 -11.556 1.206 -4.6182 -6.1764 
kain 3.9866 0.085915 -5.639 -6.3506 -7.0112 -12.501 9.2426 1.3487 -2.0006 -0.76697 
qotol -4.6452 -3.0315 8.4646 3.8344 -4.6592 7.8732 -4.4881 4.8474 -9.3369 2.726 
ches -2.1453 7.9337 -3.7045 -4.613 -0.64576 -6.2659 2.4188 -1.837 3.5955 0.66554 
tar 2.2018 1.8403 -7.9158 7.8368 -6.3705 -11.055 0.89731 -3.346 0.15773 -9.9294 
oteody -1.8871 5.6045 -1.2452 0.30861 9.1058 8.5485 2.1251 -12.716 10.43 2.8716 
tedy 4.5403 -20.264 -8.638 3.3356 7.6058 -2.695 1.6402 -2.9099 -4.5869 0.36798 
qokchedy -7.7065 -5.2513 -3.4256 -0.73052 -0.80107 0.70968 2.4508 1.2918 -5.9261 2.387 
lshedy 5.3078 -12.126 -2.3017 -1.6043 -0.0094958 -6.0126 7.9269 1.6595 -5.9146 6.6879 
choky 0.20176 6.7992 6.938 0.26122 2.2617 0.295 -9.308 0.66113 0.86587 2.7233 
chedaiin -5.5746 1.3146 -3.7132 0.6396 1.5237 2.2397 6.1434 -5.9454 2.1129 2.8356 
choty -0.69417 3.0931 5.8678 0.26848 -2.0885 9.6825 -5.5452 3.929 -0.80261 -3.2907 
lkeey 0.47116 1.4754 -8.6403 -17.96 -4.6622 -1.3983 12.753 2.992 -1.3022 5.6238 
olchedy 0.26817 -10.833 -5.8025 0.2885 2.0568 -5.463 5.3087 0.92343 -5.0586 5.1395 
ytaiin -7.2729 2.6145 0.34621 4.3041 -0.4621 -1.4389 -3.4599 -2.6184 1.6954 -10.164 
otor -3.7435 3.9546 3.9284 7.6422 0.62121 1.5024 -7.1288 -6.1366 -1.5979 2.3911 
chees 2.4121 2.7024 1.1791 -0.17365 1.0374 -0.098425 0.032712 -1.5179 1.2886 4.3248 
olkeey 3.2822 -5.9251 -5.6543 -5.0502 -4.5556 -3.1487 5.7643 3.9378 -5.093 0.51855 
lor 3.8766 -5.3939 0.42873 -7.8753 -4.0757 -5.7342 9.7275 3.1655 -1.6302 -2.6328 
lol 7.4755 -14.055 0.2462 2.9916 -3.3567 -8.3252 11.022 5.218 -4.4704 -1.9132 
chos 0.53555 4.1032 10.792 -3.1364 5.1744 9.5896 -5.9296 -4.7898 5.1643 -1.8377 
kol 0.30138 6.891 17.367 3.829 -3.0543 -2.8189 -1.8956 5.0117 -1.7764 7.0022 
sy 9.6243 4.7687 1.1276 -0.21145 6.4402e-05 5.6197 -4.3226 18.181 3.0915 1.3729 
cheos -1.1108 2.7263 2.6092 -9.3106 5.396 2.8777 1.6036 -3.826 5.6893 0.37678 
ykar 0.16551 1.3981 -7.6106 6.4371 2.3258 -6.14 -12.748 -7.1931 0.63415 -9.3975 
lkeedy 1.5911 -7.2388 -7.4291 -10.115 -1.8172 3.1701 11.662 -1.9674 -2.0777 1.7391 
oteol 2.689 3.4997 2.7764 -0.83869 7.8294 -3.6806 1.9732 -5.3742 7.1279 6.7513 
okeody 2.9729 0.16845 5.0137 0.55216 11.049 6.9732 3 -9.5468 11.065 1.0676 
ckhy 2.6733 5.1937 8.1303 5.3196 1.4315 6.2877 -8.4175 3.9547 3.0057 -2.8035 
okor 5.168 -0.84584 10.717 3.5718 6.0307 0.65809 -0.74136 -4.9616 5.3759 0.62309 
kchy -1.5691 6.9218 11.336 7.9942 -3.7558 2.3139 -15.239 10.279 -6.9982 4.0849 
oraiin -1.1221 0.69252 1.6548 -0.25899 -1.1202 -0.64328 2.0612 -4.2581 0.080688 -0.6808 
pchedy -4.2038 -7.8365 -9.7786 -0.030193 -4.6901 1.0456 5.9767 0.79345 -7.4209 -0.14306 
oiin 3.3531 1.3991 3.9487 -0.45838 2.1148 -9.3833 -4.3788 -1.8996 2.0978 -3.3948 
otchedy -10.966 -1.8439 -6.6044 -0.67388 -0.42703 0.79372 3.5074 -4.3438 -4.0664 2.4522 
chedar -2.9869 -2.2121 -6.4651 -6.8095 -0.06585 2.236 5.7582 -5.418 -2.055 4.4073 
sheky 9.2726 -4.6604 -3.2224 3.7702 0.30389 -4.8823 1.0266 0.61728 -0.43696 1.1032 
dshedy -2.8285 -11.255 -5.869 5.6824 -0.081116 0.26955 4.1945 0.93317 -8.4249 7.1236 
lkain 3.7866 -1.2913 -9.8703 -14.799 -4.6997 -10.556 6.1524 5.4052 -3.5557 1.1544 
otchdy -6.7351 -5.202 -3.4995 4.7242 3.1737 6.1351 -4.2238 -6.4663 -2.8349 -2.2337 
tchedy -6.9536 -1.3326 -4.476 0.91939 -4.3208 0.67925 7.5709 0.76948 -6.0045 7.6264 
qokeody -1.8672 -4.6261 5.0413 -9.587 12.284 10.851 -0.66097 -1.3679 4.2726 5.4044 
shar 4.2083 1.2595 -7.112 -6.165 0.52656 -10.324 -9.2332 1.8563 1.2305 -11.182 
okam 7.2613 -0.32414 -6.6203 6.7017 -0.57001 0.11844 -4.0151 -6.9453 -1.5359 3.0082 
olkain 6.213 -8.7637 -3.3022 0.31985 -5.0716 -16.47 5.0497 3.7799 -5.0038 -5.3794 
sheckhy 5.1023 -8.7111 -5.9763 -3.1944 -1.0919 -8.5442 4.1889 6.2051 -3.3314 -2.0033 
otchey -2.6034 4.386 0.082116 -0.75247 -3.5879 5.2944 0.20123 0.0026558 -1.1013 0.66467 
daly 4.9365 -5.1677 1.5078 -0.013652 3.9912 -2.5629 -1.1984 -7.6695 2.0743 -4.1268 
shcthy 1.4332 -6.417 -1.4377 -0.84863 -2.3766 -2.3919 -4.1819 5.7466 -9.5415 4.8028 
okchey 0.43757 1.9662 0.29511 -0.9036 0.83629 4.8069 1.9425 5.0687 2.0186 2.3442 
os -5.2946 6.8635 11.923 3.3611 13.079 -0.13418 -9.6234 -14.961 14.651 -13.89 
qokor -0.9786 -2.8265 4.4981 3.3558 2.348 1.2586 4.0048 4.4162 3.9726 -5.4147 
okchy -0.37931 2.1284 4.5969 6.6671 1.7482 1.9392 -8.0301 0.18457 -1.1786 2.0089 
lkar -9.3703 1.079 -11.553 -3.9975 -2.9282 -8.561 3.9581 1.0242 -4.0518 1.1905 
qopchedy -9.8571 -7.0609 -8.624 -2.458 3.4071 1.4572 1.1178 -1.8391 -4.8921 2.5401 
olkaiin -3.0762 -1.1167 -9.7942 2.0599 -0.16539 -2.9306 0.70067 0.094419 1.8492 -9.1387 
olor 2.8636 -3.2882 -3.5271 4.5333 0.54119 -6.5722 1.0108 6.2749 2.0952 -7.0729 
ykeedy -0.029198 -10.283 -6.5653 2.2312 5.6521 -2.3825 0.61246 -0.38067 -3.0801 4.0596 
yteey -2.958 2.1099 -0.74243 -5.3215 3.4759 0.76362 -1.7639 -6.248 3.2385 -3.01 
opchey -4.8733 -2.029 -0.15795 -2.0549 -1.6324 0.58813 1.4083 0.10225 -2.2343 -3.4188 
chckhey 0.52395 -5.5553 -0.76103 -5.2832 1.1157 1.9529 4.1958 1.3094 -1.5592 1.5347 
checthy 2.7363 -7.2215 -1.8349 -6.2236 1.6866 -1.0469 3.1618 4.1608 -4.3163 6.9863 
cheal 6.6165 4.5176 -3.3942 -7.0756 -0.95384 -3.297 4.7877 3.3768 3.3078 3.8374 
ky 13.878 -2.6084 4.4887 3.2814 -12.983 12.349 -6.9207 11.14 -8.7601 -6.3491 
oldy 4.8722 -9.7168 3.6026 1.8783 3.5875 -4.0691 -4.1547 -1.8282 -5.4174 4.2533 
chl 6.7789 3.3253 -8.4035 -7.3662 -6.0211 -5.7939 -4.4048 8.4224 -4.5879 0.84657 
otchol -2.1712 9.3435 13.287 1.7567 -3.4882 1.5849 -12.718 3.4625 -3.8521 1.4134 
yteedy -3.2664 -4.0893 -2.0383 -2.2227 2.1525 2.2507 0.91377 -5.3468 -2.2978 2.2826 
dchedy -2.7791 -7.7124 -6.5137 3.0025 2.9645 -3.2071 1.0371 1.2643 -5.2265 6.5848 
sair 6.4201 -0.40056 -3.7029 4.3468 3.6285 -2.2601 -4.4864 -6.0114 0.15866 5.8751 
dchy 2.4044 12.005 7.2121 13.002 -3.5477 6.202 -12.097 11.663 0.073641 1.6499 
tchy 2.0946 9.2292 7.1675 6.3845 -8.9599 0.12434 -8.7844 9.9249 -3.8796 -2.7007 
qokeeey 0.29426 -3.0352 -1.8098 -11.523 0.56352 4.6566 9.6951 -1.4135 2.383 -0.91038 
qokchey -2.3441 1.6025 0.30711 -4.5602 -3.5121 -2.4341 2.8252 3.0584 -1.751 -0.57593 
ckhey 11.137 0.70139 14.582 -4.5824 0.57941 7.1354 -0.46035 -0.298 4.4568 -2.7796 
aiir -5.0354 4.6979 -4.7983 7.0955 4.0571 4.1904 -3.6832 -10.289 4.1623 -1.0908 
kal 3.3048 -4.3225 -11.32 7.941 3.2086 -2.3637 -3.2735 -4.5018 -2.3391 4.9559 
daiir 2.1755 3.6693 5.0727 4.2385 -2.3257 9.445 -4.6669 -9.8189 -1.8181 3.1181 
dchor 1.9007 11.17 8.145 4.9788 -4.8137 2.2862 -9.1375 9.4726 -0.34745 -0.2694 
kor 6.3399 4.8021 10.385 0.7769 -0.53467 -5.9192 -6.1729 -0.47601 1.5248 -1.5113 
lkedy -3.3969 -8.8498 -8.009 -4.1654 6.9412 -4.4978 10.574 -3.3922 0.2982 7.5898 
she 2.6882 4.5102 4.8006 -9.283 0.046788 -13.783 -14.704 -0.83409 -6.4266 4.8546 
olkedy 2.8877 -12.887 -8.0105 3.7083 1.3179 -5.1848 1.2062 -0.30213 -6.3638 1.3012 
chedal -4.7016 1.4199 -8.4056 -0.71446 1.3075 0.22102 2.8648 -6.0933 -1.3585 7.773 
qotor -10.122 6.3115 7.5369 3.1788 -5.479 -2.5253 -7.1888 3.7039 -6.3713 -0.48152 
okeeey 2.2291 2.4709 2.1905 -13.56 2.4974 2.1943 3.5945 -3.1254 2.6955 4.9679 
oaiin 1.0358 4.7621 5.978 -1.8253 -0.30274 5.968 1.8003 -1.776 4.6821 -2.6057 
aly 8.6036 1.4386 1.4229 -5.8574 4.2865 -13.712 -4.0077 -13.908 3.9755 -1.69 
otair -3.9779 5.7809 -4.3068 0.16506 3.0903 -2.607 -4.0391 -11.867 1.8323 2.6353 
qokam 0.10481 -11.185 1.0416 -5.0218 -2.9819 -3.2342 -1.0358 -2.5351 -8.7225 -4.6491 
okchdy -3.5948 -7.1647 -0.48186 9.5867 0.011196 0.66627 -4.6462 -9.1838 -6.6292 -0.61566 
cheeky 2.0155 -4.8018 1.6309 -0.66279 1.8245 -5.5686 6.1362 1.9993 0.58133 1.7314 
olchey 5.1472 -9.4412 -3.0353 -2.6108 1.0687 -1.6569 3.5705 4.9322 -3.3695 2.2485 
dchol -3.0983 6.8706 10.557 1.5162 -2.2921 1.1372 -11.555 2.4042 -4.0726 1.3604 
ldy -3.5774 -13.951 -2.2314 -9.7926 2.6172 0.76868 3.3358 7.0786 -3.9333 -7.1542 
ary 4.186 -4.0357 2.7733 9.5136 7.1275 -8.4543 7.3237 -3.4277 10.341 -7.0705 
oteos 11.519 12.203 0.24051 -1.9939 1.9926 7.847 -2.2829 -16.468 9.725 2.8269 
shear -1.953 -0.68995 2.5134 -5.7095 0.26502 -8.0359 6.6191 5.3251 2.526 -3.7022 
kchol 2.8265 9.0148 12.236 4.659 -3.5587 4.7449 -9.0788 8.6834 -0.66565 0.95196 
ytar -0.75856 2.0738 2.8952 8.6366 -2.8243 -10.939 -1.4838 -12.699 2.2566 -11.951 
tal 1.2039 -8.9366 0.74392 7.0003 0.59054 -10.791 1.5497 3.3007 0.86314 -13.663 
qotchedy -10.267 -3.3448 -0.71881 -2.5984 -3.3381 1.6571 6.0496 -3.528 -7.6938 6.4725 
ytedy 2.2118 -16.382 4.9487 14.836 8.679 0.90869 -2.8197 -5.5105 -3.4891 2.3016 
okchedy -1.9782 -2.8848 -10.392 -0.02771 1.4909 0.006348 -1.346 -4.8858 -3.5108 4.1128 
chockhy -4.136 5.7913 3.6971 -0.68655 9.6675 2.0535 -3.0762 3.648 8.5534 1.4863 
otaly 9.909 2.2607 -4.744 6.5169 7.1158 -11.358 -2.3184 -13.696 6.8457 3.5056 
chdar -5.9925 -1.9939 -5.759 5.2198 2.0455 -6.1832 -2.1308 -10.855 -1.1785 -2.9538 
dary 3.8264 -2.8269 0.12658 -0.97864 1.1464 -8.4611 -8.1879 -3.1328 -2.2262 -4.9126 
otody -5.1392 3.1176 -8.8649 14.056 3.6532 1.9964 -7.6341 -13.131 0.67401 0.70807 
qotchdy -5.4788 -2.2048 -1.6374 3.8602 -2.4885 2.2103 -4.2668 -5.1513 -6.3936 -0.36903 
olky 7.5982 -7.2936 -6.2662 -2.3291 -4.482 -15.6 -6.6465 -0.93156 -9.8677 -1.6501 
qotey -3.1658 -5.4364 -3.4485 -6.3819 4.5397 1.2992 3.2536 1.1614 -0.92033 3.638 
yty -0.9789 3.3198 -1.7151 0.025543 5.0718 5.4508 -19.88 5.476 0.046536 -6.7518 
okaly 12.046 -8.4891 -9.5475 3.8724 11.447 1.3183 -6.2722 -8.7527 4.6047 0.11635 
shodaiin -3.8061 4.8908 1.152 -0.27786 -0.0057616 4.8619 -4.8541 3.7002 0.54835 -1.4823 
ykchy 2.0658 1.7032 9.0011 9.2681 0.26622 1.595 -15.82 4.4945 -4.4796 -0.083405 
kchedy -10.631 -6.0235 -4.4979 -0.50036 -1.8191 2.4018 3.7575 -1.9365 -5.3742 -2.9209 
qoaiin -1.9107 0.82657 3.625 -2.3687 5.4084 -0.52991 -0.048586 0.21566 4.1165 0.11173 
tchor -0.25734 10.923 13.776 -5.4244 -9.1073 0.86718 -4.082 7.1939 -3.0877 -0.6049 
kchey -2.345 4.6686 5.0566 -2.0614 -2.5413 1.1648 -2.6356 2.0372 -0.30314 -2.5957 
chety 0.047286 -1.4303 0.12113 -4.7522 2.25 4.1538 -4.1149 -1.0411 -2.2757 3.1898 
ols -2.3947 -0.65156 5.248 10.133 3.899 -10.917 8.2133 -3.4637 4.9572 1.9283 
tor 2.0083 -0.71105 11.153 7.4201 4.4268 -7.46 -11.202 -8.252 0.24812 -3.7924 
odar -7.4431 6.9856 1.2085 8.2583 -1.0015 -3.5471 7.8084 -11.89 8.9122 -10.52 
qor -2.3636 2.1119 -3.1819 -1.0348 0.26664 -17.223 -2.7056 8.6051 -1.2631 -0.71243 
rain -1.1619 -2.2009 -11.891 -14.945 -3.6008 -5.579 2.4753 -0.69619 -3.2869 -5.4631 
olshedy 2.1372 -13.235 0.21458 0.59443 -0.4688 -6.804 8.0177 2.6636 -5.8774 2.137 
sh 7.4053 10.441 -0.11256 -3.7101 -3.6361 20.286 -10.043 -5.3066 0.08435 3.2682 
tchey -1.2931 8.0393 3.4588 2.2877 -6.6802 2.6371 3.9325 0.92963 1.0747 -0.70367 
om -3.7078 8.5164 1.2835 -3.1217 -2.567 5.0759 -2.8259 -16.495 -2.2072 7.2381 
qokeor -0.43503 -0.91132 10.921 -12.212 2.5698 -1.533 5.6595 6.2875 1.4542 3.6472 
ycheey -0.25137 2.7588 -2.4539 -1.3131 1.1559 0.6968 4.7434 2.2117 5.0158 -1.6543 
qokair 2.534 -2.9487 -10.317 6.6319 8.1914 -3.0008 -4.8883 -0.7125 3.2853 0.80214 
daldy 9.5967 -1.8424 3.7525 2.8585 -3.9468 -2.45 -4.0163 -6.0893 -4.7944 2.4369 
teey -2.0845 1.7373 -0.013739 -8.8587 -1.0986 7.2543 16.63 3.7941 9.9201 -9.5018 
daiiin -0.12688 4.6891 5.7917 -3.6212 -3.5317 -0.84977 -0.78083 -0.39994 -1.8794 2.4492 
ckhol 3.8733 -3.6068 22.187 -3.784 6.1927 6.958 -3.4618 8.1056 2.9288 -1.2901 
keody -0.39277 0.42459 5.1039 -0.08075 7.5092 5.8745 -3.7207 -7.0394 3.2374 4.3322 
okair 0.34239 0.05054 -7.6576 6.6092 0.38323 -3.5864 -2.5777 -10.663 2.0765 -7.5108 
keol 9.555 3.806 0.10165 1.3997 4.9862 6.9191 0.75054 12.397 6.6444 7.6352 
okeor 7.4665 1.7444 4.9774 -0.82081 11.897 5.5485 0.34831 2.4926 14.485 -3.7961 
qokeeo 0.75839 -2.1655 2.9636 -16.724 4.9792 1.4701 11.939 -4.0309 4.885 4.9053 
dl 9.0032 1.0788 -21.2 -7.8458 -15.262 11.184 -16.793 -2.0529 -14.566 -7.5803 
ykedy 1.7493 -14.447 -3.3351 4.4086 5.7902 0.51827 -10.055 -4.4041 -9.2884 3.7502 
olkar -1.7296 -4.2774 -8.9743 7.1666 -0.55969 -8.1041 3.1863 1.4324 0.58753 -7.8361 
shecthy 5.376 -9.2364 -7.1073 -5.5472 0.82542 1.1433 -2.1183 4.483 -6.3284 3.3082 
okeeo 6.3205 4.1889 -1.0019 -17.104 5.3344 0.3608 6.4627 -3.8879 8.3502 3.9256 
kchdy -7.6084 -6.2248 3.2707 18.9 3.6382 -8.7669 1.5631 0.52686 -0.89001 -1.3488 
lo 11.413 -12.838 -25.497 -4.1242 -28.727 12.572 18.18 -3.5815 -14.023 -19.26 
cheeo -8.2256 4.3352 -4.7698 -12.791 -3.3165 2.8327 7.5589 -5.6278 -2.5524 6.381 
kchor 0.42098 5.6105 21.231 -2.2312 -5.7522 -1.0526 -7.4604 10.118 -4.9541 0.12209 
ctho 5.0205 6.1997 14.525 -0.93434 -4.3784 9.5999 -16.406 8.2637 -2.9329 -6.774 
shaiin 1.3411 2.4826 5.6102 -1.0729 -3.9306 -2.6922 -2.4156 10.132 -1.3989 -3.7739 
okeo 13.819 5.5243 5.3027 0.070277 13.663 2.6342 -5.6244 -11.663 12.931 6.9832 
opchdy -14.353 -1.4207 -13.749 2.2749 -2.1994 0.47213 -0.32912 -2.4353 -3.6942 -8.0988 
lky 0.03463 -3.4463 -14.917 -16.839 -7.4245 -11.075 15.835 -1.7442 -5.3122 3.6729 
chocthy -2.645 10.104 4.4795 1.0734 -8.4979 2.0326 -6.2599 1.8394 -2.7199 -4.429 
qoeedy -3.7818 -4.8658 -14.193 7.1283 3.0219 -2.6657 8.8958 2.1895 -0.096175 6.5829 
pol 1.2684 -0.92975 -2.7083 -4.4798 0.2356 -10.111 7.0419 3.2112 1.892 -0.10452 
soiin 3.1821 -2.4463 -1.9563 -14.268 -1.4474 -2.0981 -8.1958 -0.094827 -5.732 -2.8966 
chain 0.4845 7.408 1.3428 -3.1941 -10.332 -8.526 -0.92054 0.1275 0.98451 -16.855 
chdal -6.389 -5.0247 -0.55265 5.9918 2.2913 -3.4264 -3.9475 -8.9073 -1.6206 -7.6997 
sheal 8.2697 6.7474 -9.9024 -2.8276 2.2463 -8.9729 3.7592 4.8453 3.8767 12.657 
ched 5.7567 -2.4413 -18.139 -5.676 -5.1524 12.464 1.4134 -2.6237 -6.7029 7.4418 
chedain -5.5953 1.8607 -6.6904 -3.6314 0.072182 -0.45973 12.155 -4.5067 1.8157 6.6923 
okees 6.3158 0.98044 -4.2553 -0.87117 3.3698 -2.8233 -1.9171 -15.807 2.281 3.3759 
ty -1.915 3.5016 -2.4541 4.9129 -8.8051 -3.2397 -26.372 7.1768 -8.8134 -22.349 
odal 2.0827 0.59816 4.8596 3.7218 4.5796 -4.9134 -7.6389 -8.4938 1.8981 -1.8954 
rol -14.448 -4.5726 -6.2447 18.858 -4.6843 -4.3944 14.494 16.122 -3.5976 0.8043 
aral -13.721 6.0778 -3.0993 -2.7168 4.2162 -4.4911 -0.47597 -4.1147 7.5817 -12.729 
shed 6.3501 -7.2868 -13.952 1.3598 -0.6544 -3.769 -0.36868 -2.9812 -5.6902 4.414 
dan 2.9739 16.994 5.3499 -0.29889 -6.0466 -1.9301 -10.888 5.4094 5.6191 -12.587 
qody -10.637 -1.8033 13.899 7.9156 -2.7998 4.2373 12.923 -7.9442 1.4572 -3.7801 
qokeed -1.0639 -9.3809 -2.9023 -7.5694 2.5959 -5.1991 10.084 -1.4862 -3.7146 8.1107 
tchol 1.6603 11.155 9.9733 4.6864 -6.3143 8.8638 -12.791 1.978 -1.9072 -3.0199 
chkaiin -2.0626 3.0203 4.187 0.306 0.41642 -4.6354 0.19119 0.54663 2.4578 -2.9544 
lchdy -1.9094 -4.5849 -2.4495 1.8722 8.2844 -8.2182 11.587 4.9253 4.8523 8.4813 
chky 2.4969 -0.73552 -0.18781 2.318 -2.1996 -7.2067 -9.1929 4.7181 -2.1523 -10.237 
qotchey -4.3189 6.9475 5.573 -6.3532 -9.0743 1.177 -2.811 -3.623 -6.8365 1.4146 
ytal -3.5888 -3.4719 -0.83737 12.796 4.5246 -6.7963 -10.42 -1.1666 5.4907 -23.805 
okody 1.5063 4.59 -1.4524 12.052 9.3461 2.5474 -6.7432 -12.444 6.7596 4.9764 
olol 6.7476 -7.5648 5.3906 6.424 7.4885 -7.3802 8.0283 12.91 7.197 -1.2035 
chs -2.4586 5.0452 12.752 1.4033 -5.2497 2.6911 11.702 0.012829 3.7573 -1.5066 
ydaiin 1.1906 0.1259 2.8087 5.1907 6.1624 7.9182 -6.2384 6.116 4.0798 -1.6132 
okeeody 2.2193 3.8322 0.44089 -6.1581 2.0642 10.711 -1.5985 -9.6351 2.2607 3.8633 
qockhy -3.8366 -1.6226 7.5587 5.855 10.845 4.6434 -0.52794 1.2452 7.314 0.13743 
okchor 0.34359 2.1383 8.7907 6.8643 -1.2668 5.5255 -7.4812 2.0443 -0.070102 -5.8479 
qockhey -1.2117 -2.509 10.804 -6.7964 1.4827 3.2401 6.5275 -2.2576 0.21815 3.9848 
chdaiin -9.5397 -2.8977 -0.78029 8.2896 -2.9831 5.6754 0.45197 -10.215 -6.8889 2.4387 
chokchy 4.3753 12.217 7.7978 -2.3261 -5.948 7.4306 -6.2368 6.87 0.92835 -0.1392 
otchor 1.5663 7.8248 14.606 -2.2219 -6.4187 3.1741 -10.148 3.8227 -5.4558 1.7926 
odain -7.8736 4.21 2.3342 3.3829 4.3739 -3.8422 5.2748 0.83642 4.1488 5.7459 
rar 17.866 3.1281 -6.5571 -4.9895 -9.5372 -9.4417 6.0478 -9.6842 -2.4432 5.7938 
choly 7.9963 1.5206 11.04 -2.5702 1.2259 -0.06473 -1.5917 -4.1335 6.0273 -8.3216 
qokaly 4.2222 -17.48 0.39832 -10.473 9.5301 -7.3701 -6.2976 -2.6881 -4.1059 -4.4537 
dchey 0.41939 -0.75088 3.5169 0.53743 2.0064 3.6599 -4.0911 13.755 -2.7121 6.3227 
cham 8.1697 0.73141 -3.9282 -4.2911 -3.5077 -8.4328 -12.031 -0.77861 -2.4333 -11.184 
ral -0.83812 7.4456 -1.5622 -8.2946 -18.067 -17.71 2.4987 -8.5653 -11.536 -0.48419 
lshey 12.613 -8.5162 -0.57235 -8.7231 -3.2459 -11.345 16.667 9.1541 -0.84507 4.6076 
yky 5.7733 2.8358 4.833 17.938 1.5577 -16.607 -11.514 2.3185 4.9453 -14.103 
do -26.327 7.7832 37.478 2.6727 -11.32 9.0908 2.526 6.0582 -7.7621 -5.5576 
opaiin -4.3883 1.6379 -3.7983 0.032517 0.55124 11.983 1.003 -12.632 2.3122 -3.4147 
qokeeody 1.4237 0.17081 1.6225 -10.676 3.3842 5.2491 1.5633 -8.8467 0.67151 6.5842 
olar 1.1362 9.9837 -5.3819 12.563 -3.0373 -8.0163 2.9253 -7.7415 1.0656 10.87 
cthody -3.781 9.7338 15.811 4.5004 1.7408 11.14 -2.3543 -0.46302 7.052 -2.5453 
ror -4.0793 1.8164 1.4437 -12.83 1.4165 -11.69 11.618 7.8781 7.1444 -7.0153 
ytchy 4.1683 7.6671 7.7557 5.8894 -10.545 7.7395 -7.1642 2.5199 -2.7291 -7.5698 
cheeor 4.925 2.3826 3.2715 -7.1999 -0.17519 7.7964 1.2888 -5.3605 2.6163 0.40601 
chokaiin 3.5405 7.2845 -4.2054 -0.19276 -2.376 6.3349 -0.73664 7.6062 2.3342 2.1532 
teol -1.5654 -5.6293 18.222 -5.9502 6.2612 -17.388 10.626 -0.85648 6.2047 -4.5714 
ory 1.5801 -2.6188 -6.8436 1.9054 -1.6689 -2.1013 -1.4571 0.67205 3.2271 -17.548 
k 24.942 24.649 -13.623 -19.565 -46.892 5.8711 -3.8396 0.16389 -12.128 -24.972 
key 11.167 -2.3283 -10.805 -4.8727 6.9671 9.8953 -13.404 1.2812 4.361 -7.8225 
ykeody 2.1643 3.9346 6.7685 2.8531 4.2702 11.176 -5.1349 -13.505 3.42 3.5944 
oteo 7.736 8.3911 -12.377 -5.4297 12.753 7.7396 -4.5815 -16.026 14.005 2.9315 
shal -1.6162 4.8924 -15.734 0.94532 5.4908 -4.0532 -1.3848 12.431 4.1852 5.0521 
ychey 2.9864 3.5434 4.2352 -0.37534 0.36047 -0.49535 -1.64 1.3019 0.85308 3.7983 
qopchdy -3.551 -4.3143 -4.366 6.955 -3.6563 0.7331 6.2129 -4.2677 -6.017 6.1281 
orain 4.6792 -3.4931 2.6653 3.0297 -7.3807 0.0251 14.467 -3.8969 -0.35369 -1.427 
ychor 9.8307 2.5157 8.4193 -2.3581 -0.041038 4.2503 -17.717 2.3138 -3.6301 -0.49671 
teedy -5.1367 -15.091 6.4025 -6.4778 0.074565 2.0322 9.9399 -8.5014 -5.7856 -2.611 
ot -18.533 -5.2396 3.999 -13.356 -0.43027 -0.24997 8.5781 -25.33 -0.60334 -14.123 
oteeos 5.9959 13.858 -7.8552 1.2023 7.5803 5.7045 5.0835 -11.131 18.477 -0.43853 
cthar 9.5206 8.8014 3.2284 -4.6606 -12.713 -7.2599 -6.0476 8.3798 -5.5582 -2.3308 
qoeey -1.7507 4.2781 1.4162 -3.2954 5.6976 0.49438 6.0296 -1.7003 10.152 -2.8606 
okeeol 5.3461 -1.2838 4.7797 -12.661 5.873 11.091 -2.4832 -8.9404 2.0674 4.4643 
ykeol 6.7391 -8.1591 12.573 -0.74895 8.71 0.011833 -0.60352 -3.4219 6.0586 -6.772 
qokchol 6.163 -1.7236 17.964 12.037 2.6701 5.3023 -2.3956 8.5815 4.6588 -5.284 
lkchedy -6.9684 -2.4268 -8.0769 -0.25844 -7.0467 6.0906 8.8465 -3.2852 -5.4939 0.24464 
ctheey 3.0224 9.7752 8.8448 -15.973 1.4895 4.4533 -5.9058 -1.1375 0.99607 8.5394 
sheeky 7.0398 -8.4204 -3.6198 3.1512 -1.6313 -12.384 12.773 -2.0117 -1.0207 2.6239 
ykol 11.723 0.13287 8.5089 10.829 -2.6784 7.3166 -20.607 3.7859 -12.681 14.441 
okchol 4.2906 4.6338 8.6857 3.8135 6.9627 8.2083 -12.927 2.1389 3.4743 3.0222 
oiiin 7.3038 -4.3111 0.051417 -10.735 1.2324 5.7576 -6.8736 -1.4302 -1.8038 -4.1452 
opchy -6.4295 3.3141 -6.3918 5.9211 0.11468 -4.4727 -8.7579 3.881 -2.5385 -2.0929 
shes 15.01 10.455 -11.73 1.6813 0.60833 2.5013 -1.4642 2.2282 6.4385 9.0769 
tey -7.8857 11.829 -6.8073 15.445 11.83 7.782 21.286 9.8221 26.907 -3.6978 
t 32.047 20.491 -2.2035 11.735 -25.006 11.477 -1.735 41.855 1.7213 -5.3664 
shedaiin -8.8514 1.5466 -7.7605 5.7131 2.7636 3.2192 0.38854 -4.3371 -0.62656 5.4198 
ytor -5.794 3.92 19.952 9.8963 -3.1243 0.59636 -4.5369 -4.3635 2.2584 -14.327 
laiin -10.349 -1.4609 -8.0514 -0.95781 13.829 -5.6093 -0.21818 1.32 6.3677 2.3953 
qok 16.755 -11.588 -10.189 8.154 1.041 12.706 -1.5753 11.99 -5.5776 10.473 
yteody -3.65 2.5616 11.941 -2.1313 6.0773 3.171 -1.6583 -15.147 7.1877 -6.6751 
dshor -1.5729 2.5806 10.754 7.7072 0.19922 -10.445 -9.3511 3.6586 -2.5416 -1.0833 
tchdy -5.4176 -4.5326 7.0353 18.477 -8.18 3.0176 12.179 -1.8321 -3.3372 -2.909 
aldy 12.989 8.1966 -2.5028 0.74017 4.7186 -11.141 -10.414 1.0533 2.8196 10.459 
qopchy -5.8967 -0.49411 4.4921 4.4592 -9.7001 3.4413 -6.21 -1.6917 -12.584 0.66754 
ytey 3.4211 -5.4991 8.0576 4.6238 1.3115 8.5121 -5.0984 -7.6796 2.8178 -15.271 
chokeey 10.084 -0.19394 1.5905 -10.778 0.62278 10.729 -7.3113 2.6608 -1.3896 2.1877 
olkey -7.6246 -5.8665 6.7724 5.7301 7.3871 -10.844 7.6787 4.1682 6.6868 -8.0195 
qokechy -2.6443 1.2845 0.96949 -4.5231 -2.8987 6.0186 9.4342 -0.5696 1.2093 0.93939 
choiin 3.2885 2.7549 6.182 -6.8233 -8.1335 8.6538 -9.6555 10.679 -6.4213 -5.9337 
shee -4.7568 -3.7456 -8.7516 -8.6473 10.719 -2.4472 2.4613 -0.4183 11.648 -16.385 
cphol 4.5508 -6.0469 8.4524 1.8075 7.4915 12.481 -6.3964 8.9406 3.6281 -5.2298 
lcheey 5.5191 -2.8027 -7.0255 -16.541 -10.963 0.60802 4.1044 -2.6275 -6.5798 -6.8998 
keeol 1.35 2.315 0.3206 -4.19 10.773 2.3126 0.071039 7.175 5.915 11.928 
qotchol -0.16858 5.9662 11.233 4.1057 -1.651 4.1463 -10.369 9.9043 -0.65148 -3.3805 
cthedy -3.2887 -7.1554 -7.4865 2.8948 9.9246 13.653 11.493 10.494 6.0988 6.9965 
ytain -7.7825 -1.9556 2.5727 11.455 -3.8869 -5.0475 9.3269 1.2764 0.56507 -6.9334 
qot -13.362 8.2025 1.7419 9.4286 -3.4301 1.9915 -6.7768 30.075 -5.7248 5.5937 
shky 9.748 -4.6314 -10.577 7.4429 9.626 1.9919 -14.088 9.3298 -0.35098 6.2373 
oteeody 9.5826 -1.2031 -9.1812 -0.26564 3.5273 13.351 -4.3055 -9.9178 -0.37589 8.9798 
chotchy -8.4144 6.9806 10.389 1.1974 -9.8199 19.73 -3.5627 12.803 -3.1819 -9.4113 
otedar 3.4813 5.3896 -11.405 6.4312 4.7249 0.56802 8.3525 -16.656 7.0547 12.064 
olshey 1.216 -8.4345 0.036425 1.8845 -1.2444 -9.8555 13.414 8.4408 0.19789 -2.4545 
chkeey 1.0657 5.262 4.2084 1.4637 -1.0776 2.0006 4.015 6.5841 0.48798 10.3 
oar -7.7483 9.2112 -6.4608 -7.6259 17.2 -10.625 -2.5712 -10.438 22.683 -19.791 
cheeody -3.7074 1.6422 -1.6795 -11.95 1.2357 11.401 4.8674 -0.66876 5.6684 -7.9104 
chodar -4.2939 5.7655 1.6092 2.9521 -8.5912 12.692 -5.3361 -7.9286 -5.6016 -2.2257 
chom 5.7026 5.7615 19.185 -10.604 -5.7003 11.583 -12.595 -0.6158 -1.6247 -10.641 
ls 3.5554 8.9661 -12.632 16.82 1.7392 -14.42 -4.8444 6.4957 -9.5863 40.425 
sheeol -1.0541 -5.5451 3.2051 -15.264 2.9246 3.0055 -0.10709 -4.828 -2.7658 0.87004 
ytol -17.566 0.78066 15.916 12.048 9.7983 -0.3316 2.1212 12.42 7.4296 -4.1935 
cthaiin 9.8642 10.299 6.3941 -0.40651 -7.184 -3.7046 -5.5023 6.8423 5.4091 -14.678 
ram -15.566 0.64216 -8.6828 -14.271 8.9495 -12.617 -14.836 8.2184 -8.0622 9.3348 
qodar -11.523 -3.7103 -2.0125 6.5572 10.17 9.4278 0.71375 5.9157 9.5491 -13.5 
dcheey -2.3586 8.2695 -3.7231 -3.2203 6.4831 5.3656 2.2905 12.915 7.4676 8.5997 
m -2.4238 -29.546 -9.0795 -11.217 16.198 33.017 -22.828 4.1745 -9.4504 -11.984 
chckhdy -6.1542 -4.6474 1.2199 4.8531 -1.9045 -2.4479 4.1841 -4.8189 -6.2349 5.1869 
ykeeody 5.9956 -7.8151 9.4765 -0.92207 9.4422 14.742 -0.1479 -10.117 3.3526 4.3658 
qotam -9.4827 5.8399 -7.9141 -12.934 4.9919 1.5996 -9.8389 -3.2923 -5.6033 14.343 
okeal 2.2582 -6.2807 -4.568 -6.6962 7.6265 -0.35917 9.5948 -1.874 8.6855 -5.8627 
oteor 2.767 1.8588 -1.9492 6.2688 7.6472 -0.36877 6.8011 1.2815 11.698 -0.89262 
yshey -0.81172 -2.1386 -11.404 -7.8551 4.603 1.2046 -2.6322 6.9273 2.6089 -5.7432 
tair -1.4692 6.3294 -10.11 1.609 -2.4701 -5.0391 -1.3752 -16.493 -0.16856 0.76853 
chty 2.0374 -0.83059 4.278 2.7686 -4.4501 6.7529 -5.1306 2.8613 -4.8457 -1.81 
olkal 6.6662 -5.6765 -5.7449 11.883 -2.5435 -3.8115 12.575 -5.577 1.8163 -0.041485 
cheodaiin 0.30468 4.0702 2.7069 -5.112 3.2135 7.6779 -6.8439 -0.62478 -0.14911 5.9762 
okeeor 5.0813 4.7214 4.7386 -15.553 4.368 3.2285 2.0011 0.89839 4.9981 6.573 
oral -2.151 10.498 15.604 -4.5728 -0.30079 -31.883 3.1945 -16.731 0.69927 10.001 
sheos -6.8986 5.489 8.7574 -6.5608 -1.5025 -3.2146 -0.47519 -12.615 0.32013 -3.0499 
shedain 0.16313 -7.2839 -5.5337 -4.8828 -5.5949 7.2259 2.8833 -8.7414 -6.8353 -3.4201 
ypchedy -4.9509 -6.7519 3.4876 3.9384 2.0588 -2.45 -5.9922 -16.126 -10.704 10.957 
daim -13.285 6.3512 12.707 -3.6258 7.6669 3.9523 -1.4109 -7.1352 1.5062 11.771 
orol 4.4887 3.2272 -9.4079 18.217 6.4656 -3.6861 2.6756 7.6812 7.2069 8.6137 
shdar -15.988 -3.6782 -6.579 4.3209 12.344 -6.928 -7.6002 1.3264 3.8693 -9.2958 
chkain 3.08 0.86601 -6.8177 -8.105 -6.5697 -12.351 0.59051 -0.49744 -1.7617 -9.9367 
shocthy 3.8761 5.4475 -1.0953 -6.433 -0.80973 4.9791 -14.368 1.6443 -0.69108 -6.1217 
cphy 3.0835 8.2088 8.8975 22.333 3.7882 2.9954 1.7071 17.476 9.5278 4.6156 
opar -2.1329 -2.9431 -6.9236 -0.31566 3.09 1.9683 -7.5194 -20.287 -1.0249 -6.236 
chkal -2.6488 6.1666 -12.938 -13.796 2.88 -4.6885 -8.4432 2.4513 1.4369 -3.1827 
g -10.877 20.702 -18.013 24.667 29.656 -3.0123 -56.554 29.079 -6.225 45.655 
ykain 5.7812 -5.6158 -3.653 3.8747 -3.5746 -12.957 -4.8325 -6.0913 -4.051 -9.9987 
otees 4.7366 4.7362 -0.25386 7.545 5.0127 4.56 3.7557 -17.299 6.712 9.1324 
shedal -1.9253 -11.789 -10.232 -5.9802 7.4337 -4.4894 -5.3542 4.8721 -8.6541 10.172 
keeody -1.1378 0.48095 9.9832 -3.7592 -1.9782 11.129 6.9117 -11.636 2.4098 -2.6319 
oees -2.798 5.7331 6.2819 6.6504 4.1234 -2.8646 -7.5306 -11.656 8.9591 -15.834 
pchor -9.2525 6.658 1.5083 0.63465 -13.529 0.40655 -2.0763 2.0932 -7.5231 -8.4662 
ytam -12.655 -1.4009 -8.4324 17.331 15.18 -9.3894 -15.561 0.88883 5.9231 -9.8662 
qotchor 5.7335 3.1907 14.134 1.4035 -6.9464 3.3746 -12.567 11.909 -6.7781 -2.6696 
chekal -2.0895 -5.3117 3.5904 -6.0338 8.4914 -9.0145 1.4572 -6.6642 2.9504 -0.48626 
chan 4.8689 14.266 4.9057 -6.185 -13.75 -5.4406 0.57698 9.1697 3.5058 -15.642 
ockhy 6.0913 5.5965 -1.7179 6.9864 5.2034 7.0366 -0.69321 -0.70398 10.715 -2.9103 
arody -14.57 3.0493 -9.4893 -3.1354 4.1616 4.987 0.54439 2.8454 4.6995 -8.2324 
a 23.276 34.84 -17.932 16.32 -4.0731 5.7762 6.5403 -12.835 22.46 12.366 
sam -7.1104 12.925 -16.328 2.9542 4.7279 12.451 -9.0043 10.744 -0.795 19.839 
olain -3.8767 -5.3635 -18.684 1.4649 3.6974 -3.4007 7.065 18.701 1.7584 -0.73719 
aram 0.24242 -3.6691 2.2243 8.6419 9.899 -12.373 -6.4211 -13.272 4.6481 -4.6896 
ly 54.394 -22.291 -23.76 5.2458 -20.959 -0.81872 -12.233 17.829 -27.739 12.779 
kair 0.1606 10.136 -13.382 17.376 -2.3912 -11.149 9.9081 0.63256 9.2672 -1.6315 
okary -4.7404 7.9969 -7.6688 5.1465 11.478 -18.745 -6.643 -2.2451 10.894 -4.2389 
qoteol -6.7148 4.5109 5.8069 -7.3211 7.5806 -10.847 0.80662 -2.7076 0.34456 15.72 
doiin -0.41652 4.3567 11.351 3.7656 -0.21803 4.4121 -2.5302 7.8983 3.0458 -3.7775 
ykal 19.237 -2.1254 5.845 12.767 -7.8905 -12.217 -2.2676 -25.779 -1.8513 -6.2171 
chokain 2.9899 1.1982 -3.4311 -2.6815 -3.3103 -0.74564 -0.059943 5.7537 1.7244 -9.0662 
qoteody -12.475 5.611 -0.088671 0.34519 1.2331 7.9521 6.3524 -5.5687 1.6067 6.6991 
checkhey 6.2826 -6.3857 -0.4245 -5.5553 0.93475 8.1548 4.2413 0.34023 -2.1355 5.9504 
chory 1.756 8.1707 6.3773 -13.178 2.7316 -7.0676 -19.416 26.95 -0.52953 -4.6047 
pchedar -8.2958 -7.8887 -11.908 8.6988 3.2014 7.7237 5.9226 0.53936 3.7793 -12.529 
alam 23.312 -2.9303 -3.3907 -25.317 2.086 -7.6153 -3.9524 -1.8032 5.8686 -11.419 
olkam -6.0602 -3.7725 3.1484 4.0668 -8.815 -5.4454 13.665 -4.1722 -0.51594 -13.382 
qolchey 6.2176 -12.023 -4.456 -4.2219 -6.9212 -7.5465 6.2474 3.962 -10.884 2.5224 
chotar -7.5691 8.5707 -1.8855 -5.9031 10.911 -7.6414 -10.188 -2.1887 5.7359 3.0052 
chkar -0.21363 -1.8698 -21.077 -1.2917 6.3981 4.9809 -16.901 12.395 -1.5074 -4.6745 
ytchey -5.6146 10.659 -1.97 2.7566 -2.0739 5.4497 -4.1621 0.032447 2.0727 -0.75517 
shckhey 11.687 -3.8088 -10.032 -12.727 -2.7624 3.6629 -7.131 -2.0627 -6.2268 1.1769 
qokshedy 0.88988 -10.238 10.563 4.9365 -11.435 -9.5736 17.091 3.4989 -11.332 7.2211 
tain 12.988 4.5361 -9.2799 -0.92543 -13.59 -17.147 8.3802 6.6556 -3.7219 1.6096 
olkeeey 7.6686 -0.58154 -6.3327 -9.0718 -6.7744 2.0341 5.4232 -3.0594 -1.3032 -3.3436 
ycheo 2.7343 9.1463 -1.2152 0.28969 -1.8647 5.5295 5.3406 -2.9047 2.8708 10.983 
teody -0.16487 6.6439 -1.8776 -13.927 10.234 -0.42794 -2.3061 -1.6353 9.1718 2.7037 
ycheol -1.0175 0.094137 2.6888 -12.059 2.9462 -2.8759 2.8398 8.147 3.1545 -2.1929 
chckhedy 5.9288 -15.68 2.3429 -1.0053 1.6895 -1.1777 12.282 -7.391 -1.0041 -2.1633 
dshey -1.3695 -5.228 -9.4193 -6.3737 11.852 6.9482 -9.1548 18.034 0.44926 4.5809 
oain -6.0942 8.0216 9.3883 -8.1314 4.1956 -20.759 14.325 4.6386 14.012 -7.7963 
okshy 1.458 -3.549 8.5681 17.203 -10.722 5.636 -6.3556 -1.5691 -11.751 -1.2536 
qolchedy 6.4384 -12.524 -11.327 0.01514 -4.5703 -2.1453 11.039 14.599 -7.186 4.3144 
otoldy 1.3424 -7.0841 20.455 10.764 -0.77085 0.1058 2.4276 -11.834 -1.724 -3.4514 
pcheol 2.637 -12.057 6.8228 -19.797 -4.359 2.2403 -7.2735 1.5104 -13.288 -4.4202 
olcheey -3.9308 3.6969 7.9603 -5.5672 -5.1575 -13.216 11.62 -2.9657 -1.4011 5.2259 
shek -2.5217 -4.7562 -8.0366 -11.379 1.9043 -13.975 -7.1247 0.82424 -3.8987 -7.9669 
oram -10.994 8.5795 24.456 15.498 -2.6983 -7.3823 31.624 -13.525 13.884 1.0293 
ychedy -9.092 -1.0483 -1.0458 5.236 -1.4591 -9.0546 8.3712 -3.8542 -6.9751 15.613 
okeos 4.5995 4.246 4.9564 6.9071 16.415 -1.71 3.81 -15.812 16.891 5.6474 
shod -13.642 4.3289 -13.679 0.79727 3.7342 10.775 -13.446 6.767 0.0044311 -8.3604 
choldy 11.06 -0.74571 11.534 5.9798 -0.021798 10.733 -5.4175 0.25287 -1.9798 7.4055 
sheod -14.867 0.65985 14.951 4.469 4.3083 -2.5718 12.74 5.1626 4.279 3.9287 
ytchor -0.2338 2.3413 13.741 14.482 -2.6567 1.2277 -5.3664 8.6044 -0.83936 -3.8138 
ctheol 10.134 -0.53925 21.206 -16.319 1.1158 9.1541 1.1254 2.8378 1.847 2.2336 
sary 17.808 5.4853 6.2068 18.931 1.3875 3.0864 -2.3812 -1.0421 7.3481 4.9386 
x 24.774 42.73 -47.625 0.1305 -3.64 0.96161 -16.456 23.223 24.202 -9.8106 
shos -1.3387 12.189 14.357 6.6389 -15.722 -3.7396 7.9837 -21.631 3.6031 -16.82 
rchedy -6.3768 -4.5678 -5.6479 -10.317 -5.5965 5.1149 12.791 7.9505 -8.4567 10.734 
chekaiin 6.001 -0.9416 4.7661 3.4824 -2.168 -0.17853 -1.427 -14.069 1.0654 -6.9424 
pchdy -9.4463 -7.0942 -10.363 -6.1704 6.68 -6.3677 -14.758 7.2786 -7.7134 -2.3705 
qokaldy 15.362 -8.4703 -9.1299 13.011 -2.378 6.3747 -1.3781 -3.8374 -2.9398 -0.013336 
arol -3.104 -6.1798 -13.147 -11.078 10.919 -0.99101 -10.939 3.64 1.4228 -7.1101 
f 16.759 47.086 -1.8 14.996 -14.133 14.109 8.2055 2.2191 15.792 25.416 
ckheey 11.192 4.7708 3.9446 -15.046 -3.0198 15.708 -6.6106 -4.5934 0.053169 -0.54812 
oteeo -6.1152 11.238 -14.87 -8.9908 6.0158 1.6273 -3.9353 -2.9445 9.361 -4.5922 
sheeo 0.36039 8.0037 -0.52486 -18.354 -3.4068 2.9748 3.1195 -12.158 -2.0608 10.359 
ychol 7.9546 1.4743 7.4493 2.3513 11.409 9.2025 -9.8653 12.23 4.1798 11.893 
olchdy -2.8829 -15.675 -0.87444 0.7922 1.308 -8.2401 -2.8246 -10.676 -6.8725 -11.307 
olchy 8.2278 -12.477 -1.9316 2.2427 -4.1418 5.8581 -8.6369 1.312 -12.035 -0.99532 
lr 43.573 -2.0949 -3.7808 -2.1302 -52.348 7.9691 37.435 -17.842 -17.828 -0.77865 
ykeeol 6.4957 -4.2054 1.5343 -15.781 9.1121 10.037 -12.491 -4.5704 -1.9083 6.1354 
qokcho -6.1139 -2.5528 23.685 8.7012 -1.6499 13.754 9.0672 9.7419 -0.099718 2.0898 
qoor 2.0155 8.4704 27.238 5.9061 7.4892 -11.115 0.60895 -10.094 6.0152 14.886 
as -20.901 -5.7166 21.914 -6.1249 3.4063 -27.71 34.959 15.524 9.4437 -5.8804 
okaldy 2.9629 -5.6599 -2.4471 10.159 7.7315 5.87 -5.4168 -10.176 4.3124 -5.8085 
qodain -10.44 -3.6737 -5.6544 -4.2681 -2.8584 10.695 -1.6474 4.1145 -7.895 -0.20288 
otshedy 8.2363 -2.8531 -13.729 0.26465 -3.0894 -6.3683 -2.5491 -12.414 -6.9143 7.2092 
araiin -6.504 0.57011 -20.236 -7.6325 5.3688 -3.329 -10.984 -0.83882 -2.8244 0.16921 
qotody -18.151 2.0974 8.821 11.288 1.4936 4.641 11.386 -0.11397 2.1035 4.1417 
chekar 5.4553 -3.3307 -1.6632 7.0979 -7.0141 -2.3975 0.091358 -20.742 -7.4559 2.2844 
keeey 10.066 4.5709 -2.688 -27.543 -16.838 18.789 5.0003 -8.3318 -7.5545 -1.2785 
tody -3.0226 2.41 -3.2863 9.4688 -1.3554 14.667 -7.8719 -1.3272 -3.6906 2.9129 
tshedy -3.498 1.3647 -12.779 4.217 -3.6831 -6.1626 3.4125 1.1537 -7.5914 14.499 
qokeo 8.568 -9.319 7.7667 -9.8477 4.8557 16.088 6.9003 -0.81122 3.0383 1.1615 
ytchedy -9.9019 -1.4763 0.48785 3.0717 -4.8282 -0.83071 3.4148 -3.9038 -9.4533 8.8645 
okedal 6.7929 -2.907 -16.345 5.7021 16.159 -5.9089 -3.5221 -8.919 7.8283 9.5182 
ochedy -5.1646 -0.87345 -19.543 18.403 2.1602 8.3798 6.3475 -3.5378 4.1157 -0.38835 
chdam -11.567 -10.256 1.239 7.7982 6.7159 -3.3192 4.7251 -3.4514 -0.13262 -3.535 
keeo -2.5928 26.067 0.57089 12.322 -5.2823 8.2616 27.423 1.0908 16.438 18.649 
chcphy -5.1698 18.934 -2.8872 -3.6664 -3.7504 -13.164 -9.1573 1.8437 -2.7038 11.793 
oldaiin -3.6961 -7.7583 10.328 -3.9058 2.7472 3.8011 -7.9263 -3.1239 -3.6587 -9.0883 
qopchey -4.8527 4.2898 -1.8892 -1.2132 -1.8286 -1.012 4.5781 3.7826 -5.5554 18.468 
cheockhy -0.31398 -5.4089 -1.3786 -12.494 13.176 9.9412 -3.3384 10.689 8.7303 -7.9658 
cphey -5.1787 15.053 11.671 17.311 0.31901 -13.601 3.672 2.2042 3.0219 18.231 
chotaiin -9.1711 3.0503 5.7037 -4.8563 6.4555 2.7044 -6.8793 0.56822 4.4141 -7.5767 
opal 27.176 -6.2177 -2.9466 1.2882 -5.4984 -5.3376 -2.6243 -31.13 1.4458 -13.075 
oto 5.1661 5.1861 -9.8474 6.7073 14.04 -1.9511 -15.613 -20.15 16.362 -18.925 
ry -4.4872 -9.6237 3.1404 -41.439 -9.9163 -7.4593 -18.897 -4.0311 -19.904 -19.269 
octhy -6.2807 4.5089 0.33177 10.014 -2.302 6.5378 0.76052 -2.0743 -1.83 5.9228 
dals 5.219 9.9922 6.9224 33.265 -9.0746 22.496 8.3776 -17.41 6.4841 0.25282 
oteeey 4.7356 7.483 -2.2667 2.8182 -9.1449 7.3448 26.057 -7.9436 10.02 -1.1986 
oteeol -9.5671 12.701 0.51995 -10.703 7.7665 3.2679 0.78533 -3.47 7.7005 9.0176 
cheom -6.6128 -0.218 7.4501 -16.722 9.9405 2.7024 2.0464 -2.5222 9.9592 -10.416 
chod -19.835 11.319 5.9639 -26.947 14.96 -6.2059 -23.928 -0.56069 6.2569 -12.71 
qokchor -0.30453 -4.0502 16.784 3.0206 -1.5477 3.4372 -10.873 12.213 -6.1242 -5.8183 
ytody -4.2904 -7.4644 5.465 6.8603 4.3906 15.825 -13.353 -6.4311 -0.46522 -16.316 
kam -6.3485 -3.0423 18.112 -5.627 8.3976 -23.748 -3.2105 -12.157 -0.19751 1.1017 
dsheol 7.2879 -13.201 -1.3176 0.77428 9.041 2.9577 -4.4463 11.065 0.82718 -3.5146 
tchody -10.602 4.015 11.144 1.2873 -3.8347 5.7053 -1.4941 2.9221 1.0109 -12.909 
ckhor -3.4572 17.6 24.172 -1.5788 -7.9804 -11.297 7.5737 -1.5534 8.8823 -9.0684 
fchedy -1.0418 -18.838 -4.0226 -5.9472 -4.3842 6.8592 9.007 2.2357 -1.5414 -27.208 
choy -11.403 13.955 28.941 -0.56448 2.0826 -4.7103 9.1375 0.43701 10.872 -0.17953 
ch 26 22.946 -12.781 20.221 -4.0144 -6.6156 9.9506 10.52 8.0757 37.011 
dchdy -2.2489 -11.172 -1.2163 17.93 3.5146 4.1703 0.55412 -0.53341 -4.0064 2.7406 
daram 3.0534 -6.0744 -9.8092 0.31252 5.6987 14.507 -4.2911 2.127 5.8167 -13.759 
ykchdy -12.74 -3.1211 5.9947 6.5524 8.5306 -1.9176 -7.4901 -3.4417 -3.3701 5.9868 
keo 14.729 10.673 25.366 -8.3723 -2.0627 -1.1677 11.209 -23.177 2.6572 25.073 
shety 7.9939 -1.9959 -1.0779 -4.8125 -11.018 -8.9757 -4.8135 -6.4639 -8.1533 -9.1939 
todaiin -8.3775 7.1943 4.4074 21.078 0.34396 5.3028 2.4082 1.1353 0.73954 11.608 
lchy 11.599 -3.3493 7.2039 5.7464 -13.204 -22.956 6.1391 1.8187 -16.43 20.377 
chdor -7.9415 -12.36 1.2733 0.11057 -5.6354 12.256 -3.8779 -1.6246 -14.214 -3.5 
shees 15.845 -0.60245 -10.13 0.29291 2.1087 14.007 -13.613 4.9021 1.9743 -5.1502 
odor -1.6099 -1.94 11.87 17.515 -1.8251 14.819 1.6855 -8.05 2.0644 -6.8905 
chdain -17.88 -5.0507 2.3797 -6.1645 3.2405 -8.2619 -3.8058 2.7146 -9.2806 4.2163 
qokeeol 5.7214 -3.2632 1.5522 -18.91 11.346 0.17441 0.48332 0.4434 3.9402 9.3648 
okear 18.596 -8.0677 -1.0236 1.9189 -2.1714 11.647 7.0405 -7.1312 6.5949 -13.4 
shain 8.7 -1.9088 9.0726 -12.798 -9.934 -13.648 -6.9124 -3.2103 -8.9296 -8.6137 
shd 3.4991 -1.6391 -27.92 16.605 1.1126 1.6903 -25.479 17.692 -5.2321 -10.537 
lar 14.245 2.5073 -22.569 -3.9768 -8.5885 10.463 11.258 21.03 3.7263 -2.7345 
cheeey 2.9069 5.0896 -7.4409 -2.1819 -10.188 16.551 9.6227 -0.69442 0.15089 -0.65785 
cheoky -2.2442 -4.1135 4.5057 -3.312 5.0822 2.5572 -4.5368 1.1296 0.47497 -3.9327 
qokl -1.7833 -11.665 -1.3891 -7.2692 -10.302 -16.139 12.667 11.626 -8.1144 -11.398 
qoar 7.5676 1.5489 1.6155 17.075 -8.731 4.5839 19.725 1.0407 3.4203 4.9143 
lcheedy 1.9 -6.7053 -11.716 -2.7048 -6.2279 13.421 18.366 -1.8318 -1.5533 2.0639 
yk -11.635 18.465 -2.383 28.127 2.1243 -8.6633 4.1502 10.154 9.7468 8.6948 
ockhey 9.0795 -4.9546 4.8701 -5.478 1.5046 11.032 4.4333 -9.9354 5.5037 -8.3534 
qotcho -5.4171 13.129 -2.6215 -7.963 -7.8185 12.89 -11.204 16.006 -1.657 -8.6846 
eees 7.7403 7.3232 5.1934 2.0642 -12.605 0.1439 20.392 -5.1807 9.1751 -12.269 
alor 4.7281 3.0623 0.91917 1.1125 -1.7212 -7.0655 -2.0512 -4.6964 3.8174 -9.5512 
okshey -1.983 -3.8824 5.6972 -6.9759 -3.7471 -5.5344 13.267 1.2636 4.7082 -15.864 
arar 1.318 -2.1876 -17.173 30.753 4.674 -0.27525 6.1693 -19.243 16.024 -23.897 
chckhhy -7.7256 -4.8062 -3.855 -10.53 8.4773 -0.33405 -3.7131 5.4684 4.1071 -11.739 
cheeol -0.98222 -4.5218 14.877 -10.239 -1.714 -5.6915 10.381 -10.517 0.028449 -3.4259 
qofchedy 6.5322 -12.682 -1.2181 5.6789 -11.737 7.8027 8.1394 -3.3605 -10.982 -2.299 
tshey 5.857 2.2441 3.8556 -0.18702 -6.3299 0.10419 14.786 5.0547 4.3198 -1.454 
chotol 1.6486 15.093 3.7649 12.131 -4.1291 21.5 -2.7673 1.3735 5.3958 3.3306 
shedar -5.465 -13.333 -6.6014 -2.0687 6.7688 0.53778 -9.4824 -7.9083 -7.6964 -2.0654 
ycheeo -7.7562 15.229 4.1243 2.05 -2.4236 -8.8371 14.335 -1.6949 7.702 8.2476 
otaldy 8.2585 6.0101 -9.4337 2.3246 8.6279 -9.9175 -21.404 -3.6098 -2.7136 14.839 
lkchey -13.982 15.956 -4.0016 6.0544 -11.401 -7.298 20.108 11.228 4.1522 2.3807 
qod -1.038 11.48 4.0954 31.585 -28.241 -2.0792 8.0266 -3.8465 -16.41 12.627 
dsho 4.7913 21.877 13.907 4.7664 -14.074 -7.965 -13.797 -1.1762 -11.634 20.949 
lcheol 8.5425 -13.762 -4.1611 -16.4 -1.389 6.5231 0.35792 -1.8924 -6.0393 -6.1321 
orar -21.032 4.4948 7.8676 15.994 18.465 -14.557 24.226 5.0459 28.312 -13.231 
opy 5.9968 -0.23873 -10.269 17.145 -7.5574 12.579 -31.555 -5.7516 -20.264 8.489 
okchody 6.6034 2.1955 7.333 3.1437 4.3628 9.3779 -14.501 -8.7255 5.3583 -12.09 
tcho -5.9695 19.346 3.6064 -3.9612 -10.122 10.955 -15.246 9.8418 -6.6142 4.5167 
ykey 21.282 -4.7391 -5.4513 5.4488 16.296 4.0392 -17.364 0.027346 10.944 -5.6434 
oeees -2.5766 17.69 -1.8063 -2.5797 11.091 -18.998 -12.541 7.8825 11.199 3.2455 
choteey 9.03 7.7255 1.1241 -7.2438 -2.17 12.634 1.9031 -13.067 5.9454 -0.45883 
ksho 1.734 20.922 18.962 -23.19 -22.881 -6.9506 -11.545 3.3683 -11.601 -4.8559 
chotal -10.486 4.3865 -13.289 11.492 15.356 5.0537 -1.8164 3.2116 16.86 -10.792 
qolkeedy 5.2906 -15.931 -8.5958 -7.2209 -7.8583 -1.3649 0.68074 4.1815 -13.819 -4.6504 
oror 1.4888 -10.072 8.2566 4.7758 5.7115 -16.974 9.7687 -5.4454 5.2094 -7.6128 
shoky 10.009 -5.2006 -1.4437 2.3089 5.1419 9.3173 -12.681 4.7996 2.4006 -9.7664 
ytchdy -16.085 3.4804 5.5926 8.1749 4.0568 -14.547 -10.539 -1.0892 -5.7816 5.6686 
eeedy 6.4114 -8.2484 -16.961 -6.8155 10.474 3.8606 -1.0081 -10.215 -3.1573 19.014 
ysheey 6.1549 3.6647 -13.076 -9.0966 -5.8809 9.5296 -7.2673 1.2746 -5.188 1.1831 
yteeody 4.4164 1.9602 0.34984 -3.239 -7.3617 7.6652 -6.0277 -26.002 -6.6827 -0.31958 
shokchy -5.9353 16.975 2.2338 2.24 -2.1355 -0.044003 -10.169 -4.1944 -0.38577 7.4971 
choaiin -15.375 8.4733 6.3046 -5.5365 0.94596 -0.44 -2.7844 -7.761 0.38058 -0.70197 
chodain -6.2659 8.212 -4.9334 2.7448 -0.95996 3.5396 0.71625 5.9669 4.4369 -3.5452 
qocthy 2.3281 -3.4712 -4.2535 8.2274 3.0139 17.576 -12.373 4.9747 -1.7469 -3.3353 
chepy -21.593 -14.038 11.814 -15.99 15.506 -11.877 8.4594 -4.7767 8.6281 -21.498 
qokody -3.4514 -10.472 -5.414 -10.532 21.825 5.3955 -7.8744 13.206 10.202 -8.5966 
oeedy -18.609 -5.0555 -12.533 3.8198 13.727 -5.543 9.6439 -1.5116 13.803 -17.194 
qokshey 1.9217 -14.221 9.7099 -3.9568 -7.5939 1.9516 6.123 -5.4631 -7.6475 -12.127 
qokees 4.7538 -3.0685 -9.9719 -8.1687 5.6647 -0.70246 -11.353 -4.4713 -7.6026 15.266 
soraiin -4.6916 6.4386 -0.19301 -2.0668 -2.9348 1.3021 4.4511 -0.082506 3.4432 -4.0854 
qokan 2.1844 -7.074 -7.4751 -2.5586 0.61728 -18.431 2.8714 7.6046 1.5615 -13.468 
otshey 7.0019 1.1828 -14.205 -2.4234 -1.8804 -14.832 -16.546 -5.3928 -9.7978 5.4561 
sheety 10.898 -7.7662 -8.0395 9.0963 4.3292 -3.4535 4.5507 -2.2572 -3.5891 18.999 
okoldy 1.9546 -5.9051 13.05 4.9123 4.3764 -6.4554 -5.3576 -6.0355 -4.2838 6.0756 
qokeeor 3.4992 -1.9028 -2.4713 -6.5417 10.264 15.803 10.699 12.152 14.682 -4.1228 
aim -17.201 15.219 17.826 12.128 -4.6331 -12.737 13.506 -20.522 3.6058 7.7178 
chekain 3.1671 -3.7106 3.6848 -0.87204 -8.2627 -5.6126 6.2583 -8.2854 -3.1889 -8.2428 
okcho -11.624 -2.9306 -1.658 4.6209 6.372 23.759 5.4308 14.989 9.5165 -13.495 
sheaiin -3.0952 3.6867 1.8547 -8.1373 0.10431 2.5647 -4.4705 10.835 5.4605 -17.18 
qokshy 0.39402 -4.6609 15.14 1.5642 -4.1393 -13.08 -2.918 -0.61324 -14.543 16.529 
ro -33.674 14.565 -19.002 14.407 -12.855 17.105 32.063 23.5 12.562 -20.272 
rchey 1.3966 6.5283 -20.758 1.0056 0.068875 -6.763 -1.6196 21.555 -4.3645 19.383 
dshy 5.2854 -0.15891 17.956 10.263 -17.71 7.1865 -10.712 -3.8448 -13.639 -10.032 
qoy 4.6406 -20.583 11.075 1.3124 6.0794 14.289 -9.0378 3.1385 0.090242 -25.073 
alaiin -5.0865 5.118 1.1741 -0.43873 20.61 -9.1065 -0.65879 3.8759 18.268 -0.87797 
da 17.962 0.23024 29.552 -6.0302 11.368 -31.024 -8.6275 5.3261 -2.6443 28.541 
chkey 3.0451 2.958 -1.6074 -1.6722 15.304 7.7477 -8.1004 7.399 7.3177 12.261 
polaiin 0.39209 -3.5196 3.1227 6.164 -11.653 0.87689 11.704 -10.12 -1.0913 -14.448 
cheodain -5.1651 1.4775 -4.8929 -12.455 8.1332 -1.3663 -0.88736 6.182 2.9988 4.7397 
qokedar -8.5076 -10.276 -18.804 16.945 8.9022 -0.19776 9.8738 13.41 2.3278 4.5956 
chotey 5.6934 7.7791 2.5801 -4.4987 -2.1477 23.171 -4.0173 -10.177 6.2988 -8.1796 
kcho 0.52681 5.6048 28.888 -6.052 -15.05 22.061 1.6511 2.9671 -9.2666 3.9613 
od 24.177 -13.647 25.159 -13.381 -25.001 22.785 37.92 21.474 18.452 -66.152 
pchey -0.58573 -0.7589 -3.3186 4.7729 -12.22 -0.53431 9.2311 15.578 -7.2919 1.5227 
oin -6.649 14.606 13.328 -16.83 -10.656 -32.136 15.3 -8.835 4.0898 -6.892 
qockhol -2.6047 0.19036 22.505 -7.5543 2.5336 -5.594 1.2212 -2.923 -2.1744 8.4494 
por -7.6185 5.7444 13.191 18.478 21.394 -22.9 32.553 5.8995 30.492 7.3672 
ochey 4.3615 4.8712 -11.724 -2.4804 3.1906 11.675 -0.80346 -3.8306 3.7458 7.2565 
alol -6.0892 4.6658 -0.18531 -1.8844 8.3279 -24.727 -9.4194 -8.461 0.46016 4.8009 
ykair 4.6109 3.3831 -0.086218 5.5787 -5.2465 -5.7118 -13.411 -25.444 -3.6756 -9.93 
cphedy -20.623 -1.6264 0.54408 5.9347 8.5791 -3.4283 16.714 17.032 8.5929 -0.93872 
cthal 11.41 -2.1087 -1.199 6.174 -15.132 1.9974 -1.7383 6.6411 -1.3879 -26.729 
oteodaiin -4.0826 5.2424 -5.5431 7.0301 13.019 13.454 6.4074 2.3972 15.46 3.2786 
ycheor 6.159 -3.3029 8.1387 -6.8172 4.7362 7.6361 -6.6166 3.8518 6.392 -15.825 
ykchedy -4.8139 -8.6076 -19.69 3.6923 9.3677 6.3319 -8.7616 2.703 -0.038833 -5.6078 
oteed 2.7433 6.1928 3.8735 6.1283 -10.921 -7.4358 20.623 -9.1208 3.4752 1.2574 
dsheey -0.62728 -2.9963 -6.3738 -4.7096 4.0944 1.3458 8.2054 21.878 5.8348 -3.3414 
chr -14.529 18.472 -2.7185 -19.65 15.765 -4.7108 1.6766 35.493 15.299 11.549 
okeeedy -9.5688 -3.6219 -2.9228 -5.3799 4.1821 -0.184 8.3345 -7.1666 0.68061 2.7019 
e 20.068 60.134 -7.2575 61.601 30.325 6.6255 14.359 84.219 51.194 69.164 
koldy 12.949 -3.569 12.727 6.832 -5.1386 5.5391 -2.9882 -0.77435 -9.7659 15.538 
dcheol -8.0924 -4.3355 4.4969 -15.79 6.6413 -4.4235 -1.8347 14.125 -7.5358 16.009 
okoiin 7.5082 7.7723 11.012 2.3739 2.4081 -5.1889 -3.3633 11.412 2.8386 10.689 
p -10.932 33.415 27.01 27.133 -29.368 11.202 46.157 -10.114 5.2853 25.566 
chokal 12.762 9.6483 -8.2902 12.091 -3.3867 11.48 -10.44 -3.8264 -1.8236 12.484 
alal 16.278 5.3151 -18.029 -11.004 18.873 -5.9969 -12.799 10.795 14.539 4.1535 
cheodal -3.138 -0.013434 -5.2416 -8.3365 12.739 10.183 -9.7452 2.8381 4.9448 1.0369 
chokey 4.0977 -1.0373 -3.0777 6.0869 14.805 20.518 3.9308 15.592 16.972 -2.9973 
olcheol -3.1729 -5.0738 11.234 -11.721 4.1328 -6.2392 4.2467 -1.1402 3.9247 -10.328 
kody -6.8285 -8.6146 -15.576 -5.3344 9.8856 14.224 -18.024 -2.9355 -3.1737 -8.7713 
oteodar -2.6557 4.9519 -2.8878 3.5323 11.847 8.7532 8.9027 -10.628 20.406 -10.78 
sholdy 7.2094 -4.7115 2.4803 10.19 -0.59854 9.235 -1.2633 13.556 -7.9077 18.048 
polchedy -7.2564 -6.0048 -4.8661 -1.6928 8.3974 -15.758 -1.1349 3.8279 -9.6611 24.411 
schedy -6.585 -9.0638 -18.015 7.7062 3.0854 -0.3882 3.9465 20.194 -4.9247 5.8288 
chcthey 8.7745 0.78597 2.503 -1.6116 -13.643 8.8691 4.6399 1.1124 -9.4831 7.7568 
sshey 7.879 -5.4987 4.6316 9.5952 -4.8499 -0.91667 18.721 20.354 4.8515 -4.4849 
okedar 3.2764 -13.939 -6.32 3.9952 1.7685 -1.2682 1.8033 -18.438 -2.9252 -7.2872 
chekey 8.3079 -9.2244 -2.941 4.8025 8.3051 13.784 5.9397 -2.4934 7.6116 -2.0792 
lkeeey 6.3302 -0.96521 -8.0775 -26.916 -6.0162 4.7218 8.1485 1.9556 -0.49699 -5.5892 
otoly 7.7093 -4.5461 -0.32601 15.635 -0.28555 10.553 -6.032 -10.314 -2.2379 -0.17775 
oldar 8.1686 -5.558 -4.0208 4.7141 -6.3322 -3.8498 -17.037 -15.402 -10.135 -10.826 
ockhedy 0.58601 -2.5656 -8.9182 1.1153 -0.41096 5.4665 7.3558 -10.295 2.1754 -2.1192 
chcthdy -0.001699 -10.742 -0.66911 9.3111 -6.5586 -1.6448 -0.76596 -7.283 -13.044 2.4198 
chcthedy -3.0678 0.077027 -1.5038 -0.18888 5.6172 -11.815 6.068 -8.2954 0.18623 14.075 
chetey -5.1529 1.9983 -1.8273 4.9185 11.081 -9.5274 6.4016 -11.48 6.1986 13.586 
cheam 6.302 4.8165 2.4768 3.8798 -6.9362 -7.5745 17.344 14.853 6.2168 -0.89075 
keor 9.8635 21.689 18.4 12.971 0.88627 -5.1244 6.879 4.4564 15.426 11.467 
dalam 20.346 -13.638 3.9543 9.2485 2.1177 -13.554 0.3748 -7.7368 3.424 -13.624 
olkeol 6.3131 -10.459 13.235 2.0486 8.7037 -13.503 6.0659 2.7298 2.8506 3.8558 
cfhy -3.5465 4.8831 -0.95456 14.341 3.1162 -6.2738 -18.181 7.5068 2.1529 -13.13 
paiin -8.5937 -1.2355 -7.8219 5.9776 5.7788 -3.0827 8.5119 6.7348 12.928 -19.407 
v 20.69 50.262 -11.598 63.751 -24.811 -3.7978 39.475 -10.956 12.631 59.058 
chodal -5.326 -1.2185 -2.2399 9.7756 5.505 9.0022 -5.3809 -5.3982 4.6331 -9.3967 
qokod 0.51618 0.91996 -6.8033 -10.419 1.5517 5.1713 -25.421 -4.9464 -9.8787 0.053609 
otcho -3.446 9.0964 7.3283 -13.953 -7.0025 -1.265 -25.999 -1.4506 -9.0564 -12.587 
qodal -14.285 -7.5668 -1.0284 8.6548 11.475 23.618 -19.785 -7.5893 -1.4166 -11.43 
ykaly 25.641 6.1693 -14.048 7.4304 12.481 -19.617 -29.036 -4.822 1.4957 14.318 
dalol -2.6801 -0.32161 8.7185 -2.6218 -1.3425 -13.459 -3.6735 -15.343 -10.399 14.618 
ofar 9.242 -5.7346 0.19968 9.5758 -7.4779 3.7794 -12.686 -15.804 -11.246 -2.9641 
dom -8.1821 8.3032 1.2333 2.4443 14.495 -1.1726 -27.471 31.97 6.2939 -8.9982 
okeeos 15.336 14.38 4.0716 -11.324 -3.5793 11.001 3.9797 -18.413 11.884 -3.4376 
cheeos -13.584 15.943 -0.56779 -14.779 3.4849 -5.5213 9.4266 -10.918 11.116 0.64721 
okcheey 6.1658 11.214 -3.9185 -6.938 -4.0486 4.8181 6.9764 -5.4712 2.5902 12.667 
cthdy 12.597 -1.8649 3.6023 18.47 -14.304 -0.89176 11.625 -13.921 -8.9935 13.143 
dody -17.666 1.5578 -9.7856 -4.2018 13.342 11.87 -18.108 10.078 -5.201 13.209 
otodar -11.344 10.312 -8.6675 21.505 -6.3912 5.6891 7.2691 -19.933 8.3311 -15.919 
qokear 3.6565 -18.362 -4.2245 -26.468 4.7069 2.5361 13.252 1.7511 0.8973 -9.6195 
lkl -29.141 29.517 -21.499 10.855 -0.78425 -32.143 14.02 24.873 9.6094 12.336 
keeedy -8.9931 -5.6256 -1.2458 -9.4528 9.4008 -11.838 18.7 -1.5414 7.2018 3.2816 
ydy -19.463 -2.4928 5.0175 -13.32 7.9039 -1.3166 -11.182 15.314 -8.1258 5.9262 
lsheedy -2.5258 -7.7929 -2.5874 3.0008 -9.5891 -6.9389 21.853 -7.3071 -7.1661 6.6583 
daiidy 16.515 0.57313 10.256 -2.5427 -15.818 14.409 0.41445 -5.7955 -11.747 9.5955 
ykees -5.1126 3.1154 10.704 8.7033 -7.8608 -1.1279 14.622 -11.029 4.8522 -10.887 
yshedy -11.709 -16.419 3.23 7.2407 5.9954 -7.8772 16.931 8.0844 0.48439 -3.5789 
opor 3.0626 0.97868 1.4095 9.4035 -11.482 -4.349 11.03 -12.845 1.8103 -13.762 
sheoky -1.8221 -4.4317 -7.8981 8.3701 2.6159 10.775 8.2225 22.061 5.5057 -4.9184 
ok -3.6279 -2.9458 -26.363 13.093 42.679 16.336 -20.701 44.586 27.185 -3.9379 
solchedy -3.6657 -17.666 -12.854 8.8264 0.0040419 7.0739 9.7425 5.8922 -8.5511 4.4533 
lal 13.424 15.056 -17.706 -23.283 -2.6132 -28.737 -14.852 8.3276 -14.239 37.759 
sheeor 4.8755 0.33415 4.0378 -5.4623 10.192 5.6015 0.91745 2.811 10.636 -1.5355 
qokeod -1.6185 3.9141 2.9842 -11.053 17.125 1.9085 4.3548 9.2993 8.7249 22.288 
kechy 1.5608 2.4576 -10.381 -0.9953 3.0849 9.5053 -4.5973 11.854 0.47731 5.9836 
oeey -13.438 -0.69476 -5.1652 0.76248 17.838 11.994 19.404 3.5938 26.688 -18.274 
qopaiin -11.605 -10.869 10.958 -0.95825 -5.622 14.797 15.374 -7.7564 -2.7673 -11.661 
lkey 4.8831 -5.7581 -7.6225 10.209 -3.4868 4.2962 16.909 -2.0922 6.4066 -9.5716 
cthom -1.3697 1.9846 7.1095 1.8096 13.492 0.079109 -19.884 19.305 8.4756 -13.359 
olsheey 7.3753 -1.2887 1.6653 -1.071 2.5886 -12.826 10.347 8.9672 4.3608 6.244 
odam 1.0271 -0.65284 19.026 9.5289 5.2074 -8.6647 0.77136 -9.1733 7.0666 -6.868 
chokar 2.4463 15.651 3.8747 9.6211 -12.107 1.0736 12.467 -10.16 -0.18493 15.928 
qoeeey -2.7102 5.0282 -6.6027 0.95528 -2.3408 16.776 7.4232 10.229 6.4804 -5.5949 
qoly 13.18 -24.969 4.814 -22.539 -2.0758 -10.858 -13.973 11.165 -29.995 20.428 
dcho 1.1655 26.541 5.9469 11.978 -9.4157 9.1917 -3.0698 5.4142 0.33988 20.726 
qoked -3.1102 -5.8983 -26.52 9.3294 6.3051 5.8369 13.789 7.5299 4.9705 6.0511 
ycheedy -3.4772 -0.9005 -7.5744 3.4501 3.5098 2.7787 5.0784 3.7065 -2.7569 17.309 
okaiir 2.0046 -3.0342 11.026 4.1667 1.1988 -0.61808 3.9101 -14.296 6.6107 -13.904 
so 7.8889 -8.7787 -9.2363 -49.999 8.4856 14.171 -16.579 23.933 4.039 -27.809 
okan -1.1988 13.345 5.1636 7.4483 0.79246 -30.954 14.322 1.5306 14.793 -4.5827 
kshy -2.3759 14.013 7.4977 0.91936 -16.43 -7.8747 -14.095 8.3138 -13.261 1.6287 
dalor 19.79 2.2586 3.4144 -8.1644 -10.797 -15.57 -17.41 -8.0916 -12.703 2.0614 
olkair 3.334 -3.4345 -16.119 12.046 -0.87678 -0.76076 5.2245 -1.7187 4.9654 -11.315 
qochey -11.891 -0.27646 -12.282 -3.6667 9.8205 -1.1246 -10.209 11.321 -5.2297 13.952 
 36.699 0.58007 -22.568 -8.9188 -5.2728 20.336 0.095151 -0.17097 20.98 -42.728 
ykeeo -0.19341 -0.030033 -3.5681 16.642 15.111 9.6246 7.2935 3.0952 13.485 9.7986 
oy -7.8011 17.808 -5.1259 -1.6354 13.321 17.131 -17.146 -17.285 -5.3463 47.8 
aror -9.0847 -6.0786 -6.9098 -16.727 -0.95545 2.1167 -8.7574 2.8649 -9.2925 -6.9416 
ykeeey 10.493 -5.9545 1.6453 -5.0242 -2.9694 14.167 10.351 2.0949 0.0095979 3.1998 
lteedy -1.3794 -2.13 -2.7285 -6.4942 -2.3645 -6.4442 7.4745 -2.4974 -6.7275 13.578 
qokeedar -0.21777 -9.1823 -5.4466 -3.8989 6.1173 -1.2378 22.702 -13.026 5.5345 7.3715 
ykeor 3.97 5.1724 25.415 -19.548 3.5378 -8.7967 -8.0018 -5.5799 2.4171 -2.7241 
dcheo 1.4452 10.756 9.6109 -9.644 -9.796 -8.8745 2.8871 2.0077 -9.971 22.576 
otear 6.4501 -8.0728 -10.108 -4.7177 14.366 3.6295 11.935 -7.2172 21.638 -22.351 
qokeeedy -8.4473 -1.324 -7.172 -7.8311 9.789 -1.7456 7.7136 2.222 4.8545 7.2161 
tcheol -9.2445 1.0788 4.8792 3.0723 6.1028 4.5861 19.928 17.111 13.001 -1.673 
shekeey 16.897 0.81159 8.8822 -1.7203 -6.2443 0.074023 9.4548 -10.76 -1.065 11.124 
alchey -0.30744 -5.3934 -2.6682 -0.30843 15.749 6.2412 4.3709 20.061 12.192 -0.65974 
chtal 5.8929 -13.641 -3.4066 -3.0279 -5.4191 5.7471 10.22 1.6761 -0.20069 -18.234 
okalal 7.9713 -1.0396 -17.079 8.9774 22.509 -6.6671 -1.3502 7.6329 20.722 -3.5519 
chedam -18.381 8.009 -12.647 0.724 2.8799 -3.4534 11.603 8.4644 0.47091 17.397 
oro 4.3057 11.334 2.3453 -19.593 -1.2525 -12.131 -17.376 -22.244 -5.7923 7.1847 
tcheey -5.008 8.4636 -0.4453 0.63493 -4.4324 17.545 5.774 12.841 4.4244 -2.6607 
cheoldy -7.2286 4.8928 2.6815 -19.366 19.886 -4.2161 -11.169 2.6556 10.156 2.0857 
chek -3.9693 7.8389 14.176 4.3787 1.1507 -20.215 23.901 -18.628 16.246 -6.4958 
alody -1.4286 18.032 -10.468 -20.057 7.4969 -25.885 -17.392 -25.579 8.2071 -6.7958 
an 25.335 -2.152 -23.845 -40.323 -15.07 27.738 -25.557 -2.0219 -6.8986 -35.703 
oltedy -8.4758 -25.1 -7.1856 -12.092 12.762 1.1599 0.62195 9.9575 -0.61222 -18.444 
lcho 12.329 0.18413 -8.9594 -20.896 -16.523 11.643 4.3067 -6.5169 -5.0234 -13.285 
olkeeody -1.6109 2.9213 0.78712 -3.9066 1.4857 5.0855 -0.32206 -6.2921 -0.61204 7.3464 
okchd -0.06839 -8.0466 5.0982 4.3479 -3.1467 0.92683 5.9094 -3.0359 1.3824 -16.272 
ykor 2.9058 2.984 28.757 17.303 -10.298 7.182 16.759 -14.089 9.0623 -17.19 
shan 0.47503 21.793 3.4295 6.3121 -6.7389 -19.628 -15.38 33.982 2.6166 -6.8863 
deey 3.9833 -9.944 12.103 11.416 -6.2949 32.057 17.186 -5.8539 2.861 -9.0985 
qokeechy -5.0839 -5.8683 0.17997 -2.0645 3.3379 3.6669 10.606 14.523 6.5815 -10.928 
okaiiin 2.8114 9.9123 3.9904 -0.60385 -1.2625 -18.924 7.8498 -3.269 8.7119 -2.726 
alkain 3.6604 4.3404 -14.784 -5.35 0.73859 -12.259 4.1981 -5.4827 7.749 -8.7559 
opcheol -6.4735 -12.715 12.963 -11.561 8.2753 -5.0265 4.6898 -0.36306 2.9687 -12.413 
qopchol -6.1209 1.1978 8.3723 4.2889 3.5296 -0.60597 -3.7162 1.8482 -9.0065 25.203 
okos 4.8117 -0.26539 -13.829 12.736 13.95 16.179 -18.245 5.6934 6.5247 -0.52448 
okeod 15.602 8.0319 12.204 20.245 4.3901 13.115 5.0548 -16.503 10.457 15.364 
oko -10.482 15.117 20.73 1.3557 7.7582 -7.6712 -16.309 -26.807 -11.654 44.083 
tam -16.068 -23.2 -0.4129 6.6405 7.672 -0.3402 -26.597 6.5395 -19.95 -8.7246 
ety 12.89 -0.25496 -3.1848 14.984 -11.512 12.502 -4.7006 -9.1976 0.39307 -19.819 
qopy -8.0862 3.5838 1.3972 17.941 1.6014 -17.07 -8.5516 10.112 -7.9085 15.065 
shoiin -0.62103 5.1661 -1.9205 2.0034 -8.7188 14.646 -10.084 15.828 -8.0947 0.2091 
ochor 2.2254 11.12 -7.1605 3.6307 -5.5962 1.403 -15.93 0.25616 -5.0155 2.0974 
lsheey 4.733 -6.4643 6.2884 2.1554 -10.733 -3.1032 27.75 0.064839 -3.1679 8.1023 
shckhedy 9.7856 -17.62 -3.9292 -5.771 5.9856 -3.1622 0.94675 -1.5316 -4.4597 1.634 
keeor -2.3134 -0.27432 4.0793 -8.4652 5.5984 21.815 13.742 17.884 11.359 -2.8212 
tshol 5.6424 -0.49563 3.2425 5.9293 0.30475 3.4656 -16.849 -5.1092 -2.1547 -9.0365 
odair -4.902 4.8852 9.9123 23.522 -4.3779 11.042 7.5241 -18.748 5.247 -5.313 
schey 0.50283 7.5084 12.266 20.4 -2.2245 -12.603 21.76 24.682 14.58 -4.6135 
tcheody -12.83 6.2289 13.829 -10.279 6.2905 -4.1168 6.3585 0.96834 7.1287 0.71692 
shoty 12.003 -5.7121 8.0454 18.832 -7.6049 13.603 -11.682 -5.1388 -4.7278 -14.082 
lchal 3.554 4.4029 3.1388 -11.025 -8.5043 -15.078 18.985 3.8304 3.8089 -2.7599 
teeody 7.6173 4.5324 4.838 -1.1447 -14.632 7.9867 11.253 -24.46 -3.6249 2.1426 
qokchd -3.8929 -14.751 14.598 5.6804 -3.3464 -0.087214 2.3132 -0.7009 -4.7641 -17.972 
odaiiin 4.8009 2.0881 1.4997 -2.9895 2.2315 0.10947 -6.9173 -1.6076 1.9533 -2.5739 
ofchedy -5.2398 -13.73 -1.7508 -13.368 -1.552 -8.1801 -9.4262 -0.67338 -15.315 -3.9381 
ytchol -17.194 -1.3319 18.078 -0.42491 8.0302 5.5752 -17.015 8.3132 -3.4649 -6.0793 
cheokeey 10.177 0.36274 -5.4195 0.307 -1.7474 10.695 6.5264 -2.438 4.0288 1.1739 
dalal 5.6836 3.2411 -6.0032 7.3163 2.5707 -9.4991 -6.3329 -10.199 1.0766 3.511 
ykeeor 13.651 -4.1497 13.439 -12.912 -0.59502 14.276 -0.46553 -13.419 -0.27026 0.019455 
yteeey 6.0758 -3.4801 10.32 -17.607 -11.975 -2.9825 -3.803 -24.4 -9.1564 -13.058 
chetar 7.9863 11.73 -5.8103 8.6225 -17.663 -8.0994 8.0805 -14.165 -1.3819 -2.844 
oiir -2.3917 2.3738 3.084 10.46 19.572 17.954 4.6578 -0.17394 26.843 -16.803 
pchol -10.146 16.202 9.7904 -5.5265 11.586 -13.162 -3.4913 7.5405 4.7552 24.683 
kshey 12.986 -2.4562 -2.76 -8.0698 -12.468 11.894 -3.7117 3.8597 -11.396 2.6153 
qokeos 2.5062 -3.5601 16.311 1.2299 12.595 12.296 -4.404 -5.5303 6.4836 2.8136 
oshey 11.809 -8.747 1.1734 -2.4915 4.9373 0.89257 -2.3595 -2.3103 -1.4295 4.7479 
oteal -0.85224 -9.9566 -5.27 -25.426 2.9208 -8.0573 4.1364 -17.799 2.7773 -20.145 
eey 27.547 16.752 -7.8561 -9.2039 -0.76247 2.2558 -14.279 4.1971 4.161 13.884 
olal 8.1493 -5.9303 -11.642 -14.085 5.8403 -5.0036 -1.5432 16.955 3.6878 -6.708 
okeoly 4.3674 -7.2649 10.172 5.5729 15.381 4.2848 -1.9171 -5.1121 15.403 -16.852 
sham 21.558 9.4092 -5.3821 9.428 -23.703 -5.392 8.0731 1.6035 -11.231 15.976 
osaiin -9.8689 8.4336 -20.788 -4.6859 7.5069 3.6815 -8.856 1.1174 7.0688 -6.8904 
doiir -0.34029 -7.0261 1.6162 -8.0045 11.325 16.574 -20.482 3.4645 -3.4505 -0.46244 
kcheol -4.8954 11.025 -5.9518 -8.2924 7.7421 9.6761 -7.1742 18.216 6.2528 6.0589 
qoain -0.04188 -5.9707 8.7053 -2.4748 3.3193 -7.072 16.274 -0.87776 6.501 -2.9801 
par -6.1509 4.7752 -21.441 -8.401 -11.023 -6.9207 -10.801 -12.671 -18.485 11.329 
otchar 5.1443 12.538 -6.8809 8.3036 -12.482 -0.83183 -1.1694 16.475 -5.5528 10.012 
chkchy 3.2338 3.319 7.2247 14.887 -6.9996 2.0318 -1.2088 12.156 1.3068 -10.229 
rshedy -1.3268 -12.601 -13.973 2.9845 0.42437 5.8419 10.232 18.681 -8.229 13.537 
sshedy 9.1366 -17.612 -0.875 15.015 2.9806 4.4144 15.184 -4.1508 -7.2332 22.775 
loly 11.775 -4.0457 5.6139 26.912 -28.342 3.5992 34.039 -6.5382 -9.7771 7.8387 
lched 5.9608 -15.626 -1.84 -17.162 -9.3255 6.7414 21.195 1.6745 -6.5249 -3.552 
ykchol -8.4892 5.5631 7.322 -0.58164 13.215 -5.0853 -26.036 3.1454 -1.5981 5.2212 
qopol -2.3188 -0.4495 4.9756 3.4617 1.7049 8.7736 -5.3869 -3.5957 -6.9324 14.872 
yaiin -2.0914 0.94811 -1.0773 -7.3606 8.676 -6.1964 -11.392 -4.6 -2.2367 9.1103 
qoko 2.2366 5.7655 -18.854 -9.2357 9.2513 9.9317 -23.164 19.137 -4.0083 14.319 
qoteo 2.6561 -2.0028 2.7463 -1.3758 -2.3511 17.004 2.341 -9.729 -4.0723 8.2136 
chekeey 3.047 6.4439 14.42 4.4916 -3.6317 6.1852 15.456 -9.0257 4.9085 9.9775 
ykchey 12.189 4.4075 -2.484 7.0726 0.47231 -0.2667 -8.0851 2.1168 -0.66603 9.3244 
cphor 1.8829 -0.37646 7.3286 6.7482 -2.666 15.254 6.7145 21.249 5.1556 -8.0316 
pchody -7.6447 -4.7991 5.9326 5.7729 -6.0071 8.6643 1.1149 0.87583 -3.7274 -12.896 
opchol -14.61 4.1692 14.203 -1.1141 3.7568 -3.594 6.4828 3.8456 5.7306 -3.6849 
cphaiin -4.3858 3.1586 9.3886 6.5948 1.652 -4.5106 2.1071 13.878 0.58235 6.9784 
oteodal 0.24771 3.9473 -9.0528 -1.2111 12.191 20.937 -1.2384 -15.263 14.376 -4.8544 
cheekey 2.2287 9.2577 -10.106 -6.6456 6.3601 -8.7483 -2.5536 -6.2996 2.6359 16.788 
ksheo -15.261 16.993 -3.8001 -2.6347 6.742 9.943 -1.3035 19.443 16.651 -13.263 
rary -0.17411 12.575 0.96044 -12.783 3.4654 -27.346 -1.7952 -15.292 4.8011 5.1947 
lpchedy -11.937 -3.7779 7.2872 -15.492 -9.5472 -7.051 2.9252 -11.213 -13.486 -1.3582 
dalar 23.784 4.2936 -5.0981 1.9533 15.243 -11.207 -17.254 0.82762 2.9838 26.262 
otary 24.696 -4.4106 17.035 -2.9677 -20.968 -10.553 -4.6869 -20.555 -18.146 2.6348 
okechy -1.7595 3.7617 1.3543 3.0136 0.77424 -5.1841 8.1167 -5.0068 4.657 2.6832 
chtol -16.981 6.3523 7.7254 6.0312 10.099 -21.376 -8.4478 13.328 -5.1505 22.525 
tcheo -0.0075769 6.2848 10.767 -5.1812 -14.786 10.326 15.053 -2.5876 -2.8417 2.1174 
cholky -5.9261 -7.0737 -6.9938 -9.4248 11.481 -11.709 -13.626 2.4631 -0.047376 -9.5657 
ctheody -2.5025 -1.3639 22.282 -2.5259 1.6421 17.92 8.736 2.346 7.2348 -7.809 
eeey 4.4698 -6.6976 -2.6894 -8.369 12.415 21.551 12.608 26.041 19.046 -15.226 
koiin 2.6684 12.704 8.0626 23.316 -6.7887 -0.24118 -1.3381 4.59 -0.36119 10.236 
ytedar 0.60153 4.3439 6.6347 3.49 0.16081 -14.778 -0.64952 -10.288 -2.7568 12.043 
qolkeey 6.7322 -9.7455 -18.095 -8.6792 -2.1589 -1.9935 -8.8288 13.678 -9.8041 -2.8291 
dalchedy -1.1879 -6.0574 -8.8978 0.82955 -7.3661 11.415 5.0612 0.50331 -9.4315 4.7773 
qokoiin -1.3059 -0.047032 5.2822 -2.5734 -4.3166 5.1288 8.8368 18.566 3.218 -8.9144 
chyky -7.3139 17.668 5.1198 11.103 3.9766 -6.0274 -8.9069 10.894 2.2105 16.878 
shkaiin 0.42638 15.19 3.2844 6.4911 -2.836 -13.089 6.5504 1.2083 4.5738 12.416 
tsho 10.194 0.1035 -7.8798 -30.058 -11.938 10.009 -34.771 1.6179 -18.219 -16.093 
soiiin 10.301 -8.5661 -0.12 -5.0228 -3.8879 10.022 -6.2376 1.7819 -5.2264 -8.9097 
qokchod 8.0341 4.4116 20.696 4.2408 -5.422 -2.0758 -3.2147 -0.72617 -0.62334 -1.6026 
ypar -36.215 2.0152 14.613 9.3383 22.893 -13.336 14.485 -6.414 23.197 -16.66 
cheedaiin -5.0055 5.0626 -3.9331 -2.0628 -1.9502 3.9993 15.516 -9.1465 2.3317 10.943 
qotaly 0.96875 -0.094799 -3.5787 8.8136 -10.659 0.5305 3.0455 -16.704 -6.6427 -1.4306 
ltedy 12.471 -10.854 -20.348 11.411 -8.3969 13.615 5.3562 -4.9251 -8.9162 4.7539 
chopchy 2.4693 13.895 4.8919 2.0114 -0.77719 -3.0559 -5.4 -2.4743 3.7129 5.4982 
yteol -4.0579 -5.9964 14.41 1.5297 13.02 4.9803 -0.91557 15.13 8 -5.1229 
otaram -0.91877 -2.202 2.2018 -3.8188 1.6977 -6.7415 -1.9162 3.5827 1.8018 -9.4564 
lkam -1.171 1.2362 -3.5582 -14.775 -15.725 3.2372 -6.5692 -17.88 -19.812 7.8058 
qoteor 1.747 5.2035 2.2891 7.8642 -5.8864 4.579 20.124 7.5599 6.0322 5.1325 
ckheol 8.5625 -4.9929 31.042 2.1105 8.9876 4.0241 13.667 0.82187 9.4243 8.3296 
kary -8.12 2.0893 -8.5456 3.5412 12.933 -15.013 -0.81894 4.2502 15.832 -18.621 
podaiin -12.901 8.5732 7.8838 0.74421 -0.039514 2.284 -8.1495 -10.71 -4.8886 8.0734 
pcheor -4.1639 5.2173 -6.0896 -13.321 2.7521 1.341 -5.0704 15.565 -2.2761 9.0432 
pchdair -17.728 4.6007 -2.1844 2.528 -12.32 -4.3364 -1.4215 -6.4267 -9.7898 -8.9987 
pchodaiin -4.2364 4.0075 8.0703 7.8522 -0.47325 10.52 5.7785 7.5953 3.9054 1.4395 
rcheey -4.0426 6.365 -17.783 -7.1903 1.833 7.7117 8.2464 3.8995 11.01 -9.4649 
otalaiin 8.8282 -0.44154 -0.94946 -5.6184 1.72 3.3196 -4.8438 -15.774 -0.1214 2.1571 
qoteeol -3.3688 4.619 -1.4419 -8.3739 1.2875 15 -0.31416 7.9982 0.38974 6.5203 
ydar -9.1003 13.438 30.592 4.129 -14.422 -17.67 10.599 -24.477 -3.0188 0.82499 
cholor -1.5045 9.2901 5.1831 -5.163 1.8014 -18.833 -11.935 5.6557 -1.4264 3.6423 
ochol 10.299 14.588 14.676 0.11831 0.80344 -12.074 -9.2338 -4.3354 0.31981 18.127 
okechedy 9.622 -8.4261 -3.1443 -7.4728 -7.4724 7.9462 11.13 -16.841 -6.3246 4.1595 
qoteeody 7.1305 4.2913 -7.334 -5.7894 -3.0301 15.017 -12.792 -10.086 -9.7264 15.855 
dyky 19.614 -19.733 13.435 27.801 -5.1064 4.5641 -0.60225 -5.274 -7.4921 -5.8326 
qolkain 2.6514 -12.259 -7.4172 0.23611 4.0478 -9.9968 4.0759 10.008 -3.1986 1.7825 
qoedy -19.045 5.8809 -10.415 8.6164 7.1646 -6.2329 15.884 7.8142 6.4477 13.258 
ykam 7.2384 3.7869 8.0373 9.9513 -1.6625 -10.062 -10.147 -17.405 -2.9459 2.7606 
lkal 5.3267 -4.7811 -0.68105 -17.467 -0.52126 -29.1 2.0158 -14.895 -2.7755 -4.5683 
qotshy -12.593 11.706 -0.88242 15.563 -2.5652 -9.3016 -8.2171 17.273 -2.5218 2.6522 
ald 7.8709 12.627 -14.608 21.571 -14.826 5.7229 -11 -27.543 -11.817 14.481 
shdaiin -9.3978 3.7155 3.1977 9.2678 6.547 -0.023642 -2.4886 6.3735 2.5046 5.9632 
los -26.03 7.4206 0.7302 19.43 16.98 -7.2208 22.55 -1.7543 12.87 25.328 
alain -1.0055 -0.97599 -7.803 0.094003 5.5137 2.599 3.3819 4.7477 8.6304 -9.2671 
sheed -3.5527 -14.887 -1.9819 -17.871 2.1646 -7.0426 14.632 -1.9209 -2.1309 -4.7613 
ypchey -10.983 7.6987 0.34281 -2.6483 -8.5085 1.4081 2.7538 -2.5014 -4.1894 -0.77217 
lchor 3.0872 2.0241 0.10645 8.6168 -11.455 9.9951 13.945 8.7338 2.7714 -8.793 
lkeeody -6.3739 -3.8963 4.7272 -13.492 2.7185 8.3441 12.526 -9.9109 0.21809 6.7712 
otcham 6.334 9.7282 5.5524 -2.0303 -8.1994 5.3509 -10.538 -10.513 2.2756 -16.802 
ckheody -9.8167 -0.55226 24.834 -1.8883 11.017 14.51 5.7449 3.6085 12.924 -9.6003 
ail -18.321 23.352 -16.953 10.019 2.4396 -5.079 12.45 21.478 12.235 12.469 
sheeey 3.0338 1.8176 -8.0662 -22.183 0.74649 6.35 -9.9773 -4.0675 -6.2999 7.5769 
shekey 3.5512 -10.388 -10.539 -7.9537 15.845 -0.99435 -17.275 -7.7705 2.059 -7.1346 
qoted -6.9492 -3.4033 -17.013 8.0747 4.3356 16.823 -1.1594 11.231 -7.3881 20.46 
pcheody -13.712 -7.9389 20.726 -3.8863 3.1315 1.3819 5.2189 -0.68318 -2.4482 -3.5964 
chkedy -0.45386 -9.1917 -3.1508 -10.4 1.0493 -3.4953 -4.7558 4.4006 -9.7749 4.5062 
chokeody 0.74078 6.3514 13.049 -6.0764 -1.0127 12.133 -2.9883 -8.1732 0.24023 4.3755 
kcheor -9.1245 12.03 1.1476 1.3844 5.6984 1.6227 1.1292 15.79 6.9851 8.6758 
ldar 1.2513 -4.3786 -26.976 6.4777 0.49327 -0.80315 -21.945 6.0453 -8.9701 -6.5811 
sos 17.677 0.47175 3.266 18.73 -10.683 32.148 1.823 8.9721 18.765 -51.263 
shekchy -0.38016 -2.5083 5.5849 10.896 3.7963 1.0312 -0.53243 -3.3865 2.145 -0.60209 
ytaly 1.2189 7.6442 19.275 22.461 10.864 -34.712 4.225 -18.349 17.138 -5.7496 
ees 11.231 34.159 25.775 4.9522 -20.911 -0.71568 13.452 -28.97 10.077 4.1566 
 33.725 20.364 -27.816 0.2748 -13.35 -1.0767 -14.107 -3.3962 10.502 -21.836 
qoto -0.023662 -2.3569 6.4263 26.286 -1.1391 15.299 9.0731 8.955 4.4969 -1.4343 
olam 3.9056 -2.7509 -12.033 11.636 3.1863 -13.155 16.865 -14.391 9.0141 -0.50101 
als -17.256 17.676 -19.55 -3.0079 32.629 -33.324 -6.4682 6.2833 15.296 33.971 
c 26.853 9.8363 -24.562 -5.0339 -13.889 20.429 -2.1828 -1.4689 -1.4044 3.3402 
chok 9.1453 18.93 14.354 13.743 -8.2408 2.591 5.2938 11.908 3.1713 18.199 
dchaiin 7.5949 14.447 5.4283 6.9937 -8.8233 12.308 -0.055744 11.01 1.8462 6.2671 
chochy 6.8978 7.0698 3.1052 -11.227 -8.6133 5.9913 -14.143 19.394 -5.2693 -7.2383 
 21.433 26.593 -16.605 -0.32845 -16.073 11.926 -0.79212 4.0229 1.4699 15.567 
ochy 4.6985 19.107 1.6944 5.3469 -3.0876 6.582 -19.647 -4.7265 2.5679 -1.3899 
qotair -10.44 4.2322 -12.055 -7.1494 11.003 -2.8436 -10.742 6.2668 0.046143 9.2593 
osain 4.7192 -3.2586 -4.5697 -0.37955 -3.9315 -4.4628 1.4216 -5.9065 4.7628 -23.423 
lkeol -8.0988 -0.59254 -11.804 -15.291 1.2035 5.1717 -4.2317 -0.90984 -3.6359 -2.2633 
opchedaiin -13.083 1.1407 -6.5035 10.057 9.4723 -3.341 8.9533 5.7667 10.202 -2.1066 
okodar 4.2946 9.1906 -7.254 11.757 0.32107 14.525 -8.3568 -9.2348 11.015 -17.419 
shodain 1.4912 1.7022 -8.3462 6.4759 -1.8256 10.35 0.27729 8.437 4.4322 -9.3998 
kshedy -5.3717 -6.3613 -9.7215 7.2811 -0.51066 -6.3778 8.269 13.086 1.6434 -10.117 
oksho 16.481 -4.537 13.818 -3.5028 -16.644 24.133 -7.6743 -1.2693 -9.8873 -13.419 
chockhey -0.46393 3.6304 5.8168 3.7985 4.1547 8.4387 6.4987 0.81263 8.6361 0.72769 
cheoty -7.4243 -3.9111 -5.6089 -10.828 5.1068 -0.67398 -5.558 -1.4717 2.6788 -16.233 
dairal 5.0991 -4.8559 -15.786 -5.0305 2.8663 10.696 -8.1939 0.020851 1.9145 -12.791 
shokey 13.083 1.3699 2.4907 -4.0898 -2.4794 14.919 3.4811 -4.9204 10.075 -16.494 
otarar -1.5135 -1.3952 0.83987 -3.2124 2.5798 -0.85442 -7.7121 -12.902 -2.1475 -2.4158 
ysheedy -0.7588 -8.4841 -8.7645 1.9262 -2.9147 11.057 5.2036 -14.746 -3.0983 -5.7241 
ydain 3.5067 -3.0939 -2.1973 3.2775 -2.9343 -4.4989 -8.4026 8.4833 -4.1013 -8.5807 
qoal 9.9712 -9.4466 -4.9172 15.986 -10.941 1.9139 5.991 -8.0064 -0.023921 -23.366 
chep 7.666 -0.48271 -8.0796 14.782 -25.442 12.39 19.037 6.4502 -9.2879 -1.7604 
saral -9.946 -0.49127 0.0083171 2.6422 19.148 -24.556 -11.046 8.1476 7.7205 -2.0096 
chotam 5.7871 4.504 -5.1873 2.5988 7.91 7.4154 -3.4086 -8.0895 8.9924 1.5835 
alkar -0.71554 1.77 -9.4121 -0.5341 -18.962 -13.295 7.2926 -13.52 -4.839 -22.115 
chokor 1.5332 5.6707 4.0766 -6.0165 -0.32673 8.1842 -4.4608 3.7524 1.1478 0.86291 
qop -7.086 -5.7912 13.576 -10.317 -22.436 -6.1562 17.801 -8.7662 -11.51 -16.655 
soin -3.9596 11.785 -5.8098 -1.972 -10.844 -10.885 10.764 4.7128 3.0647 -6.3462 
cheod -13.604 5.5718 17.557 -1.0892 -0.94507 1.0999 13.403 -7.3685 1.4111 8.6283 
yto -3.5978 19.459 -9.0274 27.267 14.453 4.2917 -25.209 1.4128 4.6589 24.229 
ycho -2.0597 8.3337 -7.288 -11.911 3.3007 21.449 -15.831 16.988 4.9824 -11.65 
sheodaiin -7.8427 6.4786 2.3531 2.4556 10.297 2.3285 -8.0148 4.3692 0.32671 17.987 
chaly 15.276 -16.828 -7.0542 9.0005 17.825 9.7018 1.3739 2.926 12.862 -7.9891 
lkchdy -0.94015 0.12424 -11.666 -2.0669 -9.2862 6.0298 -2.0499 -10.999 -8.269 -2.1538 
cheocthy -12.768 10.221 5.0849 -5.7699 -5.1911 2.2553 1.2254 4.3561 -7.6504 16.416 
dalchdy -16.005 -13.862 -8.6494 12.475 9.8245 7.8975 4.8135 8.73 2.2171 -8.9123 
ksheody -5.5201 -1.6803 4.207 -5.227 6.7957 15.466 -4.3669 3.5288 3.8452 -5.8783 
chetain 12.401 -5.0639 -14.96 -14.198 0.61908 -4.0635 4.2721 8.3778 3.0849 -6.0911 
opcheey -8.4433 -9.32 2.1593 -4.7094 12.945 3.9631 5.1042 14.396 5.5509 -1.447 
shok 5.0981 4.1231 -18.913 -4.0319 18.621 7.5606 -15.254 20.001 9.8314 7.523 
shockhy 2.6239 -3.7044 -2.637 -5.1388 15.836 18.891 -20.537 3.6108 3.3324 -0.49131 
otodaiin -8.5958 4.5232 -6.121 7.4173 1.6077 13.581 -2.9665 -8.5699 -3.1794 12.199 
deedy 4.0362 0.078778 -9.8705 0.32772 -5.0859 -1.8857 6.9848 -8.4568 -7.1743 16.773 
shokal 21.544 -7.5029 -1.3697 -3.6939 -3.9707 7.5385 -7.1364 -15.636 -2.7292 -8.0211 
shcthey 6.7574 -3.9671 -11.388 1.3743 2.2152 9.536 1.3624 9.1746 4.7718 -6.8179 
saiir 10.088 -11.355 -1.4158 -7.6068 11.576 11.209 -15.712 -12.113 1.0297 -7.575 
cheoly -0.1088 3.6254 -20.828 -4.5607 12.244 0.5229 0.20642 13.377 15.514 -9.862 
cto 14.56 -5.3933 30.047 8.6376 -27.751 25.702 -8.6319 -17.397 -21.904 -7.8761 
ypchdy -28.186 -13.657 3.1306 17.704 8.6468 2.9821 -6.2526 0.096093 -7.3501 -7.183 
otedal -8.235 -0.38796 -0.86249 18.958 5.3713 -2.1384 14.51 -14.984 8.2724 2.3875 
lam 5.3925 2.9393 -19.072 17 -3.1327 -9.6261 21.289 -4.6954 6.4983 9.0108 
chekchy 0.90511 -3.2094 7.102 -5.366 -1.4867 9.0469 -0.27086 -17.54 -4.1726 2.1566 
qopar -10.488 4.6838 -15.905 13.865 -11.445 8.5699 -11.375 -12.839 -19.537 15.943 
cholkaiin -9.7601 -1.6178 -6.0822 1.7512 1.7176 -5.0141 -4.1683 8.6226 -3.4779 -1.9706 
doly 20.818 -18.792 8.6633 -5.3493 -9.9408 23.679 -4.3283 -10.447 -3.7221 -31.354 
tshdy 13.152 -2.384 -6.4139 13.221 -11.877 -4.6279 -11.813 -13.299 -19.284 16.843 
oteotey 4.4282 9.1483 -18.181 2.117 13.933 7.9042 -4.664 -7.6087 17.096 -2.2126 
chd 22.772 -19.986 14.841 13.709 -32.097 18.103 4.7208 -24.11 -18.648 -28.677 
ctheo -0.35207 18.81 4.5654 -10.119 1.3169 5.1511 1.347 1.6731 12.307 -0.020609 
chekedy 5.6276 -10.315 10.73 22.545 -0.14234 1.9412 13.775 -9.0495 -5.3864 20.057 
opchor -5.8428 -2.7613 13.831 10.743 -3.6356 6.1612 4.6924 0.70787 -2.318 -2.5993 
otedaiin 2.1324 4.134 -14.913 15.055 5.2492 0.39308 -1.8652 -11.758 5.0664 5.5747 
pchedal -4.3898 -4.5524 -24.192 4.55 -5.1339 8.0795 -2.9636 9.1621 -8.5567 -1.4779 
cheedar -4.8955 2.0232 -1.6033 -4.58 -5.551 -4.959 16.256 -16.813 -2.7222 10.41 
dsheedy -1.2812 -4.4327 -12.098 6.08 14.027 -5.8217 12.829 7.1409 7.9838 15.701 
oldam -2.2626 5.0523 6.9372 0.99952 -1.1761 -11.673 -21.103 -5.601 -12.247 9.8133 
eedy 21.058 -12.935 0.98743 10.01 4.8348 5.7122 4.0477 1.4128 1.2501 7.2605 
okeodar 8.0145 5.7924 -5.1144 7.2101 14.941 15.553 -2.9013 -12.73 19.411 -4.9563 
shory 0.31623 7.6013 0.69021 -19.391 0.75422 -1.9023 -15.862 22.525 0.92392 -10.986 
qotched -7.8984 -5.3404 -5.7675 1.9291 -9.5436 27.514 6.9328 1.2172 -8.6992 -0.98275 
ofchdy -13.909 -10.314 -10.21 10.965 12.755 9.9268 -5.1985 9.5994 -3.5785 8.554 
chedol 0.37996 -9.878 -12.84 -8.2877 -7.5131 6.6156 4.8157 -5.6385 -10.809 -0.029188 
olkchedy -2.4086 -4.806 -7.4523 -5.7407 4.6345 -17.587 0.40177 -15.715 -2.7288 3.4182 
psheody -17.376 1.6879 2.8331 -0.069122 13.251 -1.1607 0.32702 -5.1174 5.9247 4.0995 
otechdy -8.6148 -1.2976 -15.062 -16.661 8.5888 8.0628 -25.295 -2.3198 -15.526 19.786 
kcheody -10.002 5.7471 5.6377 -4.2856 6.3353 -5.6114 1.2825 5.3141 4.3006 4.6691 
chary 10.51 9.2394 8.2366 3.9625 -11.106 -17.52 6.6835 -3.7679 2.2136 -3.6132 
ykchor -2.4858 1.7922 17.098 -3.2196 1.6701 3.0912 -25.274 4.8534 -5.4329 -10.746 
qoeol 15.837 1.8281 14.29 -13.195 1.366 -4.7958 -7.3113 -7.3107 -2.9559 12.014 
