3410 10
daiin 0.48116 0.14753 0.22645 0.20962 -0.016116 -0.40575 0.129 0.059953 -0.21376 0.59129 
ol 0.36986 0.1212 0.45058 -0.20362 -0.062767 -0.54186 0.024676 -0.62688 -0.030349 0.1217 
chedy 0.22587 -0.33523 0.49835 0.13399 0.24115 -0.69953 0.27677 -0.89855 -0.034004 -0.25303 
shedy 0.51181 -0.28046 0.57893 -0.13636 0.41583 -0.64584 0.066645 -0.97572 -0.25523 -0.19082 
aiin 0.29156 -0.10826 -0.075817 0.30614 -0.15451 -0.60095 0.21 -0.2693 0.4598 0.091303 
chol 0.4617 0.25423 0.17514 0.15038 -0.23634 -0.49378 0.18583 0.23998 -0.10194 0.94517 
chey 0.15246 -0.035462 0.38259 -0.17706 0.0020658 -0.5235 0.097254 -0.48641 0.13459 0.43652 
or 0.47133 0.19167 0.084148 0.066324 -0.11445 -0.53964 0.21981 -0.32845 0.21024 -0.05664 
ar 0.36544 -0.047032 -0.18435 0.25617 0.013197 -0.62029 0.21344 -0.39372 0.49004 -0.024511 
qokeedy 0.32529 -0.45455 0.84906 0.10552 0.12757 -0.34673 0.37428 -1.1904 -0.1489 0.0008253 
qokaiin 0.29043 -0.31642 0.11196 0.026384 -0.19465 -0.66568 0.085319 -0.78953 -0.36 0.10558 
dar 0.48562 0.29791 0.19191 0.16962 0.23629 -0.56965 0.043872 -0.20864 -0.036612 0.086464 
qokeey 0.21435 -0.36743 0.5636 0.097619 -0.088384 -0.25656 0.24586 -0.98735 0.091313 0.30182 
qokedy 0.41331 -0.36369 0.9316 0.082513 0.51739 -0.57117 0.31354 -1.0379 -0.26879 -0.23558 
shey 0.55895 -0.1139 0.32635 -0.22346 -0.089489 -0.37902 -0.13276 -0.56155 -0.18135 0.39786 
dy 0.6234 0.29778 0.42923 0.064713 0.42518 -0.55617 -0.013233 0.099316 -0.15632 0.37215 
dal 0.41839 0.25221 0.32686 0.26128 0.14392 -0.37403 -0.096101 -0.38672 -0.10427 0.27265 
s 0.31755 0.43336 -0.055414 0.40175 0.042208 -0.51034 0.31632 0.11442 0.2028 0.62846 
al 0.17698 -0.14126 -0.092824 0.32439 -0.096519 -0.52222 0.21298 -0.57661 0.53773 0.16698 
okaiin 0.26221 -0.04836 -0.095912 0.069281 -0.27386 -0.68211 0.041939 -0.48313 -0.010646 0.1947 
chor 0.50676 0.35493 0.1709 0.10197 -0.42373 -0.64854 0.21379 0.48377 -0.11902 1.1932 
qokal 0.32692 0.040024 0.46663 0.019271 -0.035464 -0.67172 -0.19919 -0.99951 -0.29491 -0.049508 
shol 0.62829 0.010956 -0.0087024 0.069033 0.19754 -0.52942 0.15324 0.19503 -0.34986 0.73306 
y 0.3051 0.37919 -0.076893 -0.044708 0.28903 -0.68889 0.11954 -0.23673 0.025134 0.37857 
</s> 0.36144 0.015718 0.10338 0.21399 -0.085984 -0.44551 0.15969 -0.11792 0.082016 0.27805 
cheey 0.24537 -0.11796 0.33067 0.092078 -0.34722 -0.33482 0.30426 -0.51031 -0.016092 0.37383 
okeey 0.18319 0.041996 0.29717 0.31411 -0.32451 -0.27359 0.093955 -0.81288 0.63236 0.3051 
qol 0.40752 0.04892 0.96443 -0.45727 -0.11373 -0.6576 0.050672 -1.3542 -0.29995 0.023477 
otaiin 0.41821 -0.37348 -0.29602 0.26564 0.046469 -0.55694 0.31874 -0.2808 -0.028902 0.27131 
cheol 0.16756 0.032642 0.54435 0.21095 -0.4798 -0.31087 0.097105 -0.40447 0.10329 0.42801 
otedy 0.55416 -0.26079 0.74416 0.51374 0.67429 -0.37284 0.35223 -0.77409 0.17929 -0.35896 
qokar 0.42545 -0.30264 0.26369 0.048483 0.020977 -0.92274 -0.023221 -0.50651 -0.18487 -0.3107 
chy 0.35761 0.31494 0.2927 0.0085122 0.18633 -0.77744 0.17334 0.34735 -0.080109 0.88976 
qoky 0.28566 -0.064568 0.54308 -0.12677 0.18151 -0.69872 0.039735 -0.41831 -0.38273 0.21056 
okal 0.41593 0.281 -0.19396 0.23996 0.1268 -0.68835 -0.011228 -0.55815 0.23741 -0.03543 
sheey 0.58212 -0.20428 0.25204 0.11044 -0.47662 -0.20009 -0.054773 -0.36543 0.075546 0.40286 
chdy 0.49106 -0.056936 0.18699 0.21396 0.4621 -0.78145 0.064847 -0.35042 0.10826 -0.24585 
chckhy 0.30297 0.11473 0.1259 -0.13812 0.17818 -0.73507 0.21716 -0.56203 -0.15062 0.046386 
otar 0.36358 -0.097852 0.093807 0.39907 0.18447 -0.69645 0.028726 -0.42582 0.25748 -0.2475 
saiin 0.274 0.10178 0.075688 0.065787 -0.095749 -0.29892 0.44878 -0.69223 0.10911 0.28577 
otal 0.39162 -0.086058 -0.28565 0.32929 0.10905 -0.76682 -0.21557 -0.5888 0.17573 -0.078103 
qokain 0.36893 -0.1364 0.48495 -0.26081 0.098476 -0.86169 -0.058651 -1.1922 -0.34699 -0.093814 
oteey 0.26274 -0.061953 0.26701 0.052434 -0.15427 -0.37669 0.28701 -0.55315 0.83136 0.13905 
okar 0.60664 0.16393 -0.12085 0.2817 0.10124 -0.70469 0.10638 -0.41392 0.10855 -0.31056 
okedy 0.42219 -0.05827 0.70332 0.3721 0.71854 -0.38589 0.27032 -0.92851 0.26655 -0.20573 
sho 0.62242 0.20297 0.25406 0.39031 0.13015 -0.39347 0.46116 0.46941 -0.16498 1.259 
dain 0.58144 0.27452 0.20446 -0.068935 0.23798 -0.53508 -0.095704 -0.01495 -0.25067 0.74681 
qokai!n 0.38174 -0.31318 0.40891 -0.39383 -0.16646 -0.79642 0.11138 -1.2017 -0.48459 0.050226 
oty 0.83 0.1774 0.023068 0.015905 0.15167 -0.59841 -0.082815 0.043945 -0.073598 0.19185 
r 0.17622 0.27217 0.13903 -0.21561 0.31903 -0.52672 0.33633 -0.33331 0.23712 0.64479 
lchedy 0.13348 -0.65028 0.55585 -0.037446 0.058975 -0.65226 0.30532 -1.0968 -0.1258 0.084861 
okeedy 0.30044 -0.10974 0.38383 0.34961 0.17869 -0.3884 0.19553 -1.0945 0.27313 -0.17464 
dol 0.2979 0.36733 0.80037 0.6082 0.32548 -0.26896 0.12063 -0.24046 -0.47511 0.59838 
qokey 0.38084 0.20285 0.73126 -0.085713 -0.040849 -0.39149 -0.20616 -1.0345 0.13087 0.17491 
cthy 0.65278 0.53259 0.079917 0.12229 -0.14712 -1.0523 0.00089507 0.61664 -0.4504 1.1712 
sheol 0.69953 0.13955 0.83468 0.19989 -0.63021 -0.010983 0.012343 -0.51714 -0.029485 0.18425 
qotedy 0.56616 -0.34926 1.2197 0.20234 0.61536 -0.40367 0.2931 -0.78458 -0.072745 -0.25194 
o 0.18048 0.27017 -0.24296 -0.09525 0.3808 -0.69545 0.42022 -0.18418 0.5051 0.69062 
dair 0.49643 -0.11274 -0.06934 0.61208 0.40401 -0.37623 0.17835 -0.0061844 0.23889 0.37525 
qokol 0.7556 0.43362 0.35027 0.28891 -0.16986 -0.36618 0.051755 -0.24004 -0.44677 0.12245 
l 0.01926 -0.023181 -0.02693 0.0013668 0.36408 -0.46184 0.40146 -0.75155 0.13956 0.61226 
shor 0.69305 -0.075823 -0.22221 0.32794 -0.17117 -0.76973 0.088786 0.48311 -0.45711 0.91095 
shy 0.40697 0.11878 0.36341 -0.18397 0.18596 -0.92233 -0.064198 0.40537 -0.042227 0.77762 
oteedy 0.56475 -0.48925 0.53756 0.21926 0.01421 -0.21211 0.409 -0.78533 0.4331 -0.14275 
oky 0.59294 0.50107 -0.083092 0.26884 0.065057 -0.76549 -0.080651 0.015844 -0.028013 0.17198 
cheor 0.26645 0.28676 0.52452 0.25884 -0.38129 -0.29862 0.036296 -0.035993 0.22067 0.77723 
dam 0.61172 0.29325 0.19905 0.67714 0.36709 -0.36601 0.15988 0.041803 -0.033073 0.22615 
chody 0.48474 0.24427 0.099414 0.80035 0.3157 -0.45645 0.31695 0.1738 -0.0032883 0.41904 
qotaiin 0.33169 -0.76046 0.26437 0.31778 -0.099718 -0.58513 0.18955 -0.40502 -0.38082 0.20023 
qoty 0.49412 -0.11804 0.43515 0.063188 0.30603 -0.56111 0.08268 -0.32881 -0.8635 0.53179 
sheedy 0.52243 -0.57171 0.69256 -0.025097 0.010834 -0.59528 0.13028 -0.87324 -0.016799 -0.31249 
am 0.54568 -0.015146 -0.2984 0.21821 0.06799 -0.54768 0.22271 -0.30505 0.57065 0.022326 
kaiin 0.42994 -0.29637 -0.21347 0.053354 -0.35618 -0.86091 -0.17373 -0.2442 -0.18138 0.2417 
cheody 0.6123 -0.4479 0.17063 0.9507 -0.40043 -0.2108 0.12342 -0.011353 0.43189 0.36884 
otol 0.82751 0.25416 -0.061346 0.1951 0.28871 -0.261 0.007446 -0.05381 0.073405 0.57775 
chcthy 0.35312 0.031305 0.31145 -0.018613 0.164 -0.72881 0.2761 -0.29823 -0.41959 0.094346 
qoteedy 0.49155 -0.71534 1.0072 0.12483 0.25302 -0.34364 0.64285 -1.0666 -0.070886 -0.14176 
char 0.18581 0.27263 -0.31446 -0.012656 -0.35614 -0.71364 0.29191 -0.25066 0.20225 0.5158 
sar 0.32637 0.30614 0.0062686 0.0052212 -0.12791 -0.32858 0.66892 -0.60928 0.66246 0.11702 
qokchy 0.97598 0.25154 0.20905 0.017597 -0.15686 -0.6778 0.23653 0.38228 -0.74035 0.46296 
okol 0.69151 0.84705 -0.057964 0.2668 -0.47424 -0.36719 -0.092405 -0.18999 0.0069064 0.65768 
cheo 0.37883 -0.3458 0.1899 0.42353 -0.30373 -0.15779 0.71056 0.023572 0.31873 0.71591 
air 0.64784 0.038493 -0.27354 0.5927 0.24489 -0.42377 0.35622 -0.25355 0.66756 -0.032212 
dor 0.28794 0.39488 0.39141 0.33714 0.09577 -0.91505 0.35867 0.45143 -0.43448 0.56537 
okain 0.28437 0.018278 -0.17073 -0.049879 0.35636 -0.71638 -0.14976 -0.94446 -0.14765 0.35126 
raiin 0.053035 -0.6524 0.34335 0.025517 -0.63062 -0.67867 0.57511 -0.31299 0.14973 0.27359 
qotchy 0.96785 0.242 0.49109 0.068102 0.41615 -0.72263 0.41837 0.608 -0.74354 1.0328 
cho 0.14793 0.17145 0.26153 0.39354 -0.039747 -0.40971 0.60534 0.25562 0.24626 1.207 
qotal 0.44714 -0.1526 0.38241 0.59093 0.15687 -0.37696 0.078145 -0.97743 -0.62529 0.00027326 
sol 0.25419 0.085579 0.63856 0.20112 0.0078517 -0.45752 0.019399 -0.64538 -0.33352 0.14593 
cheky 0.091512 0.33378 0.42695 0.2552 0.26912 -0.76117 0.27953 -0.362 0.28693 -0.097765 
okey 0.43376 0.37519 0.41349 0.14716 0.34006 -0.17544 -0.1477 -0.86909 0.8906 0.48145 
qotar 0.576 -0.82808 0.30425 0.37173 0.2622 -0.86828 -0.18789 -0.24238 0.028564 -0.22574 
keedy 0.49966 -0.42722 0.77676 -0.17502 0.49254 -0.54435 0.21832 -0.67955 0.44843 -0.24566 
cheedy -0.033117 -0.58335 0.98124 0.39391 -0.069621 -0.57242 0.33407 -0.97442 0.10542 -0.077049 
cthol 0.56671 0.54878 0.16206 0.42409 -0.55135 -0.86409 0.10762 0.34383 -0.9152 1.5365 
okeol 0.29046 0.47522 -0.0040084 0.47801 -0.64176 -0.29018 0.16898 -0.3673 0.6586 0.69747 
shckhy 0.42131 0.099373 0.44791 -0.23857 0.23522 -0.68726 -0.044958 -1.0152 0.078764 -0.081699 
dai!n 0.21566 -0.020954 0.34014 0.10864 -0.072636 -0.64197 -0.21979 -0.65297 -0.023336 0.14936 
odaiin 0.67377 0.09333 -0.41267 0.66901 -0.37448 -0.47336 0.31552 0.17096 0.24534 0.35637 
kar 0.9424 -0.043115 -0.72864 -0.039801 -0.10129 -0.92263 -0.15588 -0.41744 0.29257 -0.17776 
oly 0.43208 0.3952 0.54331 -0.11802 0.45199 -0.46363 0.30731 -0.61819 -0.12479 0.14448 
qokchdy 1.0792 -0.44116 0.02451 -0.22446 0.092073 -0.98272 0.77384 -0.44391 -0.16392 -0.77048 
otey 0.63529 -0.083371 0.17945 0.16464 0.71279 -0.28928 0.0079748 -0.77973 0.33219 0.15474 
okai!n 0.28183 -0.37603 0.049458 -0.1345 -0.23058 -0.6201 0.21693 -1.185 -0.0045259 0.10221 
ain 0.49118 0.10431 0.074778 -0.45694 -0.028191 -0.58345 0.15922 -0.52699 0.5515 0.17332 
ykeey 0.159 0.33467 0.37255 0.52208 -0.24269 -0.3314 0.15219 -0.44522 0.21407 0.35393 
checkhy 0.080099 0.088935 0.66021 -0.16686 0.11754 -0.34977 0.4167 -1.2561 0.069753 0.39092 
shody 1.1748 -0.12305 0.016229 1.0828 -0.14788 -0.12029 -0.002181 0.19506 -0.39553 0.51963 
chear 0.0016803 -0.018708 -0.2783 0.1865 -0.46178 -0.59578 -0.35176 -0.68097 0.25475 0.99968 
sal 0.74491 0.14758 0.83133 -0.14577 -0.087355 -0.17708 -0.36574 -0.47834 0.40846 0.26746 
lkaiin 0.3663 -0.86724 -0.36215 -0.23226 -0.44693 -0.74493 0.27523 -0.78479 0.30902 0.44667 
cthey 0.37922 0.49718 -0.021656 0.46 -0.32874 -0.32992 0.43675 -0.0083827 0.052171 0.75038 
keey 0.11091 -0.018033 0.21166 0.39243 -0.16877 -0.12666 0.19697 -0.54575 0.39981 1.0186 
olaiin 0.59335 0.25833 -0.36482 0.071377 -0.29379 -0.56332 0.41464 -0.67802 0.49933 -0.23308 
opchedy 1.4225 -0.69159 -0.28615 -0.13587 0.64524 -0.65373 0.53639 -0.53427 -0.40505 -0.36205 
sheor 0.30242 0.048237 0.35614 0.21097 -0.42092 -0.344 -0.16143 -0.36018 -0.086815 0.54186 
kedy 0.56411 -0.25395 0.3012 -0.11421 0.74133 -0.54936 0.34803 -1.0595 -0.13477 -0.050842 
qokeol 0.19091 0.35263 0.49731 0.64344 -0.56129 -0.036922 -0.17533 -0.65235 0.46716 0.99204 
tedy 0.6681 -0.062829 0.85725 0.20454 0.82666 -0.70743 0.044219 -1.1196 0.14357 -0.60826 
d 0.1812 0.74483 0.26871 -0.23739 0.82107 -0.78806 0.44471 -0.14296 0.20158 1.1118 
tol 0.72267 0.084047 0.38267 0.55122 -0.042294 -0.35884 0.045091 0.037125 -0.35196 0.15425 
sor 0.58006 0.37798 0.032167 0.014816 0.051327 -0.51738 0.14671 -0.31045 -0.12461 0.18722 
cthor 0.92047 0.30061 0.2592 -0.31669 -0.044438 -1.1231 -0.36526 0.56297 -0.53723 1.4233 
otchy 1.1239 0.207 0.10022 0.064816 0.65705 -0.58918 0.48359 0.49777 -0.18419 0.61191 
chal 0.64679 -0.06545 -0.46519 0.077954 -0.2546 -0.18745 0.32947 -0.97575 -0.31532 0.53659 
qotol 0.8139 -0.10207 1.1375 0.58183 0.133 -0.42442 0.23976 0.26848 -0.81339 0.30642 
shdy 0.66913 -0.47947 0.5323 0.48782 0.92261 -0.69677 -0.33427 -0.30595 -0.021325 -0.070362 
taiin 0.3061 -0.31616 -0.059623 0.14403 -0.32884 -0.75719 0.2372 -0.1839 -0.47863 0.37766 
chaiin 0.2735 -0.22642 -0.084323 -0.021962 0.060821 -0.97641 0.21407 0.28936 -0.37635 1.5662 
sheody 0.94691 -0.65764 0.18961 0.98117 -0.16094 -0.25045 0.13441 0.36035 0.41705 0.31058 
otam 0.14596 -0.091218 0.52821 0.91104 0.13515 -0.72106 0.46155 0.053618 0.13942 -0.19159 
sheo 0.65486 0.17092 -0.24204 0.38305 -0.66366 -0.039151 0.52433 -0.27893 0.37032 0.70971 
ykaiin 0.56857 -0.039568 -0.35192 0.2668 -0.20222 -1.2764 0.14229 0.17271 -0.12546 -0.25317 
tar 1.0473 -0.21522 -0.32898 -0.20259 -0.046304 -0.42273 -0.047528 -0.47889 0.20998 0.10514 
lchey 0.33292 -0.2006 0.73469 -0.64904 -0.16588 -0.49648 0.71406 -0.90201 0.0626 0.20851 
ody 0.69924 -0.079976 0.23499 0.3855 0.35452 -0.81718 -0.20712 0.32923 0.54974 0.065857 
otai!n 0.39312 -0.18921 -0.40593 -0.39636 -0.37397 -0.7919 0.26859 -1.1933 -0.046818 0.17794 
olkeedy 0.30639 -0.35952 0.29773 0.96896 -0.034807 -0.59289 -0.079773 -1.2876 -0.22896 -0.34928 
ytaiin 0.67846 -0.51869 -0.53388 0.61842 0.2816 -0.99341 -0.034039 0.14596 -0.15222 0.14802 
chodaiin 0.70605 -0.16903 0.3548 0.45785 -0.25054 -0.40544 0.25324 0.59187 -0.098324 0.7899 
qoteey 0.49642 -0.69861 0.73395 0.016047 0.17571 -0.11253 0.53175 -0.31943 0.019708 0.71029 
lol 0.51656 -0.272 0.61045 -0.4509 0.15907 -0.66808 0.38616 -0.9626 -0.30354 -0.024137 
oteol 0.64965 0.75648 0.066767 0.42893 0.18973 0.022438 0.3267 -0.57893 0.50525 0.43769 
olchedy 0.011702 0.23259 0.72888 0.39587 -0.25201 -0.88033 0.25595 -1.5424 -0.28949 -0.3905 
olkeey 0.24905 -0.53702 0.91255 -0.55289 -0.38369 -0.78895 -0.17989 -0.98479 0.41971 0.16011 
qodaiin 0.65809 -0.26525 -0.088088 0.6635 -0.59275 -0.61542 0.76679 0.20622 -0.37327 -0.004404 
lshedy 0.47775 -0.084206 1.5017 -0.090354 0.26889 -0.26969 -0.072802 -0.9722 -0.087699 0.24862 
dshedy 0.57186 -0.2928 1.3126 0.22022 0.83931 -0.78517 0.39854 -0.63341 -0.062131 -0.52042 
lor 0.029774 -0.18644 0.50585 -0.18193 -0.56789 -0.75365 0.32251 -0.80625 0.25276 0.061737 
choty 1.0134 0.21881 0.30689 0.30334 0.3087 -0.14707 0.20044 0.10325 -0.50772 1.0486 
choky 1.1255 0.55545 0.40187 0.49885 0.47009 -0.28947 -0.26309 0.34422 0.058104 0.92127 
olkaiin 0.97902 -0.047343 -0.71475 -0.29934 -0.54936 -1.0474 0.36542 -0.74639 -0.054173 -0.4362 
ckhy 0.54198 0.47738 0.22574 0.42555 -0.072629 -0.70106 0.11488 0.58616 0.097785 0.8522 
sheky -0.20341 -0.11844 0.0016719 -0.11662 0.46015 -1.3771 -0.31452 -0.49291 0.23154 0.35497 
lkeey -0.011287 -0.97619 0.42154 0.19392 -0.26983 -0.43474 0.48843 -1.2306 0.49353 0.4524 
sheckhy 0.50352 -0.45701 0.85225 -0.63434 -0.05562 -0.69756 -0.2986 -1.2927 -0.24867 0.35804 
otor 1.0056 -0.056612 -0.083708 0.85865 0.37238 -0.32869 0.036789 0.094291 -0.37043 0.35811 
lkeedy 0.035997 -0.79182 0.28397 0.39848 0.15435 -0.31078 0.48039 -1.423 0.43807 0.47019 
kol 0.15494 0.56696 0.38972 0.46675 0.27525 -0.93304 0.03355 0.42756 -0.097074 0.68201 
otain 0.51494 -0.15167 -0.3548 -0.33572 0.026282 -0.65061 0.3779 -0.94886 0.17299 0.14404 
ches 0.57063 -0.21845 0.22515 -0.67008 -0.062402 -0.4237 -0.049949 -0.47154 0.4147 0.67036 
qokchedy 0.51155 -0.5743 0.34128 0.85895 -0.19091 -0.44371 0.47653 -0.68246 -0.66735 -0.17465 
qo 0.19166 0.099804 0.85124 0.077599 0.23484 -0.37493 0.04229 -0.4694 -0.24585 0.57168 
chos 0.74767 0.057404 -0.19644 0.97991 -0.92215 -0.28646 0.088975 0.083731 0.10748 0.54955 
chedaiin 0.24824 -0.68696 -0.028959 0.64939 -0.1977 -0.5647 0.5746 -0.66241 0.17979 -0.14776 
oraiin 0.63349 -0.24466 0.057533 0.18504 -0.41208 -0.26187 0.50501 -0.29681 0.2015 0.13528 
shar 1.3206 -0.49688 -0.57966 -0.48093 -0.33885 -0.83316 -0.45456 -0.23428 -0.06404 0.37715 
okeody 0.46508 -0.10164 0.18609 1.0545 -0.002768 -0.4085 -0.45178 -0.18669 1.2861 0.53239 
qokor 0.23207 0.15368 0.35629 0.8287 -0.25498 -0.60026 0.79292 0.12127 -0.47633 0.20897 
oteody 0.72244 0.019377 0.37706 1.2273 0.44253 -0.08073 0.13866 -0.30788 1.1948 0.16972 
chees 0.033559 0.021285 0.2422 0.0395 -0.087059 -1.0917 0.12215 0.081233 0.27031 0.095678 
otchey 0.52598 0.033009 0.079917 -0.11793 0.28587 -0.35947 0.98629 -0.12485 -0.078915 0.54975 
chckhey -0.11787 -0.25196 0.27143 -0.047234 -0.18209 -0.65159 0.27385 -0.75032 0.25853 0.34175 
tchedy 0.29752 -1.2354 0.39389 0.46239 0.52071 -0.81176 0.4311 -0.37678 -0.32899 0.079412 
cheal 0.2303 -0.32346 0.030121 -0.08768 -0.052173 -0.30927 -0.099654 -1.0533 -0.086312 0.94178 
checthy -0.093459 0.097958 0.57015 0.17553 0.28634 -0.54692 0.49711 -1.5498 -0.36892 0.36318 
kchy 1.4877 0.14791 0.72606 -0.044051 0.54867 -0.66521 0.45805 0.91918 -0.47092 1.2447 
aiiin 0.48312 -0.079532 -0.37076 0.2963 -0.48776 -0.69913 0.33745 -0.63854 0.23003 -0.23188 
okor 0.60662 0.71746 0.72509 0.82582 0.011135 -0.37523 -0.036108 0.3545 0.57689 0.35113 
shcthy 0.88439 -0.27618 0.88733 -0.29345 0.14867 -0.66022 -0.35112 -0.54647 -0.89797 0.35848 
okchey -0.18733 0.57559 -0.10366 0.23683 -0.14872 -0.90344 0.28228 -0.3996 -0.30854 0.73659 
qokeody 0.36668 0.22325 0.7672 1.2213 -0.51813 -0.12732 0.62961 0.044301 0.80509 0.4285 
okchy 0.97321 0.7149 0.54987 -0.14027 0.25812 -0.64292 0.17649 0.31781 0.15709 0.16499 
ykar 0.4754 0.31518 -0.34588 0.50839 0.22437 -1.2917 0.37752 -0.053655 -0.006442 -0.4075 
ai!n 0.18274 -0.45764 -0.019466 -0.19505 -0.24796 -0.7138 0.092538 -0.98579 0.31673 0.20998 
olor 0.45497 0.28424 0.25363 -0.39378 0.18598 -0.88607 0.21057 -0.58238 -0.35107 0.0012325 
olkedy 1.2926 -0.066458 0.86615 0.046127 0.058628 -0.36752 -0.25819 -1.669 -0.25178 -0.52897 
pchedy 0.95136 -0.97586 -0.010309 -0.031337 0.61648 -0.87937 -0.37558 -0.87955 -0.045372 -0.23845 
ckhey 0.91469 0.86119 0.18294 0.49461 -0.61373 -0.10253 -0.03309 -0.0011688 0.43142 1.1547 
qopchedy 1.2144 -1.429 0.61727 0.65846 0.22859 -0.35793 -0.16475 -0.50233 0.40514 -0.29078 
kal 0.56889 -0.15277 0.36542 0.10086 0.13783 -0.9435 -0.22456 -0.093596 0.16508 -0.33714 
cheos 0.061586 0.036584 -0.16181 1.1212 -0.42221 -0.30572 0.4623 -0.41382 0.55774 0.59966 
otchedy 0.52476 -0.9756 0.47349 0.60988 0.4238 -0.52007 1.1549 -0.31161 0.079014 -0.25404 
lkar 0.073142 -0.53852 -0.14703 -0.19561 0.20721 -0.8537 0.67122 -0.70883 0.19827 0.28161 
chedar 0.074695 -0.64484 0.23848 0.49737 -0.079209 -0.45375 0.90753 -0.92818 0.35685 0.044291 
sai!n 0.52842 -0.44636 -0.081391 -0.10342 0.054743 -0.55092 0.10653 -1.3553 0.19522 -0.022397 
dchy 1.4044 1.0102 0.40748 0.07293 0.25552 -0.4443 -0.42 0.39877 0.12137 1.4385 
daly 1.404 0.75514 0.44377 -0.096856 -0.046393 -0.011389 0.21582 -0.6072 0.18723 -0.15021 
dchedy 0.71271 -0.34472 0.56433 0.041474 0.49037 -0.75655 0.35005 -0.70873 0.22098 -0.66277 
otchol 1.6515 0.20772 -0.078233 0.37118 -0.40234 -0.91394 0.49088 1.3821 -0.1155 1.1803 
opchey 1.632 -0.23129 -0.036177 -0.23633 0.54294 -0.32804 -0.13241 -0.27613 -0.14683 0.085626 
qokchey 0.75581 -0.46044 0.14361 -0.39167 -0.69624 -0.4478 1.3818 -0.26364 -0.016002 0.24155 
otchdy 1.0544 -0.5116 0.37318 0.5327 0.39942 -0.68706 -0.10427 0.081792 0.50697 -0.48094 
okam 0.2532 0.50551 -0.29197 0.32945 0.48398 -0.74111 0.6264 -0.38409 0.61965 0.052745 
yteedy 0.48684 -0.39271 0.25139 0.64253 0.95908 -0.43017 0.20377 -0.65405 0.379 -0.045012 
oiin 0.45797 0.32753 0.10646 0.07617 -0.17433 -0.67122 -0.45688 -0.30028 0.21638 0.34034 
qotai!n 0.25393 -1.0003 0.34393 0.013056 0.22533 -0.83604 0.04736 -1.186 -0.56431 0.24836 
olchey 0.10653 0.55649 1.0502 -0.42369 0.39693 -0.37585 0.027767 -1.5747 0.53346 0.68031 
tchy 0.73246 -0.023288 0.18757 -0.063786 0.69933 -1.1934 -0.40645 0.5581 -0.30981 1.3443 
lkedy 0.52657 -0.7135 0.61566 0.36846 0.10058 -0.22887 0.66441 -1.408 0.36632 -0.19346 
oldy 1.4382 0.6309 0.7508 0.037016 -0.093686 0.04981 -0.39357 -0.82002 0.00084305 0.074058 
qokeeey -0.37552 -0.5864 0.78921 0.41228 -0.70461 -0.71471 0.63492 -0.66972 0.47918 0.28932 
ykeedy 0.78181 -0.42549 0.67387 -0.014554 0.29305 -0.72815 -0.43441 -1.056 0.32376 -0.41892 
aly 0.5311 0.25407 -0.35685 -0.1408 0.51271 -0.5452 0.49457 -0.71122 0.82246 0.18727 
dchor 1.0841 0.33442 0.38391 0.1438 -0.31327 -0.83432 0.11427 1.0033 -0.18306 1.2929 
she 0.21457 0.21656 -0.29039 -0.4213 -0.4761 -1.261 -0.080372 0.11499 0.31374 0.62818 
qotor 0.50028 -0.37851 0.0717 -0.035234 -0.12171 -1.5144 0.53964 0.85337 -0.53095 0.60956 
os 0.90619 0.19342 -0.50984 0.57081 -0.089373 -0.167 0.030793 -0.13247 0.17086 1.0379 
kor 0.15962 0.4906 0.159 0.12654 0.24766 -1.1859 -0.24815 0.28669 0.3546 0.72147 
yteey 0.99794 -0.084811 0.41717 0.4306 0.13041 0.079096 -0.049939 -0.36297 0.77547 0.30299 
qokam 0.61612 -0.24078 0.49244 -0.17512 -0.47169 -0.8567 0.88197 -0.27376 -0.96653 -0.099677 
yty 0.81998 0.31565 0.41318 -0.40877 0.36042 -1.3668 -0.10146 0.73984 0.47023 0.24906 
tor 0.74705 0.6202 0.25315 0.048873 -0.034518 -0.74836 -0.034078 0.14205 -0.10035 0.2409 
sy 0.01102 0.21479 -0.24941 0.28401 -0.09021 -0.82313 0.23773 -0.25277 -0.53254 0.80383 
okeeey 0.25578 -0.27816 -0.11801 0.48464 -1.012 -0.53751 0.084695 -0.39825 0.85052 0.50903 
olky 0.6178 0.25108 0.052305 -0.1389 0.42039 -1.6466 -0.2504 -0.68331 -0.29339 -0.77146 
chedal 0.31723 -0.68002 0.31748 0.72758 -0.10607 -0.53171 1.1696 -0.49399 0.58381 -0.36245 
tal 0.50808 0.059033 0.07045 0.61764 0.099629 -0.77213 -0.61305 -0.79427 -0.71803 0.11919 
chl 0.18041 -0.24784 0.10583 -0.16822 -0.48367 -0.86171 -0.41166 -0.6172 -0.3258 0.61992 
aiir 0.81239 -0.11316 -0.54313 0.61925 0.50449 -0.46062 0.67963 -0.19299 0.75751 0.082415 
sair 0.26112 -0.54486 -0.26877 0.32736 0.12226 -0.99057 -0.44695 -0.17679 0.57634 0.35467 
okchedy 0.6881 -0.65921 -0.18 0.55236 -0.73286 -0.79545 -0.080399 -0.38841 0.39513 -0.34432 
ytar 0.6961 -0.26362 -0.33587 0.58309 -0.092114 -1.0423 0.28772 0.28017 0.062787 -0.19588 
ytedy 1.4784 0.31906 0.83975 0.60431 1.6223 -0.5979 -0.076004 -0.46594 0.077767 -0.32968 
daiir 0.39755 0.30846 0.41967 0.84367 0.62635 -0.38991 0.95012 0.36063 0.62003 0.59006 
oaiin -0.30551 0.75538 0.22849 0.73023 -0.4616 -0.79385 0.72094 -0.082641 0.2429 0.62744 
shear 1.2681 -0.5576 -0.12765 -0.64467 0.0024247 -0.26185 -0.069416 -0.54828 0.012166 0.668 
tchey 1.1368 -0.094 0.5264 -0.25126 0.48764 0.017374 0.46009 -0.049586 -0.31654 1.2411 
chety 0.62452 -0.14905 0.85878 0.047953 0.88034 -0.20394 0.26805 -0.074834 0.33555 0.71851 
qotain 0.20302 -0.79601 0.65076 0.17443 0.03786 -0.63035 -0.1247 -1.0156 -0.10924 0.17761 
qor -0.040524 0.27606 0.25602 -0.86234 -0.60362 -1.8186 0.16658 -0.19264 0.52021 0.07613 
dary 0.51159 0.6084 0.80119 0.088858 -0.49582 -1.1027 -0.28925 0.13977 -0.18108 -0.17137 
otair 0.84771 0.041474 -0.95876 0.96599 -0.067717 -0.55756 0.57009 -0.64556 0.36142 -0.16722 
qotey 0.17046 -0.17808 0.10033 0.6716 0.18546 -0.53199 0.47594 -1.2187 -0.64292 0.094064 
qoaiin 0.34608 0.027884 0.58476 1.2086 -0.61857 -0.28194 0.39051 -0.099764 -0.35659 0.34319 
olshedy 1.1007 0.32338 1.1257 0.031272 0.32559 -0.23577 -0.55065 -1.7573 -0.2778 -0.026057 
ldy 1.0365 -0.91515 0.39709 -0.058403 0.24214 0.10063 -0.0042583 -1.2016 0.014782 0.52082 
kchor 0.45192 0.95023 0.3632 0.62307 0.045552 -0.64736 0.17146 0.092918 -0.69879 1.7537 
chkaiin 0.64325 -0.48848 -0.64515 0.37754 -0.42431 -0.86215 0.22072 -0.028145 -0.78532 0.62164 
kchol 1.5546 0.088263 0.647 -0.0037243 -0.18776 -0.30237 0.13173 0.37485 -0.99305 1.1481 
cheeky -0.19821 0.31667 0.66301 0.15941 0.24903 -1.1859 -0.26574 -0.67703 -0.21963 0.18876 
ky 0.19534 0.24535 0.52486 0.44148 0.54996 -1.2164 -0.46373 0.15271 -0.47861 0.51828 
shaiin 0.73775 -0.63822 0.032693 -0.26032 -0.15515 -1.1252 -0.64708 0.15239 -0.68924 1.2571 
shodaiin 0.95208 -0.62396 -0.17418 1.387 0.23102 -0.2692 0.59425 0.079663 -0.9489 1.0741 
odar 0.95204 0.27339 -0.77612 0.44313 0.15021 -0.21 1.2255 -0.57184 0.11925 0.13239 
kchey 0.44614 0.30468 -0.26169 -0.20316 0.14958 -0.47799 1.2825 -0.22368 -0.32467 1.0996 
shecthy 0.16719 -0.35311 0.17531 0.67582 0.68718 -0.80393 -0.39668 -1.4361 -0.69741 0.3265 
ykchy 1.6882 1.0181 -0.010613 -0.23115 0.12518 -0.99612 0.39565 0.68037 -0.58183 0.67151 
tchor 0.94541 0.25177 0.21332 -0.02643 -0.18319 -0.32756 0.56304 0.57259 0.027818 1.4192 
okair 0.84786 0.0013986 -0.71597 0.84294 0.046225 -0.77844 0.61406 -0.64341 -0.13954 -0.54525 
kchdy 0.43138 0.34347 0.15719 -0.24385 0.37545 -1.5606 0.23543 0.094485 0.16519 -0.42195 
keol 0.6176 0.003184 0.9342 0.062627 -0.59355 -0.23511 0.00492 0.17536 0.11757 0.80544 
ary 0.17954 0.52251 -0.18391 0.44305 -0.044689 -0.66784 0.4893 -0.64115 0.46389 0.0033076 
keody 0.58763 0.27252 0.84991 0.97795 -0.13926 -0.68389 0.13881 0.22071 0.7098 -0.41206 
sain 0.59121 -0.095138 -0.13865 0.07222 -0.054281 -0.30768 -0.1181 -0.90756 -0.1719 0.37849 
ycheey 0.013189 -0.21937 -0.52147 0.35352 -0.039834 -0.67272 0.13937 -0.59743 0.53733 0.79336 
qokeor 0.010162 0.24424 0.91994 0.49819 -0.25034 -0.22218 -0.19085 -0.73666 0.16875 0.77424 
okchdy 0.98115 0.16847 0.11304 0.40725 0.86567 -0.82779 -0.027194 -0.34009 -0.026349 -0.47538 
rar 0.36712 0.010317 0.81953 -0.61343 -0.41923 -0.75967 0.54202 -0.50486 0.65845 -0.24694 
qotchdy 0.91717 -0.96593 0.26972 0.43493 0.17105 -0.82043 0.23379 0.089802 -0.12452 -0.31104 
ckhol 0.40859 1.1855 1.1832 0.7501 -0.3818 -0.5839 0.49717 0.41329 -0.2211 0.94788 
ched -0.17384 -0.86911 0.42935 0.48457 0.79985 -1.1306 -0.10451 -0.83325 0.44486 0.069824 
chdar 0.52143 -0.29128 -0.050119 0.27387 0.49272 -1.0015 0.59922 -0.48152 0.49299 -0.61284 
shed 0.40868 -0.33201 1.0687 -0.66426 0.2699 -0.70621 0.57891 -0.60785 0.6971 -0.12284 
s!aiin 0.15144 0.39148 0.38171 0.092006 -0.073967 -0.95723 -0.1119 -0.47196 0.017536 -0.12796 
cham 0.48487 0.39759 0.51397 -0.24513 -0.27866 -0.56336 0.88352 0.13448 -0.018996 0.49183 
rol 0.50251 -0.36993 -0.15258 -0.032893 0.53614 -1.0732 0.52803 -0.70245 -1.0895 0.1733 
olol 0.88314 1.2288 0.83296 -0.0046012 0.083717 -0.17985 0.48278 -1.0977 -0.51818 0.20362 
ty 0.66326 0.53526 0.71713 -0.22314 1.0024 -1.4539 -0.01545 0.37512 -0.54151 0.40005 
qokeeo 0.019176 -0.78367 0.32466 1.1278 -0.65893 -0.26441 0.27635 -0.6378 0.6772 0.56243 
qotchedy 0.47354 -1.4474 0.76049 0.8346 0.0099808 -0.66606 0.45795 -0.22214 -0.055005 -0.085127 
qoeedy -0.061721 -1.0558 0.47889 0.43502 0.069797 -1.4578 -0.46171 -0.93816 0.26094 -0.27722 
kai!n 0.45015 -0.44405 0.28995 -0.48693 -0.64311 -0.63333 -0.28876 -1.4499 -0.095327 0.44481 
kchedy 0.5237 -0.4412 0.64413 0.81277 -0.72436 -0.79675 0.19892 -0.32784 -0.84667 -0.2981 
ykedy 0.27103 0.086777 1.242 1.045 0.94878 -0.94967 0.43009 -0.28762 0.31111 -0.54651 
dchol 1.3966 0.11982 0.80223 0.2609 0.32715 -0.17468 0.67437 0.66903 -0.097595 0.74051 
teey 0.11144 -0.45585 0.77759 -0.1769 -0.05707 -0.15514 0.27874 -0.73663 1.0691 0.8535 
okeor 0.31667 0.52479 -0.26226 1.0504 -0.36024 -0.50291 -0.3689 -0.35194 0.42454 0.8367 
chocthy 0.72012 -0.39105 -0.60105 0.35947 -0.22669 -0.99206 0.0061627 0.35265 -0.61462 1.2605 
qotchey 0.7767 -0.77849 0.47824 0.21363 -0.47006 -0.29738 1.1485 0.28229 -0.6248 0.93802 
chky 0.52706 0.28164 -0.31378 -0.24201 0.28492 -1.744 -0.34598 0.20726 -0.13817 0.28176 
oteos 0.27802 0.44433 -0.25866 0.30312 0.074225 -0.87015 0.14518 -0.043949 1.7209 0.72199 
qockhey 0.23496 0.14872 0.71128 1.2469 -1.0158 -0.12 -0.14846 -0.80639 -0.22306 0.65283 
okaly 0.96961 0.26319 -0.27541 0.75578 0.52674 -0.58922 -0.6914 -0.96051 0.88261 -0.10969 
okchor 0.95198 0.32673 0.87417 0.18467 0.12238 -0.92157 0.10925 0.94314 -0.28399 0.71488 
qody 1.6597 -0.57305 -0.21555 -0.012563 0.31623 0.076093 0.35596 -0.078504 -0.041547 0.84123 
ory 1.0662 0.75023 0.29826 -0.013586 -1.1151 -0.41026 0.31607 -0.64549 -0.042359 -0.31732 
qockhy 0.51375 1.0417 0.49924 1.3253 -0.7184 -0.7414 -0.32087 0.029977 0.076537 0.17991 
olkar 1.3431 -0.5434 -0.2056 -0.07106 -0.24873 -0.70922 -0.82572 -1.1008 -0.052433 -0.14206 
chockhy 0.51737 -0.24017 -0.15143 1.2577 -0.56235 -0.44114 -0.0034836 0.27709 0.58809 0.72253 
dl 0.21886 -0.20297 0.19002 -0.24414 0.22513 -0.81327 0.44185 -0.22836 0.40611 0.12995 
cthar 0.56023 -0.30992 0.11496 -0.74152 -0.11449 -1.1628 -0.46313 0.2894 0.62693 1.507 
chdal 0.7578 -0.037549 0.15747 0.54621 -0.60706 -1.0925 0.49803 -0.29598 0.22296 -0.9954 
ydaiin 0.10834 1.4081 0.96885 1.2957 -0.76783 -0.91765 0.41176 0.022151 -0.15048 0.14412 
dchey 0.48716 0.68704 0.89278 0.58759 0.26603 -0.28185 1.2092 0.092475 -0.55899 0.6762 
sheal 1.2358 0.11883 -0.04296 -0.11996 -0.41446 -0.18784 -0.29742 -0.97436 0.41511 -0.021341 
om 0.21055 0.26932 -0.030859 0.59832 -0.18972 -0.52043 0.31684 -0.16722 0.089915 0.42734 
lky 0.20426 -1.1157 -0.19582 -0.010138 0.44737 -0.60327 1.2663 -1.3896 0.24585 0.47798 
ral 0.18938 -0.28411 0.53207 -0.71014 -0.54121 -1.0897 0.89956 -0.43826 -0.19374 0.13299 
opchdy 1.6971 -1.8042 0.076684 -0.10943 0.67931 -0.3707 0.51009 -0.1851 0.74562 0.28315 
otaly 0.78685 1.0797 -0.6464 -0.074844 0.23144 -0.8062 -0.019585 -0.99548 1.0017 0.10574 
ols 0.55723 0.62873 0.076618 -0.3719 -0.5741 -1.2121 -0.17352 -0.18019 0.52883 -0.20815 
ychor 0.68624 0.88028 0.13397 0.29609 -1.3652 -1.3062 0.368 0.64472 -0.41997 0.90763 
daldy 0.30688 -0.10675 0.37541 0.56785 0.52153 -0.58531 -0.69223 -0.54862 -0.078431 0.46685 
olkai!n 0.77561 0.24934 -0.014899 -0.87084 -0.50235 -1.2291 0.047905 -1.5023 -0.90812 0.14396 
daiiin 1.0107 -0.12883 -0.22801 -0.40426 -0.67325 -0.70861 0.70512 0.33691 -0.14982 0.54341 
kain 0.39734 -0.25292 -0.018741 -0.25866 -0.03781 -0.76137 -0.015318 -0.81353 0.013673 0.14681 
qopchdy 1.8457 -2.0457 -0.025144 0.44742 0.065161 -0.61025 0.15766 -0.54144 -0.29874 -0.37761 
sh 0.35863 1.1325 -0.073908 0.23809 0.16148 -0.69783 1.0242 0.07523 0.47222 0.6653 
shal 0.046573 -0.52013 -0.42394 -0.21045 0.26992 -1.0387 -0.627 -1.1765 -0.051085 1.1063 
otchor 0.95676 0.70461 0.37787 0.13977 0.34394 -0.62143 0.33028 0.24182 -0.96496 1.6515 
lshey 0.72913 -0.73873 1.1916 -0.55785 -0.49184 -0.31507 0.14189 -1.3886 0.49164 0.22199 
cthody 1.1261 0.97614 -0.11338 1.1266 -0.31446 -0.23086 0.56948 0.42086 0.21382 1.2357 
chokchy 0.23914 0.57373 0.26038 0.87654 0.37663 -0.54263 0.68258 -0.24427 -0.97657 2.3114 
teol 0.5426 0.47435 0.57708 0.69673 -0.46701 -0.22629 -0.61508 -0.71078 -0.20723 0.41901 
qokair 0.87107 -0.091729 -0.62087 0.90304 -0.048153 -0.57092 -0.61549 -1.0239 0.22157 -0.030974 
? 0.29884 0.87601 -0.28184 -0.029694 1.1835 -1.0206 0.73664 -0.20502 0.53841 0.94889 
chdaiin 1.002 -0.78712 0.81439 0.765 -0.60669 -1.1349 0.66038 0.14735 0.074118 -1.1518 
key 0.2152 0.48197 0.21485 0.84795 0.67638 -0.33 0.46238 -0.54771 0.12269 0.29011 
okeeo 0.1328 -0.33773 0.014309 0.40036 -0.70611 -0.34191 0.52557 -0.62705 0.78567 0.52543 
qokeed 0.5226 -0.66188 1.2173 0.65391 -0.042217 -0.367 -0.092938 -1.1133 0.46616 -0.33006 
chokaiin 0.059763 -0.74527 -0.14554 0.31003 -0.21226 -0.35071 0.32273 -0.39548 0.145 1.3156 
orol 0.72318 1.3709 -0.18177 0.35768 0.00079484 -0.70309 -0.030748 -1.2469 -0.42832 -0.085464 
ctho 0.59888 1.0729 0.20913 0.50895 0.032947 -1.0686 0.67934 0.69054 -0.54327 1.427 
tchol 1.439 0.70536 0.027723 0.2131 0.060379 -0.27159 0.69427 0.051334 -1.0214 1.4192 
qokchol 1.1122 0.9179 0.3455 1.0806 -0.30811 -0.96049 -0.71857 0.22439 -1.14 1.2123 
teedy -0.091094 0.0041485 1.2573 0.96908 -0.022193 -0.6927 0.91295 -1.008 0.086149 -0.53397 
chain 0.43573 -0.45889 -0.3852 -0.32243 -0.21299 -1.4198 0.33632 0.68419 0.065167 1.0773 
yky 1.1203 0.75602 -0.083486 -0.011222 0.34996 -1.3873 -0.39606 0.65508 0.20074 0.32176 
chs -0.4531 -0.049899 0.74707 0.74532 -0.29087 -0.93186 0.40297 0.16319 0.21843 0.56712 
ytal 1.3536 0.4237 -0.31474 0.86589 -0.30238 -1.1353 -0.48665 -0.12612 -0.73293 -0.54755 
okody 0.53222 0.38165 0.16591 0.84168 0.068966 -0.90083 0.24965 0.24715 1.7707 0.10377 
chom 1.304 0.33264 0.5651 0.70493 -0.17514 -0.61888 0.7091 1.377 0.2019 1.104 
opchy 1.5759 -0.61206 0.37663 -0.16191 -0.13007 -0.88073 -1.2085 0.34149 0.21081 0.32126 
cheeo -0.27472 -0.62635 -0.072362 0.92196 -0.013361 -0.63127 1.3949 -0.89922 0.33994 0.32218 
ychey -0.022422 -0.14021 1.4086 0.95462 -0.24893 -0.56353 0.044341 0.13778 0.010913 0.63844 
tchdy 0.22615 -0.010752 0.92288 0.33285 -0.13859 -1.2002 0.92594 0.082292 -0.36984 -0.46552 
cphol 1.1377 -0.55956 0.84098 0.63017 -0.25295 -0.36554 -0.90682 0.42842 -0.11666 1.0506 
ror 1.36 -0.37806 0.15896 0.11739 -0.38681 -0.21508 0.39147 -1.0765 -0.50065 -0.41136 
otody 0.81077 -0.079049 -0.0093709 0.45171 0.67638 -1.1564 0.31874 0.26114 1.5599 -0.28372 
ykeody 1.3015 0.48003 0.78503 0.99439 0.58439 -0.2378 -0.31462 0.51114 1.0847 0.50376 
odal 0.91613 0.005601 -0.086222 0.68125 0.84531 -0.6807 0.068558 0.14919 -0.43603 0.25161 
soiin 0.34129 -0.68275 0.71759 -0.65459 0.11547 -0.64108 0.022413 -0.10092 0.17258 1.1725 
sheeky 0.74003 -0.021989 0.25335 0.15025 -0.24099 -0.92395 -0.66074 -2.2277 0.34867 -0.5734 
qoeey 0.76628 0.015725 0.35855 1.3275 -0.97118 0.02096 0.29274 -0.54206 0.31394 0.034904 
kair 0.78715 -0.6332 -0.85733 0.032364 0.1007 -1.4989 -0.0026707 -0.29842 0.21362 -0.40547 
ytchy 1.5442 0.0099508 0.79588 -0.15408 0.6866 -0.3836 -0.07586 0.64846 0.11168 1.5603 
choly 0.41192 0.72953 -0.18599 0.27353 -0.77734 -0.80906 -0.77074 -0.28544 0.48926 0.94171 
lo 0.33013 -0.97785 0.67404 0.3334 0.12769 -0.40789 0.61342 -0.82769 -0.29791 0.16573 
shedaiin 0.45356 -1.2357 0.38019 0.87262 0.76421 -0.4313 0.33894 -0.41059 0.49779 0.24557 
pol 0.98071 -0.72312 0.065286 -0.030937 -0.33755 -0.36715 -0.47131 -0.80112 -0.37671 0.37386 
okeeol 0.18926 0.45728 0.46574 0.59133 -0.55242 -0.071798 0.041434 -0.71019 1.2442 0.95484 
ctheey 0.18949 0.30265 0.14993 0.42722 -0.49127 -0.21731 1.0646 -0.022594 0.71952 1.3505 
qokeeody 0.056175 -0.15825 0.060705 1.5936 -1.1069 -0.97846 0.25519 -0.078489 1.0046 0.1499 
cphy 0.89764 0.42916 -0.60632 0.22716 1.0329 -0.89776 -0.090566 0.2077 0.17314 1.443 
chckhdy 0.8284 0.21361 0.93939 0.6153 0.18114 -1.0694 1.3512 -0.55789 -0.97373 -1.0613 
lkchedy 0.56465 -1.7189 -0.10007 0.7702 -0.65346 -0.6483 0.77567 -0.41534 -0.13416 0.34005 
lkai!n -0.13891 -0.91975 -0.30076 -0.76497 -0.54947 -1.3041 0.55324 -1.408 0.3139 0.84314 
oar 0.71065 0.57171 -0.95829 0.69649 -0.16868 -0.83867 0.86891 -0.35514 1.5212 -0.018167 
cheeor 0.22181 0.088188 0.1846 0.50614 -1.3302 -0.66502 0.68948 0.14105 0.58045 0.53051 
qotchol 0.69025 0.54921 0.31081 0.61545 0.20934 -1.0571 0.35628 0.95028 -0.3398 1.7112 
ytor 0.69106 0.36311 -0.066559 1.0695 0.56836 -1.5391 0.6052 0.77032 -0.91276 0.37574 
lchdy 0.58524 -0.80579 1.137 -0.54386 -0.31011 -0.46189 -0.32763 -0.64725 0.58377 0.59907 
chkeey -0.3729 0.17806 -0.25665 0.16943 -0.46637 -1.235 0.92044 -0.22445 -0.36415 0.8382 
okeo 0.7533 0.91717 -0.42732 1.2532 0.1478 -0.15505 0.0038137 -0.77895 1.2248 0.7731 
r!aiin 0.53978 -0.20758 1.2827 -0.56991 -0.44181 -0.46423 0.35316 -0.12321 0.4829 0.37103 
choiin 0.5748 0.35998 0.91946 0.48129 0.32027 -1.2099 0.83956 1.1435 -0.54714 1.4541 
shky 0.5343 -0.57195 0.53061 0.56203 0.94842 -1.3876 -1.2474 -0.27233 0.26164 0.071011 
olkain 0.51074 0.25187 0.20481 -0.8523 0.14306 -1.2621 0.44022 -1.1236 -0.44025 -0.16237 
sheos 0.623 -1.0676 -0.1311 1.2095 0.014732 -0.37966 -0.050554 0.16994 0.5888 0.92903 
qotam 0.37785 -0.5924 -0.26019 1.1201 0.22021 -0.40033 0.14178 -0.43967 0.171 0.43544 
ry 0.43537 -0.766 1.1623 -0.12917 -0.24124 -1.3935 -0.59043 0.28364 0.46676 -0.10096 
ockhy 0.83031 -0.19051 -0.6928 1.532 -0.34759 -0.56788 -1.0093 -0.81189 -0.18535 0.72754 
aral 0.59265 -0.34964 -0.62635 0.52423 -0.37702 -0.61124 0.83424 -0.04072 0.59421 0.20702 
okeeody 0.68988 0.15062 -0.024937 0.67925 -1.0598 -0.28721 0.26896 -0.1197 1.1048 0.31053 
yteody 1.3166 -0.42665 0.38681 1.3448 0.96035 -0.15296 1.0949 0.50232 1.6226 0.43541 
oteo 0.72249 0.33949 -0.71372 0.91892 0.73381 -0.23652 0.34197 -0.88616 1.6715 0.78385 
dan 1.1331 0.4002 0.19502 -0.5472 0.31617 -0.44155 0.35926 0.27423 0.13704 1.757 
olkal 0.32368 0.3758 -0.44071 0.41792 0.10777 -1.2008 0.13028 -1.5223 -0.60574 -0.27406 
olkey 1.1593 0.51842 0.59646 -0.57128 0.55589 -0.31591 0.15002 -0.57881 0.40064 0.068341 
ot 0.30231 0.083515 0.3811 0.78978 0.61615 -0.73387 -0.13353 -0.33244 0.25187 -0.18051 
qotchor 0.33477 0.86914 0.59318 0.5546 0.69341 -1.9271 0.46408 1.2082 -0.29554 1.9149 
shckhey 0.2768 -0.59351 -0.2814 -0.21757 0.10845 -0.82227 -0.81902 -0.9649 0.64488 1.1576 
laiin 0.99088 -0.15657 -0.74013 0.26194 -0.61688 -0.65865 0.6137 -1.3934 0.2782 -0.59787 
ytol 1.1785 0.14928 0.93299 0.27082 -0.51286 -1.2526 0.034414 1.2523 -0.04639 0.19771 
qokaly 0.82677 0.45436 0.74838 0.79671 0.23991 -0.39888 -0.77679 -1.112 0.23106 -0.25391 
aldy 0.25432 0.45127 0.01583 0.089242 0.036648 -0.49338 0.35857 -0.41807 1.1427 0.43973 
oteor -0.14296 0.73211 0.096621 0.94942 -0.48183 -0.96298 0.34639 -0.81108 0.95329 -0.39677 
chkal -0.37284 -0.63796 0.2518 0.061328 0.3885 -1.1595 -0.096833 -0.43027 0.79373 0.81649 
shes 0.66976 -0.35785 0.27824 -0.6493 0.62342 -0.15322 0.71473 -0.6002 1.2788 1.2937 
ram -0.003185 -1.155 1.0589 0.45837 -0.16921 -1.039 -0.5428 -0.31018 0.012455 0.35895 
dcheey -0.037222 -0.89105 0.25232 0.61154 0.49146 -0.48327 0.88605 0.0053113 0.49303 1.3787 
opaiin 0.33083 -0.3647 -0.22419 1.0531 0.53758 -0.484 0.55142 -0.28413 1.2475 0.30475 
olar 0.78104 0.18335 -0.31434 0.59085 -0.91622 -0.59876 0.63362 -0.67745 -0.27256 -0.33757 
qopchy 1.7393 -1.1871 -0.75933 0.83392 -0.10568 -1.1782 0.19397 0.47305 -1.3869 0.53884 
lkain 0.49187 -0.45636 0.0477 -0.67183 0.043147 -0.52696 0.4013 -1.3108 0.49835 0.3047 
okchol 1.6797 1.0157 -0.18347 0.49792 -0.091358 -0.44863 -0.27877 0.56282 0.37449 1.2772 
m 0.035869 1.0269 -0.20333 0.49624 1.0565 -1.2482 0.89923 -0.34565 0.077786 0.27829 
do 0.60937 -0.086661 0.21215 1.1182 0.32478 -0.68502 -0.022839 0.51504 -0.38148 0.8868 
keeol 0.70219 -0.43389 0.16421 0.49327 -1.2298 -0.061273 0.29225 -0.47553 -0.014933 0.58327 
pchor 1.0555 -0.68808 -0.27115 -0.65724 0.39786 -1.8802 0.64162 0.78367 -0.37276 0.19509 
otedar 1.1603 -0.28904 -0.16892 0.4686 0.46059 0.059024 0.76391 -1.0223 1.2877 -0.089656 
ly 0.71569 0.37565 1.0473 -0.51458 -0.78604 -0.92388 -0.026459 -0.87971 -0.6909 -0.10102 
ycheo 0.095014 -0.33317 -0.4205 1.4104 -0.46151 -0.36133 0.10697 -0.94663 0.22232 0.54638 
cthedy 0.025814 -0.68909 0.71148 0.65257 0.55904 -0.21702 0.38424 -1.5043 0.72046 0.37265 
doiin 0.9943 0.57375 0.92621 0.071179 -0.48721 -0.26522 -0.15637 0.28716 0.19004 0.9492 
sheeol 0.2855 0.43419 1.0756 -0.27486 -1.167 -0.19389 0.82481 -0.84084 -0.13056 0.78441 
lcheey 0.62246 -0.80268 0.30095 -0.20589 -0.21316 -0.12318 1.0069 -1.05 -0.34553 0.63428 
ykeol 1.1397 0.89094 0.34303 0.47565 -1.2159 -0.10112 0.16831 -0.3892 -0.0054146 0.35921 
shedal 0.29973 -1.4554 0.94509 0.23989 0.80637 -1.5625 -0.70452 -1.118 -0.11549 -0.11779 
okees 0.38618 0.22572 -0.31712 0.51216 1.1197 -0.99122 0.47918 -0.63633 1.0444 -0.24348 
chodar 1.1224 -0.58352 0.4788 0.71027 -1.4713 -0.96394 -0.78322 0.58609 -0.22054 0.49103 
chckhedy 0.32143 -0.054673 1.068 0.74066 0.53786 -0.36315 -0.0060219 -1.689 0.16003 -0.19476 
qokshedy 0.34826 -0.29351 0.79321 -0.59712 -0.2438 -1.4418 0.62392 -0.9599 -1.3767 0.028875 
olshey 1.5052 -0.018116 0.59093 -0.65706 0.2534 -0.11231 0.46984 -1.5745 -0.8063 0.31645 
ykal 0.34975 0.3796 -0.3331 0.31064 0.43998 -1.7122 -0.28474 -0.25865 0.030243 -0.37109 
okeal 1.1463 -0.33937 -0.42154 0.14023 -0.087407 0.059167 0.040034 -1.1855 1.2788 0.45901 
qokechy 0.24694 -1.0988 0.12776 1.1398 0.13982 0.0089466 0.15631 -0.62103 0.08429 1.3842 
rchedy 0.42354 -1.1594 0.13034 0.040888 0.10938 -0.22431 1.1158 -1.7188 -1.0274 1.1457 
cheeody -0.36592 -0.52163 0.05059 1.6273 -0.37979 -0.65658 0.5079 -0.35216 0.24407 0.84119 
dshor 0.4226 0.63255 1.3081 0.50438 -0.097894 -1.1328 -0.10925 0.55191 -0.45199 0.33632 
ytey 0.6803 -0.071033 0.19232 0.76094 0.95378 -1.1012 -0.18026 0.35569 -0.24437 0.21364 
oteeody 0.59999 -0.072355 0.0011902 0.71221 0.5905 -1.1115 -1.1084 -0.43024 0.57504 -0.01877 
ycheol 0.47614 -0.80689 -0.36293 0.16368 -0.40727 -0.30742 0.86997 -1.0905 -0.64955 0.93537 
ykeeody 0.17627 0.55989 1.4028 0.81112 0.79136 -0.66476 0.28344 0.15313 1.3578 0.54684 
shee 1.1206 -0.17272 0.11224 -0.12532 0.14132 -0.33938 0.75076 0.10886 1.1759 0.069525 
chan 0.27012 -0.74576 -0.1072 -0.47166 0.021005 -1.3723 -0.22464 0.087748 -0.35496 2.221 
pchdy 0.92801 -1.0034 -0.21149 -0.1927 1.1603 -1.4225 -0.08053 -0.24831 -0.34858 0.11219 
ytam 1.1604 0.36195 -0.066391 1.4041 -0.64929 -1.1846 0.27736 -0.033157 -0.81832 -0.77384 
cthaiin 0.90031 -0.016507 -1.0754 0.4174 -0.68636 -1.4703 -0.25575 0.76464 0.49868 2.0774 
choy 0.9975 0.85871 1.5604 0.088649 -0.26018 -0.24297 0.82852 0.72858 0.59285 1.1199 
daim 1.0689 0.238 -0.27456 1.6029 0.47012 0.29373 0.98735 -0.7366 -0.30674 0.83993 
chotar 1.0736 0.10097 -1.0111 0.73494 -0.68558 -0.43049 0.4218 -0.43108 0.76964 0.20617 
oteeo 0.64166 -1.0512 -0.55832 0.75634 0.046207 -0.29115 0.15644 -0.29169 0.80117 0.83551 
tair 0.42498 -1.1935 -1.1744 0.37539 0.59787 -1.429 0.48083 -0.77252 0.4357 0.088326 
shocthy 1.2343 -0.6494 0.50958 0.82608 -0.58436 -0.62132 -0.56652 0.94051 0.26458 1.0517 
tey 0.50076 -0.14549 0.45137 0.5496 0.28731 -0.1296 -0.20603 -0.24416 0.94594 0.80403 
chkar 1.7067 -0.16839 0.60583 -0.81804 -0.4177 0.0058963 0.71188 0.027211 -0.31911 0.91481 
qoteol 1.9855 -0.091585 0.86291 -0.25099 -0.50715 0.63703 1.0203 -0.32516 0.75812 0.77288 
checkhey -0.16041 0.023783 0.52068 0.20501 -0.69437 -0.23014 0.12377 -1.5362 0.79302 1.0124 
qodar 0.86711 -0.020237 1.1787 0.21577 -0.2127 -0.59523 0.11871 0.77818 0.55306 0.23975 
yshey 0.10356 -0.23967 -0.36952 0.82252 -0.67572 -0.7701 0.19114 -0.5328 0.19301 0.11213 
ykol 0.58631 0.62139 1.2932 0.46821 0.53223 -1.0652 -0.58837 0.48648 -0.0098099 0.51678 
ychol 0.58338 0.96734 -0.86817 1.2092 -1.4325 -1.0239 0.17771 -0.42759 -0.85796 0.98877 
opar 1.4727 0.53288 -0.69324 0.10233 1.0232 -0.60498 0.19036 -0.91667 0.70394 -0.17796 
chotchy 0.67941 0.46904 0.3643 0.57589 0.20119 -0.74484 1.2406 0.4767 -1.0856 1.5959 
dshey 0.28236 0.07427 1.0015 0.47752 0.66002 -0.11974 -0.38493 -0.88414 -0.032517 0.93864 
chory 0.20757 0.17733 0.72049 0.10465 -0.56833 -1.4096 -0.42818 0.64169 -0.2122 1.8124 
ypchedy 1.5418 0.052427 -0.47651 0.99849 0.63996 -1.3252 1.3438 0.31127 0.19352 -1.0814 
qok 0.42648 0.39536 0.47218 0.099675 -0.28775 -0.1659 0.76491 -0.94647 -0.36047 0.285 
fchedy 1.1398 -0.034177 -0.046984 -0.88366 0.266 -1.595 1.6038 -0.33187 0.13591 -0.93602 
qokeeol -0.37364 0.39336 0.17517 1.6826 -0.92023 -0.60333 0.11683 -0.95197 0.72938 0.48923 
oral 0.78219 0.30143 -0.3623 -0.23969 -0.16519 -0.54899 0.86703 -0.30673 0.77535 0.060174 
okary 1.8988 0.7299 -0.30191 -0.52279 0.45128 -1.0751 0.68907 0.40593 1.1871 -0.27487 
chcphy 1.1743 -0.61871 -1.4839 0.080441 0.49161 -1.2617 0.85539 0.15276 0.018525 0.57483 
shety 1.1571 -0.8688 0.081879 -0.63673 0.33975 -0.52119 -0.6213 -0.84655 0.57028 0.71921 
sam 0.3658 -0.63557 0.034484 0.42545 -0.45718 -0.64571 -0.075284 0.29587 0.86892 0.69015 
cheodaiin 0.12868 -0.66642 -0.014116 0.81449 -0.50079 -0.86814 0.55942 0.56645 0.63609 0.73555 
shek 1.5662 0.39111 -0.28132 -1.2816 -0.068909 -1.0254 -0.055575 -1.0891 0.55511 -0.21426 
chty 0.77835 0.047559 -0.17255 0.18886 0.34532 -0.43944 1.1872 -0.3441 -0.92732 0.73507 
qot 0.58135 0.12609 0.82266 0.29175 -0.20199 -0.77921 -0.19979 0.24548 -1.0013 1.0198 
g 0.48982 1.2862 -0.10559 0.66509 0.57133 -0.93692 0.64966 -0.018802 -0.50982 0.66223 
ytchedy 0.32748 -1.2365 1.0636 0.87997 1.0532 -1.4388 -0.018292 0.24961 0.4578 -0.22539 
pcheol 0.30887 0.25597 0.69618 0.76616 -0.1916 0.0035061 -0.086609 -1.0917 -0.81742 1.1997 
ls 0.12318 -0.30964 0.62297 -0.0042866 0.30107 -0.82978 0.40351 -0.19593 0.1153 0.043108 
chdam 1.0655 0.11682 0.15715 0.92972 -0.012132 -0.9705 0.51373 -1.0635 -0.13578 -1.318 
otoldy 2.4861 1.4558 0.89717 0.28716 -0.19568 -0.42533 0.34263 0.25673 -0.099067 -0.41047 
okeeor -0.52722 0.37149 0.91504 0.68403 -0.83691 -0.86512 -0.030571 -0.44706 1.2305 0.63913 
arody 1.0108 -1.512 -0.10893 -0.03776 -0.35597 -0.92586 0.80994 0.21415 1.22 0.041756 
shod 0.79651 -0.93181 -0.95447 0.75184 -0.34823 -1.1139 1.4352 0.54804 -0.12137 0.38305 
kam 0.18302 0.8423 0.36405 1.1854 0.65722 -1.081 0.40936 -0.26443 -0.34352 -0.25046 
arol 1.0989 0.56231 0.39294 -0.42173 -0.40204 -0.56949 0.32318 -1.3655 0.83974 -0.78366 
ytchor 0.63829 1.1832 0.63987 0.010774 0.39921 -1.6901 0.37483 0.58049 -0.96421 0.92948 
qoar 1.411 -0.55624 0.59517 -0.21775 -1.0779 -0.50071 -0.64777 0.090264 0.18346 0.38761 
sheod 0.27687 0.4779 -0.11296 1.4352 0.11603 -0.14275 0.54349 -0.85443 -0.36482 0.64124 
opal 0.1791 0.30481 -0.78262 0.56132 -0.76431 -1.3134 0.62448 -0.53024 0.57605 -0.30428 
otshedy 0.86629 -0.30248 -0.57479 0.3388 0.2291 -0.64962 0.28755 -1.7555 0.52524 -0.52182 
qokl 0.72303 -0.91945 0.44844 -1.3647 -0.5471 -1.2571 -0.001361 -1.0405 -0.15746 0.48128 
qotody 0.30835 -0.77728 0.22136 1.4266 0.15598 -0.38615 1.121 0.043149 0.05009 0.4287 
chekaiin 0.44324 0.65234 -0.41341 -0.32413 0.53974 -0.43169 0.18739 -1.3832 0.89886 0.84882 
ytchey 0.32029 -0.70091 0.35811 0.86262 0.54366 -1.2296 0.14485 0.93958 0.44583 0.71898 
oram 0.86215 0.60491 -0.096062 0.15166 -1.1209 -0.20171 0.64317 -0.75551 0.97564 0.079324 
ckheey 0.18073 0.27106 -0.5968 1.4262 -0.63718 -0.11879 0.66326 -0.7459 0.36111 1.4908 
lr 0.18994 -0.3752 0.62478 -0.31328 -0.095136 -0.83506 0.46699 -0.58114 0.40048 -0.11822 
ckhor 0.38419 -0.2512 -0.22469 0.79484 -0.88194 -1.2861 0.54465 1.1017 0.083971 1.376 
cheockhy 0.019617 0.34242 0.48241 0.88028 -0.72687 -0.55702 -0.72687 -0.53451 0.68248 0.78351 
chokeey 0.23364 0.94011 1.1839 0.0022157 -0.32106 -0.0078102 -0.1067 -1.0159 0.54958 1.4406 
chotaiin 0.88896 -0.5747 -0.23116 0.59065 -0.3569 -1.2843 -0.13241 1.174 0.51862 0.92767 
qokchor 1.3458 0.9707 1.9108 0.89572 0.61059 -1.3095 -1.1095 0.59892 -1.0898 1.6406 
octhy 0.33082 -0.25969 0.7233 1.4321 0.4385 -0.93092 -0.56158 -0.035933 0.34964 -0.16338 
shees -0.3586 -0.18505 -0.07744 0.20081 0.14746 -1.8235 -0.57822 0.044181 0.29241 0.68286 
qotcho 0.0030489 -0.64734 0.6398 0.77066 0.3154 -0.94226 0.65729 0.31406 -0.87432 1.8383 
chekal 0.085892 -0.1468 0.61015 0.73919 -0.18117 -1.4979 -0.015395 0.013368 0.14211 -0.59969 
qokcho 0.14955 -0.20232 0.9785 1.1215 0.15469 -0.60743 0.7708 0.63621 -0.2772 1.9982 
aii!n 0.57439 -0.012881 -0.31967 0.53543 -0.62739 -0.55524 0.36775 -0.48304 0.015377 -0.21817 
dsho 0.88675 0.60649 0.14139 1.5309 1.3108 -0.56312 0.78477 0.23198 -0.63734 2.155 
oiiin -0.22955 0.23368 0.15932 0.63463 -0.44555 -0.68026 0.10907 -0.9948 -0.44958 0.51767 
pchedar 1.19 -1.1278 -0.26533 -0.1864 0.98342 -0.76661 0.47596 -0.20958 0.20407 0.14259 
okshy 0.95113 0.85381 0.63375 0.30183 0.4044 -1.4855 0.37566 0.77099 -0.52635 -0.16453 
or!aiin 0.88994 -0.0013419 -0.27465 -0.056466 -0.3449 -0.4431 0.73727 -0.48671 0.32676 -0.23332 
k 0.098168 0.1622 -0.9235 -0.27216 1.4135 -1.6947 1.1137 -0.30298 0.28654 1.5141 
qokody 0.66718 0.58892 0.87889 1.183 -0.078139 -0.024671 0.38705 -0.82491 -0.34398 -0.025546 
sheaiin 0.38776 -0.35772 -0.66848 0.10534 0.61097 -1.0935 0.097513 -0.042871 -0.16685 2.2502 
qoteody 1.117 -0.91588 0.79551 1.1189 -0.42342 -0.042036 0.93825 0.089737 1.0072 -0.11638 
ychedy 1.063 -0.66041 0.55476 1.1031 0.12017 -0.3445 1.1693 -1.0511 -0.746 -0.68221 
dshy 1.5397 0.3167 0.76466 -0.37423 1.3613 -1.1202 0.8093 1.1389 0.39518 1.3087 
qopchey 0.70162 -1.3128 0.406 -0.088207 1.2287 -1.0017 -0.59795 -0.093292 0.69736 0.79614 
qokedar 0.13296 -0.49553 1.4768 0.97434 0.52257 -1.6788 0.35429 -0.59775 -0.25749 -1.0421 
oees 0.32913 0.39193 -0.26722 1.1031 -0.33366 -1.5109 0.70408 0.74152 0.782 -0.13755 
chr -0.46618 -0.65229 1.733 0.32351 -0.79404 -0.80961 0.27389 -0.18043 -0.11606 1.3084 
qokshy 1.8262 -0.16412 0.58476 0.88783 0.43246 0.10446 0.99314 0.0016484 -0.83458 0.019459 
teody 0.85097 -0.76877 -0.35026 0.67412 0.31309 -0.18334 -0.62482 -0.61271 0.69777 1.2682 
cheeol -0.080734 0.29642 -0.25634 1.3882 0.056683 -0.24593 0.93876 -1.4583 0.01097 0.57316 
shos 1.7329 0.10711 -1.6371 0.96979 0.037988 -0.45499 0.29703 -0.16603 0.10885 1.0563 
okshey 1.4718 -0.94027 0.50867 -0.62319 -0.26704 -0.964 -0.60131 -0.020421 1.035 -0.16942 
okcho -0.23871 -0.080379 -0.58089 1.2669 0.67844 -1.448 1.0427 0.44647 0.1798 0.98868 
qolchey 0.92764 0.11621 1.5116 -0.27409 0.44309 -1.2448 0.085489 -1.6143 -1.1144 -0.54456 
olkeeey 0.6864 -0.85722 -0.42778 0.16583 -0.36972 -0.50943 -0.29702 -1.5448 0.1138 0.48688 
chotal 1.0974 0.18713 -0.05925 1.6911 0.64657 -0.51108 -0.8962 -0.52072 0.88785 0.13101 
s!ol 0.00718 1.1953 1.0345 -0.30882 0.28193 -0.98693 -0.23481 -0.93498 0.42348 0.33599 
chotey 0.76352 0.089371 0.093976 0.74946 0.34886 0.04134 0.55015 -0.0032003 1.2435 1.5186 
qokaldy 0.51962 -0.046455 0.020617 0.96934 0.77514 -1.7583 -1.3208 -0.76595 0.098753 -0.42658 
qoor 1.046 0.93283 0.52813 -0.19007 -1.5107 -0.54451 0.13763 -0.011295 1.1968 0.72419 
sheety 1.1857 0.26109 1.1461 -0.36503 0.24095 -0.087624 1.1872 -2.1109 -0.36795 -0.12014 
keeo -0.2867 0.091073 -0.43052 1.3269 -0.13769 -0.58673 0.37667 -0.57166 0.46784 0.99176 
okear 0.57066 -0.024832 -0.15461 0.5867 0.11969 -0.6539 -0.63107 -0.098769 1.125 0.64698 
keeey -0.64073 -0.38501 0.8036 0.12635 -0.12555 -0.43906 0.87331 -0.89689 0.44344 1.541 
chekar 1.7382 -0.56511 0.48441 0.34801 -0.065971 -0.36983 -0.41376 -0.42222 0.52975 -0.56081 
orar 0.57962 0.16707 -0.48 0.23799 -0.41541 -1.2012 0.54438 -0.063091 0.91303 -0.42007 
qofchedy -0.13536 -0.6085 0.50503 0.7785 0.043573 -2.2073 -0.68123 -0.16513 -0.026254 -0.48699 
ycheor 1.2715 0.23165 0.13853 0.0016225 -1.9975 -0.74337 0.48527 0.61989 0.15254 0.90675 
ykeeol 0.75013 0.4888 0.049142 1.0675 -0.52174 -0.093214 -0.24288 -0.89928 0.20286 0.16581 
okeeedy 0.58037 -0.18531 0.41827 0.056413 -0.85024 -0.58559 1.2509 -1.0441 1.0109 -0.6565 
keeody 0.86347 0.082909 0.24483 1.5195 -0.80079 0.15772 0.91205 -0.21437 0.82083 0.21984 
olchdy 1.3802 0.50501 0.64414 -0.13151 0.2283 -0.91988 0.15923 -0.72231 0.060574 -1.0308 
otees 0.59888 0.35179 0.40522 1.0253 0.83346 -0.4599 0.41687 -0.17618 1.2302 0.0063064 
cthom 0.091135 0.5368 0.63647 0.37499 -1.2598 -1.6212 0.57549 0.78668 -0.5718 1.4373 
shdar 2.1483 -0.81965 -0.16356 0.54121 0.35951 -0.28201 0.49371 0.020429 0.069733 -0.27119 
rain 1.1442 -0.57571 0.0089118 -0.47661 -0.59233 -0.13716 0.14199 -0.66213 0.037289 0.52082 
otoly -0.085365 1.1126 0.073251 1.2277 0.77883 -1.6316 -0.44315 -0.19159 0.59288 0.074236 
tody 1.2266 -0.16869 0.14407 1.0034 0.50239 -0.51537 -0.70119 0.068934 0.075633 0.24076 
odain 0.43118 -0.26963 1.1635 0.11446 -0.0308 -0.86439 0.63408 0.44607 1.1274 -0.1069 
ytchdy 0.55579 -0.3198 -0.075341 1.1208 0.73955 -1.7493 0.16512 0.39891 -0.11851 -0.54309 
shokchy 1.4341 -1.2671 0.44131 0.6698 0.11798 -0.61078 -0.79802 0.80175 0.96146 1.5282 
eees -0.70372 0.39902 0.32777 0.066727 -0.49512 -1.5828 0.96152 -0.1938 0.77949 0.33181 
olcheey -0.1385 -0.010102 -0.1233 1.2257 -0.51243 -0.73032 0.5728 -1.0397 -0.54876 0.11519 
aram 1.8492 0.30911 -0.15914 -0.52924 -0.054814 -0.29981 0.24877 -0.22153 1.1864 0.012988 
ksho 0.47641 -0.44543 1.0953 -0.18163 -1.0677 -1.8342 -0.25539 1.4203 -0.0013331 2.023 
okedal 0.74619 0.24672 0.72631 1.616 0.55408 -0.37112 -0.31788 -1.8672 1.37 -0.67523 
todaiin 1.6663 0.71414 -0.67082 0.51096 0.42929 -0.12821 0.36754 -0.16891 -0.12082 0.81763 
qokan 0.62415 -0.0079008 -0.31358 -1.0136 0.31053 -0.97675 0.17195 -1.6225 -0.3934 0.63352 
choldy 1.4945 0.20869 -0.15214 0.61909 0.77862 -0.1923 -0.33261 0.21695 0.33269 1.2251 
ykchdy 2.4807 0.00038388 0.74325 0.32003 0.11164 -0.26476 0.029445 0.13715 -0.64189 -0.21183 
lkchey 0.40747 -1.6117 -0.38859 0.55484 -0.94473 -0.90332 0.41079 -0.61329 -0.69155 0.92732 
cphey 1.6249 0.53036 -0.3827 0.69115 1.7196 -0.39641 0.49208 -0.15589 -0.091982 0.69576 
olkam 1.1974 -0.47497 0.0069594 0.89498 -0.0084569 0.065486 -0.4857 -1.0771 -0.4952 0.54494 
ctheol 0.60951 1.5891 0.45288 0.64799 -1.6773 -0.34495 0.43771 -0.33638 0.26564 1.8478 
oteeol 0.43806 -0.81638 -0.015615 0.34495 -0.48519 -0.50668 0.70274 0.11189 1.6022 1.1458 
tshedy 0.95898 -0.35333 0.31938 -0.27434 -0.0033272 -1.1721 1.5012 -0.46555 -0.26635 -0.87752 
dchdy 1.5149 0.29675 1.6252 -0.50622 0.093957 -1.0969 0.32307 -0.19726 0.046396 -0.9999 
qokeeor 0.67669 -0.26914 0.30433 1.617 -0.85774 0.073937 -0.22474 -0.62508 -0.25837 0.86765 
alam -0.22837 -0.46492 0.27837 -0.074718 -0.53354 -1.4015 -0.88981 -0.82931 1.3085 0.70834 
opy 1.1849 -1.2817 0.29808 0.62151 1.769 -1.3065 0.045063 0.42917 -0.61187 0.70304 
oteeos 0.89507 -0.014867 -0.45363 0.39656 0.22664 -0.23452 0.15642 -0.57893 2.1953 1.2952 
qoked 0.8197 -0.43859 1.0138 -0.071317 0.63709 -0.74842 0.54842 -1.9651 1.5162 -0.86914 
cheoky 1.4084 -0.50914 0.71508 -0.064943 -0.37428 -0.15717 -0.7756 -0.06964 0.20499 0.77781 
tchody 1.2957 -0.55568 -0.12807 1.7648 -0.17321 -0.90783 0.34665 0.99762 -0.74497 0.59146 
cheom 0.14298 0.31581 -0.30596 0.57319 -1.1824 -0.52564 0.49372 -0.46492 0.80366 0.84216 
alol 0.82448 0.45728 -1.1908 0.15088 0.074757 -1.0819 0.85428 -0.9662 0.11987 -0.25493 
chcthey -0.58158 -0.45646 1.3624 0.7293 0.60214 -0.64352 1.075 -0.82276 -0.045857 0.92081 
shcthey 0.99323 -0.98098 0.67631 0.0032614 0.028235 -0.46969 0.41905 0.085369 -0.71714 0.6252 
lcheedy 0.63667 -0.95343 1.0986 0.39878 -1.364 -0.16175 0.83808 -1.1463 0.77025 -0.023286 
ykor 1.9292 0.57304 -0.88656 0.84593 -0.16371 -0.6724 1.0665 0.65525 -0.20917 0.42924 
oto 0.34627 0.86534 -0.15836 0.97384 -0.011741 -1.1115 0.021636 -0.0584 1.385 -0.087041 
sheeo 0.36523 -0.71953 -0.31482 0.51501 -0.52608 -0.46129 0.91087 -0.30773 0.23505 0.40246 
qolchedy -0.31104 -0.22523 1.4953 -0.34326 -0.087084 -1.5552 0.086906 -2.5364 -0.84674 0.47153 
cthal 0.99576 -0.16767 0.17994 -1.2555 -0.69663 -2.1664 -1.0218 0.34608 -0.041606 1.1951 
odor 0.98362 0.11317 -0.073683 1.6224 0.0079536 -1.4197 -0.42933 0.68307 0.18454 -0.39612 
cheeey 0.10108 -0.72242 -0.21916 0.24533 -0.96146 -0.97265 0.90723 -0.046917 -0.32635 0.741 
paiin 0.8289 -0.9267 -0.43336 0.7824 -0.1591 -0.79671 -0.69593 -0.48052 -0.54505 0.64061 
schedy 0.33831 -0.56231 1.501 -0.67294 -0.48413 -1.8197 0.89648 -0.85689 -0.55708 -0.76868 
okaldy 0.91308 0.65605 0.27062 1.2079 0.69536 -1.2287 -0.69868 0.064356 0.85891 -0.37048 
okeos 0.55455 0.77457 0.26797 0.35684 0.064299 -1.0885 0.42261 0.16652 2.1664 0.16962 
dsheey -0.43242 -0.70637 0.61387 0.21889 0.11523 -0.67877 0.29016 -1.0255 -0.39003 1.2397 
okedar 0.84185 1.1939 1.2008 -0.095853 0.53252 -0.91057 1.165 -1.5872 1.2578 -1.0608 
araiin 0.71622 -1.074 0.065386 0.1547 0.11533 -0.64011 0.089826 -1.1201 0.95952 -0.32855 
ochedy 0.18138 -0.43731 0.65397 1.0475 0.99776 -0.90102 0.84202 -0.30544 0.88863 -0.32558 
kshy 1.1072 0.32979 -0.28269 -0.024404 0.91131 -1.2506 0.8379 0.44476 -0.97635 1.0791 
alor 0.39061 -0.11427 -0.44017 0.97876 0.057151 -0.92386 0.43378 -0.11747 0.3058 -0.18158 
chokal 1.2629 0.58119 0.48957 1.5018 0.694 0.18054 -0.16594 -0.42654 0.095438 0.54398 
olcheol 0.23615 0.79179 -0.045524 0.59659 -1.2793 -0.85593 -0.48893 -0.76538 0.045302 0.49913 
chotol 1.7958 0.63613 0.40215 0.74664 1.3075 0.12762 0.79333 0.34364 0.82129 1.724 
tai!n 0.59562 -0.75954 0.19229 -0.603 -1.3366 -0.8473 0.12443 -1.206 -0.41641 0.44405 
lchy 1.2157 -0.41751 1.4143 -0.21041 -0.57062 -0.55545 -0.78585 -1.2474 -0.97537 0.38162 
lkl 0.015024 -1.4695 0.012737 -0.88322 -0.31738 -2.458 0.89007 -0.4148 0.2936 -0.089037 
tshey 0.068312 0.37255 -0.14121 -0.252 -0.2831 -1.1678 -0.46167 -1.0907 -0.24538 0.38549 
oeedy 1.5329 -0.68902 -0.37672 0.50835 0.19465 -0.46361 0.06888 -0.41572 0.4544 -0.37571 
chod 0.93915 0.3344 -0.1842 1.2934 -0.087771 -0.47876 1.2298 0.53879 -0.21122 0.38309 
olchy 1.0182 0.20457 0.14123 0.19472 0.53534 -0.5287 -0.61589 -1.1639 -1.0385 0.51079 
otcho 1.2765 1.1647 -0.1238 1.041 -0.16705 -1.0969 -0.13817 0.59727 -0.85282 1.1051 
lsheey 0.97654 -0.28317 0.481 -0.69813 -0.53869 -0.34348 0.87818 -2.3046 -0.27764 0.22761 
chedain 0.60996 -1.0426 -0.22441 0.7143 0.51085 -0.40349 1.1087 -0.78762 0.66862 -0.088381 
dsheol -0.1758 0.32817 0.42 1.2018 0.02089 -0.86842 -0.21379 -0.81742 -0.85621 0.42027 
pchey 1.116 -0.99855 -0.14378 -0.28977 0.51312 -0.88065 -0.35452 -0.43571 -0.21181 0.16081 
p!!!ol 0.88539 -0.64287 0.20139 -0.42291 -0.27502 -1.3086 -0.82784 -1.595 -0.9409 0.13753 
tcho 1.1647 0.3329 0.76261 0.43168 0.67547 0.21275 0.39017 -0.22722 -0.51982 1.6396 
chkey 0.56574 0.45276 0.76003 0.40284 0.076252 -0.26015 0.64859 0.25986 1.6107 0.88367 
t 0.22903 0.7673 0.3895 -1.0473 1.4447 -1.4857 1.6242 -0.35808 0.44269 1.8839 
qocthy 1.1194 -0.10223 0.34174 1.0407 -0.63188 -0.87036 -0.37307 0.99804 -0.099186 0.97197 
s!ar 0.26527 0.94312 0.54633 -0.076552 0.26797 -1.1935 -0.04417 -0.40816 0.39835 -0.24959 
rai!n 0.95293 -0.68769 0.34252 -0.15638 -0.48777 -0.28293 0.12152 -0.94077 0.39092 -0.078129 
sheeor 0.82826 0.48356 0.025277 0.38549 -0.31068 0.13863 -0.61728 -0.86259 1.0899 1.852 
x 0.46697 1.4788 -0.56423 -0.36611 2.5222 -2.1406 1.439 -1.0856 1.6592 2.2262 
chdor 0.62493 -0.51661 1.0244 1.4614 -0.84995 -0.86743 0.89423 -0.38759 -1.3257 -0.40073 
shoky 0.67761 -0.0053602 -0.74579 0.29893 0.46358 -0.68355 -0.6947 -0.81355 -0.30091 1.4575 
kshey 0.29667 -0.32961 2.179 -0.12234 0.12935 -1.0647 1.0498 0.12026 -1.034 0.54086 
ro 0.87884 -1.8019 0.064869 -0.1351 -1.0309 -0.60241 0.48223 -0.28244 -0.67181 1.1691 
aim 0.65767 -0.057989 -0.74023 0.6497 -0.1033 -0.57218 0.49548 -0.30079 0.68686 0.13642 
olsheey 0.59158 0.080923 0.69575 -0.81119 -0.38224 -1.035 -1.6286 -1.0754 0.56957 1.6866 
sholdy 0.76584 0.27074 0.72924 0.99475 -0.18746 -0.54025 -0.49977 -1.3803 -1.9488 0.87435 
dcheol -0.40027 -0.30241 1.5816 1.3592 -0.69631 -1.099 -0.069859 -1.209 -1.0662 0.36705 
shckhedy 0.89822 0.90434 0.64115 0.66932 0.61422 -0.59628 0.43211 -2.5375 -1.0827 0.039203 
ycheeo 0.83325 -0.53932 0.074106 0.15074 -0.58711 0.065818 0.90802 -0.6387 0.16456 0.59142 
otary 0.83536 0.46817 0.031037 0.0022069 0.98194 -1.4104 0.12676 -0.11201 0.19271 -0.5336 
oldaiin 1.6936 1.0616 0.10465 0.62419 -0.74399 -0.037847 1.0852 0.1072 0.2112 0.30053 
chcthedy 0.78791 -0.66722 0.41462 0.79617 1.166 -0.47633 0.46757 -0.92385 1.04 -0.34762 
deey 0.98461 1.1805 0.73023 0.78633 0.049352 0.35586 1.5642 -1.042 -0.99665 1.1256 
keeor -0.26431 -0.85256 -0.44885 0.69411 0.03432 -0.71716 -0.16809 -0.83083 0.10074 1.7324 
qokeo 0.57878 -0.32927 1.51 0.70995 -1.2188 0.086231 0.18441 -0.2994 0.43744 0.89645 
otshey 2.6179 -0.74595 0.42021 -0.91658 -0.0057582 -0.8373 -1.0235 -0.48725 -0.072132 -0.03701 
ycheedy 0.26149 -0.72056 1.8004 1.4705 -0.68449 -0.60159 -0.1031 -0.83991 0.051375 -0.37151 
lkey 0.45446 -0.59913 0.13056 -0.6801 0.56081 -1.0834 0.26986 -0.71357 0.8877 0.070645 
oteeey 0.29952 0.1368 0.090325 0.39525 -0.55559 -0.40945 1.4094 -0.93121 1.0992 -0.25395 
choteey 0.50214 -0.33641 1.3603 0.37418 0.26256 -0.06444 0.1508 0.12661 1.9914 1.6614 
otaldy 1.0501 1.2761 0.5226 -0.49838 -0.14408 -1.5082 0.37736 -0.073729 1.288 -0.84024 
cphedy 1.0765 -0.60245 1.1083 0.31815 -0.4352 -0.59481 -0.0025663 -0.040221 1.0131 -0.63009 
qodal 1.5943 -0.38499 -0.26829 2.5263 -0.40196 -0.52663 0.18662 0.37701 -0.34888 0.28622 
dom 1.2937 0.29318 1.327 0.78087 -0.029315 -1.2018 0.41925 1.6631 -0.39073 1.1825 
ykey 0.37363 -0.13129 0.11377 1.1275 0.30666 -1.6705 -1.2226 0.2296 0.82554 0.37663 
lcheol 0.88461 -0.06122 1.04 -0.046892 -0.56107 -0.39533 -0.3833 -1.0376 0.20806 -0.18361 
lsheedy 0.69441 -2.2202 1.007 -1.1548 0.72097 -1.518 1.3045 -1.4444 0.26243 0.12294 
oko 1.1819 0.037797 0.31656 0.89673 0.4612 -0.36527 -0.39027 0.43266 1.2167 0.57574 
ydy 0.62103 0.054473 1.8012 0.4492 -1.1686 -0.4901 0.35984 0.080127 -0.085115 0.054988 
sheoky 1.0837 -0.5513 0.80205 0.12113 -0.35623 0.20241 0.24098 -0.9319 -0.88509 1.0777 
qockhol 0.63237 0.063664 0.46954 1.4526 -1.2198 0.20564 0.22368 -0.68413 -0.36648 1.1357 
eeedy -0.15066 0.10905 0.45001 0.052672 0.13056 -1.0099 0.9121 -1.0198 1.3424 -0.28016 
ochey 1.0863 0.38036 0.40756 -0.19398 -0.13976 0.45719 1.3466 -0.99654 0.82658 0.65859 
qokear 0.54402 -0.40361 1.435 0.90066 -1.2027 0.066284 0.58578 -2.4258 0.24827 -0.010084 
orain 0.73522 -0.30964 0.85019 -0.94962 0.49547 -0.33821 0.57118 -0.35934 1.1431 0.7532 
kcheol 1.2544 -0.26595 0.6345 0.26356 -0.76424 0.36907 1.2578 0.10493 1.1247 3.0069 
cheodal 0.9581 -0.38324 -0.35887 1.9497 -0.32146 0.12706 0.27214 -0.62169 -0.33765 1.0412 
loly 1.2152 -0.45212 2.077 -0.26164 0.087453 -0.14038 0.24793 -1.2176 0.50572 -0.20395 
okcheey -0.33407 -0.70741 1.4777 1.1542 -1.2117 -1.3029 0.56701 0.2982 1.0507 -0.050689 
chokar -0.052513 -0.20551 -0.49544 0.78256 -1.1536 -1.1497 0.53202 -0.40343 0.54116 0.19278 
olain 0.263 0.37329 0.37772 0.28534 0.63649 -0.77843 -0.3135 -1.1716 -0.47429 0.1746 
oteed -0.4504 -0.24064 0.9197 0.28184 0.24824 -1.0223 0.77788 -0.48574 0.68401 0.084763 
schey 0.94587 1.1438 1.0233 -0.82586 -0.21399 -0.17249 1.4523 -0.51472 -0.29024 1.5905 
qoly 1.8971 -0.32563 0.75518 -2.2106 -0.36674 -0.96382 -0.40915 -1.5242 -0.14841 0.91553 
l!chedy -0.52045 -0.23328 0.73645 0.61689 0.48597 -0.97895 0.72004 -2.2725 0.42852 -0.02175 
daram 1.0149 0.090697 -0.35317 0.3208 0.74619 -0.90325 0.93313 0.4664 0.70179 -0.045355 
dalor 0.73617 -0.48206 0.19648 -0.19602 -0.78149 -1.994 -0.76993 0.59029 0.71788 -0.085499 
tshol 1.9089 1.1926 -1.0202 0.82216 0.73531 -1.5468 0.12051 0.3393 -0.69025 0.18258 
shory -0.050774 0.58978 1.1077 0.96588 0.52096 -1.9511 -0.40353 0.5821 -0.80542 0.83746 
arar 1.4088 -0.045219 -0.19824 0.55649 0.29235 -0.73397 -0.58559 -0.38363 1.7804 -0.30625 
chekey -0.14673 0.75866 0.25373 0.50198 0.31779 -0.58336 0.59149 -1.0811 1.0107 0.24119 
chtal 0.62059 -0.86794 -0.096689 0.72568 -0.535 -1.0912 -1.5179 -1.4523 -0.44574 0.61604 
ety -0.51922 -0.071485 0.087851 0.68042 0.46605 -1.7384 0.19976 0.37336 -0.34473 1.0831 
oldar 0.11188 1.0066 0.22301 0.40292 0.43293 -2.3181 1.4028 0.14475 0.61721 -0.92787 
ockhey 0.74852 0.46745 -0.050506 1.149 -1.0664 -0.59937 -0.074325 -0.37412 0.97052 -0.21543 
por 0.0038416 -0.0046545 0.1185 0.34052 -1.0526 -0.47962 0.43273 -0.68947 0.73621 0.43371 
qoeeey -0.33879 -0.88112 0.18302 1.4123 -0.46782 -0.83895 0.37091 -0.29622 -0.29487 0.7269 
chodal 1.2039 -0.21362 0.087877 1.5591 0.68908 -0.39552 -0.2218 0.11617 0.53373 0.21666 
ysheey 1.5981 -0.17455 0.69861 0.59464 -1.095 0.0086994 0.26072 -0.32574 -0.025053 -0.27344 
lkeeey -0.95401 -0.86348 -0.13484 0.11113 -0.82895 -1.4101 0.2947 -1.3453 0.66332 1.5896 
okchd 0.58441 0.14386 -0.14417 0.40692 1.229 -0.57535 1.2028 -0.62114 -0.0075583 0.1894 
sham 1.2942 -0.76695 0.3067 -1.0215 -0.8316 -1.0247 -0.20452 -0.28487 0.57392 0.027794 
oeees 1.3831 0.45319 -0.4483 -0.044831 -0.37666 -1.554 -0.1688 0.96522 1.1393 0.2083 
yteeody 0.13702 -1.0088 -0.048908 1.4635 1.1925 -1.2534 0.78394 0.29565 0.74978 0.32644 
qokees -0.25228 -0.53 -0.059772 0.47175 1.2343 -1.0709 0.42002 -1.1024 0.75115 0.44959 
cthdy 0.013848 -0.53298 0.031083 0.33093 1.4174 -1.2143 0.58962 -1.2277 0.087045 0.0060038 
f -0.009091 1.6423 -0.40487 -0.26638 1.8566 -2.6296 1.5818 -0.3419 1.2465 1.9698 
sary -0.011524 0.78896 0.72086 0.93586 -0.19671 -1.4666 -0.3225 0.63693 1.3002 0.54727 
keo -0.3129 0.37644 0.22392 1.2489 -0.093665 -0.37752 0.37904 -0.6463 1.0109 0.9634 
yshedy 1.4242 -0.56231 2.07 0.30928 0.34543 -0.14694 0.016591 -0.68522 -0.32719 -0.17418 
ytody 0.78929 0.85579 -0.23303 1.4547 0.8259 -0.66605 -0.13517 -0.081499 -0.0052002 0.5647 
otear 1.1348 0.45066 -0.65615 0.79904 -0.64844 -0.24849 -0.049127 -1.9351 1.5534 0.0031816 
polaiin 1.9725 -1.0251 -0.12819 0.078001 -0.98444 -0.11064 0.44132 -0.662 -0.16436 -0.17532 
dalol 1.463 0.093923 0.49383 1.0847 0.53368 0.05887 -0.64305 -1.0942 0.028207 -0.0719 
shoiin 0.9274 -0.28224 0.59606 -0.144 -0.027067 -1.1726 0.56619 0.41613 -1.5295 1.3749 
qoy 1.3402 0.41908 -0.11448 0.319 0.3826 -0.89973 -1.3533 0.025137 0.66029 0.80853 
orai!n 0.17565 -0.54414 0.11935 -0.010958 -1.1601 -0.89966 0.45405 -0.52238 0.28596 0.070712 
tam 1.1602 0.64381 0.97172 0.5145 0.16179 -1.0474 0.9157 0.12402 -0.86388 -0.75759 
lchal -0.16771 -0.93991 -0.73425 0.23935 -0.13637 -0.77411 0.41019 -1.0598 0.63623 1.3709 
cphor 0.71542 -0.34559 0.45561 -1.3458 -0.30054 -1.82 1.4528 1.1536 0.27589 1.4375 
qokeod -0.31386 -0.19081 1.2061 1.2247 -1.2654 -0.44426 0.4122 -0.42443 1.1911 1.1899 
shedar 1.5401 -0.16861 0.30805 0.8076 -0.54848 -0.90344 0.22783 -0.0098468 0.072356 -1.137 
okoiin 0.45661 0.047678 0.19467 0.53673 -0.8004 -1.0672 -1.1074 0.27045 0.50263 1.5726 
lar 0.88596 -0.86623 0.64842 -0.38581 -0.67808 -0.30595 0.1599 -0.66315 -0.46145 0.56538 
chepy 1.389 -0.71507 0.020976 0.49951 -0.074379 -1.2392 -2.1188 -0.65971 1.0605 0.16442 
shockhy 0.72015 0.93777 -0.010131 1.3687 -1.0231 -0.45076 -0.11239 -0.74942 -1.0692 0.57879 
ykain 0.95471 0.46642 -0.25596 -0.51634 0.63947 -1.3508 0.77864 -0.42957 -0.20453 -0.43423 
ykeeo 0.67368 -0.13202 -0.047531 0.83143 0.29735 -1.0063 0.11537 0.27263 0.98498 -0.30392 
pchol 1.3022 -0.32509 0.20616 -0.54553 -0.56782 -0.72257 0.2568 0.49499 0.81981 0.13291 
okoldy 1.7771 0.50371 0.60611 1.2243 -0.086602 -0.15203 -0.60784 -0.42518 -0.15524 -0.34899 
doiir 1.2486 0.84671 1.3853 0.92886 -0.1789 -0.35398 -0.017251 0.73978 0.3811 0.50147 
olal 0.74407 -0.31589 1.0461 -0.20853 -0.9366 -0.51145 -0.79071 -0.85611 0.53892 0.20825 
tcheey 0.53153 -0.096611 0.78976 0.32586 1.0294 -0.49574 0.73879 -0.044051 -0.80124 1.8291 
kcho 0.9087 -0.11926 0.44671 0.54605 0.30206 -0.49295 1.0228 0.88045 -0.27183 1.3212 
qolkeey 0.22923 1.1258 1.0148 -0.95938 0.27574 -2.1669 0.51883 -0.47655 0.076486 -0.54526 
ofchedy 2.2498 0.085999 0.26223 0.70222 0.067494 -0.93202 -0.33069 -0.89875 -1.9045 -0.62439 
chetar 0.96672 -1.1433 -1.2097 -0.17751 0.6214 -1.5818 -0.36134 -0.25893 1.1805 0.65091 
lteedy 0.60665 -0.47503 1.0138 -0.15454 -0.67298 -0.043588 1.0583 -1.2284 -0.4241 0.46747 
ykchey 0.35553 1.1861 0.20857 0.98671 -1.8907 -2.1682 -0.66775 -0.18611 -0.14873 -0.16001 
okaiir 1.4853 1.3883 -0.76652 -0.21624 0.090143 -1.2043 0.95201 0.24696 0.031814 0.2062 
qotaly 0.8327 -0.8564 -0.79564 1.6395 0.82345 -1.3422 -0.07288 -0.96924 -0.71103 -0.40314 
ykair 1.4716 0.21929 -1.2479 1.1297 0.26662 -0.90166 -0.091127 -0.3367 0.4519 -0.3399 
cphaiin 0.76116 -0.93108 0.20981 -0.33371 0.27891 -1.3526 -0.27443 0.41387 -0.69509 1.4878 
ofar 2.1491 -0.18453 -0.84335 0.17796 -0.23898 -0.24908 -0.036806 -0.35616 0.35153 0.083626 
chdain 1.0723 -1.002 1.4635 -0.47849 0.80025 -0.81093 0.2432 0.44 0.33349 0.41203 
da 0.57167 0.87781 1.9397 -0.46018 -0.16257 -0.59399 -0.34339 -0.13899 0.66661 0.77183 
qokoiin 0.013113 -0.83264 1.3152 -0.2542 0.082023 -0.69117 0.60345 -0.38023 -0.78812 2.0385 
okchody 1.254 1.2973 0.066668 0.73614 -0.45646 -1.2543 -0.41362 0.93643 1.3331 0.64062 
qod 0.57724 -0.77384 0.30129 -0.16134 -0.55495 -1.3972 0.55038 0.6783 -0.76753 0.39321 
ochor 0.75507 0.24951 -0.10848 0.070894 0.60274 -0.9602 2.175 0.56526 0.08853 0.60192 
od 0.41752 -0.057274 0.74537 0.17948 -0.63519 -0.59981 -0.91813 -0.072498 0.38957 1.6889 
tcheol 0.49172 0.53807 1.0092 -0.096102 -0.27928 0.21808 0.90453 -1.1021 0.044533 0.82305 
qoko -0.4936 0.069249 0.061698 1.4099 0.20429 -1.0422 0.23021 -0.26538 -0.38294 0.72461 
olkeol 1.323 0.041974 -0.24833 0.61561 -1.466 -0.62807 -1.015 -1.1695 0.0053974 0.066892 
qokeedar 0.59974 -0.75208 0.30599 -0.13826 1.7107 -0.47371 1.2646 -2.4387 1.7011 0.4636 
opcheol 1.6598 -0.49173 -0.046779 0.95271 -0.22093 -0.015355 -0.86082 -0.49891 0.292 0.23458 
ckheol 0.1813 1.5504 0.85106 1.39 -0.71254 -0.87585 -0.95995 -0.56554 0.19419 1.0754 
ykaly 1.4372 1.193 -0.9064 0.52312 -0.42505 -1.3129 -0.57744 -0.52844 0.89221 -0.36486 
tcheo 0.41997 -0.051924 0.90116 0.80393 0.63544 0.24484 1.5411 -0.84506 -0.35945 0.87046 
shain 0.95757 0.69768 0.31574 -0.41707 -1.0668 -1.3734 -0.17016 0.52714 -0.36659 0.70923 
chcthdy 0.99195 -0.73726 0.52923 1.372 0.39927 -1.0981 0.51281 -0.92993 -0.26618 -1.3971 
lched -0.18324 -1.3341 1.9321 0.14168 -0.5524 -1.1549 0.062328 -1.6224 0.37619 0.11552 
sos 0.8692 0.54086 -0.38999 0.27893 1.5179 -1.1945 -0.024636 0.29527 0.25443 1.877 
oteal 1.2159 -0.54847 0.23329 1.0522 0.4894 0.26775 -0.3896 -1.7734 1.2377 0.42024 
oshey 0.87757 0.41254 0.33623 -0.16261 0.34249 -0.21537 0.20231 -1.1784 0.84732 0.0079631 
oldam 1.934 1.5623 1.2653 -0.044486 -1.2216 -1.161 0.71237 0.51526 -0.36319 -0.49041 
chkedy -0.46739 -0.17783 0.16296 -0.25677 1.116 -2.2974 1.7394 -1.4928 -0.59904 -0.044281 
chedai!n 0.4205 -1.5543 0.4948 1.3869 0.16935 -0.078993 0.68624 -1.567 0.43475 0.28147 
pcheody 1.055 -0.046293 0.71486 1.9814 0.60588 -0.71071 0.16828 0.17392 -0.071553 -0.56099 
shekey 1.2157 -0.19551 0.4892 0.82479 1.8493 -0.11375 0.43794 -0.54265 1.0897 0.4099 
qokeechy -0.62792 -0.33168 1.4209 0.22547 -0.77264 -1.2016 0.44192 0.021068 0.74749 0.6034 
odai!n 0.92036 0.45711 0.46687 0.3871 -0.95533 -0.68368 0.60693 0.12771 0.31971 -0.58706 
ykcho 0.77138 0.41402 1.2133 0.35454 0.50173 -0.045847 1.5897 0.11354 -0.44161 1.4985 
okan 1.105 1.0265 -1.6517 0.2402 0.027852 -1.0051 -0.33222 -1.3712 0.069677 0.7765 
chd 0.81633 -0.88426 0.744 0.47791 0.82726 -0.68001 -0.25442 0.21716 0.017509 0.46798 
okechy 0.40797 -0.51753 0.83697 1.2898 0.26151 -0.1833 0.35668 -0.54484 0.64775 -0.032451 
tsho 2.1986 0.48272 -0.62113 -0.37473 -0.31502 -0.63035 1.9357 0.56969 0.14301 0.63228 
ockhedy 0.44917 -0.84979 -0.13769 0.93183 0.31385 -0.22616 1.1815 -0.84498 0.44672 0.25826 
ykchol 0.85329 0.66846 -0.6376 1.3509 0.23987 -1.5166 -0.11524 0.5058 -0.6079 0.61329 
qopchol 1.0675 -0.059965 0.49346 0.47826 0.064783 -0.78762 2.1963 0.24846 0.0031385 -0.51604 
otchar 0.89442 1.3025 -0.83231 0.12624 -0.26326 -1.1991 0.49193 -0.55976 -0.88811 0.29857 
qopol 0.94174 0.68159 0.3506 1.9826 -0.016892 -0.78992 2.4898 -0.045023 -0.80424 -0.48554 
s!al 0.79446 1.2975 0.8401 -0.32208 -0.15008 -0.25862 -0.24002 -1.2236 -0.18959 0.69002 
qokshey 1.7063 0.11128 0.99038 0.11956 -0.39088 0.087464 1.0169 -0.6819 -0.04912 -0.55075 
keor 0.16919 0.23191 0.052505 0.97085 0.062551 -0.76808 0.1577 0.44802 0.1478 1.4028 
chok 1.0454 1.0288 1.1248 -0.3352 0.54274 -0.039729 0.75097 -0.17854 0.2496 2.3826 
kshedy 1.8498 -1.1841 -0.20516 -0.67762 -0.24343 -1.4647 0.14679 -0.18062 -0.37775 -0.72797 
okos 0.3764 0.85626 0.60451 0.66831 0.6583 -1.5217 -0.26112 0.33806 1.3088 -0.035713 
shd 1.1919 0.10635 0.86055 -0.049985 0.36262 -1.286 -0.73644 0.43706 0.3026 -0.33375 
oteodar 1.0888 0.12913 0.30818 0.47104 1.0481 0.12156 1.0652 -0.55863 1.9545 0.64371 
chary 0.71682 -1.1996 0.71112 -1.197 0.18613 -1.1735 0.84555 0.4578 0.24373 1.1423 
shoty 0.84594 0.8506 -0.12254 1.2015 0.33408 -1.8797 0.19031 1.1184 -0.43755 0.49688 
dalam 1.0675 0.64879 -0.49614 0.54482 -0.19728 -1.0898 -1.3931 -1.2561 0.31667 -0.059193 
cphar 0.40489 0.51531 -1.0445 -1.0403 0.64461 -1.9041 0.53616 -0.21531 0.20464 1.3851 
qokeeedy 1.0384 -1.3362 0.82128 0.18237 -0.33734 0.1573 1.3662 -0.57304 0.11658 0.49493 
ykeeey 1.0095 0.43761 0.50482 0.64498 -0.55716 0.5341 0.73394 -1.5572 0.16735 0.3764 
cheeos 0.9369 -1.0341 0.4402 0.8256 -1.5554 -0.53578 0.60457 -0.18633 1.187 -0.1684 
shkaiin 0.97792 -0.89386 -0.1177 -0.0015913 0.18043 -0.86256 -1.2786 -0.38103 -0.35646 1.4467 
ycho 0.7028 0.60629 -0.49645 -0.38563 -0.17121 -0.69631 1.0303 -0.15977 -0.30965 1.7965 
chokey 0.33965 0.99155 0.97198 1.5279 0.029833 -0.24304 0.09971 -0.20828 0.95608 0.60005 
dcheo 0.2437 0.051524 -0.45814 1.1992 -0.068558 -0.0030804 -0.023795 -1.1384 -0.18284 1.3444 
chetey 1.2676 0.11579 0.64392 -0.16088 1.2552 -0.45537 0.037833 -0.66503 0.95018 -0.20871 
chtol 1.2086 0.27726 0.2398 0.89238 0.040287 -0.66102 0.50715 -0.4216 -1.7327 -0.023355 
dchaiin 0.03579 -0.37801 1.4711 1.0414 0.8389 -0.64079 0.035592 0.10533 -0.19632 2.6008 
kody 1.5789 -0.74408 0.65649 -0.1091 -0.63532 -0.55107 0.38962 0.52138 1.2885 -0.16598 
osaiin 0.81444 -0.52241 0.33106 -0.090285 0.046118 -0.56074 0.83933 0.060612 1.478 -0.0034933 
okeoly 1.0908 1.9028 0.56711 0.87789 0.14054 -2.0394 -1.171 0.34529 1.5463 0.11496 
cfhy 1.6392 0.88776 -0.44755 -0.29136 -0.15643 -1.7877 -0.62213 0.62929 -0.57872 0.82411 
pchodaiin 0.75011 0.1627 1.8947 1.6944 0.17922 -0.75366 -0.13281 0.91266 0.22832 0.56852 
ofchdy 1.4112 -0.32062 0.50514 2.0189 1.4467 -0.18411 0.66376 -1.0976 -0.68248 -0.25993 
chekeey -0.4883 0.71485 -0.20925 1.0239 0.085108 -0.55306 0.9318 -1.0003 1.1621 1.1158 
lal -0.2988 -0.52076 0.76372 -0.72869 -0.8716 -1.4674 -0.29968 -1.0077 0.57155 0.57301 
rchey -0.22122 0.074505 0.5335 -0.15721 -0.45678 -1.6157 0.61455 -1.5522 -1.2146 0.18897 
shok 0.87598 0.28367 0.71676 -0.99814 -0.11263 -0.1984 0.5417 -0.43005 1.2278 0.64084 
qopy 1.7399 -0.49923 0.048325 -0.96804 1.8521 -1.5275 -0.1073 0.3325 0.61799 0.50806 
aror 1.1032 0.055216 0.22063 0.024338 0.5904 -0.25391 1.5556 -0.9182 -0.46154 -0.1416 
sodar 2.3287 0.78381 -0.55073 1.1401 -0.7192 -0.8319 -1.5163 -0.47996 0.2775 0.14575 
cfhol 2.1923 -0.48847 -0.61726 1.9344 1.0777 -1.2628 -0.5566 0.89493 -1.0052 1.573 
qoteeody 0.48681 -1.1958 0.35833 1.403 0.082583 -0.32348 -0.17866 0.28616 0.90122 1.426 
ctheody 1.0591 0.36739 1.0247 1.6398 -1.0907 0.48336 1.0788 -0.18164 -0.037256 1.4777 
ar!aiin 0.32511 -0.55673 -0.91791 -0.03444 0.058531 -1.1397 0.77378 -0.8173 1.1591 0.053088 
cheam 0.49298 -1.0058 1.0925 -0.55585 -0.51142 -0.57906 -0.2314 -0.4121 1.205 0.86355 
oro 0.22707 0.59363 0.34753 -0.46204 -0.82987 -1.2358 1.3527 0.17297 0.17324 0.1371 
qockhedy 0.63127 -0.89694 1.591 -0.38873 -0.73889 -0.87573 0.62118 0.2666 0.11108 0.094147 
qochey 0.62913 -0.61885 1.6274 0.3174 0.18079 -0.14969 1.6753 -0.17997 -0.0077822 0.26033 
chkai!n 0.89436 -0.96816 -0.37362 -0.22249 -0.94255 -1.2413 0.42865 -0.90886 -1.145 0.0051842 
shekeey -1.0394 -0.40893 1.0534 1.229 0.36452 -1.535 -0.91149 -0.88959 0.4719 1.3518 
ykchedy 1.2629 -1.2777 0.42543 0.35224 -0.33761 -0.92457 -0.35996 -0.15089 0.54948 -0.62059 
ch 0.62776 0.74067 -0.036059 0.017663 0.22011 0.14474 0.33616 -1.1814 0.07234 1.0369 
ykees 0.55778 0.48845 -0.061706 -0.22402 0.3421 -0.37918 1.4197 -0.45992 1.0177 0.3712 
chckhal 0.84865 -0.71254 0.09571 0.17503 -0.9895 -0.52406 -0.57108 -2.015 0.45654 0.052077 
sheed 0.087662 -1.3406 0.66886 0.022315 -0.21338 -0.63488 1.6449 -1.7184 0.054128 0.3151 
ypchdy 2.135 -0.84722 0.57325 0.6937 1.4809 -1.195 1.2908 0.65174 0.12055 -0.74744 
polchedy 0.32511 -1.2299 0.84579 -0.31806 1.0249 -1.4676 0.44268 -0.85341 0.29641 -0.30427 
lpchedy 2.2564 -2.0516 0.71911 0.69135 -0.088437 0.35155 0.48291 -0.55776 -0.71426 0.97934 
ykeor 0.93087 0.91394 0.43915 -0.013617 -1.6746 -0.85934 0.12835 0.48975 1.3237 1.1891 
oy 0.052848 0.12132 0.21871 0.4815 -0.63741 -0.71805 1.5859 0.019969 0.81767 0.28033 
choaiin 0.53193 -1.2421 0.26394 1.2861 0.16985 -0.94636 0.1427 0.73891 0.053544 0.53492 
chedol 0.6238 -1.0704 1.1043 0.28218 -0.11311 -1.1291 0.22517 -0.69945 0.10311 -0.84885 
opchol 0.79114 0.38298 -0.15672 -0.13999 0.47787 -0.90676 1.4466 0.26674 -0.29208 0.28289 
okeeos 0.84127 0.56309 0.39371 1.4092 -1.2202 -0.61787 0.032424 -0.067477 2.1728 0.18483 
qotair -0.48461 -0.10657 0.2242 0.67906 -0.23866 -1.4677 0.673 -0.15028 0.016678 -0.19647 
oksho 0.58043 1.9984 -0.68248 1.9276 0.80067 -1.0979 0.5991 -0.6042 -0.84925 1.5812 
opor 2.0912 -0.38353 0.28499 0.56908 -0.28246 -0.52925 -0.23918 -0.5198 0.55369 -1.1549 
cheekey 1.3599 0.38485 -0.2711 -0.43752 -0.75138 -0.18346 0.68798 -0.96694 0.74974 0.07108 
soraiin 0.61322 -0.16553 0.3819 0.17778 -1.115 -0.39457 1.6058 -0.12134 0.21603 0.10805 
dody 0.97824 -0.25152 0.52894 0.99344 0.78811 -0.89053 0.86061 0.82418 0.32411 -0.17613 
keeedy 0.31554 -0.67927 0.40215 -0.84555 -1.0989 -0.83833 -0.2374 -1.2091 0.93753 0.7757 
ltedy 1.142 -1.4949 0.94404 0.60861 0.44994 -0.40959 -1.0626 -1.7015 0.80186 0.15151 
otcham 2.2457 0.5018 -0.43974 -0.098673 -0.93194 -0.10185 -0.14873 -0.085791 -0.037087 1.0383 
olkair 2.0211 0.017688 -0.85344 -0.32374 0.38993 -0.7413 0.29851 -1.9712 -0.76775 -0.23475 
ytain 1.0981 0.44448 -0.87365 0.70639 1.0473 -0.74271 0.77341 -0.4161 -0.37406 0.11906 
olai!n 0.087431 -0.11876 0.070999 -0.19463 -0.2694 -1.3437 -0.17596 -1.5921 0.35951 -0.3904 
odair 1.0494 -0.047376 0.33462 0.12169 0.059992 -0.75678 0.6995 0.62034 1.2251 -0.16691 
ail -0.13849 -0.89993 -0.44231 0.29215 -1.0994 -1.8307 0.38386 0.08513 -0.065759 0.42443 
ytai!n 1.0915 0.3391 -0.1756 1.1031 -0.076044 -0.73407 1.1333 -0.97665 -0.011536 -1.1995 
qotshy 1.8955 0.38346 0.86826 -1.0947 -0.1733 -1.7136 1.3843 1.1318 -1.2061 0.65256 
qokod 1.384 -0.40613 0.37089 0.82647 -0.49103 -0.70989 -0.57109 0.90725 0.73585 0.5231 
lkal 0.95563 -1.2219 -0.66306 0.8758 -0.057061 -0.87231 -0.63113 -1.7394 0.25349 -0.069102 
tshdy 1.4938 -0.82317 1.268 0.011848 1.0211 -1.3712 -1.3353 -0.099569 0.40941 -0.1493 
rary -0.15696 -0.38828 0.32343 0.30677 -0.88525 -1.4526 -0.7866 -0.1902 1.2322 0.48949 
ksheody 1.3258 -0.16002 1.0602 0.5848 -0.85446 -0.41472 0.12882 1.0941 0.95786 0.89605 
otchody 0.3179 1.7139 0.50038 0.77838 0.76154 -1.4759 0.82122 0.56404 0.34682 0.43226 
cheokeey 0.14561 -0.9003 0.74462 0.97806 -0.63981 -1.1595 -1.1216 -0.062423 0.86393 0.63294 
p!!!chedy 1.0636 -0.80047 1.0047 -0.12484 1.2356 -0.97584 -0.37779 -2.2005 -0.99638 0.26583 
alom 0.023241 -0.047962 -1.1524 0.46344 -0.52282 -1.5286 0.10701 -1.1063 -0.14989 0.18207 
yk 1.0409 0.21 0.14737 0.26093 -1.0938 -1.407 0.534 0.51177 1.1185 -0.8835 
koldy 0.2459 -0.1327 1.5898 1.0335 0.51468 -0.45069 0.092404 -0.031857 -0.30536 0.52298 
shekchy 1.634 0.82719 0.4439 0.084072 -0.4288 -0.51855 0.72358 0.075432 1.0816 -0.59886 
alaiin 0.77409 0.19224 -0.92922 0.95968 -0.32375 -0.60528 0.024631 -0.75078 0.38702 -0.061406 
as 0.39043 -0.24672 0.40175 0.24571 -0.11475 0.066224 0.65301 -0.90701 -0.046779 0.46896 
chokor -0.33212 1.3265 1.6266 -0.26604 -1.1928 -1.2441 1.4851 -0.040981 -0.1639 1.3497 
cheoar -0.028731 -0.51435 -0.49227 1.7084 -0.81503 -1.8674 0.51506 0.15067 -0.46109 -0.052356 
lkam -0.53541 -0.97381 0.95491 0.96708 -0.40764 -1.565 0.97345 -0.47795 0.3723 -0.39351 
okalal 1.4388 0.94689 -0.55658 1.0888 1.6695 -0.57964 -0.58045 -1.8125 0.11227 0.2842 
a 0.10648 0.66458 -0.4996 0.21643 0.59989 -1.0405 0.32742 -0.52912 1.1042 0.41931 
alkaiin 0.040309 -1.2157 0.85584 0.25345 -0.34251 -2.0514 0.69256 0.38776 0.61059 -0.44902 
opcheey 1.1094 0.16986 1.5353 1.1586 0.9069 0.4639 0.87264 -0.68898 0.34843 0.38613 
oteodaiin 0.2315 -0.17817 -0.57242 1.7641 0.9991 -0.58827 -0.095345 -0.85606 0.83961 0.72027 
schol 1.9503 1.6356 0.84265 0.52938 1.2887 -0.52386 -0.16124 0.4146 0.23634 2.5846 
kshdy 2.8112 -1.2079 0.18215 -0.49724 0.92696 -0.37312 -0.075185 -1.1378 -0.021525 -0.19624 
dals 1.1119 0.67313 0.096085 1.7598 0.15332 -0.058741 0.62238 -0.11916 0.23737 0.082146 
qopaiin 0.97949 -0.96796 0.36673 1.3278 0.5374 -0.84994 1.1117 0.73753 0.57898 -0.29683 
p 0.86269 1.2185 -0.28418 -0.48784 1.1559 -1.094 3.0565 -0.42723 0.47513 1.3659 
ytaly 0.45545 0.11599 -0.34389 0.050541 0.27355 -2.2299 -0.85415 0.60198 0.82324 0.46448 
lchor -0.61083 -0.24392 0.31867 -0.61214 -0.90733 -1.7499 0.79609 -0.72851 -0.36578 0.94303 
eedy 1.0399 0.91326 0.57165 -0.080733 0.89032 -0.16076 1.076 -1.276 -0.15285 0.07979 
odam 0.72595 0.81923 -0.37898 0.78411 0.4961 -0.77659 0.48292 -0.14597 0.13904 -0.017225 
daiidy -0.20489 -0.55658 0.63289 0.78556 0.73495 -0.89208 0.87958 0.46772 0.13446 1.2426 
ldar 1.4464 -0.56727 -0.35502 -0.85529 -0.17823 -0.93469 -0.5982 -0.9434 -0.51106 0.49064 
chkchy 1.804 0.89463 0.14875 -0.61532 1.1267 -0.75134 1.1993 -0.1216 -0.89554 0.97877 
opchor 2.3498 -0.53145 0.55761 0.27133 -0.12182 -1.0342 1.9653 1.3722 -0.75422 -0.050786 
chopchy 1.1244 -0.1474 -1.2922 0.1351 0.27338 -0.22854 0.89985 -0.55253 1.2211 1.9001 
alchey -0.23423 0.31082 0.14277 1.0172 0.97945 -0.9635 -0.54168 -0.94351 -0.090981 0.7531 
par 0.96874 -0.67634 -0.089332 -0.14368 0.53609 -0.47586 0.9553 -0.54491 0.29959 -0.070972 
oror 0.57978 0.63468 0.32742 -0.25888 -0.54914 -0.97834 0.61687 -0.95952 0.87646 -0.76869 
sheckhedy 1.8935 -0.77805 1.0958 -0.83319 -1.7405 -0.45414 0.59794 -2.6917 0.24214 -0.34351 
lam 0.53507 -0.42283 0.71515 -0.064894 0.23476 -0.75852 0.42111 -0.87685 0.11377 -0.54398 
olkeeody 0.42316 -0.18241 -0.031177 1.237 -0.24323 -0.32263 0.82772 -0.014566 0.67384 0.15975 
chockhey 0.063168 0.091668 0.6314 1.7759 -0.47143 -0.79681 -0.88448 -0.3722 0.89771 0.33086 
chokai!n 0.90755 -0.58082 -0.90485 0.055317 -1.805 -0.53807 0.50546 -1.3113 0.086611 0.88156 
okeod 1.1547 1.3442 0.37207 0.63662 0.30075 -0.22383 0.3206 -0.065052 1.4747 0.56072 
koiin 1.5704 1.4395 0.54053 1.3585 0.26004 -0.88604 -0.37295 0.79023 0.12497 0.46893 
chedam -0.16662 -1.7555 0.095118 0.45112 0.60975 -1.3184 1.7889 -0.63335 -0.037896 0.53813 
shty 0.80283 -1.0565 -0.38373 -0.17503 0.54775 -1.6902 2.129 0.44647 -0.076196 0.13052 
teeol 1.9424 -0.51245 0.58086 -0.28941 -0.8817 0.31356 -0.54269 -1.1256 0.11742 0.49839 
psheody 0.78363 -1.3744 0.32726 1.9741 0.20383 -0.85457 -0.27633 0.30672 -0.51139 0.47525 
pchdar 1.6705 -0.79037 -0.98326 0.53665 1.6364 -0.61841 1.0248 -1.3009 0.46839 -0.10201 
shoaiin -0.19867 -0.11951 -1.3507 1.1018 0.53162 -1.787 -0.21016 -0.82145 -0.5513 1.3746 
ykam 0.84332 1.1123 -0.46985 0.85865 0.068632 -2.0782 0.32854 0.33806 0.1144 -0.857 
ytchol 0.92092 0.89755 1.3619 1.4588 0.15892 -1.2567 1.4901 0.73743 -1.4948 0.34159 
qoteor -0.71192 -0.26974 0.79825 1.1072 0.35304 -0.7379 0.27407 -0.95709 0.00048507 0.87406 
chep 1.5439 -0.46017 0.40908 -0.92621 0.57165 -0.36492 -0.51228 -0.71836 -0.15476 0.86206 
yteol 0.69197 0.63305 0.57692 1.4767 -0.42724 -0.057115 0.60221 -0.45453 -0.95538 0.58246 
qolky 0.05915 -0.54348 2.094 0.1148 -1.0467 -1.534 -1.3914 -2.4995 -0.75701 0.78217 
qopshedy 1.6274 -0.35577 1.5644 0.15271 0.81527 -1.3594 0.34651 -0.16768 -1.7439 -0.43389 
yaiin 0.46037 0.35688 -0.16334 0.032508 -1.1147 -0.27803 -0.076469 -1.0036 0.78127 1.046 
qokchd 0.30229 -0.92019 0.44182 1.136 0.84256 -0.81809 0.31328 0.013934 -0.13423 0.32401 
dalal 1.1895 0.42582 -1.3189 0.015597 0.19417 -1.0815 0.036282 -0.71889 0.2347 -0.049408 
okchar 0.69674 0.10016 0.49536 0.9166 -0.47052 -1.369 0.16975 0.85767 -0.73077 0.031781 
qoteeol -0.29696 -0.76792 1.5554 0.83365 0.86583 -0.69856 0.57288 -0.134 -0.41312 1.5822 
alody 0.90789 -0.15114 0.11013 0.81786 0.74746 -0.63736 0.6026 -0.17141 1.0947 -0.56587 
ckhedy -0.20661 0.078955 1.4679 -0.17043 0.47162 -1.8007 1.4346 -1.25 1.0071 -0.92087 
cheoty 2.0376 -0.42414 -0.082201 0.4833 -0.31499 0.28617 -0.20409 -0.54227 0.69429 0.29468 
kary 1.2241 -1.1532 0.75558 0.096365 -0.58362 -1.2762 -0.72216 0.37368 0.9693 -0.3809 
otedal 1.4759 0.25967 0.2366 0.69487 0.38947 -0.055135 1.0319 -1.0384 0.51901 -0.81037 
an 0.60758 -0.16811 0.70979 -0.50694 -0.15026 -0.68042 0.1226 0.2313 0.79051 0.58398 
okeom -0.41257 0.20859 -0.54915 1.8966 -0.60629 -1.0735 0.58051 -0.054224 1.0388 1.1998 
olfchedy 2.244 0.56958 -0.38089 0.14556 1.626 -0.65197 0.71329 -1.9119 -1.3641 0.04355 
qolkeedy 0.47492 -0.12639 1.6321 0.13168 -0.88969 -0.7001 1.1163 -1.6599 -0.69451 -0.39454 
pchody 1.0608 -0.44847 0.11093 -0.36502 0.79554 -1.2631 -0.92868 0.012572 0.6403 0.23241 
yteeey 0.78495 -0.62056 0.19942 1.7938 -0.65449 -1.0972 -0.043899 -0.34376 0.99342 -0.91564 
ykchor 1.526 0.042303 0.26565 0.080935 1.6947 -1.4292 0.29083 1.1602 0.018283 2.7075 
ochol 0.74419 0.8933 0.82068 1.2312 0.93362 0.27687 1.8013 -0.57996 -0.058861 1.2072 
e 0.2456 0.85335 -0.55784 -0.075738 0.45552 -0.99901 0.48198 -0.1371 0.67964 1.3231 
ctheor 0.54191 1.5514 0.45306 0.35408 -1.3592 -0.85839 0.30049 0.15744 1.2186 1.6027 
doly 1.8554 0.97718 1.609 0.17451 -0.80981 0.058774 0.29196 -0.22558 0.35294 -0.14909 
yto 1.7473 1.2411 -0.85252 -0.025608 0.033247 -0.90381 0.6027 0.60149 0.98694 1.1388 
tchar 0.3286 1.0074 -0.082847 -0.13961 -1.9542 -1.2849 2.065 -1.2342 0.36075 0.099829 
chek 1.2856 0.25392 -1.0197 -0.55118 0.040197 -1.0655 -0.155 -0.76878 1.1318 0.066181 
tcheody 1.3547 -0.45135 0.35587 0.031775 -1.2754 0.044598 0.66135 -0.18362 -0.46135 0.76365 
solkeedy -0.47369 -0.67427 1.1923 0.91374 0.5975 -1.3549 1.2784 -1.8571 -0.73071 0.018462 
r!ol 0.88783 0.26932 0.12969 -0.71391 -0.49035 -1.0654 0.28671 -1.2492 -1.013 -0.071288 
pcheor 1.0764 -1.1932 0.13111 0.72527 -1.2486 -0.50827 -0.79273 -0.46627 0.67436 0.3908 
daii!n 0.96371 0.40004 -0.001815 0.2449 -0.7803 -0.3335 0.94347 -0.052498 0.0033929 0.028719 
chotam 1.2199 0.16577 -0.30079 1.7642 -0.8149 0.19787 0.20781 -1.0834 0.80667 -0.058836 
chokeody 0.66072 -0.4068 0.66957 1.8932 0.91317 -0.41841 -0.74943 -0.012283 0.066814 1.4797 
qop -0.24398 -0.36053 -1.2554 1.3888 -0.055949 -1.9991 0.37553 -0.6973 -0.6918 0.078549 
so 0.082052 0.32288 -0.37476 0.2925 -1.0427 -0.51848 0.85906 -0.367 0.38978 1.033 
o!aiin 0.15117 -0.32628 0.33683 -0.2174 -0.16385 -0.34383 0.84605 -0.00062742 0.81181 1.4655 
qodain -0.35026 -1.0342 0.77758 0.010099 -0.1328 -1.6488 0.6836 0.43027 0.78075 0.39282 
rcheey 0.04428 0.28225 0.29176 0.38291 0.16997 -0.37067 2.442 -0.57405 0.13859 0.74479 
ysheedy 0.72236 -1.1024 -0.23111 1.483 0.84581 -0.95372 1.5642 -0.41827 0.75652 -0.50144 
olr 0.2085 -0.059105 0.13695 -0.84163 -0.58401 -1.4013 0.78645 -0.72777 0.17195 -0.13014 
oeey 0.42435 -0.37023 0.16538 1.1494 -0.39338 -1.0704 0.27327 0.051752 1.342 -0.62798 
otedaiin 0.81308 -0.52339 0.28073 -0.033849 1.2423 -0.93922 0.28142 -0.82496 1.7265 -0.27003 
rair 0.41072 -0.9928 -0.3757 0.03535 0.038132 -0.11474 2.0478 -1.3314 1.005 1.0145 
ckhody 1.922 1.1208 0.79177 1.0978 -1.1618 -1.2093 0.86 1.4686 -0.21455 0.2799 
ochy 0.65023 0.2233 0.52109 0.69344 0.11669 -0.96942 -0.85858 0.72053 0.86726 1.6085 
sheeey 0.44021 -0.78493 0.60138 0.3434 -0.2491 -0.41362 -0.037866 0.10915 1.3124 0.68032 
okechedy 0.82464 -0.94192 0.39024 0.31366 0.23444 -0.37101 -0.60374 -2.3522 1.8288 0.27902 
chcphey 1.1011 -1.1173 -0.39254 -0.14703 0.19095 -0.76446 0.14941 -1.3771 -1.5066 0.7534 
dcho 0.30594 1.1325 0.3422 1.2808 0.49707 -0.46636 0.7482 -0.033744 -0.39555 1.6179 
sheckhey 0.42892 0.35765 -0.15902 0.23077 -0.71066 -0.92531 -0.01332 -3.3613 0.11859 0.091798 
qoal 0.63605 -0.07002 0.32912 1 -0.52522 -0.8665 -0.76408 -1.0188 -0.012755 -0.43856 
qoedy 1.38 -1.2991 -0.26635 1.2183 -0.35444 -0.792 -0.54212 -0.35718 0.41574 -0.43828 
chetchy -0.14547 0.58491 0.33929 -0.24363 -0.2764 -1.6358 1.511 0.7953 1.2455 1.3013 
far 0.029443 0.60417 -1.0592 0.10942 -0.1614 -1.6285 -0.31668 -0.85706 0.18907 0.67126 
kechy 0.76388 -0.47262 1.0564 0.21687 0.45211 0.23115 0.79678 -0.17152 0.49395 0.97317 
alar 0.38342 -0.22909 -0.71367 0.91066 0.51671 -1.8999 -0.53178 -0.18495 1.7167 -0.15806 
oltedy 1.4693 -1.1609 1.875 -0.38302 -0.16709 -0.70323 -0.20531 -0.20144 -0.28587 -0.12567 
cheedar 0.84674 -1.3465 -0.22593 1.6875 0.41018 -0.43562 1.1437 -1.3638 -0.50208 -0.1416 
qokeos 0.77027 0.59697 1.2452 1.1468 -0.61009 -0.96401 -0.56586 0.74475 1.0883 0.37582 
cholody 0.23953 0.90007 -0.12356 0.4257 -0.87763 -0.37754 0.69387 -0.49392 0.64134 1.5802 
chekeedy 0.82222 0.31219 1.4197 0.59144 -0.32236 -1.3328 0.69431 -1.3429 0.67716 -1.8073 
cheod -0.15931 -0.79542 -0.00069485 -0.090564 -0.52749 -1.3091 0.37825 0.23403 0.61136 0.81542 
ees 0.77595 0.097063 1.1685 0.17129 0.84098 0.10629 0.29947 -0.21673 1.5751 1.5922 
rshedy 0.39529 0.017463 2.1467 -0.26133 1.1234 -0.7609 -0.23308 -1.8233 -0.51986 0.8333 
okaiiin 1.5146 0.2123 -0.90223 -0.16787 -1.2959 -0.60648 0.37643 -0.44422 -0.0038036 0.26135 
chkain 0.59857 -0.6052 -0.35435 -0.53581 -0.045649 -1.1874 0.72787 -0.039805 -0.5115 0.28571 
otarar -0.13427 -0.12612 0.24867 0.93912 0.30612 -1.572 1.1162 -0.0020889 0.66426 -0.72107 
qokechedy 0.89147 -0.78534 0.9338 -0.13946 0.35463 -0.69959 -0.13875 -2.9643 1.0098 -0.2617 
olpchedy 1.6468 0.75633 -0.5713 0.15025 0.043739 -1.4306 3.0815 -1.1488 -0.97617 -0.73911 
otshy 0.41005 1.6622 0.4741 0.0012138 0.11274 -2.6594 0.85397 0.74285 -0.92855 0.69244 
ok 1.0207 0.34649 -0.41969 0.47725 -0.12275 -0.42019 -0.37502 -0.049558 -0.37092 0.90236 
chokchol -0.55846 0.81734 1.1617 0.44999 0.30358 -0.89055 0.45197 -1.0193 -0.29426 3.7443 
qokdy 1.1717 -1.154 2.252 -0.20155 1.4866 -0.80437 -0.80894 -0.72874 1.2522 0.50409 
oain -0.025443 -0.37848 -0.089992 0.38475 0.083323 -0.74437 -0.21024 -0.28387 0.47415 1.0471 
v 0.10089 0.78417 -0.79811 -0.44222 2.7588 -2.6243 1.7165 -0.87871 1.7403 1.7144 
ykeeor 0.54876 -0.57966 -0.61361 1.7968 -0.66297 -0.072327 -0.046889 -0.69909 0.75246 1.3937 
ksheo 1.3535 0.65439 -0.31844 -1.0627 -0.16891 -0.57208 1.6979 0.083633 0.28445 2.3586 
lkol 0.15355 1.2214 0.47537 0.32105 -0.2136 -1.7485 -0.93597 -0.93648 0.86326 -0.34482 
ofaiin 1.4504 1.0007 0.47163 0.54941 0.090879 -1.1145 0.095441 0.47886 1.7117 -0.6269 
los 1.2874 0.46701 0.27212 0.37837 -0.39972 -0.40886 1.5619 -0.071959 -0.36174 -0.4065 
saiir 1.0645 0.80016 0.9424 0.34323 0.47326 -0.10543 0.75259 -0.58467 0.96468 -0.2787 
dshol 1.0916 -0.6352 0.40439 -1.2993 0.87733 -0.96019 -0.47053 -0.39116 0.59718 1.3823 
olkchy -0.59365 0.13245 1.232 0.83712 0.55899 -2.1184 -0.16724 -0.94559 -0.79122 -0.20743 
orair -0.21346 -1.158 0.18178 -0.051046 0.018436 -2.0633 1.1459 0.14892 -0.039843 -0.059072 
pchedaiin 2.7448 -0.070937 0.68566 0.0219 0.25037 -0.23597 2.1357 -1.1532 0.58718 -1.4145 
qoteo 0.12145 -0.66589 0.62486 1.3474 0.00019894 -0.63147 -0.41764 -0.33222 -0.097218 0.43005 
okedaiin 1.2524 -1.4023 0.10231 -0.024647 -0.17748 -0.32465 0.55358 -0.47249 1.4115 0.21691 
otaram -0.15919 0.54808 -0.13956 0.20807 -0.69698 -1.6882 0.68561 -0.71829 -0.46191 -0.33374 
sarol 0.74859 -0.60646 1.7976 -0.35673 -0.5204 -1.7671 -0.91259 -0.16935 1.9019 -0.37131 
chot 0.79452 -0.38044 0.53598 0.52872 0.047526 0.028494 0.87858 0.045612 -0.5047 2.5205 
olkeeo -0.43114 0.13555 -0.59691 0.45189 -0.50757 -1.6313 -0.11645 -1.1475 0.6797 0.21505 
ol!aiin 0.62207 -0.65061 0.764 0.51792 -0.55898 -1.4095 -0.3499 0.27188 0.099143 -0.6165 
lkeol 1.6172 -1.3215 0.17418 0.25572 0.49887 -0.066485 0.14079 -0.98782 0.43009 -0.019914 
alkam 0.73088 -0.19029 -0.60108 0.017877 -0.56535 -2.086 1.1004 -0.19764 0.38884 -1.0864 
soiiin 0.45071 -0.3203 1.3381 0.24505 0.3956 -0.22039 -0.27884 -0.47036 -0.68777 1.4814 
ychy 1.5312 -0.020918 0.76634 -0.1132 0.63996 -2.5612 -0.60767 1.6575 -0.18366 0.83571 
cheety -0.37721 -0.19992 1.06 -0.0056189 1.1293 -1.9831 2.0515 -1.0084 -0.60084 -0.22411 
dsheedy 0.88046 0.10181 1.1331 0.72722 -0.6701 0.22814 -0.44787 -1.4288 0.40205 0.23793 
teeody 1.2069 -1.6013 0.94628 0.53271 0.30014 0.071683 -0.11815 -0.34636 0.99798 0.6484 
toy 1.2579 0.048663 1.5235 0.78164 0.049851 -0.51589 -0.37151 0.91733 -0.024646 1.387 
okoy 1.2253 1.8385 0.46424 0.34505 1.3214 -1.2502 -0.66024 0.21233 0.027844 1.3728 
cthain 0.11129 -1.4305 0.6816 0.23184 0.32262 -1.9175 0.15567 0.98356 0.0032508 1.8592 
lchol 0.49259 0.46501 -0.24949 0.99077 -0.20116 0.19987 0.88758 -1.3592 -0.94123 1.6399 
sshey 0.50754 -0.33989 0.73442 -0.56091 0.086586 -0.12808 0.55728 -0.38786 0.36893 0.95047 
chekai!n 0.48152 -0.34011 0.076108 -1.1436 -0.1592 -1.1218 -0.21647 -1.8126 1.1376 0.33161 
dairal 0.04069 -0.75113 -1.0169 0.10324 0.31062 -1.5323 0.02785 -0.37237 0.835 0.71354 
kcheody 1.1924 -0.73414 0.44396 0.51279 -0.48083 0.22788 0.55947 -0.37912 -0.2252 0.54139 
otechdy 0.9278 -0.84955 0.52497 2.2945 -0.45264 -0.51185 0.18424 -0.55864 0.2938 -0.69799 
chyty 2.1193 0.31255 1.7251 0.14789 1.2725 -0.79633 0.42956 1.0873 -0.47032 1.2803 
chekedy 0.6822 -0.33817 1.2253 -0.22643 1.9492 -1.3476 1.6405 -0.45437 0.72983 -0.26598 
alal 0.53879 0.61979 -0.76077 1.5597 -0.47871 -0.72983 -0.48473 -1.1804 0.6287 0.13114 
teeedy 0.15337 -0.36064 1.0321 1.5039 -1.1686 -0.12174 1.007 -1.7237 1.3252 -0.074489 
otalor 1.6853 -0.00712 0.24476 -1.6191 -0.19099 -0.99177 0.6532 -0.44258 0.78745 -0.15398 
chaly 0.5632 1.25 -0.33867 1.2068 0.19231 -1.856 -1.1591 -1.2612 -0.21896 -0.36314 
cheoly -0.35285 -0.41254 -0.1823 -0.50502 -0.23627 -1.1691 1.109 -0.56369 0.95101 0.82026 
chealy -0.091848 -0.18295 1.3947 -0.48552 -0.78745 -1.4448 -0.55394 -2.1282 0.58379 0.18845 
qopar 1.4518 -1.3922 0.36411 0.02202 1.2081 -1.6407 0.52158 0.13018 0.19936 -0.74396 
orchey 0.48558 0.36942 -0.20852 -0.040337 -1.0628 -1.3946 -0.87643 -0.74725 0.23633 -0.082401 
daiim 2.0503 0.43245 -1.1078 1.3568 -0.70249 -0.75416 1.7053 0.9546 0.99612 0.47183 
shan 0.93025 -0.059649 0.63008 -0.8674 -1.07 -2.6021 0.13163 1.5169 -0.47371 1.9743 
chocthey 0.50803 -0.17199 -0.0098494 2.0473 0.027451 -0.6297 1.1719 0.94957 0.52054 1.5476 
lkchdy 0.55307 -1.0341 -0.25516 -0.21693 -0.18908 -0.99832 1.6538 -0.29384 1.4972 0.16913 
chtaiin 0.088043 -0.68134 -0.28524 -0.13 0.7481 -1.3705 -0.59418 -0.25639 0.7728 1.1504 
ysho -0.010362 1.6929 0.25455 1.0986 -0.40982 -1.7703 0.015011 0.5069 -0.19742 1.243 
cheaiin -0.23142 0.090161 0.53536 -0.27439 -0.51336 -0.90643 0.83284 -0.14966 -0.4856 1.8875 
sheodaiin -0.19556 0.099607 0.30758 2.2599 0.68577 -0.89632 1.2518 0.31506 0.28885 0.89912 
odaiiin 0.75962 0.15036 -1.1098 1.0117 0.29731 -1.0928 -0.29235 -0.24465 0.53341 0.21636 
lkeeody 1.5316 -0.89993 0.31438 0.9151 -0.43583 0.80148 0.40542 -1.8003 0.61159 0.84106 
otes 0.67943 0.21812 0.60781 0.7409 0.65005 -0.3635 0.15099 -1.2609 1.6142 -0.41031 
ypar 1.2785 -0.7289 -0.38925 0.94784 2.1054 -1.1873 0.95989 0.17097 0.86407 0.094858 
qoair 0.37615 -0.18129 -0.70976 0.8815 0.16447 -0.30095 -0.12702 -0.77639 -0.13942 1.5736 
alkar 1.6173 -1.0356 -0.96719 -0.83844 -0.22459 -0.69447 0.37597 -0.64659 0.27753 0.64551 
sshedy 0.78465 0.010207 2.3838 0.1209 0.22038 -0.14911 0.43935 -1.1874 0.77001 -0.18595 
okeear 1.2552 -0.19262 0.75031 1.2787 -0.39881 -0.73148 -0.52396 0.098553 1.1932 -0.77595 
dcheor 0.42713 0.933 -0.28398 1.0238 -1.7948 -1.089 0.31336 0.070499 0.46056 0.53985 
dalo 2.6159 2.0639 1.1255 0.96673 -0.64537 -0.86718 -1.8916 -1.0035 -1.139 0.57078 
shdal 0.20877 -0.70712 2.1854 0.62628 -0.73352 -1.445 -1.3297 -1.0516 0.67333 -0.23868 
qoto 1.4502 0.62101 1.6736 0.32855 0.2657 -1.3463 0.14012 1.5634 0.070822 0.7116 
deedy 0.58925 -0.82368 1.3334 -0.035399 0.72212 -0.45867 0.41908 -1.2149 0.43569 -0.090462 
olkchedy 0.80729 -0.64427 1.0976 0.88796 -0.99812 -1.0995 -0.4728 -0.96095 1.4375 -1.1716 
kcheey 0.078876 -0.21163 0.42873 -0.57419 -1.1808 -0.39321 1.5738 -0.86481 -0.26711 2.4818 
ckheody 1.6807 0.83139 0.74108 2.2644 -0.99043 -0.63613 0.51744 1.005 -0.11687 0.1804 
sheoy 0.69687 -0.15664 0.825 1.4443 -0.83434 -0.32913 -1.0836 -0.26662 0.699 0.89024 
shekal 0.38511 -0.19672 0.13998 0.083465 0.34596 -1.1168 -0.31406 -1.928 1.8076 -0.34605 
lkshedy 0.48299 -1.2806 0.23448 0.028361 0.4708 -0.81517 1.8377 -0.14538 -0.066003 0.51927 
pchedal 0.77058 -0.94726 -0.29802 0.0050743 0.41663 -0.068096 1.2938 -1.0741 0.35199 0.5667 
kchody 0.99745 0.52458 0.55341 1.6666 -0.29159 -0.4442 0.54433 0.46655 0.70695 -0.1455 
chckhhy -0.34763 -0.13303 -0.5047 0.48653 0.37985 -1.164 -0.31183 -0.60356 0.42653 0.84169 
shdaiin 0.8897 -0.67799 0.011538 0.16082 1.3571 -1.4044 0.47528 0.56603 -0.084314 0.19047 
oai!n -0.26883 -0.3835 -0.14328 -0.19025 -0.035531 -1.3645 -0.098316 -0.044221 0.56104 1.0528 
cheedaiin 0.16406 -1.6876 -0.19669 0.74181 -0.15624 -0.77297 0.45931 -1.0403 0.92254 0.47277 
olshdy 2.0938 -0.12499 0.33032 -1.1037 0.5039 -0.84517 -0.23979 -1.0874 -0.271 -0.16826 
octhey 1.4049 0.3242 0.34783 0.7209 -1.2362 -1.2399 -1.9993 -0.36132 0.72251 0.059364 
ctholy 1.5299 0.55494 -0.7205 0.55908 -0.87721 -1.9825 -1.355 0.66141 -0.18559 1.024 
chodchy 2.41 1.1451 0.070767 1.977 1.1217 0.46637 -0.15862 -0.27839 1.2559 2.502 
??? 0.59026 0.84231 -0.23361 -0.19013 -0.059121 -0.69856 0.35985 -0.73397 1.5408 0.17348 
shchy 0.30339 -0.67342 -0.29095 1.0878 -0.0011083 -0.58382 -0.97702 -0.8082 0.32734 0.99112 
ckhal 0.73995 1.4739 -0.21062 -0.38225 -0.39488 -0.79071 -0.21716 -0.48337 0.66319 1.3783 
sholy 1.1576 0.49776 -0.43521 0.19674 0.81149 -1.1606 -1.4876 -0.54658 -0.37906 1.8144 
otchal 0.15941 0.84967 0.86395 -0.47943 0.26865 -1.0844 1.2139 0.4636 0.69442 1.7921 
chokol 0.5275 0.54944 0.56707 2.0249 0.058051 0.0057958 -0.25088 -0.43438 0.38135 1.1111 
shedain 0.41343 -0.83379 -0.26681 0.71655 -0.28977 -0.98321 0.038418 -0.68644 0.51464 -0.40567 
opchedaiin 1.2027 -0.63665 -1.4151 1.2955 -0.89342 -1.2526 2.4376 -1.2943 -0.40731 -0.80173 
ydar 1.043 1.1153 -0.178 0.14876 -0.078196 -1.1094 1.0709 0.99376 0.84353 0.6942 
ypchy 2.3085 -0.21976 -0.44987 -0.9527 -0.37663 -2.2366 0.74447 1.6942 1.4471 0.60481 
ypchey 1.3667 -1.5831 -0.84426 0.21304 0.26115 -0.42438 -0.062178 -0.16028 0.83803 1.3931 
qocthey 0.0316 -1.5196 1.2721 0.50609 0.22519 -0.89215 -0.33463 -0.10828 0.56687 0.75654 
lshed 2.7259 -0.76188 1.8666 0.45575 -0.54083 -0.86764 -0.42725 -0.52385 -1.1977 -1.0668 
ckhdy 0.53502 0.15842 0.093569 1.003 1.1742 -0.63899 0.19114 -1.5489 0.47951 -0.32075 
qool 0.46652 0.28673 1.4027 0.46788 -0.025995 -0.71586 -0.45688 -0.081677 0.96188 0.027514 
ckhaiin 1.2461 0.33112 0.18183 0.2693 -1.2706 -1.0751 -0.34423 0.54487 -0.59989 3.0314 
n 0.51313 0.30665 -0.93583 0.020339 0.53596 -1.0484 0.68526 -0.60713 -1.0404 1.5794 
cheeteey 1.1551 -1.0505 0.80392 0.98513 0.25261 -0.011962 1.9248 -0.23834 -0.0099949 -0.078735 
soy 1.1004 0.95714 -0.46275 -1.0239 -2.0649 -2.2878 -0.30739 -0.059728 -0.12476 0.53811 
dydy 0.37111 -0.076472 1.3174 -0.2012 -0.039532 -1.7664 0.85181 0.99407 0.30456 -0.091608 
chokain 0.9803 0.028884 -1.2757 0.058384 -0.21471 -0.48441 -0.17518 -0.75902 0.01277 1.1952 
chckh!y -0.42444 0.033278 -0.065896 -0.11478 0.75805 -0.94623 0.022603 -1.5188 0.65055 0.9863 
cheocthy 0.33379 -0.92683 0.69208 1.1544 -1.4339 -0.83359 0.86968 0.61134 0.063037 0.83491 
lom -0.018799 0.27507 0.59275 -0.56189 -1.0362 -1.3546 0.10189 -3.1119 -0.92792 0.76685 
tshor 0.90522 -0.3828 0.055949 1.1833 0.16171 -1.6197 -1.157 0.13749 -1.5171 0.88325 
chetedy 1.6417 0.28487 2.8404 1.0039 2.0446 -0.19689 -0.84179 -1.1904 0.50425 0.56514 
cholky 0.1198 -0.54404 -0.8824 0.71245 0.13886 -2.1163 0.34107 -0.80605 0.81229 -0.76815 
pchdair 1.8402 -2.8868 0.64636 -0.48601 0.58015 -0.85002 0.17217 -0.20244 0.31638 0.91993 
olam 1.2466 0.13638 -0.59212 0.021534 -0.23864 -0.011708 0.75194 -1.794 0.52184 0.15304 
fchdy 1.1255 -1.9411 -0.21049 -0.33286 0.44498 -2.3404 -0.51713 0.33239 0.85739 0.0003479 
opol 1.3158 0.51328 -0.94767 0.89471 -0.27218 -0.47739 2.0133 -0.46353 -0.0025412 -0.021941 
ykeeedy 1.461 -0.076039 0.25406 -0.020155 0.11612 -0.66705 1.9302 -0.1582 -0.27514 -0.58522 
chokeol 1.0319 -0.068264 1.5493 0.6056 -1.288 -0.46842 1.1599 0.86281 0.48954 0.26729 
oin 0.42916 -0.35815 -0.31775 -0.28614 -0.71601 -0.49912 0.051289 -0.76082 0.39588 0.71687 
loty -0.2543 -0.48525 1.1851 0.94765 0.87157 -0.083992 1.501 -1.4829 0.47568 0.99228 
pchy 1.6128 -0.24589 -0.45416 -0.58487 0.5909 -0.1888 1.3929 -0.063081 -0.010575 1.8196 
chtchy 1.3424 1.0042 -0.15751 0.48895 0.82031 -0.29172 1.9591 -0.12045 -0.42985 0.64383 
ldaiin 1.4141 -0.85017 0.57862 0.57902 -1.1419 0.18464 -0.23442 -1.0192 0.53022 0.17184 
chai!n 0.39248 -0.24636 -0.059645 0.35561 -1.6748 -2.6098 -1.5215 -0.57705 -0.50442 0.18921 
qoted -0.3605 -1.2213 1.1389 1.4303 1.2224 -1.3264 0.51807 -0.57605 -0.30084 0.41707 
da!r 1.701 -0.74876 -0.10275 0.21586 -0.025816 -0.46394 -0.67574 -0.32239 1.0057 -0.19366 
opair 0.70484 -1.3186 0.11189 1.2263 -0.16099 -1.9469 0.53842 0.57538 0.82289 -0.99195 
lchar 0.25716 0.23491 0.02547 -0.32841 -0.069357 -1.8128 -0.18734 -1.1809 -0.52645 -0.49784 
qotees 0.052394 -0.69432 1.5129 0.97666 -0.10631 -0.49158 -0.14675 -0.44069 0.95664 0.29494 
daral 1.7295 0.54991 0.50454 0.44656 1.7294 -0.25298 0.3732 -0.27724 1.2033 0.24811 
tain 1.252 0.25779 0.38667 -0.30756 -1.1264 -0.5806 -0.65644 -0.76125 -0.7009 0.2758 
shedai!n -0.074706 -1.5181 0.28507 1.1006 0.21565 -0.78563 1.0678 -0.8141 0.5073 0.17146 
shepchy 0.70346 0.15324 0.96274 -0.14512 1.0953 -1.8408 0.062511 -0.62207 -2.0348 0.53812 
chotor 1.723 -0.50712 0.9119 0.69156 -1.6118 -0.66842 -0.30055 1.3164 0.71246 1.5702 
roiin 0.2538 -0.083362 1.418 0.43461 0.29764 -1.0322 0.39149 -0.84232 0.45438 -0.8026 
otcheey 0.75868 -0.49098 0.72674 0.026957 0.075964 -1.609 0.27222 0.63192 1.6033 -0.55924 
chochy 0.441 -0.61986 -0.40303 0.81118 0.85484 -1.2887 0.48674 0.25559 -1.0396 2.6905 
oteodal 0.52779 0.45248 0.12119 0.94723 0.47486 -0.25835 1.5299 -0.12225 2.1819 0.92555 
chepchy 0.47366 -0.91834 -0.28936 0.5642 1.0074 -0.28102 0.66877 -0.11798 1.0067 1.6478 
shl -0.31439 -0.40006 0.7094 -0.090824 0.68885 -0.88308 1.5086 -1.2443 -0.70337 0.99251 
tshy 1.7834 -0.86371 0.53894 0.084216 0.15841 -1.6795 -0.65899 1.1551 -1.0476 0.9309 
qeey -0.61118 0.20902 1.4573 0.25232 -0.0086332 -0.96887 2.131 -2.1817 0.027235 0.41987 
qotched 0.10682 -1.5162 1.0801 0.99676 -1.0423 -1.1952 0.48015 0.29935 -0.10112 0.22529 
