997 25
daiin -0.19983 -0.04048 0.26841 0.37845 -0.049342 0.19143 -0.15796 -0.0047841 -0.50664 -0.064596 0.11468 0.11769 -0.34038 -0.20656 -0.16162 -0.075903 -0.14031 -0.05649 0.12217 0.23142 -0.14449 0.21536 -0.11547 0.057781 -0.28586 
</s> -0.16319 0.10752 0.19756 0.36882 -0.18056 0.14026 -0.28625 -0.0097945 -0.40396 -0.092982 0.030498 0.14894 -0.33132 -0.15615 -0.11243 -0.064297 -0.067556 -0.0019108 0.080387 0.035219 -0.013569 0.097901 0.11608 -0.023079 0.041883 
ol -0.39833 0.15643 0.20079 0.11769 -0.14958 0.33507 -0.10148 0.044269 -0.31603 -0.15586 -0.028696 0.15285 -0.40779 0.060522 0.029568 0.16525 -0.10909 0.18466 0.21558 -0.30534 -0.04264 0.19304 0.028195 -0.23298 0.23619 
chedy -0.78369 0.2674 -0.015413 0.050456 -0.45808 0.17079 -0.098834 -0.17779 -0.5518 -0.26835 0.10733 0.17642 -0.31543 0.12496 0.062919 0.068696 0.19324 0.18644 0.14827 -0.35667 0.34379 0.045481 0.085225 -0.10952 0.25663 
aiin -0.098511 0.15824 -0.084968 0.15603 -0.010988 0.10624 -0.43258 0.12023 -0.44436 -0.24671 -0.19822 0.20819 -0.31826 -0.047107 -0.067133 0.11857 0.097182 -0.051782 0.094239 -0.03172 -0.042281 0.06298 0.066658 0.018374 0.31305 
shedy -0.93717 0.39065 0.12733 0.067715 -0.47959 0.33127 0.0056127 -0.08441 -0.44722 -0.32375 0.23267 0.1458 -0.28389 0.19155 0.13575 0.12555 0.12693 0.24839 0.11448 -0.50109 0.21546 0.1248 -0.066024 -0.14802 0.21295 
ar -0.18812 0.19918 -0.08147 0.2301 0.012024 -0.063324 -0.47448 0.11644 -0.40297 -0.34539 -0.090219 0.2128 -0.26005 0.012454 -0.031053 -0.0071365 0.072835 -0.1319 0.13439 -0.19824 0.032622 0.12218 0.16219 0.13925 0.26523 
chol 0.023923 -0.042515 0.26873 0.40601 0.024987 0.29883 -0.20357 -0.031658 -0.42209 -0.063054 0.056416 0.16909 -0.40569 -0.32415 -0.23633 -0.17722 -0.20949 0.15781 0.16516 0.30386 -0.34059 0.32986 -0.10608 0.023724 -0.35672 
or -0.30281 0.16724 0.076007 0.23895 -0.00471 0.12434 -0.23689 0.027842 -0.34197 -0.053905 -0.15817 0.11329 -0.36667 -0.073576 -0.19443 0.070626 -0.0086889 -0.14811 0.2727 -0.14573 -0.027876 0.18551 0.06229 0.00072932 0.27981 
chey -0.35412 -0.04805 0.30945 0.10813 -0.17269 0.34876 -0.079636 0.077189 -0.40465 -0.22013 0.019162 0.32357 -0.22309 -0.10273 -0.005729 0.027323 0.0067993 0.30835 0.075609 -0.10588 0.0053898 0.30142 0.10856 -0.20706 0.045329 
s 0.043108 -0.088494 0.21239 0.28135 0.034441 0.14077 -0.29834 0.17228 -0.60775 -0.10037 -0.11578 0.092313 -0.33859 -0.29197 -0.12288 0.096527 -0.054542 0.017376 0.16789 0.11232 -0.32427 0.13766 -0.16323 0.21182 -0.13626 
dar -0.40758 0.20453 0.17927 0.22228 -0.10986 0.13353 -0.25649 -0.11575 -0.4229 -0.13296 0.0067041 0.01162 -0.30946 -0.096627 -0.19162 -0.0077842 -0.094439 -0.037214 0.0040026 0.027476 -0.067794 0.13668 -0.062911 0.15525 -0.083155 
y -0.31114 -0.069455 0.32773 0.29047 -0.15801 0.16332 -0.38522 0.18836 -0.23978 -0.085778 0.0095324 0.2092 -0.38615 -0.081591 -0.063927 -0.044034 -0.0062159 -0.068294 0.048605 -0.066514 -0.066943 0.24602 -0.010733 0.18078 0.065505 
qokeey -0.60851 -0.0078671 0.13619 -0.024426 -0.149 0.33514 0.01069 0.024842 -0.75339 -0.33859 0.051505 0.042728 -0.12137 0.04543 0.066133 0.23143 0.1636 0.31166 0.27606 -0.21021 0.408 0.17707 0.10972 -0.39738 0.12525 
qokeedy -0.70304 0.036709 0.060042 0.056772 -0.4748 0.52737 0.0063805 -0.057331 -0.76168 -0.24003 0.27353 0.027622 -0.29989 0.19109 0.073969 0.25094 0.22361 0.32781 0.36183 -0.47114 0.58025 -0.058017 -0.082508 -0.26417 0.32087 
qokain -0.78511 0.25929 0.23193 0.27328 -0.52995 0.42569 0.11117 -0.023666 -0.19215 -0.35 0.34575 0.51767 -0.35331 0.13233 0.026312 -0.015863 0.082211 0.3938 0.17197 -0.48228 0.35448 0.17944 0.21839 -0.51789 0.22684 
shey -0.45118 -0.027441 0.28516 0.14573 -0.10367 0.37364 -0.008961 -0.0013282 -0.29469 -0.41011 0.097648 0.26044 -0.29524 -0.13223 0.076197 0.075418 -0.12798 0.34947 0.23898 -0.30492 0.054739 0.23308 0.040461 -0.33229 0.044855 
dy -0.32866 0.090059 0.28737 0.27661 -0.33729 0.13561 -0.16674 0.13388 -0.26155 -0.090078 -0.066727 0.13727 -0.48216 -0.091511 -0.218 -0.054852 -0.22748 -0.080851 0.058239 0.21081 -0.19903 0.29565 -0.28038 0.16142 -0.25066 
qokedy -0.99982 0.31814 0.011965 0.046954 -0.66692 0.23789 -0.025657 -0.32195 -0.51848 -0.21274 0.20757 0.0068006 -0.53877 0.13341 0.021371 0.096069 0.11351 0.24346 0.28911 -0.65904 0.46018 -0.021869 -0.19325 -0.019715 0.069516 
qokaiin -0.50888 0.29878 0.16348 0.19422 -0.23673 0.2129 -0.24781 -0.18392 -0.3904 -0.23097 0.042399 0.44453 -0.26005 -0.049456 0.1356 0.045664 0.18442 0.21344 -0.05899 -0.32594 0.22333 0.13266 0.2055 -0.24077 0.13248 
al -0.16913 0.14785 -0.12731 0.016975 0.046445 0.021603 -0.37986 0.2417 -0.61126 -0.4319 -0.046611 0.23364 -0.21277 -0.069018 0.082597 -0.013178 0.136 -0.00097132 0.042999 -0.11434 0.036419 0.027161 0.22466 0.0089884 0.338 
dal -0.31684 0.25239 0.33714 0.19574 -0.11839 0.14703 -0.26682 0.019469 -0.47901 -0.30393 0.16006 0.10954 -0.20989 0.065251 -0.16812 0.15281 -0.081884 0.0066885 -0.082962 -0.26078 -0.044194 0.074954 -0.18196 0.16134 -0.17805 
okaiin -0.15613 0.30433 -0.0024195 0.40944 -0.021747 0.046716 -0.27761 0.002439 -0.36429 -0.24256 0.17168 0.28758 -0.3314 0.011902 -0.00011414 0.036228 0.073315 -0.11917 -0.095272 -0.10962 0.043402 0.24677 0.22273 -0.25435 0.10064 
dain -0.30779 0.0088498 0.2877 0.39592 -0.23104 0.048075 0.094179 0.14973 -0.48201 -0.11274 0.22776 0.29357 -0.30458 -0.0051991 -0.20878 -0.11178 -0.14556 0.10601 0.12232 -0.054954 -0.17239 0.24749 0.0071943 -0.024839 -0.14564 
chor 0.18893 -0.16867 0.21597 0.53159 0.069114 0.27922 -0.077397 -0.023093 -0.46114 -0.016617 -0.016433 0.18643 -0.58899 -0.56981 -0.4753 -0.15354 -0.40316 0.068764 0.10464 0.44716 -0.44329 0.42265 -0.054193 0.04308 -0.37829 
qokal -0.77076 0.39549 0.14856 0.15661 -0.48878 0.39629 -0.30665 -0.16488 -0.25126 -0.33412 0.20394 0.28334 -0.13043 0.2001 0.12521 0.20799 -0.23304 0.37377 -0.081264 -0.37315 0.22226 0.015306 0.14305 -0.047893 0.027649 
o -0.12247 -0.28823 -0.013466 0.42135 -0.09538 0.13684 -0.39966 0.28639 -0.4397 -0.066307 -0.095892 0.17146 -0.58114 -0.15707 0.16815 0.032134 0.11923 -0.058949 0.018377 -0.014327 -0.13841 0.22838 -0.06256 0.23855 -0.093742 
l -0.2027 -0.25833 -0.01695 0.26987 -0.24065 0.26063 -0.20275 0.08207 -0.79163 -0.23839 -0.039428 0.33742 -0.20064 0.047762 0.18626 -0.087313 0.24295 0.28081 0.10925 -0.33074 0.16671 0.14353 0.22649 0.023514 -0.10735 
shol -0.16826 -0.027217 0.38908 0.37786 -0.14949 0.1694 -0.15764 -0.030665 -0.35088 -0.20541 0.21036 0.10598 -0.45563 -0.23216 -0.29538 -0.08195 -0.23252 0.0814 0.001658 0.31244 -0.30986 0.19285 0.038537 -0.066859 -0.32172 
cheey -0.36171 -0.061184 0.044682 0.11651 0.021571 0.17332 -0.1331 -0.12272 -0.63767 -0.24177 0.06332 0.17653 -0.25834 -0.14147 0.092177 0.086704 0.0087788 0.33734 0.055577 -0.036321 0.059518 0.2335 0.10944 -0.20948 0.20093 
okeey -0.23706 -0.027566 -0.081281 -0.14844 0.14797 0.3288 -0.32781 0.26451 -0.74788 -0.38134 -0.17291 0.0068471 -0.043949 0.039893 0.22452 0.12104 -0.13291 0.17558 0.39264 -0.2526 0.24987 0.17472 0.14006 -0.17112 0.010934 
r -0.14563 -0.31509 0.21588 0.30283 -0.13502 0.27531 -0.24664 0.12446 -0.56884 -0.19477 -0.091793 0.096239 -0.37134 0.035064 0.13283 0.027955 0.092281 0.17594 0.12669 -0.074122 -0.052759 0.34797 0.088486 0.11741 -0.10331 
cheol -0.15472 0.014812 0.16084 0.12966 0.18051 0.35751 -0.10568 -0.081601 -0.57628 -0.3397 -0.059774 0.030573 -0.1659 -0.071351 -0.053957 0.16957 -0.078496 0.42644 0.3744 0.013693 0.066015 0.14959 -0.00088495 -0.19152 0.037069 
otedy -0.9751 0.19199 -0.20142 -0.0077861 -0.30965 0.097984 -0.14179 0.045662 -0.57825 -0.11695 -0.01802 -0.13036 -0.42757 0.19479 -0.10507 0.062169 0.0020589 -0.23235 0.40924 -0.29841 0.41443 -0.10267 -0.00096842 0.10044 0.36093 
chy -0.0035662 -0.14283 0.38354 0.47998 -0.1169 0.23983 -0.039688 0.22391 -0.36265 -0.23339 0.1014 0.32013 -0.33861 -0.3117 -0.3846 -0.034221 -0.13959 -0.073267 0.019555 0.34131 -0.28107 0.35211 -0.19253 0.24912 -0.25876 
qokar -0.67805 0.51709 0.043897 0.28105 -0.46195 0.26254 -0.24844 -0.071166 -0.27872 -0.23919 0.04909 0.29031 -0.24681 0.068404 -0.019668 0.03052 -0.14124 0.038655 -0.23949 -0.17058 0.22086 -0.035256 0.078858 -0.0080777 0.19539 
okal -0.22968 0.30291 0.0080618 0.12603 -0.1722 0.004261 -0.49391 -0.0019369 -0.33112 -0.27698 -0.023608 0.12152 -0.36969 0.19707 -0.097254 0.12573 -0.10225 -0.1437 0.082092 -0.24943 -0.064422 0.10984 0.0065882 0.19884 0.18449 
otaiin -0.2133 0.36255 -0.11816 0.28777 0.13732 0.074871 -0.31662 0.27738 -0.52231 -0.027635 0.22956 0.393 -0.3083 0.046931 -0.054088 -0.10748 0.26236 -0.27302 -0.0089538 0.21427 -0.11589 -0.059581 0.16142 -0.1047 0.21014 
otar -0.44008 0.30796 -0.10761 0.13351 -0.062718 -0.0645 -0.43845 0.080032 -0.38955 -0.22059 0.14627 0.15271 -0.34707 0.10093 -0.12688 -0.078083 0.062535 -0.25734 0.21758 -0.1893 0.047514 -0.050067 0.13207 0.15877 0.43617 
sheey -0.36539 -0.11345 0.18841 -0.025005 -0.016103 0.20341 -0.10113 0.10363 -0.62965 -0.26517 -0.0097051 0.19307 -0.2336 -0.34051 0.16988 -0.051092 -0.18279 0.30947 0.09432 0.096458 0.17484 0.12864 0.19532 -0.19027 0.093389 
chdy -0.64742 0.37294 0.022543 0.17121 -0.47918 -0.0043266 -0.25654 -0.11394 -0.26381 -0.14047 -0.042425 0.085385 -0.42147 0.074736 -0.28424 -0.16949 -0.05096 -0.21759 0.097373 0.033651 0.31083 0.20816 -0.10074 0.22674 0.20515 
qoky -0.54581 0.23441 0.32845 0.24147 -0.50084 0.31815 0.10092 -0.24556 -0.35272 -0.23632 0.27391 0.15453 -0.38908 0.084969 -0.20301 0.071264 0.076553 0.11044 0.14085 -0.26476 -0.049847 0.19694 -0.087343 -0.16671 -0.099893 
oteey -0.48006 0.092474 -0.057527 0.032501 0.33613 0.20561 -0.32879 0.48621 -0.56317 -0.41864 0.077422 0.097744 -0.026945 -0.010989 0.069425 0.18339 0.1217 0.18575 0.22609 -0.19174 0.11793 0.033659 -0.19136 0.015064 0.2402 
okar -0.443 0.33687 -0.19096 0.24596 -0.46717 -0.13218 -0.48277 -0.12909 -0.29714 -0.036058 -0.17782 0.179 -0.42914 -0.068434 -0.01224 0.030048 0.050678 -0.20606 0.15271 -0.20011 0.030402 0.18166 0.045628 0.18604 0.1653 
qol -0.7093 0.14944 0.4447 0.13126 -0.40851 0.60972 0.16705 -0.16738 -0.34365 -0.41062 0.32835 0.13719 -0.49867 0.30869 0.25292 0.15419 -0.10033 0.52183 0.27586 -0.65834 0.41479 0.20683 0.15661 -0.25846 0.17748 
okain -0.61438 0.084843 0.061134 0.11945 -0.23677 0.12888 -0.19335 -0.068096 -0.20278 -0.40428 0.22121 0.5907 -0.19825 -0.06871 0.060015 0.059069 0.004642 0.058805 0.24109 -0.27369 0.32568 0.23046 0.18755 -0.38546 0.12343 
chckhy -0.52511 0.23491 0.1186 0.26065 -0.52607 0.020319 -0.096678 -0.10556 -0.26352 -0.21699 0.053901 0.26176 -0.37536 -0.079915 -0.052884 0.0093621 0.0064635 0.1568 0.039845 -0.23275 0.16445 0.35974 -0.02052 -0.069062 0.16731 
otal -0.28195 0.429 -0.0071517 0.17506 -0.29261 0.12289 -0.48662 0.20684 -0.36148 -0.057464 0.20053 0.39154 -0.20647 0.034359 -0.096972 0.060388 -0.079468 -0.014044 -0.032293 -0.29308 0.0045698 -0.1096 0.090796 -0.07617 0.21829 
saiin -0.3003 -0.089095 0.0040342 0.12239 -0.22258 0.23177 -0.21395 0.042644 -0.58171 -0.25575 0.073752 0.12818 -0.20071 -0.1344 -0.033556 0.093141 0.048905 -0.054094 0.19475 -0.23157 0.22699 0.22655 -0.089611 -0.12281 0.15614 
sho 0.029672 -0.17859 0.34342 0.46126 0.17807 0.41391 -0.076224 0.084995 -0.66458 -0.12829 0.13097 0.168 -0.38073 -0.4478 -0.2731 -0.47027 -0.21454 0.17892 0.030412 0.68891 -0.43042 0.33102 0.044136 0.16445 -0.37844 
okedy -0.93821 0.35333 -0.037747 -0.063359 -0.47852 0.011891 -0.058049 0.069297 -0.49359 -0.072787 -0.12291 -0.1286 -0.48623 0.13558 -0.17622 0.26379 -0.30906 0.075017 0.47089 -0.37301 0.53947 -0.18783 -0.18753 0.073478 0.22125 
oty -0.4379 0.13069 0.16996 0.32175 -0.14765 0.0053511 -0.20434 0.16568 -0.23225 -0.22765 0.16986 0.23325 -0.20842 -0.21538 -0.28963 -0.017339 -0.2619 -0.22565 0.32736 0.1161 -0.16404 0.0028703 -0.05772 0.07607 -0.11337 
okeedy -0.57248 0.15787 -0.20095 -0.20757 -0.38983 0.22034 -0.19707 0.26291 -0.62596 -0.068796 0.062755 0.17535 -0.35904 0.15357 -0.095166 0.22261 -0.058229 0.0053695 0.30833 -0.31183 0.43406 -0.042713 -0.21507 -0.21475 0.41564 
lchedy -0.63954 0.051396 -0.058692 -0.016421 -0.48899 0.551 0.053257 -0.21993 -0.73701 -0.46098 0.34402 0.12042 -0.2432 0.041959 0.086225 0.032576 0.1131 0.4094 0.077116 -0.494 0.484 0.04686 0.1743 -0.23137 0.2704 
ain -0.33947 0.11142 0.26743 0.20288 -0.073714 -0.040084 -0.066899 0.17986 -0.44784 -0.5402 0.063655 0.21338 -0.16777 -0.22278 0.14539 0.13443 0.054336 0.19616 0.051364 -0.43467 0.289 0.52261 0.15105 -0.071815 0.51818 
dair -0.047498 0.10179 -0.073232 0.22415 0.047356 0.022652 -0.50664 -0.16537 -0.54007 -0.30921 0.0063079 0.21806 -0.28768 -0.29318 -0.14205 -0.18498 0.11612 -0.12962 0.022379 0.14978 -0.012306 0.075565 -0.13586 0.39114 -0.17673 
qokey -0.71109 0.045058 0.36185 -0.31603 -0.40791 0.40749 -0.04835 0.14384 -0.38142 -0.35807 0.12442 0.097815 -0.15005 -0.034857 -0.043708 0.38439 -0.36533 0.3595 0.27185 -0.31639 0.2215 0.28885 -0.011549 -0.40553 0.067096 
dol -0.25724 -0.079053 0.4456 0.11058 -0.20726 0.21554 0.10182 -0.23727 -0.73781 0.076074 0.29886 -0.13864 -0.5129 -0.12347 -0.14436 0.11003 -0.18161 0.088258 0.31042 0.10865 0.036087 0.20129 -0.14483 0.13126 -0.39362 
sheol -0.43528 0.26635 0.23677 -0.059824 0.037054 0.54194 -0.25329 -0.33822 -0.54226 -0.33562 -0.035786 -0.098934 0.031857 -0.1433 -0.085886 0.23927 -0.35139 0.14439 0.099297 0.12035 0.25633 0.18583 0.1764 -0.25932 -0.24945 
oky -0.23719 0.3027 0.21159 0.27024 -0.088377 -0.033433 -0.35039 -0.12637 -0.19406 -0.16878 -0.040076 0.22569 -0.28616 -0.20603 -0.32202 -0.092751 -0.1992 -0.2305 0.25747 0.17377 -0.054054 0.26036 -0.0017323 0.08376 -0.14996 
oteedy -0.69886 0.31223 -0.46102 0.01732 -0.0064244 0.28048 -0.20756 0.30469 -0.67349 -0.39206 0.033452 -0.13082 -0.16657 0.15215 0.086316 0.077358 0.16218 0.0044082 0.29287 -0.29739 0.15347 -0.066747 -0.014894 -0.17358 0.40358 
cthy 0.21354 0.10827 0.34526 0.78708 -0.25236 0.20846 -0.097063 0.020335 -0.11391 -0.15687 0.26654 0.14678 -0.4009 -0.71545 -0.65882 -0.098748 -0.20578 -0.076886 0.37991 0.41725 -0.52545 0.47304 0.044301 0.2429 -0.64107 
shy -0.31197 -0.067923 0.4221 0.40683 -0.19433 0.079456 -0.086597 0.18117 -0.26157 -0.051794 0.20393 0.17172 -0.63519 -0.3405 -0.30872 -0.22032 -0.21291 0.02394 -0.090377 0.21078 -0.39569 0.32989 -0.043988 0.074742 -0.47946 
qokol -0.45471 0.35556 0.097413 0.2242 -0.011232 0.11794 -0.18263 -0.32109 -0.46417 0.052198 0.11806 -0.053835 -0.20475 -0.2029 -0.37865 0.04675 -0.30064 0.14821 0.098396 -0.12236 -0.12668 0.41862 -0.16759 -0.068613 -0.31546 
otain -0.52734 0.2571 -0.052339 0.35288 -0.18241 -0.032397 -0.31615 0.29348 -0.2048 -0.34158 0.14725 0.44959 -0.30474 0.040602 0.3584 -0.047856 0.073653 0.26897 0.27364 -0.21944 0.16128 0.13004 0.37488 -0.47485 0.27927 
shor -0.17199 0.06983 0.39824 0.40934 0.089411 0.29689 0.0044194 -0.13212 -0.38764 -0.14144 0.17809 0.083536 -0.47928 -0.49742 -0.44768 -0.28535 -0.26508 -0.13366 0.068199 0.38022 -0.4951 0.17239 0.22812 0.094002 -0.22701 
cheor -0.011235 -0.23327 0.044734 0.0089384 0.28436 0.24931 -0.19975 0.00087392 -0.60566 -0.28679 -0.0069213 0.13407 -0.25791 -0.20873 -0.1732 -0.071919 -0.42064 0.28754 0.29846 -0.066311 -0.089052 0.33232 0.012496 -0.026174 -0.25037 
chody -0.12178 0.0032908 -0.048414 0.24389 -0.12633 0.11143 -0.41154 -0.01504 -0.55899 -0.034127 -0.066243 0.08541 -0.19707 -0.46433 -0.33972 -0.0016785 -0.040157 0.0029261 0.10243 0.43585 -0.12132 0.067637 -0.047245 0.23908 -0.28772 
cheody -0.066917 0.42982 -0.12123 0.024123 0.30523 -0.05767 -0.37273 -0.010915 -0.89522 -0.082814 -0.46504 0.049934 -0.2394 -0.069896 0.10194 0.27312 -0.16153 0.15069 0.2051 0.33701 -0.090444 -0.129 0.29149 -0.045243 -0.028706 
qotedy -1.0132 0.45153 0.041639 -0.02604 -0.45106 0.50673 0.032048 -0.10929 -0.5816 -0.34782 0.31471 -0.084553 -0.34113 0.29746 -0.069426 0.17833 0.1787 0.0019624 0.12675 -0.26547 0.5442 -0.099009 -0.26403 -0.19874 0.2545 
dam -0.28373 0.35721 0.1243 0.30076 -0.18776 0.02519 -0.37133 -0.089619 -0.43053 0.13228 -0.085707 -0.03389 -0.42358 -0.15576 -0.2676 0.19795 -0.29788 0.02541 0.083412 0.12472 -0.33605 -0.044968 -0.19419 0.47309 -0.13925 
qoty -0.70951 0.17353 0.28494 0.45242 -0.17953 0.52269 0.045619 -0.055652 -0.28019 0.0059331 0.20963 0.12329 -0.38887 -0.17039 -0.25059 -0.21677 -0.041499 0.17693 -0.19564 0.12231 0.060997 0.18668 -0.16176 -0.11006 -0.19784 
am -0.073701 0.097038 -0.14035 0.19169 0.097113 -0.010642 -0.51649 0.20561 -0.35695 -0.27807 -0.068105 0.27095 -0.26604 -0.033435 -0.21475 -0.078336 0.18945 -0.24629 0.35629 -0.20415 0.083634 0.20567 0.042698 0.036751 0.25992 
char 0.18923 0.035281 0.15189 0.40028 -0.327 -0.006189 -0.20152 0.31285 -0.31369 -0.37904 0.30662 0.40589 -0.33914 -0.072214 -0.093801 -0.10861 -0.10508 -0.018079 -0.004412 0.053416 -0.070925 0.28807 0.21406 -0.00074365 0.058711 
air -0.4553 0.2253 -0.14521 0.07552 0.43433 -0.25457 -0.57284 0.097314 -0.57945 -0.21665 -0.18272 0.14168 -0.43253 0.013089 -0.029269 -0.0035251 0.19852 -0.21977 -0.1016 -0.11627 -0.11451 0.11284 0.050599 0.40787 0.18595 
sar -0.26436 0.18494 0.14284 -0.071438 0.049013 0.30732 -0.34557 0.16459 -0.44426 -0.1931 -0.2305 0.047587 -0.31742 -0.30935 0.13235 -0.038689 0.014396 -0.13097 0.25302 -0.42688 0.016839 0.093788 0.24085 0.074273 0.36938 
sheedy -0.75246 0.42292 0.10595 0.24881 -0.38221 0.32049 -0.078339 -0.050307 -0.63724 -0.11585 0.090369 0.14986 -0.16913 0.066955 0.33575 0.0103 0.24905 0.44889 0.095261 -0.42103 0.22995 -0.035902 0.1741 0.074604 0.26969 
otol -0.31672 0.1288 0.15199 0.23907 0.12863 0.30706 -0.41368 0.26157 -0.29113 -0.099569 -0.10015 -0.069712 -0.27126 -0.15695 -0.070381 -0.25407 -0.19324 -0.17038 0.11456 0.30798 -0.41707 0.32958 0.29299 -0.0043271 -0.0093269 
chcthy -0.47621 0.21638 0.24725 0.18736 -0.5005 0.41004 -0.13332 -0.10852 -0.14007 -0.24466 0.36374 0.36949 -0.30866 -0.16703 -0.22504 0.045249 -0.13847 0.0050485 -0.099472 -0.026954 0.10783 -0.027494 0.021574 -0.045361 0.019632 
kaiin 0.08358 0.32305 -0.12369 0.66133 -0.17609 -0.016962 -0.38246 -0.29163 -0.26792 0.0061089 -0.050198 0.5688 -0.53159 -0.025113 -0.11051 -0.075049 0.21307 0.16507 -0.086703 0.15723 0.062156 0.12289 0.44851 -0.093787 -0.071607 
qotaiin -0.49258 0.41347 -0.0073761 0.46884 -0.1149 0.22522 -0.097571 0.0067278 -0.59469 0.087597 0.2491 0.36436 -0.15508 -0.086669 -0.27039 -0.11329 0.43931 0.14716 0.020407 0.18863 0.035996 -0.18512 0.15306 -0.25275 0.16107 
cho 0.32306 -0.15168 0.23559 0.48352 0.066219 0.38076 -0.10628 -0.020367 -0.63532 -0.37029 0.079106 0.20172 -0.53857 0.01861 -0.1658 -0.13998 0.0063667 0.0030545 0.077433 0.7388 -0.19129 0.19731 -0.027154 0.17283 -0.36354 
okol -0.080284 0.063693 -0.020084 -0.089136 0.057846 0.20719 -0.30557 0.0055299 -0.49235 -0.13921 -0.18604 -0.040749 -0.39836 -0.2821 -0.23396 -0.1589 -0.66723 -0.06046 0.19751 -0.045813 -0.31721 0.59359 -0.037633 -0.10557 -0.39929 
qoteedy -0.72272 0.26205 -0.21401 0.13633 -0.37939 0.51894 -0.0034508 -0.20221 -0.75206 -0.24004 0.42957 0.041808 -0.39422 0.14681 0.10021 0.011378 0.33739 0.3813 0.34073 -0.84771 0.29101 -0.11302 -0.084684 -0.17362 0.24193 
cheo -0.01197 0.070281 -0.11296 -0.061298 0.22256 0.086468 -0.20854 -0.040088 -0.9965 -0.15515 -0.055797 0.26727 -0.18597 -0.14499 -0.051935 0.070317 0.25582 0.32267 0.15455 0.31418 -0.17855 0.11182 -0.16921 -0.016568 -0.095184 
d 0.089038 -0.19604 0.457 0.77215 -0.085421 0.46956 -0.16018 0.61376 -0.32598 -0.10739 -0.06237 0.19559 -0.37886 -0.014914 -0.10284 -0.15636 0.052511 -0.22083 0.28769 0.083347 0.0018537 0.34902 -0.023213 0.53149 -0.44061 
qokchy -0.42896 0.1564 0.32148 0.73791 -0.1386 0.24628 -0.068543 -0.22516 -0.38553 0.19628 0.2509 -0.076546 -0.4522 -0.40653 -0.74117 -0.17119 -0.090698 0.12517 -0.078764 0.3299 -0.35871 0.17282 -0.10252 0.31173 -0.30319 
sol -0.40584 0.05344 0.27991 0.086807 -0.26839 0.76516 0.0081264 -0.20857 -0.33789 -0.07183 0.010938 0.15421 -0.32203 -0.058856 0.10371 0.2035 -0.026058 0.3113 0.24929 -0.38785 -0.17015 0.13168 0.21206 0.02075 -0.13717 
odaiin 0.23176 0.3467 -0.32389 0.23234 -0.15227 0.011132 -0.38934 0.095881 -0.50124 -0.0048095 -0.073116 0.20394 -0.50191 -0.1655 -0.21764 -0.23478 -0.1204 -0.29643 0.33334 0.22773 -0.18581 -0.11119 0.25707 0.14775 0.17248 
cheky -0.26603 0.35158 -0.015519 0.047886 -0.4188 0.16494 -0.39878 0.02047 -0.37705 -0.33966 0.18892 0.10878 -0.11336 -0.056986 -0.35463 0.18793 0.0080485 0.0022188 0.057959 0.034651 0.14685 0.17959 -0.51012 0.082982 0.021256 
okeol 0.020005 -0.005526 -0.026111 -0.10566 0.56027 0.34917 -0.63896 0.30062 -0.52053 -0.025874 -0.34285 -0.26493 -0.16372 -0.38913 -0.21658 0.30171 -0.45332 0.43155 0.63847 -0.12743 0.12432 0.34833 -0.077042 -0.22911 -0.18986 
qotar -0.89054 0.77239 -0.15228 0.27698 -0.34102 -0.078508 0.080098 0.047086 -0.47583 -0.3501 0.15964 0.15466 -0.26638 0.079113 -0.3038 0.029533 0.33857 0.037669 0.033185 -0.18901 -0.21981 -0.27387 0.23539 -0.096079 0.28374 
dor -0.35922 -0.049424 0.23647 0.1694 -0.13043 0.42243 0.33878 -0.21157 -0.64402 -0.20014 0.13371 0.048419 -0.48378 -0.52069 -0.11039 -0.022378 -0.38969 -0.38198 0.13165 0.51033 -0.25355 0.36182 -0.25097 0.025395 -0.29418 
sain -0.67179 0.18511 0.071927 0.069496 -0.1745 -0.063595 -0.087272 0.030322 -0.41379 -0.20435 0.21629 0.32758 -0.3591 0.27379 0.24147 0.12781 0.01913 0.31282 0.48082 -0.31774 0.17329 0.08826 0.24978 -0.17722 0.14479 
okey -0.308 -0.09475 0.037027 -0.31486 0.046771 0.094205 -0.18504 0.43628 -0.68538 -0.55668 -0.12038 0.058213 -0.25061 0.39045 -0.039701 0.30886 -0.47084 0.33968 0.33654 -0.24028 -0.086191 0.17912 -0.17247 -0.022745 -0.0043479 
raiin -0.22537 -0.11064 -0.022876 0.33004 -0.17963 0.26123 0.10274 -0.013476 -0.85275 -0.24689 0.13081 0.088627 -0.35525 -0.15507 -0.17517 0.077277 0.099287 0.23759 -0.27721 -0.32026 0.46116 0.2294 0.41653 -0.40039 0.3084 
keedy -0.65017 0.27615 -0.11078 -0.15966 -0.40903 0.05421 0.047034 -0.14404 -0.53459 -0.4062 0.010527 0.42225 -0.35639 0.034681 0.021828 0.4427 0.084288 0.4784 0.28457 -0.51367 0.17566 0.16339 -0.27492 -0.22472 0.39411 
qotchy -0.45327 0.10716 0.33234 0.78237 -0.24683 0.28279 -0.088942 -0.17381 -0.34009 0.39009 0.34987 0.19422 -0.58614 -0.45884 -0.49293 -0.21711 0.14128 0.092113 0.01077 0.64558 -0.51095 0.22592 -0.0629 0.15979 -0.5801 
oly -0.63344 0.080308 0.049205 0.20984 -0.13824 0.31032 0.16488 -0.091137 -0.23642 -0.58293 0.25479 0.31609 -0.51344 0.58852 0.10846 0.024111 -0.3736 0.082865 0.3188 -0.30904 0.031926 0.10048 0.031531 0.076555 -0.032992 
qotal -0.68695 0.39621 0.20364 0.089573 -0.22647 0.39634 -0.2744 -0.22711 -0.30431 -0.077785 0.48538 0.39998 -0.083431 0.10558 -0.25895 -0.11104 0.19566 0.25937 0.12721 -0.19084 0.32172 0.066321 0.10646 -0.14761 0.080543 
qotain -0.9269 0.15898 0.00492 0.065584 -0.27306 0.2269 -0.24993 -0.096851 -0.47231 -0.17362 0.19326 0.34316 -0.24248 0.073167 0.26777 0.14032 0.14726 0.63449 0.033878 -0.20298 0.34412 0.1508 0.28312 -0.34257 0.49741 
shckhy -0.83024 0.047115 0.28017 -0.018446 -0.27767 0.3055 0.052917 -0.0843 -0.10652 -0.66355 0.50295 0.34998 -0.33961 -0.056783 0.17735 -0.094562 -0.24072 -0.061371 0.19115 -0.23429 0.087563 0.41946 0.069731 -0.24267 0.28306 
otey -0.63073 -0.027616 0.061172 -0.22453 -0.13071 0.098491 -0.42503 0.73351 -0.46339 -0.33396 0.21321 0.091092 -0.36706 0.27016 0.0042305 0.22685 -0.037605 -0.12601 -0.024912 -0.21825 -0.064258 0.048778 -0.098564 -0.18479 0.1297 
cheedy -0.79829 0.1933 -0.23766 0.061358 -0.14068 0.19837 -0.072052 -0.10181 -0.95615 -0.26987 0.080695 0.029225 -0.079855 0.02166 0.15254 0.20585 0.36113 0.18825 0.0066239 -0.23405 0.46479 0.11116 0.16903 -0.35541 0.07176 
kar -0.12957 0.35627 -0.12691 0.25191 -0.35956 -0.33109 -0.38068 -0.062156 0.016733 -0.17402 -0.25561 0.48209 -0.69078 -0.29525 -0.16861 -0.057551 0.12181 -0.074023 0.16347 -0.19225 0.013079 0.40868 0.31057 0.10815 0.58535 
ykeey -0.067299 -0.12966 -0.10234 -0.016337 0.14165 0.33501 -0.062884 0.25128 -0.81297 -0.19673 -0.18646 0.47627 -0.1976 0.017514 -0.30612 0.092097 -0.25978 -0.41121 0.15253 -0.19462 0.2823 0.088476 -0.15399 0.028216 -0.033871 
cthol 0.19612 -0.077127 0.47194 0.58252 0.0048838 0.61569 -0.057237 -0.16649 -0.3534 0.013718 0.52452 0.11163 -0.72377 -0.30271 -0.54528 -0.22803 -0.30674 0.093057 0.40879 0.50779 -0.71092 0.34991 -0.082046 -0.08099 -0.5938 
keey 0.055216 -0.16278 -0.23066 0.16976 -0.070471 0.39573 -0.19007 0.28457 -0.72145 -0.54065 -0.01363 -0.15223 -0.20296 -0.15174 0.073949 -0.15257 0.13339 0.3344 0.18281 0.16664 0.003538 0.31449 0.06151 -0.24984 -0.42879 
qo -0.51865 -0.013776 0.54197 0.18757 0.19417 0.35333 0.01611 0.1414 -0.6627 0.16415 0.56187 0.29551 -0.2029 -0.049953 -0.039047 -0.10157 0.18426 0.32753 0.046917 0.09532 -0.07304 0.26991 0.016601 -0.2048 -0.17601 
olaiin -0.30268 0.21052 -0.24463 -0.20469 -0.025672 0.04966 -0.14976 -0.1178 -0.75439 -0.45731 -0.039308 0.1417 0.031785 0.013165 -0.087251 0.070656 0.11023 -0.14797 0.45181 0.074743 -0.11161 0.41948 -0.02386 0.070544 0.42308 
shody -0.19252 0.45873 0.12743 0.54109 0.3869 -0.021312 -0.02578 0.19753 -0.69554 -0.011504 0.057611 0.096825 -0.07977 -0.44789 -0.51614 -0.13758 0.15813 -0.039571 0.12672 0.43385 -0.31261 0.092872 -0.047945 0.02055 -0.13445 
sor -0.35528 0.21202 0.027063 0.11666 -0.17521 -0.099354 -0.24792 0.21804 -0.33963 0.13456 0.24997 0.16381 -0.22848 -0.00084441 -0.34853 0.25659 -0.16563 0.26624 0.268 0.046244 -0.24486 0.32611 -0.12411 -0.099366 -0.071554 
chear 0.1544 0.1121 0.43644 0.27135 0.1197 -0.017723 0.073044 0.28313 -0.42806 -0.66221 0.11194 0.46591 -0.27595 -0.3635 -0.057906 0.079944 0.010023 -0.00081609 0.22899 -0.088839 0.098667 0.23066 0.079227 -0.42086 -0.20511 
cthey 0.26495 -0.20133 0.37253 0.17806 -0.00075455 0.19616 -0.24222 0.26277 -0.83396 0.063935 0.016892 0.22243 -0.21296 -0.18464 -0.16254 0.048663 -0.1545 -0.1098 0.2705 0.42119 0.070243 0.32187 0.071578 0.027159 -0.30798 
qokchdy -0.94424 0.72636 -0.31126 0.53554 -0.31663 -0.36126 0.13819 -0.31984 -0.43568 -0.082905 0.086853 0.13397 -0.42797 -0.52536 -0.21599 0.11127 -0.072326 0.028786 0.064714 -0.54604 0.088126 -0.0025091 -0.13717 0.39271 0.34484 
qokeol 0.022278 0.027001 -0.032096 -0.18953 0.2425 0.35705 -0.36849 -0.086966 -0.76294 -0.21577 -0.31406 0.023654 -0.085582 0.021238 -0.14873 0.40512 -0.66728 0.56577 0.46832 0.2877 -0.0088507 0.36674 0.099694 -0.50633 -0.38782 
sal -0.51422 0.002282 0.20028 -0.096306 -0.011123 0.35386 -0.36473 0.020365 -0.2242 -0.37982 0.16369 0.18667 -0.13695 0.26277 -0.055114 0.090897 0.092388 0.16837 0.26757 -0.1751 -0.30789 0.57655 -0.21882 0.10642 -0.092475 
opchedy -0.91383 0.69546 -0.017879 0.076511 -0.026599 0.22979 0.063602 0.012912 -0.42413 -0.41488 0.2089 0.30413 -0.3175 -0.090028 0.030965 -0.20503 -0.028656 0.12457 0.048296 0.15759 0.16183 -0.30976 0.035897 -0.22602 0.62278 
otam -0.27943 0.75944 0.23169 0.032746 -0.14349 0.16399 -0.50529 0.21997 -0.41237 0.18962 -0.0027909 -0.428 -0.14681 0.099721 -0.45554 0.26795 0.42992 -0.036759 0.47117 0.098683 -0.20822 0.07203 0.33472 -0.060701 0.17906 
lchey -0.5549 0.2494 0.18511 0.33483 -0.05746 0.49626 0.0548 -0.26222 -0.45992 -0.37991 0.57118 -0.017777 -0.15637 -0.1011 0.0013784 -0.14164 0.14148 0.56009 0.41567 -0.41248 0.37002 0.20905 0.27842 -0.32882 0.39692 
chal 0.11277 0.30228 -0.4405 0.17529 -0.3409 0.1473 -0.23322 0.092999 -0.13733 -0.64831 0.43368 0.15143 -0.49651 0.11799 -0.03671 -0.27033 -0.26616 0.027486 0.13364 -0.23984 0.061785 0.62702 0.30186 -0.62889 0.07978 
sheody -0.39063 0.41571 -0.46888 -0.014645 0.17678 0.17942 -0.48558 0.062406 -0.72276 0.16836 -0.26904 0.037311 -0.095135 -0.1637 -0.18838 -0.090532 -0.54434 -0.014213 0.1021 0.49161 -0.13847 -0.042024 0.19163 0.12349 -0.10467 
sheor -0.18834 0.06859 0.28847 0.12941 -0.0335 0.43626 0.08343 0.0091736 -0.35917 -0.18535 -0.10916 0.066723 -0.35102 -0.181 -0.40522 0.23983 -0.23559 0.027529 0.4128 0.10502 -0.13147 0.13324 0.18555 -0.49834 0.26535 
chaiin 0.42024 -0.17888 0.25837 0.5995 -0.4025 0.25863 -0.17092 0.20211 -0.014521 -0.23827 0.28057 0.90132 -0.88824 -0.36208 -0.23209 -0.55477 -0.19742 -0.31885 0.033214 0.63835 -0.056957 0.45955 0.31333 0.039907 -0.61274 
checkhy -0.73953 -0.084852 0.27476 -0.57097 -0.4459 0.20849 -0.17168 -0.2774 -0.53008 -0.57736 0.42907 0.087714 -0.50451 -0.037163 0.23123 -0.086239 0.12913 0.12351 0.2913 -0.17798 0.72672 0.2626 0.22377 -0.15554 0.085782 
lkaiin -0.4056 0.15168 -0.42998 0.27765 -0.12312 0.051314 -0.6304 0.17072 -0.31183 -0.22234 -0.061388 0.59178 -0.7053 -0.026064 0.37367 0.15736 0.19119 0.70943 -0.54779 0.13205 0.25014 0.045658 0.5177 -0.73031 0.26267 
sheo 0.041829 0.065757 -0.12341 0.041578 0.45733 0.32557 -0.26569 0.17098 -0.81824 -0.35608 -0.24123 -0.11498 -0.13127 -0.16406 0.054444 0.081628 -0.23391 -0.42774 -0.041816 0.52725 0.04409 0.65944 0.12343 -0.078618 0.17419 
kedy -0.80874 0.064851 -0.17357 -0.031846 -0.9068 0.11964 -0.036991 0.019983 -0.3344 -0.035981 0.1343 0.27592 -0.61335 -0.048694 -0.1067 0.055335 -0.10596 0.035933 0.30712 -0.44362 0.45974 0.00084478 -0.022147 -0.035831 0.20195 
ody -0.61906 0.35385 -0.087198 0.31996 -0.13493 0.089549 -0.18399 0.4333 -0.24342 -0.13441 -0.44888 0.17644 -0.43842 -0.0059575 -0.12076 -0.18539 -0.12506 -0.31985 0.14684 0.070432 -0.13513 -0.046749 -0.11632 0.35544 -0.058967 
aiiin -0.11481 0.25701 -0.39453 0.24719 0.1224 0.098827 -0.27176 -0.0024261 -0.61819 -0.062114 -0.1387 0.87323 -0.032149 0.14449 -0.2626 0.087168 0.27227 -0.22858 0.12226 -0.3337 -0.03102 0.16265 0.37003 -0.036488 0.086053 
chodaiin 0.18038 0.11733 0.27586 0.60017 0.2316 0.44116 -0.40121 -0.19416 -0.47271 0.25191 0.0080884 0.16945 -0.20801 -0.33027 -0.24446 -0.017904 -0.20228 0.27054 -0.025109 0.535 -0.385 0.34341 0.31995 0.49132 0.013989 
ykaiin -0.27124 0.53483 -0.25764 0.44205 -0.56191 0.095518 -0.336 -0.182 0.1831 0.0072064 -0.37772 0.65827 -0.4353 0.19831 -0.87452 0.098069 0.10097 -0.45247 0.012331 0.33125 0.085516 0.44072 0.20734 0.27946 0.32877 
shdy -0.78423 0.40428 0.25777 0.14355 -0.51662 -0.050236 0.040278 0.075464 -0.57282 -0.11662 -0.080938 -0.17264 -0.57021 0.135 -0.39035 -0.13631 0.31629 -0.286 0.1071 0.0066029 0.0084104 -0.040828 -0.15359 0.28847 -0.05618 
cthor -0.12864 -0.22831 0.51873 0.67108 0.091207 0.38826 0.026976 0.071357 -0.017794 0.15672 0.23095 0.60543 -0.75896 -0.60357 -0.27915 0.21777 -0.47888 -0.58151 0.22144 0.55138 -0.65545 0.81233 0.24777 -0.35941 -0.59594 
olkeedy -0.49659 0.52274 -0.10349 0.24277 -0.52516 0.11156 -0.1297 -0.1884 -0.46332 -0.080448 -0.092106 0.036772 -0.30918 0.0069693 -0.36465 0.2268 0.15513 -0.12127 0.2463 -0.3699 0.55587 0.27638 0.039796 -0.4736 0.33451 
tol -0.51049 0.29305 -0.17867 0.13163 -0.011137 0.28634 -0.49472 -0.4955 -0.29588 0.045971 0.33311 0.12919 -0.074218 -0.046 -0.30398 -0.046557 -0.43261 0.029226 0.43039 0.085753 -0.32552 0.12982 0.16942 0.11282 -0.38421 
taiin 0.28764 0.28399 -0.10209 0.52352 -0.12202 0.069015 -0.39313 -0.16627 -0.48104 -0.008507 0.14695 0.59532 -0.36406 -0.0068944 -0.14829 -0.27846 0.11686 0.08025 -0.10592 0.15347 0.16965 0.27924 0.0675 0.076436 -0.10888 
qoteey -0.55803 -0.02962 0.13337 0.42233 0.082471 0.46178 0.38007 0.62961 -0.85271 -0.20463 0.2777 0.16966 -0.20825 0.12277 -0.23764 -0.070216 0.49645 0.24359 -0.25402 0.38979 0.3355 0.13387 -0.13433 -0.27073 0.071405 
qodaiin -0.096854 0.39918 0.1822 0.45926 0.057467 0.18761 -0.29751 -0.069148 -0.44942 0.087276 -0.33549 0.095978 -0.15129 -0.42403 -0.37598 0.04693 0.41704 -0.13484 0.41617 0.2961 0.070307 -0.16326 0.56811 0.029018 -0.12713 
otchy -0.61999 0.16525 0.01767 0.87814 -0.13828 -0.032655 0.06263 0.13634 -0.26674 0.096482 -0.044256 0.15379 -0.36284 -0.43279 -0.45877 -0.34229 -0.36262 -0.17313 0.22551 0.56329 -0.38013 0.26361 -0.10782 0.41107 -0.28953 
kain -0.43207 0.11754 0.47665 -0.059891 -0.14887 0.25231 -0.2825 0.46604 -0.39734 0.14164 0.13584 0.75075 -0.4453 0.16889 0.16263 -0.028159 -0.004072 0.26322 0.17568 -0.59758 0.65986 0.0038407 0.52543 -0.37466 0.22161 
qotol -0.6408 0.4371 0.17415 0.7365 0.018756 0.75325 -0.01649 -0.48442 -0.41785 0.20906 0.33763 -0.037233 -0.055118 0.093335 -0.66693 -0.084047 -0.09038 -0.028561 -0.0064026 0.39319 -0.18242 0.31627 0.015619 0.026646 -0.54961 
ches -0.36694 0.0083473 -0.1609 0.049691 0.32345 -0.1257 -0.085707 0.52556 -0.55808 -0.37042 0.21162 0.32255 -0.2457 -0.175 -0.16811 -0.17329 -0.15063 0.17459 -0.12526 -0.30678 -0.16631 0.30981 0.2339 -0.086256 0.30836 
tar -0.30498 0.28475 0.42497 0.44767 -0.10994 0.097122 -0.15423 0.32911 -0.081567 -0.1991 0.15677 0.14 -0.42586 -0.25499 -0.15876 -0.24989 0.1001 -0.11354 0.044746 -0.36852 0.00305 0.32328 0.38039 0.041781 0.5382 
oteody -0.50746 0.44081 -0.26704 -0.54464 0.53112 0.18587 -0.56689 0.58402 -0.97542 -0.32881 -0.56218 -0.17236 0.24026 -0.03522 -0.13156 0.073747 0.12103 -0.31393 0.12989 0.32273 -0.18802 0.35908 0.24645 0.38561 0.09353 
tedy -0.95375 0.57612 0.2352 -0.13232 -0.62385 -0.015941 0.09132 0.09519 -0.27895 -0.33124 0.24276 -0.13317 -0.81637 0.45157 0.25938 0.31926 -0.0085283 0.014379 0.76023 -0.46215 -0.069769 0.0029727 -0.13381 -0.10975 0.48273 
qokchedy -0.60689 0.74886 -0.33553 0.14845 0.26215 0.095635 0.25566 -0.7716 -0.79121 -0.19029 0.32859 0.15142 -0.23309 -0.045749 -0.52242 -0.089871 0.36029 0.28529 -0.26069 0.034951 0.35145 0.43906 0.34697 -0.17826 0.10964 
lshedy -1.0315 0.052646 0.26152 -0.056099 -0.63327 0.49718 0.099034 -0.23128 -0.28773 -0.4278 0.19101 -0.0095869 0.015216 -0.20522 -0.34593 0.54642 0.16769 0.31434 0.19436 -0.58528 0.26213 0.65317 0.11267 -0.2324 0.19458 
choky -0.12558 0.081462 0.0098591 0.27562 0.14765 0.35108 -0.4672 0.043501 -0.35862 -0.012179 -0.11538 -0.10535 -0.47752 -0.25237 -0.29939 -0.10361 -0.31982 -0.032028 0.10581 0.21039 -0.80561 0.45461 -0.36395 0.31164 -0.21794 
chedaiin -0.17145 0.30201 -0.33852 0.0048311 -0.25045 0.62881 -0.57387 0.12202 -0.76958 -0.23596 0.2565 0.037709 -0.10712 -0.025978 0.32416 -0.24035 0.22472 -0.0023631 0.063756 -0.4926 0.13107 -0.1925 0.13409 0.49529 0.42205 
choty -0.1919 0.15026 0.33578 0.63697 0.12399 0.5484 -0.16885 0.054717 -0.4248 -0.14661 0.34719 -0.20074 -0.28447 -0.047994 -0.28911 -0.24723 -0.11159 0.2197 0.055709 0.56761 -0.4292 0.11853 -0.01667 0.39249 -0.30262 
lkeey -0.51938 -0.30093 -0.30162 0.08886 0.056118 0.044965 0.063445 -0.1735 -0.88909 -0.55489 0.00029093 0.48642 -0.23924 -0.34841 0.22224 0.30691 0.55532 0.44171 -0.019071 0.097004 0.90622 0.5476 0.40571 -0.52159 0.40807 
olchedy -0.98082 0.28864 0.042832 -0.22883 -0.81021 0.53265 -0.24246 -0.16799 -0.18054 -0.50068 0.083776 -0.16879 -0.86874 0.32207 0.154 0.10419 0.19879 -0.075583 0.22179 -0.761 0.32348 -0.17416 0.37992 -0.07593 0.10192 
ytaiin -0.055585 0.62231 -0.098831 0.66536 0.030351 0.19064 -0.44184 0.078584 0.0458 0.34843 0.23353 0.53451 -0.37527 -0.44902 -0.72476 -0.018642 0.37208 -0.5298 0.27186 0.1721 -0.25047 -0.030399 0.60956 -0.27163 0.21669 
otor -0.49569 0.025048 -0.27022 0.48829 0.10218 -0.18737 0.074357 -0.25149 -0.69363 -0.34565 -0.041036 -0.43597 -0.64576 -0.073408 -0.19166 0.012923 -0.10298 -0.32631 -0.053629 0.20265 -0.22912 0.21494 0.22156 0.63937 -0.0024967 
chees -0.21949 0.43391 0.19751 0.029965 -0.19172 0.39648 -0.13095 0.31653 -0.5052 -0.33824 -0.27554 -0.04228 -0.23662 0.042708 -0.13329 -0.12442 -0.049991 -0.032259 -0.011205 -0.089826 -0.12558 0.13496 -0.14566 0.095279 -0.18782 
olkeey -0.76649 0.10872 0.15073 0.17393 -0.51634 0.28463 -0.018176 -0.24439 -0.37552 -0.30661 0.10004 0.17127 -0.35359 -0.24597 0.19519 0.20427 -0.085007 0.44822 -0.017524 -0.71623 0.10628 0.37318 0.54054 -0.34388 0.44555 
lor -0.40128 -0.1445 0.23332 0.067088 -0.45999 0.48375 -0.062457 -0.19879 -0.25256 -0.23634 -0.29224 0.43957 -0.30074 0.088628 -0.25493 0.3141 -0.025968 0.10594 0.45066 0.069177 0.63017 0.1798 0.5316 -0.38118 0.3095 
lol -0.7109 0.19967 -0.16333 -0.050863 -0.3813 0.39064 -0.14277 -0.31548 -0.25459 -0.10785 0.36654 0.49113 -0.48943 0.25643 -0.067712 0.43046 -0.089798 0.30288 0.34514 -0.88174 -0.098519 0.011746 0.43838 -0.4667 -0.024693 
chos -0.098539 0.11599 -0.10497 -0.029534 0.23149 0.17537 -0.23903 -0.036022 -0.73513 -0.30414 -0.43407 -0.078811 -0.12093 -0.3129 -0.29064 -0.083623 -0.35269 -0.19568 0.24598 0.5766 0.024963 0.27432 0.16058 0.17119 -0.27782 
kol -0.22719 -0.25205 0.45249 0.22234 -0.0042693 -0.048472 -0.16971 0.015065 -0.58392 -0.019248 0.084802 0.28777 -0.61993 -0.47083 -0.03556 -0.070298 0.13016 -0.055239 0.33877 0.56126 -0.21753 0.29788 -0.10117 -0.16598 -0.79024 
sy -0.22768 -0.24889 0.4637 0.35163 0.1246 0.10167 -0.042782 0.086791 -0.45608 0.086724 0.105 0.25049 -0.53425 -0.19137 -0.59176 0.38747 -0.40816 0.16606 -0.24767 0.099232 0.043206 0.13161 0.1435 0.0052269 -0.35183 
cheos -0.013368 -0.059756 -0.27826 -0.33168 -0.015914 0.28525 -0.43881 0.027431 -0.67839 -0.22096 -0.48339 0.14154 -0.55485 -0.30279 -0.14013 0.30606 -0.060891 0.16265 0.036803 0.26279 -0.12862 -0.079608 -0.094648 -0.031392 0.1403 
ykar -0.53786 0.59079 0.080945 0.13648 -0.38485 -0.41959 -0.85465 0.10706 0.25404 0.13743 -0.35082 0.25657 -0.5382 -0.34753 -0.27292 0.061288 0.1992 0.031093 -0.11228 0.35609 0.14776 0.55392 0.23051 0.29865 0.1062 
lkeedy -0.29623 -0.37737 -0.55863 0.14517 -0.47282 -0.063708 -0.16712 -0.25514 -1.076 -0.65279 0.37027 0.22773 -0.16104 -0.14586 0.052597 0.70162 0.32882 0.40304 0.11731 -0.08993 0.77081 -0.033901 0.3951 -0.21535 0.32867 
oteol -0.17266 0.031448 -0.077378 -0.43545 0.10784 0.6882 -0.17624 0.45389 -0.37752 -0.41364 -0.062492 0.08997 -0.32628 -0.13746 -0.23454 0.014876 0.033251 -0.051579 0.37605 -0.023643 -0.31152 0.23739 -0.46228 0.039007 0.20778 
okeody -0.2733 0.18186 -0.24279 -0.5283 0.29534 -0.22264 -0.58675 0.39529 -0.75506 -0.61923 -0.60938 -0.21915 -0.37314 -0.10848 -0.16477 0.46761 -0.52737 0.13873 0.036885 0.22093 -0.14233 -0.19558 0.29033 0.23435 0.14881 
ckhy 0.22312 0.17783 0.41582 0.26148 -0.059464 0.032015 -0.28214 -0.016079 -0.46264 0.069807 -0.17581 0.17411 -0.42094 -0.35975 -0.49937 0.022419 -0.036483 -0.19446 0.34292 0.28195 -0.54277 0.21238 0.41213 0.46105 -0.6261 
okor -0.34193 0.22809 0.32985 0.015078 0.49392 0.29681 -0.2611 0.1279 -0.39698 -0.14825 -0.020284 -0.22737 -0.12112 0.13128 -0.34305 0.67734 -0.40349 -0.18456 0.84403 -0.044638 -0.66259 0.10289 -0.036097 0.19556 -0.22672 
kchy -0.53433 0.081856 0.57803 0.65315 -0.3705 -0.096709 -0.024712 -0.017556 -0.4305 0.068941 0.44864 -0.15755 -0.75253 -0.79181 -0.47544 -0.31543 -0.032968 -0.099338 -0.088571 0.84724 -0.10332 0.57584 -0.20791 0.22916 -1.0774 
oraiin -0.29717 0.1845 -0.06062 0.32293 0.3797 0.16054 -0.17932 0.069891 -0.70231 0.081841 -0.23866 0.21166 -0.21781 -0.091147 -0.29954 -0.10405 -0.042588 -0.3605 0.26249 -0.14138 0.23616 -0.025649 0.30888 0.029927 0.30591 
pchedy -1.0796 0.6068 0.33814 0.054345 0.40465 0.49807 0.30476 -0.10295 -0.3956 -0.15271 0.038698 0.74153 -0.30035 0.1485 0.10685 0.15418 0.40221 0.2379 0.040839 -0.37106 0.44733 0.13929 -0.041679 0.019504 0.5782 
oiin -0.041851 0.63503 0.57715 -0.025223 0.25118 0.17872 -0.0023939 0.0027341 -0.13501 -0.46144 -0.13792 0.04352 -0.25663 -0.27753 -0.30252 0.13128 0.080083 -0.28432 0.45642 -0.46617 -0.24133 0.47612 0.31617 0.042624 0.0062051 
otchedy -0.91894 0.56464 -0.44095 0.67193 0.23223 0.18411 -0.37421 0.014927 -0.67452 0.29554 0.26162 0.030002 -0.13183 -0.028175 -0.075656 0.13849 0.71231 0.062378 0.27915 0.13432 0.44025 -0.4065 0.1735 0.059097 0.49728 
chedar -0.55747 -0.058916 -0.68686 0.012508 -0.052088 0.30759 -0.17073 0.015341 -0.9848 -0.58391 0.14214 0.015766 -0.51153 -0.066492 -0.081145 0.14502 0.14363 0.11961 -0.26775 -0.18813 0.51885 -0.62687 0.47279 -0.27914 0.26711 
sheky -0.63488 0.42016 0.45683 0.34612 -0.78809 0.15311 0.24013 0.78931 -0.43082 -0.31425 -0.39479 0.070102 -0.21151 0.10849 -0.25787 0.46958 -0.51565 0.19393 -0.32771 -0.057892 0.53262 0.1093 -0.0034797 -0.042774 0.062095 
dshedy -1.3519 0.31143 0.41302 0.14396 -0.52204 0.33791 0.33673 -0.042451 -0.58601 0.12089 0.041065 -0.19283 -0.68152 0.38133 0.13582 0.37186 0.49345 0.14422 0.23372 -0.15542 0.33517 0.22685 -0.33483 0.33762 0.37997 
lkain -0.24161 0.24224 -0.16187 0.37325 -0.26012 0.099795 0.0011414 -0.076515 -0.50348 -0.80455 0.49472 0.57686 -0.35345 0.030474 0.36721 0.18797 0.24992 0.82801 -0.14723 -0.13572 0.21597 0.34463 0.27241 -0.7804 0.399 
otchdy -0.99139 0.27907 -0.33808 0.25452 0.086778 -0.079283 -0.33416 -0.091518 -0.58751 -0.14921 0.058542 -0.47076 -0.40669 -0.038736 -0.035268 -0.047626 -0.096684 -0.15202 0.31896 0.20747 0.26091 -0.34829 0.25343 0.4293 0.073808 
tchedy -0.66097 0.46457 0.13853 0.39646 -0.068493 0.42899 -0.0070588 -0.070302 -0.7418 -0.34143 0.25415 0.48329 -0.023414 0.074383 0.10878 -0.33043 0.078657 0.25516 -0.27376 -0.16267 0.49273 -0.20583 0.14189 0.25461 0.33958 
qokeody -0.56695 0.13783 -0.38143 -0.44956 0.22301 0.28636 -0.019339 0.077955 -1.0988 -0.13442 -0.42684 -0.48849 -0.14521 -0.42796 -0.33515 0.44044 -0.54667 0.41302 0.493 0.54195 0.16903 -0.0038167 -0.36687 -0.013355 -0.020491 
shar -0.50807 0.068937 0.12925 0.29142 0.049698 0.12214 -0.082579 0.39578 0.081769 -0.57719 0.20954 0.72422 -0.15035 -0.010398 -0.38001 0.12547 -0.40755 -0.10498 -0.35128 -0.11529 -0.46663 0.5263 0.65786 -0.082527 0.34279 
okam -0.4232 0.43908 -0.35514 0.044878 0.018162 -0.44445 -0.047219 0.10788 -0.69476 -0.28449 -0.10572 0.39002 -0.30986 0.011222 -0.13183 0.16173 -0.09291 -0.18218 0.11319 -0.42004 -0.091885 0.028922 -0.046001 0.29705 -0.14399 
olkain -0.87968 0.74755 0.15955 0.2269 -0.42976 0.8032 0.017797 -0.23762 0.74441 -0.041132 0.06241 1.1812 -0.9746 -0.19526 0.05405 0.39768 -0.2147 0.060492 0.42436 -0.97991 0.34575 0.32599 -0.11952 -0.82905 0.12334 
sheckhy -0.88837 0.12527 -0.19411 0.40413 -0.55805 0.28612 0.30629 -0.074758 -0.06466 -0.84202 0.26147 0.39569 -0.42119 0.27343 -0.0009108 -0.0074791 -0.41709 0.62448 0.18829 -0.59597 0.50061 0.53729 0.11655 -0.47442 0.17041 
otchey -0.30284 0.13289 0.70827 0.096831 0.028415 0.55492 -0.42973 0.345 -0.69339 0.38275 0.28943 0.298 -0.39149 -0.43317 0.56019 0.071398 0.59812 -0.36951 0.1139 0.061624 -0.092409 -0.071597 0.1952 -0.14742 -0.1345 
daly -0.70666 0.32832 -0.16313 -0.23351 0.065827 0.12833 -0.65905 -0.37397 -0.023955 -0.3354 0.083638 0.27482 -0.13276 -0.025634 0.14204 0.28421 -0.54856 -0.047799 0.18488 -0.047096 -0.21304 0.52471 -0.018082 0.30632 0.21604 
shcthy -1.2106 0.62884 0.21125 0.18724 0.096324 0.67874 0.53767 -0.4229 -0.44841 -0.29751 0.64787 0.28047 -0.039418 -0.3334 -0.2195 -0.019947 -0.52468 0.44017 -0.10698 -0.31189 0.078489 0.0063962 -0.044158 -0.23078 -0.3022 
okchey 0.038995 0.10231 0.29877 0.31439 -0.25859 0.20142 -0.032361 -0.088684 -0.60904 -0.24377 0.019603 -0.057567 -0.40315 -0.21649 0.34862 0.39668 0.17239 0.27904 0.34696 0.23753 -0.062125 -0.029753 0.24646 0.066413 -0.56991 
os -0.52082 0.16173 -0.40933 0.37182 0.42786 0.13359 -0.28863 0.4965 -0.16548 -0.02511 -0.62978 0.34077 -0.33544 -0.36515 -0.17067 -0.23636 -0.33089 -0.39154 0.53413 0.28006 -0.61112 0.25083 0.2563 -0.105 -0.18266 
qokor 0.17009 0.56116 -0.14026 0.0090622 0.056489 0.11171 -0.037026 -0.32914 -0.57407 0.36089 0.53255 0.038629 -0.69169 0.056112 -0.45209 0.28661 -0.20658 0.30754 0.24115 -0.13945 -0.84415 0.34077 0.068546 -0.18398 0.12885 
okchy -0.70747 0.1219 0.35755 -0.00067838 -0.054358 0.19283 -0.45259 0.087541 -0.15555 0.0083122 0.18995 0.0019997 -0.30227 -0.33033 -0.16971 -0.22576 -0.39467 0.16549 -0.0031781 0.02591 -0.36574 0.38124 -0.20899 0.62819 -0.25377 
lkar -0.86099 0.47448 -0.38043 -0.13905 -0.19078 -0.036127 -0.052483 -0.3452 -0.26394 -0.14788 0.5432 0.48349 -0.43259 -0.53291 0.092392 -0.12057 0.69488 0.67097 0.14571 0.45879 0.11402 0.47101 0.18921 -0.2904 0.75459 
qopchedy -0.85609 0.95224 -0.41059 -0.046214 0.12759 0.20865 -0.062623 -0.10576 -0.85496 0.24949 -0.10702 0.29628 -0.47639 0.37545 0.22991 -0.10982 0.16148 0.69394 0.25994 -0.22033 0.01975 -0.24737 0.16552 -0.031793 0.83418 
olkaiin -0.020819 0.52609 -0.46685 0.48923 -0.31632 0.19707 -0.26473 -0.068709 -0.29101 -0.15775 -0.22521 0.81614 -0.26865 0.04838 -0.19433 0.062527 -0.087084 -0.0092853 -0.03122 -0.52047 0.044588 -0.072041 0.4167 0.49398 0.73632 
olor -0.52755 0.051927 0.061172 0.61443 -0.25391 0.15289 -0.32642 0.12306 0.12522 0.10505 0.060235 0.51978 -0.52722 0.3872 -0.052204 0.28099 -0.17882 -0.0082035 0.52986 -0.32145 0.22937 0.11164 0.01167 0.029719 -0.017736 
ykeedy -1.0081 0.74881 0.083557 -0.21051 -0.8994 0.10728 -0.0783 0.11862 -0.40391 -0.17154 -0.35933 0.17208 -0.71298 0.016887 0.25711 0.12818 0.3039 -0.30341 0.076084 -0.26353 0.37427 -0.16645 -0.027329 -0.2107 -0.16051 
yteey -0.29795 0.015214 -0.28245 0.18899 -0.013968 -0.25556 -0.25096 0.64745 -0.48836 -0.1384 -0.12672 0.038872 -0.27357 -0.10297 -0.62574 0.45109 0.35218 -0.45055 0.5496 0.23853 -0.086568 0.023167 0.047987 0.020151 0.42836 
opchey -0.68008 0.55836 0.30069 0.023934 0.42016 0.19415 -0.13213 -0.17361 -0.44652 -0.077432 0.22853 0.13433 -0.26648 0.10328 0.17895 -0.25079 -0.14959 0.26167 0.025328 -0.03974 -0.18428 0.23877 0.24409 0.40335 0.37586 
chckhey -0.69114 0.084538 0.0076728 0.26479 -0.26586 0.22774 0.12212 0.041621 -0.56711 -0.030688 0.23903 0.13596 -0.15174 -0.11424 0.25404 0.023341 -0.051582 0.80568 0.73312 0.02689 0.37383 0.0069425 -0.08839 0.063918 0.19974 
checthy -0.85708 -0.014339 -0.12624 -0.061684 -0.73158 0.68256 -0.23966 -0.25993 -0.40318 -0.036266 0.47098 0.31227 -0.25867 -0.33714 0.49662 0.053799 -0.12827 0.64509 0.39671 -0.32963 0.61017 0.16339 -0.27368 -0.17736 -0.092412 
cheal -0.010723 -0.087863 -0.022424 0.32106 0.032799 0.082293 -0.40897 0.45804 -0.50995 -0.36414 0.47538 0.46677 -0.097457 -0.21272 0.65458 -0.10514 -0.16178 0.27607 -0.088791 -0.34192 0.39571 0.77176 0.34752 -0.41817 -0.24263 
ky -0.46175 -0.050972 0.52484 0.47758 0.12017 0.24991 0.15239 -0.25333 -0.56261 -0.059895 -0.12237 0.34561 -0.5671 -0.022523 0.27047 0.21953 -0.0044529 0.044252 -0.045566 0.46253 0.078481 0.39678 -0.178 0.18119 -0.78784 
oldy -1.0021 0.18661 0.3977 0.35987 -0.06404 -0.18139 -0.39818 0.028577 0.036615 -0.17583 0.10008 -0.39649 -0.37108 -0.07361 -0.23429 0.64427 0.012483 0.021261 0.58603 -0.23786 0.70565 0.52192 -0.21145 -0.29472 -0.38379 
chl -0.13692 -0.095552 -0.13671 0.48116 -0.66652 0.19275 0.44778 -0.30693 -0.37078 -0.89612 0.061793 0.16214 -0.46486 -0.49826 -0.18138 0.064535 -0.12175 0.39006 -0.079408 0.31891 0.39178 0.20497 0.46253 -0.28942 0.039603 
otchol -0.26272 0.1898 0.30689 0.73307 0.59106 0.55978 0.055793 -0.10116 0.076704 0.1093 0.31169 0.18528 -0.77629 -0.66825 -1.0366 -0.70211 -0.73974 0.52082 0.35881 0.56379 -0.88157 0.33768 0.24394 0.28914 -0.468 
yteedy -1.0192 0.35745 -0.031122 -0.14509 0.15439 0.12235 -0.28969 0.21837 -0.43622 -0.0097925 -0.39174 0.37896 -0.03497 0.0071596 -0.50421 0.10181 0.14207 0.0012143 0.084354 0.23807 0.72352 -0.066965 -0.064757 0.20653 0.0033449 
dchedy -0.8211 0.85678 0.071351 -0.0063003 -0.42371 0.046361 -0.27791 -0.18282 -0.31261 0.010377 -0.04169 -0.28809 -0.18663 -0.0974 -0.18778 0.36008 0.20736 0.46567 0.25878 -0.6571 0.43145 0.33837 -0.052603 0.19903 0.18937 
sair -0.15274 0.096763 -0.45922 -0.035867 -0.4865 0.1142 -0.21162 0.058537 -0.63315 -0.34529 -0.33156 0.46707 -0.040359 -0.78875 -0.044263 0.18204 -0.19606 0.25444 -0.27436 -0.67219 0.21959 0.37765 -0.1695 0.65268 0.083748 
dchy -0.20672 -0.3568 0.25271 0.67463 0.23984 -0.0041761 -0.023218 0.21652 -0.57586 0.096472 0.2464 0.28505 -0.39577 -0.49567 -1.2357 -0.34492 -0.35442 0.046441 0.15372 0.4309 -0.057569 0.36524 -0.073028 1.0852 -1.1529 
tchy -0.57971 -0.10777 0.28123 0.70319 0.0075932 0.10043 0.055022 0.41073 -0.2651 -0.30427 0.31052 0.71973 -0.40013 -0.57561 -0.38825 -0.35145 0.082152 -0.29149 -0.59527 0.44614 -0.58991 0.6831 0.17231 -0.063256 -0.97628 
qokeeey -0.055171 -0.18818 -0.50803 -0.1476 -0.31688 0.71767 -0.41378 -0.095395 -0.43152 -0.23369 -0.15576 0.10958 -0.39206 -0.5925 0.00058332 0.077071 0.605 0.10886 0.65524 0.28449 0.98548 0.19104 0.1925 -0.42996 0.39122 
qokchey -0.46509 0.094804 -0.67699 0.34165 0.095144 0.9945 0.12571 -0.31664 -0.1766 -0.38102 0.15826 0.71472 0.08715 -0.65762 -0.22633 0.23298 0.54298 0.26256 -0.14366 0.24062 -0.46613 0.73933 -0.0087609 -0.23266 0.42554 
ckhey 0.36345 -0.19792 0.57979 -0.2022 0.2539 0.55565 -0.42988 -0.11057 -0.39787 -0.053785 -0.13354 0.47053 -0.0069801 -0.74132 -0.00121 0.41256 -0.018826 0.088169 0.83755 0.0051483 -0.22367 0.83339 0.16373 0.039593 -0.5839 
aiir -0.18175 0.63547 -0.71663 0.029238 0.27013 -0.14478 -0.65008 0.14554 -0.6859 0.0030563 0.2514 0.19291 -0.28513 -0.16197 -0.22501 -0.11396 -0.020121 0.36786 -0.27116 -0.37135 -0.57728 0.032606 -0.080166 0.7293 0.13379 
kal -0.48809 0.44401 0.06997 -0.054904 -0.45618 0.11026 -0.23975 0.31963 -0.42466 -0.040295 -0.10564 0.14007 -0.10018 -0.22914 -0.12476 0.09006 -0.16487 0.1006 -0.037435 -0.31209 -0.083435 0.21646 0.23307 -0.07782 0.32436 
daiir -0.52309 0.35383 0.18187 -0.051924 0.1299 0.098809 -0.83361 0.69196 -0.5149 0.12712 -0.17115 -0.60824 -0.62471 -0.5843 0.16663 0.081698 0.15398 0.20743 -0.232 0.071529 -0.44656 0.029539 -0.40576 0.42248 -0.29408 
dchor -0.25125 -0.44956 0.4992 0.42631 0.39506 0.076324 -0.2591 0.38604 -0.19195 0.45455 0.47087 0.23966 -1.3295 0.26682 -0.59379 -0.046746 0.17322 -0.25997 0.17275 0.7032 -0.86408 0.71041 0.26901 -0.019035 -0.55837 
kor -0.13202 0.19816 0.40031 0.67209 0.058925 -0.036659 -0.0019042 0.30376 -0.2385 -0.15569 -0.44967 0.15138 -0.1884 -0.39427 -0.48015 0.43163 -0.28858 -0.014001 0.2073 0.12959 -0.19412 0.21166 0.053815 0.31673 -0.28991 
lkedy -0.52755 0.1552 -0.90775 -0.36196 -0.51327 0.1661 -0.44657 0.12074 -0.7319 -0.26443 0.58312 -0.45311 -0.72218 0.12842 0.37912 0.058149 -0.47092 0.51423 0.28449 -0.37714 0.97877 -0.093944 0.26379 -0.050624 0.46543 
she -0.17914 0.28809 0.20165 0.45437 -0.011862 -0.14453 0.11546 0.10461 -0.3706 -0.46228 -0.020701 0.38609 -0.26732 -0.30224 -0.48447 -0.095862 -0.36804 -0.143 0.162 0.68239 -0.079585 0.19048 -0.13322 -0.10743 -0.10236 
olkedy -1.3181 0.56722 0.001828 -0.11924 -0.26029 0.44744 0.031262 0.34947 0.0015333 0.18329 0.68217 -0.058737 -0.76175 1.2727 -0.47046 -0.11347 -0.14085 0.48569 0.43746 -0.87734 0.35868 0.38461 0.11162 0.40427 0.047979 
chedal -0.32832 0.43046 -0.55107 0.25692 -0.010668 0.56905 -0.96839 -0.19965 -0.62995 0.46289 0.075913 -0.097789 -0.21582 0.10733 0.21885 0.39069 0.5252 0.12983 0.43242 -0.030209 0.042258 -0.22354 0.27957 0.03918 0.58139 
qotor -0.30764 0.49707 0.2275 1.0164 0.432 0.58045 0.0073973 -0.17171 -0.086029 0.69749 0.56369 0.40946 -1.3459 -0.77372 0.2217 -0.40033 -0.44143 0.10571 -0.40517 0.76416 -0.1115 -0.27341 0.52491 0.17504 -0.078401 
okeeey 0.062005 0.26563 0.082319 -0.13223 0.50947 0.36745 -0.44119 0.17576 -0.56036 -0.5307 -0.2954 -0.097952 -0.10245 -0.7574 -0.11133 0.16327 0.0065547 0.26693 0.056765 0.15485 0.8066 0.25476 0.23517 -0.56119 -0.17683 
oaiin 0.065756 -0.10922 0.28553 -0.13191 -0.026215 0.55516 -0.079701 -0.1927 -0.56137 -0.31963 -0.39998 0.1673 -0.73565 0.39417 -0.1502 0.19133 -0.011472 0.14731 0.14158 1.0087 -0.022255 0.083193 0.028223 0.57373 -0.24764 
aly -0.21541 0.62959 -0.12111 -0.4121 -0.050499 -0.072277 -0.026829 0.31471 -0.36012 -1.0436 0.60621 -0.22744 -0.45076 -0.078259 0.17725 0.19813 -0.33895 -0.14405 -0.23234 0.0096799 0.044465 0.34526 0.021677 0.31199 0.45982 
otair 0.38113 0.68534 -0.36947 -0.25366 0.23637 -0.06429 -1.0371 -0.020592 -0.53181 0.16717 0.17169 -0.035736 -0.6726 -0.31642 -0.24946 0.19461 0.12282 0.21167 -0.19544 -0.52117 -0.085602 0.012366 0.29067 0.2291 0.43998 
qokam -0.59596 0.21061 0.27862 0.29859 -0.45903 0.18279 0.34364 -0.19537 -0.44941 -0.12382 0.13851 -0.39886 -0.57886 -0.61466 -0.055066 0.029602 -0.036469 0.10112 0.16317 -0.23545 0.27275 0.46615 0.20298 -0.23714 0.35197 
okchdy -1.0428 0.778 0.23219 0.89601 0.027306 -0.0015781 0.1466 0.079043 -0.56903 -0.080989 -0.13091 -0.56063 -0.095176 0.12249 0.18811 0.19431 -0.02865 -0.27998 0.45616 -0.37934 0.37658 -0.0050145 0.43197 0.9677 -0.062116 
cheeky -0.11492 0.42798 0.050494 -0.15866 -0.17134 0.075406 -0.14681 -0.66615 -0.22733 -0.49919 0.41673 0.13655 -0.83092 -0.29629 0.43712 0.48353 0.15491 -0.050475 0.1328 -0.16643 0.19254 0.48748 -0.12233 -0.26947 0.2091 
olchey -0.60383 0.39375 0.14927 -0.17315 -1.0125 0.78598 -0.13429 0.28068 -0.21523 -0.45954 0.77453 -0.18392 -0.25453 0.067939 0.2925 0.28844 -0.48938 0.45776 0.33729 -0.10593 0.40641 -0.08042 -0.19805 -0.25684 0.032706 
dchol -0.081673 0.22515 0.72211 0.55438 0.20947 -0.18894 -0.59493 0.20222 -0.37538 0.66515 0.86845 -0.0097023 -0.6766 -0.093936 -0.50982 -0.27175 -0.56913 0.62392 -0.12153 0.46444 -0.0050819 0.36378 0.15096 0.72657 -0.42585 
ldy -0.87992 0.057157 -0.076594 0.17883 -0.038708 0.12517 0.16147 -0.1074 -0.38526 -0.34878 0.42041 0.12783 -0.31903 0.32156 -0.21692 -0.20478 -0.00097002 0.60298 0.5231 0.0097765 0.23267 0.32433 -0.021031 -0.39472 -0.049613 
ary -0.15052 0.094962 0.094861 -0.24321 0.022743 0.24445 -0.94299 -0.13765 -0.027216 -0.1197 0.20592 -0.26288 -0.75094 0.29264 -0.055666 0.11208 0.35589 -0.12676 0.4675 -0.48323 -0.20782 0.65355 -0.059338 0.4154 0.24676 
oteos -0.1434 0.12927 0.0020146 -0.073389 0.65379 -0.031089 -0.8354 1.2356 -0.47062 -0.64465 -0.013338 -0.075774 -0.015068 -0.39703 0.12426 0.17804 0.0092124 -0.29055 0.039115 0.34284 -0.17612 0.10359 0.36059 0.2515 -0.38434 
shear -0.54657 0.070498 0.069856 0.45648 0.13426 0.27361 0.49338 0.168 -0.25622 -0.57351 0.43537 -0.01556 -0.40621 -0.40424 0.32897 0.18397 0.15223 0.17296 0.48209 -0.040179 -0.31782 0.6707 -0.12894 -0.43661 0.41043 
kchol -0.0017864 -0.09305 -0.12774 0.74945 0.062474 0.24413 0.12405 -0.31685 -0.37443 0.56466 0.16589 0.61446 -0.79987 -0.48225 -0.5463 -0.011348 -0.30983 0.40104 0.22435 0.62539 -0.80504 0.72232 -0.18918 0.16194 -0.53951 
ytar 0.11275 0.968 -0.49276 0.59787 -0.0048511 -0.15907 -0.56437 -0.026033 -0.11164 -0.048124 0.22198 0.47095 -0.091187 -0.036139 -0.78644 0.06935 -0.20534 -0.53831 0.034817 0.12771 -0.1214 0.32042 0.53807 -0.22838 0.49073 
tal -0.46345 0.631 0.32959 0.27898 -0.112 -0.065339 -0.020502 0.06469 -0.15566 -0.0053024 0.63474 0.77648 -0.33283 0.27114 -0.37788 0.51699 -0.42315 0.17395 -0.27879 -0.41019 -0.3189 0.0055554 0.14823 0.31945 0.2884 
qotchedy -0.835 0.84065 -0.76625 0.10568 0.11132 0.4725 0.074738 -0.75386 -0.89821 -0.17638 -0.28589 -0.030397 -0.39449 -0.23569 -0.10181 0.007995 -0.015766 0.87998 -0.22898 -0.098629 0.24223 -0.21602 0.067174 0.020519 0.36687 
ytedy -1.1719 0.95202 0.18387 -0.54888 -0.63774 0.40414 0.017779 -0.028756 -0.3418 0.11174 0.10852 -0.23295 -1.2024 0.56582 0.26765 0.53495 -0.33901 -0.5013 0.67397 0.0022064 -0.26679 -0.45159 -0.6442 0.45535 -0.26834 
okchedy -0.32812 0.45889 -0.34295 0.62018 -1.1672 0.11281 -0.085686 0.33327 -0.47939 0.027998 -0.36945 0.069771 0.081204 -0.25401 -0.085371 0.70096 0.33729 -0.31768 0.74683 0.0093244 0.4935 -0.036287 0.63474 0.023396 0.50702 
chockhy 0.11249 0.049895 -0.38479 0.086066 0.33541 0.15696 -0.057737 -0.13549 -0.71542 -0.69868 -0.51096 0.20227 -0.42641 0.083918 -0.47502 0.49342 -0.36377 -0.025315 0.27344 0.62302 -0.79918 -0.060393 0.017452 0.18581 0.010234 
otaly -0.2739 0.64705 0.11052 -0.35744 0.35594 -0.02741 -0.64424 0.64111 0.1388 -1.1735 0.12537 -0.013335 -0.47187 0.21444 -0.13737 0.42052 -0.69371 -0.24267 0.14642 -0.8177 0.087584 -0.097221 0.18465 0.5174 0.27457 
chdar -0.27553 0.55976 -0.31666 0.29677 -0.21902 -0.077594 -0.34055 0.16158 -0.36381 -0.1593 0.0065463 -0.64024 -0.5374 0.078178 -0.456 0.13412 0.51259 -0.082425 0.4244 -0.82216 0.046533 0.1729 0.52244 0.76131 0.70311 
dary -0.37163 -0.019329 -0.1044 0.34485 -0.37506 0.31302 -0.74479 -0.55767 0.10785 -0.20734 0.10199 0.073194 -0.5477 -0.18489 -0.30948 0.37768 0.077379 -0.10526 -0.27597 -0.13721 0.020578 0.67845 -0.39623 0.44984 -0.014022 
otody -0.97116 0.63135 -0.45619 0.15386 -0.26164 0.61467 -0.71602 0.67231 0.32702 -0.34808 -0.57129 0.089005 -0.70436 -0.14096 -0.0049538 -0.30053 0.24533 -0.73463 0.65966 -0.16248 0.21549 -0.73841 0.11129 0.86833 -0.17347 
qotchdy -0.67467 0.86241 -0.70684 0.84631 0.044491 -0.46389 0.072589 -0.49735 -0.50033 -0.43199 -0.34035 0.069276 -0.48976 -0.42053 -0.34566 -0.22103 0.13976 0.012548 0.11538 -0.11564 0.19481 -0.22828 0.30415 0.31008 0.086155 
olky -0.5993 0.54273 -0.069244 0.81256 -0.48053 0.61626 0.069216 0.28558 0.095445 0.091746 -0.28453 0.29922 -0.59449 -0.072828 -0.062742 0.55689 -0.035597 0.068477 -0.19953 -0.9047 -0.0044706 0.6109 -0.25783 -0.33426 0.66433 
qotey -0.61384 0.64622 0.06441 -0.45224 -0.40407 0.70067 -0.10631 0.29371 -0.68873 -0.13587 0.41815 0.071579 -0.46817 0.4043 0.056071 0.33148 0.22482 -0.26854 -0.32855 0.0076434 0.25168 -0.1878 -0.032491 -0.4659 0.040362 
yty -0.2166 0.28148 0.4101 0.6926 0.21963 0.5149 -0.51874 0.42215 0.12653 -0.03533 -0.035352 -0.022838 -0.46683 -0.27531 -0.45522 0.093439 -0.33723 -0.48002 -0.097761 0.37696 -0.11089 -0.066183 0.14014 0.25049 -0.11521 
okaly -0.49886 1.0056 -0.22377 -0.075953 0.0036638 0.18935 -0.61223 0.31414 -0.0029843 -0.73074 -0.31066 0.038071 -0.010188 0.54481 -0.25539 0.79484 -0.48264 0.081671 0.58189 -0.19913 0.33191 -0.26018 -0.31121 0.31602 0.18259 
shodaiin 0.011992 0.20454 0.049805 -0.0048944 -0.34842 -0.049319 -0.12995 0.21524 -0.75106 0.46204 0.79752 0.42141 -0.47423 -0.24855 -0.93742 -0.527 0.13734 0.26199 0.37363 0.25128 -0.67306 -0.084197 0.38247 -0.017949 -0.42697 
ykchy -0.67433 0.29699 0.51486 0.39199 0.20331 -0.39051 -0.0050903 0.11061 -0.37261 0.31584 -0.030148 -0.47789 -1.2926 -0.85418 -0.34439 0.0036675 -0.25984 -0.051719 -0.27114 0.016384 -0.43637 0.80852 -0.34944 0.25004 -1.0741 
kchedy -0.29192 1.1045 -0.38302 0.5311 -0.48164 0.45058 0.23215 -0.90862 -0.82053 0.39495 -0.49733 0.33703 -0.44282 0.13255 0.20971 0.24521 0.28172 0.047717 -0.0025105 0.61886 0.58472 0.38723 0.29439 0.073681 0.49021 
qoaiin 0.51924 0.26707 -0.49303 0.14781 -0.11084 0.3698 0.018892 -0.050274 -0.88323 0.031153 0.39358 -0.27877 -0.29301 -0.15382 -0.84537 -0.046815 -0.13484 -0.50247 0.056262 -0.29344 0.42604 0.43655 0.40239 0.2359 -0.226 
tchor 0.15622 -0.48066 0.39508 1.3691 0.28312 0.70647 0.11029 0.66768 -0.65315 0.034355 0.39575 -0.58546 -0.37562 -0.45777 -0.55837 0.22062 0.18547 0.069199 0.013202 0.34367 -0.026753 0.45983 0.33275 -0.046833 -0.45322 
kchey -0.41472 -0.25058 -0.023521 0.092478 -0.28522 -0.58841 0.029632 0.082213 -0.50618 -0.068228 -0.050556 0.81986 -0.7988 -0.33097 0.084915 0.17266 0.09021 0.24247 0.1728 0.95212 -0.28403 0.57678 -0.53437 0.2044 -0.50665 
chety -0.51254 0.10128 -0.25656 -0.10528 -0.14308 0.29977 -0.15689 0.1321 -0.76329 -0.085099 0.94396 0.32264 -0.13266 -0.60205 -0.33207 0.32566 -0.38939 -0.096419 -0.50893 0.24051 0.12837 -0.12393 -0.60894 0.21408 -0.04648 
ols -0.30569 0.099473 0.13802 0.068862 0.1535 0.20742 -0.44422 -0.44169 -0.19587 0.13321 -0.35386 -0.078289 -0.58035 -0.44499 0.028544 0.19055 0.54566 -0.026016 0.74417 -0.67838 -0.10511 0.69676 -0.09938 0.6786 0.19026 
tor -0.5425 0.084451 0.18418 0.094927 -0.42853 0.021358 -0.51716 -0.18296 0.20311 0.16848 0.094651 0.14676 -0.39506 -0.37254 -0.12886 0.27777 -0.24159 -0.29207 0.58005 0.44876 -0.22249 0.79204 -0.18304 0.4463 -0.008828 
odar -0.21344 0.10955 -0.52029 0.39428 0.74173 0.17785 -0.14602 -0.20789 -0.42863 0.25986 -0.41682 0.18411 -1.0967 -0.48022 0.37376 -0.15106 0.76285 -0.35163 0.78631 -0.097047 -0.097016 0.15294 0.56581 0.18794 0.61304 
qor -0.12781 -0.19011 0.23808 0.37295 -0.48395 -0.0098153 -0.11856 -0.44174 0.054218 -0.35199 0.23254 0.75256 -0.61677 -0.27741 -0.16087 0.22219 0.021784 0.012684 0.31113 -0.1746 0.39467 0.33644 0.31423 -0.025759 0.27535 
rain -0.53935 0.40476 -0.52235 -0.020044 0.099023 0.22107 0.73968 0.36119 -0.261 -1.0939 0.23369 0.1884 -0.34541 -0.019523 -0.54904 -0.42785 0.073417 0.69569 0.40739 -0.55328 -0.1867 0.54706 0.51982 -0.27924 0.88224 
olshedy -1.1598 0.27504 0.21734 -0.33092 -0.064398 1.0451 0.74994 -0.37564 0.15764 -0.63434 0.77806 0.11334 -0.8171 0.032207 -0.41837 0.6492 -0.15215 -0.0018602 0.76663 -0.53705 0.036424 0.2128 -0.34136 -0.14606 0.86849 
sh -0.25984 -0.32754 -0.0060806 0.083386 0.23319 0.19821 -0.54478 0.20531 -0.73733 -0.072489 -0.07393 -0.16969 -0.74482 -0.21741 0.060393 0.065037 -0.0040536 0.088506 -0.70448 0.83666 0.2771 0.61916 -0.37395 0.54424 -0.3996 
tchey -0.48346 0.38015 0.17857 0.83407 -0.12146 0.19626 -0.14232 0.58291 -0.46206 0.20052 0.41667 -0.011017 0.29389 -0.52884 -0.24381 0.24048 -0.018304 -0.22938 -0.16038 0.6372 -0.39479 0.42657 0.31368 -0.025549 0.279 
om 0.041997 0.62994 -0.026501 -0.26793 -0.084902 -0.4115 -0.42619 0.10089 -0.55831 0.24542 0.33997 0.09085 -0.78339 -0.56223 -0.22385 0.33741 0.11692 0.20048 -0.025666 0.21041 -0.016119 -0.04047 -0.038255 -0.33431 0.063044 
qokeor -0.33431 -0.27049 0.58518 -0.1644 0.58033 0.43642 0.25538 -0.13721 -0.80884 -0.21708 -0.26337 0.32945 -0.16034 -0.045214 -0.34361 0.51796 -0.37636 0.60844 0.43945 0.21561 0.64744 0.19246 0.2357 -0.27638 -0.17502 
ycheey 0.18248 0.31494 0.14675 -0.17463 -0.25734 -0.21857 -0.10931 0.029494 -0.42932 -0.75489 -0.047873 0.46269 -0.48153 -0.22396 -0.29651 -0.18955 0.63926 -0.051261 0.8288 0.10124 0.12778 -0.004616 0.13315 -0.26229 -0.049178 
qokair -0.051676 1.1629 -0.21062 0.41551 -0.47384 -0.18071 -0.78345 -0.19204 0.007631 -0.36732 0.030023 0.42357 0.42282 0.22961 -0.064287 0.55601 -0.38923 0.10027 0.50882 -0.34099 0.18061 0.41081 0.38565 0.52212 -0.0015101 
daldy -0.23631 0.32616 0.55318 0.053994 -0.26749 -0.28901 -0.12374 0.67851 -0.37342 -0.31195 0.47552 0.58836 -0.216 0.13449 -1.2218 0.58179 -0.021795 -0.27454 -0.16556 -0.30894 0.52812 0.14716 -0.69811 0.30435 -0.26245 
teey -0.31424 -0.14448 -0.15298 -0.13069 0.37233 0.27317 -0.028901 0.39224 -0.17251 -0.81651 0.77408 0.19559 -0.20742 -0.37755 -0.24162 0.018906 0.61284 0.96702 1.089 0.50361 -0.28306 0.027467 -0.13255 0.050991 0.69105 
daiiin -0.42138 0.024421 -0.12586 0.76627 0.5789 -0.1275 0.22433 -0.098789 -0.89487 0.085576 0.18967 0.48663 0.01125 -0.84171 0.10894 0.3013 0.19613 0.2469 0.076113 0.058601 -0.31716 0.45259 -0.29378 0.47209 -0.22562 
ckhol 0.10414 0.2755 1.0592 0.23377 0.64547 0.73313 -0.3583 -0.31537 -0.60919 0.23247 0.15574 0.10863 -0.090505 -0.073972 -0.18308 0.83925 -0.30635 -0.087385 0.66196 0.45579 -0.37742 0.26649 0.29952 0.14457 -1.0389 
keody -0.42454 0.52995 -0.10737 0.030225 0.39689 0.40963 -0.49215 0.074264 -0.33123 -0.33443 -0.37943 0.22763 0.14416 -0.37854 -0.15059 0.10137 -0.34337 -0.03636 0.061282 0.34919 0.31989 0.28496 -0.44794 0.15691 -0.063057 
okair -0.4783 0.77821 -0.69124 0.47228 -0.29906 -0.50223 -0.58292 -0.08458 0.21627 -0.58451 -0.3029 0.036838 -0.48157 -0.3869 0.20573 0.18728 0.14648 -0.16235 0.064613 0.18565 -0.041401 0.65929 0.50183 -0.054148 0.54593 
keol 0.14801 -0.31953 0.35351 0.01423 -0.51295 0.74968 0.40177 0.76287 -0.67439 0.099465 0.089497 -0.090227 -0.38484 -0.72677 -0.83102 0.48588 -0.33801 0.082994 -0.018183 -0.40472 0.17919 0.12026 0.011325 -0.01801 -0.50572 
okeor 0.29583 0.098943 -0.068177 -0.30108 0.5147 0.017904 -0.7439 -0.00109 -0.61876 -0.11326 -0.33106 0.15338 -0.35673 0.060089 0.026549 0.58599 -0.70528 -0.076209 0.25394 0.09218 -0.19205 0.56538 0.15203 0.13225 -0.43554 
qokeeo 0.6543 0.60267 -0.26942 -0.49082 0.36997 -0.006889 -0.0091088 0.052222 -1.3062 -0.40768 -0.11112 -0.24704 -1.2558 -0.24474 0.29576 1.0474 -0.22437 0.68487 0.11541 -0.28774 0.63434 -0.60865 0.50103 -0.69818 0.38526 
dl -0.39168 0.59721 0.19105 0.4505 0.1259 0.83418 -0.19584 0.52832 -0.36082 0.11734 0.34892 0.33939 -0.42669 -0.28207 0.37875 -0.40455 0.17457 0.561 -0.60272 -0.33755 -0.27256 -0.10065 0.025884 0.27032 0.21756 
ykedy -0.83024 0.33669 0.044855 0.56363 -0.72491 -0.37364 0.031999 -0.092185 -0.55079 -0.035603 -0.27728 -0.14504 -0.701 0.039206 -0.26771 0.58062 -0.12892 -0.54789 0.40316 -0.36231 0.91325 -0.07446 -0.39893 0.56059 0.04699 
olkar -0.73254 0.9121 0.011753 -0.067096 0.10075 0.47557 -0.27409 0.082569 -0.02305 -0.19612 0.40987 0.67017 -0.048869 0.31442 -0.24032 -0.45887 -0.57445 -0.32651 0.37312 -0.52393 0.52489 -0.13083 1.4018 -0.19923 0.19409 
shecthy -0.56563 0.74005 -0.23245 -0.24536 -0.47798 0.46832 0.11684 -0.047247 -0.65602 -0.19851 0.56447 0.73246 0.31166 0.41367 -0.45124 0.26769 -0.54171 0.76415 0.1358 -0.33877 0.59254 -0.06339 0.34804 -0.25909 -0.13258 
okeeo 0.047477 0.085452 -0.74787 0.32767 0.49218 -0.14063 -0.30297 -0.24724 -1.1343 -0.95762 0.11156 0.33221 0.51988 -0.18832 0.49525 0.91755 0.21764 0.4126 0.14144 -0.14031 0.15738 0.63502 0.47586 -0.0074358 -0.19263 
kchdy -0.33887 1.117 0.55764 -0.40612 -0.99182 -0.66608 0.30437 -0.29998 0.14915 0.031217 -0.32517 0.16154 -1.2468 -1.0645 -0.74551 0.26065 -0.31249 0.21372 0.65039 -0.62015 0.41621 0.12151 0.030491 0.6903 0.16889 
lo -0.11492 0.21237 -0.25372 0.56325 -0.54811 0.38178 -0.024987 -0.29682 -0.53993 -0.15043 0.076684 0.40368 -0.59073 0.06058 -0.02688 -0.064557 0.45374 0.61522 0.23455 -0.66026 0.40771 0.12477 -0.17734 -0.17094 0.3084 
cheeo -0.33873 0.050596 -0.72077 0.34345 -0.00076494 0.23346 0.088587 0.072997 -1.0818 0.04196 -0.065158 0.31104 -0.5122 -0.64791 -0.10032 0.040912 1.1335 0.12963 0.34677 0.12492 0.58381 -0.45904 0.2316 -0.19828 0.41127 
kchor -0.067552 -0.1723 0.36753 0.22032 -0.19809 0.55158 0.85968 -0.12117 -1.0036 -0.3502 0.58868 0.38811 -0.67158 -0.57131 -0.70118 -0.15777 -0.1554 -0.28442 0.36215 0.65832 -0.5086 0.20408 -0.28222 -0.27327 -1.2099 
ctho 0.13417 0.095576 0.57922 0.52384 -0.093292 0.81168 -0.041531 -0.0011611 -0.34 0.21745 0.52133 0.15792 -0.70352 -0.80864 -0.14717 -0.28024 -0.15489 -0.21404 0.53284 0.82173 -0.85774 0.45807 -0.25974 0.60598 -0.61571 
shaiin -0.087473 0.17048 0.38869 0.82341 0.24704 -0.26229 -0.00063705 -0.11931 -0.21495 -0.20301 0.41098 0.25113 -0.96071 -0.53748 -0.0036895 0.19421 0.018269 0.033486 -0.19454 0.28406 -0.40782 0.30495 0.79009 -0.58748 -0.89885 
okeo 0.2778 0.43915 0.10798 -0.52052 1.014 -0.069117 -0.59402 0.49635 -0.62897 -0.41398 -0.20742 -0.018134 -0.44308 -0.030132 0.23333 -0.23778 0.1944 -0.53289 0.74576 -0.20794 0.17704 0.74215 0.20222 0.41305 -0.32496 
opchdy -1.1963 0.5169 -0.52036 0.67091 0.58071 -0.53992 0.26659 0.41518 -0.27923 -0.28463 0.45311 -0.32541 -0.93471 0.35932 -0.42827 -0.42999 1.0254 0.3961 -0.011653 0.23152 0.17395 0.47559 1.1223 0.27973 0.81138 
lky -0.79273 0.24606 -0.39403 0.21232 -0.45561 0.084943 0.029462 0.36283 -0.64582 -0.39138 0.076945 0.87066 -0.63709 0.81963 0.14342 0.021924 0.56264 0.31004 0.20583 0.28973 1.1648 -0.27422 0.16706 -0.65959 -0.0494 
chocthy 0.080775 0.20987 -0.51128 1.1042 -0.15839 0.75743 0.6181 0.43079 -0.16621 -0.2665 0.61865 0.16665 -0.50134 -0.24641 -1.0013 -0.72038 0.22455 -0.37412 0.25248 0.996 -0.43487 0.33592 0.40757 0.4787 -0.050952 
qoeedy -0.40421 0.9687 -0.16248 -0.24022 -0.82381 0.3061 0.039432 0.084012 -0.85435 0.74364 -0.27696 1.0338 -0.37449 0.63515 -0.31981 0.95262 0.73159 0.43534 -0.12629 -0.2235 0.63484 0.61634 -0.36585 -0.20569 0.68233 
pol -0.83562 0.44423 0.61096 -0.031052 -0.03607 0.48905 0.19706 0.34722 -0.16729 -0.14643 0.35764 0.78047 -0.20773 0.21648 0.27471 0.56455 0.97673 -0.13284 0.19347 0.20685 -0.3363 0.54522 0.3716 -0.51672 0.4816 
soiin -0.5663 -0.040357 -0.39306 0.7263 -0.073353 0.67661 0.28208 -0.091942 0.05419 -0.078535 -0.47265 0.8205 -0.28083 -0.75979 -0.10155 0.033908 -0.65509 0.34383 0.68821 0.25818 0.65608 -0.22315 0.51851 -0.3963 -0.27467 
chain 0.18439 0.30504 0.43261 0.24558 -1.1679 -0.22702 0.014355 0.36225 -0.11305 -0.54733 0.015638 1.2336 -0.78942 -0.1365 0.30384 0.10565 0.31048 -0.17193 -0.058996 1.3836 -0.28314 0.23167 0.71283 -0.10092 -0.24995 
chdal -0.36275 0.65646 -0.65327 -0.0065889 -0.35455 -0.20902 -0.020904 -0.09934 -0.473 -0.19048 0.29384 0.41466 0.038264 -0.18684 -1.502 -0.057596 -0.012955 -0.34853 -0.13995 -0.35477 0.23775 0.15248 0.65018 0.96263 0.19098 
sheal -0.55438 -0.19824 -0.067214 -0.21533 0.19275 0.92002 -0.049822 0.58314 -0.30073 -0.94945 0.32703 0.56158 0.17168 -0.27084 0.55772 -0.16904 0.14385 0.28628 0.10684 -0.66225 -0.028508 0.79142 -0.098347 0.11517 0.25606 
ched -0.38665 0.45287 -0.57962 0.48612 0.010249 -0.14529 -0.26026 -0.10888 -0.46277 -0.68722 0.28731 0.55285 -0.47361 -0.085421 -0.4105 0.56374 0.45336 0.89819 -0.17057 -0.49207 0.91229 -0.84282 -0.166 0.42369 -0.27323 
chedain -0.54421 -0.0075609 -0.77386 -0.02716 -0.10959 0.036699 -0.31602 0.23058 -1.4809 0.72231 -0.47055 0.25357 -0.39924 -0.15127 0.23603 0.0089367 0.20788 0.20826 -0.12583 -0.83264 0.95286 0.43202 0.23185 0.25365 0.19801 
okees -0.015188 0.34595 -0.50446 0.057034 -0.11642 0.18156 -0.80709 0.039995 -0.52079 -0.37391 0.091113 -0.43019 -1.0557 -0.046957 0.67944 0.32887 0.63668 -0.85527 0.28376 -0.60175 0.29697 -0.19177 0.20176 0.80875 0.36597 
ty -0.84311 0.090505 0.063427 1.2745 -0.26641 0.035604 0.32682 -0.43148 0.48992 -0.51344 -0.1342 0.10032 -1.2764 -0.26341 -0.13527 0.20884 0.14449 -0.14042 -0.032184 1.084 0.43743 0.85393 -0.36194 0.11793 -0.64409 
odal -0.20922 0.12962 -0.22372 -0.11439 0.068101 0.28784 0.22435 0.070667 -0.71158 -0.076575 -0.0063986 0.50189 -0.7951 0.10811 -0.53647 -0.26258 -0.20522 -1.5532 0.54685 -0.23619 -0.14529 0.022824 -0.01603 0.21224 -0.42421 
rol -0.55787 0.84931 -0.034184 0.30005 -0.87 0.55575 0.28868 -0.20926 -0.43386 0.1982 0.6783 0.52612 -0.86121 -0.087767 -0.28846 0.047762 0.3536 0.23102 -0.40315 -0.04219 0.17778 -0.29282 -0.37944 -0.31936 0.26228 
aral 0.40041 0.27903 -0.67143 0.43723 0.93084 0.44424 -0.26201 -0.045564 -0.43609 -0.46506 0.71537 -0.11047 -1.0122 -0.058077 -0.17857 -0.29292 0.5396 -0.237 0.39577 0.003003 -0.30664 0.093794 -0.3251 0.40668 0.89899 
shed -0.91668 0.12434 -0.65207 0.065575 -0.7275 -0.0017754 0.2314 -0.11369 -0.11203 -0.88876 -0.15476 -0.27793 -0.69018 0.17588 0.20666 -0.00070641 -0.040332 0.10889 0.37967 -0.095929 0.32278 0.83411 0.099428 0.17023 0.57346 
dan 0.10177 -0.046681 0.65011 0.61665 -0.36729 -0.22149 0.33483 1.6932 -0.56554 0.42304 0.88195 0.29816 -0.57309 -0.28134 -0.51926 -0.1128 -0.5336 -0.39805 -0.079496 0.8684 0.081114 0.75611 0.3357 0.27432 -0.12267 
qody -0.88735 0.23232 -0.48286 0.06634 0.48498 -0.1797 0.23557 -0.36124 -0.58161 0.49091 0.70766 0.74367 -0.23765 -0.51718 -0.25873 0.21305 -0.68127 -0.73287 0.6912 0.75719 0.34534 0.2659 0.56747 -0.37113 0.33545 
qokeed -1.119 0.41203 -0.57408 0.01701 -0.49183 -0.11594 0.65062 -0.080675 -1.1455 -0.23622 0.14821 0.2792 -0.2901 -0.075224 0.14995 0.54124 -0.24196 -0.044572 0.40689 -0.79947 0.39014 -0.12162 0.15231 -0.32597 0.0015394 
tchol 0.075295 0.24099 0.26908 0.37966 -0.39968 0.41469 -0.28587 0.4761 -0.19339 -0.47533 0.40143 -0.26672 -0.18957 -0.39978 -0.34894 -0.23116 -0.36292 -0.10192 0.1528 1.2223 -0.79337 0.77315 -0.01086 0.60898 -0.44677 
chkaiin 0.084858 0.21156 -0.61633 0.15617 -0.2259 0.2626 0.024842 -0.60824 -0.51397 -0.46727 0.082324 0.54493 -0.49135 -0.55171 -0.10874 0.42301 -0.49998 -0.1418 -0.6824 0.014544 -0.40492 0.4462 0.10557 0.17317 -0.17826 
lchdy -0.89322 -0.36317 -0.18123 -0.080033 -0.48555 -0.25197 0.36271 0.019354 -0.93343 -1.0568 -0.026851 -0.16598 -0.4598 0.19481 -0.0077264 0.2001 -0.1889 0.39418 0.25638 -0.75534 0.33611 -0.101 1.0589 0.17393 -0.35456 
chky -0.086678 0.50844 0.19209 0.83702 -0.98191 0.050495 -0.35503 -0.02627 0.36036 -0.3396 -0.091564 0.60796 -0.53337 -0.62311 -0.081794 -0.08841 0.17616 0.15526 -0.087495 0.2594 -0.09794 0.48309 -0.35639 0.48782 -0.084177 
qotchey 0.088491 0.19934 -0.13453 1.4442 0.18534 0.93255 0.32071 -0.055389 -0.73846 0.29093 0.39225 0.2844 -0.33177 -0.14606 -0.51008 0.69982 0.64665 0.34751 -0.25052 0.41467 -0.5487 -0.10687 -0.28371 0.61758 0.54752 
ytal -0.074713 1.1999 0.76245 0.095778 0.18239 -0.22578 -0.011667 -0.069468 0.21151 -0.31835 0.91654 0.83675 -0.36393 0.31498 -0.55215 -0.45356 -0.43195 -0.16142 0.22168 0.017346 -0.3132 0.54225 0.5987 1.125 0.2506 
okody -0.5393 0.18261 -0.45722 0.13109 0.54465 0.0058136 -0.55931 0.90751 -0.39748 0.3646 -0.29011 0.19753 -0.17241 -0.61679 -0.14213 -0.15826 -0.64676 -0.82624 0.57499 -0.374 0.2937 0.39779 -0.11378 1.1718 0.35111 
olol -0.40855 0.39881 0.66566 -0.65168 -0.28475 0.74088 0.22121 0.24837 -0.092528 -0.42486 0.36161 -0.0037332 -0.83982 -0.032745 -0.37231 -0.020892 -0.054595 -0.20298 0.38987 -0.84546 -0.47176 0.15362 0.036926 -0.28148 -0.44568 
chs 0.3061 0.4018 0.21748 -0.13528 0.24521 0.92915 -0.22519 -0.22735 -0.19504 -0.96894 -0.26302 -0.1089 -0.90009 -0.52243 0.10387 -0.15698 0.70322 -0.21458 -0.12463 0.65474 0.14581 -0.01377 0.21832 -0.083986 -0.16904 
ydaiin 0.40569 0.73161 0.23982 0.18651 0.27465 0.44659 -0.073983 0.050854 -0.81531 0.14648 0.17089 0.16953 -0.46687 0.47044 -0.67103 -0.13357 -0.67371 0.35848 0.33915 0.079922 -0.54505 -0.21367 0.1077 0.12239 -0.774 
okeeody 0.247 -0.11199 -0.44789 -0.6216 0.49981 0.39421 -0.44634 0.57532 -0.77129 0.21441 0.097713 0.13766 -0.62364 -0.65126 -0.54845 0.1393 -0.23735 0.22865 0.17262 0.27855 0.41966 0.08731 -0.4308 0.3502 0.79148 
qockhy -0.067134 0.58341 0.12312 -0.44854 0.39862 -0.046783 -0.60133 -0.49491 -0.46396 -0.0081809 -0.19222 0.34234 -0.55065 0.51119 -0.28958 0.29983 -0.62118 0.065319 0.46959 0.33151 -0.015646 0.12777 -0.085085 0.72656 -0.68474 
okchor -0.46938 0.7118 1.0921 0.59654 0.17015 -0.018842 -0.094336 0.18399 -0.12629 0.20626 0.62063 0.35639 -0.032975 -0.25352 -0.25884 0.11464 -0.071295 -0.15181 0.31448 0.58218 -0.25713 0.30608 0.41172 0.45895 -0.79153 
qockhey 0.21343 0.24192 0.28203 -0.63915 -0.020868 0.37355 -0.15204 -0.51064 -1.332 0.62322 0.31755 0.093203 0.010728 -0.58105 0.24672 0.55424 -0.45089 0.3882 0.42344 0.19358 0.5323 0.62167 0.80082 -0.18507 -0.06888 
chdaiin -0.97156 0.77698 -0.79016 0.040246 -0.15461 0.13926 0.056973 -0.1547 -0.67128 0.33385 -0.23113 -0.45157 -0.66522 -0.18073 -0.95295 -0.4019 0.45274 -0.4769 -0.1638 -0.0018131 0.87671 0.41624 0.3407 0.28046 0.24181 
chokchy 0.56391 -0.36761 0.1106 0.16305 -0.69188 0.82752 -0.23695 0.41976 -0.86303 0.18743 0.51201 0.35424 -1.1889 -0.45758 0.2599 -0.24418 -0.27883 -0.070339 -0.55799 0.77481 -0.62672 0.71373 -0.07866 -0.060682 -1.0135 
otchor 0.4596 -0.0052036 0.038978 0.61246 0.49041 0.61171 -0.31561 -0.18064 -0.43352 0.80877 0.58458 0.229 -0.90732 -0.35302 -0.39391 -0.2269 -0.034783 0.49094 0.1203 0.50802 -0.28806 1.3861 -0.31553 -0.24849 -0.54382 
odain -0.71502 0.075245 0.24122 -0.61968 0.29259 0.77742 0.137 0.40109 -0.3378 0.24684 -0.5969 -0.087877 -0.70442 -0.79805 -0.38531 0.21455 -0.23578 -0.0001063 -0.17486 0.37537 0.43161 0.27374 -0.097396 0.19989 0.59501 
rar -0.72614 0.44328 1.0543 -0.24821 -0.12856 0.27494 0.38019 0.044116 -0.30396 -1.2431 -0.17236 0.44702 -0.18648 -0.25681 0.82108 0.39456 0.13394 -0.050079 -0.0063459 -0.053971 0.63109 0.23881 1.3863 0.13839 0.018966 
choly 0.33965 0.20927 0.11381 -0.058768 -0.16751 0.72398 -0.88346 0.64921 0.54603 -0.71895 -0.049668 -0.17173 -0.19541 -0.25976 -0.016749 0.29766 0.0052183 -0.41631 0.76565 0.74527 0.042485 0.84537 0.3282 -0.027298 -0.68918 
qokaly -0.78384 1.6456 -0.099441 -0.036925 0.054835 0.26223 -0.43304 -1.1786 0.23116 -0.88967 0.54293 -0.11321 0.096553 0.40029 0.46359 0.55575 -0.42197 0.90378 0.72781 0.086229 0.34687 0.83236 0.10983 0.060901 -0.20823 
dchey -0.6506 -0.033316 0.64855 0.021372 -0.59517 0.309 0.10984 -0.077373 -0.54875 0.16412 0.0089162 -0.72747 -0.72668 -0.36025 -0.47812 0.56666 -0.075497 0.93547 -0.2845 0.47964 -0.72399 0.75989 -0.14101 0.2097 -0.32803 
cham 0.19968 0.29477 -0.12187 0.90935 -0.54616 0.34332 -0.38297 0.58085 1.0574 -0.43789 0.79109 -0.1281 -1.0869 -0.086826 -0.83421 -0.19092 -0.37731 0.75021 0.74056 -0.16667 0.13436 0.17627 -0.26133 0.43505 0.1094 
ral -0.44997 -0.32046 -0.54852 0.49098 -0.76883 0.95722 0.1131 0.46551 -0.086795 -0.049584 0.15029 0.58176 -0.24054 -0.80954 -0.40892 -0.12924 0.48121 0.42369 -0.13237 -0.89847 0.10845 0.72002 0.2219 -0.066682 0.69656 
lshey -0.90688 -0.48503 0.11215 0.11478 0.0028409 0.73344 0.33431 -0.17073 -0.27203 -1.2784 0.32341 0.36347 -0.14764 0.28175 0.11204 0.40157 0.2989 0.49021 0.73842 -1.3795 0.49028 0.65195 0.61995 -0.11722 -0.51522 
yky -0.45694 -0.067508 0.47582 1.1541 -0.10461 -0.36793 0.26581 0.72808 0.085543 -0.095583 0.031134 -0.20475 -1.1379 -0.89337 0.084409 1.1526 -0.081899 -1.2059 -0.031703 0.13948 0.2152 0.55019 0.19905 0.17875 -0.20793 
do -0.14653 0.53335 0.38985 0.53022 0.76142 0.67007 0.043787 -0.0017613 -0.68567 -0.14046 0.31686 0.19156 -1.0633 -0.41046 0.12162 -1.2774 -0.22021 1.442 -0.19878 0.40813 0.13737 -0.37015 -0.050846 1.1927 -1.3577 
opaiin -0.24198 -0.44943 -1.1356 -0.71565 0.27953 0.81046 -0.81089 0.49049 -0.87728 0.28942 -0.090439 -0.042085 -0.53927 -0.3495 -0.49521 -0.32116 0.69493 -0.21434 0.42614 -0.31906 -0.28252 -0.20622 1.0789 0.7891 0.09732 
qokeeody -0.22461 0.82309 -0.77263 -0.51858 -0.2499 -0.13399 -0.65267 -0.088147 -0.86051 -0.34276 -0.57331 0.16675 -0.50623 -0.14188 0.07851 0.68372 -0.47898 0.65786 -0.65484 1.4136 1.2521 0.10192 -0.3499 0.056107 -0.13177 
olar -0.38573 0.42156 -1.0686 0.098194 -0.045448 0.207 -0.40274 -0.067 -0.33175 -0.39301 -0.19327 0.046647 -1.0193 0.96829 0.25081 -0.20775 -0.031586 -0.34916 -0.074362 0.015176 -0.53868 0.30304 0.43491 0.46704 -0.009366 
cthody 0.39894 0.229 -0.045529 0.1792 0.044181 0.28096 -0.14262 0.42911 -0.961 -0.16229 -0.57657 -0.4119 -0.36808 -1.0331 -0.68422 -0.43391 -0.18968 -0.22585 0.39188 0.72353 -0.32337 0.2722 -0.072333 0.62318 -0.83917 
ror -0.61029 0.0029253 -0.093615 0.20486 0.77483 1.2752 -0.34082 0.53126 -0.079697 0.25717 0.61683 -0.089509 -0.67057 0.96923 -0.18972 0.24475 0.05676 -0.084341 -0.029578 -0.33319 0.74202 0.72461 0.46313 -0.75795 0.32777 
ytchy -0.0063594 -0.091963 0.31803 1.3972 -0.47623 -0.075972 0.20016 1.2852 -0.7078 1.0666 0.57089 0.32192 -0.65039 -0.44981 -1.2733 0.39724 0.064544 0.1802 0.21637 0.23088 -0.30382 0.057342 -0.29509 0.013442 -0.71044 
cheeor 0.22972 0.30935 0.036593 -0.27438 0.31515 0.86513 -0.5092 0.41942 -0.35044 0.076418 -0.002298 -0.34255 -0.2039 -0.79215 -0.25156 0.79795 0.23226 0.087345 0.29229 0.42663 0.18564 0.35191 -0.39857 0.052975 0.79293 
chokaiin 0.73176 0.053987 0.089768 0.34655 -0.32317 0.72246 -0.57878 0.37494 -0.59066 -0.042792 0.41808 0.29512 -0.31761 0.46428 -0.73291 -0.66087 0.84702 0.062764 0.010812 0.19742 0.57823 0.40679 0.76784 0.10298 -1.0313 
teol 0.57613 0.91743 -0.32561 -0.083053 -1.2585 0.73185 0.28999 -0.30651 0.1116 -0.9864 -0.18418 -0.19778 -0.53489 -0.10151 -0.21958 0.23102 -0.054763 0.4726 1.1768 0.069263 -0.1238 0.33098 0.3058 -0.35561 -0.10807 
ory -0.1936 0.22448 -0.086682 0.51569 0.19064 0.29279 -0.17957 -0.23886 0.31659 -0.78184 0.098773 0.36811 -0.14162 0.088434 -0.61501 1.0313 -0.020425 0.36698 0.65288 0.031765 0.24372 0.54487 -0.60154 0.095127 0.77453 
k 0.19357 -1.2386 -0.60246 0.83863 0.10426 0.91743 0.79551 1.1554 -0.7977 0.81315 1.1096 1.2742 -2.401 1.414 0.20477 1.0966 -0.5792 0.19027 -1.4639 -0.24481 0.46854 0.819 1.2932 2.5503 0.11663 
key -0.36006 0.12603 -0.60593 0.67647 0.037228 0.18698 -0.1986 0.081317 -0.052258 -0.52917 0.57497 0.30728 0.37576 0.13359 -0.95535 0.15954 -0.13712 0.47666 0.39848 -0.069656 0.30412 0.7872 -0.60799 0.53132 -0.36859 
ykeody -0.5723 0.3008 -0.27782 -0.40816 0.034707 -0.38747 -0.44118 0.87326 -0.91067 -0.31017 -0.25234 -0.16287 0.27922 -0.19979 -0.26253 0.089028 -0.51413 -0.068791 0.26435 0.093493 -0.24654 0.56164 -0.15503 0.68613 -0.95956 
oteo 0.084973 1.0825 0.024602 -0.48315 1.0087 -0.14493 -0.70414 1.4814 -0.59291 -0.69902 0.37085 0.4667 -0.58673 0.80134 0.26392 0.28126 1.0038 0.27491 0.66259 -0.039571 0.7541 -0.29949 -0.99805 0.95787 -0.40101 
shal -0.5378 0.15136 -0.0688 0.041487 -0.17217 0.63254 -0.056195 0.92116 -0.036403 -0.73081 0.98433 0.54236 -0.70818 -0.06754 0.44371 -0.23865 0.65085 -0.69036 -0.030237 -0.18002 0.17056 -0.17349 0.35737 -0.42016 0.10205 
ychey -0.31937 -0.004306 0.3002 0.11687 -0.096434 0.4478 -0.49767 0.35668 -0.071678 0.55322 0.1755 -0.18686 -0.42109 -0.029933 -0.76211 0.77586 -0.16745 0.46238 0.44286 0.27983 -0.77558 -0.14018 0.72409 0.1519 0.026284 
qopchdy -0.37473 0.97 -0.17018 -0.18473 -0.58641 -0.54265 0.75027 -0.70091 -1.1093 -0.7393 0.48144 -0.097374 -0.10701 -0.16421 -0.32831 0.3526 1.4398 0.46159 0.55002 -0.56104 0.22342 0.74984 0.48416 0.94988 0.18936 
orain -0.92881 -0.00026347 -0.052556 0.056275 -0.35371 -0.14271 0.16039 0.9918 0.085923 -0.46983 0.56732 -0.31163 -0.3063 -0.54944 -0.64223 0.91474 -0.53556 0.48262 0.045207 0.48488 1.0142 0.35607 0.22509 -0.45775 0.75121 
ychor 0.49885 0.43702 -0.089485 0.10173 0.061738 0.042785 0.12764 -0.3775 -0.58705 0.097581 0.49937 0.10547 -0.77152 -0.56025 -0.2407 0.71926 -0.93769 -0.1673 0.86681 0.17177 -1.0469 0.018063 0.17914 0.33797 -0.57049 
teedy -0.78981 1.0882 -0.59213 -0.32115 -0.51595 1.196 -0.2214 -0.94948 0.065722 -0.71593 -0.091888 -0.41698 -0.64496 -0.14578 -0.19486 -0.019726 1.4194 0.040968 1.0047 0.11009 0.76481 0.4249 -0.94632 0.069126 -0.126 
ot -0.28423 -0.0060863 -0.029051 -0.49817 -0.2721 0.073838 -0.17125 0.43804 -0.74336 -0.0064807 -0.036542 0.087736 -0.77014 0.50381 -0.2344 -0.038733 0.47801 0.050855 0.38286 0.37114 -0.12431 0.075402 0.40704 0.02292 0.84269 
oteeos 0.13149 0.3712 -0.77077 -0.75637 1.0055 -0.64902 -0.97372 1.516 -0.53092 -0.85192 0.74557 0.27226 -0.48949 -0.17143 -0.025017 0.26361 -0.24453 0.33088 -0.053685 -0.12042 -0.34091 0.37428 0.12087 -0.054386 0.21933 
cthar -0.08911 -0.21904 -0.06664 1.2069 0.22613 -0.03146 1.3228 0.46837 -0.18317 -0.61533 0.48256 0.78302 -1.0742 0.62108 -0.87494 0.8133 -0.43751 0.10595 -0.10245 0.20871 -0.54419 0.92904 0.12409 -0.42263 -0.31162 
qoeey 0.71708 0.18848 -1.3886 0.49282 0.59459 0.5554 -0.58827 -0.18744 -0.68916 0.71748 0.25561 0.19467 -0.12902 -0.23831 -0.0071716 0.11974 -0.77784 0.18258 0.74179 -0.7435 0.53117 0.72125 0.75894 0.68952 -0.14796 
okeeol -0.27784 0.65861 0.13881 -0.79521 0.85647 0.6298 -0.35045 0.47514 -0.43511 -0.68382 0.089904 -0.59904 -0.10534 -0.24806 -0.3861 0.85091 -0.47685 0.10351 0.98925 0.98971 0.80853 -0.30356 -0.36544 -0.14911 0.17189 
ykeol 0.2956 0.83884 -0.11447 -0.1732 -0.19999 0.54264 -1.0877 -0.63199 0.27772 -0.10407 -0.58586 -0.095199 -0.90137 0.066713 -0.056884 -0.25167 -0.94783 -0.12957 0.087741 0.31245 1.069 0.98777 0.45124 -0.10352 -0.35756 
qokchol 0.84491 1.4388 0.29861 0.54273 0.041713 -0.064385 0.81786 -0.3444 -0.58482 0.040316 0.31035 -0.98781 -1.6786 -0.4393 -0.63871 0.68005 -0.64734 -0.51675 -0.057462 -0.18471 -0.93029 1.4202 0.96285 0.21967 -1.4877 
lkchedy -0.44074 1.0798 -1.4258 0.51996 0.064476 1.3837 1.2113 -0.3165 -0.84087 -0.16585 -0.11375 0.86769 -0.54723 0.87828 -0.52985 -0.43741 0.04361 1.23 -0.072202 0.40949 -0.3465 -0.23628 0.69652 0.21387 0.63995 
ctheey 0.56343 -0.12613 -0.14414 -0.39263 1.0033 0.53654 -0.074056 -0.29214 -0.6928 -0.77622 -0.2109 0.11404 -0.82648 -0.96552 -0.11756 0.12712 0.35169 0.26075 0.12531 0.54361 -0.21606 0.69256 -0.30577 -0.26448 -0.34361 
sheeky -1.2413 0.42991 -0.12525 -0.25174 -0.26544 0.85114 0.53266 0.49738 -0.52374 -0.30036 0.058996 0.62093 -0.49427 0.60421 0.097178 0.15845 -0.099015 -0.341 0.18542 -0.90786 0.74319 0.62985 -0.6115 -0.68686 -0.0079849 
ykol -0.52646 0.74209 0.84668 0.69247 1.1942 0.58869 -0.44878 -0.34358 -0.26203 0.64266 0.9848 0.2808 -0.73346 0.25251 -0.35286 0.57655 -0.026141 -0.32559 0.46671 -0.074196 0.21442 -0.403 -0.037643 0.82554 -1.9098 
okchol -0.22511 0.8457 -0.60572 -0.18213 0.44806 1.5777 -0.23319 0.016992 -0.045202 -0.2477 -0.39995 0.48878 0.38758 -1.2306 -0.26969 -0.47285 -0.99528 0.37675 0.65701 -0.097187 -0.58445 0.57461 -0.074722 1.2295 -1.7209 
oiiin 0.22629 1.2334 -0.24111 -0.0058767 -0.1696 0.1281 0.076926 0.43261 -0.83035 0.5409 0.3289 0.40273 -0.64903 0.61043 0.96377 0.58652 0.42882 0.51384 0.88493 0.18118 -0.67526 0.21331 0.31073 -0.77164 -0.23693 
opchy -0.50349 0.11494 0.28375 0.15016 -0.47642 -0.57138 0.19477 0.41432 0.080903 -0.64776 -0.21815 -0.24215 -0.9639 -0.44184 -0.19097 -0.4668 0.39226 0.20882 0.76418 0.041403 -0.19131 0.62736 0.77939 -0.30003 -0.54359 
shes -0.6812 -0.63195 -0.66585 -0.031321 0.041651 0.88973 0.14553 1.5718 -0.13047 -1.5325 0.83053 -0.48802 -0.22013 0.078798 -0.39466 0.92552 0.23881 0.51601 -0.61872 -0.36684 -0.81477 0.71607 0.12122 1.1235 0.11887 
tey 0.638 0.59372 -0.097519 0.041239 0.04188 0.40774 -0.33642 1.2506 -0.52257 0.26172 0.10749 0.39186 -0.34263 -0.36256 -0.35772 0.19403 0.36263 0.3244 0.080809 0.20006 0.043256 0.068354 -0.29221 -0.24913 0.66757 
t -0.24872 -0.91249 -0.256 1.9387 -1.0549 1.7619 0.97872 2.146 0.59203 -0.4875 -0.25281 0.73287 -1.4718 0.73705 0.3025 1.1334 -0.080167 1.5223 0.0035389 0.69063 0.17159 1.416 -0.56769 1.8056 -1.0385 
shedaiin -0.86343 0.83255 -0.76031 0.59447 0.024507 0.87386 0.21794 0.9524 -0.20621 -0.10977 -0.26527 -0.30466 -0.4193 0.099956 0.043851 -0.33934 0.74908 1.1261 0.95618 -0.26522 -0.33074 -0.83899 0.44438 1.4396 0.10397 
ytor -0.17501 0.80908 -0.083906 0.14021 0.93629 0.28473 -0.55242 -0.56072 -0.25089 0.56851 0.98311 0.31575 -1.1908 -0.77355 -0.26818 -0.2943 -0.3223 -0.83438 -0.72863 0.23708 -0.47388 0.80388 -0.15634 0.63553 -0.45514 
laiin -0.27676 0.95264 -1.4346 -0.49647 -0.053035 -0.10312 0.37725 -0.017125 -0.95541 -0.23707 0.76959 0.49652 -0.40545 -0.46724 -0.36492 -0.21648 0.461 -0.26838 -0.091249 -0.7625 0.1981 1.0602 -0.70972 -0.066996 0.23828 
qok -0.52892 0.15522 -0.097023 -0.75856 -1.0402 0.67802 0.76736 0.041088 -0.36079 -0.67536 -0.2996 0.59788 -0.69712 0.34041 0.37712 -0.22059 -0.30602 -0.25227 0.47325 -0.13088 -0.10762 1.1111 -0.208 0.07444 -0.58031 
yteody -0.79465 0.52963 -0.75422 -1.0987 1.2228 0.16814 -0.74706 0.42751 -0.46734 -0.02974 0.93558 -0.032777 -1.4783 -0.72251 -0.4078 0.91864 -0.26853 -0.37106 -0.47608 0.32682 -0.67585 -0.59927 -0.79068 0.096605 -0.084801 
dshor -0.23074 -0.14757 -0.097713 0.43022 -1.1002 -0.365 0.35617 -0.5455 0.15521 0.033489 1.0069 0.091872 -0.92717 -0.47603 -1.2379 0.3962 -0.58017 -0.59021 0.94019 0.20989 -0.040129 0.38965 1.2853 0.62793 -0.92806 
tchdy -0.71215 0.61423 -0.29175 0.014065 -0.93491 0.56678 -0.12187 -0.10365 0.010975 0.16034 -0.14567 -1.0999 -1.2257 -0.5471 -0.53303 0.065307 0.57896 0.18365 -0.21407 0.071267 -0.39769 0.41529 0.49479 0.00017039 0.4048 
aldy 0.38501 -0.3669 1.0426 -0.42579 0.54132 0.01498 -0.46635 0.067121 0.20116 -0.91419 -0.1925 0.94399 -1.0349 -0.92735 -0.11444 1.0784 0.10172 0.010513 0.053893 -0.33765 0.60589 0.077182 -0.028093 0.90023 -0.011646 
qopchy -0.026898 1.1465 1.008 0.55394 0.89155 0.0071423 0.37027 -0.51906 0.089382 0.37102 0.61173 0.32296 -0.96546 -1.5258 -1.1355 -0.35059 1.2563 0.73337 0.11553 -0.45764 0.49354 0.72322 0.23156 0.32453 -0.48923 
ytey -0.82229 0.46045 -0.054072 0.024559 -0.54634 -0.63283 -0.39733 0.27177 0.11161 -0.77023 -0.21342 0.11804 -0.79894 0.36329 -0.49406 0.096604 0.15745 -0.16928 0.15172 0.88379 -0.69281 0.17815 0.025512 0.073636 -0.6845 
chokeey -0.063559 -0.23215 -0.028332 -0.39036 -0.75761 1.1828 -0.41078 0.32535 -0.39047 -0.093241 0.46695 -0.51595 -0.28235 0.11312 -0.62127 -0.1127 0.034083 0.1886 0.7649 0.50494 0.1024 0.403 -0.33965 0.034491 -0.82442 
olkey -1.4863 0.92493 0.24042 0.2149 0.39385 0.44837 -0.020961 0.57913 0.76715 0.23392 0.75356 0.1816 -0.0080691 -0.43721 -0.68157 0.42719 -0.93856 0.43103 0.84247 0.68171 0.2779 0.22586 0.038927 -0.41892 0.86335 
qokechy -0.38394 -0.27812 -0.24607 -0.048101 -0.15841 0.60571 1.0159 0.36716 -1.2834 0.066598 0.4678 0.55 -0.03921 0.41034 0.46888 0.38916 -0.045775 0.39454 1.1019 1.7198 0.53022 0.037632 0.83287 0.50871 0.65277 
choiin 0.036276 0.050254 0.56982 1.1998 0.35986 0.79027 0.97434 -0.51455 -0.30277 0.19846 -0.19283 1.0406 -0.53406 0.0029429 0.16458 0.10674 0.054881 0.45748 0.55752 0.87072 -1.002 1.3413 0.84451 0.80028 -0.55445 
shee -0.13805 0.96379 -0.56951 -0.90053 0.37734 -0.17053 0.51604 -0.20576 -0.70709 -0.80261 0.40697 0.87385 -0.4829 -0.68277 0.074503 0.98554 -0.043104 0.54897 -0.26103 0.60781 -0.23894 0.90703 -1.0071 0.39642 1.3227 
cphol -0.13577 0.61468 -0.41983 0.099323 0.00024605 0.64975 -0.10521 -0.19176 0.68326 -0.74949 -0.78774 0.095547 -1.501 -0.65838 -0.65009 0.15954 -1.1941 0.70501 -0.10955 0.19022 -0.24985 -0.072087 0.02146 -0.29706 -0.92874 
lcheey -0.51557 -0.026401 0.083092 -0.0084848 0.053881 0.18757 -0.055366 -0.20236 -0.097183 -0.26151 0.86362 0.30625 -1.3106 0.19319 0.36068 -0.35372 -0.5629 0.936 0.089161 0.38851 1.1499 -0.01097 0.99166 0.024233 1.0587 
keeol 0.12078 0.34271 -0.76578 -0.61079 -0.1265 1.2813 -0.11814 -0.25684 -0.46743 0.78475 -0.51696 0.71584 -0.44989 0.014453 -0.12005 0.11135 -0.19663 0.088285 0.8544 -0.14183 -0.39014 1.0771 0.24181 -0.79182 0.12285 
qotchol -0.6761 0.3181 1.3366 0.26569 0.78487 0.024281 0.62116 0.86568 0.49702 -0.4181 -0.46017 0.078433 -1.4698 -1.0366 -1.0156 0.11218 0.41602 -0.13181 0.051289 1.1835 -0.61361 0.8913 0.95202 -0.20815 -1.2044 
cthedy -0.99843 0.062013 -0.027887 -0.32363 -0.12682 0.55256 -0.2926 0.16514 -0.94273 -0.30755 -0.26835 -0.30191 -0.42138 0.063966 0.42257 0.96805 0.43826 1.3681 0.14891 -0.58706 0.78803 -0.75448 0.10232 1.0127 -0.5599 
ytain 0.54525 0.74324 0.29285 -0.27439 -0.3244 0.62321 0.13206 -0.30936 -0.051596 0.73577 0.82385 1.2268 -0.62335 -0.40451 -0.99264 0.24415 1.2224 -0.00075938 1.0063 -0.23071 0.52064 0.3351 0.30816 0.48725 0.8734 
qot 0.057272 0.77981 0.88276 0.66306 -0.28184 0.76535 0.62269 -0.47321 -0.010691 -0.67478 0.37597 0.62499 -0.70666 0.5086 -0.46257 -0.020247 0.072614 -0.16116 0.068543 1.6125 -0.2935 0.67611 -0.0066697 0.15545 -0.17139 
shky -1.2238 0.65549 0.62591 0.012347 -0.076534 0.12689 0.15537 0.56989 -0.19635 -0.36614 0.27882 0.18071 -0.28496 -0.072476 0.087557 0.90805 -0.78794 -0.67324 -0.094773 -0.44095 0.087806 -0.38462 0.65579 -0.28806 -0.54746 
oteeody -1.0665 0.36619 -0.31355 -0.074484 -0.072749 0.28591 -0.35091 0.67795 -0.78074 -1.3615 -0.48857 -0.088053 -0.20975 0.44285 0.29828 -0.10116 -0.027575 0.12236 -0.22324 -0.34868 0.80864 -0.48547 -0.092264 0.57556 -1.4631 
chotchy 0.49501 0.18651 0.9708 0.6576 -0.41801 0.76678 0.52645 0.064824 -1.0045 0.36361 1.057 -0.9715 -1.5473 0.2479 -0.34264 -0.091288 0.18769 1.0999 -0.42707 1.8697 -0.55988 1.1772 0.91972 0.79169 -0.23168 
otedar 0.22968 0.38859 -0.51169 -0.67586 -0.51079 0.89342 0.32728 1.3142 -0.88397 -1.2331 0.079716 0.062726 -0.20652 0.33236 -0.2368 0.17831 1.0504 -0.40578 0.95382 -0.18352 0.44296 -0.5068 0.51525 0.44045 0.70919 
olshey -1.0465 0.42221 -0.027942 0.32462 0.87143 0.93288 1.0333 0.39301 -0.031591 0.25361 1.5045 0.61449 -1.1216 -0.46544 -0.223 0.33352 0.49658 -0.44988 0.96729 -1.5878 0.24936 0.0027114 0.61111 -0.88577 0.17485 
chkeey 0.23727 0.68655 0.43054 0.1952 -0.39422 0.37238 0.346 -0.34666 -0.67104 -0.17693 -0.11602 0.56525 0.04414 -0.96398 -0.2841 0.22203 0.52179 0.38553 0.28116 0.2934 0.28615 0.24117 0.10667 -0.17383 -0.65576 
oar 0.1279 0.19844 -1.3168 -0.29118 0.25528 -0.036077 -0.48855 0.18208 -0.26455 -0.68801 -0.26221 0.88229 -0.43783 -0.10129 0.49529 0.030527 -0.49615 -1.0852 0.90689 0.25089 -0.35287 0.5334 0.39119 0.69521 0.47169 
cheeody 0.73501 0.86188 0.14614 -0.21652 0.26746 -0.081411 -0.47827 -0.16872 -0.95984 -0.28578 -0.0093556 0.13087 -1.143 -0.33297 0.90034 -0.0057778 0.57944 1.3367 -0.74348 1.1592 0.56316 0.27395 0.63895 0.32251 0.13545 
chodar -0.80273 0.57086 0.69169 -0.48938 0.8799 -0.34551 -0.49947 -0.30215 -0.66449 0.29082 0.72142 0.41137 -0.20962 -0.30754 -0.92118 0.56509 0.60502 0.3347 -0.68597 1.2928 0.64506 0.28911 0.35448 1.0548 -0.39471 
chom -0.12072 -0.30291 0.20142 0.73371 0.68579 0.61571 -0.55013 0.24717 0.29296 -0.49286 0.54456 -0.23101 -0.67479 -1.1448 -0.84463 0.74723 -0.57166 0.6947 0.29793 0.72501 -0.58297 -0.43179 0.54302 0.22329 -1.3462 
ls -1.1075 0.52658 0.38103 0.38137 -0.052057 0.14563 -0.021803 0.13917 -0.090964 -0.36381 -0.1965 -0.26744 -0.48159 -0.17494 0.27017 0.16785 0.32636 0.71798 -0.065866 0.12999 -0.045481 0.32008 -0.23868 -0.088449 -0.21394 
sheeol -0.82877 0.48569 -0.82497 0.53825 0.73339 0.76106 -0.024594 -0.089001 -0.55837 -0.15552 0.34898 -0.76294 -0.30194 -0.5829 0.65538 0.90395 0.047461 0.76844 0.30917 -0.18713 0.22245 0.8514 -0.97706 -0.61039 -0.07132 
ytol -0.67313 1.2417 -0.0050188 0.61825 0.2293 0.68792 0.13653 0.056294 -0.08413 0.26176 0.57273 -0.34983 -0.65364 -0.92079 -0.90167 1.2006 -0.46646 -0.381 -0.54235 1.8365 -0.30393 0.40657 -0.75733 -0.81269 -0.57856 
cthaiin 1.5663 0.34944 -0.24251 1.3619 -0.33907 0.51215 1.3195 0.71462 -0.14833 -1.0342 0.43292 1.2881 -1.5081 -1.477 -0.90238 0.78512 -1.2073 -0.28282 -0.24827 0.29144 -0.40615 -0.44926 0.24065 0.3929 -0.57161 
ram -1.2055 0.12963 -0.2758 0.3288 0.0095646 0.5518 0.60153 -0.31806 -0.57449 0.1659 0.14186 -0.21925 -0.20439 -0.93643 -0.17922 0.5749 -0.79312 0.94331 -0.3079 -0.13237 -0.36302 0.14452 1.0963 0.16497 0.44302 
qodar -0.7775 0.30539 -0.73527 0.64576 0.27348 0.58645 0.53379 -0.31332 -0.073191 -0.76444 -0.792 0.76377 0.13972 -0.012842 -1.0508 0.89232 -0.98965 0.12115 0.83483 0.38284 0.044965 -0.84046 0.92272 0.71256 -0.87296 
dcheey -0.27355 -0.46591 -0.21418 0.21703 -0.41143 0.15844 -0.22004 0.022344 -1.0038 0.2133 -0.017734 0.45096 -0.21076 -0.86859 -0.37135 1.0425 0.62573 0.84812 -0.88635 0.42059 -0.073869 0.062237 0.25804 0.46473 -0.60322 
m 0.28667 -0.040567 0.41043 0.38952 -0.73609 0.55599 -0.37442 -0.0053056 -0.34766 0.24629 -0.71268 0.27187 -0.61598 -0.012073 -0.23008 1.142 0.29666 -0.046331 0.11013 -0.19262 0.24155 0.72651 0.0023101 1.3034 0.58922 
chckhdy -0.87999 0.55263 -0.61569 0.024726 -0.80629 0.26537 0.69295 -0.55402 -0.6074 0.58094 0.4116 0.58808 -0.61797 -0.16224 -0.32677 -0.69825 0.34772 0.097902 0.81829 -0.36279 0.24377 0.28469 0.27074 1.0369 0.40548 
ykeeody -0.92087 0.6837 0.083621 -0.95918 -0.41698 0.43208 -0.82091 0.36464 -0.88979 0.30912 -0.41502 -1.357 0.028902 -0.58555 0.21609 1.151 -0.51648 1.0247 0.28043 0.2361 -0.35548 0.37643 -0.17464 1.012 -0.070778 
qotam -0.27877 0.81264 -0.51497 0.081081 0.13996 1.1031 0.13766 0.74065 -0.80174 -0.097422 -0.29407 1.0001 0.25243 -0.79133 -0.16427 -0.59108 0.79254 0.33237 0.13259 0.19103 0.45728 -0.49128 -0.18461 0.083695 -0.2065 
okeal 0.30035 0.34233 -0.65971 -1.1491 -0.38753 -0.51806 -0.56184 -0.014772 -0.6636 -0.16045 0.065872 1.0039 -0.34953 0.36307 -0.23862 0.86589 0.39211 1.1916 1.2123 -1.0734 -0.8102 0.91845 -0.016785 0.26107 0.23656 
oteor 0.51076 0.39544 -0.22912 0.23173 -0.13088 0.060498 -0.32543 0.2239 0.16468 -1.2544 0.39754 -0.22625 -0.067122 -0.42737 -1.1892 0.43444 -0.53043 -0.090754 0.66213 -0.80599 1.3554 0.16927 0.16633 0.4458 -0.16857 
yshey -0.65539 0.074296 -0.24029 -0.42705 0.36332 -0.06684 0.14901 -0.35256 -0.26677 -0.39221 -0.44295 0.76105 -1.3029 0.5948 -0.30343 0.35486 -0.057873 0.056387 -0.45756 0.0024076 0.79791 0.16043 0.99745 -0.059306 -0.14689 
tair -1.0147 0.44361 -0.60653 -0.17409 0.22474 -0.087332 -0.96611 0.30904 0.36951 -0.24898 0.17687 1.0419 -0.40569 -0.0073435 0.49105 0.46327 0.23878 1.1089 0.43568 0.089089 -0.2046 -0.53894 0.7268 0.54244 0.56037 
chty -0.51668 0.40857 -0.87427 1.0856 0.28889 0.88914 0.22151 -0.29023 -0.4876 0.35969 1.8624 0.60942 0.097056 -0.22273 0.5649 0.10425 -0.567 0.17452 0.039309 0.24943 -0.4231 0.48824 -0.086076 0.89984 -0.50775 
olkal -0.1823 1.0356 -0.44677 -0.051318 -1.0087 -0.029965 -0.24984 -0.058863 -0.2757 -0.30853 0.41327 -0.13603 -0.27339 0.53409 0.18226 0.96016 0.088012 0.17317 -0.16013 0.16373 0.061231 0.85317 0.64945 -0.27575 0.54898 
cheodaiin 0.057835 -0.081242 0.14531 -0.4648 0.41167 0.32771 -0.024299 -0.11553 -0.74391 0.16102 -0.62882 -0.38949 -1.2391 -1.2419 0.29049 0.1178 -0.0089568 0.80321 0.21103 0.34833 -0.49064 -0.1173 1.0525 0.76735 -0.088512 
okeeor 0.11028 -0.0042532 0.010545 0.17317 0.75845 0.37305 -0.20257 -0.1494 -0.51382 -1.214 0.048313 0.19997 0.28796 -0.24906 -0.12845 0.71411 0.078955 1.0912 0.88116 0.23863 -0.076396 0.14358 0.061945 -0.13042 -0.64941 
oral -0.87857 0.070989 -1.0096 0.035927 1.0823 0.0082275 -0.16953 -0.038881 0.16209 -0.2891 0.84381 0.89481 -0.90037 -0.02766 0.16736 1.1648 0.58727 -0.53222 1.4555 0.049071 -0.71934 -0.46987 0.46268 -0.44472 -0.42741 
sheos 0.15818 1.4299 -0.87621 -0.19647 -0.61317 -0.51577 0.37262 1.0163 -0.49782 -0.38713 1.0494 -0.3012 -0.555 -0.60136 -0.35116 -0.21188 -0.36284 0.84733 1.178 1.4047 0.18627 -0.95443 0.54209 0.57298 0.14865 
shedain 0.10282 0.30142 -0.71996 -0.1979 -1.69 0.035797 -0.13922 -0.11555 -0.69107 -0.4209 0.30735 0.85408 -0.15094 -0.55425 0.24289 0.57011 1.0496 0.32987 0.090376 0.63133 1.1023 0.029422 0.7245 0.92241 0.35598 
ypchedy -1.4796 1.8759 0.13502 -0.63541 -0.51125 0.13569 -0.015082 -0.69392 -0.55452 0.67327 -0.37524 0.37516 -0.31604 -0.59781 1.5042 1.4731 0.69588 -0.34236 0.96653 0.67897 -0.59468 0.53137 -0.11083 1.0725 0.44348 
daim -0.30205 0.25285 -0.62092 -0.22553 0.32733 -0.14562 -0.93272 -0.033418 -1.0744 0.73832 0.39947 0.065224 -0.097616 -1.142 -0.13374 0.48197 -0.24344 -0.20481 -0.29991 0.42344 0.51888 -0.07017 0.43189 0.61429 -0.45898 
orol -0.57255 0.48009 -0.33316 -0.53152 -0.89079 0.20718 -0.15755 0.37594 0.68251 -0.15649 -0.12647 0.54867 -1.1776 0.073948 -0.74669 0.097284 -1.3705 1.1177 -0.53734 0.3014 0.42603 1.316 -0.29319 -0.38035 0.75883 
shdar -1.5113 1.4164 -0.35193 -0.10109 0.71508 -0.47756 0.037439 -0.14246 0.051219 -0.60705 0.73372 0.50323 0.050407 -0.34639 -0.34413 -0.92391 -0.53882 -0.17817 0.45736 0.47766 0.13112 0.33241 0.79348 0.80056 0.48606 
chkain -0.36075 1.292 -0.81797 0.5494 -1.3796 -0.24881 0.62158 0.58884 -0.14135 -0.46729 0.14366 0.5877 -0.88882 -0.14994 0.52975 -0.28064 0.93051 0.61774 -0.11222 -0.18726 -0.77719 0.60481 0.95472 -0.64876 -0.63541 
shocthy 0.32492 0.32574 -1.121 1.2784 -0.41334 -0.6508 -0.40566 0.69068 -0.14518 -0.77946 0.27817 -0.50835 -0.5631 -0.65889 -0.4567 0.30034 -0.11341 0.23587 0.29888 1.2812 -0.49194 0.2945 0.33742 -0.18711 -0.71749 
cphy 0.59414 0.095776 0.43318 0.11363 -0.96466 0.32904 0.5285 0.62079 -0.47025 0.11191 0.56496 0.7154 -0.69788 -1.461 -0.20386 -0.90761 -0.77252 -0.066738 0.27554 -0.84773 -0.58001 0.64375 0.84712 1.555 -0.61583 
opar -1.6817 0.25801 -0.2237 -0.15516 0.86895 -0.54378 -0.44515 0.842 -0.13961 0.86051 -0.42138 0.089673 -1.0652 -0.375 0.23207 0.99127 -0.015797 -0.87354 0.70015 -0.41581 -0.047472 0.42038 0.12742 0.084016 0.4459 
chkal -0.095317 1.2832 0.32335 0.18553 -0.95941 0.32265 -0.64208 1.1685 0.26525 -0.53406 0.50093 0.65214 0.21545 -0.27098 0.6484 1.2639 0.56113 0.51131 0.14766 1.5091 0.76647 -0.69778 1.3093 -0.10223 -0.050664 
g -0.057647 1.0441 0.14419 0.77951 0.72675 1.6897 0.96771 0.22218 -0.54914 0.70957 -0.82574 -0.22971 -1.3575 -0.034136 0.08601 -0.040861 0.53918 -0.9192 0.67054 -0.90665 -0.91859 0.85292 -0.45381 1.2821 -1.098 
ykain -0.46575 0.056561 -0.24457 0.024446 -0.80077 0.31723 -0.33758 -0.31433 0.82092 -0.036225 -0.23516 0.22536 -1.5098 -0.078296 -0.13867 0.055413 0.13912 -0.37565 0.66898 -0.27703 0.36507 0.82725 0.283 0.33493 0.78479 
otees -0.54719 0.5622 -0.29662 -0.66449 0.36808 0.94446 -0.20729 0.80891 -0.11298 -0.94934 -0.20828 -0.40909 -0.59246 0.40596 0.37527 0.30409 0.66667 -0.51416 1.074 0.43467 -0.69884 -0.1749 -0.090173 0.86238 0.12453 
shedal -1.3385 0.67804 -0.43701 -0.14846 0.19344 0.46891 0.78531 -1.1128 -1.3125 -0.55408 0.35736 1.1546 0.097905 0.81397 0.74528 0.50748 -0.10828 0.49162 -0.019373 -1.3744 0.32253 0.56253 0.87923 1.0079 -0.75012 
keeody 0.51714 1.2809 -1.4758 0.59858 0.66635 -0.25454 0.47513 -0.16509 -1.5131 0.67735 0.077738 0.72027 -0.24352 -0.0036669 0.40316 0.30606 -0.30546 0.40633 0.91871 0.0011773 0.35009 0.60563 -0.54768 0.011875 -0.62519 
oees 1.0237 1.4123 -0.27127 0.57356 -0.054598 -0.90864 -0.062139 0.26394 -0.72232 0.30576 0.083978 0.5499 -0.27936 -1.1192 -0.017683 0.67327 0.45939 -0.99093 1.1221 -0.31229 0.078587 0.38607 0.28173 0.7681 -0.26347 
pchor -0.86965 0.020744 -0.269 1.1478 0.87055 0.068694 0.63976 0.11404 -0.27678 0.57114 1.5824 1.2822 -1.1402 -1.4178 0.56532 0.095164 1.5486 0.18128 0.24927 0.42053 -0.49709 0.59034 -0.57364 0.32331 0.40957 
ytam 0.63536 2.2189 0.12802 0.33932 -0.59023 -0.19758 -0.48693 -0.56948 0.55546 0.47387 0.90753 0.35334 -1.2299 1.1859 -0.48124 0.81109 0.026578 0.47307 1.469 0.45192 0.26665 -0.24365 0.49494 1.1493 0.43776 
qotchor -0.4271 -0.95453 0.9833 0.41474 -0.022964 1.0876 0.10923 -0.54078 0.39298 0.11947 0.68425 0.46413 -1.6883 -0.57403 -0.69725 0.69574 -1.0868 -0.84972 -0.081075 0.97604 -0.31921 1.3001 -0.009586 0.69608 -0.65061 
chekal -0.49825 1.5147 0.23706 -1.0582 -0.2689 -0.049922 -0.026611 1.0408 -0.52178 0.38276 0.25045 0.32967 0.020877 -0.48377 -0.35148 -0.60007 0.50967 0.53955 -0.30961 -0.25499 1.1184 1.8788 -0.64409 0.90502 0.22595 
chan 0.044391 -0.68356 -0.074393 1.2383 0.0036831 0.70896 0.93446 1.1337 -0.46299 -0.28287 0.8538 1.6286 -0.29693 -0.3387 0.54266 0.46675 -0.30968 -0.99305 0.15506 1.2821 -0.01216 1.3448 0.54581 -0.83584 -0.33915 
