1538479 10
the -0.09642 0.27147 0.23278 0.17121 -0.82033 -0.048356 -0.79093 -0.5008 0.15845 -0.20231 
</s> -0.017679 0.22249 0.21959 0.3256 -0.69453 -0.10114 -0.7679 -0.49117 0.17737 -0.1201 
9 -0.25127 0.43863 0.24002 0.70052 -1.2423 -0.09134 -0.62198 -0.30338 0.14249 -0.026319 
of 0.11884 0.061099 0.06838 0.1285 -0.7383 -0.055455 -0.89762 -0.58804 -0.048856 -0.23157 
in 0.037924 0.23026 0.10643 0.42602 -0.86524 -0.064451 -0.90141 -0.39945 0.15115 -0.18029 
and -0.12315 0.1256 0.14908 0.30236 -0.54154 -0.0061945 -0.76316 -0.61896 0.17119 -0.14837 
a -0.14047 0.11812 0.21617 0.28349 -0.69239 -0.051439 -0.59833 -0.72377 0.27582 -0.20855 
to -0.43975 0.029826 0.32797 0.071068 -0.63071 -0.24198 -0.80419 -0.65167 0.0086035 0.031215 
was -0.63027 0.079965 0.01247 0.28589 -0.92402 0.10851 -0.86844 -0.36714 0.12708 -0.27128 
is 0.36522 0.077989 0.23973 0.34588 -0.40016 -0.31047 -0.55996 -0.83982 0.029403 -0.44002 
for -0.31619 0.29966 -0.0070702 0.4446 -0.79201 -0.077978 -0.6975 -0.74992 0.25439 0.18002 
on -0.44732 0.44575 0.30506 0.41059 -0.77342 0.07063 -0.7587 -0.50993 0.31036 -0.11634 
as -0.19472 0.15632 -0.043226 0.29097 -0.51853 -0.089494 -0.7193 -0.71801 0.11875 -0.21093 
with -0.20269 0.17538 0.29659 0.24937 -0.70888 -0.076955 -0.52931 -0.68576 0.39867 -0.14969 
by -0.52022 0.11331 -0.0042115 0.19682 -0.61848 0.068496 -0.6486 -0.61498 0.10329 -0.27772 
s -0.65348 0.049082 -0.12203 0.3771 -0.66021 0.045703 -0.78242 -0.58966 0.3797 -0.17614 
he -0.76121 -0.22924 -0.17156 0.27757 -1.1093 -0.21038 -1.1125 -0.40396 0.52165 -0.17035 
that -0.46631 -0.10066 0.076181 -0.087796 -0.47825 -0.37233 -0.6009 -1.0088 0.15914 -0.12453 
at -0.052561 0.27414 0.30564 0.61306 -1.0365 0.24769 -0.91612 -0.34686 0.27866 -0.18733 
from -0.060444 0.20617 0.26337 0.29086 -0.7012 -0.064198 -0.86693 -0.47014 0.056785 -0.152 
his -0.79186 -0.40119 -0.16651 0.098825 -0.88514 -0.24198 -0.92386 -0.56299 0.62516 -0.31542 
it -0.18697 0.21152 0.3739 0.068356 -0.46513 -0.16327 -0.75506 -0.85852 0.19712 -0.33157 
an -0.20536 0.11697 -0.0080911 0.35242 -0.71778 -0.011176 -0.55833 -0.76691 0.12584 -0.092072 
were -0.29986 0.24724 0.35695 -0.097005 -0.73948 -0.081635 -0.9269 -0.50268 0.12069 -0.17668 
which -0.049123 0.30646 0.28208 0.097068 -0.57521 -0.065036 -0.65468 -0.75636 0.0718 -0.25017 
are 0.53879 0.2324 0.43352 0.12676 -0.32119 -0.3623 -0.60561 -1.1543 0.071311 -0.28774 
this -0.12932 0.12119 0.14414 -0.090743 -0.64159 -0.29066 -0.56916 -1.0284 0.1561 -0.25237 
also -0.056503 0.22766 -0.063777 0.39579 -0.40137 -0.17833 -0.66804 -0.7181 0.012079 -0.30516 
be -0.35752 0.035763 0.35299 -0.15258 -0.56023 -0.33952 -0.46895 -1.1161 -0.0091719 -0.1447 
had -0.63281 -0.11592 0.2475 0.056924 -0.79206 -0.20854 -0.93047 -0.45152 0.2012 -0.075995 
first -0.4462 0.38608 -0.0037194 0.43622 -1.1744 -0.074937 -0.68465 -0.45206 0.55694 -0.2017 
has 0.14341 0.16474 0.034979 0.41468 -0.46977 -0.22713 -0.7116 -0.88362 0.19287 -0.13841 
or 0.1255 0.084466 0.4194 -0.089907 -0.35463 -0.36719 -0.46013 -1.0321 -0.059688 -0.27131 
one -0.1346 0.26811 0.22411 0.2051 -0.7473 -0.2073 -0.73469 -0.62794 0.457 -0.19172 
their -0.36504 0.19505 0.2581 0.018997 -0.61232 -0.45193 -0.84755 -0.7357 0.43312 0.010012 
after -0.83584 0.0073632 0.32047 0.18377 -1.0278 -0.28643 -0.90394 -0.19503 0.29001 -0.080271 
its 0.060956 0.55065 0.23185 0.20061 -0.58358 -0.01938 -0.78763 -0.80444 -0.10698 -0.14409 
new -0.31219 0.36015 0.082596 0.73439 -0.71108 0.39236 -1.151 -0.62023 0.15288 -0.075391 
but -0.49029 -0.05992 0.38973 -0.1326 -0.72024 -0.40458 -0.68864 -0.69155 0.37198 -0.15129 
she -0.96875 -0.19037 -0.086414 0.31836 -0.61121 -0.26496 -1.1923 -0.59234 0.73575 -0.29021 
her -0.99304 -0.46695 0.026923 0.22795 -0.3299 -0.43919 -1.068 -0.80702 0.84502 -0.3499 
who -0.78279 -0.4149 -0.23172 0.19268 -0.75865 -0.45997 -1.0938 -0.35044 0.46611 -0.29976 
not -0.46394 -0.093023 0.13861 -0.21153 -0.66906 -0.60023 -0.61711 -1.0515 0.13385 -0.01866 
they -0.52779 0.044653 0.54011 -0.11457 -0.61475 -0.59011 -0.83133 -0.71405 0.4439 -0.13566 
two -0.1497 0.3641 0.51066 0.1707 -1.0579 -0.031519 -0.58905 -0.54827 0.50432 -0.23239 
have 0.048841 -0.028314 0.21706 -0.079881 -0.5176 -0.41708 -0.71687 -1.0301 0.2399 -0.16908 
been -0.15877 -0.0023482 0.068372 0.031875 -0.55558 -0.18495 -0.81539 -0.81533 0.044291 -0.22978 
all -0.071786 0.30409 0.16125 0.17584 -0.80731 -0.3116 -0.74523 -0.75322 0.41012 0.052212 
other 0.1832 0.33728 0.12862 0.11405 -0.33264 -0.31579 -0.82458 -0.94883 0.06726 -0.1364 
when -0.76815 -0.089963 0.46033 0.034379 -0.76274 -0.22819 -0.73133 -0.51432 0.27894 -0.12547 
during -0.46434 0.3759 0.27107 0.00067994 -0.96505 -0.29713 -1.0648 -0.19349 0.23426 -0.16053 
time -0.4218 0.25377 0.14748 0.20959 -0.955 -0.23227 -0.71226 -0.628 0.45071 -0.052256 
into -0.21039 0.24985 0.60941 -0.0052894 -0.54299 -0.05705 -0.76619 -0.59933 0.0011634 -0.28106 
there 0.13821 0.0041447 0.37833 -0.026105 -0.58877 -0.21113 -0.95426 -0.87179 0.1512 -0.20494 
9–9 -0.22719 0.016309 0.31651 0.59503 -1.8792 -0.35668 -0.58371 -0.041177 0.55367 -0.32842 
more 0.022474 0.24056 0.29467 0.021195 -0.50929 -0.40373 -0.64739 -1.1309 0.26366 -0.0965 
school 0.3197 -0.33449 -0.15284 1.3142 -0.9253 0.27826 -1.3827 -0.76669 -0.063101 -0.026211 
over -0.23639 0.30183 0.55628 0.27263 -0.89488 -0.20138 -0.82025 -0.4669 0.26883 0.036883 
year -0.36143 0.30675 0.036188 0.69205 -1.2782 -0.27677 -0.88412 -0.41139 0.52019 0.080585 
years -0.13705 0.0305 0.18201 0.35025 -1.0425 -0.28903 -1.18 -0.43927 0.43653 -0.089535 
up -0.54101 0.18857 0.74417 0.30672 -0.67875 -0.23542 -0.72222 -0.58058 0.51709 -0.073509 
9th -0.28971 0.5098 0.22456 0.091137 -1.5498 0.20497 -1.0846 -0.051131 0.21287 -0.64988 
would -0.895 0.065084 0.28692 0.024106 -0.73308 -0.3648 -0.67677 -0.77245 0.17618 0.13451 
only -0.17689 0.17574 0.39294 0.052216 -0.87635 -0.30878 -0.60803 -0.70704 0.3588 -0.11059 
may -0.30108 0.026733 0.182 0.15732 -0.83764 -0.23434 -0.49627 -0.67982 0.065146 -0.028407 
where -0.091527 0.11428 0.31013 0.37147 -0.8103 0.051655 -0.98509 -0.41766 0.30264 -0.23666 
between 0.19326 0.2834 0.41243 0.048382 -0.92151 -0.12859 -0.71022 -0.47181 -0.11472 -0.22852 
most 0.27993 0.33365 0.032776 0.14345 -0.54165 -0.38086 -0.87129 -0.83592 0.37999 -0.28203 
later -0.77111 0.095865 0.063171 0.25283 -0.83593 0.10361 -0.89099 -0.38454 0.29508 -0.30916 
three -0.094306 0.32758 0.47163 0.26046 -1.1354 -0.075196 -0.65905 -0.51269 0.62352 -0.20268 
city -0.088571 0.3781 0.43103 0.76199 -0.69369 0.059355 -1.6224 -0.067482 -0.29532 -0.29915 
world -0.23531 1.0264 -0.1112 0.2858 -1.1208 -0.34859 -0.89752 -0.43057 0.43236 -0.25678 
some 0.064952 0.15033 0.19043 -0.12748 -0.35309 -0.25175 -0.83999 -1.0119 0.16671 -0.30893 
out -0.7997 0.085415 0.65922 0.15047 -0.64802 -0.34781 -0.68409 -0.63086 0.52145 -0.027831 
then -0.63388 0.013278 0.39227 0.26894 -0.85035 0.020253 -0.7192 -0.38845 0.13275 -0.17321 
state 0.068591 -0.058167 0.10988 0.91953 -1.0027 -0.37718 -1.3991 -0.39253 -0.65736 0.35585 
made -0.44066 0.29045 0.19117 0.20882 -0.7541 -0.075198 -0.66171 -0.60398 0.46918 -0.14245 
him -1.3234 -0.54226 0.17445 -0.11295 -0.5751 -0.62007 -0.9412 -0.63567 0.51217 -0.26445 
about -0.16616 -0.025187 0.31213 0.037387 -0.33132 -0.35372 -0.96455 -0.7722 0.36287 -0.21653 
such 0.11363 0.30631 -0.023413 0.17548 -0.086041 -0.1751 -0.57786 -1.1949 0.022931 -0.25201 
while -0.38758 0.07759 0.38138 0.14134 -0.62295 -0.25666 -0.68596 -0.5706 0.32583 -0.085631 
national 0.21335 0.65174 -0.30963 1.0258 -1.2519 -0.16467 -1.2427 -0.40554 -0.26863 0.14514 
university 0.36439 -0.19892 -0.73236 1.7212 -1.4946 0.19799 -1.3312 -0.8111 -0.50461 -0.12941 
under -0.45779 0.17072 -0.024794 0.16572 -0.90809 0.0087665 -0.8664 -0.36016 -0.30871 -0.15008 
known 0.20833 0.13152 0.027387 0.39432 -0.24951 -0.19778 -0.76527 -0.68541 0.031941 -0.68809 
i -0.85736 0.15762 0.01085 -0.20091 -0.6878 -0.46504 -0.46009 -0.76636 0.50162 -0.5216 
used -0.085724 0.42696 0.42921 0.064091 -0.31117 0.046275 -0.31732 -1.2542 -0.21281 -0.33876 
season -0.62439 0.45522 0.63062 1.1749 -1.8514 -0.95285 -0.3971 -0.32737 0.93267 0.076114 
part 0.08963 0.46662 0.24446 0.25592 -0.80537 0.029035 -1.004 -0.35843 -0.15123 -0.35196 
can -0.10574 0.12231 0.58228 -0.0034728 -0.26158 -0.60346 -0.14244 -1.6016 -0.11273 -0.1798 
film -0.89582 0.66207 -0.66719 0.95369 -0.016258 -0.56729 -0.8358 -1.2099 0.93977 -0.55888 
team -0.55386 0.55349 0.24004 1.0427 -1.7515 -0.83542 -0.46926 -0.281 0.53018 0.12972 
born -0.68741 -0.42728 -0.39238 1.1742 -1.3991 -0.45048 -1.0858 0.13887 0.055939 -0.96198 
united -0.38429 0.45278 -0.012611 0.78871 -1.2006 -0.060165 -1.4856 -0.2695 -0.39832 0.21604 
many 0.15134 0.25955 -0.0007209 0.052779 -0.27363 -0.22794 -1.1019 -0.95781 0.2104 -0.2604 
second -0.53461 0.3694 0.28212 0.32642 -1.4271 -0.21234 -0.55933 -0.3108 0.64271 -0.27611 
became -0.50597 0.094628 -0.25949 0.39378 -0.88528 0.11792 -1.0779 -0.34021 0.029685 -0.25929 
american -0.41221 0.38241 -0.48692 0.94991 -0.7181 0.064689 -1.1631 -0.62327 0.48341 -0.21202 
no -0.4367 0.18926 0.24027 -0.070478 -0.67424 -0.36694 -0.56788 -0.86113 0.23475 -0.055362 
than 0.22469 0.25484 0.52017 0.13019 -0.69079 -0.53731 -0.55046 -1.1083 0.23852 -0.022779 
these 0.21365 0.25446 0.22035 -0.19872 -0.48216 -0.31204 -0.64562 -1.218 -0.069849 -0.26906 
south 0.27142 0.26891 0.89287 0.84084 -0.96334 -0.16589 -1.5327 0.029398 -0.34028 -0.42924 
being -0.38353 0.043419 0.31403 0.0093467 -0.67354 -0.28542 -0.73339 -0.64297 0.2594 -0.11758 
well 0.0523 0.33722 0.038196 0.25136 -0.37118 -0.067179 -0.81605 -0.86314 0.24265 -0.24634 
including 0.10336 0.37279 0.0086968 0.48541 -0.42437 0.015238 -0.87307 -0.75075 0.30149 -0.11172 
through -0.10616 0.27278 0.58601 0.30979 -0.47339 -0.0040629 -0.76083 -0.73533 -0.061099 -0.028979 
before -0.67145 0.10647 0.52703 0.22578 -1.0166 -0.16875 -0.91188 -0.26952 0.37258 -0.050036 
both -0.055351 0.22088 0.11021 0.15705 -0.75492 -0.17334 -0.60983 -0.69578 0.28822 -0.10963 
states -0.33093 0.34415 -0.054832 0.56038 -0.91241 -0.12868 -1.3933 -0.45321 -0.48693 0.18178 
9s -0.26882 0.61639 0.082497 0.35543 -0.69889 0.29763 -1.0024 -0.63073 0.18823 -0.37311 
war -0.99898 0.47306 0.090048 -0.46289 -1.1282 -0.26323 -1.3359 -0.19333 -0.38241 -0.52506 
against -0.7126 0.039009 0.28794 0.084749 -1.4242 -0.95607 -0.8503 0.029961 0.17878 0.18487 
people -0.006998 0.063437 0.088206 -0.019604 -0.17892 -1.037 -1.5057 -0.68365 -0.028461 -0.11123 
north 0.24249 0.28647 1.1151 0.81961 -0.97992 0.024346 -1.4093 -0.018596 -0.43218 -0.53462 
however -0.49357 -0.041167 0.19086 -0.12662 -0.81958 -0.43793 -0.57292 -0.731 0.16038 -0.049037 
until -0.66719 0.1831 0.33224 0.18499 -1.1766 0.14909 -1.0756 -0.23652 5.4371e-05 -0.17534 
high 0.30476 -0.024125 0.56352 0.87048 -0.82174 0.072508 -0.67026 -0.9009 0.025223 0.18674 
family 0.53238 -0.95208 0.31084 0.37207 -0.49316 -0.69855 -1.105 -0.60625 0.39713 -0.66195 
since -0.11608 0.42971 -0.062085 0.31618 -0.97162 -0.1455 -0.82578 -0.5496 0.13927 -0.023627 
them -0.68646 -0.044153 0.48629 -0.22993 -0.42338 -0.58511 -0.84436 -0.76856 0.30683 -0.14024 
series -0.76121 0.91247 0.0047346 0.65687 -0.58556 -0.11975 -0.41035 -0.95804 0.87681 -0.35327 
area 0.52205 0.24647 1.0043 0.53869 -0.52945 -0.026406 -1.3302 -0.52373 -0.63894 -0.39785 
work -0.33032 0.036537 -0.44214 0.183 -0.43946 0.24926 -0.81139 -1.1876 0.17956 -0.38227 
album -0.94605 1.0041 -0.06837 0.77119 -0.40508 -0.65714 -0.30064 -1.3129 1.4847 -1.0062 
group -0.26414 0.61366 -0.1228 0.33066 -0.67229 -0.20527 -0.6218 -0.63117 0.037745 -0.16967 
released -1.2533 1.2307 0.027515 0.8129 -0.4174 -0.39978 -0.36476 -0.97344 0.87217 -0.58295 
four -0.16078 0.42709 0.54336 0.33677 -1.2469 0.0060811 -0.57265 -0.51914 0.61017 -0.19224 
de -0.77323 0.97825 -0.38419 0.40679 -0.93632 0.3057 -1.068 0.02852 0.021907 -1.7089 
played -0.2261 0.15245 0.17533 1.1826 -1.5623 -0.59227 -0.70643 -0.24901 1.0872 -0.26845 
name -0.12275 0.16212 -0.028147 0.15342 -0.36783 -0.21452 -0.73774 -0.63934 0.11327 -0.85084 
company -1.0914 0.64168 0.18587 1.0153 -0.33029 0.68569 -0.87406 -0.92236 -0.64464 -0.072868 
number 0.15113 0.74927 0.1288 0.23986 -0.83734 -0.30235 -0.6138 -0.87542 0.33726 -0.080749 
music -0.22609 0.7791 -0.7571 0.9474 -0.28508 -0.15769 -0.76372 -1.3841 1.0064 -0.72517 
game -0.79308 0.75882 0.37314 0.88861 -1.1643 -0.61017 -0.19134 -0.91323 0.99442 0.13452 
several -0.00014917 0.44559 0.046802 0.22612 -0.50144 -0.029383 -0.98249 -0.74147 0.24879 -0.21719 
called -0.18626 0.22567 0.083613 0.17522 -0.31227 -0.068018 -0.58057 -0.72565 0.16183 -0.44737 
district 0.28975 -0.37719 0.4984 1.1641 -1.01 -0.69364 -1.6074 -0.13945 -1.8449 -0.45368 
league -0.18398 0.49607 0.37591 1.3177 -2.2643 -1.1567 -0.77251 -0.038509 0.31009 0.15465 
following -0.51407 0.26813 0.035712 0.15999 -1.1835 -0.20825 -0.77442 -0.30514 0.1801 -0.012719 
early -0.075016 0.3109 0.042136 0.10468 -0.76326 0.11891 -1.0212 -0.59279 0.34062 -0.43261 
government -0.72888 0.13964 -0.40935 0.23896 -0.83258 -0.57913 -1.4735 -0.52806 -1.2742 0.23991 
county 0.10568 -0.82101 0.92686 1.322 -1.3227 -0.2793 -1.6867 0.032865 -1.0274 -0.25023 
won -0.34956 0.38081 -0.19858 1.0834 -1.8347 -0.78375 -0.45062 -0.20498 0.85268 -0.15114 
will -0.59043 0.14638 0.41993 0.16457 -0.46668 -0.50776 -0.49846 -1.0676 0.17681 0.1496 
– -0.52329 0.034042 -0.25071 0.36672 -1.0987 0.066317 -0.62819 -0.3667 0.18354 -0.5454 
house -0.49391 -0.53988 0.3132 0.48939 -0.64766 0.63848 -1.4244 -0.63188 0.060334 -0.35227 
based -0.02805 0.57792 -0.26031 0.57154 -0.50024 0.13169 -0.53063 -1.0368 -0.0049211 -0.11955 
west 0.14278 0.088718 1.0299 0.83278 -0.99837 0.066108 -1.4161 -0.016494 -0.26543 -0.4799 
march -1.0831 0.44844 -0.031233 0.68336 -1.2578 -0.013253 -0.89831 -0.0049674 0.028589 -0.21445 
same -0.22758 0.27676 0.078686 0.071742 -0.81411 -0.12466 -0.56017 -0.83971 0.34828 -0.24767 
each 0.055555 0.45947 0.47312 0.092561 -1.0442 -0.19852 -0.3914 -1.0003 0.41088 -0.11682 
day -0.507 0.36386 0.39218 0.33446 -0.61758 -0.36302 -1.2273 -0.27443 0.43414 -0.11905 
september -1.0859 0.49929 0.069918 0.71182 -1.2714 0.010236 -0.90319 0.01334 0.034093 -0.22214 
so -0.56477 -0.010918 0.43725 -0.26812 -0.48269 -0.36599 -0.54201 -1.0274 0.24293 -0.27778 
january -1.0608 0.43706 -0.048648 0.75016 -1.3222 -0.030564 -0.84803 -0.0087924 -0.032731 -0.21028 
club -0.083051 0.51801 0.18008 0.9506 -1.6969 -0.32902 -0.79242 -0.080907 0.48962 -0.16691 
june -1.0961 0.42327 -0.022767 0.67999 -1.2869 0.077302 -0.89418 -0.023717 0.0053628 -0.2693 
october -1.0968 0.51847 0.0093941 0.73042 -1.2368 0.039025 -0.88842 -0.013903 0.053759 -0.25505 
found 0.33187 -0.10172 0.48408 0.0018285 -0.30772 -0.45906 -0.77453 -0.84743 0.054655 -0.43811 
began -0.61542 0.50593 0.016399 0.45797 -0.7116 0.16122 -0.97901 -0.44588 0.1887 -0.070871 
july -1.0341 0.4636 0.049153 0.72016 -1.313 0.024602 -0.85803 0.014934 0.012567 -0.2526 
august -1.0354 0.4386 0.033761 0.67504 -1.339 -0.030206 -0.88677 0.048808 0.03238 -0.27713 
general -0.99629 -0.14621 -0.35887 0.27638 -1.1646 0.024084 -0.85591 -0.46813 -0.87842 -0.033116 
end -0.43576 0.23779 0.71893 0.17166 -1.0803 -0.044134 -0.73092 -0.409 0.36124 -0.1906 
use -0.2526 0.35541 0.30092 0.034527 -0.24576 0.0033606 -0.42598 -1.4057 -0.35668 -0.14776 
now -0.076382 0.20788 0.28756 0.41235 -0.49834 0.23854 -1.0347 -0.52831 -0.057635 -0.35101 
located 0.46848 0.35447 1.0765 1.0571 -0.6021 0.18888 -1.3795 -0.26745 -0.80638 -0.9094 
place -0.15533 0.35189 0.38879 0.21306 -1.0337 -0.27869 -0.98609 -0.24921 0.4528 -0.27193 
april -1.1374 0.47618 -0.0066568 0.67965 -1.2188 0.054946 -0.91246 -0.0093759 0.012145 -0.26692 
member -0.19989 -0.096597 -0.66567 0.86619 -1.3379 -0.29446 -1.0321 -0.33949 -0.28378 -0.018822 
east 0.26152 0.1752 1.064 0.66992 -1.0208 0.0017832 -1.4502 0.00053627 -0.51353 -0.60477 
november -1.0857 0.42 -0.030487 0.72193 -1.2781 -0.0059121 -0.87938 -0.013231 0.046316 -0.2103 
station -0.59343 0.97064 1.0754 1.3401 -0.47901 0.47521 -0.87309 -0.50407 -0.7069 -0.29722 
home -0.43341 0.092162 0.58813 0.77261 -0.75692 -0.080878 -1.209 -0.30752 0.57017 -0.040004 
john -1.0771 -1.0886 -0.041295 0.79611 -1.076 0.54349 -0.86165 -0.74998 0.41571 -0.66411 
international -0.072358 0.99103 -0.7146 0.99038 -0.97812 -0.19563 -1.0077 -0.63222 -0.2265 0.13416 
town 0.26007 -0.14136 0.85212 0.69246 -0.73216 -0.24565 -1.5591 0.022557 -0.50249 -0.51013 
december -1.0949 0.42766 -0.020949 0.75119 -1.2563 0.0057662 -0.90893 0.0047722 -0.029685 -0.20171 
public -0.31466 0.14932 -0.27167 0.64746 -0.42323 0.19187 -1.3738 -1.0174 -0.508 0.22699 
college 0.34752 -0.59486 -0.36122 1.6477 -1.3056 0.14591 -1.5114 -0.74963 -0.063847 0.039388 
population 1.1699 -0.21228 0.59724 0.509 -0.97742 -1.6068 -1.4906 -0.55644 -0.83057 -0.13587 
former -0.76137 -0.024686 -0.15313 0.81336 -1.1332 -0.041043 -1.0503 -0.082591 -0.02938 -0.20064 
held -0.23293 0.41462 -0.099337 0.50413 -1.2709 -0.034292 -1.1936 -0.13648 0.16073 -0.056823 
century 0.2925 0.11034 0.013109 -0.40336 -0.95873 0.16308 -1.4403 -0.50702 0.12236 -1.2961 
line -0.23041 0.45673 1.2055 0.55722 -0.95649 0.35072 -0.49868 -0.48056 -0.28568 -0.38014 
church 0.26621 -0.74236 -0.043486 -0.044247 -1.0665 0.52172 -1.795 -0.61253 -0.10825 -1.0112 
named -0.40223 -0.054227 0.12368 0.70709 -0.7398 -0.013343 -0.91928 -0.27438 0.31656 -0.47479 
like -0.090615 0.2278 0.28538 0.13559 0.019053 -0.41475 -0.50749 -1.0875 0.48596 -0.46622 
age 0.31551 -0.38255 0.13201 0.39399 -0.99317 -0.49737 -1.0727 -0.56517 0.60444 -0.26367 
party -0.74193 -0.071662 -0.71863 0.36308 -1.2541 -1.0144 -1.1578 -0.35859 -0.59768 0.24006 
long 0.065014 0.035513 0.86104 0.16222 -0.76719 -0.18075 -0.53181 -0.76936 0.49066 -0.32972 
took -0.72306 0.19371 0.19617 0.2366 -1.1042 -0.10049 -0.96921 -0.12265 0.2772 -0.18234 
if -0.73942 -0.26961 0.3195 -0.31281 -0.80945 -0.69392 -0.19032 -1.2744 0.18782 -0.078721 
around 0.099039 0.42569 0.73039 0.14899 -0.46834 -0.1032 -0.9758 -0.55203 0.1906 -0.40508 
back -0.61334 0.031912 0.90757 0.029864 -0.91364 -0.28136 -0.77094 -0.38725 0.67227 -0.40956 
because -0.37646 -0.13625 0.29913 -0.19396 -0.42561 -0.53724 -0.67976 -1.0093 0.1014 -0.083296 
york -0.64331 0.068528 0.0076356 1.2812 -0.78691 0.62455 -1.5656 -0.61546 0.36787 -0.12649 
best -0.27023 0.51864 -0.50536 0.88906 -0.82115 -0.49663 -0.62997 -1.0319 1.1213 -0.25001 
system -0.11731 0.61889 0.29866 0.24898 -0.74195 -0.024691 -0.22523 -1.257 -0.84273 0.043541 
british -0.80627 0.41646 -0.090196 0.2261 -0.87174 0.30231 -1.3664 -0.2779 -0.11143 -0.33177 
due -0.27613 0.048408 0.5493 0.02868 -0.74667 -0.67348 -0.55824 -0.80463 -0.13226 0.27725 
life -0.39701 -0.31609 -0.1328 0.026727 -0.21287 -0.33692 -1.0812 -1.0657 0.43542 -0.31667 
any -0.3318 0.050428 0.13212 -0.23275 -0.8124 -0.56665 -0.53764 -1.1894 -0.034984 0.099189 
local -0.013397 0.25065 0.072243 0.46675 -0.4013 -0.037602 -1.381 -0.6246 -0.27585 0.057455 
song -0.85898 0.79387 -0.19067 0.61318 -0.20329 -0.88845 -0.49619 -1.1499 1.4344 -1.0026 
built -0.31722 0.25649 0.84128 0.29221 -0.61744 0.95914 -1.011 -0.68857 -0.48023 -0.87717 
february -1.1321 0.45717 -0.080884 0.71333 -1.282 -0.028313 -0.87617 0.01612 0.038677 -0.28125 
served -0.80924 -0.060921 -0.15947 0.76779 -1.0739 0.3383 -1.3688 -0.21822 -0.63779 -0.1685 
band -0.64811 0.61796 0.21305 0.72107 -0.52209 -0.20782 -0.45333 -0.93656 1.2021 -0.73045 
along -0.12737 0.24938 0.8143 0.41351 -0.49556 0.054112 -0.83202 -0.39578 0.16634 -0.44753 
did -0.78323 -0.047046 -0.013862 -0.07735 -0.85494 -0.51737 -0.74733 -0.74962 0.34694 0.041031 
five -0.087199 0.35343 0.46445 0.40563 -1.1387 -0.18923 -0.75308 -0.4905 0.68032 -0.07346 
river 0.016036 -0.095338 1.9436 0.72344 -0.42763 -0.29383 -1.4029 -0.11872 -0.75487 -1.0008 
could -0.69648 -0.0092514 0.48705 -0.26209 -0.59155 -0.38619 -0.56652 -1.0679 -0.040806 -0.018189 
another -0.52007 0.091119 0.30103 0.086358 -0.6639 -0.21257 -0.60418 -0.62729 0.3496 -0.25818 
received -0.37212 0.16518 -0.61921 0.68258 -1.068 -0.074954 -0.66203 -0.78974 0.34716 0.11303 
show -0.81715 0.62829 -0.067138 0.83254 -0.2493 -0.29358 -0.66183 -1.0653 0.95178 -0.20663 
within 0.50032 0.19956 0.41485 0.081105 -0.71793 -0.15983 -0.89845 -0.75407 -0.35377 -0.17465 
president -1.2994 -0.12445 -0.97897 0.93159 -1.1835 -0.39107 -1.2698 -0.33378 -0.72254 0.076539 
final -0.54676 0.46331 0.35861 0.46294 -1.7513 -0.66936 -0.32828 -0.32199 0.88688 -0.19881 
building -0.15218 0.10309 0.57418 0.46989 -0.58674 1.0537 -1.2135 -1.0531 -0.4634 -0.59209 
women 0.18591 0.098929 -0.34355 0.49071 -0.94488 -0.87581 -1.1936 -0.65609 0.54748 0.2424 
village 0.4487 -0.35768 0.60753 0.59224 -0.39233 -0.72634 -1.5141 -0.23707 -1.2679 -1.0712 
u -0.74651 0.55798 0.10537 0.65818 -1.0836 0.080989 -0.90319 -0.43953 -0.49181 0.15422 
single -0.40648 0.84607 0.54511 0.45069 -0.77332 -0.27555 -0.12724 -0.9933 0.73571 -0.38017 
left -0.70918 -0.20443 0.52214 0.055954 -1.1325 -0.12683 -0.6436 -0.32434 0.32514 -0.25582 
football 0.098905 0.33234 0.12582 1.5229 -2.1392 -0.87055 -0.85427 -0.13749 0.37024 0.031954 
service -0.77442 0.67874 0.18946 0.58685 -0.80295 0.45567 -1.0416 -0.70015 -0.80936 0.12894 
third -0.43058 0.36616 0.2912 0.39933 -1.4283 -0.28714 -0.52085 -0.36565 0.70645 -0.20204 
major -0.13516 0.44606 0.093568 0.5249 -0.7933 -0.045696 -0.92392 -0.50688 0.00024066 0.02676 
members -0.26927 0.015557 -0.32554 0.3021 -0.82038 -0.43134 -1.0957 -0.50288 -0.034887 0.054435 
d -0.58398 0.16969 -0.45141 0.52136 -1.1361 0.49197 -0.35966 -0.70461 -0.14492 -0.7954 
old -0.12299 -0.18806 0.43009 0.17803 -0.58103 0.052479 -1.2161 -0.43216 0.51944 -0.59382 
large 0.35241 0.28047 0.86302 0.066365 -0.37752 0.046326 -0.8117 -0.96587 -0.11271 -0.45799 
although -0.18278 0.011076 0.22861 -0.1171 -0.69044 -0.2096 -0.70644 -0.80146 0.21815 -0.22886 
small 0.40982 0.1571 0.99263 0.22307 -0.33417 -0.049181 -0.77742 -0.86585 -0.032172 -0.53715 
games -0.33632 0.99386 0.3448 1.1632 -1.3846 -0.768 -0.43594 -0.59916 0.88052 0.1153 
said -1.074 -0.32277 -0.28019 0.17381 -0.35517 -0.54242 -0.77225 -0.86099 0.39789 -0.12038 
off -0.99575 0.33174 1.2887 0.34993 -0.64331 -0.30988 -0.66645 -0.38649 0.49855 -0.19458 
died -0.87602 -1.2145 0.4885 0.33818 -1.1094 -0.32127 -1.2316 -0.062881 0.10871 -0.63926 
published -0.3382 0.33188 -1.026 0.44954 -0.54875 0.29063 -0.66414 -1.2379 0.26974 -0.72916 
set -0.41322 0.44877 0.18392 0.16581 -0.81402 0.13037 -0.47769 -0.87098 0.38858 -0.20356 
c -0.15522 -0.056945 0.18275 0.69089 -1.2569 0.18996 0.012018 -0.8094 -0.16709 -0.42443 
children -0.2184 -0.69365 -0.084921 0.52955 -0.29545 -0.45928 -1.3908 -0.93283 0.5665 -0.080116 
main 0.058081 0.55332 0.57374 0.30393 -0.52503 0.21663 -0.83784 -0.60584 -0.12617 -0.4417 
last -0.54254 0.33179 0.34491 0.1187 -1.0905 -0.30051 -0.75968 -0.31872 0.71842 -0.3555 
species 1.5473 -0.46948 0.94844 0.67356 -0.4051 -1.8599 -0.47867 -1.55 0.075487 -1.3783 
own -0.60597 0.081991 -0.050718 0.041406 -0.35396 -0.018482 -0.9029 -0.95428 0.25417 -0.22071 
those 0.053275 -0.055377 0.12886 -0.1714 -0.55439 -0.4784 -0.88408 -0.94591 0.10139 -0.13588 
st -0.031929 -0.68815 0.27998 0.76953 -1.5283 0.74168 -1.4341 -0.33958 0.36393 -0.96329 
book -0.43853 -0.01045 -0.74172 0.21605 -0.25855 0.016355 -0.77918 -1.3148 0.60643 -0.80438 
law -0.43602 -0.74347 -0.71589 0.36774 -1.031 -0.039327 -1.1723 -1.0296 -0.75144 0.15629 
included -0.18377 0.40902 -0.084084 0.3928 -0.59956 0.2536 -0.70995 -0.73263 0.39557 -0.30783 
include 0.40483 0.24351 0.051543 0.54914 -0.1238 -0.029296 -0.6591 -1.118 0.15129 -0.25893 
according -0.089737 -0.083565 -0.61318 0.15934 -0.57544 -0.29337 -0.83941 -0.75166 -0.036044 -0.2375 
order -0.35744 -0.014906 0.036071 -0.26526 -0.89 -0.14148 -0.6455 -0.78689 -0.24262 -0.12095 
play -0.54614 0.43192 0.11087 0.69608 -1.0905 -0.45157 -0.46463 -0.70738 1.0447 -0.096221 
death -0.98239 -0.81733 0.10562 -0.20943 -0.76809 -0.4674 -0.98046 -0.50379 0.3038 -0.47532 
army -1.3444 0.31831 0.40424 -0.32943 -1.3649 -0.28852 -1.1587 0.010042 -1.0298 -0.61905 
still -0.25014 0.081187 0.37401 -0.079622 -0.50117 -0.089111 -0.89183 -0.78621 0.24556 -0.32364 
m -0.12082 0.12872 0.41025 1.091 -0.8766 -0.19826 0.042288 -0.8757 0.18136 -0.30705 
mc -1.3716 -0.96526 0.19252 1.4747 -0.98686 0.15767 -0.4275 -1.0388 0.41214 0.049074 
very 0.080071 -0.02391 0.44635 -0.044934 -0.33286 -0.52548 -0.59894 -1.1608 0.47122 -0.44054 
e -0.076885 0.044721 -0.16771 0.50226 -0.33371 -0.29064 -0.13173 -1.1111 -0.84461 -0.63865 
park 0.13416 0.15929 1.0287 1.2522 -0.56793 0.43216 -1.4651 -0.37807 0.075717 -0.47159 
history 0.3352 0.21723 -0.52432 0.35312 -0.93674 -0.14482 -1.1132 -0.77142 0.3851 -0.28634 
road -0.1092 0.062459 1.5032 1.0921 -0.70202 0.20372 -1.0591 -0.30368 -0.36088 -0.40869 
country 0.019601 0.68885 0.075063 0.3986 -0.60599 -0.45203 -1.3643 -0.46687 0.3388 -0.11178 
top -0.11343 0.90497 0.54113 0.69851 -1.208 -0.30689 -0.3926 -0.65716 0.81981 -0.18927 
men -0.34947 0.20464 0.42254 0.12761 -1.1475 -0.69318 -0.94734 -0.2119 0.65003 -0.11853 
led -0.64845 0.020412 -0.021561 0.19545 -0.99205 -0.29981 -0.76586 -0.28957 0.044251 0.095678 
air -1.1154 0.98149 0.92633 0.40871 -0.76712 0.11556 -0.47595 -0.68266 -0.94492 -0.18799 
among 0.24484 0.084924 -0.30666 0.096888 -0.49424 -0.4957 -1.0584 -0.72799 0.29405 -0.21323 
division -0.51324 0.70972 0.50884 0.60628 -1.9818 -0.28587 -0.60936 0.012216 -0.58734 -0.055958 
french -0.81616 0.75087 -0.34646 -0.3531 -1.0142 0.3225 -1.022 -0.29954 -0.16002 -1.1371 
side -0.045184 0.30648 1.1153 0.27099 -1.156 -0.0034255 -0.58563 -0.36108 0.36568 -0.5118 
central 0.49077 0.40095 0.37318 0.54021 -0.75101 -0.18645 -1.2214 -0.31373 -0.81666 -0.37917 
what -0.61828 -0.18484 0.079963 -0.17425 -0.30295 -0.44946 -0.90641 -1.0899 0.40877 -0.33919 
moved -0.4953 0.1616 0.48245 0.69682 -1.0672 0.25085 -1.1842 -0.031136 0.031838 -0.30082 
english 0.10542 0.12046 -0.61515 0.33048 -0.84401 0.018927 -1.0602 -0.71671 0.50015 -0.7365 
million -0.40123 0.94616 0.62985 1.0761 -0.6219 -0.52758 -0.98194 -0.79183 -0.20961 0.63604 
times -0.20306 0.28678 0.04663 0.4331 -0.76058 -0.22499 -0.87455 -0.74649 0.73204 -0.10454 
son -1.2394 -1.3354 -0.016833 0.19596 -0.79328 -0.48736 -1.2118 -0.27097 0.17721 -1.1591 
often 0.10249 0.042207 0.2805 -0.094127 -0.18083 -0.35552 -0.59228 -1.2687 0.27824 -0.40579 
near 0.099272 -0.093275 1.2788 0.47233 -0.67402 0.050805 -1.1839 -0.098914 -0.4679 -0.77749 
down -0.97034 0.010816 1.1833 0.12864 -0.6382 -0.19213 -0.60231 -0.57327 0.34117 -0.22272 
late -0.29856 0.38028 0.20146 0.18612 -0.79341 0.059419 -1.0509 -0.3562 0.44719 -0.49768 
career -0.48162 0.1739 -0.22933 0.91902 -1.415 -0.36285 -0.74638 -0.50067 0.82353 0.069215 
great -0.14314 -0.17942 0.23656 -0.085014 -0.58464 -0.085867 -1.2739 -0.46598 0.42592 -0.55253 
water 0.0044244 0.17046 1.6451 0.56818 0.076836 -0.39007 -0.69257 -1.2865 -0.67437 -0.21552 
community 0.34166 -0.096521 -0.065477 0.76153 -0.27162 -0.015045 -1.6951 -0.78369 -0.50019 -0.041432 
us -0.77346 0.66661 0.38842 0.60667 -0.5773 -0.077498 -0.95374 -0.62828 -0.084008 0.18874 
father -1.1127 -0.96818 -0.19441 0.19647 -0.5472 -0.40117 -1.3304 -0.44815 0.32895 -0.74859 
original -0.41474 0.51742 0.13172 0.22995 -0.43439 0.45913 -0.58738 -1.0776 0.49037 -0.69979 
development 0.10246 0.45065 -0.15968 0.6749 -0.50066 -0.059951 -0.73937 -1.2273 -0.82149 0.18438 
again -0.95159 0.11424 0.49179 0.19506 -1.1161 -0.34545 -0.76419 -0.20434 0.49771 -0.18465 
just -0.44985 0.064823 0.82788 0.23997 -0.72456 -0.26415 -0.79774 -0.54831 0.61387 -0.21836 
six -0.23347 0.45519 0.55935 0.36573 -1.2742 -0.078149 -0.64708 -0.48982 0.57793 -0.091663 
king -0.85794 -0.68989 0.067165 -0.27902 -0.80417 -0.30798 -1.4179 -0.13213 0.21804 -1.0091 
different 0.42215 0.63013 0.064633 -0.00045027 -0.46354 -0.44745 -0.47664 -1.4402 0.14907 -0.38924 
much -0.17264 0.0091094 0.40973 -0.15714 -0.40055 -0.30116 -0.79335 -1.0395 0.28933 -0.28685 
court -0.83629 -0.76204 -0.2714 0.19698 -1.2797 -0.19618 -1.2448 -0.57469 -0.63068 0.18371 
german -0.5595 0.57952 -0.38606 -0.42403 -1.4702 0.29152 -0.66542 -0.42273 -0.40051 -0.87914 
art 0.025582 0.35073 -0.74715 0.71934 -0.37015 0.67897 -1.1671 -1.3034 0.24421 -0.82907 
form 0.31306 0.16141 0.18139 -0.05131 -0.55633 -0.2191 -0.35139 -1.066 -0.071254 -0.41629 
white 0.1439 -0.24545 0.87625 0.35711 -0.46151 -0.1044 -0.77472 -0.8955 0.88837 -0.61086 
power -0.62566 0.46444 0.44572 -0.011346 -0.51716 -0.21232 -0.45116 -0.89804 -0.61451 -0.011092 
established -0.089603 0.20494 -0.22287 0.4691 -0.68702 0.17658 -1.3097 -0.4522 -0.64562 -0.21352 
center 0.11332 0.33479 0.15354 1.0306 -0.58194 0.466 -1.0144 -0.81741 -0.50797 -0.061026 
london -0.36602 -0.00084876 0.033795 0.8375 -1.0443 0.89984 -1.4006 -0.60919 0.28079 -0.39165 
way -0.38404 0.056951 0.46525 -0.011583 -0.40177 -0.27845 -0.78412 -0.86546 0.265 -0.18622 
even -0.32364 -0.013103 0.2836 -0.2699 -0.51037 -0.56414 -0.65781 -0.96262 0.30751 -0.20433 
record -0.47607 0.52756 0.23853 0.94238 -1.2556 -0.51736 -0.38094 -0.77313 1.0713 0.04921 
research 0.19612 -0.032915 -0.74181 0.96615 -0.6119 0.13081 -0.6699 -1.7246 -1.0089 0.045282 
street -0.36603 -0.04212 0.92662 0.99545 -0.46882 0.89685 -1.3666 -0.62999 0.10067 -0.72674 
council -0.11732 -0.34805 -0.38459 0.67312 -1.3551 -0.074154 -1.4998 -0.40979 -1.0517 0.14789 
land -0.079822 -0.2113 0.87465 0.22779 -0.27651 0.028745 -1.4695 -0.60026 -0.63634 -0.29394 
you -1.461 0.32339 0.25649 0.19646 0.08064 -1.0814 -0.63075 -1.5386 1.0049 -0.51859 
player -0.52912 0.39954 0.049565 0.84962 -1.4963 -0.81899 -0.19025 -0.61464 0.80741 0.036678 
having -0.35225 -0.13857 0.26502 0.036235 -0.87579 -0.30358 -0.75307 -0.64597 0.47436 -0.076768 
b -0.25951 0.21533 -0.027586 0.85861 -1.1504 0.0020579 0.13846 -0.94781 0.28802 -0.37536 
award -0.27952 0.43632 -1.1935 1.5428 -1.0068 -0.4017 -0.68099 -1.1545 0.73613 -0.16227 
title -0.69395 0.41869 -0.26239 0.1731 -1.2795 -0.57154 -0.58266 -0.27776 0.78761 -0.53755 
started -0.54397 0.47928 0.02667 0.6184 -0.81149 -0.10948 -0.81574 -0.38032 0.3485 -0.032313 
students 0.32846 -0.11891 -0.40006 0.89425 -0.82196 -0.19781 -1.2382 -1.1806 -0.052555 0.35455 
role -0.74429 0.0086027 -0.48866 0.43004 -0.51078 -0.46599 -0.66206 -0.86947 0.4263 -0.12916 
support -0.67513 0.38009 -0.19962 0.033893 -0.68033 -0.18951 -0.84294 -0.80762 -0.58881 0.16252 
went -0.72933 0.11182 0.20923 0.53589 -1.0086 -0.12406 -0.93738 -0.27257 0.5118 -0.025688 
make -0.59123 0.11754 0.35238 0.0907 -0.4007 -0.36322 -0.72246 -1.0496 0.45382 0.032671 
next -0.71585 0.33044 0.55373 0.31854 -0.94271 -0.17351 -0.82158 -0.35339 0.56519 -0.17886 
came -0.58081 0.11713 0.20186 0.10073 -0.9399 -0.27371 -0.92813 -0.27306 0.41069 -0.23842 
man -0.95133 -0.15637 0.32064 0.11063 -0.28713 -0.52779 -0.80555 -0.72796 0.81628 -0.54815 
education 0.36209 -0.22375 -0.7887 1.0833 -0.87996 -0.25762 -1.3381 -1.3053 -0.83652 0.30551 
ii -0.71086 0.21049 0.086854 -0.30635 -1.2806 0.11714 -0.69017 -0.23692 -0.25901 -0.78543 
head -0.52325 -0.3006 0.45154 0.56805 -1.0507 -0.10651 -0.56868 -0.41997 0.2873 -0.088194 
western 0.48631 0.42462 0.56418 0.41808 -0.74414 -0.16725 -1.49 -0.22175 -0.22151 -0.50935 
island -0.21633 0.34721 1.2092 0.48774 -0.30104 -0.058569 -1.6052 -0.0015648 -0.15329 -0.88408 
period 0.2125 0.44211 0.18118 -0.35002 -0.84665 -0.28548 -1.0638 -0.53663 0.15632 -0.5736 
region 0.82378 0.72463 0.50469 0.11756 -0.80332 -0.66134 -1.2833 -0.24003 -0.77432 -0.7028 
military -0.92818 0.49031 -0.17237 -0.23022 -1.0495 -0.10587 -1.1828 -0.37548 -1.0703 -0.27991 
produced -0.52488 0.66461 0.077176 0.83028 -0.11668 0.041817 -0.26242 -1.1891 0.46334 -0.45478 
do -0.43248 0.41632 0.047301 -0.1706 -0.23793 -0.93556 -0.64087 -0.96362 0.33212 -0.27926 
black 0.041587 0.055432 0.76286 0.29732 -0.3767 -0.21949 -0.71214 -0.87747 0.92539 -0.63495 
cup -0.13523 0.73087 0.44427 1.1153 -2.3181 -1.1479 -0.49035 -0.061916 0.62805 -0.24199 
point -0.1442 0.097359 0.80309 0.2064 -0.95272 -0.10392 -0.42558 -0.69813 0.157 -0.17706 
director -1.0628 0.23126 -1.0765 1.2566 -0.65133 0.13177 -0.91874 -0.86898 -0.23235 -0.2318 
announced -1.4995 0.65559 -0.19451 0.99012 -0.95863 -0.17728 -0.55256 -0.51024 7.4952e-05 0.29909 
using -0.41958 0.47465 0.3728 0.09974 -0.29428 0.10403 -0.0092826 -1.5012 -0.29275 -0.32082 
various 0.27524 0.58631 -0.15014 0.20275 -0.24283 -0.1227 -0.93416 -1.1334 0.0081538 -0.22593 
office -0.85634 0.039381 -0.095955 0.66048 -0.7915 0.4266 -1.2566 -0.655 -0.67421 0.14092 
become -0.36091 -0.0012343 0.034301 0.18617 -0.51363 -0.24059 -0.95405 -0.67494 0.19784 -0.066122 
given -0.22732 -0.013621 -0.15174 -0.059237 -0.86236 -0.1576 -0.55115 -0.87404 0.13691 -0.17659 
co -0.88439 0.17387 -0.42971 1.1573 -0.35823 0.27512 -0.62818 -1.0022 -0.072552 -0.14697 
non 0.39667 0.20533 -0.21585 0.21109 -0.67484 -0.46105 -0.57703 -1.1337 -0.23205 0.14868 
total 0.33279 0.60614 0.77715 0.73261 -1.2205 -0.71706 -0.66019 -0.60665 -0.090877 0.41686 
television -1.1001 1.1958 -0.47923 1.4115 -0.067702 -0.33152 -0.94676 -1.2107 0.63149 -0.22353 
election -0.87924 -0.78845 -0.20048 0.7687 -2.0762 -1.106 -0.99419 -0.30939 -0.69656 0.53522 
worked -0.70768 0.090765 -0.48306 0.83289 -0.56136 0.39843 -1.01 -0.72988 0.082808 -0.23457 
political -0.37382 0.028327 -1.0734 -0.039691 -0.79354 -0.80982 -1.2317 -0.89323 -0.56692 -0.056346 
championship -0.4652 0.89138 0.47575 1.3301 -2.3686 -1.2184 -0.26493 -0.16082 0.59666 -0.038168 
joined -0.7955 0.18509 -0.13266 0.76323 -1.3269 -0.045606 -0.86453 0.016343 0.076653 -0.15981 
level 0.51678 0.4632 0.49601 0.46337 -1.2752 -0.26095 -0.4567 -0.92826 -0.23738 0.12647 
married -1.0384 -1.4907 -0.15833 0.63045 -0.93448 -0.54174 -1.2415 -0.34707 0.54792 -1.0266 
england -0.070495 -0.45381 0.39983 0.50051 -1.5874 0.31912 -1.4716 -0.28592 0.37964 -0.28651 
field -0.12632 0.10958 0.4511 0.57349 -1.3829 0.19865 -0.25892 -0.86742 0.11216 0.11511 
production -0.56588 0.70851 0.20453 0.74954 -0.16394 0.16879 -0.42525 -1.2669 0.050473 -0.14091 
created -0.33653 0.28966 -0.15201 0.28954 -0.45608 0.3249 -0.79684 -0.75649 -0.061581 -0.32402 
association 0.28773 0.43123 -0.63992 1.1806 -1.0774 -0.16943 -1.0768 -0.68856 -0.225 0.24271 
business -0.52827 0.21369 -0.20701 1.0631 -0.28131 0.3442 -1.1892 -1.1849 -0.49901 0.27952 
program -0.34261 0.65 -0.40282 1.0651 -0.65323 0.00793 -0.68155 -1.1736 -0.26908 0.40121 
written -0.69905 0.0084046 -0.82102 0.29451 -0.27258 -0.28079 -0.50707 -1.2931 0.73082 -1.0108 
returned -0.95123 0.094575 0.29017 0.50883 -1.3159 -0.089669 -1.0189 0.048941 0.2828 -0.12609 
take -0.83002 0.040694 0.34997 0.046293 -0.65933 -0.3713 -0.83959 -0.70147 0.30404 0.05663 
described 0.028484 -0.57709 -0.27638 0.16416 -0.56209 -0.18473 -0.34156 -1.2046 0.62663 -0.76664 
works -0.15198 0.22816 -0.54973 0.21139 -0.35699 0.4987 -0.86202 -1.2031 0.13606 -0.82387 
founded -0.31351 0.22218 -0.64577 0.84295 -0.66794 0.32355 -1.2008 -0.4418 -0.32675 -0.50469 
site 0.10476 0.15416 0.66242 0.43451 -0.2994 0.50664 -1.156 -0.83513 -0.5776 -0.50166 
young -0.44626 -0.40854 -0.17065 0.42162 -0.42145 -0.4994 -1.1513 -0.74445 0.86969 -0.2775 
class -0.015287 0.37018 0.2566 0.4112 -1.3697 0.092059 -0.37627 -0.67715 0.0041652 -0.027336 
department -0.35558 0.17789 -0.44551 1.0052 -0.78293 0.47652 -1.3642 -0.87019 -1.4049 -0.047655 
union -0.26804 0.36539 -0.34994 0.38063 -1.3387 -0.23167 -1.3216 -0.25208 -0.69734 0.079358 
wrote -0.78939 -0.28425 -0.83771 0.30831 -0.40878 -0.069722 -0.71979 -1.1165 0.69971 -0.72817 
we -0.94178 -0.022919 0.0037343 -0.30747 -0.41986 -0.84325 -0.59566 -1.4368 0.65336 -0.40051 
without -0.55536 -0.050578 0.3348 -0.22561 -0.68218 -0.35597 -0.5119 -0.99589 0.11078 0.036384 
few -0.050875 0.23598 0.53019 0.021144 -0.60119 -0.27127 -0.99652 -0.65499 0.47251 -0.3007 
force -1.2302 0.4625 0.5849 -0.16073 -1.1305 -0.25545 -0.60771 -0.40783 -0.97392 -0.18817 
together -0.27478 0.027895 0.091112 0.026659 -0.55007 -0.12376 -0.69822 -0.70152 0.46355 -0.43209 
per 0.30699 0.67675 0.94068 0.98934 -1.0636 -0.77248 -0.36068 -0.90236 -0.03371 0.51648 
open -0.053538 0.6455 0.46378 0.43046 -0.78247 0.081471 -0.61969 -0.7757 0.20049 -0.075964 
society 0.25671 -0.1674 -0.90014 0.50003 -0.65406 0.14489 -1.3207 -1.0958 -0.36291 -0.2627 
story -0.772 -0.02558 0.067896 0.10118 -0.010044 0.078422 -0.85187 -1.2178 0.84212 -0.9494 
social 0.068725 0.030744 -1.0216 0.3466 -0.47261 -0.60981 -1.1139 -1.4429 -0.51191 0.10777 
short -0.12291 0.31273 0.39162 0.25704 -0.66085 -0.013893 -0.49566 -0.88342 0.75022 -0.47503 
radio -0.83388 1.3756 -0.15414 1.3481 -0.24927 0.041228 -0.68355 -1.0712 0.18086 -0.11466 
royal -0.61301 0.068186 -0.065673 0.17455 -1.2671 0.82945 -1.3838 -0.34278 -0.34383 -0.68888 
days -0.66466 0.32747 0.62434 0.17373 -0.81271 -0.56592 -1.0302 -0.31795 0.47819 -0.091756 
run -0.68648 0.30233 0.65356 0.82019 -0.90354 -0.079899 -0.67757 -0.55261 0.35519 0.21664 
lost -0.67925 0.067295 0.44755 0.18051 -1.2479 -0.64463 -0.70607 -0.13834 0.5939 -0.11683 
though -0.29706 -0.021209 0.24536 -0.16804 -0.61394 -0.34421 -0.73067 -0.83604 0.37366 -0.25622 
right -0.45529 -0.39642 0.56205 -0.16232 -1.1924 -0.30502 -0.49794 -0.65201 0.23333 -0.11213 
continued -0.54129 0.24954 0.09059 0.14061 -0.8016 0.022182 -0.96746 -0.46254 0.042523 -0.05406 
round -0.42022 0.4584 0.8978 0.75629 -1.8755 -0.75491 -0.1735 -0.30296 0.84685 -0.17732 
northern 0.42389 0.34699 0.9207 0.43469 -0.99435 -0.36844 -1.5719 0.060844 -0.49926 -0.60193 
project -0.58602 0.60863 -0.084698 0.58681 -0.29367 0.25337 -0.69938 -1.0457 -0.36483 -0.0525 
further -0.22725 0.083529 0.31928 -0.050468 -0.76121 -0.1538 -0.69005 -0.75997 -0.21367 0.0074952 
act -0.50725 -0.2909 -0.11086 0.20381 -0.68527 -0.23671 -0.99465 -0.96183 -0.61854 0.3777 
full -0.3396 0.41953 0.1234 0.27746 -0.87111 0.089988 -0.50636 -0.911 0.35543 -0.065706 
live -0.42241 0.68831 0.23898 0.71819 -0.086532 -0.419 -1.0086 -0.89373 0.95245 -0.28535 
version -0.92103 1.1275 -0.043613 0.35373 -0.42561 0.0026127 0.0331 -1.3378 0.60444 -0.87812 
professional -0.29123 0.52432 -0.57448 1.1745 -1.5801 -0.61753 -0.65229 -0.44162 0.46593 0.054151 
half -0.23253 0.11664 0.78171 0.17961 -1.1662 -0.25064 -0.66188 -0.45002 0.68909 -0.30741 
european 0.35871 0.90565 -0.44482 0.25574 -1.3477 -0.37742 -0.90009 -0.55366 -0.084599 -0.19432 
india 0.22924 0.34536 -0.13028 0.99738 -0.25949 -1.1623 -1.8654 -0.36818 -0.65823 0.096783 
every -0.14296 0.43282 0.26326 0.23851 -0.77389 -0.39042 -0.72087 -0.84242 0.57814 0.028063 
australia 0.20322 0.51954 0.35093 0.97986 -0.99187 -0.22144 -1.4248 -0.29046 0.21265 -0.024938 
summer -0.021657 0.85483 0.47435 0.71682 -1.1802 -0.38516 -0.96815 -0.20649 0.75327 -0.31609 
board -0.57678 0.025671 -0.21209 0.99423 -0.98092 0.3101 -0.98022 -0.78625 -0.80189 0.36269 
elected -0.51488 -0.82282 -0.58729 0.89899 -1.9822 -0.62875 -1.2884 -0.20852 -0.7379 0.12341 
opened -0.47918 0.43754 0.64337 0.96395 -0.77805 0.76389 -1.1626 -0.43814 -0.1518 -0.36444 
position -0.5611 -0.081563 0.082388 0.040371 -1.4573 -0.16344 -0.46667 -0.55726 -0.12728 0.026359 
services -0.39708 0.49819 0.09922 0.92825 -0.50038 0.3625 -1.1154 -1.1083 -1.1032 0.37708 
southern 0.4812 0.43961 0.82945 0.57754 -0.82771 -0.2904 -1.5627 -0.051964 -0.3585 -0.54203 
recorded -0.24634 0.35578 0.24707 0.72621 -0.7165 -0.16948 -0.61498 -0.7264 1.1926 -0.54283 
free -0.40105 0.3339 0.12021 0.40616 -0.68703 -0.15048 -0.63185 -0.87431 0.049876 0.27071 
france -0.64962 0.8988 -0.17443 -0.19445 -1.3754 0.34442 -1.2437 -0.050087 -0.25841 -1.0494 
considered 0.18551 0.0051921 -0.09715 -0.048028 -0.50574 -0.46858 -0.71374 -0.93336 0.16581 -0.2983 
control -0.62858 0.27361 0.46682 -0.14219 -0.63586 -0.29393 -0.55191 -0.87106 -0.88995 0.045667 
win -0.71207 0.28291 0.55269 0.90215 -1.9973 -1.1516 -0.48468 -0.12687 0.89476 0.048727 
william -1.1463 -1.3814 0.054386 0.75619 -1.1103 0.76602 -1.0046 -0.85097 0.032702 -0.79695 
making -0.30124 0.33716 0.27907 0.28034 -0.59759 -0.26031 -0.68334 -0.82914 0.43182 0.070523 
match -0.68817 0.43627 0.57853 0.62665 -1.8089 -1.1758 -0.3842 -0.12685 0.84292 -0.073914 
working -0.57208 0.16815 -0.24477 0.59215 -0.42776 0.1881 -0.9392 -0.94695 0.088154 -0.0026194 
once -0.52806 0.023579 0.57686 0.019843 -0.72459 -0.30885 -0.85655 -0.42508 0.41521 -0.25612 
event -0.23605 0.94889 0.11653 0.53938 -1.1827 -0.58849 -0.5771 -0.46018 0.6059 -0.055351 
la -0.77175 1.2757 -0.12516 0.54731 -0.56417 0.30827 -1.1075 -0.12939 0.25291 -1.7758 
language 0.55431 0.80906 -1.0565 0.0085731 -0.22703 -0.99551 -0.98642 -1.2535 -0.277 -0.88231 
design -0.38842 0.51896 -0.063753 0.38457 -0.70726 0.95275 -0.26669 -1.6007 -0.28381 -0.52664 
important 0.46316 0.20341 -0.14484 -0.010036 -0.43243 -0.23826 -0.96788 -1.0128 -0.26336 -0.42444 
red -0.0035793 0.28672 1.1316 0.51628 -0.53736 -0.15248 -0.53943 -0.69706 0.81669 -0.62516 
america 0.049392 0.87267 -0.077817 0.74947 -0.5206 -0.20427 -1.4639 -0.52045 0.33665 -0.21804 
signed -1.0175 0.48006 -0.087268 0.95855 -1.541 -0.34639 -0.60659 -0.05184 0.17677 0.12211 
california -0.18849 0.26802 0.31696 1.6049 -0.44105 0.19147 -1.6761 -0.50566 0.0085419 -0.11802 
present 0.30614 -0.10352 0.35915 0.0027237 -0.54965 -0.28979 -0.9948 -0.60816 -0.10188 -0.36834 
appeared -0.70991 0.45196 -0.18452 0.66004 -0.56153 -0.15548 -0.69628 -0.76019 1.0344 -0.47153 
post -0.48101 0.10647 -0.24458 0.5097 -0.78361 0.28514 -1.0136 -0.71404 -0.093536 0.049788 
re -0.92203 0.29615 0.051024 0.31959 -0.85452 -0.042007 -0.69556 -0.66605 0.33937 0.063963 
formed -0.0036956 0.35147 0.26091 0.30937 -0.86772 0.046277 -0.74031 -0.40387 -0.25177 -0.28515 
wife -1.2259 -1.3506 0.02811 0.32579 -0.60099 -0.37412 -1.3042 -0.44264 0.48386 -0.98351 
san -0.51017 0.85382 0.34249 1.1072 -0.75768 0.059241 -1.7474 0.21324 0.38791 -1.0238 
video -1.2425 1.2996 -0.1925 0.9274 -0.05302 -0.39094 -0.26093 -1.5969 0.78549 -0.45988 
lead -0.68964 -0.053212 0.32052 0.65424 -0.71067 -0.65575 -0.27448 -0.8025 0.75794 0.064168 
special -0.53878 0.51957 -0.20415 0.38858 -0.63604 0.16134 -0.72001 -0.91732 0.0041085 0.010777 
hall -0.11256 -0.158 0.26195 1.1489 -0.93896 0.88421 -1.2737 -0.69188 0.62104 -0.4946 
appointed -1.1435 -0.62488 -0.67732 0.62923 -1.6048 -0.040102 -1.2692 -0.17211 -0.90037 -0.30567 
living 0.23585 -0.40387 0.31078 0.27509 -0.24473 -0.42871 -1.5236 -0.7402 0.34713 -0.26729 
common 0.68915 -0.0686 0.34803 0.10986 -0.28193 -0.47754 -0.60561 -1.2363 0.0022343 -0.43608 
similar 0.16249 0.32694 0.27844 -0.021305 -0.41934 -0.20083 -0.26841 -1.1967 0.10029 -0.46369 
george -0.99391 -1.0029 -0.033327 0.751 -1.0936 0.51134 -0.94009 -0.6983 0.3481 -0.64344 
james -1.1741 -1.0115 0.053089 0.93161 -0.95507 0.50079 -0.86223 -0.79334 0.4564 -0.56324 
others -0.36632 -0.16624 -0.075569 0.019337 -0.33663 -0.287 -0.75136 -0.82109 0.22702 -0.331 
developed -0.14952 0.48264 0.027441 0.3364 -0.36259 0.24493 -0.35324 -1.1742 -0.31858 -0.31642 
areas 0.78409 0.2172 0.88961 0.41301 -0.31619 -0.36854 -1.3212 -0.92476 -0.79686 -0.20987 
debut -0.70121 0.76247 0.036618 1.0725 -1.32 -0.8554 -0.50646 -0.33232 1.3445 -0.50443 
canada -0.10928 0.67917 -0.062439 0.9855 -1.0002 0.14571 -1.4432 -0.36921 -0.18305 0.013832 
minister -1.407 -0.54648 -1.0583 0.66002 -1.1627 -0.76469 -1.479 -0.36906 -1.3538 -0.11857 
average 0.74531 0.32465 0.95951 1.5643 -1.2346 -1.3548 -0.3685 -1.2051 0.15686 0.55457 
railway -0.06607 0.27864 1.398 1.1681 -1.1025 0.47767 -1.0625 -0.30954 -1.4225 -0.50035 
originally -0.37445 0.45505 0.26448 0.44622 -0.46964 0.43428 -0.78338 -0.63329 0.2396 -0.66124 
release -1.1261 0.97581 0.00018006 0.50097 -0.42926 -0.57665 -0.33895 -1.1071 0.61871 -0.16712 
playing -0.27035 0.35769 0.13515 0.81412 -1.2548 -0.46676 -0.51703 -0.53272 1.1839 -0.24005 
rock -0.008079 0.7861 0.6435 0.74875 -0.093957 -0.099848 -0.72257 -1.0491 1.0528 -1.0122 
race -0.45339 0.49944 0.52532 0.45253 -1.425 -0.45404 -0.4095 -0.38398 0.72213 -0.058537 
police -1.4897 -0.063557 0.28742 0.35538 -0.42533 -0.33017 -1.2988 -0.42751 -0.67307 0.18627 
modern 0.24755 0.61143 -0.14321 -0.14929 -0.29548 0.10292 -1.0258 -0.87291 -0.25353 -0.79992 
battle -1.1015 0.18754 0.94998 -0.51992 -1.1168 -0.5275 -0.98133 0.23059 -0.096244 -0.941 
case -0.59223 -0.38179 -0.033502 -0.13477 -0.79585 -0.31087 -0.31072 -1.1447 -0.2566 -0.00082889 
term -0.03004 -0.20955 -0.25629 0.025466 -0.90306 -0.39907 -0.57649 -0.96007 -0.21017 -0.044232 
addition -0.0055495 0.35806 0.089065 0.40642 -0.57536 0.17832 -0.51172 -1.0292 0.016907 -0.084135 
forces -1.2148 0.54978 0.4771 -0.62734 -1.0967 -0.74593 -0.97896 -0.1613 -1.187 -0.57188 
popular 0.0082301 0.72434 -0.27129 0.4946 -0.10695 -0.42731 -1.1338 -0.82551 0.56415 -0.37967 
result -0.22805 -0.051426 0.31396 -0.09895 -0.91428 -0.61086 -0.4079 -0.87504 -0.17577 0.14964 
teams 0.042904 0.81392 0.44795 0.98721 -1.9005 -1.0532 -0.54317 -0.47383 0.44298 0.21667 
how -0.65513 -0.22805 -0.15019 -0.12446 -0.10696 -0.6355 -0.65176 -1.592 0.33692 -0.24635 
records -0.63883 0.84452 -0.010236 0.67025 -0.4672 0.022483 -0.67274 -0.85452 0.7446 -0.36536 
upon -0.55054 -0.21252 0.18648 -0.15086 -0.66666 -0.038759 -0.82243 -0.73281 0.055809 -0.14202 
example 0.078152 0.10506 -0.03445 -0.078702 -0.41623 -0.11061 -0.32346 -1.2912 -0.081622 -0.4998 
himself -1.1464 -0.4795 -0.075021 -0.31343 -0.5443 -0.40181 -0.8508 -0.65658 0.39522 -0.55725 
list 0.13848 0.5722 -0.3285 0.42083 -1.0113 -0.30096 -0.78053 -0.8024 0.39065 0.0052051 
health -0.13379 -0.6189 -0.22024 1.0876 -0.43195 -0.54937 -1.2215 -1.5604 -0.94961 0.67518 
little -0.28692 -0.11121 0.59333 0.16651 -0.24405 -0.16356 -0.93027 -0.84049 0.60641 -0.40789 
construction -0.31694 0.36207 0.63995 0.32238 -0.63692 0.72086 -0.94 -0.90366 -0.84989 -0.32406 
never -0.92245 -0.074668 0.18318 -0.14739 -0.72746 -0.43815 -0.77758 -0.7901 0.64039 -0.24534 
seven -0.079374 0.33949 0.44664 0.37386 -1.1404 -0.24275 -0.84579 -0.38819 0.71091 -0.13358 
eastern 0.58734 0.42238 0.84272 0.31752 -0.9297 -0.37146 -1.5871 -0.034845 -0.54386 -0.67408 
good -0.48671 -0.10771 0.18278 0.16856 -0.27654 -0.45713 -0.80243 -1.1162 0.67153 -0.10559 
currently 0.13363 0.58047 -0.16773 1.0662 -0.97086 -0.045994 -0.74775 -0.56835 -0.095544 -0.0094409 
points -0.18836 0.20078 0.65483 0.62299 -1.8988 -0.77785 0.12857 -0.82843 0.63082 0.08957 
throughout 0.19405 0.60208 0.1994 0.21167 -0.54658 -0.26559 -1.2355 -0.66839 0.3614 -0.2044 
songs -0.45996 0.78218 -0.28077 0.60683 -0.16138 -0.83589 -0.58252 -1.4062 1.4931 -1.032 
science 0.23985 0.15783 -1.1877 1.1292 -0.6172 0.20604 -0.83185 -1.8325 -0.40503 -0.26166 
mother -0.8491 -1.0417 0.013167 0.15781 -0.2419 -0.6844 -1.3783 -0.62167 0.63611 -0.81675 
across 0.23874 0.6449 0.84558 0.35586 -0.4629 -0.07328 -1.1314 -0.57612 -0.098169 -0.23749 
formula -0.10884 0.41172 0.22637 -0.13525 -2.2188 -0.62247 1.1819 -2.1322 -0.35056 -0.87005 
human 0.0434 -0.26318 -0.31519 0.018475 -0.12141 -0.90787 -0.67007 -1.5704 -0.49564 -0.093971 
chief -1.3808 -0.32887 -0.49727 0.62786 -0.79804 -0.11035 -1.1958 -0.39005 -0.96631 -0.22938 
al -1.0432 0.1964 -0.46315 0.088015 -0.3844 -1.7663 -0.85046 -0.32502 -0.98266 -0.74837 
museum 0.1265 0.42814 -0.22592 0.86843 -0.58336 1.0519 -1.4261 -0.86295 -0.32194 -1.041 
body -0.030144 -0.23807 0.57137 -0.083939 -0.59853 -0.21356 -0.41948 -1.1288 0.026229 -0.29029 
training -0.55426 0.4327 -0.0018304 0.61685 -1.0488 0.261 -0.84407 -0.72404 -0.57952 0.32361 
events 0.059486 0.87429 -0.16708 0.32518 -0.71902 -0.54477 -0.90949 -0.78588 0.56217 -0.10096 
lake 0.1947 -0.04247 1.6337 1.0253 -0.27983 -0.0094985 -1.3241 -0.40936 -0.34007 -0.81844 
germany -0.24477 0.67037 -0.22883 -0.22242 -1.8393 0.30042 -0.86743 -0.25038 -0.56127 -0.72302 
away -0.5771 0.061591 1.1312 0.17754 -0.71646 -0.66906 -0.83805 -0.25261 0.47746 -0.22644 
indian 0.11151 0.23186 -0.23754 1.0085 -0.089698 -1.0194 -1.8534 -0.38888 -0.38682 -0.072454 
schools 0.67353 -0.057233 -0.22763 1.0636 -0.87363 -0.075888 -1.5385 -0.92846 -0.4107 0.16775 
see -0.33448 -0.084518 0.094155 -0.26694 -0.58734 -0.1775 -0.64707 -0.88155 0.27876 -0.39654 
sold -0.85127 0.77458 0.42844 0.87588 -0.34542 0.59179 -0.89228 -0.74853 0.031405 -0.15942 
despite -0.55238 -0.060434 0.15464 -0.055008 -0.92512 -0.66549 -0.66496 -0.6526 0.38814 0.12855 
australian -0.22725 0.40103 -0.16759 0.93326 -1.1838 0.033747 -1.0281 -0.43546 0.37449 -0.029659 
style 0.002834 0.48765 -0.05283 -0.057468 -0.25835 0.4364 -0.75464 -1.2797 0.62987 -1.1735 
o -0.89719 -0.35648 0.13504 0.91951 -0.73476 -0.166 -0.072171 -0.87963 0.43644 -0.49856 
eventually -0.89732 0.037902 0.3836 0.10112 -0.68609 -0.2073 -0.89146 -0.38661 0.21077 -0.12786 
sea 0.12055 0.45551 1.6611 0.028482 -0.57148 -0.65293 -0.9229 -0.28811 -0.25761 -0.96184 
love -1.0048 -0.14026 -0.057136 0.23586 0.10131 -1.0085 -0.93216 -1.1414 1.2374 -0.81595 
route -0.24244 0.32851 1.6463 0.99819 -0.94661 0.23945 -0.98604 -0.38556 -0.8294 -0.41182 
information -0.48232 0.30282 -0.38508 0.21801 -0.22818 -0.17678 -0.58108 -1.7599 -0.8753 0.029774 
committee -0.51486 0.022998 -0.81985 0.76469 -1.2642 -0.31454 -1.1597 -0.72597 -1.2492 0.35721 
available -0.27367 1.0694 0.31918 0.68768 -0.25853 0.033376 -0.40682 -1.4709 -0.1898 0.0030715 
tour -0.76393 1.1648 0.14158 0.79295 -1.0112 -0.33618 -0.83012 -0.41351 1.0207 -0.42179 
media -0.68304 0.82079 -0.71103 0.81144 -0.06858 -0.34498 -0.86454 -1.3529 -0.15732 0.14106 
province 0.16401 0.56455 0.41784 0.27517 -1.0844 -1.2373 -1.8978 0.33918 -1.5938 -1.3864 
track -0.44389 0.88533 0.67096 0.82263 -0.72945 -0.022095 -0.3092 -0.93809 0.86509 -0.35948 
designed -0.65994 0.25715 0.23266 0.35071 -0.57852 1.0564 -0.32341 -1.2712 -0.24632 -0.59736 
centre 0.375 0.32306 0.21966 0.85084 -0.87063 0.54263 -1.1493 -0.57886 -0.4906 -0.28746 
daughter -1.1721 -1.5631 0.097836 0.3163 -0.66649 -0.53284 -1.2601 -0.40562 0.42849 -1.2755 
less 0.15511 0.12235 0.70326 0.04093 -0.64253 -0.62514 -0.41906 -1.1835 0.19508 -0.044203 
months -0.77209 0.15081 0.60019 0.21445 -1.0496 -0.56968 -1.0031 -0.33162 0.34967 0.060725 
gave -0.68537 -0.108 -0.25289 0.25631 -0.78263 -0.18067 -0.70927 -0.72291 0.64713 -0.10024 
light -0.36082 0.51256 0.9496 -0.080535 -0.65104 0.071892 -0.12384 -1.0657 0.1355 -0.59709 
followed -0.35627 0.30494 0.13728 0.13891 -0.83735 -0.056607 -0.65137 -0.49026 0.37675 -0.28693 
current -0.10817 0.31935 0.048562 0.51217 -0.84833 0.11503 -0.55907 -0.835 -0.29816 0.040644 
brother -1.3581 -1.0217 -0.063758 0.21179 -0.80905 -0.60289 -1.0905 -0.27387 0.4404 -0.97978 
players -0.4218 0.42368 0.11075 0.65673 -1.2883 -0.80437 -0.41053 -0.77655 0.76087 0.24999 
taken -0.62757 -0.038098 0.32879 -0.14204 -0.60695 -0.055194 -0.88062 -0.61486 0.035693 -0.27403 
finished -0.35718 0.39133 0.60687 0.80859 -2.0301 -0.4307 -0.27874 -0.32659 0.89979 -0.27729 
character -0.96804 0.009449 -0.23651 0.13257 -0.077743 -0.4689 -0.37429 -1.3628 0.82162 -0.74253 
census 1.1779 -0.33388 0.41539 1.266 -0.96678 -1.6961 -1.7043 -0.53649 -1.0973 -0.095198 
g -0.23874 -0.077715 -0.012215 0.52852 -0.71122 -0.05653 0.27802 -1.3668 -0.21504 -0.44703 
performed -0.41463 0.47806 -0.22032 0.5522 -0.53869 -0.089635 -0.56985 -0.85998 0.93866 -0.55222 
should -0.54898 -0.34697 0.074422 -0.29837 -0.55766 -0.53221 -0.67294 -1.221 -0.12085 -0.014386 
range 0.51862 0.76238 0.89687 0.45041 -0.5364 -0.17419 -0.40774 -1.1211 -0.36087 -0.35732 
coach -0.90855 -0.19998 0.22062 1.7331 -1.9706 -0.66663 -0.4737 -0.25947 0.44421 0.073059 
largest 0.4475 0.83863 0.41507 0.75524 -0.57009 -0.008827 -1.2392 -0.51195 -0.44537 -0.2059 
festival 0.12519 1.0969 -0.36041 1.1113 -0.49308 -0.062475 -1.4126 -0.46873 0.8144 -0.82302 
go -1.0803 0.1534 0.54262 0.31007 -0.40235 -0.54835 -0.80971 -0.68265 0.6779 -0.038229 
fire -1.1352 0.31692 1.189 -0.02774 -0.35697 0.045044 -0.8134 -0.68413 -0.24805 -0.36572 
star -0.59632 0.73994 0.2257 0.75846 -0.70047 -0.29475 -0.29051 -0.76145 0.85618 -0.37243 
europe 0.15876 1.1152 -0.042622 0.16306 -0.83625 -0.21006 -1.2759 -0.48046 0.019891 -0.48575 
completed -0.29358 0.23597 0.28506 0.65862 -1.2202 0.66597 -0.69366 -0.65686 -0.046925 -0.16494 
eight -0.12459 0.47524 0.55787 0.3654 -1.3116 -0.17254 -0.69964 -0.43433 0.65434 -0.13884 
study 0.4493 -0.24062 -0.56357 0.40021 -0.72801 -0.046676 -0.68316 -1.4372 -0.31467 -0.17434 
official -0.61479 0.81215 -0.60956 0.24001 -0.79991 -0.26179 -0.97724 -0.53823 0.0080157 -0.14304 
network -0.54994 1.3389 0.072963 1.1253 -0.23456 -0.0375 -0.67445 -1.1853 -0.49042 0.23002 
stage -0.25381 0.5637 0.192 0.37557 -0.87869 -0.23541 -0.36582 -0.75585 0.83897 -0.45616 
performance -0.42614 0.47639 -0.2602 0.631 -0.75991 -0.1394 -0.2243 -1.2765 0.74165 -0.025795 
china -0.41408 1.342 -0.0034311 0.24376 -0.2839 -0.66418 -1.6294 -0.30718 -0.75146 -0.42439 
institute 0.23905 0.011122 -1.0564 1.4475 -0.93221 0.23551 -1.0826 -1.2326 -1.0242 -0.16261 
night -1.1254 0.54232 0.67932 0.4295 -0.35391 -0.36608 -0.97581 -0.4905 0.9339 -0.36795 
remained -0.42785 0.14421 0.26479 -0.0011725 -1.1153 0.057536 -1.0191 -0.26198 -0.064697 -0.22269 
rights -0.59641 0.087111 -0.70863 0.36086 -0.57429 -0.61704 -1.3264 -0.99218 -0.58827 0.38412 
front -0.53321 0.51447 0.86131 -0.20685 -1.0076 0.20843 -0.5795 -0.47107 0.18545 -0.58815 
return -1.0121 0.0236 0.38183 0.10752 -0.85507 -0.37348 -0.88061 -0.36043 0.3245 0.03969 
space -0.31301 0.66445 0.37656 0.22423 -0.62004 0.58422 -0.23466 -1.485 -0.29522 -0.41013 
help -0.91275 -0.19206 0.19894 0.14179 -0.1811 -0.43779 -0.91572 -0.90535 -0.0015509 0.13373 
does -0.42293 -0.23026 0.11563 -0.13621 -0.34138 -0.62242 -0.34177 -1.4318 0.11353 -0.14526 
arts 0.31144 0.47357 -1.079 1.384 -0.72226 0.51822 -1.348 -1.2628 -0.026398 -0.5945 
low 0.17661 0.30825 1.0664 0.45291 -0.57952 -0.46727 -0.26744 -1.3126 -0.25753 0.15732 
process -0.27102 0.11928 0.086039 0.010849 -0.51991 -0.24474 -0.21593 -1.4693 -0.54207 0.035518 
features -0.046861 0.71474 0.25279 0.50447 -0.17725 0.20251 -0.30586 -1.4646 0.65372 -0.70566 
tv -1.3179 1.4234 -0.16619 1.5827 0.11249 -0.46426 -0.75236 -1.0831 0.44049 -0.1314 
leading -0.21296 0.10664 0.040908 0.32278 -0.90499 -0.21856 -0.66708 -0.5651 0.27473 0.069804 
reported -0.48388 0.066182 0.15583 0.40988 -0.52205 -0.50896 -0.80522 -0.64758 -0.16773 0.27579 
david -1.2541 -0.70673 -0.34555 0.93035 -0.84667 0.21009 -0.54646 -0.87167 0.61294 -0.53069 
directed -1.311 0.18719 -0.73643 0.91823 -0.093466 -0.4308 -0.60178 -1.0029 0.53024 -0.83959 
r -0.5511 0.037508 -0.23783 0.86764 -0.81684 -0.033323 0.16656 -1.1763 0.18543 -0.46147 
episode -1.4162 0.41961 0.14583 0.76267 -0.34228 -0.65494 -0.49698 -1.1421 1.278 -0.37234 
featured -0.65663 0.83974 0.047149 0.88476 -0.40229 -0.0012228 -0.46259 -1.0597 1.1608 -0.62409 
instead -0.61449 0.13594 0.36496 -0.095051 -0.5656 -0.17038 -0.42704 -0.88039 0.14044 -0.16555 
private -0.3556 0.12162 -0.11008 0.73729 -0.33234 0.46049 -1.414 -0.95097 -0.60826 0.11019 
uk -0.462 0.95828 -0.18336 0.8262 -0.75648 0.048457 -0.8887 -0.8267 0.29073 0.065654 
seen -0.10332 0.11092 0.36393 -0.068483 -0.33714 -0.33724 -0.71603 -0.98162 0.45306 -0.40796 
includes 0.52246 0.52013 0.16874 0.5947 -0.27613 0.2194 -0.77378 -1.0311 0.17156 -0.40408 
fourth -0.46188 0.37775 0.34189 0.49443 -1.5521 -0.33946 -0.52994 -0.32551 0.86495 -0.26561 
p -0.27598 -0.083663 0.13919 0.94924 -0.71884 -0.14413 0.21025 -1.1444 -0.16294 -0.36134 
get -1.2266 -0.14427 0.5452 0.27058 -0.26983 -0.74069 -0.77183 -1.0122 0.62918 0.052646 
middle 0.61013 0.075678 0.51177 0.16985 -0.90389 -0.091417 -1.1215 -0.55394 0.2392 -0.60847 
usually 0.24251 0.19952 0.65834 0.02888 -0.40137 -0.37676 -0.3389 -1.2443 0.20862 -0.36513 
academy 0.0012488 0.26019 -0.94803 1.142 -1.3689 0.34192 -1.1874 -0.68259 -0.082788 -0.39346 
ten -0.16292 0.49015 0.36993 0.4626 -1.1496 -0.27395 -0.81254 -0.50557 0.70362 -0.065302 
studies 0.67192 -0.26031 -0.89491 0.62506 -0.92547 -0.09559 -0.7522 -1.4825 -0.45456 -0.23595 
families 0.52594 -0.54515 0.23577 0.16674 -0.51569 -0.85723 -1.6282 -0.63099 -0.17949 -0.18923 
civil -0.50581 -0.24763 -0.27453 0.039993 -1.0542 -0.043695 -1.6031 -0.42502 -0.93984 -0.11154 
groups 0.47974 0.49954 -0.17715 -0.11642 -0.65237 -0.85733 -0.83865 -0.89574 -0.2881 -0.21023 
must -0.51609 -0.089672 0.23696 -0.19655 -0.63814 -0.48048 -0.41116 -1.3165 -0.074929 0.048002 
washington -0.76242 -0.024807 0.17804 1.4279 -0.99499 0.50606 -1.3682 -0.5775 -0.074117 0.10254 
thus -0.10235 0.025575 0.27168 -0.33676 -0.75907 -0.48471 -0.42129 -0.84813 -0.18908 -0.21586 
tournament -0.2208 0.99885 0.29021 1.3028 -1.9766 -1.5172 -0.55568 -0.22136 0.72575 -0.013223 
news -1.209 0.88754 -0.46189 1.1724 -0.054631 -0.31524 -1.1594 -0.98959 0.15134 0.1906 
my -1.2008 0.0072744 0.087117 0.14695 -0.034029 -0.65501 -0.83891 -1.2613 1.0579 -0.65452 
federal -0.67756 -0.065084 -0.11572 0.6507 -1.1979 -0.24551 -1.2034 -0.63091 -1.4269 0.5081 
type 0.16088 0.37726 0.58293 -0.035242 -0.56891 -0.15103 0.18978 -1.4096 -0.4135 -0.69501 
competition 0.037029 0.87954 -0.07058 0.75485 -1.4782 -0.58591 -0.49857 -0.56689 0.53632 0.037072 
able -0.80328 0.029555 0.48723 -0.16344 -0.58697 -0.54062 -0.51412 -0.90404 0.027435 0.025204 
close -0.25636 -0.095619 0.57806 0.04839 -0.68207 -0.12931 -0.85231 -0.4942 0.13205 -0.32269 
involved -0.48828 0.011707 -0.076888 0.16798 -0.5264 -0.27923 -0.76278 -0.85138 -0.2693 0.15228 
car -1.3953 0.65576 1.1454 0.67142 -0.82265 0.2888 -0.15922 -0.89461 0.17698 -0.15559 
j -1.0778 -0.49719 -0.15642 1.1742 -0.95052 0.37783 -0.165 -1.0483 0.14237 -0.47078 
today 0.27327 0.43764 0.097433 0.22968 -0.41961 0.15248 -1.125 -0.71779 -0.017158 -0.5364 
gold 0.030858 0.93659 0.4875 0.6125 -0.99896 -0.081918 -0.54293 -0.50577 0.68828 -0.49694 
magazine -0.75542 0.82713 -0.80788 0.88012 -0.27301 0.091833 -0.69649 -1.2962 0.61799 -0.45394 
studio -0.91813 0.93322 0.013053 0.92041 -0.36617 0.18198 -0.61659 -1.0591 0.99351 -0.80982 
awarded -0.39199 0.35174 -0.78921 0.8481 -1.5469 0.071469 -0.54924 -0.64082 0.21815 -0.071831 
week -0.72172 0.68453 0.40755 0.87556 -1.028 -0.52286 -0.87779 -0.5672 0.84867 0.21588 
added -0.17313 0.33849 0.43927 0.42758 -0.68513 0.41335 -0.47964 -0.98415 0.30917 -0.20077 
thomas -0.89847 -1.1801 -0.018332 0.72488 -1.1737 0.61709 -0.85712 -0.79292 0.35139 -0.67375 
action -0.89745 0.40877 -0.073754 -0.027016 -0.57617 -0.54031 -0.47578 -0.91036 -0.060451 0.037312 
either -0.051732 0.090504 0.55304 -0.17612 -0.71097 -0.24216 -0.38286 -0.98612 -0.031708 -0.23112 
independent -0.15557 0.41791 -0.46205 0.50232 -0.85671 -0.050889 -0.92635 -0.72724 -0.23023 0.10502 
robert -1.278 -0.97213 -0.20857 0.80675 -1.0287 0.598 -0.62272 -0.90854 0.27667 -0.70021 
sent -1.1715 0.036699 0.23844 -0.1244 -0.83355 -0.11403 -1.0886 -0.11125 -0.20294 -0.29666 
countries 0.31019 1.2521 -0.24091 0.2005 -0.71508 -1.0753 -1.3783 -0.83476 -0.51942 -0.03124 
aircraft -1.5482 1.1303 1.2511 0.14053 -1.1308 0.16182 -0.084476 -0.98328 -1.2476 -0.44188 
l -0.617 0.39199 -0.13072 0.5864 -0.84603 0.58288 0.034342 -0.95101 -0.21434 -1.0493 
degree 0.56362 -0.52071 -0.71307 1.0775 -1.5453 0.041045 -0.58153 -1.4803 -0.35131 0.038744 
campaign -1.1015 0.35364 -0.13504 0.18483 -0.97523 -0.50797 -1.058 -0.25796 -0.15327 0.21368 
section 0.21684 0.22325 0.47645 0.3664 -0.92833 0.43134 -0.67167 -0.77938 -0.31901 -0.26614 
bank -0.48557 0.40237 0.47729 0.80057 -0.56121 0.080467 -1.259 -0.37242 -1.0025 0.050368 
winning -0.36856 0.4167 -0.025485 1.0095 -1.8149 -0.77132 -0.43578 -0.43328 1.068 -0.084269 
soon -1.0942 -0.065945 0.35196 -0.018619 -0.60017 -0.14243 -1.029 -0.3934 0.1897 -0.29263 
canadian -0.56286 0.6425 -0.31195 0.92688 -1.0468 0.30877 -1.0921 -0.45229 0.12524 -0.10826 
previous -0.51266 0.37859 0.10479 0.17135 -1.0135 -0.30963 -0.50644 -0.69633 0.56204 -0.023934 
green 0.11047 -0.15971 0.98892 0.8334 -0.57191 0.15165 -0.63956 -0.9056 0.69044 -0.38481 
movement -0.072392 0.32299 -0.61916 -0.28622 -0.57075 -0.55234 -0.99295 -0.82188 -0.30782 -0.32985 
charles -1.2539 -0.93428 -0.12295 0.44327 -1.0923 0.74653 -0.97557 -0.65634 0.089852 -0.93436 
capital -0.14887 0.55722 0.1953 0.32822 -0.62255 -0.40713 -1.5337 -0.070113 -1.1636 -0.2638 
japanese -1.0328 1.5073 -0.0090361 -0.1908 -0.15518 -0.49664 -1.0807 -0.47332 -0.13676 -0.6905 
conference 0.017882 0.49163 -0.22302 1.1932 -1.5657 -0.51244 -1.1369 -0.39613 0.12547 0.39197 
above 0.43533 0.14837 1.1247 -0.017989 -0.94973 0.029664 -0.37664 -1.0299 0.028064 -0.70144 
provided -0.39088 0.29179 0.15288 0.33678 -0.51005 0.33005 -0.68339 -1.0492 -0.33084 0.073319 
replaced -0.88377 0.23951 0.4428 0.37253 -1.0005 0.34622 -0.22706 -0.52006 0.086312 -0.36275 
chinese -0.40107 1.0999 -0.43673 -0.047481 0.095874 -0.57617 -1.4844 -0.63922 -0.37206 -0.76727 
model -0.43564 0.61469 -0.096612 0.32912 -0.71897 0.25358 0.092218 -1.4257 -0.17778 -0.30323 
kingdom -0.17551 0.42668 -0.096894 -0.14654 -0.931 -0.31327 -1.6314 -0.044859 -0.23906 -0.57699 
paul -1.0088 -0.59931 -0.36816 0.63563 -1.0721 0.4697 -0.59522 -0.74835 0.5528 -0.75618 
organization -0.32116 0.51259 -0.73361 0.57878 -0.61982 -0.44982 -1.1282 -0.86399 -0.76981 0.23114 
lower 0.67361 -0.091245 1.084 0.24032 -1.1189 -0.20281 -0.52066 -0.84804 -0.36386 -0.16831 
professor -0.16058 -0.76504 -1.3429 1.2923 -1.2859 0.16946 -0.90515 -1.2018 -0.48103 -0.60679 
russian -0.5207 0.75341 -0.81657 -0.4234 -1.4479 -0.48624 -0.79254 -0.27127 -0.49031 -0.81631 
ground -0.015568 0.19045 1.361 0.21546 -0.73284 -0.09357 -0.71442 -0.64938 0.10418 -0.29342 
killed -1.5326 -0.38821 0.93581 -0.27221 -0.56003 -1.0551 -1.1778 -0.021075 -0.081209 -0.533 
change -0.18804 0.23462 0.063129 0.0043602 -0.64846 -0.50924 -0.48311 -1.2488 -0.13493 0.093292 
awards -0.19515 1.0331 -1.1023 1.6172 -0.85235 -0.62932 -0.83425 -1.1859 0.86828 -0.24088 
books -0.17668 0.27161 -0.79317 0.36883 -0.17018 0.188 -0.98875 -1.47 0.50141 -0.7725 
base -0.17761 0.47312 1.2461 0.15132 -0.92458 -0.0056936 -0.37221 -0.57348 -0.31751 -0.37627 
japan -0.81242 1.7948 -0.026072 0.38311 -0.49091 -0.69596 -1.1663 -0.30536 -0.12304 -0.34962 
h -0.53224 -0.42346 0.4028 0.95457 -1.0945 0.21612 0.28611 -1.1229 -0.40696 -0.36697 
coast -0.14398 0.78624 1.2999 0.71034 -0.82305 -0.31472 -1.5117 0.12232 -0.28627 -0.60245 
rather 0.0088604 -0.055148 0.25969 -0.29702 -0.52113 -0.34063 -0.53233 -1.2793 0.17408 -0.31445 
female 0.37662 -0.2407 -0.13573 0.53402 -0.61778 -1.1332 -0.83994 -0.92068 0.84163 -0.19066 
big -0.49763 0.44057 0.54312 0.89995 -0.4353 -0.46139 -0.77852 -0.70897 0.99336 -0.14728 
sports -0.034343 1.0654 -0.19139 1.5436 -0.87282 -0.15257 -0.81759 -0.80014 0.28232 0.21309 
f -0.5898 0.047938 0.24706 0.76679 -1.6278 0.29219 0.32689 -0.84419 -0.1856 -0.41318 
medical -0.21888 -0.60232 -0.3425 1.0058 -0.57903 0.071667 -1.0465 -1.3979 -0.92141 0.43129 
stated -1.0926 -0.15249 -0.50441 0.2965 -0.54172 -0.46053 -0.56753 -0.95907 0.24068 0.080594 
mid -0.18235 0.65955 0.43313 0.35455 -1.0045 0.17165 -0.92876 -0.40217 0.30051 -0.36249 
market -0.27639 0.7793 0.45882 0.85214 -0.12018 0.039764 -0.9769 -1.0523 -0.4433 0.18534 
grand -0.5469 0.68159 0.20929 0.3428 -1.4657 0.31596 -0.90246 -0.013596 0.47269 -0.67067 
african 0.34707 0.29303 -0.33255 0.5639 -0.69468 -0.63793 -1.573 -0.4218 0.16887 -0.15992 
industry -0.23158 0.82565 -0.161 0.92661 0.071207 -0.026262 -1.1679 -1.3059 -0.50443 0.15738 
attack -1.4865 0.12403 0.91457 -0.45884 -0.7529 -0.67642 -0.67086 -0.29435 -0.49056 -0.45281 
almost -0.065681 0.23493 0.57086 -0.12599 -0.66831 -0.32729 -0.741 -0.74223 0.36076 -0.32047 
reached -0.35063 0.86539 0.62441 0.30231 -1.1611 -0.48777 -0.75071 -0.1601 0.41499 -0.20701 
owned -0.7363 0.53076 0.27311 1.216 -0.20349 0.69373 -1.2837 -0.61694 -0.58715 -0.24683 
senior -0.46763 -0.15275 -0.34883 1.0399 -1.7805 -0.34327 -0.9378 -0.29387 0.013757 0.30749 
films -0.74731 0.86693 -0.53995 0.85864 0.1943 -0.63297 -0.87117 -1.3328 0.88546 -0.58892 
hospital -0.48081 -0.88048 0.42541 0.95936 -0.45189 0.16813 -1.5141 -0.65979 -0.59331 0.096591 
placed -0.06904 0.20038 0.57317 0.12884 -1.1715 -0.074305 -0.46431 -0.4709 0.30543 -0.30181 
previously -0.37067 0.23481 0.026723 0.4951 -0.73979 0.049074 -0.73897 -0.54642 0.2386 -0.15302 
size 0.44546 0.32795 0.96949 0.12975 -0.79339 -0.30131 -0.19368 -1.434 -0.08482 -0.36547 
saw -0.65777 0.23537 0.25087 0.069529 -0.97668 -0.25299 -0.81301 -0.39464 0.48711 -0.088665 
least 0.1281 0.11712 0.42295 -0.011265 -0.91061 -0.47967 -0.74999 -0.76567 0.20741 -0.077682 
real -0.54786 0.35952 -0.15287 0.16017 -0.3737 -0.081174 -0.65005 -1.0188 0.25533 -0.18352 
shows -0.20471 0.56475 0.0086657 0.49756 -0.27358 -0.15326 -0.6787 -1.1336 0.84493 -0.4003 
writing -0.4815 -0.058494 -0.86777 0.41886 -0.42634 -0.075949 -0.69461 -1.4994 0.73531 -0.44945 
beginning -0.32349 0.52823 0.050617 0.069534 -0.90319 0.0048347 -0.91236 -0.46387 0.30805 -0.38061 
v -0.63315 -0.042499 0.01077 0.3736 -1.035 0.065907 0.045391 -0.78205 -0.36981 -0.37689 
bridge -0.38575 0.063972 1.429 0.50346 -0.71525 0.64088 -0.8632 -0.54724 -0.4397 -0.7422 
data -0.17923 0.78471 -0.05256 0.36714 -0.38256 -0.33247 0.0051056 -2.0493 -0.97664 -0.082469 
success -0.47023 0.58037 -0.11895 0.33077 -0.73603 -0.52818 -0.74437 -0.8015 0.67632 -0.029034 
behind -0.68474 0.12599 0.69029 0.064204 -0.95327 -0.12655 -0.49888 -0.4789 0.67556 -0.3332 
introduced -0.34125 0.40751 -0.037111 0.36922 -0.63456 0.19163 -0.34837 -0.93796 0.014037 -0.1575 
decided -1.1083 0.13598 0.019057 0.15176 -0.90472 -0.22127 -0.83172 -0.44442 0.061971 0.082823 
spanish -0.42428 1.1995 -0.32471 -0.12779 -0.67851 -0.46888 -1.504 -0.024835 0.20724 -1.0621 
approximately 0.57786 0.46957 1.1337 0.60189 -1.0123 -0.23411 -0.77656 -0.61243 -0.50273 -0.080046 
technology -0.18709 0.61402 -0.41191 1.0521 -0.38758 0.29239 -0.48378 -1.7231 -1.0704 0.043473 
native 0.67035 0.047733 0.24452 0.5054 -0.29134 -0.69405 -1.5405 -0.47391 0.23402 -0.5 
systems -0.2626 0.8368 0.1788 0.41048 -0.38556 0.10567 -0.095338 -1.8849 -1.2493 -0.17943 
management -0.41981 0.28892 -0.27812 1.0658 -0.47905 0.14367 -0.78108 -1.4474 -1.0793 0.44686 
historic 0.50059 -0.11821 0.51655 1.0213 -0.73368 0.8268 -1.7253 -0.85144 -0.37087 -0.65564 
italian -0.36413 1.0129 -0.53285 -0.29381 -1.298 -0.038432 -1.0074 -0.19446 0.30357 -1.3882 
hill -0.13939 -0.31776 1.0726 0.81349 -0.57893 0.39606 -1.2479 -0.40468 0.27192 -0.68091 
primary 0.3077 -0.25158 0.13783 0.68252 -0.82188 -0.049684 -0.74435 -0.96132 -0.39388 0.24823 
valley 0.29652 0.12491 1.3598 0.83159 -0.57108 0.037814 -1.4172 -0.16175 -0.35627 -0.79097 
via -0.33231 0.63723 0.68579 0.55684 -0.58405 0.096512 -0.35209 -0.56598 -0.3637 -0.09286 
scored -0.61935 -0.10584 0.69063 1.1408 -2.3865 -1.2818 -0.052304 -0.2646 1.0534 -0.20789 
bay -0.43808 0.35615 1.6015 0.96844 -0.60051 0.22739 -1.3372 -0.068227 0.031766 -0.55914 
provide -0.20566 0.27206 0.29837 0.33183 -0.32486 0.055471 -0.77094 -1.418 -0.63933 0.23186 
successful -0.56324 0.49868 -0.071393 0.32643 -0.82326 -0.29189 -0.71586 -0.65444 0.46069 -0.032948 
outside -0.12379 0.29176 0.56199 0.16051 -0.56142 0.01174 -1.1139 -0.51886 0.082841 -0.22256 
ship -1.5527 0.4214 1.2768 -0.076675 -0.66659 0.33783 -0.76024 -0.48208 -0.51143 -0.66622 
governor -1.4782 -0.63948 -0.14022 0.63955 -1.1484 -0.32701 -1.6636 0.096546 -0.91872 -0.24663 
attended -0.049513 -0.46597 -0.30223 1.3247 -1.1482 0.22712 -1.5212 -0.33444 0.16948 -0.21936 
start -0.71269 0.36377 0.48357 0.3716 -1.0511 -0.36045 -0.59354 -0.55677 0.50535 0.095264 
parts 0.41919 0.47569 0.61659 0.098073 -0.48773 -0.10831 -0.93271 -0.70634 -0.16259 -0.52436 
africa 0.37368 0.72818 0.15017 0.44148 -0.87101 -0.80823 -1.6016 -0.13883 -0.19948 -0.29557 
active -0.08519 0.28883 -0.1658 0.23258 -0.83232 -0.13402 -0.75387 -0.70541 -0.28291 -0.035854 
t -0.57162 0.0071903 0.21184 0.76101 -0.63012 -0.026505 0.25795 -1.2125 -0.039008 -0.36413 
higher 0.69554 0.11979 0.36852 0.66811 -0.97899 -0.60555 -0.46337 -1.2942 -0.42714 0.34452 
prior -0.56695 0.2336 0.11672 0.31526 -0.99727 -0.05861 -0.82276 -0.52446 0.074627 0.17977 
9st -0.80918 0.22815 0.36651 0.24184 -1.8475 0.3872 -0.86665 -0.0013153 -0.13437 -0.5495 
cross 0.086059 0.23418 0.57698 0.13977 -1.0531 0.30716 -0.71418 -0.59933 0.25636 -0.47778 
whose -0.19295 -0.24536 -0.15233 -0.085153 -0.53149 -0.016851 -0.84957 -0.76486 0.20465 -0.54962 
put -0.92574 0.046959 0.35514 -0.039735 -0.75357 -0.17443 -0.71584 -0.63629 0.29131 -0.090733 
listed 0.55977 0.22224 0.12274 0.74152 -0.9915 0.51025 -0.99912 -0.93123 0.089935 -0.31312 
theatre -0.35332 0.46849 -0.39901 1.0046 -0.6437 0.73608 -1.3109 -0.74871 0.66127 -0.77855 
contract -1.0801 0.47875 0.11981 0.85094 -1.6056 -0.30468 -0.36564 -0.40812 -0.075376 0.4565 
republic -0.16786 0.87163 -0.5683 -0.09251 -1.5646 -0.85648 -1.4524 0.030603 -0.92716 -0.68412 
km 0.4666 0.64975 1.8551 1.2475 -1.0698 -0.94164 -0.80503 -0.10248 -1.0015 -0.69268 
brought -0.61675 -0.016252 0.20948 0.020467 -0.56279 -0.13862 -1.0842 -0.43771 0.197 -0.20195 
goal -0.56952 0.012053 0.40326 0.57941 -1.8414 -0.89116 -0.19475 -0.46803 0.5007 0.21693 
sometimes 0.16033 -0.053371 0.42619 -0.13382 -0.24701 -0.40421 -0.43865 -1.13 0.29757 -0.64817 
related 0.5011 -0.024359 -0.14897 0.14292 -0.27072 -0.59388 -0.53631 -1.3872 -0.28646 -0.13715 
square 0.29996 0.50071 0.96943 0.4742 -0.87101 0.62189 -0.82729 -0.73249 0.082521 -0.76756 
leader -1.069 -0.26208 -0.57985 0.21896 -0.95315 -0.76868 -1.0533 -0.19434 -0.2702 -0.12366 
michael -1.2487 -0.69316 -0.28668 0.78492 -0.98227 0.10683 -0.49844 -0.78183 0.67863 -0.53778 
operations -0.99864 0.91512 0.51784 0.43749 -0.79241 0.039938 -0.79608 -0.67416 -1.3231 0.11267 
los -0.61872 0.97322 0.14233 1.5487 -0.35397 -0.12101 -1.6293 -0.21244 0.69384 -0.61186 
child -0.56325 -0.97942 -0.13922 0.25899 -0.34531 -0.70709 -1.1701 -0.99094 0.4457 -0.10977 
far -0.014432 0.28378 0.65973 -0.14206 -0.61049 -0.40053 -0.95352 -0.53973 0.033154 -0.37301 
too -0.74585 -0.15833 0.52201 -0.21625 -0.28584 -0.53892 -0.70339 -1.114 0.47284 -0.2716 
future -0.64012 0.054749 -0.12349 0.16794 -0.6157 -0.11366 -0.81067 -0.80196 0.1597 0.024703 
ever -0.46061 0.39129 0.11397 0.27752 -0.9563 -0.61238 -0.768 -0.63198 0.90016 -0.057936 
artist -0.65578 0.30529 -0.80544 0.7835 -0.36582 0.13279 -0.83107 -1.123 0.88644 -0.94598 
k -0.34578 0.28776 -0.030894 1.0442 -0.76044 -0.32565 0.31745 -1.142 -0.10784 -0.25358 
natural 0.6464 -0.025889 0.31743 0.32381 -0.081556 -0.078002 -0.93649 -1.45 -0.51017 -0.38637 
buildings 0.29813 0.088637 0.76785 0.26305 -0.55472 0.90691 -1.5292 -1.1482 -0.58139 -0.80404 
henry -1.2018 -1.2456 0.10306 0.4002 -1.1706 0.62036 -1.0187 -0.683 0.15663 -0.85982 
collection 0.038049 0.39343 -0.33658 0.39119 -0.22035 0.57472 -0.86337 -1.2959 0.28023 -0.85199 
officer -1.7361 -0.14244 -0.11163 0.45337 -1.1593 0.11602 -0.96955 -0.40547 -1.0541 -0.091271 
taking -0.57 0.034782 0.3234 0.14783 -0.85601 -0.27134 -0.78869 -0.52661 0.29581 0.080455 
economic 0.069457 0.29001 -0.46676 0.18487 -0.65611 -0.81221 -1.2352 -1.1693 -1.2459 0.22374 
possible -0.22701 0.075596 0.28865 -0.26638 -0.65491 -0.44459 -0.33213 -1.2691 -0.17507 -0.11911 
brown -0.061659 -0.79059 0.88071 0.91202 -0.81279 0.051333 -0.38952 -1.1881 1.2048 -0.61839 
trade -0.27914 0.54776 -0.020781 0.40124 -0.36464 -0.19068 -1.3831 -0.67502 -0.69916 0.15414 
limited -0.21283 0.74956 0.25944 0.58317 -0.45098 -0.042267 -0.5542 -1.1035 -0.2383 0.18313 
interest -0.11656 -0.090148 -0.28467 0.359 -0.46459 -0.093472 -0.95375 -1.1613 -0.028611 0.073253 
woman -0.70101 -0.57846 -0.043969 0.15037 -0.28278 -0.65627 -1.1931 -0.81742 0.79154 -0.43453 
hit -1.1575 0.6973 0.91754 0.74125 -0.61082 -0.78591 -0.47774 -0.5645 1.0834 -0.30867 
initially -0.77276 0.21689 0.13476 0.17329 -0.66627 0.072815 -0.71079 -0.58647 0.007458 -0.15316 
especially 0.33637 0.15779 0.096589 -0.082495 -0.26889 -0.38895 -0.97318 -0.95321 0.07612 -0.32768 
units -0.37926 1.0518 0.72824 0.010127 -1.0774 0.016436 -0.50972 -0.75705 -1.0819 -0.2485 
regional 0.46694 0.8118 -0.026807 0.80683 -1.1699 -0.12389 -1.1304 -0.41705 -0.79701 0.026589 
lived 0.014459 -0.46461 0.31214 0.28482 -0.65072 -0.1149 -1.5814 -0.23028 0.39113 -0.7303 
ireland 0.077786 -0.31427 0.1995 0.4671 -1.7516 -0.26824 -1.4124 -0.10164 0.33395 -0.16071 
changed -0.41414 0.47874 0.065538 0.29204 -0.61891 0.05048 -0.68503 -0.66244 0.068349 -0.21428 
person -0.52698 -0.38574 -0.069004 -0.17992 -0.53074 -0.83843 -0.6718 -1.1541 0.28125 -0.13188 
generally 0.4224 0.15044 0.22476 0.047352 -0.50184 -0.48133 -0.52961 -1.2554 0.17259 -0.19025 
operation -1.022 0.66405 0.61048 0.031208 -0.72199 -0.044677 -0.62062 -0.56484 -0.96927 -0.12953 
student -0.063901 -0.12635 -0.7076 0.83741 -0.79559 -0.048963 -1.0152 -0.9738 -0.044651 0.15331 
standard -0.11959 0.90474 0.14753 0.24767 -0.83133 0.18683 -0.011844 -1.4333 -0.33207 -0.28121 
commission -0.68743 0.040958 -0.51093 0.66515 -1.0991 0.099244 -1.1929 -0.7776 -1.2398 0.34967 
runs -0.1987 0.25296 1.4168 1.1802 -1.0255 -0.29271 -0.6202 -0.41231 0.44761 -0.038564 
money -1.1841 -0.10967 0.25996 0.45416 -0.20193 -0.40479 -1.1378 -1.0383 0.097016 0.43437 
foreign -0.61374 0.60666 -0.82168 0.13833 -0.76649 -0.48081 -1.3489 -0.69125 -0.80175 0.022564 
channel -0.83918 1.4788 0.46712 1.2345 0.0053979 -0.23364 -0.62003 -1.0226 -0.066586 -0.064304 
novel -0.72166 -0.054166 -0.54943 0.20908 -0.16032 -0.15933 -0.55815 -1.2913 0.79904 -1.0688 
significant 0.34338 0.12858 0.15964 0.081406 -0.63227 -0.3641 -0.83278 -1.0929 -0.25401 0.024908 
strong -0.11893 0.0032259 0.17051 -0.15331 -0.6871 -0.5359 -0.56869 -0.87966 0.28682 -0.15957 
christian -0.0025139 -0.2498 -0.82065 0.046272 -0.7731 -0.08626 -1.3686 -0.65404 0.23461 -0.6742 
me -1.3923 0.30377 0.16132 0.16419 -0.027989 -1.0255 -0.57919 -1.2196 1.0906 -0.71664 
saint -0.26716 -0.23767 -0.038531 0.048144 -1.1866 0.62413 -1.5561 -0.1546 0.054611 -1.7283 
food -0.24753 0.21205 0.70975 0.80202 0.70368 -0.59316 -1.2495 -1.5499 -0.42846 0.15162 
regular -0.34481 0.5828 0.27024 0.57686 -1.287 -0.047545 -0.45615 -0.68148 0.56277 0.12773 
traditional 0.35916 0.57539 -0.10717 0.019651 0.0086664 -0.2352 -1.0336 -1.1043 0.13851 -0.6408 
come -0.55413 0.063236 0.28991 -0.035328 -0.2995 -0.59901 -0.98635 -0.77885 0.53417 -0.26335 
municipality 0.9791 0.48393 0.4696 0.58642 -1.657 -0.71898 -1.316 0.080486 -1.4354 -1.7094 
staff -1.1201 0.069745 -0.2779 0.57993 -0.97755 0.237 -0.98297 -0.72968 -0.65111 0.22562 
roman 0.18105 -0.33901 -0.11536 -0.79621 -1.2572 -0.067473 -1.4518 -0.44155 -0.060703 -1.5085 
ended -0.96364 0.33043 0.43317 0.29457 -1.3342 -0.45526 -0.76925 -0.1205 0.41804 0.0089976 
towards -0.0086377 0.0094526 0.5738 -0.157 -0.61386 -0.36024 -0.85328 -0.52231 -0.060639 -0.21045 
medal -0.015388 0.66634 -0.32131 0.78762 -2.2962 -0.28762 -0.40193 -0.38589 0.51103 -0.54343 
blue -0.065654 0.42079 1.109 0.68659 -0.46333 0.041551 -0.40112 -0.92329 0.91465 -0.8073 
energy -0.30103 0.49954 0.49658 0.5458 -0.35652 -0.34949 -0.12593 -1.734 -1.0914 0.16953 
itself -0.11959 0.28687 0.24038 -0.22096 -0.48168 -0.10008 -0.67331 -0.87426 -0.21685 -0.40991 
below 0.56049 0.18594 0.96515 0.090874 -1.0616 -0.14035 -0.3273 -1.0598 0.10704 -0.44772 
texas -0.47984 0.10005 0.46416 1.6273 -0.86235 0.0018223 -1.4027 -0.41711 0.12824 0.24219 
represented 0.35699 0.048589 -0.15901 0.66671 -1.3922 -0.42297 -0.94964 -0.2447 0.23031 -0.061168 
unit -0.47338 0.57114 0.4277 0.14035 -1.1121 0.19424 -0.32279 -0.75992 -1.0915 -0.19324 
met -0.90902 -0.15601 -0.32085 0.35682 -0.8358 -0.17265 -1.0299 -0.33169 0.40116 -0.24138 
allowed -0.53299 0.17268 0.36943 0.011235 -0.80607 -0.166 -0.72216 -0.75012 0.024693 0.18343 
running -0.53352 0.29437 0.85802 0.77641 -0.86082 0.057855 -0.56343 -0.61667 0.32755 0.079097 
plays -0.06482 0.48311 -0.30483 0.75878 -1.3286 -0.75075 -0.47139 -0.36473 0.90624 -0.50733 
championships 0.32478 1.2661 0.23834 1.4068 -2.5675 -1.1883 -0.39618 -0.28669 0.6376 -0.54619 
hand -0.67453 -0.074809 0.60909 -0.27801 -0.51105 -0.15081 -0.34947 -1.0345 0.35713 -0.53307 
parliament -0.40408 -0.85727 -0.30638 0.38983 -1.9459 -0.55416 -1.3407 -0.28676 -0.97182 0.15406 
wide 0.51578 0.40579 0.8419 0.65933 -0.72834 0.12002 -0.39594 -1.2983 0.30068 -0.22103 
command -1.6548 0.26456 0.39042 -0.13788 -1.3991 0.20268 -0.50529 -0.39791 -1.2275 -0.5658 
highest 0.50884 0.6512 0.19714 0.73037 -1.2985 -0.70458 -0.74708 -0.50739 0.31119 0.11665 
defeated -1.186 -0.25385 0.5741 0.49904 -1.6299 -1.2456 -0.8479 0.49665 0.36301 -0.23985 
self -0.52631 0.11766 -0.35201 -0.19024 -0.27347 -0.44553 -0.52125 -1.3472 0.038356 -0.19344 
paris -0.79004 0.64054 -0.59896 0.14327 -1.0678 0.86011 -1.2473 -0.45816 -0.036581 -1.183 
navy -1.592 0.65896 0.5561 0.21665 -1.33 0.44856 -0.92185 -0.29639 -1.0203 -0.48466 
foundation -0.10005 0.022627 -0.57601 0.86626 -0.52715 0.44488 -1.0855 -0.98119 -0.36624 -0.15329 
catholic 0.25133 -0.6326 -0.64023 -0.034386 -1.2021 -0.056173 -1.9291 -0.48289 -0.25606 -0.87466 
spent -0.41634 0.040954 0.20649 0.57839 -1.0682 -0.12199 -1.1095 -0.28089 0.51997 -0.017723 
property -0.37484 -0.4837 0.36149 0.25954 -0.41398 0.47458 -1.2461 -1.0747 -0.76656 -0.02483 
culture 0.54467 0.52506 -0.71918 0.035891 -0.093486 -0.56383 -1.4043 -1.1403 -0.2334 -0.70972 
plan -0.77428 0.10293 0.24566 0.054551 -0.5109 0.22275 -0.88395 -0.83759 -0.56431 -0.049037 
whom -0.73175 -0.68564 -0.22056 0.07229 -0.75848 -0.43304 -1.1663 -0.40685 0.60629 -0.54886 
course 0.058537 0.1742 0.27147 0.39323 -0.99355 0.17614 -0.79474 -0.7878 0.16047 -0.031379 
annual 0.37212 0.78419 -0.060806 1.0733 -0.72146 -0.28194 -0.99481 -0.73954 0.31263 0.22748 
manager -1.2996 0.057702 -0.13688 1.1598 -1.4173 -0.05116 -0.51391 -0.37861 0.19163 0.096518 
assembly -0.10294 -0.30068 -0.19315 0.79328 -1.4663 -0.74744 -1.2134 -0.32632 -1.2218 0.27999 
earlier -0.39182 0.17634 0.086496 -0.12607 -0.72994 -0.032921 -0.73145 -0.68546 0.34231 -0.42937 
structure 0.41023 0.10778 0.50778 -0.14205 -0.71834 0.39388 -0.31434 -1.5764 -0.55813 -0.76903 
library 0.049996 0.15812 -0.39431 0.92665 -0.53666 0.97588 -1.1803 -1.2391 -0.34242 -0.45936 
commercial -0.3259 0.91163 0.25202 0.82408 -0.0509 0.24294 -1.0321 -1.1435 -0.33891 0.00082353 
peter -0.95445 -0.79246 -0.23963 0.55381 -1.0043 0.40138 -0.61488 -0.75433 0.54313 -0.81015 
seat -0.28873 -0.3132 0.591 0.49495 -1.5985 0.012033 -0.80256 -0.13066 -0.52016 -0.021912 
plant 0.67363 0.087903 1.0552 0.94885 0.015529 -0.22141 -0.54476 -1.4098 -0.64755 -0.36662 
income 0.43349 -0.44862 0.55508 1.0275 -0.85051 -0.90354 -1.2354 -1.4419 -0.70191 0.91868 
nine -0.16971 0.40548 0.46671 0.43141 -1.2031 -0.20816 -0.8427 -0.38406 0.69784 -0.098008 
required -0.366 0.053018 0.39407 0.13661 -0.90492 -0.097455 -0.4547 -1.2987 -0.48935 0.39158 
soviet -0.88569 1.0359 -0.49365 -0.63985 -1.5584 -0.67883 -0.77959 -0.38436 -0.97106 -0.63505 
artists -0.34546 0.6043 -0.78976 0.6612 -0.19102 0.045598 -1.0261 -1.1924 0.78712 -0.77189 
length 0.33092 0.57909 1.1874 0.35033 -1.0448 -0.33364 0.07296 -1.2742 0.56228 -0.70856 
secretary -1.3431 -0.49297 -0.85291 0.82291 -1.1987 -0.19508 -1.3686 -0.45845 -1.1476 -0.019943 
companies -0.75238 0.96831 0.096899 0.7901 -0.3206 0.17696 -0.94359 -1.0877 -0.94459 0.21407 
opening -0.43476 0.59316 0.52404 0.51425 -0.90702 0.050154 -0.70414 -0.54048 0.72875 -0.23461 
numerous 0.21185 0.484 -0.094388 0.23167 -0.39089 0.0016345 -1.0865 -0.88205 0.32889 -0.29171 
sound -0.4287 0.60018 0.21755 0.46304 -0.10881 0.014217 -0.17186 -1.5895 0.65938 -0.59829 
captain -1.6012 -0.26167 0.49137 0.46501 -1.317 -0.003241 -0.76241 -0.020106 0.18696 -0.49903 
associated 0.48925 -0.20842 0.087675 0.1518 -0.40056 -0.3138 -0.53893 -1.2231 -0.20168 -0.17287 
noted -0.19336 -0.25745 -0.38362 0.27676 -0.46793 -0.15576 -0.71055 -1.0474 0.47381 -0.27845 
closed -0.37045 0.31253 0.86175 0.47924 -0.89813 0.62329 -0.84098 -0.6984 -0.26188 -0.13338 
bill -1.1841 -0.68277 -0.056847 0.95918 -0.85039 -0.035473 -0.67882 -0.95865 0.14451 0.46702 
means 0.018813 0.15751 0.17709 -0.27848 -0.096436 -0.62504 -0.50681 -1.1509 -0.29383 -0.52192 
victory -0.72622 0.11942 0.60447 0.30483 -1.8263 -0.83323 -0.76135 0.16183 0.55582 -0.18412 
x -0.62347 0.6505 0.27108 0.14694 -1.136 -0.11966 0.70802 -1.4244 0.1397 -0.77273 
find -0.9181 -0.33009 0.50743 -0.064472 -0.075441 -0.50229 -0.82248 -1.1188 0.40214 -0.25467 
rural 0.64937 -0.74927 0.44784 0.82935 -0.35843 -0.77839 -1.5417 -0.81394 -2.0168 -0.72924 
smith -1.1102 -0.68668 0.07294 1.0239 -0.90217 0.26033 -0.72082 -0.86057 0.63469 -0.19574 
launched -1.3052 1.1835 0.01464 0.60201 -0.55556 0.10884 -0.6408 -0.5307 -0.50417 -0.13071 
dr -1.1238 -0.77015 -0.58234 1.0255 -0.39774 -0.24402 -0.74877 -0.85954 -0.11415 -0.44596 
individual 0.32715 0.3439 -0.076558 0.070197 -0.94373 -0.56253 -0.50349 -1.2001 0.2171 0.078681 
master -0.38096 -0.086143 -0.62699 0.65807 -0.73263 0.41185 -0.86948 -0.94965 0.00835 -0.34187 
practice -0.1179 -0.14305 -0.19873 0.28037 -0.63886 -0.085011 -0.95092 -1.0045 -0.045517 0.17569 
access -0.25392 0.47628 0.54346 0.60416 -0.23374 0.16516 -0.88145 -1.3283 -0.67047 0.23203 
mary -0.60446 -1.3438 0.19581 0.73043 -0.70222 0.37186 -1.4783 -0.75181 0.70986 -0.91435 
additional -0.2984 0.47768 0.37821 0.38412 -0.71615 0.20518 -0.45913 -1.1553 -0.12676 0.11826 
n -0.10921 0.10894 0.14733 0.74807 -0.80392 -0.37718 0.41941 -1.1823 -0.17549 -0.51456 
month -0.73757 0.56723 0.41043 0.5018 -1.0448 -0.62389 -0.93281 -0.21921 0.35885 0.15662 
executive -1.3636 0.070695 -0.7913 1.261 -0.85559 0.09124 -0.99051 -0.87228 -0.76877 0.22078 
security -1.1265 0.4588 -0.23654 0.24914 -0.57265 -0.35941 -0.93044 -1.0807 -1.4891 0.3327 
chicago -0.48948 0.13793 0.071431 1.5414 -0.83077 0.39398 -1.2858 -0.6964 0.62254 0.027264 
press -0.70604 0.33548 -0.6374 0.65411 -0.56734 0.10271 -0.91329 -0.97009 0.2283 0.010576 
mountain 0.32806 0.51009 1.4556 0.63897 -0.43863 -0.23643 -1.0737 -0.26491 0.057902 -1.0837 
singer -0.95968 0.26558 -0.62101 1.1505 -0.4465 -0.82424 -0.70231 -0.91097 1.3854 -1.1838 
entered -0.6319 0.54186 0.05892 0.38782 -1.2106 0.11134 -0.92685 -0.17373 0.12949 -0.12468 
room -0.69293 -0.065406 0.86809 0.43169 -0.16223 0.71793 -0.98631 -1.2562 0.46272 -0.43067 
finally -0.89721 0.0081814 0.42398 -0.057686 -0.7842 -0.17181 -0.81261 -0.29858 0.18233 -0.30051 
older -0.15377 -0.37047 0.27817 0.058357 -0.50583 -0.19704 -0.82718 -0.81754 0.52877 -0.52042 
better -0.41585 0.15143 0.16792 0.17896 -0.47617 -0.44468 -0.48765 -1.1367 0.28468 0.011077 
report -0.82055 0.054842 -0.50161 0.3908 -0.64936 -0.28712 -0.78547 -1.072 -0.48975 0.34673 
date -0.38146 0.40744 0.02013 -0.063322 -0.83578 -0.11435 -0.84554 -0.65192 0.45128 -0.43801 
highway -0.18521 0.1444 1.77 1.5811 -0.67997 -0.086851 -1.2423 -0.45547 -1.2154 -0.2774 
subsequently -0.82831 0.12533 0.025886 0.26383 -0.93686 0.10674 -0.88183 -0.34954 -0.09056 -0.11666 
ran -0.84961 0.19454 0.57489 0.87252 -1.0271 0.19492 -0.86617 -0.26144 0.18859 0.041683 
already -0.50487 0.12895 0.17113 -0.1625 -0.71432 -0.10569 -0.84231 -0.59948 0.071132 -0.26579 
studied 0.3986 -0.37178 -0.9052 0.68236 -1.1012 0.32566 -0.81822 -0.99345 -0.12918 -0.74213 
past -0.19799 0.03377 0.25118 0.14958 -0.54187 -0.41732 -0.90613 -0.68791 0.38205 -0.096557 
musical -0.2172 0.4703 -0.65062 0.66287 -0.2883 -0.060194 -0.70171 -1.4177 1.1282 -0.89819 
writer -0.90198 -0.21763 -1.2658 0.79282 -0.50613 -0.23697 -0.95986 -1.0793 0.63462 -0.91093 
edition -0.30183 1.217 -0.6091 0.5879 -1.1098 0.122 -0.31816 -0.9873 0.74034 -0.74178 
issues -0.31511 0.12568 -0.49915 0.28952 -0.3831 -0.57437 -0.9335 -1.4762 -0.33311 0.30878 
policy -0.56717 0.056041 -0.78555 0.26376 -0.78588 -0.53978 -1.0484 -1.2618 -1.1686 0.35661 
zealand 0.012708 0.42138 0.12753 0.98994 -1.1679 -0.1564 -1.3673 -0.232 0.19232 -0.0046035 
mark -0.79747 -0.24919 0.15015 0.65148 -1.0421 0.21536 -0.26319 -0.77366 0.76377 -0.33483 
anti -0.89054 0.28323 -0.34312 -0.52758 -0.6962 -0.60776 -0.58134 -0.88942 -0.81189 -0.065686 
move -0.75132 0.1529 0.62448 0.12192 -0.77872 -0.30508 -0.68751 -0.5606 0.14681 0.048631 
author -0.57263 -0.44808 -1.1891 0.47848 -0.42558 -0.030425 -0.86534 -1.2846 0.4074 -0.91951 
here -0.099968 0.0008707 0.32612 -0.012374 -0.24301 -0.21272 -0.96475 -0.80703 0.45426 -0.62072 
richard -1.2699 -1.01 -0.24774 0.7634 -1.0511 0.55118 -0.60761 -0.91607 0.39619 -0.64508 
loss -0.34141 -0.13803 0.87653 0.3738 -1.2925 -1.0294 -0.4036 -0.5056 0.27821 0.42037 
increased 0.068993 0.20824 0.68294 0.32599 -0.83711 -0.64974 -0.46629 -1.1166 -0.60098 0.49947 
majority 0.096746 -0.041702 -0.0078748 0.13055 -0.97288 -0.64624 -1.1625 -0.54486 -0.26861 0.18537 
location -0.023 0.31107 0.75112 0.3222 -0.3364 0.2146 -0.98352 -0.79071 -0.28375 -0.41918 
places 0.65123 0.16197 0.44006 0.42849 -0.64154 0.03771 -1.4079 -0.74579 0.045635 -0.36946 
our -0.37871 -0.15022 -0.14436 -0.26105 -0.18805 -0.41251 -1.2162 -1.1312 0.38751 -0.4247 
financial -0.79546 0.14585 -0.28792 0.62744 -0.58182 -0.34917 -1.067 -1.0853 -0.83727 0.64322 
review -0.58557 -0.048768 -0.93739 0.89779 -0.64128 -0.098892 -0.49099 -1.6295 0.3303 0.20453 
stone -0.20438 -0.19438 0.87007 0.19615 -0.23167 0.72539 -0.91493 -1.1492 0.51904 -1.2122 
rest -0.25217 0.18028 0.70755 0.056446 -0.77327 -0.29151 -1.023 -0.37722 0.27074 -0.24754 
going -0.82839 0.027232 0.60524 0.32366 -0.6161 -0.46261 -0.92107 -0.6613 0.71417 0.047095 
airport -0.55949 0.98744 0.97843 1.2272 -0.76218 0.0021171 -1.1934 -0.075565 -1.2733 -0.2385 
youth 0.02013 0.43058 -0.55999 0.67739 -1.1232 -0.5893 -1.0884 -0.34615 0.31624 0.026242 
complete -0.19292 0.2561 0.13526 0.044863 -0.93857 0.13025 -0.35628 -1.0818 0.29523 -0.19452 
religious 0.21739 -0.27133 -0.83053 -0.30025 -0.31009 -0.5855 -1.7666 -1.0674 -0.33518 -0.60081 
italy -0.16098 1.0094 -0.15262 -0.30386 -1.5249 -0.17297 -1.2134 0.015172 0.11277 -1.1984 
test -0.45792 0.22238 0.3653 0.53638 -1.2115 -0.36997 0.061244 -1.1196 -0.05637 0.41447 
w -0.95662 -0.42401 0.11681 1.0953 -1.1663 0.72992 0.011259 -1.2199 -0.25656 -0.40978 
selected -0.31696 0.3639 -0.18848 0.93969 -1.2348 -0.24035 -0.60471 -0.57366 0.45545 0.19602 
becoming -0.36048 0.20649 -0.010749 0.38805 -0.9045 -0.092646 -0.94796 -0.46262 0.31146 0.0068315 
engine -1.3644 0.86665 1.3216 0.62745 -1.1762 0.42385 0.6932 -1.6751 -0.63765 -0.51701 
contains 0.78131 0.37234 0.348 0.30723 -0.40676 0.11061 -0.40041 -1.2561 0.03124 -0.83457 
cultural 0.66585 0.59411 -0.859 0.20345 -0.27108 -0.41135 -1.5062 -1.2118 -0.52017 -0.57389 
feature -0.25154 0.79047 0.054955 0.52799 -0.2777 -0.006504 -0.35947 -1.3083 0.75186 -0.60492 
angeles -0.72512 0.55747 0.17555 1.7627 -0.52151 0.037193 -1.6384 -0.57944 0.64133 -0.2267 
empire -0.38955 0.33315 -0.071246 -0.69037 -0.9615 -0.40881 -1.6013 -0.13337 -0.47564 -1.084 
appearance -0.30872 0.23123 0.33076 0.4052 -0.92822 -0.46574 -0.42369 -0.75778 1.198 -0.40005 
queen -0.66727 -0.47896 0.26474 0.088914 -0.70516 0.17699 -1.4713 -0.29766 0.60429 -0.94028 
administration -0.60732 -0.010815 -0.39089 0.53581 -0.77161 -0.063368 -1.2599 -0.78474 -1.3578 0.31435 
mexico -0.095628 1.1543 0.21938 0.85539 -0.54486 -0.55686 -1.8166 0.071433 0.084835 -0.48405 
famous -0.13482 0.19632 -0.21977 0.32734 -0.043012 -0.1558 -1.2545 -0.56524 0.52321 -0.9676 
hours -0.74325 0.71566 0.95519 0.43846 -0.81079 -0.40935 -0.59741 -0.64239 0.22226 0.1171 
thought -0.1799 -0.38965 0.022361 -0.29862 -0.38151 -0.50702 -0.61872 -1.1851 0.29872 -0.52579 
personal -0.60728 0.0048768 -0.45442 -0.024706 -0.50751 -0.21874 -0.75803 -1.1541 0.14626 -0.060879 
starting -0.43715 0.52115 0.42851 0.6578 -1.1874 -0.13941 -0.47128 -0.49011 0.45798 0.03418 
complex 0.50978 0.26932 0.35754 0.27909 -0.37977 0.15283 -0.41522 -1.3062 -0.48255 -0.46893 
matches 0.0050919 0.62099 0.52659 0.89147 -2.0654 -1.3187 -0.55271 -0.2811 0.77697 -0.043207 
fact -0.36827 -0.22006 0.00097263 -0.36182 -0.54608 -0.48364 -0.60186 -1.0509 0.08768 -0.35207 
mostly 0.48234 0.46024 0.39487 0.1287 -0.38363 -0.29364 -1.0303 -0.72667 0.21883 -0.40545 
operated -0.61269 0.91816 0.74793 1.0568 -0.678 0.73703 -0.83758 -0.63268 -0.89381 -0.22189 
particularly 0.28078 0.080754 0.038839 -0.028432 -0.27833 -0.34134 -0.93733 -0.9915 0.078475 -0.27679 
retired -0.94362 -0.051972 -0.083352 0.8614 -1.6296 -0.17328 -0.7595 -0.056542 0.12467 -0.16632 
decision -1.1659 -0.17594 -0.27661 0.12193 -1.187 -0.63284 -0.52721 -0.80737 -0.273 0.40163 
lines -0.089964 0.51383 0.90253 0.064905 -0.76142 0.33755 -0.40883 -0.93246 -0.18632 -0.51979 
legal -0.58255 -0.27002 -0.6133 0.19696 -0.71709 -0.33288 -1.0866 -1.2233 -0.75941 0.32544 
programs 0.0016578 0.70338 -0.52706 1.286 -0.42764 -0.19063 -0.91742 -1.6202 -0.37199 0.4872 
characters -0.64467 0.44015 -0.17361 -0.078987 0.010109 -0.70857 -0.37612 -1.5551 0.83995 -0.87288 
caused -0.40179 -0.37489 0.9317 -0.13904 -0.54336 -0.8788 -0.52453 -0.89022 -0.3483 0.19697 
give -0.64405 -0.19952 0.23146 -0.026723 -0.54228 -0.41363 -0.5768 -1.0615 0.39734 0.0053217 
activities -0.047405 0.47213 -0.25314 0.47259 -0.19648 -0.3616 -1.2652 -1.0809 -0.58001 0.22898 
entire -0.18012 0.40232 0.54039 0.11607 -0.69643 -0.082083 -0.79771 -0.62571 0.14805 -0.19069 
historical 0.3901 0.13869 -0.50131 -0.048234 -0.40326 0.10913 -1.316 -1.0105 -0.10798 -0.83814 
greek 0.51543 0.16826 -0.37161 -0.67223 -1.0972 -0.55503 -0.95387 -0.56477 0.28332 -1.5043 
mission -0.79489 0.49015 -0.0024014 0.089077 -0.49514 0.11932 -1.103 -0.54493 -0.65839 -0.22011 
terms 0.040679 0.020331 -0.25856 -0.16194 -0.9991 -0.39175 -0.57689 -1.0832 -0.25447 0.030172 
9nd -0.77864 0.34348 0.45814 0.2693 -1.9124 0.18556 -0.76813 0.081965 -0.0082415 -0.5621 
serving -0.63274 0.15557 0.11549 0.70875 -0.96874 0.31401 -1.3559 -0.22428 -0.52437 -0.036621 
port -0.64324 0.65499 1.0649 0.63178 -0.6921 0.34322 -1.1472 -0.14543 -0.65936 -0.38359 
forced -1.0986 -0.24651 0.73046 -0.16094 -0.90259 -0.65186 -0.91148 -0.19926 -0.03494 0.091224 
evidence -0.14211 -0.73579 0.026576 -0.40098 -0.38953 -0.42092 -0.71596 -1.4934 -0.44627 -0.34732 
issue -0.86653 0.31173 -0.47369 0.065726 -0.64319 -0.19218 -0.7232 -1.0525 0.078342 0.0032186 
stadium -0.17142 0.76503 0.75582 1.3587 -1.3477 -0.27107 -0.97455 0.075048 0.19215 -0.02688 
word 0.045526 0.35848 -0.20825 -0.4024 -0.10801 -0.75948 -0.4494 -1.2052 0.13207 -1.1518 
supported -0.39385 0.14202 -0.19814 -0.12096 -0.86442 0.10379 -0.78033 -0.61228 -0.34839 -0.16685 
husband -1.134 -1.2511 -0.068682 0.22089 -0.50807 -0.55371 -1.3288 -0.63762 0.61334 -0.68644 
score -0.32238 0.18904 0.014797 1.028 -1.5782 -0.89146 0.057618 -1.11 1.1997 0.11068 
notable 0.27072 0.21594 -0.36667 0.37932 -0.55089 -0.072333 -1.0379 -0.86346 0.57756 -0.5737 
create -0.32542 0.44861 0.059553 0.16323 -0.12201 0.03641 -0.5978 -1.3257 -0.074419 -0.16314 
olympics 0.029782 1.4236 0.2548 1.1586 -2.2959 -1.2859 -0.81059 -0.12758 0.7008 -0.71002 
remains 0.19187 -0.13592 0.529 -0.18762 -0.46759 0.070226 -0.96418 -0.85616 0.057632 -0.67724 
virginia -0.5813 -0.49502 0.5696 1.309 -1.0715 0.32959 -1.689 -0.32427 -0.26865 0.10925 
meeting -0.56504 0.00012253 -0.18292 0.40843 -0.88843 -0.053679 -1.2002 -0.36758 0.024 0.054166 
lord -0.83436 -1.26 0.23324 0.074715 -0.58019 0.0035216 -1.5201 -0.38715 0.19481 -0.85681 
changes 0.051581 0.1114 0.2703 0.0095102 -0.79825 -0.34696 -0.36451 -1.4097 -0.1928 0.045935 
sister -1.0147 -0.55894 0.16711 0.4825 -0.27034 -0.33516 -1.072 -0.41603 0.56346 -0.8106 
got -1.0065 0.0279 0.29933 0.43077 -0.72621 -0.6097 -0.72689 -0.50369 0.81554 -0.050039 
goals -0.25433 0.10288 0.20738 0.73093 -2.1266 -1.2028 -0.14623 -0.55938 0.55798 0.2451 
overall -0.035936 0.3916 0.32504 0.6247 -1.6097 -0.55134 -0.1546 -0.8664 0.52393 0.29582 
upper 0.71921 -0.1467 1.1808 0.067501 -1.1015 0.1186 -0.74663 -0.6851 -0.28518 -0.76915 
basketball 0.10068 0.51789 0.00090165 1.8886 -1.94 -1.0909 -0.85175 -0.3069 0.56719 0.035475 
democratic -0.59771 -0.33606 -0.88035 0.55014 -1.65 -1.1092 -1.2175 -0.38648 -0.85969 0.30579 
passed -0.61289 -0.46313 0.31984 0.15002 -1.2148 -0.028616 -0.96314 -0.44235 -0.34239 0.14912 
movie -1.1275 0.73184 -0.22224 0.82537 0.3162 -0.68002 -0.80401 -1.2633 0.99886 -0.57045 
turn -0.55582 0.0030211 0.60243 -0.10452 -0.60882 -0.20432 -0.56337 -0.71721 0.14373 -0.27227 
competed -0.032086 1.035 0.17936 1.1426 -2.1741 -1.0581 -0.45111 -0.13854 0.80655 -0.49925 
congress -0.5641 -0.10633 -0.75738 0.59444 -1.2501 -0.74935 -1.3453 -0.41061 -0.89737 0.3421 
chart -0.50076 2.0362 0.13308 1.1382 -1.1435 -1.2416 -0.43681 -1.2379 1.2898 -0.73332 
variety 0.44002 0.5552 0.04181 0.60693 0.085232 -0.15883 -0.6834 -1.6266 0.2126 -0.34871 
forest 0.54635 -0.17009 1.2273 0.80421 -0.38696 -0.17167 -1.4203 -0.50799 -0.14013 -0.44825 
irish -0.13225 -0.40456 -0.23469 0.30614 -1.2025 -0.173 -1.3228 -0.33935 0.61457 -0.34923 
recording -0.74741 0.69794 -0.12166 0.94975 -0.70373 0.023505 -0.39088 -1.2184 1.1386 -0.36094 
islands 0.072252 0.75131 1.1487 0.20085 -0.49786 -0.64588 -1.7693 0.18211 -0.45115 -0.94033 
certain 0.086182 -0.014893 0.052323 -0.2822 -0.45009 -0.58014 -0.55719 -1.4024 -0.22515 -0.13109 
sir -1.298 -1.6577 0.16011 0.59778 -1.1533 0.57817 -1.1153 -0.79097 -0.10073 -0.91425 
cover -0.63639 0.53889 0.37641 0.37067 -0.26515 0.065878 -0.58676 -1.0875 0.71863 -0.41587 
stars -0.60449 0.29512 -0.019454 0.90586 -0.48819 -0.75913 -0.23348 -1.0289 1.152 -0.37797 
shot -1.3206 0.34006 0.81179 0.22772 -0.6305 -0.37583 -0.51651 -0.42411 0.59042 -0.46094 
weeks -0.74107 0.39164 0.65229 0.41396 -1.1289 -0.64023 -0.80523 -0.48297 0.79536 0.06995 
particular 0.19981 0.050265 -0.21045 -0.15931 -0.51287 -0.25576 -0.59124 -1.3189 -0.091312 -0.32373 
larger 0.34003 0.47388 0.94427 0.037111 -0.65885 -0.064324 -0.52549 -1.0169 -0.1953 -0.40401 
nature 0.29135 -0.18927 -0.021194 -0.11949 -0.070215 -0.29851 -0.89401 -1.3835 -0.17497 -0.43655 
material -0.11579 0.27898 0.28401 0.036968 -0.05098 0.021669 -0.32282 -1.783 0.047931 -0.56217 
raised -0.28411 -0.31183 0.43459 0.34897 -0.66963 0.076867 -1.1548 -0.43529 0.014242 -0.070873 
leaving -0.82939 -0.17528 0.72621 0.19923 -0.7572 -0.15149 -0.88523 -0.36902 0.30463 -0.093289 
russia -0.14638 0.74369 -0.34047 -0.2916 -1.5262 -0.70609 -1.074 -0.074167 -0.8142 -0.58705 
fifth -0.43185 0.43004 0.26581 0.48847 -1.5046 -0.16945 -0.60398 -0.33636 0.83367 -0.28656 
need -0.53361 -0.034247 0.26794 -0.028845 -0.33856 -0.41781 -0.66736 -1.4948 -0.24045 0.17405 
relationship -0.57867 -0.66972 -0.25045 -0.027599 -0.31799 -0.67409 -0.70841 -1.165 0.36923 -0.27083 
castle -0.4089 -0.55521 0.96456 -0.20803 -0.95256 0.55583 -1.2663 -0.21161 -0.18638 -1.392 
god -0.62859 -0.53808 -0.17932 -0.74158 0.12135 -0.93695 -1.2718 -1.1606 0.3792 -1.3082 
rate 0.32158 -0.031782 0.79828 0.81683 -0.94845 -1.1518 -0.30027 -1.2688 -0.56072 0.58219 
fort -0.98982 -0.22568 1.2826 0.68465 -0.54925 0.34298 -1.6266 -0.035236 -0.62204 -0.60009 
theory 0.042169 -0.38906 -0.87341 -0.24432 -0.9579 -0.19895 0.032041 -2.0801 -0.46624 -0.64335 
fight -1.4219 0.1571 0.44896 -0.053443 -0.78858 -1.2624 -0.71028 -0.25806 0.41979 -0.099918 
minutes -0.71013 0.54881 1.1157 0.55835 -1.3821 -0.64673 -0.25248 -0.50731 0.65567 -0.079204 
claimed -0.92611 -0.14727 -0.089878 -0.031645 -0.75569 -0.42829 -0.81474 -0.44989 0.063608 -0.055614 
wales 0.36396 -0.45591 0.41673 0.88996 -1.6212 0.30452 -1.6645 -0.34536 -0.033001 -0.20202 
referred 0.089476 0.059595 0.033605 0.039772 -0.38471 -0.21076 -0.56831 -0.85422 -0.025412 -0.52473 
key -0.3543 0.33261 -0.048114 0.18055 -0.66276 -0.13408 -0.40556 -1.0672 -0.059442 -0.059679 
deal -0.95735 0.40018 0.0050192 0.4906 -0.91428 -0.36323 -0.69437 -0.54969 0.19322 0.31692 
prince -1.1403 -0.50478 0.027043 -0.31371 -0.88339 -0.15732 -1.4338 0.0056516 -0.12511 -1.2974 
friends -0.96303 -0.43812 -0.047827 0.37988 -0.091289 -0.36553 -1.2673 -0.81317 0.70828 -0.38283 
source 0.010301 0.35992 0.24514 0.076426 0.0075067 -0.19259 -0.52204 -1.4314 -0.53991 -0.42438 
shown 0.087996 0.21829 0.10791 0.24118 -0.43024 -0.38667 -0.21689 -1.2794 0.27827 -0.26325 
chairman -1.0979 -0.16252 -0.82044 1.2858 -1.1599 -0.13276 -1.0808 -0.50624 -1.1133 0.1688 
cost -0.47398 0.37811 0.79293 0.70044 -0.73012 -0.084951 -0.62308 -1.3314 -0.65323 0.57478 
takes -0.58118 -0.025741 0.50659 0.13992 -0.2329 -0.31467 -0.73554 -0.82194 0.58371 -0.36061 
fall -0.48137 0.23428 0.46668 0.045119 -0.6388 -0.35136 -0.93542 -0.44266 0.46264 -0.23509 
pacific -0.021773 1.1978 0.93005 0.93291 -0.67864 -0.25668 -1.394 -0.19854 -0.34532 -0.26588 
bishop -0.40298 -1.0316 -0.23812 0.014722 -1.6648 0.1707 -1.4684 -0.075494 -0.10189 -1.2446 
male 0.60546 -0.42147 0.089279 0.39388 -0.78227 -1.3094 -0.78997 -0.98436 0.76463 -0.20708 
florida -0.39448 0.20585 0.65928 1.6265 -0.8151 -0.061944 -1.5178 -0.28427 0.059748 0.24177 
parents -0.61818 -0.88789 -0.097793 0.32141 -0.3991 -0.57354 -1.4977 -0.64343 0.43207 -0.20356 
helped -0.60278 0.07779 -0.077 0.36338 -0.72242 -0.23598 -0.88601 -0.51054 0.19894 0.14507 
cases -0.16994 -0.55233 0.1756 -0.097899 -0.66506 -0.78292 -0.49998 -1.4043 -0.4791 0.1998 
pennsylvania -0.11941 -0.52526 0.43625 1.5706 -1.1698 0.54539 -1.5164 -0.74722 -0.50484 0.23907 
increase 0.039403 0.1559 0.69108 0.47909 -0.76279 -0.75841 -0.40367 -1.391 -0.67297 0.59232 
fellow -0.66855 -0.31164 -0.77876 0.80225 -1.1062 -0.052757 -0.90294 -0.57982 0.3518 -0.15219 
longer -0.17042 0.16042 0.65318 -0.12663 -0.71388 -0.29521 -0.48396 -1.0613 0.082179 -0.16914 
justice -1.0238 -0.80811 -0.7687 0.4493 -0.91102 -0.4806 -1.2266 -0.87186 -0.69249 0.20423 
failed -1.0575 0.15946 0.33459 -0.011771 -1.2188 -0.64622 -0.59012 -0.42054 0.062783 0.2751 
presented -0.40605 0.30471 -0.63174 0.44321 -0.69833 0.13315 -0.72898 -0.87026 0.37469 -0.25 
care -0.39433 -0.89917 0.14266 0.78281 -0.094817 -0.35544 -1.2774 -1.5866 -0.46781 0.50464 
status 0.16414 0.079797 -0.22581 0.076458 -1.0049 -0.60119 -0.99992 -0.67471 -0.33061 0.12728 
parish 0.60929 -1.0852 0.59198 0.50715 -1.41 0.4392 -1.7124 -0.33995 -0.50224 -1.1266 
individuals 0.32487 -0.51144 0.013407 0.10798 -0.43701 -1.1154 -1.0687 -1.4223 -0.19181 0.20661 
earned -0.095267 0.13607 -0.46548 1.2362 -1.4914 -0.32939 -0.64338 -0.73531 0.73896 0.19513 
believed -0.31807 -0.45567 0.081631 -0.30903 -0.3133 -0.50694 -0.99286 -0.8086 -0.00039211 -0.46163 
recent 0.27887 0.25988 -0.15297 0.24877 -0.59037 -0.33411 -0.80202 -1.0206 0.19408 -0.089723 
themselves -0.37157 0.025979 0.23334 -0.4142 -0.28459 -0.7001 -0.99712 -0.81986 0.12649 -0.24698 
always -0.41154 -0.1254 0.13371 -0.22445 -0.41822 -0.55161 -0.5537 -1.1884 0.53119 -0.37056 
results 0.0076149 0.080318 -0.02963 0.15686 -1.2389 -0.82613 0.054493 -1.3434 -0.084007 0.27264 
names 0.22427 0.23119 -0.17089 0.058569 -0.35056 -0.22655 -0.75763 -0.92171 -0.019592 -0.73103 
wing -0.41639 0.28744 0.68613 -0.096886 -1.41 0.23354 -0.3092 -0.58714 -0.25272 -0.38024 
earth -0.41837 0.64909 0.71594 -0.34379 -0.11873 -0.49032 -0.45388 -1.1019 0.0035335 -0.83865 
speed -0.60666 0.87779 1.2481 0.54365 -1.2006 -0.20144 0.40268 -1.3185 -0.23625 -0.087532 
genus 1.6816 -0.96071 0.8242 0.62932 -0.92042 -2.0374 -0.33412 -1.6852 0.13404 -2.0362 
seasons -0.24119 0.48187 0.59394 1.2015 -1.749 -0.78557 -0.54189 -0.37495 1.011 -0.040914 
era -0.024791 0.5507 -0.027182 -6.8801e-06 -0.77907 -0.20699 -1.1014 -0.41336 0.56732 -0.4207 
surface 0.054054 0.29244 1.734 -0.061157 -0.63394 -0.32271 0.17475 -1.6445 -0.58942 -0.84814 
van -1.2441 -0.25275 0.10239 0.40791 -1.182 0.7566 0.015751 -0.77087 0.10243 -1.3682 
camp -0.97367 -0.016972 0.6684 0.24978 -0.74807 0.049634 -1.2914 -0.047816 -0.38645 -0.26946 
dance -0.077232 0.76617 -0.29145 0.76024 -0.15041 -0.35779 -0.94428 -1.1038 1.2051 -0.75898 
prime -1.4564 -0.016258 -0.81277 0.38574 -1.0375 -0.70619 -0.88301 -0.50032 -0.72408 -0.00014954 
heart -0.33493 -0.72833 0.6471 0.35163 -0.3572 -0.39943 -0.76341 -0.98417 0.49942 -0.1907 
cast -0.9194 -0.079931 0.13807 0.57753 -0.48935 0.026424 -0.47299 -1.0134 0.94293 -0.43035 
latter -0.28667 -0.003586 0.090676 -0.15103 -0.86108 -0.17184 -0.73184 -0.53493 0.34862 -0.4831 
train -0.88835 0.6111 1.0758 0.58293 -0.57542 0.2395 -0.83349 -0.49118 -0.25876 -0.12475 
specific 0.37158 0.16335 -0.11689 0.031568 -0.44019 -0.5998 -0.22518 -1.7359 -0.47843 -0.22963 
composed 0.22843 0.39717 -0.26513 0.30357 -0.44348 -0.33277 -0.45432 -0.85374 0.5135 -0.8133 
temple 0.093158 -0.36484 0.38173 0.32606 0.63179 -0.37958 -2.1241 -0.64947 -0.18088 -1.3127 
